1976 128
81814 0.012115888 -0.009867776 0.019814288 -0.043500748 0.033278365 0.015896393 0.046400357 0.020117046 0.033644367 -0.0063723177 -0.013363791 0.0070519764 -0.014160028 0.0037752306 0.037359312 -0.01076366 -0.04049567 0.021183359 0.012777628 0.005884232 -0.011420837 -0.026260655 -0.045998573 0.009245619 -0.016460186 0.0475778 -0.030328948 0.0075032106 -0.025198096 -0.06792199 0.011171509 -0.020912817 0.029863883 -0.020562597 -0.010410031 0.049648575 -0.019877939 -0.008680278 -0.011652548 -0.05345295 0.06605471 -0.012128811 0.0033365353 0.0032341247 -0.02272325 0.016650299 -0.004791867 -0.0047214264 -0.014880479 0.010259846 -0.017755352 0.013922818 0.05636973 0.055779107 0.020656796 0.0074308775 -0.020528369 -0.052550085 0.048252214 0.024063673 -0.011641583 0.07417051 0.016291592 0.021324228 -0.01567383 0.004431539 -0.00045560932 0.013146365 -0.011647875 0.0041770684 -0.0053515593 -0.014721802 0.012657361 -0.008521558 0.0005544436 -0.031763975 0.0140952235 0.015302258 0.020172 -0.0018142133 0.019765718 -0.027565885 0.027200641 -0.04525943 -0.016441135 0.04492374 0.021815538 0.021631932 0.014779138 -0.011313189 0.025773222 0.01183353 0.015697978 0.029898567 0.013202068 -0.03450035 0.057420623 0.04682577 0.026771937 -0.009286004 -0.013368676 0.022720966 -0.030016059 0.023129826 0.027881823 -0.0055576563 0.015328856 0.018506827 0.020297742 0.03158539 -0.0026034964 -0.0078044846 -0.009180299 0.0063872254 -0.023138879 0.01743433 0.013004496 -0.017202873 -0.04114544 -0.01993683 0.0031073617 0.035401475 0.038367555 0.015245658 0.00292422 -0.007727889 0.00062721106 -0.0022122818
81664 0.0037050832 -0.0019619248 -0.0023192223 0.0027430614 -0.00342259 0.00028024227 -0.0009359658 -0.0019193793 0.0030327365 0.0019111915 -0.0008693457 0.0038179613 -0.0033073572 0.000118216485 -0.0013438034 0.0014488611 -0.0006624572 0.00041710414 -0.0012819084 4.0620635e-05 0.0029104915 0.0012126558 0.00093139854 -0.0025056212 0.0015619367 -0.0018091031 0.001183962 0.0005957394 0.001769589 -0.003069871 -0.0026927716 0.0015785717 0.00033290626 -0.0030135885 0.00062744966 0.0036491784 -0.0018099538 0.0031177509 -0.000541136 -0.0022393991 -0.0032156573 -0.00016818214 0.0009820006 -0.0029115926 -0.002267616 -0.003450598 -0.0020812626 0.0014322386 0.0014798029 0.00014686727 -0.0005009736 0.00015614094 -0.00015856768 -0.00028340655 0.0013985174 0.0032150517 -0.0019121699 0.0015304803 0.0038767466 0.0022133472 -0.00043872002 -0.0014396731 0.00062073366 0.0036766422 -0.0011654902 -0.0035349918 0.0034249169 0.0010162807 0.0021015436 -0.00087096525 -0.002548043 -0.0032273286 0.0037010969 5.0885e-05 -0.001288205 -0.00032250982 -0.0028660384 -0.002998022 0.0038133003 -0.0003733064 0.0034914217 0.0020367203 0.0013895787 -0.002699208 -0.0035621224 0.003549365 -0.0031281228 0.0020898774 -0.0022711358 0.0038681526 0.0025358188 -0.00019381271 -0.0010026635 -0.0033949025 -0.0014984583 0.0037325257 -0.0031037969 -0.0030776851 0.00041122708 0.0008410375 -0.0031433601 0.0015242648 7.1369795e-05 -0.0022664268 -0.00090046943 -0.003373457 0.0020033699 0.0018848064 0.003004226 0.0034773191 0.0023241732 0.0007389885 -0.0017848457 0.0004905172 0.00049101614 -0.002189651 0.0017509259 -0.001326941 0.00074011576 -0.0016318122 0.0013319199 0.00059293234 0.003738612 0.0025018426 0.0003520531 0.0033882244 -0.001364621 -0.003364156
81353 0.030319732 0.045266144 -0.012835688 -0.08057035 0.08358012 0.035968795 0.04938877 -0.0052735917 0.087310046 -0.06876088 0.03081531 0.028435096 -0.026495531 0.037673514 0.06187729 -0.05720594 -0.09409057 0.009681204 0.026372042 -0.041289438 -0.048797615 -0.061057273 -0.0641058 -0.007930487 -0.031978462 0.08944144 -0.018070668 -0.021698462 -0.084151015 -0.12497816 0.00222481 -0.033700496 0.0022528619 -0.09127917 0.020969547 0.08698842 -0.014226783 -0.042819913 -0.024841735 -0.123261906 0.12123115 -0.06323531 -0.02789188 0.021211918 -0.055883348 0.07963946 -0.070963696 -0.0077408175 -0.087744065 0.036805168 -0.028789306 -0.058093645 0.12764774 0.09868778 0.06863518 -0.00403844 0.024585009 -0.06650502 0.11563553 0.03351522 -0.09468195 0.1371502 0.04249272 0.065705925 -0.08345943 -0.047068745 -0.02553838 -0.0079544615 -0.044572018 0.05007165 -0.030384835 -0.035161417 0.071464956 0.010137845 0.024849772 -0.058798328 0.070687205 -0.03777368 0.07685561 0.00064979563 0.019534413 -0.06838287 0.056557056 -0.073589474 -0.050142106 0.07712812 0.063951686 0.036935225 0.070024036 -0.008272836 0.05954652 -0.019561386 0.017047906 0.015391371 -0.0031626124 -0.040368464 0.06094296 0.022817692 0.07643184 0.007278621 0.01818448 0.069902115 -0.101667054 0.0310313 0.10823387 -0.008163781 0.0150522925 0.035222646 0.053010702 0.0766513 -0.1210169 -0.056861218 -0.026456568 0.031154012 -0.051391453 0.06327597 0.000474359 0.013677988 -0.1471461 0.0033153258 -0.035853956 0.06929632 0.14257729 0.04824194 0.042477127 -0.027717685 -0.011179539 -0.027988467
81612 0.015042723 0.0042991396 0.016479794 -0.049045667 0.02740392 0.032645583 0.048313126 0.011880463 0.040938642 -0.011052791 -0.019174144 0.004582258 -0.008360919 0.00350043 0.038840026 -0.020022964 -0.04136116 0.009908595 0.02220276 0.008621408 -0.018961102 -0.026347097 -0.05710373 0.0053300248 -0.01155682 0.052282527 -0.027803946 0.00017931724 -0.021349847 -0.060040154 0.013159204 -0.023956625 0.031523388 -0.03713112 -0.00686126 0.05791749 -0.030038346 -0.009570345 0.006756982 -0.061142284 0.07521682 -0.019259138 -0.00917395 0.0104582375 -0.024672663 -0.0011988287 -0.019069672 0.00972295 -0.03048412 0.00535005 -0.037807014 0.01618633 0.06543703 0.07586888 0.028612288 -0.00075368397 -0.008154301 -0.057900894 0.040948115 0.02254468 -0.020435205 0.08178437 0.016487198 0.033759944 -0.0032132976 -0.010908847 -0.0023330578 0.0195164 -0.008301793 0.014697399 -0.0020479816 -0.009958883 0.008841293 -8.322126e-05 0.005719905 -0.018441807 0.011421039 0.014424612 0.029370753 0.0018341778 0.030465454 -0.033144232 0.018630538 -0.055111922 -0.03200648 0.040871978 0.018990934 0.05054984 0.025221206 -0.017536024 0.030124422 -0.004062003 0.015219318 0.031018982 0.017018741 -0.03950107 0.06394702 0.0435517 0.0400668 -0.017900698 -0.018829616 0.015992478 -0.02314213 0.040025875 0.034209445 -0.01491504 0.032387808 0.025303237 0.031238757 0.041130323 -0.009946612 -0.019562148 -0.011359274 -0.005398182 -0.016902061 0.0142447455 0.005826713 -0.019771818 -0.06257059 -0.016349811 -0.003916908 0.037489686 0.041330025 -0.0064727594 0.004469666 -0.00439196 0.014569909 -0.0016768633
81225 0.033940498 0.09304259 -0.13703844 -0.22397222 0.10487101 0.19022106 -0.010536235 -0.18498938 0.010277212 -0.13926803 -0.14399888 0.15337549 -0.034586165 0.021464588 0.15657538 -0.24646327 -0.18907335 0.002379316 0.15905127 0.073353775 -0.27667156 -0.080926694 -0.24431145 0.0015842867 -0.037567068 0.250367 -0.08207333 0.04637526 -0.20570467 -0.121660806 -0.14906514 -0.005938359 0.0031980386 -0.23103617 0.19412746 0.36946815 0.10169869 -0.17826027 -0.16193846 -0.52164966 0.32941929 0.084802665 -0.10189529 -0.054889757 -0.112439975 0.29429826 -0.28799796 -0.012847701 -0.3598083 -0.06735949 -0.23062931 -0.22273044 0.4617549 0.5009168 0.06116961 -0.15297998 0.1913908 -0.30085298 0.066704474 0.0010028142 -0.17200777 0.25185868 0.14633872 0.28213668 -0.06386343 -0.2545299 -0.007034353 0.09373286 -0.25178298 0.4269167 0.18033426 -0.062094484 -0.008444404 -0.050506268 0.08560758 0.026684584 0.22985442 -0.04508369 0.34738633 0.10217052 0.17887579 -0.22987041 -0.03297209 -0.09313775 -0.14733347 0.13033076 0.1175086 0.27683336 0.25322297 0.009332701 -0.053650364 -0.10756256 0.13385004 0.058090504 0.043839302 -0.20850062 0.14867419 0.18324584 0.17508718 -0.018951144 0.016584363 0.05799787 -0.13846257 0.23229635 0.23909827 -0.16324571 0.24019195 0.013363318 0.11836497 0.21593632 -0.300983 -0.2573632 -0.04961156 -0.07321686 0.007392055 0.08624422 0.07879508 -0.020447513 -0.5223148 0.2001216 -0.059142508 0.20453842 0.25464007 -0.16388421 0.03309759 -0.016205663 0.09759087 -0.1222884
81815 -0.0011555281 2.028677e-05 -0.0021198937 0.003123772 -0.00018779139 -0.0026180926 -0.00059888925 -0.00042082835 0.0020950432 -0.0005835034 0.0019232187 0.0012626011 0.0035742882 -0.0025162222 0.002257045 -0.00069881795 0.0019782786 0.002153607 0.0033088392 0.0032269245 -0.0030190363 -0.002729007 8.4807056e-05 -0.0037431545 0.0021027068 0.0012830852 -0.0014045786 0.001446066 0.00023982843 -0.0014185661 -8.534338e-06 -0.0032427139 0.002667266 0.0016961124 -0.0014873712 0.0011926681 0.003799572 0.0008616772 -0.002466123 0.0038333677 0.0029210285 0.0011445617 -0.0024164736 -0.003076399 0.0023678998 0.0017761423 -0.003793144 -0.0038357682 0.0012673489 -0.0030254982 0.0011508873 0.0032059131 0.00052384526 0.0029456245 0.0006995794 0.002990051 0.0020384665 0.0039028397 0.0012901211 -0.001897879 -0.001877546 -0.0026544023 0.0021883554 -0.00032821216 0.0030523832 -0.00061504525 -0.0037475736 0.00022528566 -8.889794e-06 0.0013188256 -0.00019731592 0.00015488059 -0.0010879643 -0.002868016 -0.0016797538 0.0002999396 0.0012002419 0.00095564575 -0.00087388157 -0.0017184115 -0.00011883705 0.003770143 0.0013814329 -0.0011559557 -0.0001190379 -0.0032830823 -0.0023655943 -0.00025676657 -0.0015023324 -0.0021649147 0.0030641186 -0.002810239 0.00042846645 0.0020998765 -0.0029463836 0.0003078119 -0.0008805889 -0.0026140413 0.0031853968 -0.0020805618 -0.0020180463 -0.0020239218 0.0011700103 -0.0010163023 -0.00010590613 0.0032454298 0.0032564043 -0.0007923449 -0.00025333016 0.0029406184 0.0003593442 -0.0021370398 -0.0008820866 -0.0027780575 -0.0027958662 -0.0036661483 -0.002726428 -0.0039004954 -0.0037431542 -0.0033121048 -0.0023614375 0.0022914673 0.0006552143 -0.0025076286 0.0028439132 -0.0020753602 0.0022708913 0.00041451424
81816 0.028576778 0.0272705 -0.0047660074 -0.05138268 0.056965876 0.027719142 0.042184282 0.0011262719 0.059964754 -0.042061433 0.013033141 0.011981411 -0.008603814 0.0132577 0.034079883 -0.035476994 -0.06807311 0.014507574 0.014111754 -0.029817702 -0.02624272 -0.03192892 -0.047203038 -0.009757449 -0.0022132867 0.057401635 -0.014912033 -0.010473674 -0.06462478 -0.088547245 -0.0018610994 -0.02842785 0.0031844832 -0.07352783 0.011022908 0.055886235 -0.009352664 -0.034881126 -0.01876607 -0.07192035 0.07867481 -0.04100964 -0.015226443 0.023954988 -0.04353957 0.040130757 -0.052547604 -0.01070299 -0.05259729 0.015284341 -0.014845364 -0.031585034 0.07791394 0.06541896 0.042110432 0.003025635 0.019564338 -0.04307623 0.08018839 0.029984053 -0.063601635 0.09455564 0.023223886 0.039684918 -0.057448365 -0.029586667 -0.017634278 -0.002601463 -0.02572281 0.025170766 -0.018890968 -0.029204879 0.049896494 0.0059172995 0.010873311 -0.041498754 0.038560107 -0.021431891 0.04768702 -0.005488104 0.005540568 -0.03921324 0.03189956 -0.056197565 -0.037879717 0.0470202 0.042127468 0.024892634 0.03663607 -0.005497122 0.04462227 -0.0121654915 0.012206791 0.018021585 -0.0041600824 -0.024885863 0.042480454 0.022543743 0.047871873 0.009870612 0.0023111624 0.05783579 -0.06755781 0.02207194 0.06296467 -0.001088334 0.01139027 0.023040907 0.03292513 0.055014815 -0.065831386 -0.03420166 -0.006002417 0.01727122 -0.028289523 0.035134334 0.010434976 0.0009541922 -0.08350726 0.00083728257 -0.030305812 0.044875357 0.095900774 0.041717432 0.022961546 -0.012209873 -0.009957346 -0.020387532
81817 0.0029430604 -0.003315878 0.0033223822 0.0027861246 -0.00083985465 0.00057644286 0.0027545432 -0.0010536344 0.0038978113 0.003759165 0.0025284877 -0.0011253634 0.00043895407 -0.001186029 -0.0023113077 -0.0034583171 0.0014395178 -0.002724192 0.0011616657 0.0037312037 0.0009200205 0.0010021933 -0.0005436942 -0.0021863328 -0.002400316 -0.0031460265 -0.0025327336 0.0015655331 0.0030733538 -0.0033605753 0.0018713957 -0.0033190306 -0.003664385 0.0014773274 0.002664584 0.0019204199 -0.00245462 -0.0008071925 0.0014698621 -0.0033309846 0.0005403251 0.0037843608 -0.0025422308 0.002097161 0.000593573 0.00074871455 -0.0020617489 -0.0026165957 -0.0005454837 0.0012317126 0.0012623128 0.0034378485 0.00072452665 -0.003132899 -0.0002665683 -0.0029921539 0.0011685414 -0.003215421 0.0029540502 -0.0008623751 -0.0035854988 -0.0026685963 0.0020930641 0.000790855 0.0018844054 0.0031658 0.00042251518 0.0026979193 0.00056014943 0.0019017535 -0.001569763 0.0038991296 -0.002252352 -0.0028167993 0.0038558582 -0.0029224853 -5.2264564e-05 0.00039322933 -0.0003211495 -0.0012442032 0.0017127192 -0.0027957377 -0.003672518 0.0022215291 0.0027737573 0.00036751857 -0.00033321598 0.0021469134 0.0026619246 -0.0012533538 0.0004396775 -0.0012475908 -0.0036571836 -0.0016070585 -0.0038547493 -0.0009700239 -0.0019748188 0.0013490628 -0.0033161251 -0.00026239033 -0.0012348162 0.0019647614 -0.0018642574 -0.0032176124 0.003450217 0.00013791924 0.0029267566 -0.00033950203 -0.0021355667 0.003181982 -0.002894439 -0.0016447585 0.0016506644 0.00047491462 -0.00032387194 -6.662659e-05 -0.0032447733 -0.0023677018 -0.0022708462 0.0019066848 -0.0024899992 -0.0012555193 0.0030768116 -0.0036019888 0.0017972976 0.0020534187 0.0024459867 -0.0006974348
81818 -0.0049775564 0.15712473 -0.15743288 -0.052429084 0.15488395 0.020004848 0.018383455 -0.10540315 0.10552519 -0.26747948 0.2895299 0.07269725 0.05190818 0.07049501 0.0041905786 -0.16925955 -0.11980891 -0.0018764193 0.13435449 -0.11318925 -0.06985906 -0.010314906 -0.055063527 -0.09908996 0.051671635 0.075557165 0.051942285 -0.06454662 -0.17747419 -0.051023677 0.037543796 -0.059618972 -0.29516846 -0.3064205 0.027914232 0.01976715 0.09052377 -0.2596632 0.011651589 -0.18598466 -0.011888553 -0.18294723 0.010866733 0.002877932 -0.026900923 0.1674654 -0.23083635 -0.06506187 -0.13191997 0.0033373027 0.033493686 -0.34999797 0.04297076 0.11630832 0.022695534 -0.17100951 0.104029916 0.15892151 0.15261751 -0.009844017 -0.31434542 0.17189781 0.005031059 0.137744 -0.27992964 -0.1581707 -0.18266755 -0.10364814 -0.09724117 0.17305978 -0.15696257 -0.14868142 0.25121665 0.075927205 0.08241033 -0.11290104 0.15357259 -0.2510495 0.17391646 -0.017163953 -0.0037292412 -0.16460241 0.06869247 -0.013136645 -0.106309965 -0.03268587 0.15289794 -0.13051641 0.11331095 0.00036849733 0.06960815 -0.11419126 0.016781693 -0.06336717 -0.108964354 0.07489103 0.0448045 -0.20904659 -0.07307466 0.07021528 0.22255115 0.2222299 -0.23695262 -0.114128314 0.21921098 0.06564494 -0.16377577 0.05677254 -0.07910019 0.10551168 -0.36221433 -0.16737114 0.06555537 0.037878033 -0.013303067 0.122942 0.00912866 0.2188277 -0.20708334 0.12316259 -0.16195597 0.07140566 0.23984838 0.09631737 0.075067066 -0.08596835 -0.15163532 -0.049025048
81819 -0.06777673 0.17959379 -0.16366455 -0.025152905 0.18342973 -0.030763034 -0.10402342 -0.14058371 -0.012206702 -0.22802848 0.24113987 0.06528249 0.11791544 0.025896605 -0.03435563 -0.15842602 -0.06697585 0.008955508 0.114073455 -0.08049552 -0.08887603 -0.059670176 0.01857604 -0.11393267 0.05020357 0.07059832 0.044743277 -0.069147855 -0.12565131 0.05014555 0.03455456 0.0017577155 -0.31933874 -0.26818156 0.039941303 0.019533658 0.10423128 -0.2537397 0.0009783125 -0.19779463 -0.036932778 -0.16090433 0.0017186172 -0.085477106 0.019767229 0.18555482 -0.23732832 -0.054089807 -0.12164514 0.0172927 0.07964446 -0.3647519 0.004080851 0.1170737 0.016626112 -0.17710252 0.10621116 0.21547113 0.07955064 -0.05062966 -0.36993212 0.03424249 0.007014897 0.16674165 -0.31949794 -0.12619002 -0.17194079 -0.15091823 -0.10673743 0.20832083 -0.1630096 -0.12147798 0.27422023 0.039475996 0.061917134 -0.090060264 0.17977001 -0.24212094 0.21956815 0.023677463 0.039119687 -0.2010706 0.07537352 0.007895682 -0.06901311 0.06566833 0.14069547 -0.17888875 0.10735448 0.07420403 -0.0072342427 -0.117886215 -0.016027868 -0.15862736 -0.14382337 0.073572606 0.0026500977 -0.27358308 -0.12406589 0.036819108 0.2649227 0.13412303 -0.18175273 -0.104803115 0.20150295 0.05588802 -0.11759647 0.049661264 -0.08709862 0.06919395 -0.36299437 -0.170599 0.052977815 0.0771219 -0.021129355 0.12449229 0.004193018 0.23958027 -0.22954805 0.15894145 -0.20919448 0.07416546 0.16930358 0.022378596 0.07313837 -0.07538144 -0.13140984 -0.076833166
81820 0.012302932 -0.002074469 0.00919635 -0.03544478 0.027584003 0.026127458 0.030877866 0.008944131 0.024134744 -0.0033221527 -0.027188368 -0.0051405043 -0.009608013 0.0014994873 0.027260097 -0.0058203693 -0.033941705 0.009508409 -0.0010302794 0.0116356835 -0.018385518 -0.020481251 -0.041956298 0.011052706 -0.010478949 0.038879838 -0.013422457 0.006863563 -0.018565249 -0.04755136 -0.006093551 -0.0065365685 0.03173974 -0.018882832 0.00637924 0.046470027 -0.01442698 -0.0038371691 -0.019777771 -0.055654626 0.06693302 -0.0025305955 -0.006469138 -0.0015600931 -0.02346395 0.018696161 -0.023658304 0.0070146117 -0.03312347 0.00831629 -0.025722524 0.009092366 0.063907824 0.061337624 0.020915871 0.0068315514 6.402623e-05 -0.060203202 0.028308103 0.014515182 -0.023181384 0.055464856 0.016038232 0.02271217 -0.005064947 -0.012848243 0.0101892585 0.027490037 -0.021234564 0.016151506 0.0032271673 0.0006527169 0.000659076 -0.013721256 -0.00036676106 -0.01665813 0.014067194 0.018446099 0.029523462 0.0062621646 0.01789838 -0.02259708 0.0075542363 -0.043148495 -0.019662425 0.03601091 0.012706339 0.039015602 0.02857144 -0.006972142 0.010456554 6.408216e-05 0.017341442 0.021690685 0.012323795 -0.03295222 0.038104564 0.045295075 0.034065936 -0.013727974 -0.020706246 0.006637186 -0.020216165 0.03761645 0.018740788 -0.013893851 0.03341419 0.008752123 0.03442985 0.02969577 -0.0027049433 -0.015352131 -0.01670498 -0.0036011315 -0.019836428 0.014120986 0.011044724 -0.022441257 -0.053574953 -0.008629143 -0.0012361852 0.030628068 0.033125818 -0.0015607881 0.0016952448 -0.0026906123 0.0134141045 -0.010652013
81821 0.0021969588 -0.00089010486 0.0017840072 0.0005057044 0.00063852506 0.0025550907 -0.003877477 0.0026580794 0.0022096902 -0.0032574853 0.0022854907 -0.0018683905 -0.003421808 0.0025477086 -0.0037569748 -0.0030471021 -0.00018298766 0.0017570144 0.0026458981 -0.001706705 -0.0023592205 0.0025798462 0.0013476255 0.0024377147 0.0038750835 0.0015851406 0.0035214468 0.00060654135 0.0018859506 0.0004205564 -0.00010350247 0.001409492 -0.0026905704 0.000794893 -0.0034855462 -0.0004733681 -0.0022656135 -0.0005907525 -0.0017913824 0.00288635 0.0036611953 -0.00051722606 -0.0022361947 -0.0021173845 0.002885899 -0.0017209395 -0.00054778013 0.002722223 -0.00198305 -0.0024100381 0.0018867762 -0.0033853727 0.0016257555 0.0016688422 0.0029719332 -0.003115554 -0.0024534203 0.0029973625 0.0011306724 -0.0013193458 0.0011149318 -0.0002973601 0.0038059424 -0.0029522623 0.0003036352 -0.0038779536 -0.002320016 0.0009930745 -8.354659e-05 0.0031038087 0.001169061 -0.0014768117 0.0034752097 0.003469312 -0.002202337 -0.003003777 0.0013180838 0.0032211582 -0.0027742544 0.0019271661 0.003303313 -0.0034261902 -0.000842454 0.0020563535 0.0014713906 0.003010108 0.00011487018 0.0013139016 0.0031818866 0.0007065849 -0.001260155 -0.0026744837 0.0024540068 0.0031013757 -4.29554e-05 0.0035742053 0.00030520553 0.0024957256 -0.0019306755 0.0014341656 -0.0009454295 -0.00033071236 -0.0036142755 0.00028934723 0.0009405777 0.0027282024 0.003210156 -0.0021109052 -0.00063509104 0.003121764 0.0010680585 -0.0032380472 0.0019440816 0.0011294505 0.003759998 -0.0032172496 -0.0033844449 -0.0015241661 0.0016991764 0.0004481456 -0.0015643555 0.0017137026 0.003219124 -0.0008868738 0.0020316632 0.003154399 -0.0005536023 0.00045687312
81822 0.009451678 0.037534066 -0.049563378 -0.054977026 0.062055446 0.013030083 0.010167599 -0.03146242 0.017851755 -0.08104352 0.020563995 0.044868965 -0.018513083 0.017286548 0.047143962 -0.087469175 -0.077006415 0.016030855 0.040160935 -0.023098756 -0.04500448 -0.056848045 -0.04889742 -0.010900207 -0.011539229 0.08137035 -0.021539433 -0.000727722 -0.07934684 -0.07949627 -0.011074363 -0.024259461 -0.032928973 -0.10437673 0.04234763 0.097010136 0.008377938 -0.07130604 -0.038666938 -0.12933704 0.09082537 -0.04166391 -0.0358242 0.019725908 -0.053667676 0.11662314 -0.07729693 -0.011348155 -0.06904153 0.011837103 -0.0150849335 -0.090456724 0.09904235 0.11794926 0.056426086 -0.037286937 0.046510965 -0.059054535 0.08972725 0.01590156 -0.10369889 0.09000699 0.04087363 0.097443484 -0.0988149 -0.06606451 -0.027687786 -0.028728772 -0.061845616 0.0886367 -0.022569329 -0.036226645 0.075923055 -0.010531165 0.03794031 -0.0446227 0.07821742 -0.06145215 0.102230154 0.010006026 0.048166517 -0.07716712 0.04537026 -0.040949404 -0.041689362 0.07185323 0.06842884 0.013800952 0.059003767 0.023594027 0.026241114 -0.03107303 0.021675747 0.0116298 -0.027931357 -0.02726619 0.047693558 -0.009552587 0.05653068 0.033196006 0.052137244 0.082647525 -0.100834884 0.015186291 0.11383169 -0.029252218 0.01927935 0.028096687 0.033433232 0.07220035 -0.15898897 -0.0691729 -0.009442708 0.017321523 -0.028434854 0.050322182 -0.0060444092 0.016386831 -0.14798371 0.04736532 -0.033443492 0.06854941 0.10825799 0.018111935 0.06454904 -0.010768049 -0.030646421 -0.05192455
81212 0.022913821 0.014789663 0.016280076 -0.060285494 0.06141637 0.030477151 0.04980393 0.007841881 0.06450323 -0.021018889 -0.009572919 0.0067092148 -0.013471657 0.014692359 0.058892008 -0.029030079 -0.060730495 0.01740068 0.008495097 -0.016237278 -0.03249389 -0.041895974 -0.059790038 -0.0011094941 -0.020817088 0.065954216 -0.020031985 0.0024097431 -0.053124074 -0.095381096 0.008512891 -0.024761342 0.027564416 -0.04789304 -0.0054860935 0.07233534 -0.027633417 -0.031329982 -0.010782042 -0.08537714 0.093196325 -0.027055513 -0.0107309995 0.01083487 -0.03063011 0.03421686 -0.044648662 -0.0052025104 -0.032688916 0.018347962 -0.022295842 -0.0028875535 0.08324011 0.087131485 0.041129887 0.0024370211 -0.0040053 -0.06431551 0.082417384 0.03898719 -0.056226466 0.11522316 0.02713932 0.03534733 -0.045045078 -0.009641978 -0.020517098 0.019632367 -0.022622861 0.01685095 -0.018411616 -0.017455691 0.040002752 -0.008318443 -0.0024069343 -0.04611601 0.037798293 0.0088552525 0.043647505 -0.0066409213 0.020571008 -0.0527117 0.035420775 -0.080281086 -0.045040473 0.067455545 0.036386613 0.037790872 0.036171876 -0.018422477 0.04148576 0.004396472 0.01763636 0.046495643 0.01188657 -0.042161427 0.07018654 0.04636498 0.05707871 -0.008170148 -0.006451358 0.04760427 -0.054377973 0.032814156 0.060098827 -0.00053189765 0.0101921 0.029749319 0.034852296 0.057192832 -0.034690317 -0.031682808 -0.014087942 0.010773425 -0.039592993 0.033480823 0.0056804833 -0.008584924 -0.08416779 -0.008720053 -0.012899393 0.054760814 0.086713485 0.03409155 0.009092267 -0.014797002 -0.00976187 -0.014367206
81823 -0.052841313 0.05475037 -0.09561087 -0.09596809 0.12857275 0.0060628555 0.03183251 -0.037462067 0.03157758 -0.14638163 0.055386774 0.095209286 -0.055279933 0.07947177 0.07455194 -0.13497895 -0.08954996 0.010371226 0.073579945 -0.02037421 -0.05475211 -0.10422229 -0.06273023 0.0027180198 -0.036094926 0.1667731 -0.026949646 -0.0019407687 -0.08815052 -0.16583411 0.009873824 -0.07620231 -0.08516865 -0.15006186 0.050269183 0.14610244 0.019504914 -0.09850743 -0.020936564 -0.21058095 0.10974509 -0.07358405 -0.029802965 0.0044454257 -0.07027455 0.15497136 -0.11335537 -0.049029443 -0.113963015 0.029976236 -0.046734788 -0.114024386 0.10627675 0.18849505 0.07765562 -0.052075304 0.07193094 -0.0446976 0.17300513 0.00107513 -0.17914277 0.1507795 0.06541376 0.16381703 -0.1809665 -0.08557756 -0.079003155 -0.03008354 -0.11024478 0.14171132 -0.0804746 -0.053561978 0.15309411 -0.024896234 0.049365025 -0.08635367 0.14970784 -0.09037037 0.18509549 -0.01200954 0.123722285 -0.15410288 0.08746472 -0.08659675 -0.058865134 0.1305487 0.11462848 -0.007319708 0.07334038 -0.0065417513 0.07584162 -0.060534503 0.021365575 0.009474192 -0.049237903 -0.050372362 0.13352786 -0.020963209 0.040724225 0.03838331 0.08889257 0.09553965 -0.19863605 -0.008447617 0.1789913 -0.031958465 -0.037928753 0.04076736 0.03755265 0.12452299 -0.21275817 -0.13088861 -0.0012769522 0.0048400257 -0.07054956 0.041363914 -0.025831437 0.01368415 -0.20126216 0.095970236 -0.06515304 0.07035922 0.15710688 0.035830867 0.0977698 -0.004842768 -0.049708474 -0.089223266
81824 0.009112274 0.0498928 -0.03741204 -0.06797628 0.09914059 0.013443508 0.037490167 -0.01932247 0.052200466 -0.09109045 0.037537526 0.045705587 -0.023757324 0.03912076 0.054533776 -0.08804532 -0.09265902 0.022265516 0.04656782 -0.04429738 -0.041632522 -0.07017816 -0.04918846 -0.012591883 -0.019932302 0.09965603 -0.017903963 0.0011482415 -0.096331604 -0.12188403 0.006689467 -0.03953658 -0.03627983 -0.1189424 0.036150377 0.10067153 -0.008412953 -0.07831341 -0.034240156 -0.14147177 0.1121901 -0.06577615 -0.0323859 0.020185372 -0.060405273 0.121938676 -0.08893528 -0.025689974 -0.07432072 0.021512529 -0.005852676 -0.09194981 0.09553216 0.12227903 0.07003994 -0.015668588 0.042966764 -0.05727535 0.13250394 0.018308388 -0.13421308 0.120146655 0.043591525 0.0982764 -0.120889135 -0.06285865 -0.03906109 -0.036948893 -0.06318387 0.075645454 -0.050929517 -0.04076828 0.10819759 -0.0014817463 0.028480662 -0.07720892 0.08966468 -0.06208005 0.10308396 -0.010697566 0.04565021 -0.093481 0.065138035 -0.061278544 -0.053189725 0.0987017 0.08751789 0.004446053 0.052241687 0.016583126 0.057048444 -0.02534757 0.02128551 0.014996339 -0.03295954 -0.024826387 0.06488909 -0.0047751525 0.061994694 0.026795248 0.05170522 0.10270734 -0.12374973 0.014872613 0.122492075 -0.013824403 -0.00419231 0.03651808 0.033971246 0.08471446 -0.16183753 -0.07193479 -0.008409419 0.03474381 -0.040807657 0.055648047 -0.003723333 0.027068084 -0.16065796 0.029318267 -0.04495265 0.066620864 0.14805326 0.05973753 0.06608015 -0.02496164 -0.036274236 -0.050210588
81825 0.0052352967 -0.004063568 0.013030231 -0.044666328 0.036369823 0.014376328 0.043571744 0.014252557 0.032172274 -0.009270427 -0.021431556 0.012230577 0.00010562161 0.0107864 0.02884622 -0.015291262 -0.037803046 0.0109862555 0.015307517 0.0076275496 -0.015646117 -0.02743179 -0.041667085 -0.00030878925 -0.021249708 0.050547168 -0.03677785 0.0045517986 -0.021602457 -0.046748247 0.0056291632 -0.013660101 0.02936284 -0.027499879 -0.000387823 0.057567928 -0.027445413 0.004987671 -0.0055132364 -0.045380518 0.06883393 -0.00937278 -0.0154962735 0.0037282868 -0.022595037 0.0020082728 -0.008367511 0.009566344 -0.02813321 0.014897833 -0.031532545 0.018404843 0.05908131 0.06653267 0.027584832 0.014280079 -0.010884015 -0.05374821 0.043586496 0.01659459 -0.00770587 0.06304755 0.0093895765 0.033317834 -0.0068057296 -0.0075780624 0.0010579675 0.017120281 -0.0039080377 0.013505782 0.0046742763 -0.0086752605 0.0002489629 -0.0003052245 0.0005263401 -0.009953962 0.018271029 0.029722562 0.030248208 -0.007045812 0.027171526 -0.018511906 0.018505212 -0.05233601 -0.01490005 0.056268577 0.017610397 0.040408768 0.016396945 -0.022604253 0.03120069 -0.005624677 0.0149112195 0.017932346 0.026148302 -0.037578862 0.054249376 0.042672653 0.03275087 -0.013124317 -0.014638652 0.0063230842 -0.020301739 0.03097798 0.02928412 -0.021417426 0.029048275 0.025936712 0.042674772 0.026909616 0.0039831838 -0.017049003 -0.013810382 0.002333832 -0.015949283 0.0031819814 -0.0023850454 -0.03391312 -0.04372438 -0.013417348 -0.0012392671 0.026492031 0.035242323 0.0020275675 0.0070522227 0.008962697 0.016424188 -0.0111469645
81826 -0.0017881765 0.0036995327 0.0032276749 -0.0016662761 0.0010774741 0.0018007591 0.0010646775 -0.0030191555 -0.0030510454 -0.0035936919 -0.0023374215 0.0011974339 0.0027237632 -0.0016021144 0.0034619235 -0.0027771613 -0.0024597773 -0.00025015598 0.0026021313 0.003206096 0.0032329434 -0.00017820286 0.0036806436 -0.0011317871 -0.0005471267 -0.0032608553 0.0029664843 0.0005209452 -0.00029768414 -0.0015078146 -0.0032680074 0.0024043825 -0.0019885744 -0.00306571 0.0033416129 0.0005003243 0.0018730082 -0.0016777383 0.002944749 -0.0009808367 0.00032124622 0.0038131736 -0.0015217288 -0.0017321807 -0.0011800663 -0.0007081805 -0.0010265635 -0.0018140922 -0.0003295965 -0.0038970064 -0.0013324788 -0.00023260522 -0.0012915384 -0.0030389105 -0.0038601318 -0.0012616416 -0.0028929608 -0.0005957737 -0.001631928 -0.0037708671 -0.0015843919 0.003422017 -0.0014583507 -0.00029289612 0.0012654831 0.0016478107 -0.002444686 -0.00088329974 -0.0030645602 0.00185942 0.00025656554 -0.0010666754 0.00012634127 -0.000459852 -0.002465267 0.003242632 -0.003045019 0.0026319213 -0.0004771544 -0.000754367 -0.002422193 -0.0028623184 0.00025232823 0.0008968653 0.0010574118 0.0017697392 0.0011664551 0.0020003887 -0.0015969884 0.003851171 0.0015237074 -0.0007126904 0.0011728386 0.003497412 -0.0035738954 0.0037546486 -0.0029873077 0.0015981832 -0.0028928553 -0.0003807876 0.0037573953 0.0013480124 0.0008763488 -0.0035838208 3.8394093e-05 0.0029037034 -0.0018899023 0.002046121 -0.0035302495 0.0017815155 0.00019958285 -0.0032896858 -0.00036301825 -0.0001438421 -0.00047205534 0.0008476022 -0.00063291984 -0.00022560985 0.0037728145 0.0016220564 -0.0018011127 -0.0035306409 0.0015453087 0.0007496441 0.00019276683 -0.0030774684 0.00085725717 0.0027760325
81827 0.0065061375 -0.0064730328 0.019253327 -0.026834175 0.021889647 0.015699152 0.033422638 0.011960751 0.015472833 0.0021701215 -0.024227683 0.0012499804 -0.0018123721 -0.0036043252 0.022964606 -0.014819294 -0.026253197 0.017791595 0.017939188 0.010974813 -0.0023958476 -0.008120706 -0.03387414 0.002866134 -0.007862499 0.028801283 -0.016700387 0.009041224 -0.0058321995 -0.025607018 0.003327954 -0.016483935 0.029124351 -0.010993129 -0.00046312774 0.035693347 -0.012588835 -0.005661116 -0.011257891 -0.036457006 0.044490878 0.008581978 0.002424801 0.0008181758 -0.021397771 0.01039373 -0.013335024 6.345002e-05 -0.009431258 0.0040167244 -0.01683762 0.01508231 0.0351988 0.04966552 0.013252603 0.0051276614 -0.003800338 -0.043558985 0.022199316 0.0065828105 -0.0046190484 0.051516764 0.010429128 0.029434541 -0.0013748653 -0.008390068 0.003198819 0.013791933 -0.00576678 -0.00039652744 0.0068330187 0.00019818783 -0.0037694115 -0.0013778168 -0.008826205 -0.010207055 0.014616952 0.020093374 0.017047139 -0.0052972483 0.012982797 -0.015978463 0.002794237 -0.027953928 -0.009189234 0.026384845 0.013640086 0.03132327 0.007468889 -0.0045589614 0.0100805005 -0.00089533103 0.015574886 0.03111631 0.019148136 -0.024821568 0.033594728 0.03346498 0.015664503 -0.0074378736 -0.0018212397 0.01019915 -0.0051410175 0.021179369 0.017529892 -0.0065496173 0.027583178 0.019894857 0.014014839 0.020305155 -0.0004730213 -0.00933396 -0.0006475772 -0.007855438 -0.002571379 0.0043237694 0.004035257 -0.01800315 -0.032247417 -0.011487635 0.008581645 0.019158147 0.022574916 -0.006593007 -0.0051271548 0.0003634053 0.009883014 -0.0060445108
81552 -0.0011266259 -0.00083094573 0.0025312637 0.0015077333 -0.0029758187 0.0010100565 -0.002451994 -0.0023660897 -0.0027805765 0.0009992366 0.002860212 -0.00028121742 0.0031076728 -0.0011675844 0.001687771 -0.0009602606 0.0005323211 -0.000857384 0.00174469 0.0004767077 0.0013179786 -0.0025547442 0.0036548073 -0.0013667609 0.003093155 -0.00180851 0.0020230834 -0.0016917337 -0.0030969484 -0.00197231 0.0038356 -0.0012879539 1.7137698e-05 -0.0027331978 -0.0021876327 -0.0028036933 -0.0013276918 0.0025901198 -0.0017682624 0.0022565906 -0.0013560104 0.0018965326 0.0012266318 -0.0013474884 -0.0032459786 0.0037000126 -0.00021647598 0.0020563346 -0.0033467205 0.0020566557 -0.00066766696 0.002160186 0.0032404794 -0.00048656846 0.00048086824 0.0037431952 0.00061372854 -0.0021434622 0.0019589986 0.001630152 0.0019504022 0.0017879895 -0.0017375706 0.0034639298 -0.0016793443 -0.0010516674 0.0025681148 -0.0013295598 0.0031909973 0.0015000742 -0.0029887857 0.00117424 -0.003075843 -0.0014457359 -0.0012473759 -4.236915e-05 -0.003800712 -0.0017145413 0.002197016 -0.0028458028 0.0034883835 -0.0032138256 -0.0020593065 0.003624345 -0.0018840077 -0.0031191846 -0.0012994144 -0.002358097 -0.0013804736 -0.0018595337 -0.0038531001 -0.002503256 0.0003005102 0.0032540772 -0.002368499 -0.00026127172 -0.0015466725 0.0029385677 0.003491519 -0.0011612453 0.0015700413 0.003221942 0.0013890137 -0.002457002 -0.0017771369 -0.00030427688 -0.00041403924 0.00022661757 0.001152133 0.0032467246 0.0031766333 -0.0003400228 0.00067070813 0.0014414568 -0.0002994652 -0.0011256498 0.0012639897 0.0021064244 0.00079509994 0.0018942716 -0.002157709 0.001055242 -0.0024897489 -0.0032539906 0.0014819242 0.0028154575 0.0017176303 0.002419632
81143 0.010013152 0.043610897 -0.062034808 -0.06772835 0.08450851 0.024239447 0.025901312 -0.016893001 0.05523593 -0.10176966 0.026525807 0.04938471 -0.04389534 0.0367822 0.05646821 -0.08754071 -0.09484775 0.006175954 0.038508523 -0.036882427 -0.046276778 -0.073486015 -0.06364148 0.007727137 -0.015169623 0.10081236 -0.017729212 0.012086552 -0.099114254 -0.14874291 -0.007145028 -0.058844324 -0.026835807 -0.13211992 0.042066753 0.12593792 0.00029480198 -0.08362631 -0.032144666 -0.15919806 0.11584557 -0.05749761 -0.035623744 0.033997554 -0.069938116 0.13072269 -0.08677695 -0.02502694 -0.090038665 0.016607953 -0.025283294 -0.08938515 0.116031766 0.14981265 0.08075665 -0.03578729 0.06249657 -0.08082435 0.13767041 0.027280409 -0.12889391 0.13004822 0.046637543 0.108137995 -0.12591703 -0.069090135 -0.046039544 -0.022518145 -0.08178926 0.105008624 -0.049682613 -0.042544175 0.106823385 -0.021580456 0.046794206 -0.07387157 0.091975585 -0.076881155 0.113144614 0.00584307 0.06572999 -0.0953646 0.060832784 -0.049087368 -0.07293333 0.0913154 0.0889214 0.028413828 0.062093906 0.009587985 0.06029778 -0.028329976 0.019293295 0.023285858 -0.042017285 -0.02492832 0.07664474 0.017717637 0.07645088 0.02934151 0.05406001 0.110359296 -0.14672321 0.005902952 0.11803871 -0.03142436 -0.014006032 0.021931 0.04703689 0.10236878 -0.17265633 -0.090929136 -0.017757976 0.01105844 -0.042898957 0.053238448 0.0007947578 0.002097553 -0.17564075 0.05537899 -0.033860236 0.069890544 0.14906786 0.048127063 0.07620034 -0.017014913 -0.03588737 -0.064819664
81828 0.011642133 0.04288331 -0.027442604 -0.0591729 0.064443626 0.026085941 0.033200428 -0.014005499 0.06586088 -0.05611243 -0.0025496914 0.016580699 -0.020099906 0.026122548 0.04069925 -0.06391673 -0.06922886 0.0103894295 0.028472304 -0.016673734 -0.038422156 -0.041159064 -0.054784708 -0.006279864 -0.017212747 0.0769885 -0.020541003 -0.017417833 -0.06301078 -0.09676122 -0.004463753 -0.026253069 -0.0020539009 -0.073488064 0.026157508 0.087968946 0.0027493131 -0.037906174 -0.026267 -0.10379197 0.10236114 -0.035459522 -0.030976817 0.0117929075 -0.055409122 0.058639493 -0.07055989 0.0006266843 -0.08648022 0.01653268 -0.03961764 -0.044267744 0.105189286 0.08671713 0.057885505 -0.004318928 0.04351186 -0.06446471 0.079949826 0.021085339 -0.057481285 0.10452292 0.028580967 0.0697268 -0.051980563 -0.061903972 -0.012057806 0.002892409 -0.04242523 0.055365324 -0.007950242 -0.032691315 0.047049962 0.018107774 0.016352143 -0.03698439 0.050954208 -0.021458872 0.06609668 -0.004139804 0.024242273 -0.061244458 0.02043571 -0.06367218 -0.031176906 0.0654867 0.055039585 0.044029783 0.04687817 -0.009724351 0.0477833 -0.025930932 0.016306957 0.018924685 0.0014729138 -0.03530292 0.061727725 0.02969446 0.063245445 0.004529594 -0.0005895622 0.052108634 -0.082487725 0.044708945 0.08557333 -0.027104601 0.027292527 0.01739072 0.050994787 0.0673269 -0.09505045 -0.062031012 -0.0057252105 0.011923175 -0.037415534 0.0344885 -0.0043727043 -0.004990751 -0.11795728 0.023075795 -0.03980204 0.046264995 0.0909347 0.03463597 0.034794185 0.0026268126 0.0013400001 -0.02804341
81829 0.01474811 -0.00095492613 0.008443545 -0.04183562 0.022917565 0.015290722 0.029536193 0.004855537 0.03304509 -0.0063644 -0.022812342 0.012095869 -0.002176285 0.005006129 0.022226183 -0.024043463 -0.034719262 0.016235253 0.020352587 0.0116270995 -0.01895068 -0.02225212 -0.03503653 0.0018710901 -0.013784562 0.04180788 -0.025649112 -0.00046405743 -0.019522537 -0.035911776 -0.0053378735 -0.012822022 0.019565484 -0.017721038 -0.0014849773 0.048187602 -0.019355252 -0.0031423147 -0.0112749 -0.04213354 0.057538256 -0.0060446747 -0.011911866 -0.0016097964 -0.017363599 0.0019766681 -0.011890782 0.0050357026 -0.01901007 0.006239682 -0.031848054 0.009138663 0.053948745 0.05179884 0.014502882 0.011731213 -0.009026667 -0.045506384 0.030512605 0.010666685 -0.0062763295 0.052527357 0.012132155 0.02691161 0.0005839624 -0.009587153 0.006040685 0.018846886 0.0002017144 0.005021876 0.006448221 -0.008708417 -0.007872701 0.006800751 -0.0015099788 -0.0066791847 0.010843391 0.022950407 0.030224916 -0.0034289723 0.012036573 -0.018236695 0.014282554 -0.04182868 -0.007823698 0.039953176 0.010836417 0.038352042 0.014454841 -0.013705836 0.02078622 -0.004095567 0.021754818 0.023947107 0.024651479 -0.036580734 0.038722195 0.034991954 0.020734878 -0.012983181 -0.013258897 0.0068854736 -0.0087814275 0.041323002 0.017560223 -0.010273603 0.03431356 0.02001368 0.02765993 0.029957827 -0.0011143865 -0.010329502 -0.009043045 -0.00023293986 -0.009762867 0.0016367326 0.0032930446 -0.013745193 -0.03564669 -0.014190479 -0.005644009 0.025862794 0.024749167 0.000107620865 0.00028382638 0.0007208645 0.020884294 -0.0011368863
81535 0.0018025436 0.0038724642 -0.0015539891 -0.0014515247 0.002067711 -0.0032915026 0.001687851 -0.0011510393 0.0008219938 0.0020081685 0.002269343 0.002059442 -0.002460169 0.0028386717 0.00059061724 -0.0032197582 -0.00031539061 -0.00058351725 -0.00022554096 0.0030589607 -0.003880895 -0.0034226896 0.0031815702 -0.0032523817 -0.0010783809 0.0012520719 -0.0034436593 -0.0015557245 -0.00037543775 0.0037410227 0.001248589 -0.0023079712 -0.0027351815 0.002336683 -0.0035643436 -0.0024734326 -0.0025921327 0.0031825847 0.0032652947 -0.0025934805 -0.0031402807 -0.0031847525 -0.0034564608 0.003133084 0.0022518262 -0.0003324303 0.0006163564 0.0017149266 0.0011869932 0.0011448972 0.0025029816 0.0029865778 -0.0010775091 -0.0013992616 -0.0006452084 -0.0027706223 -0.001644809 -0.003102485 -0.00055154506 -0.00080268324 0.0038889106 -0.00041911754 0.0028189921 -0.0027018944 -0.0029541124 -0.0030694075 -0.0013478725 0.00056584156 -0.002662091 -0.00071855716 0.0005295433 0.00079213857 -0.0022188795 -0.0009411808 -0.003280474 -0.00093353307 -0.0008951628 0.0014109866 -0.0010214474 0.0024497167 0.00045443198 0.0029065632 -0.0034571711 -0.0004118684 -0.0008415529 -0.0003220403 0.002916512 0.0019800405 0.0025665099 0.00096109667 0.0015947762 -0.00058492366 0.0003600308 -0.0028477951 0.0030769997 -0.0017848609 -0.0019909828 -0.00082427886 -0.0011859806 0.0031019193 0.00018326963 -0.001467115 0.002630257 0.001694658 -0.0038924902 0.0009944683 0.0011644155 -0.0025255068 -0.0013787401 0.0026653814 -0.0014529978 -0.0020241262 0.0028355466 0.0032249056 -0.003111891 0.0030381274 0.0023298191 -0.00079923513 -0.00012505011 0.0025021483 0.0018861464 0.0030028159 0.0024197653 0.003670747 0.003703852 -0.0013055123 0.0026591702 0.0019854757
81830 0.008765606 0.085789666 -0.10263253 -0.22206877 0.20586395 0.089485146 0.18897898 -0.019388603 0.18705624 -0.21175164 0.028261755 0.13294412 -0.06070478 0.12426686 0.18343282 -0.17905487 -0.22296983 0.021365898 0.07384665 -0.010550601 -0.11662497 -0.1615041 -0.22364157 0.00048352493 -0.07062921 0.27146193 -0.079284996 0.01224312 -0.22391683 -0.33961198 0.032141645 -0.13078003 0.024341742 -0.25867885 0.06595483 0.29484957 -0.047862858 -0.16288951 -0.0407875 -0.38779798 0.3147759 -0.13412927 -0.06458044 0.07674122 -0.13004921 0.20167841 -0.1988514 -0.04269504 -0.26686496 0.035044704 -0.15570681 -0.08254157 0.33045626 0.35881913 0.16281354 -0.054068256 0.06480724 -0.21157296 0.29909635 0.0832315 -0.26084968 0.37792936 0.09122066 0.20474224 -0.19983125 -0.1295008 -0.117792614 0.032868292 -0.15324038 0.20776957 -0.05005636 -0.06602618 0.18936224 -0.038384896 0.071867585 -0.15660256 0.20802742 -0.0759334 0.2366508 -0.0023055205 0.16004702 -0.21604778 0.1087055 -0.19874388 -0.17369345 0.21308753 0.16225822 0.1281815 0.19376445 -0.06900732 0.16291603 -0.08109619 0.05727791 0.07471745 -0.03101988 -0.154702 0.26075482 0.116709664 0.18729664 -0.0019511885 0.029092489 0.15982543 -0.27136567 0.101290785 0.2552079 -0.0473159 0.028449677 0.08157682 0.14120713 0.24082361 -0.24559385 -0.18411894 -0.035671163 0.0016579459 -0.11600676 0.08152765 0.015329976 -0.05073706 -0.41098902 0.06739099 -0.083241336 0.17620866 0.3605859 0.05868562 0.10517116 -0.0397074 -0.013729511 -0.10447407
81180 0.035298035 0.07369224 -0.12190181 -0.19997336 0.08682845 0.18819396 0.0028141723 -0.15798427 0.01797739 -0.12462163 -0.13356717 0.13960035 -0.04507474 0.018373406 0.15761298 -0.20945102 -0.17401294 -0.009307736 0.12700112 0.065814815 -0.251813 -0.07038738 -0.2281396 0.0040729474 -0.034036323 0.2223254 -0.08166579 0.045821004 -0.18354706 -0.12425812 -0.14345881 -0.008538141 0.015922029 -0.19952045 0.17202145 0.33942536 0.092585266 -0.15895583 -0.15476376 -0.47928426 0.3142501 0.080675624 -0.10323984 -0.037763044 -0.12568823 0.26553875 -0.25873196 -0.013467443 -0.33355358 -0.051397257 -0.21417958 -0.17829628 0.43700513 0.4658824 0.058817524 -0.1407367 0.16977088 -0.28438622 0.06535326 0.003648633 -0.16520217 0.2382518 0.1305481 0.25588056 -0.04422625 -0.23600599 -0.013645424 0.09555842 -0.23688953 0.373754 0.16800618 -0.0473021 -0.009650622 -0.05433635 0.08192939 0.024190923 0.20332552 -0.039143376 0.31213018 0.092865616 0.16488184 -0.20116477 -0.03855827 -0.094277985 -0.14769135 0.11659431 0.0952012 0.26184207 0.24499243 0.0073126764 -0.043377057 -0.098567724 0.12065004 0.06412786 0.037670754 -0.19926819 0.13449036 0.1728003 0.17406932 -0.012567909 0.003253553 0.055342097 -0.13694136 0.20280805 0.2061607 -0.14204428 0.22436702 0.009772409 0.123545766 0.2062473 -0.27040383 -0.22001481 -0.044388484 -0.071642995 0.001750099 0.067456104 0.06965875 -0.036812842 -0.4822206 0.17342797 -0.049786158 0.19076277 0.241601 -0.14189647 0.032846272 -0.007281114 0.08234576 -0.11746802
81831 -0.039945092 0.12947528 -0.1803495 -0.10325854 0.11428769 0.03145489 -0.02332904 -0.09581784 0.14008476 -0.2366252 0.15616666 0.034145705 -0.038590904 0.06742535 0.013695421 -0.16267978 -0.10355442 -0.017466582 0.10838043 -0.03886881 -0.082991906 -0.10166053 -0.055624858 -0.055788137 0.01844801 0.1700658 0.058045153 -0.06906788 -0.1101188 -0.185855 0.019858403 -0.074350424 -0.20652318 -0.23928377 -0.013936617 0.14812885 0.073330276 -0.21412675 0.025871381 -0.23397544 0.05923267 -0.18862356 -0.02412101 -0.021385778 -0.024219463 0.144508 -0.18498741 -0.0354784 -0.17267543 -0.0144173 -0.060582977 -0.2739682 0.13632117 0.13734573 0.06256055 -0.12351627 0.12159134 0.07270085 0.17522661 0.011662382 -0.23682544 0.22105819 0.06247399 0.13445206 -0.24268357 -0.06482075 -0.11145244 -0.03630808 -0.10033777 0.20722754 -0.16157918 -0.099818826 0.20040178 0.022156037 0.079779975 -0.13487466 0.089793265 -0.17529319 0.19332993 0.0037070874 0.067641094 -0.20480217 0.078986794 -0.10896137 -0.10335392 0.061241023 0.15007682 -0.06769807 0.1273971 -0.022644203 0.10278598 -0.062285375 0.03980094 -0.062848955 -0.09585786 0.011370841 0.10523536 -0.07309412 -0.0009013868 -0.018866023 0.13769177 0.13587113 -0.24595612 -0.0006234426 0.19658408 0.01889095 -0.13605675 -0.0017812408 -0.023670638 0.15027931 -0.30879533 -0.18790074 -0.0012914969 0.004905047 -0.10816218 0.10884266 0.032788888 0.14700836 -0.23217903 0.111148186 -0.20676637 0.10928106 0.14132495 0.0325496 0.061579727 -0.053017203 -0.020798605 -0.047152255
81832 -0.043256994 0.057415172 -0.096475676 -0.12573308 0.11069434 0.036317825 0.03167633 -0.03541687 0.07044909 -0.14539827 0.060963884 0.087306134 -0.058718584 0.0830626 0.08351736 -0.13523461 -0.10237151 0.017251123 0.08314534 -0.0117018875 -0.07261791 -0.097066425 -0.057735443 -0.007579868 -0.018804703 0.17489618 0.002615378 -0.011068515 -0.09970376 -0.18874048 0.0057866247 -0.07293675 -0.07885161 -0.15632679 0.017989498 0.16225033 0.03150949 -0.13282233 -0.013054622 -0.22724356 0.10604223 -0.087016955 -0.020059032 0.0010996424 -0.050430894 0.15329763 -0.12663516 -0.053805806 -0.12718318 0.00913995 -0.06097863 -0.14009985 0.14263622 0.19703335 0.0690641 -0.05927332 0.08321466 -0.03092341 0.17762496 0.011536332 -0.1945811 0.18859237 0.07947743 0.15578389 -0.18776594 -0.06515185 -0.07839975 -0.0104632415 -0.113310054 0.158116 -0.08556608 -0.058450863 0.15329494 -0.03444228 0.058991496 -0.107538216 0.1279474 -0.097663336 0.18435611 -0.013269601 0.100640595 -0.16610265 0.0961107 -0.10213018 -0.071974404 0.114433244 0.12998237 -0.0016095092 0.10748847 -0.021506052 0.0791691 -0.054080077 0.044609077 0.026675513 -0.05297387 -0.04304933 0.1395054 -0.010342188 0.047018 0.015904384 0.09356954 0.10624807 -0.21012558 0.010236739 0.21388873 -0.009055157 -0.05454045 0.038720213 0.020507155 0.15557574 -0.22542071 -0.1445537 -0.016428532 -0.007546348 -0.08674925 0.067746185 -0.000975795 0.044586435 -0.21103859 0.0913317 -0.0881653 0.09368846 0.18169834 0.026703278 0.07329896 -0.022755472 -0.043689724 -0.07586007
81833 0.02983946 0.032339033 -0.003607494 -0.068715386 0.07632182 0.031530663 0.051251166 -0.0025024447 0.06278461 -0.049339462 0.019273035 0.026537182 -0.008412244 0.024991587 0.052174263 -0.050718404 -0.08000787 0.018371752 0.0386452 -0.020611823 -0.03409333 -0.044322714 -0.05447103 -0.0054208217 -0.016470945 0.08142113 -0.025824238 -0.0011376324 -0.069533855 -0.09866032 0.004393979 -0.039470393 0.0041347565 -0.08716668 0.016097113 0.071290225 -0.010481622 -0.045179904 -0.018117499 -0.107518286 0.10029546 -0.048168596 -0.0076375534 0.017552909 -0.051132858 0.05987756 -0.06537742 -0.021786803 -0.06040548 0.02262438 -0.018793132 -0.03649677 0.088073514 0.09797994 0.047657274 -0.0063725095 0.005419833 -0.059426222 0.09781655 0.027017275 -0.08080234 0.12203531 0.028092155 0.06776415 -0.07157878 -0.04585202 -0.031828254 -2.5824338e-06 -0.030301021 0.038063016 -0.025306234 -0.038498867 0.06328666 0.010899936 0.013632366 -0.051555235 0.05745342 -0.024852877 0.06605525 -0.013090056 0.022888836 -0.0681441 0.033955872 -0.07212376 -0.0463413 0.065716244 0.045618195 0.03256327 0.038610317 -0.005677786 0.050696302 -0.02336517 0.016625443 0.035818055 -0.0005279825 -0.034826286 0.07299245 0.027869634 0.042447764 0.0057993745 0.012308488 0.0641687 -0.08289604 0.026243925 0.08915479 -0.0059296796 0.012615303 0.033301704 0.03428762 0.06522801 -0.083056346 -0.04403532 -0.010244961 0.024861122 -0.019272298 0.041419793 0.008948293 0.0065618595 -0.11249628 0.0025086862 -0.024415936 0.056605812 0.11971819 0.04171897 0.029427484 -0.019815072 -0.020225778 -0.017131694
80994 0.020137558 -0.0009587956 0.020504674 -0.0409064 0.025443943 0.023798803 0.041402865 0.01531069 0.034730736 -0.0014846297 -0.009731791 -0.0021583443 -0.010703094 0.011680077 0.02735046 -0.0052864314 -0.036904994 0.012206163 0.0088364305 -0.0023006187 -0.006206117 -0.010803834 -0.032218195 0.0061139604 -0.010131432 0.032920726 -0.020274369 0.0049387654 -0.021985367 -0.054909 -0.0059026764 -0.011116394 0.03633507 -0.019191729 -0.0018159805 0.03647912 -0.015569224 -0.0073439605 -0.009518776 -0.03482903 0.06304324 -0.010950513 -0.004841066 0.0094260685 -0.020607132 0.012549566 -0.011592424 0.0012038256 -0.02260723 0.011481256 -0.012840381 0.0138321305 0.05322926 0.04506666 0.025409598 0.016234167 -0.0036599967 -0.053685356 0.039349128 0.015962947 -0.012328349 0.059951566 0.016124656 0.019213937 -0.018050754 -0.00634342 0.004828654 0.016371747 -0.0111922845 0.0004468722 0.00039684243 -0.0008965019 0.005135384 -0.0060845846 0.00121602 -0.02409978 0.0074385796 0.006377304 0.01362059 -0.0034312236 0.0093201995 -0.008746343 0.014408406 -0.037800495 -0.020586673 0.030639658 0.012963979 0.027276628 0.017938945 -0.0098041585 0.026141824 0.007578511 0.01209133 0.030915944 0.014504216 -0.027174795 0.034327712 0.036324628 0.036827367 -0.002409857 -0.013864954 0.023239939 -0.024739916 0.023665994 0.031555362 -0.006133501 0.017408611 0.012418189 0.026126437 0.032641746 -0.012331268 -0.0058281375 -0.011287887 0.009160237 -0.01954998 0.0136088105 0.0056895064 -0.021857334 -0.042466182 -0.011665634 0.0056251828 0.031255018 0.043338604 0.014551739 0.003223333 -0.00028207464 0.0056911805 -0.009291321
81441 -0.02144481 0.04658755 -0.049605075 -0.09681641 0.11168957 0.026839504 -0.0027811523 -0.043483164 0.033295803 -0.09300495 0.04646064 0.04666467 -0.0027469392 0.037701216 0.055217594 -0.08833554 -0.07054294 0.024917949 0.06919848 -0.009606472 -0.07214122 -0.077536374 -0.048322078 -0.021718448 -0.018752148 0.11659168 -0.003454056 0.0009619368 -0.07944463 -0.098219864 0.018101467 -0.031686485 -0.06063046 -0.12785149 0.00543567 0.12741952 0.016552081 -0.11800821 -0.009682193 -0.19454066 0.086954854 -0.063213564 -0.0092336675 -0.029000683 -0.02891588 0.12023187 -0.10733229 -0.029467514 -0.07569981 0.022055639 -0.03304436 -0.12232296 0.10046781 0.16980344 0.031554095 -0.06473942 0.044234034 -0.016344467 0.11005611 0.007153144 -0.17764175 0.13141043 0.047706183 0.12875739 -0.15476906 -0.055765506 -0.07448248 -0.012852219 -0.08333735 0.113761395 -0.06978674 -0.046900276 0.11511435 -0.016177192 0.0234035 -0.07151318 0.0964663 -0.062627904 0.15813577 0.008698935 0.0752516 -0.14049995 0.058439277 -0.09200328 -0.055241425 0.108559445 0.08034525 -0.012385043 0.079348385 0.012039978 0.01797632 -0.02539012 0.037634738 0.005463886 -0.03564975 -0.048156187 0.09339282 -0.018082986 0.008051493 -0.013147211 0.09042158 0.08142077 -0.13352817 0.014130701 0.16333787 -0.005423507 -0.037737705 0.027554547 -0.012444064 0.10520397 -0.17148644 -0.097777724 -0.011462575 0.0041991198 -0.05591814 0.05486551 0.016628146 0.06688744 -0.18641168 0.06382043 -0.078572646 0.08640331 0.12711743 0.0072233467 0.027681334 -0.029961595 -0.048341557 -0.03137188
81026 -0.026843399 0.11033025 -0.11735436 -0.07588219 0.13036907 -0.00095650466 0.0028805211 -0.052626558 0.058535576 -0.16606793 0.11119704 0.06268224 -0.013073865 0.08589641 0.02728932 -0.1434873 -0.094121955 0.016381823 0.07693305 -0.06421365 -0.05645787 -0.051318504 -0.02599709 -0.06113181 -0.008280002 0.14748146 0.010630597 -0.042697247 -0.12813473 -0.124532685 -0.008230617 -0.042073037 -0.11638427 -0.18396072 0.06425932 0.08935497 0.063416585 -0.13750745 -0.013747062 -0.16386294 0.09411147 -0.11590797 -0.043061495 -0.003108265 -0.044889607 0.1534648 -0.15506259 -0.0409833 -0.14929429 0.032711312 -0.00356387 -0.20046099 0.0989969 0.095601164 0.091900654 -0.04115278 0.12869875 0.010199081 0.16164894 -0.008371951 -0.15908857 0.13165064 0.044397168 0.14297548 -0.18954228 -0.11973642 -0.07724692 -0.060196176 -0.08450868 0.14460197 -0.063760735 -0.076069824 0.17074952 0.038758986 0.05354051 -0.06928287 0.1272626 -0.13064702 0.158546 -0.014387426 0.03385289 -0.12076904 0.06486727 -0.06834391 -0.058550194 0.09378306 0.13192679 -0.025736265 0.07678613 -0.013828309 0.07577194 -0.075678125 -0.0060655205 -0.032721 -0.058224224 -0.010585982 0.07270162 -0.06648624 0.030906886 0.04434693 0.10099794 0.13124411 -0.1971594 -0.0130109675 0.19275828 -0.02797085 -0.057197936 0.03459075 0.027780859 0.105322644 -0.2609486 -0.14732444 0.022816839 0.046736218 -0.06358585 0.07403886 -0.027504226 0.072207235 -0.19053619 0.10189661 -0.11040602 0.044468988 0.17406555 0.08717858 0.09189603 -0.009044327 -0.065202504 -0.07221221
81834 -0.043276157 0.2631812 -0.2841629 0.029166024 0.2185688 -0.053057004 -0.12133967 -0.17336102 -0.015413019 -0.27302656 0.33487716 0.10700463 0.22425295 0.15592036 -0.08332909 -0.13252252 -0.118378036 -0.060348313 0.08236593 -0.22243997 -0.14089917 0.056724153 0.0633921 -0.17178375 0.024189375 0.08019489 0.06885116 -0.09668549 -0.2205742 0.09627405 -0.008162387 0.04090522 -0.32851416 -0.32139128 0.16505471 -0.0721272 0.1943419 -0.24278755 0.05669965 -0.117606245 -0.013782817 -0.18383497 -0.036325466 -0.024680775 0.032253336 0.14939004 -0.3128611 -0.09673301 -0.28369012 0.07627817 0.1407762 -0.43871114 -0.001371762 0.06364149 0.093214706 -0.25072858 0.20523 0.25579336 0.12383105 -0.0133147305 -0.39539972 -0.027077606 -0.009989765 0.121023886 -0.32391715 -0.27145875 -0.2244175 -0.19201013 -0.07109068 0.28276956 -0.07320373 -0.13871807 0.3657233 0.08779332 0.07577116 -0.04762633 0.26767305 -0.37274316 0.20037945 0.03466942 -0.059967656 -0.180261 0.027299447 0.056705184 -0.16143599 0.0027528699 0.2057612 -0.12860218 0.15353929 0.05115153 0.038915593 -0.21590748 -0.15268053 -0.21964796 -0.2057932 0.15381579 -0.025055345 -0.35028228 -0.085831985 0.1395075 0.23397304 0.24285801 -0.19572565 -0.15822692 0.23357467 0.012871927 -0.1466391 0.10884436 -0.008482527 0.020309376 -0.4641576 -0.24720277 0.15745448 0.15536328 0.015378625 0.16132417 -0.051152773 0.23903793 -0.2605304 0.28825507 -0.23912255 0.0056283684 0.34415576 0.15655698 0.1553002 -0.10890318 -0.21102463 -0.1608078
81835 -0.06465279 0.19447155 -0.17832817 -0.08025764 0.16573976 -0.082124 0.021274721 -0.027590742 0.060688015 -0.2832121 0.33179286 0.059941858 -0.015343441 0.114100166 0.038031355 -0.1698055 -0.1005986 0.092490844 0.11751657 -0.21384224 -0.05089585 0.01486558 0.017201887 -0.14613172 0.021594038 0.20501788 0.097846754 -0.082786635 -0.25842276 -0.14461337 0.051248368 -0.0647605 -0.17086762 -0.24708135 0.117672674 -0.06797343 0.14611465 -0.2632154 0.009100615 -0.16592109 0.087170854 -0.24625924 0.032200683 0.019891504 0.022432502 0.32680884 -0.27989215 -0.10639935 -0.23107886 0.06964581 0.09777549 -0.41661423 0.08718296 -0.044343755 0.095223255 -0.085936576 0.16511549 0.1185053 0.2682298 -0.0297183 -0.2860423 0.13089086 -0.026205873 0.14950025 -0.31955492 -0.20745127 -0.15634105 -0.14317739 -0.106431715 0.18841454 -0.08823588 -0.15455917 0.40741062 0.15831897 0.067682005 -0.18657257 0.13833001 -0.33811793 0.17464094 -0.054680597 -0.0905787 -0.05600866 0.09882098 -0.06719453 -0.11279057 0.06227823 0.20333545 -0.17220856 0.16438352 -0.009742795 0.10171054 -0.13553102 -0.040054634 -0.12290714 -0.21658608 0.047339007 0.0044430564 -0.18999693 -0.047666643 0.044720996 0.20775893 0.25011224 -0.2915647 -0.070864186 0.28925508 0.013817381 -0.1940007 0.035731614 -0.025249384 0.11582544 -0.43738914 -0.15192461 0.1236155 0.13542555 -0.106862195 0.1515896 -0.09180644 0.23105416 -0.24108389 0.10250501 -0.16039428 0.0069640456 0.37009415 0.26358238 0.10432967 -0.08642752 -0.17575453 -0.12630318
81836 -0.037989356 0.26097527 -0.18155657 -0.0013124926 0.20151465 -0.07069605 -0.18634658 -0.21302597 -0.1407728 -0.22120294 0.21816038 0.14138615 0.28814033 0.024664065 -0.112634525 -0.2552026 -0.09660393 0.08843172 0.19149174 -0.09826518 -0.12385355 0.070414215 0.09400434 -0.2269465 0.10532446 0.056329068 0.038901556 -0.035375215 -0.1463299 0.27181152 -0.056150407 0.10961631 -0.35346267 -0.3344581 0.17822908 -0.010009355 0.19617778 -0.30851477 -0.057681605 -0.18869646 -0.025691412 -0.087883934 -0.010307816 -0.13300459 0.020964798 0.270539 -0.34608778 -0.09852074 -0.17977619 0.02388715 0.17391537 -0.48730764 -0.01781795 0.12182315 0.04907224 -0.22877207 0.18000121 0.2023732 -0.030833397 -0.12999545 -0.3730522 -0.1200814 0.017246276 0.2676581 -0.31641892 -0.32431155 -0.15151408 -0.21530427 -0.040615745 0.30623284 0.029933086 -0.11955742 0.28773558 0.09587994 0.07089178 0.01917816 0.2565495 -0.25728634 0.28220078 0.035655055 -0.06590961 -0.16619864 -0.015065603 0.097008 -0.026246399 0.0708812 0.16249037 -0.14625953 0.09665919 0.15120132 -0.08445742 -0.20638123 -0.042829055 -0.19435829 -0.10530232 0.11415953 -0.123753436 -0.37008452 -0.16162275 0.10721018 0.2912689 0.16762155 -0.09033042 -0.05338544 0.2758542 -6.118761e-05 0.012091422 0.116138205 -0.09151913 0.029455282 -0.51284933 -0.20151848 0.13428867 0.15966468 0.12650864 0.15421408 -0.039620124 0.3007765 -0.29508922 0.24935733 -0.21781726 0.0575588 0.21633409 -0.018883778 0.0714827 -0.06252802 -0.14815095 -0.11043681
81837 -0.03299024 0.1938285 -0.13886297 -0.0036112065 0.17450045 -0.070395984 -0.1684767 -0.17896165 -0.14981814 -0.16668877 0.17828682 0.10299878 0.240137 -0.032638002 -0.05335186 -0.23866785 -0.0477408 0.08815905 0.17998531 -0.07496704 -0.118957855 0.037191764 0.03416137 -0.19113944 0.08250239 0.049448375 0.02046801 -0.0325544 -0.12712096 0.28175277 -0.021889752 0.10314874 -0.32839403 -0.2656987 0.14374831 0.033906404 0.16286543 -0.2692011 -0.06678148 -0.2125971 -0.015971947 -0.046042215 -0.029976375 -0.12466387 0.013929698 0.25930846 -0.33861285 -0.07035223 -0.100902624 0.016835287 0.15381518 -0.45095506 0.0002492093 0.16730075 0.011949467 -0.2047858 0.15277164 0.17277376 -0.037249204 -0.12899083 -0.3589502 -0.07225049 0.008753088 0.2561406 -0.26565576 -0.27513334 -0.119186535 -0.14622615 -0.0788928 0.27483445 -0.004492029 -0.12388691 0.20920661 0.095928386 0.015343372 0.011016042 0.21526437 -0.20447665 0.24956502 0.027127441 -0.049173616 -0.17757422 -0.00061725936 0.07462695 -0.01554668 0.07777808 0.13611734 -0.11635975 0.07285889 0.17583163 -0.14377303 -0.17766576 0.0025374684 -0.15236175 -0.1014662 0.053168766 -0.058888167 -0.3128167 -0.1420241 0.08414723 0.27338687 0.13920237 -0.08625573 -0.025534324 0.23252438 -0.013072412 0.050228585 0.1021635 -0.088841796 0.019301018 -0.4353712 -0.14659576 0.12358886 0.0999817 0.11121057 0.14843099 -0.018331688 0.26893348 -0.26564726 0.21046044 -0.17838153 0.069955 0.16208842 -0.010653164 0.064622894 -0.034080707 -0.13924606 -0.10259144
81838 0.026465392 0.019894173 0.00089355384 -0.05476286 0.040740676 0.042958375 0.039241277 -0.0044383467 0.051724512 -0.036325555 -0.014326557 0.012057658 -0.02914785 0.007361048 0.056563284 -0.020836882 -0.05636743 -0.0021730422 0.012378363 -0.003095265 -0.03986135 -0.04341635 -0.06332507 0.010690587 -0.010882658 0.056962814 -0.01694067 -0.006965212 -0.044702094 -0.081965655 -0.005103489 -0.023496632 0.019596733 -0.04844313 0.007926504 0.07541414 -0.012420255 -0.029373085 -0.023430778 -0.09552484 0.091251075 -0.020330584 -0.017574303 0.015528284 -0.048635256 0.0519947 -0.045385905 -0.0028518648 -0.05807993 0.0073174927 -0.03846401 -0.01219616 0.09919404 0.09499951 0.03670324 -0.0089447675 0.0071556526 -0.06946333 0.059963763 0.029450547 -0.060952336 0.09844602 0.02215657 0.04158102 -0.03214921 -0.024128892 -0.013015287 0.017131364 -0.046159256 0.038060784 -0.00663685 -0.01952172 0.027476212 -0.0066377674 0.02038958 -0.039863028 0.039563455 -0.0129630435 0.051661722 0.005911909 0.034916233 -0.040057864 0.0153039675 -0.055326015 -0.045845546 0.046756856 0.0321437 0.046605192 0.055385 -0.0042375815 0.02638739 -0.011590776 0.022607328 0.0299008 -0.0019810812 -0.035446003 0.048567556 0.040830288 0.05514015 -0.0067976606 0.00058259716 0.03440827 -0.05690149 0.03062524 0.05309589 -0.007217669 0.030053075 0.013322864 0.03972808 0.058229297 -0.055609707 -0.033170912 -0.018931229 -0.0021818301 -0.028603889 0.032234047 0.01610665 -0.012085979 -0.10315428 0.005011372 -0.017166706 0.053215146 0.085783996 0.008503845 0.014960581 -0.014646754 0.0036875159 -0.013406125
81839 0.022313563 -0.003441311 0.017782865 -0.03864141 0.026385207 0.021638708 0.04243729 0.015621485 0.037122823 -0.008028759 -0.0010586942 0.0048453035 -0.017472908 0.009604356 0.034555018 -0.0026005276 -0.036286987 0.011566567 0.0036586844 -0.0067505627 -0.009387811 -0.022888284 -0.035417628 0.011550907 -0.0076799877 0.03278088 -0.016079046 0.0026172383 -0.032010254 -0.06836582 0.010747763 -0.022532048 0.031089745 -0.0231594 -0.0135928225 0.03632181 -0.024639526 -0.009154573 -0.0019856368 -0.038508672 0.057054333 -0.018891301 0.00047852457 0.018166928 -0.023359623 0.007831637 -0.008175282 -8.518138e-05 -0.009810939 0.011708949 -0.016570214 0.0146177225 0.050970696 0.042421866 0.02035966 0.008559091 -0.01672341 -0.041007165 0.04883129 0.024460716 -0.02242125 0.0663321 0.015923474 0.0071528824 -0.022270117 0.008698755 -0.004641695 0.016631186 -0.0120394565 -0.005493523 -0.017632568 -0.009570497 0.012846961 -0.004045955 0.006556712 -0.032240327 0.008552513 0.002060731 0.015495821 -0.002826772 0.009359222 -0.014995541 0.023246704 -0.042869836 -0.019940436 0.02583877 0.012883903 0.02548221 0.014593815 -0.015694123 0.029403351 0.010498441 0.011090636 0.032415792 0.0069955057 -0.020699667 0.03753939 0.038355157 0.03996624 -0.0054234616 -0.00984749 0.029825667 -0.03738521 0.012044947 0.023952302 0.0015997927 -0.0018847043 0.013972993 0.0184409 0.034080278 -0.004261808 -0.0077505363 -0.012875489 0.008721419 -0.026245907 0.018760532 0.009737096 -0.018819988 -0.035075024 -0.02551899 0.006655355 0.02546936 0.049395647 0.022982318 0.004478953 -0.0074691274 -0.0017716644 -0.0038338627
81840 0.015696965 -0.004308946 0.007473336 -0.037920594 0.022352124 0.016546369 0.054547675 0.014725937 0.032760993 -0.009565219 -0.014964396 0.010147431 -0.015575422 0.009804382 0.027928164 -0.01278325 -0.04430329 0.0050256806 0.011914348 -0.0037377074 -0.009190333 -0.028890947 -0.04165563 0.009783725 -0.017642425 0.04443685 -0.026902582 0.0036159526 -0.02128917 -0.05674227 -0.0010024161 -0.018470665 0.028901447 -0.019506851 -0.0021242297 0.04452351 -0.026426282 0.011397128 -0.005918192 -0.037948206 0.06298013 -0.006631571 -0.01466563 0.014905384 -0.023188896 -0.006788618 0.0016110208 0.0068849386 -0.018481966 0.011167093 -0.030018436 0.014527039 0.049447156 0.050220598 0.030082798 0.011187501 -0.010063662 -0.044532776 0.045517974 0.01696345 -0.0049043484 0.06204254 0.015189433 0.02103693 -0.0042033326 0.0019582731 0.0033502278 0.019083414 -0.0038142845 -0.0009884313 0.0014610635 -0.0071427776 0.0010050263 0.0028995 0.0026619139 -0.017255917 0.0133450655 0.012408178 0.017814258 -0.010320342 0.019064505 -0.01683071 0.021733573 -0.03581142 -0.022972591 0.036006756 0.013495166 0.034584593 0.012181313 -0.020145988 0.035447385 -0.0004506237 0.010022207 0.028333407 0.012935196 -0.027912693 0.050803155 0.042139657 0.03899803 0.003613104 -0.025032643 0.017200308 -0.021310154 0.02173378 0.021039907 -0.013315643 0.024321642 0.024489041 0.033056423 0.028893374 -0.0024091844 -0.012517746 -0.015221358 0.0035797863 -0.01720193 0.008523486 0.0025225866 -0.039173312 -0.035279058 -0.015357942 0.010978248 0.022977985 0.038599495 0.014417945 0.015833454 -0.001664328 0.007882613 -0.009506618
81010 -0.00010737697 -0.001634697 -0.0011808267 -0.0034066404 -0.0023538722 0.00013263372 0.0012327528 -0.0022225392 0.0010794969 0.0012620785 0.0026262174 -0.002203064 -0.0016555071 -0.0007300772 -0.0021226946 0.0011118862 -0.00017475583 -0.00047528656 -0.0011659468 -0.000124323 -0.003542666 0.002867889 -0.0014538035 0.00054732716 0.001999437 -0.0020553886 0.0025413733 0.0009461557 -0.0013558586 -0.003880268 0.00092624826 -0.0004465213 0.00030986487 -0.0014713033 0.0017634468 -0.0038219374 0.0023485 -0.0026664166 -0.003321293 -0.00023997882 0.003678829 0.0028067194 0.0025089744 0.0028043943 0.0022983628 -0.0028625028 -0.0027447587 0.0021364219 0.0009891726 0.0035014725 -0.00028799317 0.0013817622 -0.0038958543 0.0024543658 -0.0035113252 0.0038450095 -0.0011842184 0.0017765511 -0.002387762 -0.0030936473 -0.0021176767 0.0030100506 4.9532464e-05 -0.0027345798 0.0034424465 0.00042744857 -0.0013805812 0.0027456 -0.0017696305 0.0024363734 -0.0026659914 0.0027230035 -0.003079239 0.00011696895 0.00013297197 -0.00030002563 -0.0020279542 -0.0008710147 0.0029867948 -0.00042898025 -0.0006890723 0.0034631805 -0.0038281197 0.0009154279 0.0015377905 0.0035115744 -0.0010327934 -0.0010554969 -0.0024558918 0.0012884655 -0.0032712356 0.003169295 -0.002521054 -0.00029231823 -0.00027750764 0.0022834837 -0.0037359667 0.0018263101 -0.0020772002 -2.634265e-05 0.0035354113 -0.0033632878 0.00056616974 0.0016686384 -0.0033381446 0.0017143327 -0.0029404394 -0.0005966491 0.00024518743 -0.0019898221 0.0027430784 0.0006176236 -0.003869768 -0.003245866 -0.0036257391 0.0027728425 -0.0007714132 0.00020983272 -0.0002794181 0.003105235 -0.0009758642 -0.0007664649 -0.0013724089 0.0012900326 0.0019874212 -0.0024938874 0.003292193 -0.0012072795
81725 0.008804039 0.00025470453 0.021772197 -0.039316136 0.0289153 0.021678472 0.056281682 0.012983316 0.03366702 -0.0035610134 -0.016872859 0.007902156 -0.0027786624 -0.0030621325 0.033667345 -0.017543895 -0.042760767 0.021058438 0.017069163 0.0071436707 -0.006264859 -0.022086987 -0.05561645 0.0036946263 -0.0049512815 0.03760724 -0.0380953 0.0050990377 -0.0139628835 -0.045809563 0.0058856597 -0.016986335 0.025792 -0.037373614 -0.001196543 0.042607155 -0.0312263 -0.009225545 -0.0052185454 -0.038827054 0.05901578 -0.0074819867 0.0016014463 0.007364004 -0.025239922 0.0040399907 -0.0044154827 0.0047657806 -0.008298864 0.0028333263 -0.027989104 0.019281404 0.04565605 0.05884291 0.021874249 0.005609277 -0.019073639 -0.050698515 0.033049904 0.018559456 -0.002294282 0.06493111 0.012038367 0.021766275 -0.011819998 0.0019445571 -0.00038058485 0.008322694 0.004970639 -0.0024388102 -0.0026927802 -0.011179903 0.0047470224 0.0021150643 0.0067830146 -0.020245105 0.010497366 0.020703873 0.014336783 -0.0065107946 0.015213549 -0.015236381 0.01759874 -0.038461357 -0.02135932 0.03901916 0.013169406 0.028290063 0.014227648 -0.019146921 0.030542925 -0.0027829078 0.018919514 0.038669627 0.01933454 -0.024839908 0.05410764 0.0387812 0.030504867 -0.003609476 -0.0097216135 0.0149517525 -0.01962353 0.026361933 0.024452878 -0.0020614185 0.027058963 0.026202982 0.025504496 0.031619675 0.003348163 -0.0073697013 -0.0057106004 -0.0018329702 -0.010465553 0.008600136 0.0044204877 -0.032190304 -0.03559603 -0.018987963 0.012602683 0.03437357 0.031190544 -0.003793669 0.0040220562 0.0049223397 0.0113165425 -0.0012901758
81841 -0.000626063 0.0032541247 -0.0020003845 -0.003028065 0.0030844985 0.0016097064 0.00075929286 0.00015033968 0.00202942 -0.0010543799 -0.0031217944 0.0010489221 -0.00035048905 -0.001958825 0.0032603208 0.00083030586 -0.0033373213 0.0009307888 0.002191787 0.0036412561 0.002949778 -0.0016858405 -0.0033768807 0.0028114887 -0.0019239006 -0.001314793 0.0027290399 -0.0025532339 0.0036604975 0.0020888445 -0.0026954152 0.00085860555 -0.0012190456 0.0014136041 -0.002460315 0.0021345303 -0.0030951106 -0.002046991 -0.0021610167 -0.0026593388 0.0022948568 -0.0014327742 -0.0008770399 0.00020146102 -0.0017974818 0.00016838299 0.0032607082 2.0403166e-05 0.00042134957 -0.0005006221 0.0023804014 -0.003353075 -0.0019861783 0.0002021096 0.0034028585 -0.0007533733 -0.002924419 0.0026439347 0.0023952662 0.0035081313 -0.0035898106 0.0028073231 -0.0028338751 -0.0034070015 -0.0010185064 0.0030541052 -0.0030231199 0.002417171 0.0014079789 0.0032808508 -0.002821234 0.0026882503 0.00014174185 0.0007659731 -0.0033517056 0.0009846338 -0.0027936408 0.0013052674 -0.0031725522 -0.0010855015 0.0034460577 0.0033512104 -0.0011991721 -0.0030503147 0.003139776 0.0012500221 0.00066197955 0.0012138563 -0.0009989484 -0.0017576347 0.0027000974 -0.0012324622 -0.00026463324 0.00051002315 0.0007326987 0.0007665269 0.0016453255 0.002153521 -0.0028920253 -0.0034449543 0.00046254526 0.002719749 0.00071058143 -0.0011965835 0.0036098752 -0.0029992072 -0.0007002316 0.0037554314 0.0031574469 0.0026372024 0.00022834892 0.0023079156 -0.0008273111 0.0023466644 0.0004592296 -0.00039000798 -5.9562564e-05 -0.0036385506 0.0010580552 -0.0029457663 -0.0031123618 0.002263231 0.0037165056 -0.0025867934 -0.00053138996 0.0024988155 -0.00019223896 -0.0027407617
81449 -0.017780252 0.10085028 -0.104807235 -0.01812112 0.1159611 -0.03818562 -0.009302059 -0.090838484 -0.019721841 -0.14308217 0.18196443 0.060922053 0.101000495 -0.0036546756 0.023854597 -0.08898274 -0.07670171 0.05882105 0.08719039 -0.10126118 -0.0732283 -0.02150199 -0.020721449 -0.11275585 0.023677507 0.07626036 -0.025246557 -0.041772284 -0.1630276 0.061719913 0.02102029 0.028343074 -0.17440797 -0.19080642 0.078066126 -0.02308556 0.08034168 -0.15705223 -0.023283018 -0.12912354 0.028084138 -0.07964065 -0.0023279274 -0.0136217605 -0.006775616 0.16192853 -0.17011456 -0.048106477 -0.10505877 0.029858856 0.056401167 -0.26126954 0.052948367 0.08051037 0.01445584 -0.121951684 0.057956137 0.093156405 0.08270828 -0.014877868 -0.25259885 0.008691118 -6.23106e-05 0.120507516 -0.17905499 -0.1520572 -0.09233528 -0.11591452 -0.047007065 0.14414941 -0.04233052 -0.10626041 0.19260916 0.07460763 0.038965978 -0.049989205 0.14204112 -0.18214352 0.13073294 0.014105568 -0.03339575 -0.08490201 0.04515052 0.012168323 -0.067627765 0.055678215 0.10167082 -0.07974174 0.08334662 0.07094903 -0.0072389357 -0.11113634 -0.0058268416 -0.10250425 -0.12090362 0.022643864 -0.03295908 -0.19604185 -0.058218922 0.050712775 0.1526257 0.16050887 -0.08541097 -0.03674187 0.13530253 0.0063517597 -0.01293371 0.07976043 -0.02797659 0.03370193 -0.26822764 -0.10272137 0.05102768 0.08901226 0.03285501 0.09626228 -0.02064363 0.15652536 -0.17182404 0.0812065 -0.12666693 0.05975996 0.1883149 0.0793175 0.084315024 -0.06776948 -0.115537904 -0.06669326
81450 -0.038186733 0.17311625 -0.24410135 -0.07834265 0.11322012 0.0048329597 0.045366433 -0.063826 0.19284411 -0.28520724 0.24612676 0.09389889 -0.016703274 0.14476465 -0.0075962134 -0.20499378 -0.18590355 0.027226755 0.13993278 -0.109575614 -0.08354463 0.005927443 -0.0006936309 -0.13846368 0.056671496 0.18199474 0.09354928 -0.10731307 -0.21962105 -0.18622158 -0.0070037935 -0.061109226 -0.24061036 -0.32434273 0.03365427 0.048761815 0.13174827 -0.22135665 0.011717377 -0.15991119 0.066740364 -0.18766911 -0.0183344 0.046846867 -0.045573298 0.13814151 -0.24140146 -0.11422408 -0.2054852 -0.0037049437 -0.02416893 -0.38441908 0.102900505 0.061669055 0.10320184 -0.11509205 0.17620489 0.1323072 0.23470706 0.020994123 -0.21151473 0.20044778 0.065317586 0.14303896 -0.25382024 -0.15950409 -0.101153046 -0.053730335 -0.0029356137 0.19724123 -0.11866299 -0.1789237 0.26386002 0.104669854 0.12737216 -0.11074788 0.11035639 -0.25071388 0.13972595 -0.07047962 -0.061068825 -0.1439811 0.07081147 -0.1026953 -0.09426234 -0.0039419495 0.22275831 -0.08459204 0.1278838 -0.09226179 0.19020575 -0.1257237 -0.0052434043 -0.040180545 -0.14153379 0.07927026 0.050555866 -0.15010296 -0.00080342084 0.10586533 0.12131743 0.29410625 -0.28322557 -0.03236017 0.29288596 0.030907178 -0.17211856 0.048951473 -0.011025514 0.16665123 -0.4098868 -0.24202183 0.05389222 0.11179543 -0.06064293 0.118813284 0.018655214 0.14982957 -0.17859869 0.13723251 -0.26321054 0.040626917 0.2354311 0.17502737 0.11293303 -0.040827323 -0.10606508 -0.10080625
81842 -0.07362306 0.27290145 -0.20031947 0.028197052 0.2674714 -0.106172286 -0.0042472146 -0.11828881 -0.005471211 -0.28344962 0.36049274 0.08580097 0.2527482 0.0842089 -0.061626166 -0.15588392 -0.15175487 0.035974063 0.089385584 -0.20342864 -0.122557156 -0.028113682 0.023547582 -0.1825775 0.04094443 0.08972575 -0.027166104 -0.1297594 -0.28631613 0.11943309 0.05780816 0.057813466 -0.30755672 -0.3741158 0.1471651 -0.103300095 0.09307468 -0.26205608 0.024345027 -0.15447532 0.017862372 -0.2162802 -0.0041472693 -0.0036341916 -0.013363819 0.16044661 -0.25160122 -0.035273105 -0.23096496 0.07775201 0.14975376 -0.4287328 -0.015435186 0.05529469 0.11709746 -0.18703777 0.10900592 0.25624728 0.13837044 -0.008693763 -0.44314 -0.05031905 -0.04550037 0.18370876 -0.383664 -0.25982335 -0.20362696 -0.24194455 -0.04343008 0.17731021 -0.1105151 -0.20228091 0.41228074 0.17071246 0.066871405 -0.089167885 0.27632397 -0.34198985 0.18373848 0.008404315 -0.06259696 -0.13322541 0.07469886 0.039001316 -0.11670064 0.075847946 0.20902985 -0.18550132 0.15769722 0.08372941 0.061948076 -0.2032081 -0.09698262 -0.24681029 -0.19045494 0.119021915 -0.045740306 -0.40727395 -0.11120937 0.1449502 0.28765255 0.2523469 -0.18310748 -0.1383554 0.23523907 0.03592244 -0.0739203 0.144755 0.015765453 0.028075904 -0.4607554 -0.21631584 0.10890321 0.20657735 0.018681068 0.15602213 -0.060387477 0.23263957 -0.27888224 0.19069207 -0.24817032 0.057124 0.3444802 0.15855807 0.17693464 -0.08547986 -0.22491743 -0.15100455
81843 -0.031641714 0.252796 -0.20678593 0.022680055 0.2507418 -0.11831289 0.013886157 -0.15549925 0.043651734 -0.2690358 0.40752715 0.08542646 0.23902598 0.080175534 -0.022279462 -0.11740801 -0.16317113 0.07043209 0.095096566 -0.2329319 -0.11568401 -0.025301721 0.007186755 -0.21162346 0.011586512 0.09021306 -0.02377227 -0.115352824 -0.3173618 0.11849178 0.059813738 0.04612994 -0.33565804 -0.358345 0.13413508 -0.14542282 0.116557695 -0.29842034 0.013217869 -0.17280023 -0.0032178636 -0.22134615 0.023919031 0.018210065 0.015467468 0.1921686 -0.25931552 -0.0544158 -0.20467986 0.06271227 0.1430147 -0.42820573 -0.019586109 0.018297542 0.07345193 -0.20092678 0.06862445 0.2652209 0.1514896 0.01803771 -0.46184903 -0.0016917768 -0.028583663 0.1350865 -0.3685021 -0.23164414 -0.23267587 -0.24436083 -0.05349441 0.16258058 -0.11374425 -0.18261075 0.39621714 0.17103674 0.023617825 -0.105325386 0.27106208 -0.33461323 0.15848233 0.019317133 -0.11765725 -0.13422216 0.04311963 0.0079561 -0.14666092 0.034844667 0.18418872 -0.1784638 0.1312126 0.08502136 0.06390784 -0.17215653 -0.09028982 -0.22801931 -0.20344569 0.09622723 -0.06370605 -0.4046227 -0.09014281 0.13932711 0.27341253 0.274144 -0.1692229 -0.13497028 0.19784941 0.05404949 -0.09366035 0.13108958 -0.030251067 0.023990694 -0.44521424 -0.19718193 0.109098546 0.20927043 0.0350586 0.1652849 -0.034335554 0.30138186 -0.26379243 0.16237827 -0.25417778 0.0891393 0.35266882 0.1985542 0.14099255 -0.1411565 -0.2342543 -0.08588937
81451 -0.033752393 0.046998978 -0.06302951 -0.07745932 0.08691291 0.016717143 0.007995571 -0.04740699 0.024984185 -0.100865304 0.010026035 0.06303228 -0.017040996 0.052194573 0.038842715 -0.110162996 -0.06878525 0.004638615 0.06656337 0.01324094 -0.057634152 -0.0678744 -0.054744832 -0.0057633156 -0.02601485 0.10727875 -0.017223582 -0.0011011619 -0.0628215 -0.09930919 -0.007094603 -0.0415069 -0.0693187 -0.09754465 0.036466543 0.1262962 0.023368763 -0.090307645 -0.02975728 -0.18036646 0.083534166 -0.041675538 -0.025654657 -0.01308683 -0.042446904 0.10251992 -0.09893383 -0.030733138 -0.09587586 -0.002219105 -0.051152997 -0.08695206 0.098545484 0.14987743 0.046865042 -0.03690228 0.065939374 -0.03515093 0.08917457 -0.0058275606 -0.11578209 0.11681037 0.052174482 0.13409528 -0.115726754 -0.07454419 -0.053613853 -0.00080100994 -0.091993615 0.10986327 -0.02741843 -0.043369364 0.072139174 -0.0062721423 0.023220863 -0.04191145 0.10984978 -0.04043485 0.14048508 0.0005897906 0.08383705 -0.12667502 0.037677158 -0.063187465 -0.027105784 0.08629308 0.08416135 0.025663402 0.06039723 -0.0022794693 0.029869212 -0.042340193 0.034623317 0.01572534 -0.010397329 -0.05010189 0.10504172 0.0033500458 0.026999421 0.014269169 0.058201067 0.05972022 -0.12625948 0.009980441 0.12591289 -0.036600813 -0.0038267996 0.018492024 0.019602146 0.09281128 -0.14967777 -0.100389786 -0.0037725715 -0.010102463 -0.026126027 0.032102454 0.007945368 0.035657197 -0.15713637 0.08084297 -0.055714782 0.06384754 0.102537006 -0.003717346 0.034373008 0.004762539 -0.013052714 -0.04893349
81053 0.0012763522 0.0012982192 0.00022604708 0.0038833788 0.00094611186 0.0025251429 -0.0027218724 -0.0013808352 -6.226779e-05 -0.0022236987 0.0031857495 0.0010239136 0.0009332605 0.0024604395 -0.0030977272 -0.0030706022 0.001148596 0.0035209302 0.0029661711 0.0021151647 0.0038319766 -0.0034494707 -0.0014982544 0.0028837032 -0.00043914982 0.0019242682 0.0018947867 -0.0003290564 -0.0012337555 -0.0029009136 0.0018564737 0.0023873018 -0.00063264766 -0.0007524691 -0.0019975859 -0.003009069 -0.0026896747 -0.002984774 -0.00039643334 -0.0025323406 0.0034380916 0.0027365102 -0.0011612076 0.0016442799 0.003538582 0.0035018951 -0.0006148879 0.0020079708 0.003084193 -0.00029513802 0.0019169569 0.0037817678 -0.0018203662 0.000823347 -0.0008867091 -0.000107686996 0.0009457609 -0.0025597452 0.0030235355 0.0019002446 -0.0025688517 -0.0033722047 0.0006422436 -0.002452007 0.0028407308 -0.0011296659 0.0013758069 0.0026004068 -0.003576779 0.003799938 -0.0016620832 -0.0022718096 0.0013125805 -0.0010341409 0.00020684049 -0.0031502973 -0.003811395 -0.00061109115 0.0011361408 -0.0009005974 -0.0014825662 -0.00042816994 -0.0016273344 -0.0035456286 0.00011512914 0.0010060741 0.001876117 -0.0025718983 -0.00056576397 0.003162861 0.00018075715 0.0015787771 0.003883225 0.0015755027 0.003830829 0.0006430298 -0.000740404 -0.0009467753 0.0024134628 0.0017090404 -0.0016815729 -0.003432087 -0.0029540912 0.00028693795 0.0036851661 0.0009570233 0.00033281546 0.0011210729 -8.587171e-05 0.0035010106 0.0025506692 0.00048723296 0.0019979915 0.001960829 0.0005257766 0.0017463025 0.0036937324 0.002955447 -0.002587474 0.0011933888 -0.0016616299 0.0037736923 0.0005112279 -0.0017974285 -0.0016434622 -0.0016202533 0.0036333427 -0.0026818241
81452 0.00339986 0.0066766273 0.010485684 -0.044494636 0.03517958 0.012249273 0.047721885 0.0098553505 0.033985738 -0.013217383 -0.01910777 0.014583566 -0.0026413184 0.01525321 0.028235216 -0.02321891 -0.040546823 0.006443726 0.026160808 0.0035839116 -0.010808227 -0.025843536 -0.04293445 0.004939294 -0.015908245 0.04255429 -0.026247045 0.0032975846 -0.015238616 -0.06093138 0.0057116863 -0.022206109 0.023002233 -0.0313226 -0.0067505226 0.04903694 -0.022790339 -0.015311089 -0.0027805618 -0.05562505 0.06674372 -0.01918492 -0.0014832345 0.0016236397 -0.017717516 0.0041394373 -0.01784061 -0.0060367733 -0.024541711 0.009831531 -0.020970033 0.012957936 0.045396328 0.056955118 0.025629666 0.003238509 -0.0100947395 -0.04160405 0.043051008 0.013338123 -0.012235078 0.06681056 0.018731749 0.02996622 -0.01760937 -0.0064317537 -0.011917805 0.014761841 -0.014735099 0.0065615536 -0.003379662 -0.0109295985 0.011055086 0.0038244983 -0.0010709492 -0.01871775 0.021871442 0.014182553 0.02678094 -0.006984197 0.024557933 -0.029078845 0.016474143 -0.04873794 -0.018389426 0.040023006 0.023139814 0.027368149 0.014830543 -0.018848725 0.028201165 9.26675e-05 0.008340731 0.032082316 0.01600347 -0.028344618 0.05510545 0.041456252 0.026653646 -0.008464659 -0.010771763 0.012877963 -0.027857112 0.019588474 0.037199065 -0.01176052 0.015669363 0.01787288 0.02061654 0.03639263 -0.010059513 -0.017860292 -0.0007613721 -0.0015965452 -0.01160247 0.012657107 -0.00084625423 -0.019542404 -0.04654204 -0.0048061656 -0.0009078516 0.03030073 0.039593928 0.002520863 0.0019826344 0.00033462484 0.007005273 -0.0074607544
80992 -0.0015680087 0.00192137 -0.0035791576 0.0028829477 0.0020408442 0.0024612395 0.0028560474 -0.0009639094 0.0016305457 -0.00015224754 -0.00014936927 0.0009126394 0.0036809635 0.0035741169 -0.0009082888 -0.0006715861 -0.0018285359 -0.00010702034 0.0032967133 0.00068738736 0.0030615656 0.0010727559 0.0029264758 2.8844983e-05 -0.0022856602 0.00082361244 0.0029174476 -0.00088302436 0.0018126022 -0.00026521736 0.0021344952 -0.00045681983 0.0026881425 0.0008832187 0.0018951471 0.0016713715 -0.0014418724 0.0021491938 -0.0020575738 -0.0024942304 0.0014049546 -0.003280052 0.0018588997 0.0019103804 -0.0012628488 0.00019250541 -0.0025122797 0.0035080675 -0.0010343974 9.042048e-06 0.0015460147 -0.00033094702 0.00016802024 -0.0022072422 -0.0027496426 -0.0017850501 0.001392309 0.0031350788 0.0032085616 -0.0032370083 0.0031503893 0.0034325118 -0.002594954 -0.0037355898 -0.0027994583 0.0022536626 -0.0024079583 0.0016374411 0.0007885627 -0.00062724407 -0.00029858956 -0.0025393837 -0.003291217 -0.0022303928 0.00032029874 -0.001781437 -0.00336498 0.0002801257 0.0015510368 0.0010537762 0.0014166393 -0.002705547 0.00029256244 0.001984535 0.0028607876 0.0015230146 -0.0008329099 -0.0033223 -0.0031103704 -0.0016991348 0.0016796459 -0.0003163104 0.0032919534 -0.0009812684 0.002571607 -0.0024237395 0.00038251773 0.00078841986 -0.0022044792 0.0017639762 0.0026701232 7.865504e-05 -0.0005863414 -0.0010030656 -0.0027483243 -0.0022547513 -0.0015296722 -4.3557375e-05 -0.0030343444 0.0015682825 0.0030176374 0.0032677432 0.0038730218 -0.002820227 0.0024053606 -0.0029863163 0.0024240948 0.0016106489 -0.003029964 0.00023962925 -0.00365594 -0.0011812877 -0.0003996258 -0.001334804 -0.0019001889 -0.0026521327 0.0037852167 0.0015552357
81626 0.015273133 -0.0014800994 0.017251952 -0.030927531 0.016707651 0.020951001 0.04790857 0.009809728 0.038223382 -0.0023339158 -0.02399556 -0.0002660885 -0.012362648 -0.0015381583 0.025323816 -0.013685858 -0.02953762 0.010894669 0.0062612225 0.010681296 -0.012845903 -0.02024961 -0.043628328 0.0023402304 -0.0085130185 0.036712203 -0.019709514 0.0027330513 -0.019108819 -0.055499505 -0.0033981414 -0.020839192 0.025168112 -0.011178696 -0.008490782 0.040090546 -0.021516696 -0.008034831 -0.007165927 -0.03742791 0.047917776 -0.0066643097 -0.007933814 0.009851737 -0.020974563 0.0024723085 -0.011541628 0.00013965963 -0.021763831 -0.00084741996 -0.026839737 0.018637106 0.047184937 0.04286592 0.023791367 0.01530733 -0.00968362 -0.044605188 0.031415258 0.015151998 -0.00640565 0.058676247 0.015922837 0.022490844 0.00012786269 0.00040602303 0.003601673 0.014278415 -0.013829971 -0.0018824304 0.0056614797 -0.0013201499 0.0023506803 -0.0025754329 0.0031061764 -0.020523967 0.005265362 0.022885747 0.016467154 -0.0016635684 0.022612583 -0.023318842 0.016240211 -0.03592779 -0.019956637 0.035843097 0.014571132 0.041285098 0.012339323 -0.017827598 0.02844477 0.0074218777 0.016152693 0.026086815 0.015836265 -0.029627737 0.036950547 0.040947884 0.036114533 -0.008703573 -0.017989768 0.009494162 -0.014005215 0.029162677 0.011589717 -0.0048589194 0.024995685 0.015087098 0.023769801 0.034347877 0.0053704493 -0.007982055 -0.015667671 -0.011361384 -0.01372188 0.0038282373 0.010526462 -0.017543014 -0.033700503 -0.026023416 0.0039396207 0.02891829 0.026373837 0.007393437 0.005550955 -0.0035562792 0.016735608 -0.006222051
81844 0.0014776308 2.9569681e-05 0.0016437764 -0.0002804879 0.0009054265 -0.0016826255 0.00076030794 -0.0013681516 0.0030769154 -0.002668651 -0.0018753217 -0.0024778366 -0.00017997973 -0.0008381273 -0.0036180608 -0.0007542772 0.0029651958 -0.0037544747 -0.0032313617 0.0033076887 0.0014416771 0.0016922728 0.0007180483 0.001506957 -0.0012261319 0.0028300115 0.0023433042 -0.0026190237 0.003514786 -0.0018363415 -0.00017736798 0.0035011414 0.0033878866 -0.0016347368 0.00012065205 -0.0014887897 0.0026898494 -0.00021787277 -0.0031257465 -0.003238158 0.0030690343 -0.0007108811 0.00078851375 0.0013752165 0.00180259 -0.0006280123 0.0018752973 -0.0036725013 -0.0021314065 -0.0015897304 0.00234416 -0.00096670445 -0.002432906 -0.0015721985 0.003428981 -0.0015624759 0.0037009371 -0.0015668639 0.0020636953 -0.0034924417 -0.0028824355 0.0028161705 0.002456347 -0.0013221104 -0.0010146978 0.0036962454 -0.0016722771 -0.001749868 -0.00089149736 0.0021962405 0.0018627567 0.0012097841 0.00033381578 0.0021937515 -0.0033536756 -0.0026783696 0.0027737706 0.00041929403 0.0020561346 -0.0032429884 -0.003752754 0.0006439712 0.00013582589 -0.0027573225 -0.0028408165 -0.0013584112 -0.003638874 -0.0012789625 0.000649422 0.0019281266 -0.0012163059 0.002815382 -0.0022807394 -0.0031455853 -0.001397912 -0.0037436744 -0.00339063 -7.673064e-05 0.0032672128 -0.00158246 -0.0030711305 -0.00031125863 -0.0022326058 0.000512829 -0.00060520443 -0.0018939713 -0.00077714707 0.0002804681 0.0037512577 -0.002106523 -0.0022725633 -0.0009422941 -0.0021520667 0.0018944927 0.0031361906 0.0013076244 0.00055156427 -0.0011357829 -0.0006368229 -0.00017964638 -0.0015069154 -0.0010708241 -3.0179235e-05 -0.0017928608 -0.002651451 -0.00028795374 0.0021094037 -0.0014896807
81111 0.0032531274 -0.0064169145 0.0090588825 -0.024694158 0.014701889 0.008196367 0.031494197 0.01047057 0.019308852 -0.010282426 -0.0024389497 0.003117236 -0.0065398156 0.004807594 0.017186789 -0.0069137677 -0.025368476 0.00624813 0.013886024 0.0022087249 -0.012392161 -0.017325351 -0.02565313 -0.00046496914 -0.0074035893 0.029918667 -0.021980733 0.0008233734 -0.017482638 -0.029808247 0.0054314537 -0.013249504 0.020558154 -0.018946243 -0.00027322528 0.028813621 -0.010551391 -0.007161577 -0.0051466627 -0.033065468 0.037406243 -0.010876011 0.005062306 0.0133603765 -0.016675148 0.0071922876 -0.00046396928 0.0052135903 -0.0131322825 0.00965563 -0.015602947 0.000924074 0.03087706 0.033208456 0.014057152 -0.0029584803 -0.013035145 -0.032227296 0.032437608 0.016492816 -0.01019803 0.03727532 0.01243518 0.013203121 -0.01280619 0.0022701395 9.6156495e-05 0.0077520283 -0.003033448 0.001577741 0.0005293905 -0.010582701 0.013596681 0.0012699063 -4.3821114e-05 -0.019552657 0.008787846 0.0010051252 0.01134137 6.345662e-05 0.012683668 -0.009144182 0.020227352 -0.022203516 -0.013723095 0.018958852 0.009761355 0.015357975 0.015308453 -0.009956999 0.017604312 -0.0024777425 0.0066068973 0.014331985 0.003354962 -0.016045123 0.03001744 0.022074869 0.019208772 -0.0032621045 -0.00080715516 0.01694685 -0.017982546 0.009351111 0.020097448 -0.0012185493 0.014538325 0.012540882 0.016645437 0.017306846 -0.010088062 -0.009273178 -0.010346955 0.0072895875 -0.00833002 0.009161192 0.0041522263 -0.010671426 -0.03070296 -0.006462699 0.002507351 0.021160865 0.030784644 0.0028428938 0.008084549 -0.0019238133 -0.0016079401 -0.007740099
81845 0.001116787 0.00060386176 -0.0004700367 0.003189957 -0.003012973 0.0027696164 0.0038772782 0.0033093912 -0.00038855476 0.0032772128 -0.0012768127 0.0011659384 0.001675787 0.0016433703 -0.0036358703 -0.003796867 0.0034464502 -0.0018116817 -0.0027410998 -0.0037601648 -0.0025059276 -0.00045482858 0.002445116 -0.00089858536 -0.000335839 -0.00061740336 0.002512781 -0.0013775376 0.0009725678 6.6903885e-05 0.0032106955 -0.00052689033 -0.0029396948 0.003771533 0.0012781023 0.00022236674 0.0026448779 -0.00283668 0.0009319856 8.637372e-05 -0.00337311 0.0031324148 -0.0012224187 -0.0007184544 -0.0010782729 -0.0031687412 0.0015508173 0.0024180647 0.0014699972 0.002338292 0.0016041207 0.0034478486 -0.0016559971 0.0035720407 -0.0011550889 0.0008059241 -0.000659895 0.002865767 -0.0013219197 0.0009230953 0.0016899136 -0.0029947413 0.0035070097 0.0028396253 0.0002001211 -0.00019963637 -0.00303249 -0.00083071867 0.0016852729 -0.0034971486 -0.0034958825 0.003420221 0.0026677328 -0.0021203223 0.0037262342 -0.0036855445 -0.0024201719 0.002929526 -0.001725245 -0.00011328203 0.00025325868 -0.0020137017 -0.0028137243 0.0028919973 0.0017372371 0.002795518 0.0026289641 -0.0018399833 0.003432749 0.0030272852 0.0018074529 -0.0029851806 0.001878554 0.0004939908 -0.0025925643 -0.0023154463 0.003372893 0.003092323 0.003026574 -0.00028097944 -0.00065384124 0.0024057704 -0.0034229509 0.0033076263 0.003753766 -0.0006340668 0.0018674937 -0.0011724363 0.003013759 -0.0013132812 0.0035898064 -0.00022107501 -0.00050162774 0.00035535032 0.0023542768 -0.0038859532 0.00070620456 0.00022048964 0.0037251723 0.0018585855 0.0018951233 -0.002069329 -0.0028995462 -0.003005966 -0.0013870782 0.00082530844 -0.00084447523 -0.0006368853
81846 0.008609385 0.00030379728 0.010461667 -0.041966308 0.014620974 0.020966161 0.0400811 0.0073960144 0.031997282 -0.010802874 -0.03297896 0.0019030296 -0.017424779 -0.009115563 0.026901567 -0.023440497 -0.033051483 0.007627035 0.019967485 0.0131950015 -0.0136772385 -0.022802275 -0.04867366 0.0008319375 -0.012205422 0.042253524 -0.027043315 0.004004114 -0.015860278 -0.04888791 0.0055506197 -0.016464373 0.041477587 -0.025670003 0.0034455822 0.061508127 -0.025615916 -0.0027379624 -0.0017774204 -0.045290306 0.061819367 0.0007763174 -0.02154726 0.010484245 -0.02717961 0.0053058504 -0.00746586 0.018270932 -0.020077739 0.006391835 -0.042495985 0.021478793 0.0567361 0.06407882 0.032621015 0.008889044 0.0028562166 -0.06386042 0.03876488 0.019095477 0.0064957486 0.0733064 0.01047109 0.0314417 0.005734496 -0.011648508 0.009403008 0.02080357 -0.004357538 0.010063164 0.0022939392 -0.0047880206 -0.006193985 4.972855e-05 -2.8467737e-05 -0.013617623 0.003815052 0.027381994 0.025367461 -0.0009479598 0.029577352 -0.017558837 0.012125595 -0.038947493 -0.023313431 0.043558687 0.016183723 0.0539404 0.012557748 -0.013717014 0.027892655 0.005785905 0.019224867 0.035575878 0.024361586 -0.042919353 0.052783832 0.05426241 0.045399833 -0.007934306 -0.017579658 0.012850038 -0.02241294 0.038075007 0.01970464 -0.023712039 0.032872915 0.01577215 0.031713203 0.028972302 -0.0036888907 -0.01818337 -0.017900998 -0.016315559 -0.013747472 0.0018922542 -5.1742827e-05 -0.03960851 -0.036337446 -0.013311568 0.0066220937 0.0279765 0.025283214 -0.0013954322 0.008020907 0.006316975 0.02235592 -0.0036171675
81847 -0.002225689 -0.0036567913 -8.24194e-05 0.00044463304 0.00072143646 -0.001682972 -0.00068239146 -0.0015909944 0.0023596904 0.002370158 -4.7344445e-05 0.0031527402 0.0036846672 -0.0028796496 0.0007677147 -0.00046009317 -0.0035658386 0.0004632991 0.00034396874 -0.001648538 -8.9806505e-05 -0.0024720863 -0.003290667 -0.003383475 -0.0004742466 0.0022656007 -0.0026158898 -0.003660543 -0.0016895074 0.0027586997 -0.0014606082 0.003684733 -0.001763633 -0.0026350378 -0.0006590877 0.0031559172 0.0035787602 0.003221866 0.0036503694 -0.003011949 -0.002251398 0.0027206356 -0.0024751558 -0.0031188442 4.0644518e-05 0.0036413653 0.0032083 -0.0010308507 0.0017539524 0.0016160471 -0.0014294921 -0.00039561483 6.438423e-05 -0.0030598638 -0.0026964813 -0.0014159186 -0.002746059 -0.0003099987 -4.156658e-06 -0.0017392683 -0.001939882 0.0024170124 0.003287921 -0.003439506 0.003175127 -0.0034883514 0.0031690695 -0.0011365426 -0.00048308703 0.0012677254 0.001826271 0.0028385231 0.0026039956 0.0005101605 0.0012639763 0.0025478709 0.0026573478 -0.0003989122 0.00024065837 -0.0028212252 -0.0015290646 0.0014570069 -0.00045917695 -0.0006635504 -0.0033359283 -0.0030701722 0.0003241214 0.002876017 -6.786577e-06 -0.00061811897 0.002600284 0.002925548 0.00036192188 0.0007477223 0.0021543163 0.0016727805 0.0035245281 -0.0017963875 0.0035877677 0.0011744008 0.0017962795 -0.0023426383 -0.003561304 0.0028118049 -0.0005238035 0.0027131594 -0.00090052653 3.3112163e-05 0.003037123 0.00059100054 -0.0021660319 0.00223514 0.00090684474 -0.0027207844 -0.0020538995 -8.350412e-05 0.00028289863 -0.0014934757 0.0021645953 0.0011081035 -0.0010870266 -0.0027823239 0.0004035785 0.0016363034 4.0789637e-05 -0.0019065476 0.0011889325 -0.0030730562
81453 0.03452057 0.042829417 -0.0035686698 -0.086150564 0.093579814 0.049979918 0.0623714 0.0030482984 0.09901288 -0.06756341 0.022405587 0.022717405 -0.022347456 0.039826907 0.07954553 -0.05966549 -0.10594837 0.02064344 0.026549214 -0.031892437 -0.05434326 -0.06423924 -0.077021934 -0.005945482 -0.02783462 0.09801886 -0.02378055 -0.017792307 -0.09678118 -0.13915402 0.00031183142 -0.040255446 0.0070311343 -0.10991298 0.017224595 0.09703569 -0.022022739 -0.057204705 -0.02783574 -0.14386836 0.12932251 -0.058210272 -0.024276948 0.023916889 -0.063408144 0.084081896 -0.07646884 -0.010238618 -0.08712176 0.034195166 -0.029226677 -0.050972726 0.13811474 0.12542209 0.07330342 -0.010603432 0.028107135 -0.08154528 0.12953728 0.037163366 -0.10885445 0.1548086 0.03855496 0.076282606 -0.088485025 -0.055444 -0.031580202 0.002613705 -0.053565495 0.054967433 -0.030099936 -0.040463526 0.08181434 0.006684468 0.022368213 -0.0672389 0.07165106 -0.039192595 0.07683836 -0.007288949 0.031860143 -0.07243412 0.04624403 -0.08440466 -0.058888536 0.08734746 0.0737433 0.04285575 0.07284406 -0.015288562 0.061901625 -0.01733504 0.020141453 0.032924075 -0.0042801397 -0.040493473 0.08270648 0.030042613 0.08512976 0.008228588 0.019912133 0.08537405 -0.108578086 0.03264262 0.11960174 -0.008397953 0.016736748 0.040893745 0.05600787 0.091774985 -0.11942903 -0.06752008 -0.022674976 0.030034417 -0.05489273 0.06412127 0.009472727 0.0048894584 -0.16027573 0.0077425386 -0.0351391 0.07436057 0.1557698 0.060043275 0.04066864 -0.0214977 -0.02452774 -0.034472402
81454 0.024053704 0.02055906 0.011875519 -0.05417216 0.053688124 0.028468566 0.042292546 0.0050669997 0.05606048 -0.02403621 -0.0060940324 0.009186712 -0.004667294 0.01413419 0.038375113 -0.03734232 -0.05582522 0.021958146 0.017793594 -0.0020084952 -0.026364768 -0.031950537 -0.05609835 0.002011027 -0.015495314 0.052070882 -0.018504614 -0.0036285948 -0.049440242 -0.0684663 0.00028546382 -0.020192541 0.016681671 -0.05065194 0.004119325 0.06023469 -0.019544821 -0.024027174 -0.019670146 -0.07554762 0.07899404 -0.021600723 -0.011784224 0.006487855 -0.029444223 0.03234887 -0.043277714 0.00235921 -0.03906937 0.0116211735 -0.02636953 -0.008918391 0.07830158 0.075628735 0.036499448 0.006836292 -0.00033689156 -0.059503786 0.06351728 0.019418431 -0.037179884 0.09077173 0.022909291 0.04314493 -0.03294278 -0.02714701 -0.006340078 0.008714909 -0.020222897 0.016302297 -0.005218364 -0.022339195 0.026921466 0.0046403636 0.0036974314 -0.035410948 0.03420527 -0.0005022813 0.041587647 -0.00440623 0.01913054 -0.03556692 0.024314655 -0.051671986 -0.030582072 0.048622888 0.03339136 0.037346195 0.034125265 -0.006120912 0.034918986 -0.0030514621 0.021215621 0.032179732 0.020672563 -0.036513142 0.049620368 0.041646138 0.043704126 -0.008754603 -0.0026067835 0.038392954 -0.0412225 0.036518056 0.05831482 -0.008991812 0.024829077 0.025799166 0.030287262 0.045624983 -0.040736575 -0.030710656 -0.017062966 0.01461276 -0.016419629 0.030722644 0.0059475903 -0.004838198 -0.07672441 -0.008340538 -0.008297938 0.042196106 0.078371875 0.023547908 0.008309052 -0.00689394 0.0034270282 -0.010967536
81848 0.008311227 0.035805743 -0.022479128 -0.044274308 0.057610523 0.019659301 0.020141268 -0.017661303 0.040614076 -0.05485196 0.023198744 0.022005096 -0.0144012645 0.02589102 0.025071826 -0.04957362 -0.055563 0.013302072 0.026102386 -0.01691752 -0.02916077 -0.029693136 -0.026059547 -0.012998065 -0.011332604 0.06773459 -0.013801871 -0.008080723 -0.054073393 -0.06835605 -0.009189625 -0.020905174 -0.025376253 -0.06504812 0.024057569 0.050124742 0.009918614 -0.036702752 -0.021805957 -0.081082225 0.07003472 -0.03198221 -0.025320686 0.0046386556 -0.034254625 0.059980456 -0.066670135 -0.013674859 -0.06703026 0.016040891 -0.016652798 -0.055607747 0.06773765 0.06906536 0.045988236 -0.007868346 0.031284496 -0.032582577 0.070084676 0.009006748 -0.06278013 0.075468935 0.021637749 0.060968924 -0.060390063 -0.048916295 -0.019342188 -0.009871402 -0.029224698 0.052553795 -0.015996946 -0.024782903 0.05133851 0.013320402 0.01894253 -0.026342357 0.060126934 -0.035072528 0.0673376 -0.008664289 0.017029 -0.050555833 0.025549278 -0.03946534 -0.03006362 0.053488098 0.047734115 0.018282905 0.036523923 -0.0033509713 0.03224946 -0.033326477 0.008592638 0.011935508 -0.0082020685 -0.021107838 0.042772576 -0.00199226 0.030341007 0.008778826 0.014873062 0.045261856 -0.06800771 0.019284338 0.06719937 -0.009767803 0.009626421 0.025109747 0.028767811 0.05108059 -0.09507524 -0.04889304 -0.0047558057 0.023054373 -0.020258877 0.031187944 -0.00431497 0.015825784 -0.09594899 0.024274057 -0.042392265 0.0321673 0.08582473 0.02842749 0.033554595 -0.009987464 -0.009304911 -0.02820803
81341 0.014408693 0.0057807458 0.008469404 -0.039064072 0.034571692 0.014625169 0.053493135 0.018177144 0.04721898 -0.019210499 0.0032042146 0.0023295032 -0.015216099 0.0112906955 0.022562515 -0.009616925 -0.041453965 0.01100449 0.011616785 -0.008201494 -0.0055536134 -0.021044096 -0.031890154 0.0017350495 -0.008402981 0.043944813 -0.017287178 -0.008759426 -0.027813263 -0.064053014 0.008422401 -0.0164053 0.01629347 -0.033269387 -0.0031563297 0.030146994 -0.022437753 -0.0118103335 0.0010784257 -0.038434524 0.05589709 -0.023493828 0.001621163 0.0145529015 -0.016730402 -0.0016744172 -0.0035539165 0.00034845946 -0.01988006 0.013469468 -0.018279517 0.012818215 0.038775984 0.038666453 0.03638775 0.010199116 -0.0061592846 -0.032506373 0.052489053 0.017647099 -0.018003542 0.0604005 0.010670403 0.017208762 -0.020643009 -0.0008951 -0.007936648 0.007210724 -0.0062514883 -0.0062681083 -0.018190779 -0.008066351 0.02665119 0.0072310083 0.0048080315 -0.0274018 0.008064419 0.0027701673 0.017243804 -0.010156672 0.013679213 -0.01727695 0.024680257 -0.04089908 -0.022145728 0.032471433 0.02211466 0.018693412 0.010281137 -0.0216565 0.04182731 0.0047208713 0.0030759592 0.02538223 0.008687683 -0.01794457 0.041242816 0.023954075 0.029909698 -0.0026836556 -0.013907037 0.030676313 -0.03223222 0.020572348 0.026572526 -0.0009202257 0.010066817 0.017790137 0.03151398 0.035962127 -0.0032924055 -0.015786458 -0.0054492266 0.006250918 -0.024500841 0.012089647 0.0005341965 -0.012725571 -0.038715873 -0.0194914 -0.00608032 0.023911687 0.04205016 0.026598144 0.008148822 -0.0097599225 -0.0033492134 -0.0028301904
81027 0.006704741 0.03617643 -0.033142634 -0.07010661 0.06332257 0.033015806 0.03794072 -0.021664692 0.050950125 -0.06858532 0.013231629 0.036515817 -0.014084737 0.011422026 0.059235927 -0.068966135 -0.08275303 0.017209718 0.049761593 -0.0011849932 -0.05882354 -0.06530072 -0.06638021 -0.007306631 -0.007631485 0.09787544 -0.027506148 -0.0069313007 -0.0603101 -0.083330564 0.004159488 -0.027483588 -0.027763048 -0.111042 0.017856725 0.10666756 -0.005870748 -0.06454303 -0.024310222 -0.14410964 0.09662712 -0.033483475 -0.025430942 0.003887467 -0.05296905 0.07667293 -0.07277274 -0.008474561 -0.075006075 0.0031483227 -0.051012177 -0.07073129 0.11031485 0.13348901 0.050205357 -0.040908545 0.02813191 -0.064084776 0.0850866 0.0145983165 -0.10803251 0.110696845 0.037943304 0.09530227 -0.068390824 -0.052281253 -0.01923609 -0.0014341671 -0.048269186 0.081574775 -0.022401467 -0.033878364 0.06259848 -0.004103955 0.02994702 -0.050374307 0.065761246 -0.03604252 0.094067626 0.003900366 0.04649389 -0.083657466 0.035260875 -0.053377893 -0.054265745 0.074283704 0.05718629 0.033858508 0.05780347 0.0028779807 0.042380013 -0.03222537 0.03215013 0.016653685 -0.008974153 -0.04262886 0.07024952 0.0036688787 0.04539337 0.0067261225 0.03035151 0.06270028 -0.077782534 0.038316384 0.096692264 -0.013813962 0.027836088 0.03931862 0.034777362 0.08325541 -0.11564113 -0.07373808 -0.019363822 0.0034959263 -0.023274653 0.041051533 0.005326579 0.003002889 -0.15448157 0.029966397 -0.044673573 0.074639 0.09876821 0.0048901676 0.04138184 -0.022522407 -0.0040760906 -0.031839237
81755 -0.033680048 0.09604001 -0.08086068 -0.06378338 0.13865851 -0.010711709 0.012832236 -0.046278715 0.0017185856 -0.1355358 0.119226575 0.062872045 0.04793381 0.051266704 0.01855407 -0.109974936 -0.091455825 0.03427218 0.088023864 -0.056369707 -0.06220884 -0.011843504 -0.03151838 -0.061072037 0.009059257 0.10324065 0.0069833533 -0.0020468521 -0.11168431 -0.04740639 0.012760909 -0.027444782 -0.11671324 -0.1771748 0.055684447 0.053344846 0.06527868 -0.160683 -0.007094381 -0.1627482 0.061751105 -0.086172916 0.018376628 -0.023074508 -0.01706091 0.13990569 -0.16992061 -0.060898427 -0.10339112 0.031651948 0.030168995 -0.19063193 0.046807192 0.13841277 0.038141232 -0.09483499 0.06917429 0.032769397 0.11163144 -0.014991154 -0.20440915 0.093422756 0.019596078 0.1440641 -0.19423111 -0.111458175 -0.103509076 -0.049517684 -0.07624642 0.13449615 -0.04909685 -0.0820654 0.18931553 0.022073988 0.022089304 -0.078411505 0.1523622 -0.12633435 0.16485593 -0.011899854 0.028866526 -0.12683295 0.04189128 -0.047093462 -0.06680761 0.06400973 0.114846274 -0.053216465 0.08239394 0.012209457 0.035384595 -0.0696056 0.0008652857 -0.0136142755 -0.06720792 0.0009828291 0.07025367 -0.082100414 -0.031733356 0.03176334 0.1370505 0.13021737 -0.14887634 -0.03359189 0.15837176 -0.0028175514 -0.049348097 0.056666844 -0.016182551 0.08712995 -0.2268116 -0.122617915 0.055915598 0.035831816 -0.016206067 0.0665027 -0.006876289 0.092592366 -0.17780595 0.10504603 -0.090695135 0.049542107 0.18227452 0.05722626 0.050452683 -0.038326517 -0.10132347 -0.07607751
