2483 128
120804 0.22972909 0.07974949 -0.01069284 -0.05653006 0.041565176 0.22398019 0.0504715 -0.23636365 0.0076073143 0.109253265 0.03511315 -0.21025796 0.023854626 -0.0028467542 -0.14409782 -0.17879081 -0.2371579 -0.1958953 0.13578582 -0.064787164 0.033685047 -0.022062326 -0.09370791 -0.026308894 -0.24370173 -0.13602842 -0.051930152 -0.1602982 -0.12560564 0.20901841 -0.084793776 0.023349535 -0.062308233 -0.050069127 0.14794596 -0.028236005 0.17582282 -0.080937564 -0.14151429 -0.26831618 -0.13930629 0.29958817 -0.08000131 -0.11777476 0.043723024 0.045469567 -0.19177517 -0.06882199 0.12974118 0.21353419 -0.1167373 -0.10828745 0.08941198 -0.06189809 0.13807447 0.23889594 -0.033874888 -0.050511863 -0.13013835 0.35702977 0.020895215 -0.16173041 0.18534568 0.08113246 0.01803721 0.30032372 0.110067576 -0.033418983 -0.13406621 -0.060911797 -0.19208741 0.16175865 -0.09856786 -0.19443987 0.13906328 0.15558645 -0.25950417 -0.049415868 0.19483177 -0.16434374 0.061180416 0.053089567 -0.08740251 -0.14382881 0.060246903 0.02292045 0.07652991 0.060620546 -0.057802334 -0.1960534 -0.0011229666 -0.0048191007 -0.15912014 -0.04093868 -0.0025520627 -0.17182815 -0.011910606 -0.0919259 0.081397586 -0.008095296 0.10068476 -0.104479976 -0.08749556 0.101623304 -0.10859816 0.116957195 -0.12926427 0.15879056 -0.06484085 -0.033443697 0.061621718 0.00068650284 0.022794232 -0.16129158 0.21436463 0.13212788 0.22127536 -0.121128194 -0.19764215 -0.15352638 0.010796965 0.28486532 0.23348896 -0.035944596 0.0030771196 0.12644511 0.10397911 0.09774794
120805 0.00027331445 0.00028217753 -0.0007884858 -0.0018892871 0.0022570847 0.0033409921 -0.0025513833 0.002507319 -0.003248139 -0.003754965 -0.00017643854 0.0028940313 0.0024569617 0.000376573 -0.00056095014 0.0022722317 0.0033684555 0.0023885858 0.003718435 0.0010604765 -0.002718765 -3.7023092e-05 -0.0025496387 -0.0006773843 -0.0017188115 -0.0017848543 -0.0034288906 -0.00072671974 -0.0015742938 5.202026e-06 0.002318901 -0.0005434991 -0.0027750027 0.0024709322 0.00325968 0.0031820883 -0.0007924385 -0.00024031398 0.0029119165 0.0009506571 -0.0029374552 -0.00038704163 -0.0026090392 -0.0015698964 -0.0029914114 0.00089279766 -0.0024378344 0.0012125676 -0.0022178893 0.0012563308 -0.0014198995 0.0033187335 0.0020713347 0.00079708983 -0.0013052481 0.0038826698 0.0002687185 -0.0031969533 0.0024730987 0.0014979164 0.0021452345 -0.0037949071 0.003288624 -0.0035044898 0.003791737 0.0024950432 -0.0028027587 0.0036212278 -0.0012709253 0.00040503868 0.003574353 -0.0021456755 -0.00094991695 0.00069332746 -0.001776382 -0.0017585768 0.000253949 0.003615448 0.002012713 0.0037444707 0.00340803 0.00012927932 -0.0037070422 0.002800334 -0.002691131 0.0028111616 0.003271936 -0.00032156493 0.0032746692 -0.002503412 -0.0030443592 -0.0021364773 0.0015595848 -0.0022499582 -0.001285504 -0.0005905165 -0.0025073243 0.0021501414 -7.3109775e-05 -0.0019097956 0.0005003869 -0.0023731561 -0.0016849014 0.0033727563 -0.00013288917 0.0026205264 -0.0017288522 -0.00093317364 -0.0026173352 -0.002667127 0.0022432245 0.00052585517 0.0033178832 0.0023612373 0.0037206812 0.0035711003 -0.0037408427 -0.00018878563 0.0010825642 0.0026496544 -0.0033037441 0.0011917842 0.00057067216 -0.0023097666 -0.002982099 0.0031183586 0.0003290188 0.002585527
120806 0.05445867 0.0035866208 0.04112285 0.011888213 0.036369707 0.09281988 -0.019275114 -0.12683097 -0.056327067 0.00042251777 0.053645346 -0.104161285 0.03972539 -0.01741382 -0.02057708 -0.066752076 -0.12834549 -0.109814964 -0.025526894 -0.061931185 0.015735848 0.0016404364 -0.07672211 0.01901101 -0.08147685 -0.044043858 0.006303603 -0.058367427 0.0018961546 0.07067576 -0.058913272 0.026539966 -0.02450337 -0.07206172 0.0652096 -0.03665426 0.09447022 -0.04778241 -0.05736043 -0.10903369 -0.08027512 0.043677896 -0.03641365 -0.043545853 0.049072213 0.0073594335 -0.05872313 -0.053396683 -0.008135942 0.03494531 -0.054089025 -0.020197427 -0.000335165 -0.034651127 0.071807094 0.04572558 -0.0367227 -0.07002609 -0.069564335 0.15169492 0.020042708 -0.03711486 0.057393253 0.02671088 0.003886169 0.096378304 0.022548117 -0.040176198 -0.07242259 -0.01619211 -0.05666801 0.04910354 -0.02374116 -0.09555087 -0.014736829 0.059853815 -0.06309041 -0.038103893 0.08064552 -0.06644284 -0.005415731 0.02735811 -0.013720786 -0.08249144 0.027875867 -0.015785687 -0.031458024 0.007878605 -0.09249317 -0.03984653 0.043221593 0.0013647773 -0.061304897 -0.07924553 0.0015191658 -0.08569496 -0.027692307 -0.07445394 0.04977239 0.017842146 -0.028027328 -0.03640341 -0.011454045 0.019397061 -0.0043442547 0.0377985 -0.025433078 0.08553988 -0.007781362 -0.0027961181 0.020925697 0.038681835 -0.055877894 -0.006330903 0.10454491 0.07019755 0.053836174 -0.09565012 -0.048807334 -0.051634915 0.012886003 0.09636401 0.07048796 0.0015940566 -0.009837442 -0.031004632 -0.038072158 0.028389525
120807 0.013381189 0.019887945 0.0036320458 0.0016645109 0.019111121 0.033705834 -0.02038761 -0.044853207 -0.015235335 0.0011356286 0.005323018 -0.029748993 0.010085353 -0.0057018884 -0.019512273 -0.026219886 -0.04966879 -0.042142026 0.021484442 -0.0032325727 -0.010183859 -0.00901868 -0.03208984 0.0059077684 -0.02601834 -0.03140911 -0.012456717 -0.02200664 -0.023779122 0.024569735 -0.02472838 0.014034724 -0.0001689035 0.0019281493 0.027225126 0.0065334938 0.035219204 -0.009357634 -0.03065734 -0.036966577 -0.012367445 0.044009276 -0.0053348904 -0.016175406 0.01607685 0.004057065 -0.027442694 -0.006799606 0.013642342 0.0100295115 -0.020217916 -0.021857126 0.027375905 -0.02295098 0.02702344 0.026589105 -0.027016634 -0.03458751 -0.020371579 0.037074476 0.0067666103 -0.024356812 0.01605448 -0.005014619 -0.0022750287 0.045504496 -0.0029010559 -0.033152394 -0.01869893 -0.0124061145 -0.022182118 0.027013225 -0.014459875 -0.037466653 -0.006550359 0.020224797 -0.03326454 -0.0042159203 0.04320754 -0.03535624 0.008162099 -0.0002935893 -0.020618128 -0.025604127 0.022408845 0.00010856497 0.02014702 -0.003990845 -0.02124051 -0.023847552 -0.0066434434 0.012704986 -0.03595831 -0.017637243 -0.028193366 -0.027670557 -0.005721002 -0.0062584877 0.00080809137 0.0036380715 0.026034627 -0.012136117 0.0056556473 0.00556694 -0.0021815423 0.019827083 -0.012657512 0.023715831 -0.0048301034 0.004818501 0.0038385985 0.021958318 0.012899278 -0.009985988 0.06084307 0.03093521 0.04193731 -0.02700169 -0.01606017 -0.020192105 0.0014018896 0.035552643 0.04314865 -0.012087522 0.00738958 -0.0036695173 0.0019085939 0.015070054
120808 0.008935092 0.0276841 -0.009817156 0.007098884 0.010358254 0.051757563 -0.028811228 -0.03010042 -0.031938463 -0.019308785 0.004214828 -0.055448394 0.014560557 -0.0044756676 -0.005275546 -0.03167783 -0.06500422 -0.049475923 0.021708215 -0.021126911 -0.01649784 -0.013918053 -0.033363998 -0.0023656802 -0.020202463 -0.014005408 -0.026069265 -0.015682405 -0.04023612 0.012090017 -0.020177942 0.0034200205 0.0027064346 -0.007209331 0.026529508 0.016534 0.022018673 -0.02939091 -0.022831684 -0.046297137 -0.017394366 0.045057315 -0.01246905 -0.00657123 0.011350936 -0.0012828006 -0.023159422 -0.012512305 0.009180254 0.012355824 -0.015284977 -0.031596877 0.039747596 -0.030528005 0.015801843 0.023134911 -0.03192521 -0.05044022 -0.031144198 0.052039407 -0.012450668 -0.019141553 0.014595015 0.003114765 -0.00044508465 0.039817907 -0.025612438 -0.035424836 -0.027388 -0.0248313 -0.030066222 0.023272008 -0.008648947 -0.038824953 -0.02458621 0.029303309 -0.028436646 0.002771931 0.052949034 -0.02803201 0.013819014 -0.0066278246 -0.0137611255 -0.03751035 0.03230684 0.010300575 0.020308815 6.254126e-05 -0.027871272 -0.031896327 -0.0022223294 0.0037213555 -0.040603984 -0.015979698 -0.029790753 -0.039613683 0.008079748 -0.018214816 -0.000110674344 -0.002505865 0.021703478 -0.031049784 0.02561499 -0.0018503108 -0.0011288511 0.02958889 -0.0044920775 0.04696033 -0.006714218 0.014652887 0.013488744 0.020160139 0.0017215693 -0.026022367 0.0656548 0.048428692 0.04417508 -0.028135948 -0.00420296 -0.017567312 0.00758364 0.054616075 0.043292444 -0.0042907614 0.020915745 -0.0038982455 0.01320834 0.009378053
120809 0.003797554 -0.0028555088 0.0030216612 -0.0025350703 0.0003478337 0.00017480149 0.00040129112 -0.0015040986 -0.0032857093 -0.0002517153 -0.002009063 -0.00014236721 -0.0017255235 -0.00054745184 0.0033182506 0.0031476587 -0.0020805036 -0.002463894 -0.002607512 0.00019827975 -0.0033974443 0.002492795 -0.00022889712 -0.0012005517 0.0019636683 0.0021421346 0.002809688 0.0026931022 -0.0024280578 0.003158952 0.0025183212 -0.003579751 -0.0010088752 -0.0034350788 0.0012283992 -0.0023736109 -0.0024723443 -0.0033051558 0.0029497244 0.002798603 0.00078130467 -0.0010568958 0.0025082359 0.001894383 0.00012716882 -0.0020651093 -0.002310802 -0.0015124888 -0.0038759361 0.0019672313 0.0006120496 0.0025805682 0.0031732572 0.0025123297 -0.0032478576 -0.00056640146 -0.002819814 0.00381842 0.0023751042 -0.001264191 0.0039016204 0.0034047512 -0.003565354 -0.0018942193 -0.002361526 0.0027413787 -0.00035633455 -0.0025738222 -0.00011036657 -0.0031162354 0.0036734855 1.708214e-05 -0.0038294662 -0.00038925576 0.0021566432 0.0025254795 -0.002147578 0.002008866 -0.00029553025 -0.00022440514 -0.00084153865 0.0011815456 -0.0022365851 -0.0039032146 0.0035176778 0.002452289 -0.0014753888 -0.00042656696 -0.0014413542 -0.00166438 -0.0002810909 0.0034030897 -0.00045212352 -0.0038212761 0.003224911 0.0036592772 0.0027102076 1.1862354e-05 -0.0028464538 -0.0036128697 -0.0014607812 -0.002539791 -0.0021342246 -0.0038475522 0.0033520414 -0.0036688398 0.0004527674 0.00067781756 -0.0033414399 0.0012434804 -0.0025048726 0.0026678464 0.0034979444 -0.0037979388 0.0025572465 -0.0005454967 -0.00034430728 -0.0031936564 0.00041648117 -0.0007844735 -0.0026420073 -0.0008273508 -0.002702614 -0.0010140006 0.00024057137 0.00012211384 0.0030941542 0.0021600688
120810 0.10363737 -0.025739461 0.10387489 0.0022481566 0.07927145 0.1181205 -0.04161114 -0.14133726 -0.10497341 0.03043743 0.056458563 -0.15780357 0.042373467 -0.07462363 -0.015122879 -0.10270243 -0.17924562 -0.17751692 -0.05992994 -0.096399456 0.020208508 0.014193271 -0.14190614 0.032532427 -0.09145261 -0.076150395 0.021611499 -0.10035918 0.007860785 0.06963304 -0.08195258 0.01688928 -0.01563433 -0.10635021 0.097972475 -0.050801728 0.08883878 -0.05707192 -0.07865116 -0.13415098 -0.07030342 0.06734837 -0.049794115 -0.02772301 0.04075607 -0.020585978 -0.07607127 -0.09333634 -0.018053358 0.011814879 -0.05405633 -0.055083733 -0.025939433 -0.05492798 0.100102976 0.05306137 -0.049689177 -0.091103114 -0.095001236 0.19995995 0.02198695 -0.00895735 0.071151465 0.028494898 -0.019829284 0.15024927 0.014091526 -0.07343021 -0.08061981 -0.019545047 -0.06938459 0.049773697 -0.039864723 -0.14298622 -0.065872125 0.10411829 -0.087955214 -0.016024241 0.12470787 -0.11914035 0.006846497 0.028088998 0.018428493 -0.10617355 0.08884572 -0.074335754 -0.05156426 0.03711767 -0.1653172 -0.034084402 0.11344637 -0.00056104147 -0.09892551 -0.14155048 0.03301699 -0.13046281 -0.029283693 -0.10592383 0.12203758 0.0016398806 -0.09027344 -0.037586078 -0.022028122 -0.0016022142 0.03545708 0.025961634 0.0064892867 0.14876997 -0.0028328032 -0.007323561 0.03875891 0.07948796 -0.097578675 0.008238636 0.16038 0.12012896 0.09814146 -0.14186455 -0.030495273 -0.078590006 -0.0067267143 0.1342303 0.121468954 0.015987024 0.039398383 -0.092053525 -0.04304328 0.0019899802
120811 0.03450941 0.018036347 -0.011172229 0.01098349 0.020761833 0.057452045 -0.045143 -0.04667778 -0.005318941 -0.005078421 0.01731326 -0.07328245 0.01526085 0.0031402952 -0.017409436 -0.044751704 -0.06157606 -0.057238694 0.014574322 -0.014265075 -0.018973099 0.01271144 -0.008308862 0.005413319 -0.03983366 -0.03201275 -0.02695923 -0.022609476 -0.041267194 0.022223832 -0.016853536 -0.0026493056 0.0080087045 -0.017381966 0.03879271 0.0052214065 0.033199895 -0.026598308 -0.029762657 -0.061549354 -0.018477967 0.075633235 -0.019293703 -0.02428341 0.020364836 0.012550172 -0.036226068 -0.022287216 0.036268935 0.050895877 -0.034055695 -0.027787302 0.03946527 -0.027147751 0.026088014 0.04867443 -0.013898139 -0.036209714 -0.03274401 0.07941293 -0.009968215 -0.029575191 0.03262771 0.008231962 0.005429863 0.06217098 -0.03163485 -0.041581016 -0.027568018 -0.029743062 -0.028770989 0.03996808 -0.0153950695 -0.05803703 0.0115860365 0.053370524 -0.05553503 -0.012541747 0.04185788 -0.03727422 0.026296342 -0.0054488224 -0.02880502 -0.047154944 0.023489239 0.016389506 0.025916344 0.026584534 -0.020622777 -0.059438523 -0.013495556 0.019293478 -0.049515653 -0.0055405046 -0.041927826 -0.04705861 -0.0029327173 -0.028090622 -0.011344683 0.011413325 0.02892091 -0.047436442 0.03971613 0.015966043 -0.01665304 0.041107602 0.0020779436 0.032585405 -0.0004014126 0.011387741 -0.0005216059 0.020217258 0.011133119 -0.039156802 0.08786112 0.05131052 0.05907464 -0.037450038 -0.02028608 -0.024271304 -0.0030992373 0.061227545 0.049502414 0.002002201 0.027158245 0.019876938 0.020609723 0.026079006
120812 0.07301056 0.004446753 0.058743663 0.022143517 0.07471999 0.12977895 -0.048606213 -0.15951826 -0.079878464 1.2732835e-05 0.05218049 -0.13670973 0.04653045 -0.043465942 -0.022993641 -0.09870489 -0.18163878 -0.1485168 -0.027559692 -0.07805367 0.026903426 0.006658835 -0.09734754 0.0372137 -0.12096569 -0.08807294 0.020728061 -0.08067364 -0.0049027274 0.08307263 -0.06758834 0.030376747 -0.030034304 -0.07454786 0.06657784 -0.023115287 0.11321328 -0.05129285 -0.07625387 -0.13739857 -0.08371093 0.103814565 -0.063830584 -0.06827228 0.053199023 -0.0020206703 -0.072576284 -0.07363421 0.0070641506 0.040770564 -0.09610371 -0.028435783 0.0142705375 -0.05289874 0.09887712 0.058459654 -0.04713478 -0.1041236 -0.080889896 0.19629754 0.023598759 -0.044004317 0.08467833 0.04183915 0.010373847 0.1282995 0.006505744 -0.058137704 -0.07580042 -0.025652941 -0.056637466 0.061283387 -0.029839044 -0.15660344 -0.020327536 0.078648135 -0.09604283 -0.02409822 0.11415455 -0.091484234 0.016717976 0.026618809 -0.025312511 -0.09443174 0.031219956 -0.012161467 -0.017247016 0.01551951 -0.09336876 -0.08239186 0.049628887 0.0056895115 -0.111959115 -0.08231389 -0.008199537 -0.11304612 -0.022229033 -0.09646192 0.049773064 0.0046009086 -0.029356869 -0.036662 -0.0053188717 0.03294304 -0.029291749 0.033252485 -0.010299207 0.10444145 -0.010490009 -0.0037323653 0.0039391215 0.053766664 -0.08548702 -0.011353601 0.12470549 0.07596171 0.07998482 -0.12873814 -0.063882574 -0.06291327 -0.0060492037 0.11954328 0.1221988 0.0036254937 0.021503212 -0.014801411 -0.026657978 0.018573573
120813 0.00046953972 0.008811706 0.013950058 0.022755997 0.03244464 0.027636157 -0.038282428 -0.046778552 -0.019697234 -0.008944864 0.020906506 -0.05654273 0.020205474 0.0010483528 -0.004220003 -0.038712896 -0.06967809 -0.06913477 -0.010316004 -0.02255954 -0.015185878 -0.0035918483 -0.048019815 0.012293764 -0.03928457 -0.018091008 0.001906479 -0.01028501 -0.01614957 0.0049015693 -0.027710568 0.010956343 -0.006618226 -0.026961615 0.025023393 -0.01730959 0.029364767 -0.043979425 -0.0035138782 -0.037529882 -0.032440975 0.032486103 0.0055470597 -0.04520851 0.022109138 0.008951502 -0.0320853 -0.033185706 -0.015292025 -0.003665648 -0.04152293 -0.016953627 0.0328501 -0.023398504 0.028614577 0.012559219 -0.028329689 -0.06290556 -0.030572785 0.034159273 0.0002728634 -0.011736767 0.00283527 -0.009833286 0.015121624 0.031432718 -0.025820833 -0.044623453 -0.035857745 0.0012969084 0.0030481415 0.0112193255 0.007709245 -0.03676939 -0.027167771 0.016943946 -0.03833618 -0.022598296 0.045765266 -0.031345088 0.0122229075 -0.0061912453 -0.0029830292 -0.05274021 0.04264079 0.020298837 -0.010995956 -0.024486499 -0.03209743 -0.020457916 -0.024284313 0.034045298 -0.046042148 -0.021860676 -0.035073876 -0.0468708 -0.012956716 -0.016862491 0.0051706145 0.0123362485 0.010130221 -0.015166877 0.045640826 -0.0039280634 0.03109974 0.008507168 0.002590585 0.023821322 0.022647453 0.00861813 -0.0054055275 0.03530194 -0.008463675 -0.009418768 0.07234987 0.029979102 0.040450897 -0.05995618 -0.0028289994 0.0027999745 -0.006516769 0.043450784 0.028294638 0.0020415145 0.028119445 -0.02423227 -0.009215584 0.023077536
120814 0.084131286 -0.0134425415 0.07274754 0.026198067 0.07550173 0.13972653 -0.056539595 -0.1586179 -0.07916032 -0.014716193 0.050941862 -0.15742455 0.046650417 -0.04243749 -0.00939411 -0.10577217 -0.19098382 -0.18055442 -0.03495298 -0.09388722 0.014293713 0.0049865292 -0.11718288 0.031669956 -0.11878892 -0.08623845 0.025285954 -0.08462423 -0.013933121 0.07841364 -0.06545465 0.0072816047 -0.023079673 -0.07260429 0.07402678 -0.033156943 0.10031423 -0.058162034 -0.07386991 -0.12976827 -0.06649629 0.08816812 -0.055557247 -0.062890664 0.055679373 -0.0050614057 -0.06184119 -0.074698105 -0.012458794 0.01159421 -0.074383326 -0.04487025 0.009133497 -0.04824984 0.083229974 0.042382892 -0.063876264 -0.120935306 -0.0829204 0.1778052 0.020781325 -0.036929026 0.07250482 0.019859876 -0.0018145881 0.12741028 -0.018440066 -0.073260866 -0.07774887 -0.04024841 -0.049012598 0.056300975 -0.004192565 -0.1631621 -0.06446743 0.090418056 -0.10794436 -0.024036676 0.10301873 -0.09787684 0.025915107 0.02616342 -0.011505537 -0.10928475 0.045336112 -0.02462101 -0.021240378 0.017888887 -0.12755726 -0.06291302 0.06080671 0.020674128 -0.12147115 -0.091844544 -0.019921051 -0.116350405 -0.023728287 -0.09396507 0.058775917 0.011391076 -0.037970528 -0.057599507 0.024971712 0.009940159 -0.0041142283 0.04234731 0.0077447793 0.13125733 0.005793534 0.009089572 0.014362235 0.061195537 -0.07669705 -0.0009939643 0.13411665 0.104237825 0.08504973 -0.13006346 -0.017805342 -0.06668824 -0.022546731 0.10547969 0.108729444 0.014505108 0.04643401 -0.050783776 -0.016173787 0.021226415
120815 0.0137611125 0.007752512 0.003214344 0.015234883 0.027238313 0.055024568 -0.032071065 -0.051610794 -0.012681989 -0.008106518 0.008342455 -0.06706989 0.02355595 -0.0051079397 -0.014368458 -0.0412187 -0.072168075 -0.08239511 0.005484956 -0.027820205 -0.009566752 -0.0075244186 -0.034860805 0.0030882305 -0.05112642 -0.023044217 -0.013434518 -0.015737027 -0.03116927 0.022664858 -0.026419062 -0.0001839712 -0.0013320316 -0.020604588 0.03423507 -0.0015128752 0.035158396 -0.03131679 -0.020107549 -0.061996907 -0.027446968 0.038162183 -0.0032529489 -0.049316768 0.012705641 0.011496736 -0.024739597 -0.025055988 -0.0052914903 0.011073567 -0.040965486 -0.025311057 0.035439357 -0.023954706 0.01663473 0.0060193795 -0.028226513 -0.06817607 -0.027137632 0.05723387 -0.0067777946 -0.024238056 0.013629498 -0.0046473932 0.009204566 0.043555886 -0.024337158 -0.042480752 -0.032730315 -0.015409522 -0.012168231 0.03131256 0.010993717 -0.04566801 -0.010421323 0.027768034 -0.040712625 -0.015247537 0.047818005 -0.03332237 0.012999518 -0.00042262347 -0.010698161 -0.060658198 0.038763173 0.028600333 -0.002839207 -0.0064995484 -0.026812764 -0.034327745 -0.027053565 0.018487185 -0.048597362 -0.013189933 -0.049430657 -0.045309503 0.007542864 -0.016560877 -0.0065475325 0.005536502 0.023880683 -0.02577129 0.036124654 0.006512944 0.0063511007 0.025529465 -0.00082483987 0.035024572 0.010542702 0.0009140918 -0.0016503864 0.025537642 -0.011354851 -0.019734249 0.082393505 0.025864344 0.0471098 -0.04233297 -0.0061101713 -0.008565194 -0.009515334 0.051387668 0.035101905 0.0014124939 0.024479724 -0.014872258 0.0051114582 0.025652157
120816 -0.0023869718 0.020670027 0.005219124 0.011685088 0.055257317 0.060774982 -0.04319204 -0.05858477 -0.03243141 -0.019196738 0.010357614 -0.07831651 0.037107255 -0.027749332 -0.023466637 -0.05256394 -0.10756829 -0.119198516 0.023731157 -0.02684218 -0.026170148 -0.014803607 -0.06708856 0.01641731 -0.074346475 -0.03021267 -0.017729044 -0.01596993 -0.06676004 0.024750259 -0.040986083 0.009794356 -0.0033751274 -0.027973162 0.055866152 -0.020717248 0.050650608 -0.05886864 -0.034608178 -0.09253906 -0.04368925 0.065306626 0.005880367 -0.060471646 0.01541747 0.0053254757 -0.03006438 -0.021122072 -0.0067801652 0.0024076274 -0.047758866 -0.036737256 0.05072553 -0.05686409 0.03919455 0.007783738 -0.045918413 -0.08312699 -0.03375439 0.061586283 -0.0068218443 -0.023554934 0.011666851 -0.015338139 0.0051852344 0.064068526 -0.030360388 -0.05819974 -0.0300084 -0.029911172 -0.009368798 0.04362124 -0.005473978 -0.054862756 -0.02269086 0.019005347 -0.058766454 0.007253565 0.08093631 -0.05045197 0.0116995135 0.0012956673 -0.026541483 -0.06706539 0.059414912 0.022833355 0.0033278703 -0.021621661 -0.03159545 -0.035713524 -0.039059762 0.032608286 -0.06756626 -0.024449427 -0.053130727 -0.06217975 -0.0021771626 -0.020323528 0.011786415 0.0051351115 0.03399468 -0.024489839 0.03904777 0.0056418786 0.0113207875 0.03539345 0.000881991 0.046375982 -0.00995755 0.0076264483 0.010380598 0.02553914 -0.00320098 -0.02439368 0.11146181 0.046654247 0.08172405 -0.0670797 -0.0062246206 -0.007214679 -0.0009156604 0.058720272 0.04999013 -0.0009816219 0.03352196 -0.018939868 0.006196615 0.025504608
120817 -0.00045106444 0.00024577347 0.00045188286 -4.60521e-05 0.003744035 -0.0028155209 -0.0021439192 -0.0036141076 1.070228e-05 -0.0031567523 -0.0034218999 0.0020641012 -0.0036957453 -0.0017498909 -0.0004955669 -0.0031727876 -0.0037352254 0.0016956066 0.00075867365 7.071235e-05 -0.00197311 0.00010629139 0.0005706049 0.0021414335 0.0026376953 -0.0011188278 -0.0015589308 -0.0010822379 0.0020512838 -0.0020766435 0.00386564 -0.0027694383 0.0036530402 0.0036381918 0.0020934038 0.0030301104 -0.0034823448 -0.0027274098 -0.0014659823 -0.0039038218 0.0024972314 -0.001173065 -0.0009712338 -0.00023473501 0.0013036034 0.00067278085 -0.00046080476 0.0034029738 -0.0020803125 -0.003328742 0.00036993215 -0.0008102755 -0.0019402049 -0.0028412254 0.00086503447 0.0032894427 -0.0018286408 -9.279415e-06 7.940602e-05 -0.0033923876 -0.0014767178 -0.0019138625 -0.00060067116 -0.0010125493 -0.0014522298 -0.00038198265 -0.0016203829 0.002857443 0.001989848 0.00042794473 -2.2167527e-05 0.0014180477 -0.0029418375 0.0014049533 0.0038182032 -0.0013393856 0.00011322395 0.0005027176 0.0010577373 -0.0031735732 0.0012514871 -0.00062125496 0.0021116 -0.0018143137 -0.002288137 0.00021878512 0.00049394916 0.00072848407 0.0014165746 0.0031521602 -7.332148e-05 -0.0021493123 0.0035862706 -0.0022018263 -1.7346082e-07 0.0030960487 0.0018467178 0.0034626815 0.0035918283 0.002948477 -0.0007708963 -0.0016851875 -0.0002897602 -0.0008971936 -0.0028316472 0.00019595014 0.0017196191 -0.0029279315 0.003663977 0.003463883 -0.0012518709 -0.00245324 0.00046201723 -0.0006964587 0.0036872257 -0.00085228006 0.0021768853 0.0002327717 -0.00047938566 0.0013869217 -0.0007776593 -0.00084874785 -0.0010151217 0.0025064487 -0.0015946092 0.0015884653 0.0036437013 0.00329187
120818 0.17002301 -0.015216398 0.11514589 0.010440434 0.09821432 0.18698926 -0.047043875 -0.18917213 -0.08361686 0.027084116 0.042543713 -0.20593275 0.03319855 -0.06700173 -0.0091063855 -0.14035366 -0.23553155 -0.19448006 -0.024764175 -0.120627716 0.016722858 0.028191648 -0.13576926 0.016256645 -0.106460884 -0.120608315 0.037358668 -0.13483207 -0.02007112 0.11250393 -0.088259034 0.0030557632 -0.034284912 -0.06740945 0.06705076 -0.023621017 0.08572248 -0.043496814 -0.08856452 -0.1288761 -0.039215222 0.13764389 -0.08139346 -0.030394237 0.052129164 -0.031295627 -0.12669343 -0.10805447 0.037437636 0.03983771 -0.06956837 -0.060616553 -0.03429061 -0.051259033 0.086859345 0.09177259 -0.06367984 -0.087825865 -0.12660287 0.25195572 0.02289128 -0.050561335 0.12957759 0.051841516 -0.017301235 0.16901493 0.010310983 -0.057538725 -0.07296533 -0.052949492 -0.11887824 0.051493425 -0.010084059 -0.1943604 -0.09305387 0.12559707 -0.16629453 -0.02374403 0.118344426 -0.14488482 0.025556255 0.043788277 0.013928562 -0.08669565 0.044145763 -0.10732809 0.015138322 0.07056677 -0.19092274 -0.096279874 0.12492338 0.0010081952 -0.14772905 -0.11481089 0.020836119 -0.15206277 -0.015930746 -0.11209925 0.10128236 -0.017707048 -0.070416376 -0.079009674 0.004894272 -0.012813643 -0.0013005629 0.056775816 -0.0030023023 0.20478207 0.026667815 -0.0042865067 0.03889693 0.076366834 -0.09049141 -0.017843828 0.12993775 0.12590785 0.11316187 -0.13257359 -0.03770359 -0.14020793 -0.035825692 0.15146653 0.1262364 0.0254742 0.061638422 -0.052627053 0.010761721 0.012115325
120819 0.051538616 0.011034498 0.045613717 0.028814951 0.031829756 0.081867814 -0.04820279 -0.11327046 -0.047772843 0.011272877 0.043119792 -0.09666407 0.05152806 -0.008053929 -0.0008223435 -0.065116726 -0.11234729 -0.0753842 -0.024933582 -0.061132718 0.016788218 0.009412461 -0.07401938 0.020876158 -0.050921474 -0.033604655 0.01150572 -0.06254547 0.012436738 0.059505317 -0.06299457 0.022799892 -0.024428222 -0.06001882 0.037836716 -0.014074903 0.063283816 -0.043769445 -0.04115908 -0.07224695 -0.060261525 0.0366702 -0.040387433 -0.045905296 0.048706498 -0.0030274948 -0.06475518 -0.064626805 0.0009446357 0.029208152 -0.05162081 -0.017407225 0.00059006736 -0.028500145 0.04825202 0.038803305 -0.03285059 -0.07070706 -0.05441599 0.13758537 0.0046488396 -0.039096173 0.06683142 0.034354787 0.019647662 0.07542304 0.01516513 -0.043403316 -0.0732814 0.0009702854 -0.041613676 0.03154359 -0.008112316 -0.10160434 -0.016756121 0.055558708 -0.05006828 -0.04594613 0.06713462 -0.06493486 -0.00022558303 0.019047152 0.005243348 -0.07154363 0.025434416 -0.004786273 -0.043678444 0.005649055 -0.0982884 -0.056111563 0.050956763 -0.0019411587 -0.054012876 -0.0610003 0.008200791 -0.0952377 -0.017838545 -0.06371339 0.041606795 0.019807816 -0.034761366 -0.038399186 -0.0016365598 0.024674933 0.021762645 0.014350445 -0.0144132115 0.07425914 0.010902529 -0.0013518976 0.0068847425 0.049464513 -0.065999016 -0.014175116 0.09637469 0.044030022 0.034992944 -0.097641334 -0.047518354 -0.052547745 0.0028958034 0.096187115 0.061042156 0.004110159 -0.0071619735 -0.031858303 -0.041156862 0.017114017
120820 0.22569129 0.07679596 -0.024310624 -0.05937668 0.04631044 0.24559966 0.033100765 -0.24023135 0.015721643 0.103444025 0.03773511 -0.2515131 0.02476457 -0.0013622367 -0.13645856 -0.21319146 -0.26727048 -0.23097937 0.12175962 -0.07463224 0.018342791 -0.042070568 -0.10320036 -0.042611692 -0.28279856 -0.1330971 -0.051538717 -0.15017368 -0.1360901 0.21525666 -0.091076136 0.023609867 -0.07989534 -0.08099211 0.16701886 -0.05192705 0.19279103 -0.12775502 -0.13007826 -0.3002312 -0.1775625 0.28238058 -0.05538501 -0.16070104 0.06142502 0.053950418 -0.20554765 -0.08265271 0.11500006 0.22379552 -0.13655661 -0.1323298 0.075754724 -0.06605905 0.15488873 0.23824404 -0.05764129 -0.09184814 -0.16711773 0.40132567 0.03345992 -0.15792525 0.19478875 0.065168075 0.031042539 0.31311584 0.11853588 -0.03110643 -0.16394815 -0.07626343 -0.19975743 0.18342005 -0.07520086 -0.19214377 0.14291172 0.15886179 -0.279308 -0.07024121 0.22216211 -0.19006434 0.060860638 0.06807754 -0.0731678 -0.18785174 0.10156163 0.053806964 0.07586026 0.035870984 -0.07279155 -0.20813864 -0.028805815 0.008085164 -0.18937571 -0.028352587 -0.007415269 -0.22096325 -0.013106031 -0.09058686 0.09471808 -0.006409608 0.11653323 -0.09783469 -0.067541786 0.09855853 -0.09513358 0.12238956 -0.14559467 0.1909946 -0.059433542 -0.03677404 0.05227137 0.0033073977 -0.0032990132 -0.17863242 0.23692298 0.13652453 0.25017375 -0.13558201 -0.21659732 -0.15950222 0.011183241 0.3109697 0.23471287 -0.036683194 0.015835522 0.11123027 0.12170973 0.12121683
120821 -0.0027585395 0.0025523084 -0.0011985492 -0.0020667154 -0.0036659124 0.0024477122 0.0021381672 0.0006652139 0.0016774867 -0.0019408482 0.0038866652 2.1979966e-05 -0.00080482796 -0.0017262936 -0.003759584 -0.0010509144 0.0038285227 -0.0014455809 -0.001014092 0.00028791596 -0.0016680959 0.0015301416 0.0016199952 -0.0035576955 0.0016619514 0.003249778 0.0008814528 0.0028562825 0.000520748 -0.0001821513 0.0016390949 -0.0013712393 -7.803368e-05 0.0010033093 0.00014844464 0.0031667452 -0.0030183573 0.0037637379 -0.0037092234 0.0016152395 0.002525081 0.001262928 -0.0033920696 0.0015531161 0.0022353514 0.00018863326 -0.0028026174 0.0028823453 0.0032833328 0.0010951137 -0.0021557284 -0.0035723334 -0.0010699707 -0.0006627419 -0.0015995756 0.00022764305 0.00010970683 -0.0012719142 0.0028751553 -0.0033676003 -0.0009995353 -0.0027124041 -0.0015608417 0.0023063994 0.00065861474 -0.0036772129 0.0013824897 0.00018659285 0.0015377173 -0.002626871 -0.00066878536 0.002607499 -0.002251009 0.0010588884 -0.0027893772 -0.0019098673 0.0009819476 5.048224e-05 8.76541e-05 0.0017422972 -0.0016403788 0.0035998698 0.00330209 -0.0031785972 0.0004990828 -0.00037899535 -0.000100148034 0.00012936795 -0.00210134 0.0030718348 -0.0013789003 0.00019894555 0.00033890142 0.001061286 -0.0014939957 -0.00010319387 0.0014365868 -0.0033494895 -0.00070645416 -0.001211541 -0.0026617066 -0.0011007239 -0.0002659578 -0.00026586925 -0.0031125948 -0.00036285172 0.0038235092 0.0010049399 0.0025915257 0.0025918973 -0.0020951559 0.0027210703 -0.0030644538 0.0006882803 -0.0031092786 -0.003437199 -0.0015220669 0.0026715663 0.0006266524 -0.0004942777 0.0007007872 -0.0013898733 0.0035937664 0.0036840346 -0.0028350174 -0.00018389073 0.0036406796 -0.001063059
120822 0.014243425 0.028492715 -0.019067245 0.016607476 0.024708174 0.04779673 -0.03833867 -0.061522678 -0.020967666 -0.0055648168 0.015904017 -0.06343911 0.024042787 0.008628367 -0.018203665 -0.05115782 -0.07399547 -0.06227866 0.022584878 0.0011035859 -0.009634731 -0.0066384617 -0.02830421 0.020587873 -0.05435741 -0.036402766 -0.032546967 -0.023258148 -0.033235725 0.013700352 -0.014165266 -0.0028357848 0.013078421 -0.01479394 0.03939658 0.019637842 0.0473074 -0.039207783 -0.027671486 -0.06586535 -0.021384986 0.09649749 -0.029067377 -0.032982673 0.017616916 0.0031473308 -0.03967666 -0.018314533 0.032189783 0.03023225 -0.042306997 -0.037031367 0.065123506 -0.03358695 0.03227613 0.04286899 -0.029413555 -0.062077656 -0.018182933 0.059729673 -0.014792919 -0.034398343 0.019521596 0.003052535 0.027392134 0.058117203 -0.041960713 -0.054976154 -0.02396359 -0.019688955 -0.007768905 0.03801745 -0.012898551 -0.0679261 0.0075546275 0.06231351 -0.07007724 -0.015106873 0.052632637 -0.03728524 0.034481738 -0.0025680305 -0.034761988 -0.049509287 0.03404867 0.03688725 0.034595903 0.0014484397 -0.017478975 -0.06303899 -0.026631506 0.036392815 -0.06441667 -0.008276441 -0.055144396 -0.03633109 -0.0038730113 -0.024720151 -0.010087375 0.010979056 0.045601252 -0.04106702 0.03850079 0.021670166 -0.011305572 0.03170475 -0.0063757417 0.024249582 -0.0007115171 0.015680349 0.0058876514 0.029111963 0.021276774 -0.04377293 0.10455683 0.047908943 0.0505332 -0.054934047 -0.006941174 -0.010171111 -0.0078148125 0.06485658 0.07523029 -0.015801223 0.037937887 0.0254748 0.020700822 0.027449029
120823 -0.0013361645 0.0029915215 0.0036405616 0.0006228856 0.0036058705 0.0026301104 0.00085295003 -0.003404975 3.064335e-05 0.002952228 -0.0014269735 0.0035225127 -0.0035743874 -0.00022827653 0.0025885785 -0.0010415533 0.002886455 5.067611e-06 -0.0036722466 -0.0035258257 -0.0023632487 0.0033547967 -0.002970245 -0.001985589 -0.0022083789 -0.0031041144 -0.00092407246 0.00042054235 0.0022267306 0.0006538834 0.003405787 -0.0017601908 0.001837821 -0.0008451401 0.00022254408 -0.003558018 -0.003660189 -0.001969533 -0.0038459757 0.0003142457 8.474964e-05 0.0030944108 0.0037550456 -0.0012060503 0.0026406066 -0.0037707791 -0.002720924 -0.0034085242 0.0037996098 0.0027404556 9.4003386e-05 -0.0014051307 -0.00015915226 0.0025748136 -0.0010955536 -0.00041486046 -0.00046361817 4.8717597e-05 -0.00085815677 -0.0029344754 0.0013907601 0.0036215843 0.0022240367 -0.00318892 0.0019748614 -0.00014994979 -0.0032972812 -0.000118387696 0.0016671297 -0.0033989835 0.0012875624 -0.0035929095 0.0027126006 0.00018161659 0.0035104128 0.00039306327 0.0027026027 0.002294792 0.0020838014 0.0017103964 0.002356823 0.0030104024 -0.0035353482 0.0010641161 0.0015421703 0.0031911822 0.0020069035 -0.002957608 -0.000652545 -0.0012756921 -0.0005168775 -0.0032843337 0.0035786927 0.00034592347 0.00024785628 -0.00046404076 0.0036846336 0.0011537103 0.0029977923 0.0024541207 0.0013916115 -0.003244693 0.0028467611 0.0014532474 0.0036499118 0.00020003904 0.0036727288 -0.0011400499 0.0036865408 -0.0011640602 0.0017597533 -0.0020954448 0.0012481281 0.0008190714 0.003197553 -0.0030530544 0.0037599339 -0.003164603 -0.0024959946 -0.001375339 0.00011766355 -0.0032215845 0.001040288 0.0010663576 -0.0033762956 0.0014430064 -0.0031162822 0.000543357
120824 -0.006338036 0.00872206 0.016394261 0.02320822 0.051256433 0.055102415 -0.03900981 -0.06894319 -0.047122307 -0.019235667 0.009814436 -0.089052565 0.036730725 -0.021087551 -0.0209383 -0.055166144 -0.11629437 -0.12542878 -0.013295003 -0.03329303 -0.026595253 -0.006005603 -0.060821842 0.033494245 -0.05923186 -0.03515054 -0.00014646197 -0.025078015 -0.0374226 0.011461395 -0.046602536 0.025912141 -0.0049504256 -0.021625632 0.043722738 -0.0150752645 0.06436483 -0.037432052 -0.028138721 -0.07846644 -0.03531145 0.061172027 -0.009933497 -0.04186232 0.014122343 -0.002681843 -0.033732675 -0.029623123 -0.008957416 -0.011104329 -0.057597805 -0.022498345 0.0357883 -0.036421333 0.0356982 0.013852285 -0.048178084 -0.090917945 -0.04109828 0.064753264 -0.004117928 -0.021219386 0.023073113 -0.0047585107 0.0030332422 0.05900672 -0.043882426 -0.06449553 -0.033902958 -0.029266477 -0.0061450615 0.04189151 0.0003948148 -0.06135671 -0.04855467 0.028613653 -0.052045055 -0.009423676 0.08242839 -0.05102528 0.0018426006 -0.00071355625 -0.029055862 -0.047629315 0.05288129 0.0067286785 0.009947631 -0.020199189 -0.04299466 -0.026050406 -0.029880147 0.025040127 -0.07583305 -0.039145783 -0.05339577 -0.06145062 -0.013956844 -0.026986822 7.8601755e-05 0.018206226 0.009887963 -0.022427145 0.043815456 -0.0043435725 0.013175588 0.01802205 0.010644824 0.053700507 0.0016720153 0.014478437 0.0070081344 0.04784396 -0.016874673 -0.0146013945 0.10742102 0.052926168 0.067736536 -0.08218716 -0.012836727 -0.0076596867 -0.012861708 0.068200774 0.0643286 -0.0042708367 0.03353584 -0.033985857 0.0017176948 0.020762196
120825 -0.0028001745 0.003213198 0.00049963087 -0.002922945 0.002900939 0.0023465494 -0.0008983613 -0.0031114705 0.0025016994 -0.0029352435 -0.0025034477 -0.0012247822 -0.0028336227 0.0004418329 -0.0012723557 0.0036911252 -0.0023385903 -0.0004107846 -0.00039571265 0.0022369004 -0.0005632593 0.00012286792 -0.0024927577 0.0018637546 3.0666786e-05 0.003714882 0.0034896599 -0.00375047 0.00019387092 0.000119305725 -0.0014629379 0.0018859148 -0.0031638588 0.00017065805 0.0008682492 0.0028679024 0.0035645047 0.00055515516 0.0017005941 -0.002989184 -0.001175198 0.0004942364 0.0030586128 -0.0014013716 -6.573043e-06 0.00056567695 -0.0027835597 -0.0027744332 0.0025647206 -0.0030619197 -0.0027901726 -0.002414944 0.0007323943 -0.0028724242 -0.0033582523 0.0016877919 4.0572617e-05 -0.0026870475 -0.0004948903 5.206497e-05 -0.00091214874 -0.0016884228 0.0026222542 0.0037776355 0.0031817525 -0.0031561516 0.003768975 0.0020295372 -0.0037474632 -0.0037623926 -0.0024896981 0.0033927555 0.0035552832 9.4921845e-05 0.0014434828 0.0018483173 -0.00059546984 -0.0012738747 0.0011563114 -0.000710313 0.0028706754 -0.0015164624 0.0028025063 -0.0035267828 0.001882285 -0.002549418 -0.0036235075 0.0027604091 0.0015311833 -0.00096390117 0.0026145638 0.0035735078 0.0009673314 0.0028903503 -0.0034525895 -0.00044715393 0.0037965968 0.0003137038 0.0022510402 -0.00316132 0.0014267805 0.0011746351 -0.0030247148 -0.0025482145 -0.002541329 -0.003468198 0.0026373928 0.00125007 0.0013972973 -0.00096066867 0.0011132346 -0.00096024893 -0.0020093864 -0.0037063898 0.0009351834 0.0010161117 -0.0011529526 0.003411361 -0.0033820514 0.00024622274 0.0035836447 -0.0035254613 0.0031446307 0.0008149625 -0.0008311793 -0.0009627322 -0.0006163529 -0.0035303
120826 0.038221397 0.0033226626 0.04703722 0.030279627 0.052717987 0.08508092 -0.056076773 -0.11827846 -0.061096106 0.003624162 0.040369414 -0.102862105 0.035903797 -0.018549994 -0.00084356836 -0.06450559 -0.1387941 -0.10367098 -0.024191666 -0.047119476 -0.0024896623 -0.006557497 -0.09673407 0.03003431 -0.059365377 -0.053585198 0.009911805 -0.060390867 -0.004177759 0.039227366 -0.06195828 0.023975128 -0.015375075 -0.06202134 0.053095695 -0.021554712 0.05290875 -0.05236065 -0.04992172 -0.08348812 -0.07188348 0.052549545 -0.027520403 -0.05481276 0.047510576 -0.0010491841 -0.060425833 -0.059336275 -0.009899628 0.0044509363 -0.045032628 -0.02856365 0.026192836 -0.043814566 0.06678018 0.022172932 -0.03936029 -0.09725526 -0.058673605 0.12360797 0.0070635597 -0.025682379 0.042821296 0.012536756 0.018564599 0.07104431 -0.006353283 -0.062946 -0.056838375 -0.0056139757 -0.035572477 0.02665871 -0.015709989 -0.09985635 -0.040418345 0.054350156 -0.057769276 -0.034802902 0.09117546 -0.07461463 0.009928373 0.009034798 0.0031253619 -0.07566785 0.0558198 0.0007505481 -0.046667054 -0.0037135275 -0.09965062 -0.04206402 0.03890222 0.013088761 -0.07072583 -0.06825798 -0.01845041 -0.09026291 -0.008502606 -0.06238039 0.039145175 0.006566585 -0.022782272 -0.03254015 0.02353755 0.007894151 0.020426368 0.010571558 0.005904613 0.07876365 0.025311116 0.0038731883 -0.0008065231 0.05448321 -0.049433317 0.009930692 0.11508211 0.06447853 0.059494235 -0.11095577 -0.028047677 -0.03327865 0.011824089 0.08890216 0.08275503 -0.004541183 0.014197808 -0.055314995 -0.028291391 0.021860683
120827 0.018093333 0.029286334 0.00046563795 -0.0028888702 0.040906303 0.051566713 -0.030193584 -0.052519478 -0.027939592 -0.0037045951 0.009093481 -0.043975558 0.006040692 -0.01907341 -0.023288546 -0.037441146 -0.067071036 -0.0610996 0.013822207 -0.0116709415 -0.012735402 -0.008791839 -0.048873685 0.026102882 -0.050440624 -0.05464454 -0.011373041 -0.02346601 -0.030163834 0.022034481 -0.025681887 0.009804487 0.0053018928 -0.0064346697 0.032664493 0.017897105 0.041312072 -0.015055051 -0.040044043 -0.0470135 -0.017536525 0.08268307 -0.03554057 -0.022822801 0.011230206 0.0061545745 -0.037490614 -0.026918218 0.023273114 0.020151183 -0.036841124 -0.030836659 0.043758262 -0.032718252 0.032802545 0.043924764 -0.03219081 -0.04743678 -0.025229424 0.049341545 -0.004069584 -0.03237686 0.014144703 -0.00032251666 0.013220575 0.057249933 -0.035647474 -0.045446455 -0.019057777 -0.019767215 -0.01751065 0.025510015 -0.019260546 -0.065936476 -0.0008086439 0.04913726 -0.062259212 0.0056772768 0.056694467 -0.03943146 0.02934565 -0.008202995 -0.032143347 -0.028146334 0.028549958 0.009729237 0.03758533 -2.2895401e-05 -0.024727076 -0.046300534 -0.014997918 0.031285837 -0.06891794 -0.017870609 -0.037848655 -0.027983934 -0.009349571 -0.03258014 -0.009731889 0.005906795 0.028335635 -0.013384731 0.023964295 0.0009109219 -0.0088600665 0.021414794 -0.0073722 0.02411765 0.004129766 0.009910506 0.0064286655 0.029257225 0.022227265 -0.015223748 0.07896864 0.036450326 0.047804385 -0.0451582 -0.011744517 -0.010119199 -0.010012442 0.045176536 0.07874468 -0.019100163 0.031624828 0.0035830624 0.009383538 0.013664802
120828 0.035467822 0.02921213 0.0023478358 0.0316241 0.026583387 0.09050415 -0.07181048 -0.07893465 -0.03360242 0.0037498516 0.018622763 -0.11443594 0.051882118 0.006371973 0.015599619 -0.072863445 -0.12113035 -0.07237558 0.010204074 -0.044708226 -0.008846608 -0.0023917903 -0.065108225 0.009655853 -0.04770073 -0.030575238 -0.011999852 -0.03530388 -0.03864398 0.03388189 -0.037601605 -0.006862258 -0.0019288145 -0.030198332 0.035641897 0.0024609754 0.04211706 -0.06616367 -0.038012836 -0.08422056 -0.0632052 0.06406957 -0.02393737 -0.05146596 0.038506307 0.01065655 -0.060405333 -0.056350306 0.014149309 0.028876578 -0.03131147 -0.04830628 0.05506462 -0.027603831 0.027432332 0.038407408 -0.04678708 -0.09583224 -0.048796367 0.13050488 -0.014613239 -0.03179305 0.052367408 0.017459853 0.013622003 0.05283096 -0.025667502 -0.067873664 -0.059991486 -0.019701846 -0.033714894 0.027375184 0.0111252405 -0.08967093 -0.014404639 0.0585258 -0.042258874 -0.03215611 0.07188229 -0.05389705 0.014455954 0.012585292 -0.010572917 -0.08721738 0.04631354 0.043334715 -0.015243726 0.006324293 -0.07545352 -0.072435044 0.01578326 -0.0015021494 -0.06498077 -0.028714761 -0.041521303 -0.09072974 0.00849655 -0.04763454 0.0050615706 0.0032181076 0.008909197 -0.051599257 0.048746888 0.012519398 0.0058547985 0.03069684 0.0058234786 0.067865945 0.0093018785 0.01394067 0.0013528962 0.02857821 -0.031000564 -0.037204012 0.10586117 0.04549463 0.06249574 -0.07788137 -0.012534492 -0.037921306 0.0091974465 0.08631956 0.06296796 0.0001529688 0.022558449 -0.010148041 0.010985027 0.029080506
120829 0.0032344987 0.0034028322 -0.0026036443 0.0020049072 0.002867055 0.0019891136 0.0032158934 0.0019792817 0.0025325192 -0.00042123074 0.001739031 -0.00029954044 0.0023969905 0.0037590056 -0.0022155696 0.0022797487 0.00055827264 0.0021473337 -0.0037300426 -0.0007864254 -0.0036179982 0.0019133278 -0.0020087238 -0.0022609276 -0.0030189226 0.0015832427 0.003278788 -0.0038608832 0.0002948125 -0.0033414594 0.0025809864 0.00045703893 0.0029425565 -0.0036231258 -0.0030512363 -0.0023029456 0.00053836254 0.0021997318 -0.0018069616 0.0029272535 0.002235886 -0.0033796632 0.0007062971 -0.0003211901 0.0035191209 0.0020916539 0.0017489733 -0.0024951766 -0.003826488 -0.0007094014 0.00034578337 0.003480399 0.0018048673 0.003617128 0.0032579184 0.0038649614 1.594793e-05 0.0012098273 -0.00053671986 0.0015554319 0.0019351011 0.003627807 0.001982026 0.0023186842 -0.0028874031 -0.0034644203 0.0036539356 -0.0004900634 0.0029553648 -0.0011646416 0.0023334043 -0.00177178 -0.0025833708 0.00061008823 -0.0011197513 0.0021970547 -0.0003398269 -0.002225069 0.0025228306 -0.0036067003 0.0003830276 0.00038148594 0.00018706183 0.0012554129 -0.0016984938 0.0021851733 0.003412712 -0.0020047335 0.0008638087 -0.00025476213 -0.0011952557 7.269159e-05 1.7918816e-05 0.0019535855 -9.984376e-05 -0.0030103652 0.0034942538 -0.00070930365 0.0028861274 -0.000855588 0.0016718853 -0.000840913 -0.002002725 0.0010563149 -0.0027627926 0.00027503178 -0.0033800683 -0.0011276419 0.0037497743 -0.0015432184 -0.0016912229 -0.001413554 0.0033453144 0.0038155469 0.0015303486 0.0018634461 0.0017350519 0.0033936026 -0.0028946707 0.0026245979 0.0023199276 0.00096673955 0.0028337366 -0.0018377084 -0.002095833 -0.0003447083 0.0026315565 -0.0017298784
120830 0.015739648 0.022983113 0.010858178 0.018649235 0.032788023 0.060899135 -0.053128876 -0.07275091 -0.029279415 -0.0076624127 0.01825345 -0.08828013 0.029658392 -0.0028769558 -0.019512724 -0.056012493 -0.09785433 -0.081679866 0.015129039 -0.01957276 -0.017293053 -0.0076473868 -0.047315925 0.024843318 -0.053288 -0.039210454 -0.0107558975 -0.038406175 -0.027014835 0.018642206 -0.03080616 0.00441019 0.007156605 -0.018199926 0.035296004 0.008407753 0.04093825 -0.034250163 -0.033200633 -0.06953085 -0.023872564 0.0931753 -0.030762892 -0.035951536 0.016224531 -0.0010644164 -0.05510812 -0.033707537 0.026962446 0.014018886 -0.053943183 -0.039731886 0.050355386 -0.028556589 0.03227857 0.038341705 -0.033317413 -0.071085155 -0.043405544 0.07065043 -0.009632437 -0.038567476 0.02506261 0.006120218 0.01626111 0.06812791 -0.04420283 -0.06283511 -0.04135188 -0.020615777 -0.0069343504 0.035086244 -0.0066172183 -0.06905837 -0.013791817 0.05346856 -0.067858934 -0.018021585 0.069976255 -0.04999679 0.037081726 -0.009443383 -0.021997692 -0.058472957 0.044719398 0.027831983 0.024032468 -0.0023355174 -0.045836825 -0.052768458 -0.018085666 0.03118559 -0.06999364 -0.023942653 -0.047452096 -0.046505317 0.0015374183 -0.021743922 0.0025598863 0.01549473 0.027702764 -0.03682496 0.038793337 0.010517768 0.012657564 0.02230642 -0.004285698 0.044383664 0.011751819 0.019585611 0.013768837 0.034364082 -0.007054678 -0.03949251 0.104292735 0.05065587 0.06610418 -0.06858657 -0.018700598 -0.020092592 -0.009564096 0.07242638 0.07508679 -0.005546673 0.031956416 -0.0010935193 0.017225284 0.0224236
120831 0.003409652 -0.0027310366 -0.0010802639 -0.0005903865 -0.0026485682 0.00075785775 0.001968819 -0.0035771695 -0.0010068809 -0.0021409395 0.00046879452 -0.0037529904 0.003217674 0.0028794156 -0.0032614805 -0.0011068636 -0.0035091385 0.0014700309 0.00034608593 0.0038513218 0.0013397572 0.0026274126 0.0005815168 -0.0024454307 0.0027633987 -0.0015413358 -0.0016491826 -0.0019450025 0.0019422247 0.0027560513 0.0035709841 0.00011233734 0.002262731 -0.0009536228 -0.0029169046 0.00044803004 0.0023277062 0.0019931302 0.0037928533 -0.0026996937 0.00020546163 0.0035936004 -0.0009946806 0.0016753034 -0.0013427492 -0.0018475864 0.00045309993 0.001818088 -0.0023864286 0.00015823838 -0.0012857364 0.0029831848 -0.002687158 0.001836874 0.0030212349 -0.0002447726 -0.0037151803 -0.0018195726 -0.0036820138 0.0020802447 -0.0033835827 0.0011011807 -0.003143997 0.00074133376 -0.0014338306 -0.0028829335 -0.0018742348 0.0035640835 -0.0032571757 -0.0034207029 0.0027984 0.0007410145 0.002114314 0.00016409945 -0.0013067173 0.0018883849 -0.0026587425 0.0037590046 -0.003531406 0.0016029638 -0.0006097965 0.0013368654 -0.003385712 0.00020937531 -0.0001754965 0.001029477 -0.001866145 -0.00209929 0.0017409741 0.00022487059 0.0028908027 0.0017287437 -0.002124177 -0.0031168826 -0.00032994614 -0.002144846 -0.0034184665 0.00228472 -0.0031957019 0.002852681 0.00340078 0.0017917716 0.0017509945 -0.0019441416 0.0038582382 -0.00031056564 -8.990352e-07 -0.003168601 3.2384107e-06 -0.0020004814 0.003827682 0.0026752707 -0.003181593 -0.0003238582 0.00051231054 0.0032315252 0.001976335 -0.003543851 -0.0030139799 0.0017558505 0.0003959764 -0.0019301435 -0.00074185117 -0.0035224047 -0.0030746 -0.0003815844 -0.003566781 -0.0037739796
120832 0.13192506 -0.10001281 0.1645773 0.036883097 0.055995613 0.12387014 -0.033462644 -0.19566828 -0.097943135 0.04089719 0.082644284 -0.2026835 0.06056652 -0.051107846 0.022735473 -0.1140349 -0.19155873 -0.19476794 -0.12129662 -0.15531558 0.05645471 0.045817465 -0.121420056 0.018969703 -0.065581664 -0.036365025 0.04602579 -0.12731045 0.09792998 0.10351412 -0.11164086 0.018131493 -0.055435713 -0.16923599 0.07807911 -0.073200315 0.088157326 -0.04324301 -0.032841988 -0.14475138 -0.07562118 -0.03277352 -0.020778798 -0.004491223 0.075718164 -0.020200552 -0.117348775 -0.13468678 -0.035131633 0.013524188 -0.08713748 -0.009931447 -0.11901367 -0.020362245 0.093684606 0.049210187 -0.03199554 -0.093627 -0.10315521 0.24227059 0.006466975 -0.010471398 0.13855942 0.08771972 -0.019136347 0.116716795 0.0750522 -0.057278458 -0.13210624 0.0056539117 -0.08945054 0.022738311 0.016002564 -0.14961883 -0.099074386 0.105205506 -0.10163786 -0.06985781 0.12442344 -0.1424503 -0.015004634 0.05551743 0.078678474 -0.088727355 0.050705064 -0.123745255 -0.08773794 0.009385273 -0.24564692 -0.027764477 0.19785585 -0.012523508 -0.07515636 -0.15744922 0.08795234 -0.17547451 -0.061172817 -0.09337627 0.1748716 0.00894128 -0.19743428 -0.054227453 -0.029939555 -0.00035537133 0.09960126 0.026287846 -0.015721845 0.22039625 -0.002447817 -0.021007217 0.02368142 0.110003136 -0.19454893 0.017385889 0.15687074 0.10839343 0.062314175 -0.16829221 -0.08101863 -0.12392012 0.016503898 0.16971079 0.04512549 0.063711725 -0.007029155 -0.12647597 -0.07689335 0.010206683
120833 0.062606506 -0.08567213 0.18745361 0.013726232 0.002926251 0.043852955 0.048636075 -0.19076814 -0.04965227 0.030359844 0.063416876 -0.18051319 0.07641279 -0.03523452 -0.021031555 -0.09668962 -0.1785705 -0.20189202 -0.16323268 -0.13951641 0.008315491 -0.007413539 -0.12346896 0.004992121 -0.050369184 0.0120592695 0.06635508 -0.12471251 0.112171575 0.08984703 -0.18310075 0.12841919 -0.1421809 -0.1845896 0.061787963 -0.15077397 0.090964004 -0.05474257 0.045807395 -0.10879513 -0.09502658 -0.13170803 0.056048702 -0.017063927 0.05032122 -0.00038832278 -0.15319948 -0.09593899 -0.061048266 -0.046695497 -0.08993001 0.021563422 -0.15106793 0.04127885 0.07156561 0.054342166 -0.03764652 -0.10307992 -0.15332143 0.18873572 0.07274913 -0.032153353 0.13447922 0.049307395 -0.01657127 0.11555408 0.12932768 0.0042653834 -0.16806933 0.0067049535 -0.07551477 0.05549659 0.06898356 -0.004954566 -0.15932739 0.015220093 -0.13322592 -0.12604745 0.115416534 -0.119846605 -0.12365051 0.06911239 0.106235236 -0.06527936 0.08531311 -0.112227246 -0.06424136 -0.071091935 -0.25896445 0.039039165 0.08697917 -0.002068642 -0.05651742 -0.14394595 0.13279472 -0.11644577 -0.096099146 -0.024295341 0.20185061 0.07389579 -0.1743351 0.016546384 -0.04340184 -0.07276146 0.14558332 -0.03229521 -0.07298271 0.27277854 0.03733053 -0.058329944 0.05612989 0.082756884 -0.17834571 0.012033454 0.110383034 0.09620207 0.04324496 -0.19452214 -0.14325601 -0.13047381 0.004562715 0.16662283 0.009296236 0.029864645 -0.04685254 -0.20846154 -0.073024966 0.023773225
120834 0.14892128 -0.016737064 0.13301758 0.020305015 0.09629416 0.1639676 -0.060494985 -0.21597706 -0.13687873 0.05369414 0.09234306 -0.17337511 0.040479098 -0.052650064 -0.018992396 -0.11773261 -0.20288059 -0.15160994 -0.049420066 -0.10739389 0.053586848 0.0163711 -0.15512022 0.039735246 -0.09503874 -0.092968985 0.024364104 -0.13892333 0.059719887 0.10245408 -0.08119636 0.009483236 -0.014018927 -0.13808298 0.1039931 -0.05302223 0.10835613 -0.05430834 -0.13470134 -0.17186053 -0.10649056 0.09534552 -0.09441152 -0.029871576 0.0726763 -0.02674043 -0.093023986 -0.11253455 -0.00420976 0.05907474 -0.07260431 -0.03818181 -0.022820976 -0.073207654 0.15158567 0.077569745 -0.036524516 -0.07720582 -0.088583425 0.26951438 0.022661567 -0.021079315 0.09475383 0.05019504 0.0016908629 0.16790386 0.050573602 -0.083087094 -0.10297123 -0.0015087093 -0.10588138 0.042435728 -0.0989174 -0.2084583 -0.033842646 0.15356994 -0.0823241 -0.044109438 0.13468805 -0.13704386 0.04333836 0.030144852 0.014495055 -0.10734605 0.066027105 -0.08705405 -0.09480404 0.065422885 -0.20138443 -0.06915318 0.18517563 -0.018613325 -0.10830945 -0.18065983 0.053014982 -0.15813357 -0.03620552 -0.1637644 0.13391367 -0.009914551 -0.112192854 -0.056207184 -0.053475656 0.04340954 0.018864175 0.03211818 -0.009052164 0.13380109 0.008730772 0.006815287 0.032374308 0.09377528 -0.13080238 0.024356248 0.19990906 0.13688989 0.08008761 -0.16699158 -0.06572932 -0.0918337 0.033202004 0.1819143 0.15475775 0.017399099 -0.011200763 -0.07575188 -0.082506426 0.008066577
120835 0.019565035 0.017030982 0.008403007 0.0056706 0.02805851 0.06227161 -0.018334236 -0.069233894 -0.028871328 -0.007302072 0.0083274245 -0.056595866 0.023617063 -0.0053058146 -0.03098089 -0.045120247 -0.09011602 -0.08619409 0.016832009 -0.020429326 -0.01487954 -0.013925055 -0.053500593 0.0068518193 -0.06427458 -0.031219577 -0.012572073 -0.021232735 -0.035399545 0.02269228 -0.02833694 0.018113125 -0.0012637626 -0.018976461 0.035355773 0.0009593253 0.045175448 -0.03301309 -0.02181379 -0.065927714 -0.032447696 0.06349022 -0.0139799975 -0.034614746 0.013999521 -0.0008135145 -0.041502114 -0.019925743 0.008453261 0.016976874 -0.04958369 -0.031128474 0.04738497 -0.036286473 0.043241058 0.020742577 -0.027990121 -0.06634805 -0.03381555 0.05206416 -0.013065539 -0.023850614 0.010301298 -0.0007816532 0.010269962 0.047233306 -0.033033185 -0.054224424 -0.03083861 -0.01485394 -0.013515313 0.027208243 -0.0044208663 -0.05284728 -0.029593565 0.03484257 -0.060073856 -0.006236884 0.0676442 -0.04599406 0.020140043 -0.005735539 -0.020092677 -0.045782864 0.043695603 0.018668469 0.023759475 -0.017683461 -0.030932538 -0.037150268 -0.018702965 0.029123796 -0.05612465 -0.017256467 -0.043235328 -0.048416495 -0.00060917565 -0.013530565 0.0026184428 -0.004394575 0.03148341 -0.017893203 0.030372584 0.006296903 0.010692598 0.027923882 -0.017363198 0.037151832 0.0086696725 0.02043168 0.010733695 0.030035298 0.0101309735 -0.025127761 0.09954238 0.051394213 0.056737367 -0.045968015 -0.016854817 -0.007022431 -4.9608265e-05 0.06349686 0.06879941 -0.016962608 0.027828055 -0.012962424 0.009345741 0.018868828
120836 0.1364134 -0.067839265 0.16295713 0.006401168 -0.021342471 0.11014786 0.021732347 -0.19299282 -0.047259957 0.05969329 0.092562936 -0.16782156 0.08578044 -0.018690495 0.017172692 -0.08694643 -0.14457704 -0.12845701 -0.112262666 -0.14932159 0.07889237 0.022297397 -0.11725444 -0.017174197 -0.05747295 0.0060004247 0.026702274 -0.12991425 0.11511573 0.1420906 -0.16521141 0.060873445 -0.10943014 -0.15891592 0.049999997 -0.082395084 0.10333361 -0.047256753 -0.0057067852 -0.11937457 -0.08987949 -0.112817064 -0.006035429 -0.022147195 0.09724915 0.010773588 -0.11655646 -0.112818524 -0.037431493 0.03729626 -0.088263966 0.0147792315 -0.144538 0.036032695 0.032202344 0.08167468 -0.03711985 -0.06867719 -0.10606688 0.22843629 0.04182533 -0.075930275 0.1578067 0.09133201 -0.037527747 0.099826284 0.11773213 -0.0068195392 -0.17661235 0.005171001 -0.12151632 0.040839374 0.042189937 -0.13536084 -0.073353685 0.07327882 -0.08572859 -0.13262594 0.071396895 -0.10199424 -0.068979986 0.07318515 0.08885843 -0.088173784 0.006671158 -0.10100309 -0.092739314 -0.02522345 -0.28148785 -0.035405394 0.16397324 -0.04275807 -0.054993957 -0.11559068 0.11289663 -0.15511006 -0.0809948 -0.097549856 0.16449754 0.05340306 -0.1910723 -0.032403506 -0.06044149 -0.012897224 0.09594547 0.0140700005 -0.07909361 0.2154056 -0.0037740418 -0.024049478 0.03226802 0.07716633 -0.1913384 0.006722704 0.09861653 0.093617275 0.0007189035 -0.16337559 -0.12957722 -0.15370269 0.024375645 0.16587888 0.0057575675 0.042375453 -0.07002826 -0.12087049 -0.11513612 0.00939403
120837 0.009409888 0.015069213 0.007764628 -0.0011292872 0.016795514 0.034923013 -0.029761886 -0.028512606 -0.01063035 0.0007159023 0.009206767 -0.051411994 0.020613411 -0.013933107 -0.018080246 -0.033611637 -0.04798418 -0.06171891 0.015206293 -0.009020484 -0.008719094 -0.009896712 -0.032001786 -0.0031500515 -0.030694917 -0.015580882 -0.018144445 -0.02164325 -0.029294964 0.020394603 -0.021857703 0.0031694009 -0.006544704 -0.023160722 0.034157805 -0.010676063 0.03283992 -0.031716704 -0.02895367 -0.050233483 -0.028853862 0.029409846 0.0014382248 -0.03344649 0.01606535 0.0028149 -0.018120628 -0.010757769 0.0042134696 0.0128371995 -0.021395138 -0.02823518 0.033218622 -0.02738987 0.014789646 0.014349433 -0.019748325 -0.0518802 -0.027990786 0.0414766 -0.0006688556 -0.026971351 0.013222128 -0.008872451 0.0027793492 0.04399976 -0.009169136 -0.023138862 -0.03421352 -0.01778578 -0.027322646 0.041298952 -0.015168214 -0.030802216 -0.005225856 0.025978083 -0.028684901 -0.01255661 0.049488112 -0.032545414 0.009560333 0.0049879597 -0.013464681 -0.051014125 0.034919884 0.0106468275 -0.0044745584 -0.0063701877 -0.030688941 -0.025924014 -0.011408877 0.0063052126 -0.03945002 -0.021941474 -0.014496079 -0.03953997 -0.0040605036 -0.01702857 0.013289366 0.015593784 0.010709102 -0.025808066 0.0052212835 0.006998108 0.004049667 0.015793199 -0.010660363 0.038736157 -0.007865457 0.004382998 0.0074305916 0.015186556 -0.0039916234 -0.019129988 0.06179472 0.045322932 0.0454647 -0.037676312 -0.010680425 -0.024717271 0.006295001 0.05712648 0.04068094 -0.010462264 0.010247658 -0.016697912 0.003468293 0.017519994
120838 0.2919913 0.121447 -0.031464636 -0.11232563 0.050086666 0.32642034 0.052283168 -0.27642548 -0.0026853117 0.16033708 0.03552653 -0.29900774 0.012066683 -0.0500853 -0.16599686 -0.24751613 -0.30803186 -0.25668678 0.17973259 -0.05930673 0.023849497 -0.08245687 -0.13546908 -0.0872015 -0.30392003 -0.17610382 -0.07388358 -0.17149964 -0.16205762 0.2715467 -0.09855647 0.010217207 -0.090057015 -0.067648716 0.19410913 -0.033300046 0.19630277 -0.14677645 -0.19845894 -0.3451031 -0.19548307 0.3275896 -0.059985824 -0.16993268 0.04645085 0.049471367 -0.23377158 -0.0774768 0.12928511 0.28185135 -0.14582987 -0.16319238 0.09840512 -0.12465578 0.18853115 0.2561393 -0.07777449 -0.09950253 -0.19115874 0.46325496 0.023048487 -0.16857828 0.21320353 0.081417896 0.0188475 0.38392782 0.18117806 -0.014329667 -0.17023595 -0.081361115 -0.29535705 0.19808589 -0.11530028 -0.24545366 0.16305707 0.17522167 -0.2966265 -0.048023324 0.28334507 -0.24816692 0.0805933 0.09317601 -0.052739836 -0.2244328 0.1358233 0.03120123 0.094460174 0.07023281 -0.10307907 -0.24492793 0.008381082 -0.01498914 -0.21299855 -0.025475431 0.01458834 -0.28140807 0.01596161 -0.09859498 0.104876935 -0.040139243 0.14042787 -0.09613275 -0.12318526 0.10240412 -0.11672839 0.16077149 -0.17105511 0.23973793 -0.08195301 -0.05274926 0.05206444 -0.017732615 -0.0071233627 -0.19609977 0.2691816 0.15112048 0.2994359 -0.10915559 -0.24138322 -0.23820564 0.03990423 0.3815271 0.2895333 -0.05623803 -0.011686482 0.13189551 0.14077242 0.11813756
120839 0.0014343621 0.0006981717 0.0038610508 -0.0012711535 0.0030222994 0.0032218576 -0.00035254852 -0.00037872244 -0.003534486 0.0029533238 -0.003728878 -8.897208e-05 -0.0024079608 0.0021198655 0.00064303586 0.0024396153 -0.0033296747 0.0022957984 -0.0015418285 0.0036712796 -0.0022472793 -0.0030470067 0.00037477192 0.0002956219 0.0035735064 -0.0036280276 0.0036574767 0.0012611654 0.0008687154 0.0028793607 0.003389871 -0.0002218587 0.0021006379 -0.0030473773 0.0033289546 0.0031048323 -0.0017774072 -0.00049157167 -0.0020735685 -0.003037854 -0.00019153027 0.0021300612 -0.0017588865 -0.0038738165 0.0032728428 0.0036739598 0.0032672973 -0.003113557 -0.003839406 0.0013493798 0.00025354337 0.0010430136 0.0022427 0.0013661379 -0.0024487919 0.0028404186 0.0016136426 -0.0025246423 -0.0033071646 -0.002394692 -0.0010995057 0.0021679706 0.0018285969 0.0016237374 -0.0015276886 0.0011433772 0.0020660674 0.0033416795 -0.002116357 -0.0023358918 -0.0025726932 -0.0013106439 -0.0011409844 0.0009836967 -0.0038976625 0.002180659 0.0030053235 0.0003201333 -0.002260389 -0.0035575838 -0.0026634496 0.0024381238 0.001188332 0.0019029361 0.0034495213 -0.0011331582 -0.00095890963 -0.00084411324 0.0020956572 0.0017670839 0.0034471464 0.0034680632 0.0012496024 -0.0033042054 -0.00033992305 3.6361445e-05 0.002014361 -0.0002959573 -0.00046729908 0.0019758705 3.0388885e-06 -0.003732974 -0.0019907164 -0.0007822809 -0.0026145703 -0.0037319679 0.00081690925 -0.0011338253 0.00015718558 -0.0028599137 0.00015998956 0.00071957224 0.0014112075 -0.0022376296 -0.0005169015 -0.0005127124 0.0011821575 -0.001319333 0.0032844322 0.0030112523 0.00048611025 0.001012743 -0.0038698711 0.0011165665 0.0020962283 -0.0009910001 -0.00021000349 0.0028942649
120840 0.1672365 -0.08337151 0.1558296 -0.01786686 0.07497352 0.12624331 -0.053195454 -0.19889002 -0.17477638 0.071403444 0.119837105 -0.24832347 0.045543313 -0.06422273 -0.045944173 -0.15426613 -0.21516822 -0.22637755 -0.0828037 -0.13789888 0.06646476 0.04862959 -0.17226054 0.03855426 -0.108995765 -0.06296919 -0.007668949 -0.19566418 0.069366574 0.10299769 -0.09276395 -0.008900779 -0.024095705 -0.21292055 0.18924715 -0.086488344 0.09866763 -0.040203027 -0.13696381 -0.23703851 -0.1027778 0.11933359 -0.049859583 0.018917628 0.041447584 -0.066378444 -0.118462056 -0.12297269 0.02021626 0.061051834 -0.0939111 -0.08977878 -0.0571933 -0.10676942 0.1776757 0.083817534 -0.018375542 -0.07375672 -0.106021345 0.28965777 -0.019996889 -0.0049490007 0.09325967 0.06296198 -0.010297749 0.25279516 0.0691829 -0.11691009 -0.14733468 -0.012270615 -0.14167954 0.06802426 -0.11317731 -0.24686536 -0.054351307 0.22306994 -0.14218901 -0.02591137 0.17756629 -0.19917028 0.06220763 0.015369405 0.05980184 -0.1226326 0.15563995 -0.16786675 -0.101128295 0.101880774 -0.25200284 -0.051952805 0.23364376 0.014226278 -0.093672864 -0.22382082 0.101447016 -0.19139324 -0.031533197 -0.15538323 0.2501997 -0.0010597795 -0.19052106 -0.084818296 -0.07256419 0.046770062 0.099725254 0.05242791 0.009759144 0.2181623 -0.032490257 -0.005145794 0.06767919 0.14543895 -0.17790936 -0.04004195 0.31594038 0.1957713 0.1390262 -0.2311085 -0.054582495 -0.12269197 0.03389449 0.2509034 0.18975715 0.040239286 0.022536715 -0.14708082 -0.08482554 -0.016085405
120841 0.2386481 -0.16646385 0.21503034 -0.058746297 -0.0336887 0.08444116 0.082306154 -0.20752296 -0.034976557 0.041625556 0.14974229 -0.16303012 0.07105125 0.014389762 0.009050021 -0.13831514 -0.1601123 -0.19058129 -0.16482341 -0.13897684 0.10890315 0.07985662 -0.05608616 -0.07032838 -0.07821216 0.0746238 0.021926694 -0.20994672 0.12907502 0.1451302 -0.13677208 0.000330091 -0.16933481 -0.24314533 0.09228518 -0.17440988 0.0370036 -0.026317902 0.010510723 -0.15709996 -0.07250939 -0.15889972 0.06091134 -0.025140848 0.064089715 -0.1040264 -0.057787072 -0.043923013 -0.004889235 0.0962935 -0.11369414 -0.0016227328 -0.29699385 -0.005326748 0.030216947 -0.021846564 0.03816876 0.009176823 -0.11364635 0.24992341 0.008433988 -0.067479715 0.16576634 0.10562845 -0.05917738 0.11609344 0.21867812 0.051717896 -0.2064724 -0.0031480768 -0.23500957 0.09933664 0.017626267 -0.20111854 -0.11175234 0.069363326 -0.16962062 -0.14331318 0.0064801597 -0.1250749 -0.07117006 0.078728795 0.20331497 -0.086187065 0.018150307 -0.25642177 -0.14470914 0.09158413 -0.33069718 0.019794641 0.22928526 -0.016376773 -0.0028382724 -0.085901976 0.2348152 -0.17826782 0.0017963367 -0.05616818 0.31668356 0.0533653 -0.33089542 -0.08078594 -0.09550434 -0.001939613 0.15356155 0.041542985 -0.0033671043 0.34572694 -0.056214802 -0.04894585 0.04531458 0.056410983 -0.324087 -0.07130055 0.09108564 0.122654125 0.0065918406 -0.15502761 -0.085112594 -0.27295542 0.059882727 0.21641368 -0.07305418 0.09345339 -0.08153089 -0.19287021 -0.1977135 -0.06033743
120842 0.13445099 -0.09328072 0.20604798 -0.06114459 -0.05737 0.030856656 0.13104868 -0.12673183 -0.009563797 0.07915545 0.088486224 -0.15325609 0.029560834 -0.050624672 -0.033824544 -0.06668845 -0.12124092 -0.19653204 -0.12576602 -0.12909961 0.04197582 0.011683946 -0.08460527 -0.08574104 -0.038170066 0.080099046 -0.009402609 -0.14960536 0.07173162 0.16341622 -0.20822297 0.10778692 -0.18577789 -0.19211403 0.065845385 -0.15211128 0.0951262 -0.07237536 0.026660953 -0.13330753 -0.11008907 -0.264089 0.100873455 -0.01747043 0.05582829 -0.025116434 -0.07169336 -0.050523248 -0.06593584 0.043972496 -0.04383958 0.03730797 -0.2607565 0.029487837 0.007570597 0.07568055 -0.028685717 -0.00870374 -0.118697815 0.21427892 0.05459111 -0.06814008 0.16773365 0.08134802 -0.064594135 0.116906226 0.22507869 0.08011926 -0.18208884 -0.024416946 -0.20044105 0.11013419 0.020395296 1.9694271e-05 -0.113115646 -0.0013452888 -0.10208799 -0.103863694 0.098906495 -0.09715683 -0.15192753 0.11527678 0.12900868 -0.074969776 0.029579788 -0.18671161 -0.07949488 -0.05092573 -0.2590851 0.098994195 0.16958925 -0.066362016 -0.0014112712 -0.13057262 0.2156491 -0.19935565 -0.06434612 -0.042743344 0.23418748 0.026928559 -0.23183693 -0.025378043 -0.1725928 -0.06025234 0.14317793 0.03364455 -0.11555394 0.32764187 -0.08182062 -0.09045118 0.08101358 0.043059643 -0.21223287 -0.02350625 0.05894433 0.0779975 0.051316157 -0.11469478 -0.16575053 -0.21433042 0.042537026 0.23464544 -0.06642991 0.062108885 -0.11212388 -0.1693856 -0.1190233 0.030058322
120843 0.004877481 0.0037684948 0.012003315 0.026073841 0.031841088 0.051465835 -0.04739875 -0.075325646 -0.028609555 -0.022876387 0.022518497 -0.06858849 0.033970993 0.0058514453 -0.01879458 -0.063376166 -0.09512858 -0.086391635 -0.017345395 -0.015862228 -0.0130360555 0.002222944 -0.044195782 0.019081553 -0.07041599 -0.036885507 -0.00619912 -0.024530943 -0.015767712 0.015269615 -0.02816341 0.012681139 -0.0023930664 -0.028984265 0.035081945 -0.0042504943 0.048446763 -0.04298857 -0.012688077 -0.06696655 -0.032155447 0.07021654 -0.022540592 -0.047052227 0.026415192 0.011072652 -0.045798413 -0.037717335 0.0034570603 0.014443819 -0.05549653 -0.028833179 0.037346296 -0.022722837 0.03950314 0.023271076 -0.034095895 -0.084902585 -0.045261953 0.06842052 -0.0033055162 -0.027270518 0.013082383 -0.008007574 0.024715861 0.059896212 -0.042875644 -0.06379708 -0.03690962 -0.014908213 0.0035574916 0.035362087 0.004835509 -0.059948888 -0.020348463 0.050596006 -0.064769045 -0.030897403 0.059850328 -0.045388907 0.025078662 -0.0022503876 -0.01815899 -0.067813076 0.050238952 0.026958846 0.010495377 -0.01675327 -0.0329427 -0.051512904 -0.02574261 0.04227394 -0.07238818 -0.030915786 -0.050528817 -0.041728735 -0.00963706 -0.026302025 0.0060381186 0.0183459 0.024692183 -0.02827276 0.045352735 0.0142158 0.016857035 0.01454042 -0.0067577083 0.046782557 0.021129139 0.021283604 -0.0012777962 0.046793647 -0.0024272003 -0.030296484 0.10303604 0.055158246 0.05329064 -0.07723623 -0.015769381 -0.0068922075 -0.020672297 0.06818552 0.06754356 -0.0054670433 0.044362314 -0.015151303 0.0035606516 0.026603812
120844 5.0913506e-05 -0.0028828364 0.0015887698 -0.00281078 -0.0028159292 0.003736159 0.0010408469 0.0028321813 -0.0031258545 0.0005874485 0.00383745 0.00021419993 0.0004766736 -0.0018821016 -0.0028885377 0.0025400138 0.0011507546 -0.0033771957 -0.0034940098 0.003763755 0.0007022281 -0.0023221544 -0.00056004274 0.0027863884 0.00095371745 0.0009984812 -0.003725162 -0.0021404151 0.0023696623 0.000510438 -0.0034655149 0.0033894507 0.0036715697 -0.0036436815 0.0034079514 -0.00091429823 -0.0013025911 0.0018470809 0.0038168165 -0.003356124 0.0017483098 0.0020115757 0.00015170094 -0.0006747957 -0.0015852831 0.0025395292 -0.0030627006 -0.0030054755 -0.00049043173 -0.0018356814 -0.0029201538 -0.0009510468 0.0035814126 0.0007533001 0.0025970025 -0.0011875366 0.0034584198 0.0017209623 0.00011863325 0.00042864867 -0.0021524788 -0.0006628978 0.0019494004 0.0006640368 0.002713758 0.0035202003 0.0030410087 0.0037865122 -0.0031093257 0.0009900919 -0.0022511363 -0.0033418033 -0.0013425046 -0.0033269424 -0.00035794958 -0.00045499564 0.0034309065 -0.0004586408 0.0038008182 -0.00038098684 0.0013729841 -0.00070349604 -0.0009084103 0.0008990859 0.0012356803 -0.0022893408 -0.0031393634 0.0008572802 -0.0028647457 0.0021167942 0.000658753 0.0030353963 0.0005975221 -0.0032532483 -0.0038261048 -0.0007564607 -0.00078468205 -0.0022521066 -0.00050357985 -0.000786442 -0.002296148 -0.00063159113 -0.0025272712 0.000103252125 0.0020562536 -0.0032087606 -0.0007771308 -0.0014758286 -0.00095845124 0.0024919289 -0.0018611427 -0.0032234807 -0.0009442829 -0.0022930533 -0.0017690193 -0.0034117615 0.0017023925 -0.0018208898 0.0014842054 -0.0024454682 0.00053462654 0.0014088162 -0.0024713695 0.00065619627 0.0023832903 0.003061943 0.0024248185 0.0026203229
120845 0.20386876 -0.11549672 0.41366795 -0.019563055 0.07960782 -0.013241534 0.0058716745 -0.28073362 -0.081482716 0.17309684 0.031911958 -0.15807255 0.015327777 -0.093634516 -0.040597636 -0.13752382 -0.20284472 -0.20966212 -0.21625799 -0.10057083 -0.0061623435 -0.087262906 -0.2537143 -0.00054098445 0.025682468 -0.050513152 0.090157114 -0.28409052 0.25253725 0.13253349 -0.2223952 0.08794032 -0.13958268 -0.2655638 0.08926713 -0.27575585 0.04010446 0.009866083 -0.041488286 -0.078943916 -0.11667983 -0.18644473 0.036671627 -0.04341375 -0.008519762 -0.040734578 -0.22031826 -0.10874741 -0.04927662 -0.07061106 -0.051599775 -0.0026066215 -0.24926645 0.082632184 0.2015213 0.068291605 0.03162874 0.035633605 -0.1385482 0.25906283 0.21205318 -0.034190588 0.09175107 0.022424636 -0.0731408 0.18930851 0.2551183 0.008558839 -0.22769633 0.048006594 -0.15136142 0.011462551 -0.049788184 -0.08431917 -0.17759702 0.113619946 -0.1431568 -0.1400246 0.12998079 -0.1884757 -0.04580655 0.04017916 0.14375274 -0.07668275 0.23147315 -0.285703 -0.20147036 -0.023810904 -0.46070343 0.12158727 0.24421407 0.017397242 -0.12329729 -0.28201032 0.1935135 -0.15303639 -0.12771451 -0.050806493 0.38104266 0.036485597 -0.25385132 0.07213674 -0.14015101 -0.123435006 0.19098055 -0.0805901 -0.073537365 0.332642 0.10091432 -0.10386238 0.17387873 0.11205994 -0.2604164 0.096308 0.24040061 0.21490875 0.014999961 -0.29483828 -0.17109427 -0.22037603 0.03219202 0.2500053 0.04847135 0.0019431175 -0.10964381 -0.36849135 -0.14789715 0.011595118
120846 0.16225183 -0.12862296 0.3466092 -0.027738648 0.040484194 0.05557759 0.030244397 -0.24957676 -0.0514958 0.12922119 0.031553984 -0.14875612 -0.04246903 -0.09330291 -0.06868117 -0.060108136 -0.08907797 -0.0903978 -0.16166537 -0.11673378 0.0027060404 -0.054067466 -0.2336736 -0.11439915 -0.026762977 -0.040574167 0.012232511 -0.25524414 0.1791804 0.21247536 -0.13237113 0.10823247 -0.15027438 -0.27273586 0.08085019 -0.26461193 -0.0010113567 -0.001622609 -0.03005206 -0.05434412 -0.15928112 -0.22466893 0.09062899 0.09390395 0.0059876405 -0.030448139 -0.17199777 -0.08175499 -0.047986645 0.04698897 -0.04005165 -0.03663968 -0.24155924 0.06172441 0.17767301 0.09850611 -0.0136316 0.031483177 -0.20055677 0.24529117 0.078845255 -0.08890712 0.02304343 0.015890475 -0.10037816 0.15340374 0.23460206 0.06456144 -0.21925922 0.027506365 -0.2143105 -0.017664999 -0.1070807 0.0049939547 -0.19024873 0.13880174 -0.14577426 -0.1384462 0.14586505 -0.16227865 -0.06500326 0.022588992 0.23236762 -0.07015339 0.21406482 -0.24367753 -0.20366167 0.027850796 -0.41073388 0.110588185 0.2865898 0.027458776 0.0062376074 -0.23971173 0.24664569 -0.15699448 -0.10781833 -0.08804743 0.34478536 -0.039478578 -0.24413429 0.04209363 -0.1699765 -0.11828875 0.17085245 -0.037585273 -0.1106905 0.34638518 0.08964406 -0.059861105 0.11995746 0.06595848 -0.2038944 0.1116227 0.1748749 0.27444848 0.020550214 -0.18061489 -0.2228598 -0.2108698 0.087632634 0.22369553 0.026144333 -0.00057029974 -0.14283817 -0.3388539 -0.14924309 -0.025023093
120847 0.073188856 0.022912804 0.041677844 0.028953059 0.049967032 0.124036156 -0.049693648 -0.12452403 -0.061531134 0.022017378 0.029316392 -0.12083746 0.049654655 -0.027570408 0.004010097 -0.0714617 -0.14228393 -0.09806371 -0.0005209512 -0.06990109 0.013702092 0.0057248864 -0.092020474 0.016106145 -0.053766917 -0.05652437 0.011911527 -0.060317196 -0.009596424 0.0706566 -0.050936714 0.014240593 -0.01201599 -0.051220752 0.05156449 -0.011704558 0.06590396 -0.052455213 -0.0554817 -0.097017646 -0.070673786 0.06954412 -0.05224319 -0.051326178 0.0556799 0.011609752 -0.08290349 -0.072336935 0.0053898287 0.03686945 -0.040013757 -0.033476025 0.010746858 -0.035402242 0.056783102 0.04272431 -0.039059807 -0.083682716 -0.0701821 0.17280667 0.008676174 -0.03942341 0.072554104 0.034783445 0.009972315 0.07947664 0.0117167365 -0.054260667 -0.057853986 -0.010865072 -0.057563573 0.026704963 -0.009580427 -0.113686845 -0.022975309 0.063267484 -0.046723705 -0.037582275 0.09551684 -0.07497472 0.0049774842 0.020737885 -0.0020136442 -0.0808284 0.04250797 0.0009241324 -0.037713353 0.016610013 -0.10915055 -0.07101266 0.06495413 -0.015721988 -0.06444233 -0.07186232 -0.010061463 -0.109863795 0.0020967976 -0.079601556 0.035135992 -0.00038515884 -0.027976863 -0.039118785 0.0036791281 0.021722652 -0.00064884836 0.024012327 -0.009940809 0.08948066 0.011193306 -0.0043347655 0.005766654 0.04902101 -0.05993091 0.0046559516 0.10583881 0.052148785 0.06608909 -0.09216212 -0.043142885 -0.057102077 0.013465232 0.101977795 0.07292412 0.009549516 0.0026297455 -0.023573639 -0.022016946 0.024964489
120848 0.016636083 0.0184028 -0.0044962126 0.027928937 0.024091095 0.048262816 -0.04386446 -0.055330113 -0.016863985 0.0015211897 0.0035919184 -0.07858881 0.02949549 0.015930215 -0.013098153 -0.04128698 -0.08034297 -0.054961093 0.008110992 -0.015714696 -0.018685702 -0.009370678 -0.043048907 0.008310529 -0.026027326 -0.022624083 -0.015898162 -0.025999855 -0.026532432 0.010129944 -0.021550654 0.0018595218 0.0086809695 -0.025111487 0.02806397 0.0054505803 0.030996695 -0.04675008 -0.015580569 -0.055832274 -0.033072896 0.06412606 -0.014826008 -0.037620515 0.019909352 0.010452367 -0.04396606 -0.030160643 0.015582188 0.018753225 -0.026374796 -0.032803863 0.054027237 -0.026639994 0.019847013 0.02084165 -0.02803931 -0.07026236 -0.033613823 0.059483137 -0.014489991 -0.02086612 0.020419192 0.007557913 0.027632058 0.04132335 -0.019468544 -0.053237215 -0.039649054 -0.011320749 -0.01651612 0.023199331 0.0017923113 -0.044500865 -0.0077072685 0.042895507 -0.04372709 -0.030939085 0.0587128 -0.036073193 0.017538656 -0.008571359 -0.0064212736 -0.051243585 0.046550974 0.03765691 -0.0046480065 -0.010576851 -0.03664913 -0.057511862 -0.011552785 0.0132293785 -0.047000382 -0.026497139 -0.0511801 -0.053390738 0.0049076476 -0.021166403 0.0049203807 0.008517086 0.027123574 -0.031177098 0.04414792 0.011380828 0.023009915 0.014736861 -0.0060300366 0.026995456 0.01610463 0.0059922254 -0.00044886445 0.03882523 0.0013703802 -0.03161291 0.10132929 0.031493593 0.057798807 -0.056756504 -0.022588078 -0.004619591 0.0060602566 0.06646978 0.04636608 0.0024842245 0.015422635 -0.01266811 0.020813238 0.028141342
120849 0.13426316 -0.078550905 0.31781077 -0.035314538 0.24498844 0.20042242 0.004825118 -0.30127272 -0.14502713 0.06566151 0.047954403 -0.1774145 -0.0069253123 -0.23020138 -0.08446896 -0.121728115 -0.26189008 -0.23615503 -0.10371321 -0.03762432 0.008835114 -0.07345308 -0.2984119 -0.0029654538 -0.14865951 -0.15713142 -0.010436242 -0.16873422 0.14193787 0.15365691 -0.09623247 0.06741929 -0.010763753 -0.27683178 0.09660647 -0.16307814 0.07456416 -0.018824896 -0.031087197 -0.1377737 -0.088957615 0.015545286 -0.05761611 0.035115033 0.087330654 -0.08381098 -0.14891383 -0.122833215 -0.041642774 0.055071104 -0.14336544 -0.024216086 -0.15536302 -0.073001556 0.28204122 0.06764098 -0.06456233 -0.02514006 -0.20302352 0.26973793 0.023777695 -0.034208946 -0.015577121 0.032039616 -0.055576447 0.22173093 0.07622495 -0.047272373 -0.08981549 -0.00012765912 -0.18836026 -0.010015559 -0.12218731 -0.14046179 -0.20261028 0.23314394 -0.20220818 -0.051512364 0.20895974 -0.23004694 0.039225362 -0.024860593 0.151444 -0.083511844 0.25567243 -0.29693806 -0.1015058 0.0171177 -0.35589498 0.028055819 0.2503064 0.091637716 -0.17244753 -0.2667203 0.06830558 -0.19215713 -0.06260089 -0.14294668 0.2993921 -0.07023593 -0.1691915 0.038294688 -0.075356476 -0.07511274 0.14126055 0.029782107 -0.07345189 0.29185686 0.124073684 -0.039879944 0.097751856 0.17258558 -0.14113478 0.18114959 0.3226937 0.28574648 0.11552157 -0.16082193 -0.1471814 -0.123552464 0.03719621 0.23760696 0.1527885 3.796499e-05 -0.05778058 -0.28639245 -0.1379634 -0.061075684
120850 0.07871264 -0.06284906 0.20736995 -0.008445637 0.19301799 0.16943456 -0.048818782 -0.2592491 -0.20027657 0.019262534 0.109220296 -0.18937527 0.1279657 -0.14709096 -0.08115398 -0.121292986 -0.2638884 -0.200044 -0.1550733 -0.12672399 0.0634387 -0.0055327844 -0.2494006 0.03915833 -0.13741101 -0.11217988 0.038413715 -0.18093878 0.12713926 0.13908255 -0.148843 0.028710341 -0.04379842 -0.25815007 0.21091723 -0.13721496 0.06787386 -0.005979209 -0.1315139 -0.18183129 -0.03841121 0.037545465 -0.06483017 0.041569438 0.042471733 -0.09223225 -0.13426423 -0.1382597 -0.010486015 0.027447583 -0.13302132 -0.08149143 -0.10557318 -0.10276344 0.22496715 0.054812197 -0.069974914 -0.0505126 -0.13371617 0.2847706 0.0579081 0.0016629896 0.06483248 0.015016994 -0.08905586 0.26476476 0.0856925 -0.14605543 -0.16830303 -0.03208731 -0.15048467 0.061674416 -0.12340473 -0.2293224 -0.15412751 0.20486528 -0.096161 -0.008495609 0.16513552 -0.22353344 -0.00053136447 0.0057356167 0.11437534 -0.09959146 0.20269185 -0.2776947 -0.09845295 0.08827224 -0.3573805 -0.0055728923 0.24337913 0.040187605 -0.14720733 -0.27112857 0.097795844 -0.14619963 -0.092339955 -0.21526718 0.2850263 0.049468976 -0.23610254 0.029705187 -0.056615185 -0.04711796 0.10258967 -0.013667552 -0.008105822 0.24413078 0.059745647 -0.047765795 0.09116129 0.16161682 -0.22386369 0.08251188 0.37174255 0.23241863 0.092038006 -0.2206971 -0.11856505 -0.08813632 0.03366831 0.19908705 0.16680771 0.030966802 -0.06553162 -0.28473285 -0.17056443 -0.08501699
120851 0.28064966 -0.10984782 0.32641074 -0.12096226 -0.015323623 0.05426276 0.16063492 -0.19014874 0.023296276 0.1591137 0.029960914 -0.20093013 -0.033520304 -0.11437599 -0.04632364 -0.045938447 -0.14008486 -0.16935195 -0.16717558 -0.17169315 0.0035469597 -0.019992298 -0.12742111 -0.15627562 0.010334237 0.025767189 -0.038462702 -0.2370446 0.1585728 0.21823275 -0.17140877 0.052197482 -0.16641156 -0.3033128 0.13757189 -0.2737688 0.07227436 -0.029748132 0.051901113 -0.05564697 -0.16591688 -0.35170862 0.121900775 0.06948991 0.044123743 0.020705927 -0.2123953 -0.11912559 -0.041058663 0.08591821 -0.012182675 -0.03347046 -0.30929628 0.057459123 0.14424999 0.15143241 0.026183378 0.12872319 -0.2282204 0.3700998 0.1449016 -0.06790355 0.111070715 0.07150746 -0.12887982 0.15493912 0.3077736 0.1377853 -0.25015968 -0.0012141083 -0.3277137 0.02679826 -0.059406083 0.013429077 -0.13792892 0.09369976 -0.09009053 -0.10094138 0.037435953 -0.18469419 -0.17001389 0.0969445 0.23408824 -0.020408168 0.13366564 -0.33260617 -0.17243502 0.029722339 -0.46401072 0.16771026 0.34576055 -0.062475514 0.005462619 -0.24958937 0.2895111 -0.21849073 -0.13912475 -0.07261957 0.40736622 0.01416047 -0.31872907 0.004100541 -0.18135646 -0.17593 0.1521688 0.03854857 -0.108918644 0.41651455 0.0572205 -0.15616266 0.2219964 0.014266773 -0.20887865 0.08424075 0.13850491 0.2069794 0.0011496347 -0.12631968 -0.19366807 -0.30498216 0.07883012 0.26720724 -0.09858483 0.042578973 -0.16735284 -0.3094885 -0.21651049 -0.009179744
120852 0.2611931 -0.17277205 0.3669097 -0.13395366 -0.032331802 0.09721179 0.20898819 -0.2254637 -0.049757134 0.11481554 0.09296823 -0.19768818 -0.042817052 -0.15337211 -0.054551203 -0.056764588 -0.12357105 -0.19107781 -0.17763032 -0.1712251 0.03962703 -0.020815775 -0.15129597 -0.1812715 -0.01124793 0.049263157 -0.06332131 -0.21959043 0.12865247 0.23162016 -0.18866923 0.0989674 -0.19505265 -0.3018397 0.064052895 -0.25299653 0.030163832 -0.027690832 0.0958553 -0.10854527 -0.1314889 -0.36916807 0.097395346 0.090316564 0.09991446 -0.005887085 -0.10048958 -0.05443347 -0.09488946 0.1300581 -0.046344686 0.031272005 -0.41878963 0.04745453 0.107591264 0.093608566 -0.018263265 0.088602856 -0.23095384 0.3125692 0.075197585 -0.10423331 0.074757256 0.10177098 -0.15846604 0.16188912 0.31343275 0.16677515 -0.2244313 -0.01751084 -0.37337723 0.078621596 -0.057492156 -0.014075533 -0.2021748 0.08576828 -0.15928823 -0.11542853 0.09874561 -0.1259791 -0.16146831 0.05166305 0.28278705 -0.063548654 0.13232388 -0.36348987 -0.14230812 0.02931655 -0.40298742 0.13911344 0.35355756 -0.035622723 0.01732972 -0.20795837 0.28358743 -0.22525886 -0.060874198 -0.08577675 0.38337025 -0.026834058 -0.3821131 0.0114916405 -0.18379031 -0.10819422 0.19818799 0.051314343 -0.112803824 0.46291128 -0.00649008 -0.116054505 0.13162309 0.038247846 -0.27426514 0.11868403 0.10554641 0.22534074 0.042841922 -0.096431755 -0.21576227 -0.2660048 0.07870077 0.27304706 -0.12654322 0.05642665 -0.1643316 -0.30397353 -0.20305064 -0.067507535
120853 0.23063108 -0.083825566 0.3631781 -0.052797135 -0.0060832896 -0.012658108 0.0845835 -0.23227844 -0.058994412 0.19417131 0.023423547 -0.11909956 0.024924943 -0.04051024 -0.047974132 -0.12084751 -0.10401061 -0.1250964 -0.19853768 -0.1377406 0.0030040273 -0.050287712 -0.2208076 -0.03844384 0.059871018 0.01932961 0.07961269 -0.25716373 0.24792285 0.1796068 -0.21638669 0.12200825 -0.17917618 -0.22583868 0.082491904 -0.28527212 0.045118667 0.005022446 -0.028333088 -0.08805308 -0.15892991 -0.26427937 0.06683577 -0.013140254 0.021569327 -0.020173186 -0.18429355 -0.09332663 -0.09150827 -0.008176787 -0.027420454 0.010954088 -0.31351292 0.104591206 0.14421892 0.11365125 0.023673374 0.04729639 -0.16612288 0.25173223 0.19714995 -0.055991266 0.13922715 0.039114293 -0.08087419 0.17112862 0.3427101 0.07217329 -0.27160415 0.07255866 -0.20378682 0.023281338 -0.054633908 -0.02464064 -0.14651494 0.06428902 -0.09802942 -0.19196129 0.14227149 -0.17793493 -0.12248975 0.06573692 0.18896572 -0.07018461 0.20941366 -0.27410632 -0.23948005 -0.048670698 -0.4685699 0.11066304 0.23427787 -0.05666798 -0.02716988 -0.26613107 0.27206594 -0.1774367 -0.1363138 -0.07235435 0.39890456 0.062484402 -0.2985343 0.09147297 -0.21552724 -0.10166722 0.23342046 -0.067346424 -0.16305304 0.32920995 0.047091696 -0.0993192 0.15704332 0.111889035 -0.26297677 0.070189215 0.17006527 0.18439291 0.01599081 -0.26279193 -0.27001375 -0.25559232 0.120275676 0.25911862 -0.013267424 0.038664527 -0.22107412 -0.35277995 -0.16062188 0.029519105
120854 0.17310205 -0.07022811 0.39030117 -0.053539377 0.083608955 0.027390068 0.05012328 -0.2956372 -0.089691065 0.09850292 0.068157285 -0.11039929 -0.0018246289 -0.12789065 -0.0818516 -0.102055065 -0.16026302 -0.21041946 -0.22996998 -0.07919161 -0.020232024 -0.027060453 -0.24238247 0.03898888 0.010630384 -0.095317304 0.070113495 -0.2729086 0.22597982 0.15154493 -0.2143567 0.16010372 -0.15281913 -0.27419412 0.111624375 -0.25463066 0.07844312 0.03786043 0.00049829535 -0.019138722 -0.101482384 -0.19084735 0.044052955 0.0072516366 0.05164595 -0.060345992 -0.20128305 -0.1327717 -0.070720896 -0.01811083 -0.10789926 0.027603079 -0.2565649 0.03927913 0.23518948 0.09496574 0.0053274343 -0.00517008 -0.221293 0.24793273 0.124526575 -0.06949136 0.088296056 0.017402628 -0.038580693 0.19886038 0.23277846 0.03556717 -0.21482758 0.08892587 -0.19599855 0.046506453 -0.06428811 -0.071783654 -0.26785892 0.09290515 -0.16376999 -0.14838561 0.17907897 -0.22807984 -0.13237526 0.04599253 0.18659754 -0.040649224 0.1944635 -0.32284787 -0.16663647 -0.019043328 -0.42267624 0.098268546 0.23660779 0.039377984 -0.09789614 -0.321736 0.16841362 -0.13358167 -0.1600567 -0.080989845 0.31656542 0.04425316 -0.25098473 0.08527485 -0.14730112 -0.15378502 0.2120474 -0.044349793 -0.14027639 0.3014482 0.14913791 -0.06601309 0.12431735 0.15966408 -0.16032076 0.1276282 0.24368154 0.23498824 0.037394013 -0.24215004 -0.2180168 -0.20273413 0.04265761 0.20588394 0.08397507 -0.022068124 -0.08846808 -0.40005395 -0.19153997 -0.036119964
120855 0.09964849 0.03391387 0.046902232 0.025442684 0.035487227 0.1389976 -0.039643243 -0.16144523 -0.066351116 0.02442631 0.05149392 -0.124076545 0.046030544 -0.013060672 0.0028639205 -0.0671545 -0.14752543 -0.06376699 0.00091852417 -0.064660385 0.027157305 0.015809802 -0.08356611 0.010522903 -0.05062905 -0.059005957 0.0046576774 -0.08063282 0.013332365 0.08464939 -0.07283679 0.016933193 -0.014918536 -0.04046229 0.041180234 0.013414875 0.08393752 -0.04601255 -0.08122012 -0.09296264 -0.06340803 0.080905624 -0.08118364 -0.031170607 0.069844455 0.014562458 -0.08315289 -0.066157214 0.030461425 0.050544854 -0.030754346 -0.015037884 0.016753966 -0.03622763 0.061972033 0.07272676 -0.042173274 -0.06649628 -0.07222332 0.19823524 0.021989934 -0.058716424 0.08838949 0.047172282 0.001506729 0.09599739 0.01709019 -0.048363384 -0.061518434 -0.0076152883 -0.09073004 0.028909735 -0.025343651 -0.15262319 -0.010068675 0.09124617 -0.06081351 -0.043298546 0.07117852 -0.07537526 0.0005580959 0.021565245 -0.017856637 -0.06419301 0.001961681 -0.010886046 -0.024420084 0.039064113 -0.12840223 -0.07961676 0.09754854 -0.026145266 -0.07624868 -0.080520295 -0.0031016923 -0.10169257 -0.017506907 -0.10064498 0.024291042 -0.0004025507 -0.027458187 -0.052845106 -0.010739956 0.01814515 -0.020310676 0.030036956 -0.012548772 0.09062246 0.0088837175 0.003581043 0.0148025025 0.04821341 -0.053342275 0.0025165386 0.10411974 0.0696335 0.036373038 -0.097638115 -0.04413916 -0.08623105 0.015853226 0.112408064 0.093471706 -0.0018066919 -0.013560834 -0.0076299063 -0.046628926 0.027687564
120856 0.00752881 0.00865936 0.009140514 0.021592535 0.024518814 0.04013562 -0.04739461 -0.051092047 -0.010165244 0.004186453 0.0059255403 -0.070933096 0.028637484 0.0011253381 -0.0077040694 -0.045367196 -0.07324174 -0.071891285 0.0018618107 -0.017889684 -0.019987315 -0.008218319 -0.048718248 0.009404265 -0.035044268 -0.018369585 -0.008039054 -0.025909137 -0.0157063 0.009346624 -0.029872999 -0.001309932 0.0047183237 -0.029568262 0.021118447 -0.0022038198 0.017833827 -0.041325368 -0.0022659795 -0.04507234 -0.028094025 0.03977033 0.0011780444 -0.035954762 0.021592898 0.0045800884 -0.051522058 -0.0381976 0.00781337 0.007471831 -0.036888015 -0.03113308 0.034436017 -0.010114529 0.016053932 0.014939974 -0.029728267 -0.07234177 -0.038296375 0.052127108 -0.018716523 -0.02869746 0.020949017 -0.004521546 0.013492426 0.032935794 -0.027985144 -0.050422896 -0.040126037 -0.011224708 -0.0026941886 0.010131594 0.020358747 -0.037879713 -0.02283984 0.036795333 -0.05919032 -0.03625225 0.05285671 -0.04388821 0.00976155 -0.0035865 0.0027027344 -0.057148162 0.05693714 0.024329623 0.0006668492 -0.022496926 -0.059219256 -0.03951684 -0.021474486 0.030233093 -0.049438678 -0.01908778 -0.036102492 -0.05134741 -0.00071829965 -0.004808947 0.0034005917 0.007014615 0.015873794 -0.021974757 0.05589691 -0.010243856 0.038591594 0.014596568 -0.0022810258 0.050541956 0.020718714 0.004037099 0.0029455812 0.03427623 0.0010048748 -0.030254807 0.09351799 0.036280256 0.046292722 -0.05920524 -0.013527752 -0.013551769 -0.009984279 0.05147583 0.03522504 -0.007206176 0.029258411 -0.027350688 0.008700805 0.022902044
120857 0.08977234 0.019558651 0.051977757 0.04195257 0.04142762 0.12740834 -0.05711446 -0.14286056 -0.06183467 0.010786283 0.043870896 -0.12770942 0.06204644 -0.010812269 0.008326363 -0.07082187 -0.13907312 -0.08553584 -0.019003633 -0.08519023 0.016924402 0.016480923 -0.08710041 0.015859969 -0.049673285 -0.05205711 0.011173991 -0.077647716 -0.008578741 0.078058384 -0.07771084 0.012025194 -0.026482346 -0.051441886 0.044347722 -0.0018433391 0.07730337 -0.049916342 -0.07120832 -0.09451555 -0.068561606 0.05455684 -0.05510773 -0.046130065 0.053485435 0.006097104 -0.07869698 -0.070920564 0.002095617 0.0391432 -0.03661707 -0.028859798 0.017297141 -0.036847454 0.050807912 0.052141532 -0.04085383 -0.078687295 -0.060823407 0.1756886 0.024892041 -0.04994608 0.08528815 0.040451404 0.0051734154 0.08839028 0.021848982 -0.04860541 -0.08457803 -0.012338602 -0.077041134 0.03543267 -0.017519465 -0.13970159 -0.026693808 0.06958068 -0.051174372 -0.04464712 0.075601205 -0.06987774 -0.003016386 0.018008117 -0.0021626533 -0.078061976 0.006181161 -0.012622599 -0.04033984 0.020338304 -0.12890759 -0.081480145 0.077405475 -0.015348998 -0.06588102 -0.068560585 -0.01071687 -0.10768614 -0.012510791 -0.0952042 0.03453702 0.01682857 -0.040307112 -0.05347198 0.013657629 0.016214246 -0.00040506184 0.02920639 -0.006026324 0.091500774 0.011401192 -0.0026602494 0.015110814 0.039871085 -0.07185117 0.0015655366 0.100576475 0.05148439 0.042900406 -0.10539463 -0.040626775 -0.070096694 0.017845687 0.10032086 0.06099539 0.014571533 -0.008748105 -0.02867295 -0.049129233 0.017317552
120858 0.013114798 0.030986134 -0.00529516 -0.0003813558 0.02986199 0.05755949 -0.03335323 -0.044749733 -0.008844513 0.0051857084 0.00735177 -0.06336759 0.028864365 -0.013926753 -0.010057762 -0.034269005 -0.068895735 -0.054437783 0.026118778 -0.009647686 -0.0070635215 -0.02204458 -0.040824313 -0.0031243977 -0.04031696 -0.030724078 -0.023784718 -0.018418813 -0.03505122 0.024608124 -0.03371022 -0.0004966719 0.0018131805 -0.014770413 0.026664386 0.004466076 0.02539334 -0.04030739 -0.022211963 -0.0435219 -0.02275985 0.053703684 -0.011225884 -0.041526567 0.026615469 0.0060275714 -0.03797912 -0.021457003 0.020267203 0.018631797 -0.0238963 -0.02895237 0.046575576 -0.036910232 0.013739577 0.016351152 -0.03773681 -0.053074196 -0.032071225 0.0659125 -0.0053518447 -0.03525338 0.01850488 -0.008714757 0.0054438515 0.041374113 -0.027387837 -0.042572293 -0.026270801 -0.015317599 -0.021373808 0.027372032 0.0064087408 -0.04887298 -0.0095904255 0.030683422 -0.03750901 -0.008989254 0.03889929 -0.03855415 0.014945503 -0.000761982 -0.014436485 -0.046045795 0.036317416 0.020588323 0.009924307 0.0005376333 -0.03626728 -0.03777213 -0.016979614 0.014588187 -0.046365295 -0.013897482 -0.04196732 -0.04581249 0.0028658984 -0.02208634 -0.002962148 -6.874287e-05 0.026624437 -0.023456419 0.02345514 -0.0067051356 -0.005399074 0.02689529 -0.0025658703 0.044645257 0.0038715543 0.007486652 0.008468433 0.02153357 0.005070843 -0.015683316 0.07239007 0.03706093 0.050157752 -0.034339044 0.0005759076 -0.02136495 -0.0113362735 0.04717095 0.042265903 -0.015566253 0.020001698 -0.011237593 -0.0008362348 0.014690614
120859 0.11440763 -0.023151148 0.09518854 0.014720004 0.08144975 0.14299032 -0.028257921 -0.20793746 -0.09091336 0.0022259308 0.07411684 -0.16389668 0.061028525 -0.036999427 -0.020340607 -0.13063747 -0.21935949 -0.17852065 -0.05965074 -0.08299402 0.052304596 0.027111756 -0.113907 0.033437967 -0.11856018 -0.09286832 0.020400705 -0.12409979 0.023834825 0.0881953 -0.09098794 0.00943894 -0.04046959 -0.10955314 0.09395272 -0.02764518 0.088141955 -0.027917337 -0.08096853 -0.14660734 -0.03465981 0.10769453 -0.06454424 -0.043043315 0.055809837 -0.040207308 -0.10244774 -0.08608244 0.025233265 0.03695171 -0.110575244 -0.045416497 -0.029039068 -0.05920812 0.1064009 0.057120327 -0.044458427 -0.09011232 -0.09311821 0.21532468 0.015152047 -0.050640535 0.11417653 0.05198303 -0.0020452815 0.16552968 0.023963468 -0.07589501 -0.10449035 -0.0245641 -0.09830409 0.071977384 -0.018086826 -0.21767104 -0.06365571 0.12625143 -0.15034983 -0.043061547 0.1040845 -0.13789941 0.028725961 0.030854434 0.02371458 -0.09045253 0.051199023 -0.10365874 -0.01335907 0.057611827 -0.1880801 -0.07515282 0.1071305 0.023256162 -0.14055263 -0.10772447 0.014688341 -0.13053939 -0.01899537 -0.09659595 0.11574633 0.029479312 -0.090599045 -0.058673415 -0.007868409 0.009412755 0.01655019 0.031590346 0.0052614682 0.17561792 0.00046281263 -0.012389604 0.022799022 0.08996958 -0.118201986 -0.021924999 0.17633606 0.11916311 0.07399622 -0.1562682 -0.05564149 -0.12101768 -0.011405822 0.14650866 0.12655017 0.024528792 0.024702467 -0.073595665 -0.048844963 0.00050382625
120860 0.11256556 -0.067611456 0.20756713 -0.009847716 0.11453875 0.104022786 -0.056855537 -0.21552266 -0.12803787 0.076534964 0.08202062 -0.1699143 0.05458377 -0.09386844 -0.04578298 -0.10840022 -0.1925698 -0.18393162 -0.11458117 -0.09331991 0.0489405 -0.01120519 -0.18284993 0.020418104 -0.09204542 -0.07430225 0.030492498 -0.18089975 0.10861318 0.11234915 -0.11180114 0.009875409 -0.053101573 -0.19338156 0.14012687 -0.12189474 0.070679605 -0.014695479 -0.111101985 -0.15692803 -0.07916721 0.013784204 -0.029832067 -0.013147224 0.020492027 -0.061828673 -0.10168556 -0.10397773 -0.012801423 0.017897064 -0.08760126 -0.049889628 -0.07687694 -0.06139781 0.17338894 0.029424738 -0.032137934 -0.057002794 -0.10394944 0.23903695 0.040350437 0.00029057678 0.052207958 0.008288705 -0.033212394 0.18198137 0.084495656 -0.08713385 -0.12982956 -0.003986054 -0.12696348 0.060657714 -0.084859885 -0.19366133 -0.09203631 0.16134648 -0.09842904 -0.040875927 0.14137855 -0.1665519 0.019851422 0.018940533 0.073989086 -0.100517355 0.15351298 -0.18194552 -0.119107544 0.074390516 -0.28092438 0.008306386 0.19318026 0.025207343 -0.11649582 -0.20685829 0.07287437 -0.13803309 -0.048379764 -0.13360088 0.22419652 0.018424986 -0.17729607 0.0010905738 -0.070089675 -0.017903626 0.085821785 -0.011405045 0.010803715 0.19499938 0.025491966 -0.035132647 0.05996541 0.12557562 -0.17552395 0.041770753 0.2516486 0.17284338 0.075371616 -0.20097436 -0.06332207 -0.10149123 0.017123127 0.17737894 0.13994803 0.0062863803 -0.019592438 -0.21103445 -0.13313946 -0.034098033
120861 0.0059437393 0.014918772 -0.0006240429 0.020730974 0.021867419 0.028660242 -0.037065465 -0.04062998 -0.015616499 0.009032153 0.017350376 -0.048784174 0.01263739 -0.00021031476 -0.0051021418 -0.025734622 -0.049275994 -0.03867915 0.004712347 -0.013143068 -0.009913386 -0.004351978 -0.029256146 0.013189863 -0.024307892 -0.017235212 -0.009738448 -0.013208321 -0.016053585 0.015873425 -0.014968493 -0.0016193604 0.0040802136 -0.01994515 0.025465181 -0.00048157474 0.026786039 -0.03317543 -0.02370952 -0.03824107 -0.027729042 0.040224228 -0.0060009225 -0.033328738 0.014881592 0.0033006417 -0.024954978 -0.019127877 0.0077349627 0.010961601 -0.018339245 -0.02097222 0.03303793 -0.021849316 0.019344538 0.018309433 -0.019212399 -0.039419714 -0.018381858 0.047709797 -0.014611355 -0.011646393 0.0047632675 0.004609475 0.013484663 0.026421847 -0.014252311 -0.032968953 -0.017366603 -0.00748754 -0.012565384 0.0104904305 -0.015994089 -0.033161473 -0.002165859 0.030091545 -0.022995291 -0.013728431 0.04179834 -0.021522976 0.015408828 0.0024900048 -0.009378728 -0.03935054 0.031791046 0.016202435 -0.00092905643 -0.0057767117 -0.023251446 -0.024424072 -0.007209568 0.012494417 -0.038279355 -0.014004419 -0.02430346 -0.04149997 -0.0026464097 -0.009704489 -0.0020382078 0.0024112044 0.018588705 -0.02099609 0.028813528 0.0029137046 0.011337806 0.016331969 0.0017900531 0.021657242 0.012990935 0.0046358462 0.0065823495 0.019115563 0.0007550997 -0.012940924 0.06736967 0.022495568 0.03012513 -0.0351508 -0.00095323904 -0.0027239483 -0.0009685967 0.050415337 0.027768118 -0.007863578 0.018193757 -0.007850609 -0.0026330373 0.016780302
120862 0.0030055817 -0.0029590284 -0.0014759989 0.0019766774 0.00094158703 -0.00028393333 -0.0008749414 -0.002803906 -0.0024467402 -0.0010701255 -0.00039177117 -0.0031721331 0.0032306472 0.0037755687 0.0024532685 -0.0025956004 0.0031854825 0.0018467075 -0.0030426525 1.30514645e-05 0.0021636533 0.0014320429 -0.0037016692 0.00046673225 -0.0030093265 0.001247795 0.002715805 -0.0026854747 0.0024819348 -0.0010885986 0.0034221963 0.0028006637 -0.0035711585 -0.001224513 -0.00027348613 0.001346192 0.0036690678 -0.0005412373 0.0022211745 -0.0013473684 -0.0036244378 0.001854673 0.0035613964 0.0038800677 -0.00043227835 -0.0013674783 0.0013529026 -0.0015828294 0.0009961118 0.0012091459 -0.0026012592 0.00032547914 -0.0037334762 -0.00021887016 -0.0032207167 0.00039484992 -0.002032471 1.8628882e-05 0.002074104 0.00324892 -0.0016723191 -0.0024512706 0.0010367639 -0.0038383566 -0.0004508997 0.0029514264 -0.001557406 0.0033618915 -0.00049393554 0.000420878 -0.0024095788 -0.0015086014 -0.0037983307 0.0010356548 0.0023947682 -0.0017150769 0.0007453741 -0.00066259963 -0.00036383184 -0.003818624 0.0015493094 0.002964243 -0.00037094348 0.0033021139 -0.002940314 0.0013440128 -0.0037580982 0.0011204241 0.0015654444 0.0015520285 -0.000711299 -0.0017865195 0.001736822 -0.0011765014 0.0034072674 -0.00059672655 0.0005077006 -0.002916806 0.0019010903 -0.0032936404 0.0009592923 -0.0036427053 0.001440702 0.001634787 0.0021048703 -0.00043830922 0.002707271 -0.00033600762 0.0002696023 -0.0002721888 -0.0020418402 -0.003670607 -0.002175514 0.0030171126 -0.00030035025 0.00054996216 -0.000548566 0.003014105 0.0024965708 -0.0009341352 0.0023643416 0.0027562722 0.002927209 0.0011790303 0.0009039041 0.0032955534 -0.0022642235 0.00032783006
120863 0.263891 -0.14182834 0.38087475 -0.119551264 -0.020951068 0.017064769 0.118170075 -0.184456 -0.01184718 0.12381406 0.044178076 -0.18274283 -0.07147772 -0.15851529 -0.008493897 -0.06804542 -0.09707294 -0.20436369 -0.15463582 -0.13970363 -0.02223297 -0.04363517 -0.17954944 -0.1029526 0.037412237 0.009384265 -0.039596178 -0.24457537 0.18035525 0.2030981 -0.16683905 0.090189755 -0.14794095 -0.2818841 0.10149467 -0.27254772 0.036548916 0.004007039 0.044475283 -0.035032447 -0.15936683 -0.3625927 0.111344345 0.05882222 0.07027802 0.00507788 -0.18308085 -0.10406907 -0.06735778 0.03872906 -0.021511167 0.0048490637 -0.33569235 0.085294716 0.16827093 0.11975704 0.022767978 0.11045692 -0.20161429 0.29866382 0.11592139 -0.09315933 0.05879696 0.071080744 -0.15628336 0.17178442 0.2881657 0.11351915 -0.22711243 0.014135599 -0.2887675 0.011479154 -0.05443204 -0.008522644 -0.20424269 0.08709784 -0.12420558 -0.11431 0.12090684 -0.1700727 -0.11819396 0.06912036 0.2075059 -0.0798535 0.18610506 -0.31703693 -0.17542437 -0.011606943 -0.4542888 0.19682486 0.31248638 -0.030560886 -0.0043342263 -0.26289314 0.25700724 -0.21537758 -0.13336204 -0.06315833 0.36876482 -0.045157377 -0.28751644 0.0007211226 -0.19337511 -0.1551962 0.19026528 0.040072937 -0.13900356 0.41978756 0.026369724 -0.07139578 0.22204073 0.04896976 -0.21531609 0.12735917 0.16441356 0.30259517 0.032421246 -0.14193952 -0.2013929 -0.26366284 0.113905534 0.29475614 -0.06275188 0.03633625 -0.1645826 -0.34416586 -0.1446675 0.017128209
120864 0.21546921 -0.19659539 0.35171807 -0.098370686 0.069966234 0.12101397 0.18775715 -0.19843674 -0.07187973 0.07388535 0.017738296 -0.19555388 -0.04760055 -0.19390029 -0.03222684 -0.052780963 -0.12913568 -0.17792541 -0.16955939 -0.063144244 0.035130158 -0.0944699 -0.1880599 -0.13191578 -0.06437184 -0.017207475 -0.069156036 -0.1698603 0.1563141 0.18729857 -0.11512602 0.06701159 -0.095432065 -0.2995027 0.018600881 -0.24760424 0.008626993 -0.049380127 0.098208934 -0.122624926 -0.13117206 -0.26654583 0.033358775 0.12944458 0.07713845 -0.055159163 -0.08873976 -0.06578694 -0.08858403 0.08719246 -0.06726491 0.028827911 -0.33032796 0.011296017 0.14002745 0.0553626 -0.043290056 0.054632317 -0.19334747 0.23759842 0.04438181 -0.06083038 0.05538023 0.09504891 -0.105504535 0.12060691 0.18310007 0.11502985 -0.12827899 -0.039983105 -0.2594504 -0.00024275348 -0.014925636 -0.00632921 -0.23018284 0.17277174 -0.18440211 -0.08735609 0.094998814 -0.1427628 -0.03184895 0.014525814 0.22332898 -0.053935405 0.18342845 -0.32402617 -0.10594468 0.0078066178 -0.37647873 0.1240012 0.30904162 0.024950834 -0.04481306 -0.2250028 0.1882842 -0.19549115 -0.041217607 -0.13820341 0.36497346 -0.08934307 -0.2683059 0.0029990172 -0.1572506 -0.15380347 0.16183977 0.05083023 -0.12536037 0.44397768 0.029200027 -0.08317241 0.14369038 0.06955858 -0.19621651 0.17125042 0.13299145 0.2761184 0.05798035 -0.07106854 -0.18372422 -0.2249833 0.073807895 0.23517802 -0.031424966 0.039620224 -0.12157729 -0.27276117 -0.12104554 -0.06692801
120865 0.04155476 0.020226618 0.045593973 0.022205824 0.027878365 0.08417336 -0.035529997 -0.10983663 -0.061418027 0.011203116 0.041632056 -0.095282614 0.03949463 -0.017654201 -0.007798429 -0.055005513 -0.12625308 -0.101258926 -0.01780313 -0.05804923 0.0074002272 -0.007690928 -0.0846187 0.0143709555 -0.060407512 -0.03476819 0.0011775536 -0.04884234 -0.005553857 0.052113652 -0.055303723 0.026935779 -0.026964845 -0.061049674 0.045719396 -0.0253731 0.084144734 -0.050227266 -0.03944712 -0.08731175 -0.0833946 0.024982192 -0.028816497 -0.049275212 0.046811916 0.0110794045 -0.059977565 -0.044964336 -0.018794078 0.016623056 -0.04908022 -0.021528283 0.024864908 -0.039599504 0.07085001 0.031693004 -0.03867144 -0.0871529 -0.059733186 0.12872423 0.007505611 -0.031000098 0.03612454 0.02064857 0.010542105 0.07377468 0.004146401 -0.04275247 -0.06453077 0.0024835886 -0.047829892 0.028221084 -0.020210857 -0.08403753 -0.037156645 0.040161736 -0.02624564 -0.03417098 0.08083842 -0.05186599 -0.005533553 0.011818992 -0.0075984867 -0.07308103 0.038591165 0.001956667 -0.047773983 -0.011705366 -0.0837355 -0.03528036 0.03599051 -0.0054892045 -0.05299134 -0.06742872 -0.013008902 -0.08911478 -0.010748878 -0.055938035 0.037659816 0.0016003012 -0.022691952 -0.026777875 0.0025889806 0.017715435 0.015201935 0.023324706 -0.009204905 0.07079605 0.013264419 0.005247861 0.014644839 0.038840786 -0.05423252 0.0045472085 0.10312908 0.05038199 0.045073673 -0.090938404 -0.032045364 -0.03717007 0.014952042 0.095449954 0.06251426 -0.009859139 0.0021210182 -0.043019455 -0.052787986 0.008261767
