2523 128
111264 -0.15375529 0.1438826 0.16062623 -0.017203579 0.49914667 -0.20350236 0.1693555 0.39899054 -0.3812073 0.4517104 0.01858257 0.11316324 -0.3252651 0.042433124 -0.0022277285 0.32270703 0.29703575 0.23516004 -0.23559266 -0.31132796 0.060805514 -0.026500681 0.0892965 -0.12586462 -0.1027755 0.08014995 0.09798134 -0.11695202 -0.57064205 0.23601955 -0.25248638 -0.25424227 0.08476247 0.2117156 -0.079766534 0.094977446 0.046729293 0.42254007 -0.13186812 -0.0919343 -0.31090453 -0.015547918 0.10806171 0.19472088 0.066903904 -0.15437986 -0.032338254 -0.2917038 0.20180485 0.66085786 0.13998121 0.039311778 -0.011561772 0.07643287 0.5024588 0.1693748 -0.17160617 0.042099457 -0.3284669 0.10383703 -0.033718485 -0.1622894 -0.10490083 0.10297492 -0.19531767 -0.019618617 0.085818715 -0.1272608 0.0067233522 -0.3074222 -0.28294984 0.100925304 0.17753735 -0.0023417484 0.38417193 -0.040877607 0.06603491 0.07375046 0.27392587 0.031198226 0.22320877 0.15658496 -0.2556973 -0.00085204263 -0.16242984 0.049245324 0.08050019 0.6221968 0.1333068 0.012790276 0.27770582 0.21076629 -0.7934652 -0.05559652 0.08017782 0.033391733 0.441978 -0.08896029 0.2934885 0.043175355 -0.031083936 0.040356424 0.04764611 0.25490218 0.06866881 -0.38482067 -0.17241497 -0.25332657 0.19536106 -0.30699763 0.42569232 0.29343343 0.077526264 0.07290513 0.043894794 -0.0032032316 0.09987119 0.26827466 -0.060751654 -0.18434505 -0.10599421 -0.23923187 0.11937116 -0.14337863 0.056183137 -0.15415432 0.033074908 0.34713668
111265 -0.109940015 -0.11392859 0.019799404 0.022884905 0.19442949 -0.09518521 0.1170527 0.06671631 -0.09708206 0.26873022 -0.06574987 -0.05225344 -0.10098302 -0.14043342 -0.00361097 0.13806081 0.18315054 0.13430758 -0.01962713 -0.3775867 -0.14580616 -0.05953765 -0.1463012 -0.13870053 -0.050909523 0.114636615 -0.09429422 0.10079788 -0.24799229 -0.022144822 -0.14114778 -0.052604526 -0.10423899 0.1865941 -0.14118533 -0.021893762 -0.08645274 0.08702383 -0.10032934 -0.12658703 -0.11440142 -0.010214799 0.15754722 0.07005708 0.062347196 -0.002476073 -0.21808812 -0.11901119 0.08979977 0.042203628 0.042053156 -0.07650026 0.06147142 0.060688734 0.37014568 -0.1383605 -0.025505872 0.009092552 -0.2246316 -0.052677292 0.09615036 -0.06887259 -0.1017867 -0.064628065 0.052602522 -0.0019953893 0.009753902 -0.08523739 0.0010742283 -0.2570997 0.028701134 0.16526365 -0.0075040883 -0.041186225 0.20983861 -0.06585735 0.05555776 -0.10490958 0.04809609 -0.050242707 0.08017996 0.08003938 -0.41413397 0.17105977 0.09661919 0.15437536 -0.1745127 0.3222101 -0.016141979 -0.058293145 0.008712127 0.15231282 -0.2798675 0.012495044 -0.0033230598 -0.24452503 0.18212752 -0.08570657 0.09173535 0.053989954 0.06868887 0.109541535 0.034140702 -0.03105445 0.2194993 -0.001115054 0.13050848 -0.05301273 0.1338306 -0.11631193 0.1871875 0.04468351 0.029791376 -0.14906761 -0.030486519 -0.11845937 0.052734353 -0.012430518 -0.25563896 0.01885941 -0.30854687 -0.06570125 -0.1832881 -0.022143299 -0.08465106 -0.025733879 -0.0057717706 0.46599802
111266 -0.17942044 -0.08302694 -0.088511765 0.13115911 0.36524844 -0.09110439 -0.019064369 -0.18399288 -0.31165004 0.12003428 -0.24697809 0.0277349 -0.06863223 -0.171572 0.10416167 0.17331743 0.09845978 -0.01034022 -0.12718776 -0.10740968 -0.13177446 -0.14419004 -0.060416356 -0.22265011 -0.22456178 -0.06939256 -0.032511786 -0.020117737 -0.14164248 -0.080938466 -0.16342519 -0.073515974 -0.031799458 -0.1142587 -0.19015817 -0.034721386 -0.1617461 0.2500942 -0.25283432 -0.15544952 -0.050678737 -0.26956546 -0.12883954 0.075862944 0.005779305 -0.17373693 -0.5112421 -0.17897795 0.22003645 0.14669274 -0.17688441 -0.16900586 0.012366945 0.13462436 0.32196116 -0.0638606 0.12863502 0.11628473 -0.032865383 -0.14811112 0.11910676 -0.077036075 -0.13413624 -0.00083123427 -0.081192255 0.0062277415 -0.048721712 -0.23322794 0.08323094 -0.40198043 0.15786745 -0.17433663 -0.2088765 0.08046087 0.23378481 -0.12799855 0.13052243 -0.027990425 -0.07895608 0.024434324 -0.1439357 0.07222635 -0.28254122 0.16170463 0.061479665 0.29922014 -0.37339517 0.20162518 -0.16585769 0.0028754252 0.116779946 0.004422509 -0.0857116 0.24288388 -0.16720276 -0.35219148 0.018480137 -0.07258214 0.048162196 0.15462902 0.0078787105 0.01057568 0.1865718 0.170571 0.14498042 0.0017446777 0.073630586 -0.0655134 0.26339754 -0.21894988 0.2554466 0.062413566 -0.026097188 -0.25399947 -0.15557045 0.026508814 0.19871303 0.011605745 -0.29008394 -0.00018532666 -0.13311504 0.02609447 -0.20376745 -0.125961 -0.22969085 -0.12562947 0.017549831 0.21448775
111267 -0.19781564 -0.15338182 -0.13845302 0.1620041 0.3590538 -0.053588886 0.052361295 -0.24261717 -0.28323603 0.1488838 -0.35506007 -0.051334877 -0.10430489 -0.17156292 0.16352777 0.1886461 0.12626563 -0.054906864 -0.11394504 -0.20449848 -0.14635882 -0.16746335 -0.094965845 -0.29835346 -0.28720143 -0.06926429 -0.04808009 0.013635159 -0.18520053 -0.11512356 -0.20616397 -0.036252398 -0.050377913 -0.115273185 -0.30468923 -0.026332194 -0.22597678 0.3385917 -0.32362625 -0.21929547 -0.077458404 -0.31657386 -0.17551188 0.08448109 -0.025035063 -0.21436419 -0.6349194 -0.21473965 0.30308047 0.16413556 -0.18213698 -0.22104391 0.05261467 0.17917398 0.4709226 -0.11624464 0.17735776 0.16766953 -0.055818256 -0.22985712 0.17158477 -0.13227831 -0.17732893 -0.06647982 -0.08998044 -0.0005716374 -0.043958522 -0.29429606 0.09207384 -0.52193636 0.2857415 -0.21840374 -0.24587142 0.13869642 0.2714194 -0.18068631 0.23821196 -0.06455865 -0.096316926 0.017465256 -0.14197128 0.14029051 -0.3915754 0.18141441 0.13150775 0.37770295 -0.4564923 0.28440562 -0.22017854 -0.020242652 0.11336843 0.028301962 -0.12018298 0.32885388 -0.18942542 -0.43221062 -0.035590906 -0.13227248 0.042458974 0.20462991 -0.010711411 -0.022247832 0.29793876 0.21947698 0.26056963 0.05186833 0.14661409 -0.009692103 0.35643598 -0.2959348 0.39928105 0.025960613 -0.023750385 -0.32319346 -0.23757258 0.01790714 0.21626702 -0.040860124 -0.32784277 0.014133689 -0.15505506 0.027414609 -0.29807225 -0.15924603 -0.2892269 -0.14285004 0.05234496 0.32670996
111268 -0.18436106 -0.24287833 -0.11068456 0.10980498 0.20278528 -0.050151143 0.12500437 0.10325971 -0.1574873 0.24621622 -0.19566253 -0.055627737 -0.0342012 -0.16061972 0.039226614 0.14898904 0.13110895 0.028570669 0.0030081088 -0.3582295 -0.06740992 -0.19815965 -0.13579543 -0.26739553 -0.11248273 0.026761236 0.017233985 0.16426687 -0.18915278 0.012993147 -0.18740138 0.07691313 -0.20141734 0.13681586 -0.22183746 -0.032524448 -0.09185957 0.16000068 -0.19818124 -0.2026159 -0.12568477 -0.096846625 0.10033446 0.08098362 0.110755935 -0.08013302 -0.3611529 -0.18797457 0.15178315 -0.012358412 0.011699228 -0.14519231 0.110530734 0.1346661 0.4927977 -0.19542818 0.033565257 0.08622321 -0.14336282 0.0043005664 0.057400905 0.042764004 -0.20093271 -0.16411446 0.05040528 -0.046563517 -0.025724698 -0.1288303 0.049739715 -0.3024893 0.05415893 0.08346835 -0.04339019 0.07180133 0.23835422 -0.1004506 0.041612484 -0.097828925 -0.019354187 -0.061388116 0.012963815 0.035563245 -0.45089543 0.18474631 0.06364707 0.2996022 -0.22859636 0.38266006 -0.060472086 -0.020098895 0.039175026 0.16913399 -0.36997303 0.09638603 0.0047041858 -0.28282258 0.10245422 -0.14034924 0.13063262 0.07928643 0.104141876 0.021932103 0.112049714 0.021472627 0.32881868 0.026891582 0.20132065 -0.030399736 0.18239783 -0.15612476 0.23473957 0.16456805 -0.061652213 -0.15020683 -0.015960228 -0.15861878 0.034604743 -0.073800735 -0.2750498 0.023875369 -0.33408052 -0.107697636 -0.25579602 0.034724485 -0.2214088 -0.03902665 0.0022668196 0.52837324
111269 -0.13441187 -0.22211818 -0.011709062 0.011512998 0.20555057 -0.09462845 0.13952185 0.076706 -0.13481212 0.25366747 -0.08120052 -0.048799124 -0.06937018 -0.15875056 0.0550217 0.14877538 0.12734362 0.08564546 0.053399187 -0.34547684 -0.106685236 -0.18149172 -0.1674077 -0.20432419 -0.026161551 0.042608015 -0.033095542 0.13615583 -0.20466144 -0.023734001 -0.1989072 0.0072962916 -0.16780232 0.16517623 -0.14525217 -0.052323546 -0.046640772 0.14710954 -0.17031762 -0.18858403 -0.1615277 -0.072240226 0.16253395 0.07143524 0.04354389 -0.032727957 -0.26075023 -0.16037512 0.12930901 0.0182794 0.040793005 -0.12986784 0.051798966 0.10424595 0.42863053 -0.15200312 0.003976749 0.03746164 -0.20664155 -0.02843942 0.09405201 -0.035698723 -0.114850275 -0.1397239 0.047879763 -0.011408407 0.04719318 -0.101098135 0.016279528 -0.2695707 0.042520303 0.15592067 0.00032421845 -0.02961028 0.21368703 -0.08058995 0.05730285 -0.12205912 0.03804668 -0.06297067 0.07381378 0.06351278 -0.38270146 0.1834589 0.098653324 0.23556209 -0.20118481 0.37471437 -0.03014249 -0.030114345 0.06522529 0.19379532 -0.3149824 0.023330623 -0.020033108 -0.2635619 0.16851653 -0.10824909 0.104522936 0.04971002 0.10424248 0.080388196 0.09678424 -0.032078765 0.3259186 0.020104144 0.16402252 -0.0053838724 0.17336243 -0.08690585 0.20921443 0.10865966 -0.025205797 -0.1615212 -0.02197917 -0.12728243 -0.00029627548 -0.037582543 -0.275667 -0.014367333 -0.3761184 -0.11075967 -0.23124044 0.001134454 -0.23677756 -0.024743525 0.015532206 0.5157956
111270 -0.061117865 -0.0648434 0.0018424868 0.0033119821 0.08121543 -0.046186514 0.0914518 0.08076036 -0.120285 0.12208659 -0.0011736989 -0.048865635 -0.052645963 -0.007170583 -0.02399484 0.037952267 0.081749626 0.05308125 -0.061277043 -0.21990958 -0.026118187 -0.060990766 -0.06395554 -0.070413224 -0.03322181 0.070931904 -0.035132866 0.04635395 -0.17761867 0.049596 -0.05527452 -0.032576136 -0.060848914 0.14136565 -0.0654714 -0.033474248 -0.0604126 0.045220517 -0.03450249 -0.09718973 -0.077170745 -0.013256914 0.07871911 0.027513787 0.027974248 -0.05688311 -0.057777807 -0.106245965 0.06254372 0.07130274 0.03606164 -0.018948246 0.01604315 0.026610883 0.21002772 -0.04862977 -0.036518425 -0.009788718 -0.09921605 -0.024296278 -0.01326701 -0.016859062 -0.072395615 -0.020778636 0.0062667397 -0.055321913 -0.016608438 -0.056222316 -0.017438821 -0.10021074 -0.030289376 0.09960976 0.018889535 0.014719917 0.11667053 -0.042408805 0.034410983 -0.031091316 0.050232142 -0.022998804 0.056261353 0.044448253 -0.18974832 0.051115394 0.038566798 0.07567385 -0.04179071 0.19133031 -0.0087962095 -0.014079791 0.015008991 0.06484591 -0.19704534 -0.011654898 0.032124173 -0.09161898 0.12311862 -0.036573026 0.051166277 0.038697258 0.06320445 0.060134854 0.0075550084 0.016025797 0.07243531 -0.051631913 0.04239209 -0.048447415 0.057678416 -0.06371296 0.123942904 0.028303009 -0.01494684 -0.020161882 0.027156213 -0.027568938 0.038577866 0.00068160833 -0.0787706 0.031152755 -0.11743026 -0.009097421 -0.040562395 0.004489049 0.03507951 -0.054511767 -0.003924429 0.20817481
111271 -0.021294985 -0.013133518 0.026164453 -0.012896724 0.040148374 -0.029561166 0.031129451 0.08848089 -0.08000886 0.064545944 0.0237736 -0.013134993 -0.011883087 0.00040082925 -0.03238902 0.03455604 0.030911218 0.04085674 -0.03996128 -0.103109956 0.002746017 -0.045261554 -0.025891544 -0.034997705 0.012296068 0.038358282 -0.0056127715 0.012586958 -0.08468729 0.04139614 -0.038626723 -0.016747901 -0.037179504 0.060529646 -0.034359213 -0.036248513 -0.011494917 0.031709235 -0.024571076 -0.050971348 -0.05947069 -0.00637646 0.045915503 0.022470456 0.016706107 -0.027021447 -0.0118235545 -0.06159639 0.023090255 0.05133201 0.037392367 -0.027313573 0.0050826967 0.010875242 0.11938863 -0.0069502536 -0.043177795 -0.0039013226 -0.05557192 0.018210292 -0.024158936 -0.007339072 -0.03685488 -0.009141616 -0.038615223 -0.006062577 0.0034603002 -0.014666651 -0.01855965 -0.047525026 -0.052862298 0.07255645 0.0062280963 0.009264875 0.0733206 -0.021878665 0.012481916 -0.0003183036 0.0379387 -0.012057188 0.045095097 0.020788938 -0.08798302 0.010542537 -0.008617145 0.02544805 -0.0063855764 0.11237932 0.021652851 -0.00025268868 0.023053816 0.04654496 -0.12855166 -0.03366832 0.016985852 -0.015323719 0.0809051 -0.020908576 0.045824364 -0.022509888 0.040663715 0.027194677 -0.0028309338 0.01864907 0.01352748 -0.035317607 0.0075922054 -0.044974085 0.011087832 -0.02607255 0.04261359 0.04540501 -0.0023521876 0.006760626 0.034807663 -0.025504554 0.0140833175 0.014184685 -0.02392735 0.009622947 -0.061056852 -0.016047737 -0.009102753 -0.0036178678 0.0079374295 -0.018006647 -0.009593944 0.11291794
111272 -0.110924944 -0.18463387 0.0019108996 0.037464675 0.21376188 -0.07220268 0.10930458 0.054360475 -0.09966248 0.26086786 -0.121146634 -0.038386494 -0.05069181 -0.13623449 0.07129851 0.1372876 0.10896026 0.07656989 0.013550551 -0.33597687 -0.12137687 -0.13125452 -0.15121125 -0.18721701 -0.080662705 0.05840491 -0.036112282 0.14108066 -0.22943954 0.004382035 -0.13192338 0.042917755 -0.17023343 0.17070436 -0.16093484 -0.01792625 -0.038935024 0.13133651 -0.19582401 -0.23103987 -0.14555244 -0.082609974 0.09397016 0.13536428 0.08759484 -0.0393249 -0.27040502 -0.16461368 0.09376816 0.019693116 0.121938094 -0.12125607 0.09630697 0.12608045 0.46813568 -0.1962122 0.0027351156 0.07075642 -0.21308899 -0.009708597 -0.012800433 -0.021641685 -0.14013255 -0.12677614 -0.017954918 -0.037272997 -0.020038705 -0.15467928 0.038409915 -0.27026093 0.046220355 0.09178226 0.007839882 0.0420277 0.23874153 -0.09826337 0.07182476 -0.118033946 0.028489556 -0.08319367 0.015960604 0.04469112 -0.4117313 0.19685473 0.11532803 0.24857095 -0.22404478 0.37190294 -0.03231594 -0.031014442 0.044200554 0.19072694 -0.33327425 0.024024831 0.016266134 -0.32322013 0.12290642 -0.07215171 0.10491803 0.10779283 0.111638606 0.07430913 0.10194018 -0.054693103 0.31827152 -0.04217146 0.09798353 0.010478409 0.13847582 -0.16565563 0.18216236 0.046732873 0.028467959 -0.15876876 -0.013046401 -0.06811851 0.026945988 -0.00283469 -0.29513285 -0.009444243 -0.36048955 -0.094219804 -0.17875127 0.015425674 -0.18027116 -0.05301337 0.027587632 0.4538349
111273 -0.09337414 -0.11167174 0.024682337 0.013176347 0.18066822 -0.09655627 0.11580255 0.078014575 -0.11717979 0.24391386 -0.044458713 -0.042023282 -0.08071582 -0.12526219 0.004738787 0.12935813 0.1489528 0.1247777 -0.03186757 -0.35812062 -0.14392978 -0.07720417 -0.1493716 -0.13818955 -0.04308404 0.1002033 -0.09086886 0.096545435 -0.23625115 -0.026867868 -0.12714475 -0.035696354 -0.119908415 0.15627412 -0.13754877 -0.03609881 -0.082392536 0.08606957 -0.109623276 -0.14532834 -0.12668128 -0.029936874 0.15414713 0.06305995 0.047183696 -0.02334022 -0.19664213 -0.1280129 0.08093563 0.042512774 0.045069292 -0.08901582 0.04981547 0.06970727 0.35593274 -0.13094722 -0.031726994 -0.007955374 -0.1969811 -0.034129962 0.060731277 -0.05301327 -0.10208439 -0.07106707 0.017158156 -0.00896724 0.015156604 -0.083414845 0.0008442551 -0.2407257 0.008722717 0.17823242 -0.003749881 -0.04586028 0.20167479 -0.05698814 0.06809987 -0.10579216 0.040976603 -0.049965385 0.09883255 0.07523764 -0.38446215 0.15118644 0.087988734 0.1489473 -0.16929339 0.31538495 -0.020929221 -0.057798356 0.011817285 0.13574114 -0.27873495 -0.0014854013 -0.011919314 -0.2257244 0.18301424 -0.08520891 0.09530719 0.035925053 0.08906612 0.108257934 0.0145035675 -0.028865937 0.20669082 0.010832786 0.12938058 -0.048971966 0.12998472 -0.105446704 0.1769225 0.050045982 0.010581289 -0.1416014 -0.013865557 -0.10677597 0.03579232 -0.0022678566 -0.24062642 0.028195793 -0.3053101 -0.062347546 -0.18728194 -0.0137227215 -0.09989291 -0.01723994 -0.00994594 0.45210403
111274 -0.02169212 -0.017259639 0.019702839 -0.006365511 0.049246665 -0.029702708 0.050621573 0.08935537 -0.06745304 0.085134275 0.0059832335 -0.033875152 -0.016746826 0.0066654542 -0.036726337 0.010752042 0.042346656 0.029649757 -0.015964234 -0.11289428 0.006948219 -0.041386012 -0.02837674 -0.036718227 0.017014712 0.055859543 0.004110432 0.011903461 -0.09884428 0.06582948 -0.053476747 -0.010335009 -0.033489905 0.10481279 -0.028731303 -0.028902922 -0.0114118345 0.016883986 -0.019514982 -0.04917577 -0.057718102 0.013556551 0.049741123 0.0043743504 0.011015507 -0.031714488 -0.011120043 -0.061409406 0.013952134 0.03488693 0.04949224 -0.0037328848 -0.0043960665 0.00027438585 0.119288 -0.009390333 -0.031568434 -0.004981244 -0.07148998 0.025459236 -0.02710737 -0.007352838 -0.03908791 0.0018427538 -0.005482177 -0.036162972 -0.006581909 -0.010211852 -0.02599685 -0.013575474 -0.06668338 0.079499476 0.0028108438 0.017753623 0.06172717 -0.024560863 -0.0001874229 -0.0052417726 0.030400323 -0.011883257 0.05397025 0.01479344 -0.09651785 0.018938724 -0.008062222 0.033046234 0.025059385 0.10662497 0.01598341 0.003500216 0.020513799 0.042817935 -0.12064202 -0.042451847 0.049232323 -0.018329803 0.072822034 -0.015143672 0.03608651 0.00373453 0.040668372 0.036538456 -0.023850953 -0.0017017348 0.0061343675 -0.043549698 -0.0068553183 -0.042301293 0.011715691 -0.029552689 0.050135463 0.036236964 0.010263403 0.02716211 0.04916032 -0.02297123 0.0058922516 0.0016971873 -0.016881224 0.009176323 -0.049767427 -0.033909988 0.02714812 0.003720437 0.04237399 -0.023157293 -0.024633516 0.114559
111275 -0.001159584 -0.0030123617 0.0022001225 0.00013007584 0.003851161 0.002427362 0.0018263267 -0.0028280518 0.0020684975 0.00042501756 -0.00079658645 0.0033532018 -0.0010697478 0.0037917371 0.0013001563 0.0027456013 0.0037617034 -0.0025872374 0.0035392328 0.0037665742 0.0014887429 -0.003690686 0.0019909546 -0.0015470771 -0.0022800965 -4.5593566e-05 0.0019126888 0.0036998522 -0.0038637305 -0.0014225326 0.0017197432 0.0032729923 0.002225645 -0.001472813 0.0008341808 0.002777873 0.003612369 0.0003167403 -0.0027309472 -0.003322625 0.0020480002 -0.0011861623 0.00034245724 -0.0011242384 0.0013602555 0.0015056739 -0.0020908818 -0.0011099225 0.0037483505 0.0023810894 0.0008255873 -0.0038968162 0.0038450134 0.0021120447 0.0031859523 0.002010297 -0.0024715194 0.0034217953 0.0012795599 0.00018732765 -0.0021107846 0.0038986458 0.00054301374 0.0038727354 -0.0009791777 8.768867e-05 -0.0033739724 -0.0014729506 -0.00031310233 0.0020569419 -0.0023281306 0.000442072 0.00071245147 0.0030701996 0.0027922555 -0.0011250683 -0.0007341497 0.0015889195 -0.0028604094 0.0019139841 -0.0027399717 0.000805106 -0.0021588632 1.9042945e-05 0.001541061 0.0004869165 -0.0024351508 0.00038236176 -0.0004458494 0.0015529195 -0.0022306698 0.0016390041 -0.0022434026 0.00041824105 0.0032844017 -0.00083687925 0.0023372497 0.0021324956 -0.0037990536 0.0014866262 -0.0014030549 -0.0034945204 0.000543271 0.003536668 -0.00047112638 0.0024117262 0.0035486193 -0.0017060412 -0.0014351936 -0.0019308776 -0.0030993766 -0.0015316958 -0.002751471 0.0027142896 0.0036133823 -0.0020199257 -0.0024239041 -0.002636123 0.0012374283 -0.0021328013 0.001947982 0.0017586508 0.0035869994 -0.0005771529 -0.0022632817 -0.0015685455 -0.0014609399 -0.0037259175
111276 -0.04959173 -0.035514526 0.020641413 -0.0070020524 0.07426524 -0.056355346 0.07339599 0.09359635 -0.10041344 0.12315347 0.016469771 -0.0258607 -0.04122332 0.0022057046 -0.0343366 0.05207716 0.044009767 0.057616293 -0.03162627 -0.15004766 0.0060528754 -0.049503937 -0.067529075 -0.05106989 -0.0021721467 0.05543683 -0.02065146 0.037649944 -0.123286285 0.04472236 -0.052523717 -0.030154802 -0.078997724 0.10390751 -0.0635761 -0.025937455 -0.030505443 0.026265772 -0.012635427 -0.04915531 -0.079272434 0.0010386249 0.092138134 0.022958914 0.024591973 -0.039533637 -0.008855671 -0.050766118 0.038083505 0.042084876 0.082124926 -0.032972537 0.022937212 0.015445511 0.15140031 -0.036145262 -0.069632985 0.0009552595 -0.09300717 -0.0038171918 -0.017398527 -0.009217793 -0.043698363 -0.020857422 -0.021023732 -0.02974336 0.006757918 -0.0133881215 -0.0141838975 -0.073450424 -0.06213091 0.09155852 0.00885839 0.009556942 0.09300271 -0.030405195 0.019833758 -0.014276568 0.03687918 -0.019665256 0.051208355 0.052876487 -0.14774565 0.031054987 0.009489386 0.034691475 -0.0060363677 0.15858573 0.039475966 -0.017227018 0.027406368 0.03455155 -0.18427202 -0.03664385 0.0550569 -0.03934657 0.1059433 -0.04729396 0.060595527 -0.006179422 0.061056215 0.040425394 0.005259867 0.008970538 0.051015925 -0.024658581 0.032541666 -0.0334558 0.004985512 -0.021706011 0.061255753 0.04760912 0.029538479 0.010254521 0.064325556 -0.055965167 0.021108845 -0.012795129 -0.038075674 0.022241853 -0.083777055 -0.030252 -0.02394409 0.011096372 0.02849647 -0.042536702 -0.020992838 0.18255046
111277 -0.0704938 -0.09464088 -0.015965441 -0.0012529559 0.11142811 -0.045565914 0.10294531 0.058196254 -0.13285725 0.14919078 -0.009039784 -0.06807514 -0.0660415 -0.0013488852 -0.01923533 0.059319437 0.07643888 0.06611371 -0.06466105 -0.24623004 -0.034141343 -0.06045098 -0.0794535 -0.069469765 -0.05511067 0.06155934 -0.055333324 0.0520589 -0.17739482 0.037848372 -0.06581458 -0.021739459 -0.080905914 0.15682921 -0.07180834 -0.028464869 -0.09554609 0.058373705 -0.04911804 -0.12684669 -0.09927802 -0.00899343 0.09602604 0.04761054 0.03516384 -0.07310066 -0.068994656 -0.10773087 0.05722535 0.07956641 0.06441993 -0.0062501007 -0.0003468473 0.05623724 0.23018694 -0.06778441 -0.05739498 -0.018992757 -0.1241247 -0.034439564 -0.019404672 -0.014368283 -0.06914787 -0.021370169 0.002787206 -0.08933119 -0.02375584 -0.0777241 0.009079149 -0.11117634 -0.020705394 0.10283914 0.026049271 -0.003971245 0.11230177 -0.04085979 0.054929916 -0.03418192 0.04335791 -0.015938066 0.06382365 0.06824025 -0.20463619 0.061004408 0.040061772 0.098653145 -0.041174818 0.20551904 -0.013534664 -0.025594804 0.0076669627 0.05533673 -0.20020269 -0.0058088345 0.031096809 -0.13059857 0.13199194 -0.027398465 0.066397846 0.07387634 0.06561273 0.081972554 0.028309656 0.0041340934 0.08515665 -0.040775687 0.027015442 -0.03865338 0.05783169 -0.064272866 0.13496998 0.011520719 -0.0034863786 -0.015824785 0.010301312 -0.0043946295 0.02779667 -0.0011582659 -0.071199305 0.03366263 -0.13484165 -0.013517 -0.038808078 -0.0040683686 0.021409277 -0.048065554 -0.009382826 0.22122023
111278 -0.0064315307 -0.005225366 0.0019474184 -0.0030530684 0.0014735594 -0.002169387 0.025428426 0.04288828 -0.00455778 0.03421926 0.0037559897 -0.014400595 -0.006444749 0.005951647 -0.01392919 0.018981168 0.011067437 0.01468213 0.010161404 -0.026612906 0.0067186346 -0.011483571 -0.011167746 -0.008233158 0.007503055 0.015686445 0.008737289 0.0018217441 -0.018436635 0.018036708 -0.026240809 0.0033547508 -0.018753903 0.020225564 -0.012334251 -0.0066938135 -0.00043294887 0.000107057625 0.0027656024 -0.0057098554 -0.017686397 0.011700601 0.016719423 0.0029329918 0.0051610074 -0.01712834 0.004117427 -0.015435351 0.003958344 0.005019636 0.021622574 -0.0027839518 0.0032654435 -0.0025382373 0.02157161 -0.00022017612 -0.011861972 0.0012264877 -0.014369899 0.018636156 -0.003652947 0.008201173 -0.00944935 -0.011243219 -0.011553989 -0.01786807 0.010900846 -0.0026418958 0.00040806708 -0.004306742 -0.028746454 0.024857586 0.014915482 0.008735915 0.017013337 -0.0029074787 -0.0007059818 0.000962351 -0.00676736 -0.002705411 0.020425659 0.0046323077 -0.021487864 0.0024668188 -0.0040737446 0.009334069 0.009519299 0.03795747 0.004443319 -0.011010867 0.00085900666 0.014615216 -0.048357606 -0.0114669455 0.017138917 0.011615788 0.018103495 -0.023135945 0.019383322 -0.009307726 0.01385015 0.0016647886 -0.003713042 -0.004360568 0.01220869 -0.00069292606 -0.0002410129 -0.0028833593 -0.00029706434 -0.010913243 0.022432858 0.017033925 -0.0003288599 0.013696133 0.015350114 -0.016749237 -0.018915238 -0.0038328422 -0.0040937625 -0.0013763086 -0.016048677 -0.016247127 0.008704437 -0.004960554 0.0048609846 -0.0009404621 -0.0038528012 0.0414655
111279 -0.001918913 0.003109208 0.0034041926 -0.0007523435 -0.0029178998 0.0031890636 -0.0012822318 0.0010530096 -0.00045000052 -0.00075316493 -0.00040332432 0.002661738 -0.00062151253 0.00016378018 0.0036221452 0.0025131055 0.0029705036 0.0031600131 0.0011135166 -0.0021260027 0.003546578 0.0017526537 -0.0013996377 0.0004561464 0.0027918126 0.0033277473 0.001901026 0.002454259 0.0017938643 0.0017244987 0.0028608101 -0.003639561 -0.0020796075 0.0017698711 -0.001315885 -0.0033154485 0.002696203 0.0029252348 -0.0016874206 0.0025882788 0.002001692 0.00047456907 -0.00094443414 -0.0016295436 -0.0009736286 0.0021715877 -0.0010686548 0.002955405 0.0027189117 -0.0014583376 0.0029956673 -0.0025182685 0.00058120134 -0.0015009448 0.00027435232 0.0025115635 0.0037049735 -0.0038123084 0.00011669696 0.00025381666 -0.0002992525 -4.8713864e-05 0.0030009176 0.0018899798 0.00233004 0.002292889 -0.0030920613 0.0017264045 0.00091096776 0.0038843423 -0.002026801 0.00063105073 0.0012655763 -0.001555886 0.0016626635 -0.00091830833 0.00044116736 -0.002808649 0.0035305095 -0.0012082612 0.003847889 0.0027362874 0.0018359529 -0.00061782956 -0.0011390705 0.001899649 0.0021556087 -0.0025083194 0.0013202679 -0.00032516528 0.0030107035 -0.0026204097 -0.002350471 0.0010964937 -0.0012186269 -0.001908838 0.0024256634 -0.0018796258 1.953218e-05 -0.0012767272 -0.0014711925 -0.0011978906 -0.0025132 0.00035983013 0.0005277919 -0.00049232907 0.00016306282 -9.357367e-05 0.0016713084 0.0024322828 0.0009863994 0.00094457564 -0.0036936372 -0.0029048685 0.00087301567 -0.0020662523 -0.0009546075 0.00116579 0.001854733 -0.0026277658 0.0034262259 -0.0014035468 -0.00015769975 -0.002017085 -0.0004660741 0.0016346615 -0.0015411291 0.00054763135
111280 -0.11392725 0.12787361 0.14111096 0.008812212 0.44127104 -0.16901353 0.14341573 0.3237619 -0.25510308 0.4081353 0.017038222 0.088815786 -0.2899794 0.04431915 -0.0019545227 0.25025976 0.22786278 0.22333162 -0.19789457 -0.2773083 -0.026501808 -0.005684863 0.038603365 -0.06463552 -0.11525579 0.06419828 0.064757235 -0.12602654 -0.49493527 0.18913278 -0.1888958 -0.18938474 0.09774272 0.21699421 -0.03711543 0.09496971 0.029665042 0.33896428 -0.12268288 -0.093336366 -0.25361857 -0.0013672622 0.04796406 0.16935198 0.07531468 -0.13863029 -0.029863764 -0.24896185 0.12420247 0.54335654 0.13396926 0.036087893 -0.03892524 0.07863067 0.3997477 0.13294807 -0.11776254 0.025129076 -0.26877764 0.07072034 -0.023236228 -0.11521998 -0.08195375 0.10002385 -0.12703753 -0.0546447 0.065614715 -0.1135305 -0.006683031 -0.2425983 -0.22558452 0.09361342 0.16645877 -0.01270694 0.29581368 -0.041963104 0.042337008 0.02605695 0.21507527 0.030091798 0.19402954 0.13157496 -0.21535794 0.005128435 -0.15038192 0.039003327 0.06526114 0.47514153 0.06299003 0.0058852676 0.19999924 0.19343767 -0.6254287 -0.048146334 0.07734818 0.014059944 0.3283765 -0.05410744 0.23190008 0.06575297 -0.03366733 0.03367708 0.035683528 0.16813461 0.03446861 -0.31862065 -0.1716944 -0.18784867 0.17128332 -0.27357107 0.378681 0.18704516 0.053959534 0.06351724 0.0011262409 0.055397492 0.055146843 0.22376451 -0.061090656 -0.20230661 -0.08541124 -0.1955695 0.1438546 -0.11180654 0.053254884 -0.09894688 0.012200152 0.26800868
111281 -0.013028248 0.0027792542 0.029226884 -0.012488711 0.032838248 -0.01855378 0.054102756 0.09346128 -0.0421048 0.069299236 0.02578214 -0.010398682 -0.03205854 0.028151624 -0.031060461 0.030971857 0.01074325 0.038060073 -0.0032555102 -0.06409902 0.009385725 -0.036503404 -0.030161079 -0.018479008 0.027947163 0.04607066 0.02655558 0.007933914 -0.0698474 0.050193295 -0.034320045 -0.00804921 -0.027045127 0.0681723 -0.01046553 -0.019416308 0.011879141 0.00642483 0.008549303 -0.022597302 -0.049849875 0.011766067 0.056455437 0.0008836696 0.0055191806 -0.041380603 0.039345045 -0.023793282 0.010394054 0.036469907 0.058593445 -0.011193479 -0.009206975 -0.0046250634 0.051913537 0.009750552 -0.035176445 -0.010384995 -0.05160784 0.017489878 -0.009932767 0.008025924 -0.011226423 -0.012650482 -0.014844104 -0.037909545 0.009936915 0.031079194 -0.0189537 -0.0033056492 -0.07222477 0.06527937 0.043587927 0.011068053 0.039226558 -0.016036922 0.0041373675 0.0006651977 0.021839216 -0.0021962873 0.04906715 0.02090924 -0.049504697 -0.013185491 -0.025854465 0.00438525 0.06222064 0.07791468 0.02588082 -0.004328378 0.012739811 0.027925719 -0.12983087 -0.04879628 0.051043008 0.031467292 0.06161903 -0.02948912 0.03419366 -0.012317479 0.029352387 0.02628847 -0.012366637 0.008572284 0.005048265 -0.024948845 0.0020749466 -0.009099786 -0.004521656 -0.008523553 0.03369363 0.044665575 0.0018089658 0.03278345 0.0404437 -0.018141808 -0.007648629 -0.00926721 0.013014036 -0.01702218 -0.028830139 -0.024598487 0.018703597 0.0004245207 0.034726482 -0.026007742 -0.011534729 0.09340496
111282 -0.013235811 0.0004547739 0.018873297 -0.0073403814 0.022679793 -0.016229305 0.04824325 0.08403654 -0.024407096 0.066978075 0.021181697 -0.005977725 -0.020871362 0.013556755 -0.017954798 0.026669797 0.020332184 0.04467496 -0.0140795205 -0.07731382 0.0037370943 -0.036604043 -0.030355424 -0.022797445 0.0180369 0.026629578 0.015851509 0.0085889045 -0.061956286 0.03323135 -0.023833796 -0.0029103586 -0.039996777 0.060454197 -0.017254625 -0.009086787 0.0033778716 0.015215351 0.005210932 -0.016979842 -0.044868816 0.019544233 0.045507096 0.012136794 0.008872239 -0.02131855 0.022014732 -0.029866805 0.008250585 0.029316526 0.04395193 -0.008326361 -0.0017864577 -0.008206938 0.06486411 -0.0064576003 -0.038274147 0.00188226 -0.041046016 0.026812326 -0.0070710047 0.00044782407 -0.00890631 -0.0144558875 -0.006762684 -0.010795637 0.014220317 0.0061031687 -0.014061057 -0.01377285 -0.058198042 0.072505996 0.028806876 0.0069325995 0.038737997 0.0027191113 -0.0049919025 0.00046567788 0.018931191 -0.0068697394 0.04912098 0.017798126 -0.045096826 -0.005781963 -0.028297443 0.0048544514 0.034537356 0.08187472 0.017214058 -0.0072723636 0.016506176 0.044732053 -0.11627174 -0.030991772 0.04510811 0.026626317 0.058333226 -0.027156677 0.043913323 -0.029456481 0.032256644 0.01575848 -0.019156288 -0.0018467221 0.010575284 -0.015831 0.0054886336 -0.024063492 -0.00014668763 0.0019211848 0.03311438 0.041075252 -0.010601791 0.036316335 0.047834363 -0.028440831 -0.02876509 -0.0030071076 0.0055261585 -0.012830807 -0.03243408 -0.04333118 0.0058863703 0.0072322926 0.016926508 -0.0074702827 -0.012259015 0.09559938
111283 0.0037683952 -0.0018567466 -0.0020862964 -0.0010302227 -0.0013212746 -0.0023291886 -8.1826605e-05 0.0028563994 0.0024915189 -0.0013895202 0.0012642477 0.00025046445 -0.0022980627 -0.0015480479 0.0038647149 -0.0033297627 -0.0006910796 9.513579e-05 -0.0034312583 -0.0023474565 -0.0036844367 -0.0008569497 -0.0038933612 -0.0011443489 -0.0035454242 -0.0023799934 -0.00064065657 -0.0023186135 -0.0014140012 0.0004890027 -0.00064716884 0.0018755754 0.001351731 -0.0038245597 0.0006174417 -0.00085012347 -0.001523673 0.00047745314 0.0036559072 -0.0038393661 -0.0033415817 0.0004441786 0.0026451976 -0.0032301575 0.0027254396 0.0035710635 0.0018662484 -0.003076288 0.002775712 -0.0036029923 0.0020757646 0.0035687368 0.0025522474 -0.003303932 0.0008960848 0.0014307642 0.0034793895 -0.003647434 0.0017651381 0.0006581416 0.0022133307 -0.0008906171 0.0029389702 0.003467933 -0.0013993524 0.0038466323 0.0029072016 -0.0017906843 -0.0038823928 0.0030529858 5.6714904e-05 0.0016084696 -0.0015229644 -0.00227015 0.0033034685 -0.0026384434 0.0030017777 0.0024990793 -0.0020591791 -0.0023819364 -0.0034823457 0.0009791044 0.0032954346 -0.0027179827 -0.0014856765 -0.0028027631 -0.00021895466 0.0004458182 -0.0016804454 2.2425958e-05 0.00027412685 -0.0024538557 0.0011053025 -0.0035286965 -0.00042926427 -0.00026094707 -0.0024059552 -2.0697842e-05 -0.0006928142 -0.002494438 -0.0034553409 -0.0017372277 0.000776813 0.0015318195 -0.00089609285 -0.00386525 -0.00076573 -0.001282412 -0.0011665573 0.0020549977 -0.0010274044 -0.0023299737 0.003618159 0.001280623 0.0035393846 0.0029333828 -0.003378978 0.0021068621 0.00083648175 -0.00088852306 0.0037726876 0.0030058844 -0.003495954 -0.0019151223 -0.00015598314 -0.0016759633 0.0026643565 -0.001472665
111284 -0.2012889 -0.07841492 -0.11255484 0.15057547 0.39381438 -0.05804638 -0.0094255535 -0.2637369 -0.2767586 0.049985908 -0.30424657 0.01837128 -0.07203149 -0.24444169 0.1560559 0.20613742 0.09126842 -0.033640485 -0.11786463 -0.08161496 -0.16281012 -0.17755795 -0.01895956 -0.26057065 -0.2883759 -0.12498864 -0.032745235 0.033176895 -0.14220992 -0.16156095 -0.15032001 -0.062330157 -0.057444032 -0.16667193 -0.25024047 -0.043980755 -0.14673644 0.2994794 -0.29285643 -0.17364284 -0.019959748 -0.34539 -0.14791745 0.11064472 0.013785668 -0.20215267 -0.6544044 -0.17281117 0.2488231 0.10935012 -0.23480219 -0.23767672 0.059962764 0.1606337 0.4405493 -0.11566068 0.15428506 0.12190086 -0.057286695 -0.15829635 0.11366192 -0.094555564 -0.15852073 -0.058523837 -0.15988858 0.05249743 -0.05836365 -0.32422867 0.10104353 -0.49774292 0.30917853 -0.22757295 -0.23812158 0.088271454 0.28115413 -0.16924706 0.17629981 -0.010289329 -0.11803734 -0.002157306 -0.18919352 0.05687314 -0.3770245 0.25358745 0.15264231 0.35639533 -0.5260928 0.22853374 -0.18163781 -0.0077963355 0.1443267 0.04270344 -0.068262875 0.3557416 -0.24920613 -0.46917126 -0.008839076 -0.0762409 0.083368234 0.16132839 0.064160496 0.007238489 0.2380682 0.15478444 0.21886991 0.0433076 0.08073434 -0.09502577 0.315322 -0.23715328 0.3131262 0.04080226 -0.039316617 -0.3706653 -0.22586578 0.048888154 0.22417147 -0.0015419902 -0.40221772 0.029873755 -0.21195395 0.07133496 -0.33829865 -0.15210247 -0.36153513 -0.1742966 0.1093908 0.2783617
111285 -0.1935449 -0.1397598 -0.11987916 0.1721592 0.37371412 -0.0653436 0.038073752 -0.26350033 -0.3545396 0.09945156 -0.3154057 -0.0007087895 -0.07084306 -0.22175694 0.16099253 0.19953595 0.117162816 -0.070319645 -0.12786584 -0.15630335 -0.12690382 -0.18198565 -0.04030893 -0.33636686 -0.24798858 -0.0669157 -0.018908 0.0053718477 -0.19618025 -0.10066843 -0.22956415 -0.045842137 -0.02921823 -0.1254861 -0.26632655 -0.016257184 -0.17854472 0.33249977 -0.28641212 -0.20566899 -0.053576585 -0.3270365 -0.16969691 0.05568298 0.016511772 -0.2038255 -0.59753686 -0.20912889 0.29031375 0.14922439 -0.22492045 -0.17415035 0.021194478 0.17073812 0.44996518 -0.107516356 0.20096649 0.12120893 -0.038990304 -0.18795258 0.14242744 -0.09760456 -0.18925956 -0.065650195 -0.090630785 -0.019193368 -0.07673111 -0.30240226 0.1294564 -0.47510266 0.274465 -0.21850432 -0.24008492 0.093966454 0.29422352 -0.13026626 0.19943611 0.0076473323 -0.13125372 -0.00075286365 -0.14467044 0.08975284 -0.37200585 0.24019286 0.10457726 0.34782708 -0.49389878 0.251615 -0.17546566 -0.017101428 0.08153727 0.050106864 -0.09572745 0.33274212 -0.20451026 -0.39869505 -0.017438373 -0.09611183 0.06586016 0.19703156 -0.0034438947 -0.043677863 0.25116718 0.20978847 0.2736165 0.04248271 0.1353026 -0.03631258 0.32412568 -0.29848787 0.3699183 0.058826797 -0.043827053 -0.38228148 -0.23429951 0.06515847 0.24080884 0.010683097 -0.39587954 0.07465012 -0.18761894 0.049156375 -0.32890964 -0.12954025 -0.29603994 -0.16698867 0.07538205 0.26568982
111286 -0.044519983 -0.04048294 0.023490222 -0.0019099365 0.08270105 -0.038121227 0.049789716 0.08256461 -0.10618242 0.102043584 -0.012687833 -0.045663718 -0.023636505 -0.009555432 -0.032328106 0.022487983 0.07168542 0.04244629 -0.046081472 -0.16352946 -0.03278111 -0.046589702 -0.04432445 -0.060319163 -0.0073993346 0.06647312 -0.019027816 0.010144211 -0.16076156 0.060809974 -0.059689857 -0.022432243 -0.0372725 0.117010735 -0.053637795 -0.05149078 -0.038431756 0.02699117 -0.05370849 -0.077686645 -0.07348915 -0.009374759 0.04802303 0.021019138 0.024631035 -0.05492403 -0.05718491 -0.09918243 0.040370196 0.071133554 0.03608157 -0.008164604 -0.012874066 0.018147351 0.17682055 -0.019956896 -0.01963528 -0.010518786 -0.08260277 0.0045442083 -0.027714342 -0.017130407 -0.06401236 0.0049490924 -0.010668175 -0.04662527 -0.009684679 -0.053016786 -0.024991896 -0.058623463 -0.05204435 0.086822405 0.001418214 0.027129492 0.10401987 -0.031014493 0.023104554 -0.015818834 0.036405325 -0.0153037235 0.06459962 0.02379832 -0.14397973 0.057535943 0.020321706 0.060250126 -0.028829623 0.14921008 -0.025254747 -0.0013524374 0.025174253 0.052659776 -0.13341935 -0.016378792 0.020093787 -0.08339518 0.09640516 -0.016009176 0.042925626 0.031064678 0.055369917 0.05361068 -0.01510488 0.012525913 0.026703823 -0.06233504 0.003505859 -0.06332229 0.05928912 -0.07104411 0.09959175 0.028348232 -0.016715664 -0.0072542694 0.01862931 -0.008320864 0.027940236 0.021089233 -0.060495548 0.023674408 -0.09133727 -0.017207745 -0.003254774 -0.010625331 0.04308876 -0.0422991 -0.013168052 0.15527505
111287 -0.007957849 -0.00892993 0.014363449 -0.016988229 0.024547072 -0.017352708 0.023284148 0.045003608 -0.02724837 0.046937 0.0073798504 -0.015030684 -0.006122673 0.0037491946 -0.026539605 0.017694745 0.009332014 0.029116876 -0.0033160998 -0.046877917 0.0024926455 -0.022362769 -0.013656512 -0.021069327 0.019747948 0.033956334 0.010017216 0.010204325 -0.039311122 0.025731884 -0.019998554 0.0012520219 -0.02774304 0.03434218 -0.015837857 -0.014728329 0.004978884 0.008620362 -0.0052653304 -0.0121306125 -0.03149833 0.0038114935 0.025659375 0.0091247475 0.009899402 -0.009710352 0.007200773 -0.012783744 0.0045374045 0.025009526 0.029339278 -0.013191917 -0.0050849607 -0.0020879554 0.044526976 -0.00319396 -0.025412548 -0.0034578354 -0.027000725 0.0048379945 -0.0041246577 0.0019971093 -0.01737967 -0.0043029157 -0.009378499 -0.016914262 -0.0013943223 0.005277561 -0.0031551588 -0.0051021366 -0.046654973 0.045089014 0.015231876 0.011590121 0.036737785 -0.007327838 0.0005446259 0.006011489 0.018947517 -0.0064764437 0.031327996 0.013245033 -0.03398044 0.0041374215 -0.015414563 0.0041255546 0.02209143 0.056532275 0.014470685 0.003571234 0.012260897 0.020852067 -0.06467198 -0.031170541 0.027343111 0.00032458664 0.042631283 -0.014445041 0.027525907 -0.012978192 0.0227402 0.021398375 -0.007316931 0.0062284027 0.0048545413 -0.019435823 0.000117272604 -0.011506323 -0.007161043 -0.010308292 0.019241609 0.02742449 0.00093452836 0.0051837033 0.02915204 -0.0133464765 0.00855825 -0.002138001 -0.0031707701 -0.0057060514 -0.020911215 -0.018350324 0.0035297503 0.0013803189 0.0120541565 -0.014708297 -0.004331086 0.06759032
111288 -0.047125474 -0.040671922 0.016009746 0.0007408528 0.14769086 -0.059727628 0.08116977 0.06941017 -0.112421945 0.16653056 -0.02982227 -0.068503015 -0.054542243 -0.013921826 -0.03257983 0.043811426 0.070630446 0.071040556 -0.055338666 -0.21695675 -0.07096541 -0.051132135 -0.08449241 -0.055040687 -0.047723897 0.07335099 -0.044885576 0.012189851 -0.1765527 0.05286713 -0.08089669 -0.017418673 -0.06598955 0.14273085 -0.08715842 -0.036707737 -0.06473974 0.051043227 -0.067841575 -0.09643498 -0.09582491 0.001847624 0.05261707 0.053172864 0.027627867 -0.062295493 -0.08353069 -0.09849229 0.03109364 0.063918844 0.09630945 -0.0067683854 -0.0038048832 0.032212827 0.2291671 -0.058547072 -0.04235997 0.00059993245 -0.12440047 -0.017003074 -0.022496214 -0.041205097 -0.058780555 -0.012394845 -0.014061655 -0.06000129 -0.020389585 -0.077382386 -0.013389028 -0.10197837 -0.0385152 0.1102781 -0.0025826877 0.019385219 0.1358741 -0.03689638 0.024261123 -0.041201103 0.029893043 -0.032662835 0.06234556 0.057826083 -0.18649338 0.06191287 0.018031476 0.077550724 -0.044082988 0.1832117 -0.024315784 -0.026118055 -0.00047164748 0.058965888 -0.16469792 -0.017083952 0.036195736 -0.119767375 0.0972085 -0.019631147 0.050778836 0.06222124 0.05048555 0.068792425 -0.0034343621 -0.003612232 0.04194634 -0.037425816 -0.002599861 -0.044703994 0.0419013 -0.07444159 0.10328159 0.004527089 0.019888606 -0.0031016443 0.017381119 -0.0047368067 0.015692845 0.010664294 -0.08350244 0.011381481 -0.12354919 -0.043128546 -0.0041534347 -0.031297833 0.036157876 -0.04441545 -0.026168346 0.19066437
111289 -0.09067189 -0.08753108 -0.014943781 0.04005704 0.11475426 -0.053412713 0.12515569 0.067298934 -0.12705459 0.16948809 -0.015831526 -0.048837993 -0.07070332 -0.0013833953 -0.0104697505 0.044954315 0.09864205 0.07968331 -0.0839822 -0.28747213 -0.042100012 -0.05636909 -0.08994253 -0.07218917 -0.08715548 0.06808635 -0.06631199 0.06364464 -0.20563443 0.024724437 -0.050361935 -0.033912238 -0.094272494 0.16656283 -0.09276309 -0.0013636155 -0.10224557 0.06526194 -0.035246495 -0.13589257 -0.0825142 -0.010095838 0.09644312 0.052456047 0.05167175 -0.06990598 -0.09289211 -0.12852281 0.064512335 0.088059306 0.059043888 -0.015241084 0.017639188 0.060579114 0.2640852 -0.078146085 -0.050172023 -0.010612823 -0.13597375 -0.047420748 -0.006362758 -0.01798511 -0.09144986 -0.018356286 0.0125755975 -0.080880344 -0.03696008 -0.09229838 0.0084339725 -0.15337808 -0.020516079 0.11625223 0.021030074 -0.013250838 0.12824233 -0.04107724 0.04248761 -0.047758527 0.06047315 -0.023941189 0.056200653 0.074455746 -0.25814465 0.06430219 0.03844522 0.10971616 -0.0824739 0.24065776 -0.010687573 -0.028710894 0.014059873 0.07346289 -0.25254345 0.014171977 0.04648068 -0.14198793 0.1559993 -0.04056712 0.09360689 0.079059035 0.07597018 0.05782365 0.027622141 0.011529 0.11079248 -0.038361393 0.05000714 -0.05167358 0.06468412 -0.072393626 0.16838233 -0.0017206826 -0.008245292 -0.031224763 0.021106804 -0.02999602 0.031172732 -0.0051297513 -0.10679055 0.02714593 -0.15965469 -0.0143557405 -0.058829978 0.006640574 0.028549269 -0.031944823 -0.013892614 0.26552132
111290 -0.025445277 -0.02316061 0.0048883515 -0.01063161 0.009898804 -0.015887957 0.039013833 0.064202316 -0.02040792 0.04818435 -0.00023218861 -0.016982853 -0.008980023 0.014398178 -0.024126327 0.025050657 0.01089378 0.020812334 0.0027179911 -0.055654608 0.014436185 -0.034636732 -0.021721208 -0.025697302 0.01954299 0.018555567 0.015033181 0.028532935 -0.03319865 0.02742734 -0.032642487 0.0030095465 -0.03485215 0.036344465 -0.022029819 -0.022228759 -0.003347204 0.0053314795 0.0027710379 -0.006764027 -0.030932425 0.0058139483 0.03877824 0.0032766976 0.0066173445 -0.016473273 -0.002067374 -0.013668417 0.017414806 0.0073955785 0.02980363 -0.015365512 0.008346178 0.0010182188 0.053337187 -0.0049234075 -0.031012915 0.0061463993 -0.027627423 0.017395902 0.0014469698 0.011770262 -0.025488753 -0.015631447 -0.006662623 -0.0025653474 0.004115702 0.015495071 -0.009752575 -0.019022122 -0.039690908 0.042584527 0.0008733326 0.005771428 0.033105094 -0.018442692 -0.0073863924 0.0009925158 0.01244463 -0.0053470894 0.024513217 0.00738738 -0.051361 -0.00013804545 -0.013192748 0.011636155 0.025161596 0.06556588 0.01975832 -0.013617716 0.009323783 0.01541286 -0.08121605 -0.016671533 0.027474273 -2.0399544e-05 0.036734954 -0.036006946 0.026706442 -0.014388042 0.032800455 0.009626653 -0.005749671 0.0056943847 0.017396525 0.0031557018 0.018959858 -0.016234439 -0.0045217047 -0.008824989 0.02653219 0.046455998 0.0014218421 0.011076724 0.036451273 -0.035759475 0.0007990544 -0.017455883 0.0013550364 0.0073594805 -0.021800647 -0.024495594 -0.010468253 0.00088352663 0.0053857462 -0.01839674 -0.0077246707 0.08635927
111291 0.0007779476 0.00044436302 0.0031673855 -0.00094213046 0.0020389685 -0.00071334 -0.0038630124 0.00078402535 -0.0023783778 0.0017084472 0.0013361574 -0.0015665527 0.002938797 0.0012975868 -0.0010046897 -0.0033915404 8.7697714e-05 -0.0031525972 0.0015430775 -0.0007402102 -0.0025416722 0.0013294567 0.001553759 -0.0036129744 0.0010079149 -0.00251536 6.08798e-05 0.0036948314 0.00091634836 0.0016239815 0.0028711082 -0.0029169198 -0.0005807528 0.0010519592 -0.0020423625 0.0016290284 -0.0016141234 -0.0015364755 -0.0019603136 -0.0014754573 0.0006736249 -0.00038485316 -0.002775075 0.0034188842 0.0038170815 0.00028990174 -0.0025105793 -0.0026413586 -0.0010531516 0.002729229 0.0015300651 0.002938079 0.00076220057 -0.0038978874 0.0018012692 -0.0008235466 0.0016754078 0.0017933575 -0.0007898528 0.00074137974 0.0031419562 -0.0026039705 4.2080203e-05 0.00094014476 -0.0033626321 -0.0035586907 -0.00044950648 -0.0024872348 0.00092386315 0.002237753 0.00053161295 -0.0037612857 0.0019747117 0.0015238904 0.0006446456 -0.00014155009 -0.00082886615 -0.0027190247 -0.00083207595 0.00071962393 -0.0029131544 -0.0016785138 -0.0024702316 0.0033194665 -0.0019537972 0.0034137196 0.0032259722 0.00050090294 -0.0037385963 0.000698179 0.0031862417 -0.00022581157 0.00046809213 -0.00010691379 0.0014376323 8.315834e-05 0.0010338242 0.00065621623 0.0038276808 -0.00021000032 -0.0034640695 -0.0013273051 -0.0012629083 0.001937521 -0.0036882157 -0.0013022403 0.003762806 0.0019962264 0.0018465804 -0.0030312454 -0.0030400227 -0.002366099 -0.0035724803 -0.0023113356 0.001979594 3.38736e-05 -0.0023539676 0.0020232426 -0.0034564706 0.0003238666 0.00025544522 0.003463025 0.002289837 -0.0013089555 -0.0036865608 -0.0019260721 0.0013554082 0.0026978801
111292 -0.1668742 -0.19504479 -0.14186469 0.1704272 0.30065832 -0.052144106 0.032535456 -0.17851093 -0.23751278 0.13869107 -0.3539698 -0.023752121 -0.055875313 -0.16943495 0.119211525 0.17796826 0.09194609 -0.042828456 -0.08346998 -0.2136821 -0.09065961 -0.16357417 -0.06530738 -0.31456056 -0.23334612 -0.10996359 -0.015058517 0.07922861 -0.12790248 -0.10410356 -0.1888771 0.04658163 -0.105449274 -0.03314146 -0.23973335 -0.012484554 -0.15858586 0.26011017 -0.3059862 -0.22980016 -0.07651699 -0.23601346 -0.11120451 0.08363595 0.030132905 -0.13645898 -0.54538256 -0.1787198 0.2521337 0.05726958 -0.15337263 -0.20961912 0.08132647 0.20237176 0.48903453 -0.17987075 0.11550335 0.14759533 -0.07368324 -0.12005694 0.12270255 -0.028382264 -0.180408 -0.11192778 0.0050233803 0.007011692 -0.046981283 -0.1797179 0.083164126 -0.36631563 0.21258529 -0.13744897 -0.19500338 0.1148497 0.20475487 -0.17005853 0.12297786 -0.06726085 -0.052567855 -0.019684372 -0.12297955 0.0619864 -0.3757607 0.17595121 0.07631189 0.36046693 -0.36043033 0.2774462 -0.16742869 -0.01045529 0.08078572 0.11242317 -0.19641213 0.26383927 -0.12718189 -0.3493755 0.019181177 -0.10786217 0.07810953 0.19099234 0.041889105 -0.04595674 0.2398148 0.13489985 0.30142832 0.06976219 0.13836357 -0.01730952 0.27460808 -0.18977198 0.31195927 0.07850141 -0.06429083 -0.28723794 -0.16202432 -0.020391852 0.099931225 -0.06626149 -0.3282814 0.011785581 -0.22630072 -0.021639943 -0.28005636 -0.018652024 -0.30403015 -0.1112924 0.023073277 0.330297
111293 -0.19516732 -0.21395983 -0.14615603 0.12565167 0.2943326 -0.019843608 0.016266078 -0.09392138 -0.25945562 0.12699518 -0.2861062 -0.026731035 -0.08501687 -0.18262647 0.09489386 0.16887146 0.0625375 -0.027368482 -0.07933493 -0.25753433 -0.12022606 -0.1731083 -0.07958668 -0.3053777 -0.22771733 -0.095041245 -0.020188443 0.11581521 -0.10422191 -0.07160759 -0.19418633 0.04943696 -0.11800826 0.0016174999 -0.2316547 -0.02825178 -0.20811325 0.24419376 -0.26344815 -0.20123887 -0.096481696 -0.21504806 -0.025137935 0.07873939 0.045474906 -0.11546453 -0.49010772 -0.1594207 0.19998753 0.062064327 -0.16559367 -0.14724158 0.06347306 0.2103436 0.428449 -0.16668531 0.07732238 0.07302991 -0.0527537 -0.12875134 0.14054057 -0.0033897897 -0.19793887 -0.109524034 0.06424942 -0.02724463 -0.047164716 -0.15271094 0.09840408 -0.32053494 0.16023847 -0.05337547 -0.12021827 0.064687125 0.1786362 -0.1067016 0.10627125 -0.06241418 -0.04673867 0.0057654064 -0.077723816 0.05932889 -0.3287026 0.14654042 0.051454157 0.318083 -0.2676826 0.225554 -0.11014654 -0.014636604 0.016588338 0.061974168 -0.1780354 0.17656653 -0.17166373 -0.35963282 0.027989132 -0.065058626 0.030039633 0.1793452 0.02397692 0.012395465 0.2247247 0.15272291 0.27721456 0.056382235 0.18159083 0.022925297 0.23195346 -0.13447568 0.25057322 0.13977592 -0.09862519 -0.23040122 -0.1271685 -0.048562896 0.12914452 -0.08899179 -0.23970893 0.029716881 -0.25326547 -0.052548777 -0.29469594 -0.0050707827 -0.2956084 -0.05464122 0.0073239356 0.34202522
111294 -0.015610738 0.00051801314 0.031610716 -0.020897172 0.031742036 -0.023898588 0.022046207 0.08127893 -0.060043406 0.053684 0.024254713 -0.0032685513 -0.0153642865 0.011914746 -0.026138606 0.045699276 0.0023985363 0.032703318 -0.02138586 -0.053115815 0.014997186 -0.029749665 -0.018685453 -0.018078554 0.013702403 0.03223072 0.016011994 0.009994157 -0.05349198 0.036031164 -0.040066555 -0.015514407 -0.030159956 0.028574523 -0.021672066 -0.026344065 0.0067870254 0.026101468 -0.010895831 -0.027402367 -0.053520765 -9.7368145e-05 0.04372737 0.018515024 0.009193041 -0.03269255 0.014729943 -0.027272062 0.014433005 0.0431487 0.0384162 -0.028337616 -0.005585112 0.0012811385 0.061655775 0.010221017 -0.045263942 -0.0060723103 -0.043637853 0.024924977 -0.0153224245 0.0057836506 -0.012966085 -0.011306807 -0.040749747 -0.009097496 0.013148576 0.018210195 -0.0172246 -0.020201145 -0.06463093 0.050581593 0.02456582 0.0075390395 0.04303864 -0.011199789 0.006289529 0.0072815195 0.032222137 -0.00340954 0.043115947 0.030425815 -0.038227458 -0.012413314 -0.025345962 -0.0035868762 0.032585304 0.073915124 0.033834986 -0.0061871423 0.026367256 0.03480252 -0.11472512 -0.03794825 0.02092567 0.024781765 0.06258681 -0.022129849 0.034509998 -0.034920644 0.030464306 0.018311765 0.00032261602 0.014346001 0.0042523905 -0.014744011 0.004737077 -0.023391947 -0.007839002 -0.0069512343 0.018401092 0.051628046 0.0075466805 0.013549841 0.038248748 -0.019959012 0.008391236 -0.008399198 -0.002599684 -0.0007917241 -0.043393858 -0.025044614 0.0008022384 -0.0053811804 0.0072203907 -0.012257892 -0.0091749 0.07620344
111295 0.0026149298 0.00074899953 0.0036945345 0.0009237366 0.0017254171 0.0008547311 -0.0012419501 -0.0023563427 0.003173128 -0.0016938817 -0.00233135 -0.0015901474 -0.003836186 0.00076600816 0.00045622842 -0.0017044572 -0.0009845414 -0.0013066198 0.0028572022 -0.0027197718 -0.0036368128 0.0027827972 -0.0036245126 0.0024522769 -0.0030864268 -0.003128627 -0.0027378486 -0.00090850575 -0.00048320956 -0.0034153857 -0.0022644904 0.0012448133 -0.002562645 0.0007981243 -9.7182885e-05 -0.0033534213 0.00082652015 0.0033827578 -0.0018902563 -0.0013608626 0.00093726994 -0.0031904052 -0.0033801042 0.00088969205 -0.0014595931 0.0012476667 -0.0028273556 -0.0031352628 -0.0019254547 -0.0013877403 -0.0031034169 0.003592915 -0.0004800163 -0.0014454989 -0.0015175173 -0.00105522 0.0031990677 0.00050383597 0.0036900847 0.001688363 -0.00022670343 0.0005793869 -0.0030108003 -0.003871331 0.0016202679 -0.0033238642 -0.00010827334 -0.0020981648 0.0028317827 -0.002989371 -0.0028363524 -0.0018121457 0.0012863314 0.0014015972 -0.0015043052 0.0025528218 -0.0012882204 -9.7593256e-05 -0.00017510234 -0.0011068718 -0.0013622608 0.00030259337 0.0013292186 0.00093608204 0.0023948462 -0.00017713947 -0.00016979338 0.00032837118 0.0038890063 0.0025986563 0.003139431 0.0030200235 -0.001262131 0.0023244761 -0.00027772828 -0.00056844344 0.0012101618 0.0019394049 -0.0014340008 -0.002239975 -0.0021331972 -0.0022409435 -0.0037569394 0.0008982446 -0.00051911006 0.0003261372 0.0031737546 0.0038726123 0.0038770265 0.00038193713 -0.0019505669 -0.0018832223 -0.0019963994 0.0017057013 -0.00019487835 -0.001640258 0.0032050665 -0.0017901639 -0.0020854638 0.0029128331 -0.0020256888 0.0018385955 -0.0033687945 -0.0030169664 -0.0015887677 0.0019730108 0.00067191536 0.00092347944
111296 -0.030692494 -0.007034349 0.0071049803 -0.0027425867 0.026641432 -0.014595684 0.026937231 0.057494327 -0.04598808 0.046145383 0.0103085665 -0.0040425197 -0.0033187638 0.0049130702 -0.03142881 0.01755855 0.019329775 0.017824827 -0.0275254 -0.05105926 0.019858072 -0.024879945 -0.0019449992 -0.017625002 0.0105547365 0.025028886 0.009916313 0.014504975 -0.040131234 0.02943571 -0.027379943 -0.00032632993 -0.03151922 0.021056982 -0.030702468 -0.010078621 -0.0074659586 0.022745462 0.0054874336 -0.0035481243 -0.029100759 0.001015212 0.028284902 0.0034675887 0.0113516 -0.017989993 0.00043725283 -0.01982052 0.018114027 0.0288774 0.0141132 -0.010849335 0.0041687554 -0.0014636684 0.05608567 0.0014647325 -0.027844334 0.0037088494 -0.026030308 0.012698005 -0.008014128 0.009025451 -0.028304175 -0.006698931 -0.015106453 -0.007136018 -0.005314772 0.0027494093 -0.0006056293 -0.022518542 -0.039595652 0.043115176 0.0044846013 0.015069429 0.042486284 -0.0013012937 -0.0037703824 0.0051716194 0.016459603 -0.008416041 0.029717281 0.009450389 -0.040434908 -0.008243474 -0.025985152 0.01230491 0.012947906 0.0652178 0.018318674 0.0041632415 0.0071381223 0.0034034802 -0.0911121 -0.010206566 0.026040656 0.019982312 0.039559368 -0.024148023 0.03504085 -0.01975715 0.01001302 0.009331638 -0.008517737 0.017781535 0.0064479946 -0.009152217 0.021150062 -0.0277204 -0.0058078594 -0.008709943 0.018495427 0.039676435 -0.0040876796 0.010217464 0.03127113 -0.024311164 0.020830024 0.00064268906 -0.0056692483 0.012620019 -0.018111456 -0.018914165 0.003008072 -0.0003771556 0.020152647 -0.013171422 -0.0018046447 0.065869994
111297 -0.08931694 -0.11524903 -0.025352389 0.010341426 0.10696672 -0.050796237 0.13135411 0.04832407 -0.15975013 0.15726167 -0.011842799 -0.060512155 -0.063888066 -0.0020657922 -0.013743199 0.07218051 0.09100358 0.07729316 -0.06627483 -0.26743597 -0.0151427975 -0.08023259 -0.08683524 -0.0888486 -0.072367154 0.05859927 -0.048573557 0.06254511 -0.18701044 0.035347722 -0.0664482 -0.029235382 -0.108722106 0.14847788 -0.09558987 -0.01439304 -0.09639449 0.061809484 -0.04117577 -0.13155852 -0.099365115 -0.017500993 0.11005337 0.0500233 0.035185 -0.07393779 -0.07789644 -0.11245174 0.066199146 0.07662962 0.0631982 -0.018770745 0.018321374 0.04965147 0.25324526 -0.087166175 -0.061837923 -0.011245478 -0.1281106 -0.04803816 -0.008116802 -0.0075414665 -0.08222913 -0.033697654 0.0020981396 -0.08926729 -0.026970744 -0.09137895 0.019235352 -0.15807834 -0.024247015 0.11496371 0.021983046 0.004660028 0.14141437 -0.03286986 0.057265013 -0.031940646 0.04864198 -0.02283193 0.05845887 0.0768999 -0.22981308 0.07433053 0.035663545 0.11408334 -0.0740528 0.24468341 -0.020134287 -0.036026713 0.01565887 0.053354774 -0.24158613 0.01164644 0.042480737 -0.137275 0.15196373 -0.052898917 0.07980465 0.07911249 0.089940965 0.06870948 0.028651534 0.0054959636 0.11441558 -0.02194251 0.054954834 -0.036359515 0.05377618 -0.055685457 0.16479865 0.007819807 -0.002809329 -0.036230214 0.01687628 -0.027936859 0.028978128 -0.008122503 -0.093951255 0.043190043 -0.14304806 -0.011412544 -0.06860943 -0.0036521603 0.013322961 -0.06159423 0.005362896 0.26533052
111298 -0.041361965 -0.05349029 0.01868628 -0.01554097 0.06837733 -0.036142986 0.06284962 0.08411492 -0.08841202 0.11023013 -0.013439591 -0.05628623 -0.028212769 -0.0024347315 -0.030121049 0.026365392 0.06927411 0.03910069 -0.028730154 -0.1652388 -0.021259142 -0.055663634 -0.05069279 -0.058584712 0.0074648717 0.05968005 -0.008118316 0.024476323 -0.1390289 0.07180295 -0.06810176 -0.004794462 -0.038451772 0.12395744 -0.053125445 -0.048470598 -0.032427214 0.02791221 -0.044008125 -0.07244213 -0.08020061 0.009227111 0.05613737 0.018480413 0.012387546 -0.050537776 -0.036737766 -0.085518904 0.040410332 0.057978056 0.04843592 -0.009611168 -0.0018375553 0.017528059 0.17182918 -0.027328575 -0.035063256 -0.0025155023 -0.0872149 0.010314538 -0.026308533 -0.019675199 -0.055933274 -0.011986589 -0.008448135 -0.041912444 -0.004046217 -0.033152863 -0.025129726 -0.053284008 -0.047708392 0.0983849 0.007304885 0.027723499 0.09849397 -0.03487376 0.016510807 -0.01876176 0.037801962 -0.018188804 0.064532846 0.02921833 -0.13767739 0.04196078 0.020696498 0.05387946 -0.0136760995 0.14621426 -0.009108669 -0.00754987 0.016361268 0.060882658 -0.15425183 -0.02959526 0.032334078 -0.06611407 0.087196335 -0.03382255 0.042379647 0.023301627 0.05218318 0.042789157 -0.010729717 0.004662604 0.03402963 -0.041319117 0.009109302 -0.0450298 0.038111486 -0.053655546 0.085675366 0.031552132 -0.012104831 0.0037442767 0.035129078 -0.020323114 0.008133464 0.0050859214 -0.046088878 0.023140248 -0.082829185 -0.023987086 -0.0071393074 -0.005073823 0.02483312 -0.035301216 -0.0193915 0.15946072
111299 -0.099079974 -0.10329305 -0.024458464 0.0081539275 0.17841884 -0.094974816 0.10028397 0.036569797 -0.17202534 0.22309767 -0.06992244 -0.08101822 -0.056781244 -0.0801086 -0.01756582 0.09438971 0.10431737 0.09354827 -0.07383717 -0.29857287 -0.08000722 -0.07274525 -0.11522471 -0.09197533 -0.07410194 0.08401879 -0.08834715 0.048406597 -0.20876178 0.028692095 -0.1124466 -0.008232038 -0.14288443 0.1253398 -0.18225229 -0.019257423 -0.13123539 0.084456004 -0.10008189 -0.12780984 -0.12773031 -0.018803582 0.09124234 0.07943438 0.044899292 -0.043159645 -0.16161038 -0.09893389 0.0751729 0.031088142 0.10465299 -0.032843687 0.045594096 0.063548766 0.33178395 -0.14378457 -0.08009055 0.026927045 -0.17138186 -0.072381556 -0.02861132 -0.057651225 -0.0867938 -0.0589588 -0.03178663 -0.053000238 -0.019224718 -0.11475474 0.028661547 -0.18945317 -0.009572786 0.1363013 -0.02841924 0.022747738 0.20038603 -0.027783602 0.06056644 -0.05122343 0.004238892 -0.048777252 0.075807795 0.08291482 -0.29883525 0.11643051 0.053223886 0.119962186 -0.12456108 0.27276957 -0.019092014 -0.06568882 -0.019318791 0.05468764 -0.20154722 0.01138868 0.014502005 -0.20410943 0.15616573 -0.06658833 0.08666292 0.06879284 0.095759176 0.09155782 0.018390028 -0.03594956 0.1373869 -0.002181352 0.06546545 -0.037104677 0.05585457 -0.09552642 0.14186926 -0.0008397265 0.06642959 -0.06467529 0.029201662 -0.052793507 0.0356259 -0.0020509395 -0.16133448 0.08904765 -0.20914882 -0.055626247 -0.097812384 -0.030679325 -0.0084258085 -0.07102012 -0.010469059 0.30524248
111300 -0.08107968 0.12399332 0.11709983 -0.016310642 0.40977767 -0.14111462 0.14414783 0.2680748 -0.23000659 0.37408492 0.0061801397 0.04329936 -0.25039077 0.06915344 -0.0030488744 0.19803527 0.2054446 0.1856276 -0.16407698 -0.2546152 -0.02951486 -0.025453785 0.0064615523 -0.06745695 -0.1138374 0.08604426 0.04758263 -0.11559834 -0.4418391 0.14176702 -0.181777 -0.13942426 0.07224341 0.23231857 -0.046994854 0.057111032 -0.0077028032 0.27787888 -0.13127697 -0.12973315 -0.22403768 -0.004046704 0.04126604 0.14187674 0.057461146 -0.16390721 -0.030426038 -0.26510027 0.09662483 0.4587474 0.16200238 0.03204004 -0.05460613 0.05646439 0.34852415 0.10108705 -0.07275738 0.0099090105 -0.24934117 0.083989955 -0.030187298 -0.1252184 -0.07241705 0.09311702 -0.116565034 -0.091564015 0.05025721 -0.11528488 -0.00079392234 -0.19163018 -0.19671957 0.11341424 0.1483702 -0.021937901 0.26986998 -0.047316626 0.0638903 0.0021935771 0.16273223 0.021390289 0.16085908 0.12796295 -0.21014577 -0.0023796582 -0.13096856 0.08331677 0.07478475 0.41822654 0.03711464 0.008218533 0.1447608 0.15195249 -0.54673845 -0.062422242 0.0805066 -0.028795986 0.29030222 -0.018282233 0.18757264 0.07445473 -0.019201824 0.059041616 0.02632666 0.13877858 0.0023779187 -0.27886087 -0.16684586 -0.15968141 0.16512845 -0.2466771 0.3226665 0.13976425 0.0141629055 0.0863248 -0.0023655547 0.06633717 0.0318143 0.20304494 -0.056609344 -0.1621282 -0.11134552 -0.1745778 0.1349727 -0.113012835 0.068900205 -0.088873625 -0.0077016638 0.22849965
111301 -0.024177307 -0.010602527 0.025707245 -0.013581716 0.018228566 -0.0275129 0.025923626 0.0689756 -0.062140763 0.044829573 0.021812873 0.0011630806 -0.011493649 -0.012269602 -0.01703031 0.035966523 0.010673423 0.032563563 -0.012787083 -0.047068696 0.019338489 -0.029888863 -0.009969311 -0.03059921 0.01872426 0.03765124 0.014317151 0.015414 -0.039509878 0.02707923 -0.029536655 -0.028817397 -0.045811113 -0.0004930242 -0.030271536 -0.019004766 -0.00032371975 0.0221403 -0.0011277425 -0.014442856 -0.03389029 -0.011354736 0.042212926 0.010483258 0.0071115927 -0.011800454 -0.0060601104 -0.0047118072 0.022101054 0.03689682 0.02945708 -0.025429811 0.009495288 -0.0005356431 0.06266262 0.0021863487 -0.03471647 0.007873466 -0.029192349 0.0063690394 0.009477776 0.0106831435 -0.026928036 -0.024526013 -0.03214369 0.00978035 -0.001706746 0.021239322 -0.0024496506 -0.0383891 -0.05983131 0.035466716 -0.0049809134 0.005637636 0.040663715 -0.018077632 0.006244771 0.020827085 0.03310927 0.006046187 0.03196443 0.023457557 -0.05545889 0.0058331904 -0.0066148518 -0.0048594666 0.008481221 0.08279076 0.04872806 -0.011244761 0.031727325 0.022335075 -0.1050229 -0.028286664 0.006530153 0.00899192 0.05943827 -0.039326094 0.035953294 -0.03534072 0.024818819 0.01542528 0.0031184123 0.026290774 0.016704524 0.0022429284 0.031802215 -0.021185584 -0.023671754 -0.009541306 0.011348136 0.064455844 0.025621304 -0.0084676165 0.04480994 -0.052161086 0.028788215 -0.010185242 -0.0041913996 0.015880903 -0.035203163 -0.014064488 -0.02151392 0.0036288758 0.00029098417 -0.019094743 -0.009010898 0.096688665
111302 -0.042270456 -0.03871144 0.036157567 0.006502775 0.085669 -0.04477812 0.06546797 0.110281855 -0.11827848 0.116514444 -0.004974899 -0.055839773 -0.033104245 -0.007454241 -0.040674567 0.022998558 0.07357904 0.05577713 -0.047073133 -0.21568681 -0.04463472 -0.0518889 -0.06296049 -0.058502614 -0.006785347 0.07736397 -0.031329177 0.022909408 -0.17131588 0.06790871 -0.0679517 -0.02663321 -0.047064394 0.16168995 -0.060411982 -0.063323125 -0.04199679 0.023580518 -0.0419462 -0.09378572 -0.08240095 0.0008520377 0.060174327 0.025465282 0.024236303 -0.06466431 -0.063381016 -0.11025668 0.031575322 0.06396533 0.046063658 -0.016787201 -0.0119979335 0.025414448 0.20022987 -0.02504199 -0.037530128 -0.003034941 -0.10897752 0.009663577 -0.029467504 -0.017135855 -0.072026975 0.008533365 -0.001375368 -0.05734378 -0.012964031 -0.03902556 -0.039934974 -0.052570157 -0.06366864 0.11488152 0.008545495 0.020003809 0.10528022 -0.039353143 0.016110454 -0.036291532 0.051063843 -0.02482908 0.06766012 0.033123914 -0.17653914 0.05038084 0.027131412 0.06465768 -0.011964028 0.15300088 -0.005136604 -0.010183355 0.014646487 0.06425364 -0.16078252 -0.033561837 0.03182842 -0.09212531 0.10671526 -0.020524038 0.039663445 0.02050556 0.06285129 0.06237097 -0.018643793 0.0046591205 0.02035893 -0.06691094 0.0008468952 -0.067171454 0.056491263 -0.06595128 0.09988655 0.030932344 -0.008076022 0.0054189004 0.043029916 -0.018750222 0.027333608 0.0056120562 -0.069739744 0.023073392 -0.11096089 -0.03135421 0.0066586225 -0.0055145347 0.052584216 -0.031562876 -0.042507466 0.1908342
111303 -0.020494498 -0.018400986 0.017997118 -0.022044914 0.031744126 -0.017716711 0.040809527 0.09304414 -0.06279256 0.048372127 0.028031725 -0.0072532278 -0.013786746 0.010677648 -0.029409107 0.019781658 0.024652526 0.029842714 -0.022383692 -0.0804711 0.015228687 -0.048684403 -0.025680361 -0.027640898 0.024762504 0.030760175 0.0127685955 0.018348355 -0.064425156 0.051471867 -0.028142106 -0.025949763 -0.030641416 0.050286673 -0.012500958 -0.03011068 0.0049879374 0.021765187 -0.0015587669 -0.01995764 -0.056663666 0.006416524 0.060286004 0.0034895127 -0.0010896511 -0.021449003 0.028946232 -0.032990146 0.023806585 0.044065166 0.02898833 -0.00997914 0.00041980582 -0.0047343206 0.082799695 0.009609715 -0.049197488 -0.011818665 -0.049266562 0.02852763 -0.019558702 -0.00039208657 -0.018411782 -0.010320059 -0.014609622 -0.006190492 0.012257629 0.020705838 -0.025856204 -0.008613508 -0.06763472 0.06418538 0.010829042 0.0016702221 0.031762242 -0.015786754 0.0067858915 0.012117723 0.03186996 0.0035001086 0.053674765 0.012394408 -0.03676873 -0.012042625 -0.021937177 0.013404591 0.045936935 0.090482496 0.030810056 0.0034729035 0.03832868 0.03548053 -0.12326722 -0.04835026 0.038329937 0.019995619 0.05672179 -0.028279219 0.03780594 -0.035742354 0.029380519 0.03042704 -0.02055683 0.02064678 -0.003376437 -0.025013104 0.0064519425 -0.033526566 -0.0037872673 0.0060414737 0.031514566 0.060543735 -0.0045749824 0.035060436 0.054578412 -0.031320274 0.001483213 -0.004311991 0.0017181721 0.004446969 -0.03062727 -0.032655396 0.0076542194 0.0028905643 0.012667086 -0.01191885 -0.008200391 0.10137788
111304 -0.05491871 -0.082395524 0.0022533052 -0.013027017 0.11398833 -0.06481359 0.06698728 0.06254767 -0.13989994 0.14240378 -0.027307507 -0.04623806 -0.04705515 -0.047123406 -0.019456826 0.0657747 0.06750954 0.054616462 -0.047367774 -0.20679829 -0.039741244 -0.077694595 -0.08158282 -0.0706926 -0.034764618 0.06625336 -0.055070873 0.027300753 -0.15205052 0.0446629 -0.08311512 -0.0035878243 -0.09587379 0.09754393 -0.1250697 -0.01867402 -0.081444375 0.07027647 -0.077285044 -0.119227596 -0.11694333 -0.016886601 0.07464242 0.046344172 0.03239816 -0.042110767 -0.08742796 -0.0925836 0.054394864 0.04404341 0.07957745 -0.033983834 0.020095969 0.054374892 0.24743882 -0.07667926 -0.058482114 0.0073525324 -0.12911965 -0.041766543 -0.040640887 -0.028746024 -0.052277703 -0.043329317 -0.037736833 -0.048222274 0.0023136334 -0.07374817 0.0058111567 -0.12770851 -0.030655885 0.11687578 0.012615777 0.015803935 0.1492669 -0.022267088 0.057504363 -0.03870659 0.02747466 -0.031622164 0.07194339 0.054983493 -0.20779988 0.077570714 0.043214776 0.0887126 -0.08074238 0.2079126 0.005308287 -0.035008088 0.008893812 0.058777917 -0.18311757 -0.0108745275 0.020681132 -0.13624252 0.14041881 -0.042315453 0.071795195 0.04293107 0.08187996 0.07676349 0.016764227 -0.018817415 0.09936381 -0.034734767 0.03284528 -0.027011652 0.05439921 -0.064219475 0.11051622 0.012708169 0.03698811 -0.041880067 0.028816124 -0.02634249 0.022319272 0.0012847234 -0.10837025 0.05291273 -0.16181986 -0.043006606 -0.06633631 -0.020749008 -0.027168524 -0.047097135 -0.006273388 0.22767928
111305 -0.08212683 -0.09041372 -0.03431339 0.036278788 0.12390536 -0.054890998 0.122923665 0.058845744 -0.1514651 0.16129577 -0.010271719 -0.053565536 -0.07258255 -0.00023555299 -0.010621408 0.05518312 0.092497826 0.09434379 -0.108818516 -0.3028824 -0.034079615 -0.06557455 -0.095982894 -0.07240713 -0.10214456 0.061932787 -0.07975168 0.06692228 -0.20070861 0.027326379 -0.052788336 -0.030312 -0.09839299 0.15520099 -0.09870057 -0.010355325 -0.124100305 0.0790428 -0.037980907 -0.14238852 -0.09765543 -0.019013714 0.100394994 0.06492522 0.044180177 -0.07162557 -0.0898272 -0.12376714 0.06950285 0.09233868 0.05813811 -0.018125873 0.02544297 0.05693198 0.28348613 -0.1021018 -0.0713189 -0.011896769 -0.1267964 -0.058448046 -0.021022512 -0.018883435 -0.07543687 -0.03085792 0.007832429 -0.07444066 -0.03631933 -0.08589483 0.01634977 -0.15567902 -0.0133773815 0.11033409 0.025590809 -0.007830051 0.13088688 -0.038728703 0.05384304 -0.047552034 0.06410543 -0.029429726 0.062050287 0.07586035 -0.24654631 0.06103855 0.02894165 0.10757791 -0.0813162 0.24103242 -0.03200375 -0.0315682 0.011624838 0.06261973 -0.25868872 0.019530732 0.045548383 -0.12902835 0.15645635 -0.053777084 0.092423156 0.07986058 0.08073106 0.07111906 0.023817826 0.0035217004 0.11711504 -0.031445503 0.056334313 -0.040564377 0.065778166 -0.0597929 0.1806142 -0.007837882 -0.012863731 -0.025379261 0.021945981 -0.028924622 0.030543149 0.00070405344 -0.10529252 0.036681704 -0.15030916 -0.00729764 -0.057288922 0.008369757 0.026429683 -0.047345277 0.007371531 0.2529552
111306 -0.05646485 -0.037065715 0.0017136135 0.013832016 0.10015182 -0.041503843 0.09101975 0.08671163 -0.10093437 0.14988932 -0.0043974495 -0.025979431 -0.05512109 0.009963424 -0.030899243 0.054815784 0.06851871 0.07884289 -0.056788832 -0.20767885 -0.027993226 -0.064398095 -0.060800564 -0.055824198 -0.05515456 0.04373618 -0.039815165 0.030719899 -0.15944533 0.022672275 -0.057137653 -0.007699007 -0.07289792 0.12826343 -0.06771975 -0.01309467 -0.06479898 0.045072455 -0.036442608 -0.09118405 -0.08361302 0.00095317885 0.06454871 0.040145658 0.030452328 -0.06717671 -0.051615573 -0.11062508 0.03434982 0.07426815 0.06303099 -0.014343652 -0.004658535 0.031602163 0.19154608 -0.057265576 -0.054583028 -0.01699689 -0.104578465 0.0069247275 -0.030981278 -0.00879373 -0.058276083 -0.014389295 -0.012917011 -0.0665838 -0.007867549 -0.07277901 0.0006403228 -0.09803894 -0.043322004 0.117040075 0.034280997 -0.012426813 0.1074258 -0.018267099 0.031008482 -0.04358323 0.03120679 -0.021867836 0.06527669 0.048256245 -0.17170359 0.04169352 -0.0021003536 0.070267074 -0.03429874 0.18085694 -0.017408222 -0.026418827 0.0042007575 0.063104026 -0.20509541 -0.013601926 0.039594922 -0.07223511 0.12109789 -0.036663204 0.070370704 0.035865907 0.07349474 0.04712402 -0.0084046135 -0.013002056 0.06648422 -0.029661594 0.018132204 -0.04109596 0.06303039 -0.061550125 0.12737983 0.01390112 -0.018521648 0.004362691 0.028803296 -0.02159521 -0.016493704 0.014958941 -0.06890194 0.010066427 -0.12090135 -0.046585258 -0.022005428 0.0020205122 0.015331878 -0.031293903 -0.016597847 0.1948933
111307 -0.0024121255 0.0019891828 -0.002470036 -0.0023192076 0.0019984276 -0.0023209876 0.0003492122 0.0022813666 0.0012633693 0.0026834009 -0.00021940787 -0.0020813104 0.00055801554 0.003522584 0.0038595852 0.0017963595 -0.0035990132 -0.0015040794 0.0038404614 -0.001976344 0.0033594035 0.00033520418 0.00034114654 -0.003733532 -4.220873e-05 0.0031316632 0.0009654496 0.0029149214 -0.0008340585 -0.002087239 0.0001253494 -0.0009065621 0.001135192 -0.002578064 0.0012228934 -0.0033143905 0.0021570881 0.0032452438 -0.0033825755 0.0021124638 -0.0028076386 0.0022566519 -0.0018684481 0.0007985336 -0.0026725272 0.0031947906 0.0024828387 -0.003291738 0.00344284 0.0026207608 0.0025781181 0.000631669 -0.0032765751 -0.00016589428 0.0022746741 0.0032220157 2.3033645e-06 0.0028752037 0.0024860178 0.0018644902 -0.00062218565 -0.001892652 0.00071480346 -0.0036371774 -0.0009137984 0.0010254323 0.0031311645 -0.0035431518 -0.0012452417 0.0023475057 0.0006071799 0.0031168563 -0.0020710554 -0.0034964706 0.0011008419 -0.0011682529 -0.0033730709 0.00328323 -0.0036210879 -0.0019791746 0.0036966386 0.0016649407 -0.0036345392 -0.0012397653 -0.0010615885 0.003845251 0.0009903065 0.0033594922 0.003888493 -0.0019789585 0.0021244586 0.0028033382 -0.0011077542 0.0022710902 0.0020403687 0.00072142394 0.002251946 0.00028996207 -0.003611186 -0.0036001306 0.0016992305 0.002568913 0.0038024862 0.0001648979 0.0019443735 -0.0007489559 0.0026107465 -0.0011710473 -0.00039778906 0.0009087057 -0.0037753803 0.0020614082 0.0034869916 9.980755e-05 0.003285103 -0.0015934103 0.00088977086 0.0033590482 0.002003938 0.0023693296 0.0007114252 -0.002359745 -0.003409044 -0.0024121895 -0.0028169442 -0.00370092 -0.0033847936 0.0028129045
111308 -0.22684416 -0.19690277 -0.16173095 0.17835158 0.262631 -0.09690292 0.15562136 -0.0031885249 -0.12764108 0.27108544 -0.3024422 -0.091370426 -0.0636998 -0.13546509 0.063781574 0.21470678 0.17509393 0.067583494 -0.06813359 -0.3070233 -0.06732332 -0.21167473 -0.1315082 -0.29259616 -0.19729318 -0.05003848 -0.005482461 0.13504265 -0.20106758 -0.040785242 -0.19002736 0.06224358 -0.17825916 0.012963281 -0.31048092 0.00038678653 -0.13924128 0.1973568 -0.23669223 -0.12865382 -0.10039152 -0.099193476 -0.022223473 0.058958687 0.04977307 -0.23412684 -0.43748897 -0.19431053 0.24067064 0.020127408 -0.030008221 -0.26116896 0.13668269 0.13276206 0.5204833 -0.17578596 0.04930401 0.14359276 -0.1542084 -0.049192917 0.101196416 0.024017375 -0.1756075 -0.14258748 -0.027536359 -0.00380798 0.002608185 -0.1905086 0.01922775 -0.48971108 0.19426385 0.0026524113 -0.18195973 0.13331829 0.2883725 -0.16068795 0.12858115 -0.05988517 -0.12347835 -0.056956086 -0.04930844 0.13879274 -0.48779237 0.18824293 0.08355152 0.33925205 -0.3629791 0.3676996 -0.16001797 -0.065444894 0.0776874 0.14411455 -0.34277698 0.29408038 0.022467794 -0.30027807 0.022405975 -0.29868856 0.17313217 0.07275036 0.12976559 -0.09777598 0.17558926 0.09816204 0.33392227 0.14616226 0.20937529 -0.07743021 0.2517268 -0.20410192 0.36474413 0.10795239 -0.04414309 -0.18142392 -0.11632091 -0.17269202 0.00198985 -0.10897716 -0.2688029 0.04673558 -0.21587664 -0.037982468 -0.33366108 -0.014381269 -0.2975931 -0.1270315 0.04314005 0.5155212
111309 -0.2148757 -0.21527591 -0.15603323 0.19798863 0.15044622 -0.08709059 0.12295818 0.0307704 -0.17005558 0.24392022 -0.29625118 -0.04870427 -0.035718758 -0.104723275 -0.004420481 0.1579845 0.1720167 0.037159517 -0.042185917 -0.40286902 -0.049187306 -0.2085972 -0.06570739 -0.31542572 -0.17900148 -0.06104308 -0.03784467 0.1596108 -0.17572309 -0.04120959 -0.20899004 0.06412538 -0.20658459 0.097958766 -0.2913173 -0.042201295 -0.15142636 0.18538165 -0.19929573 -0.14522263 -0.10418257 -0.09231496 -0.0012538481 -0.006525659 0.020455688 -0.15059191 -0.42032197 -0.22445029 0.26430023 -0.014451557 -0.10928386 -0.24973997 0.12109784 0.13800293 0.5378791 -0.20231095 0.027328243 0.124951266 -0.16787519 -0.034936655 0.08751076 -0.0024077639 -0.23232238 -0.14753626 0.058186155 0.027848272 -0.019966422 -0.15804414 0.00881581 -0.3745606 0.1207247 0.059830565 -0.18228596 0.13113043 0.26567098 -0.1382435 0.086101584 -0.057690807 -0.09447869 -0.0732098 -0.045708966 0.06813864 -0.48922578 0.14605756 0.074084155 0.3052328 -0.31655 0.35922188 -0.12874652 -0.09606454 0.0671652 0.15800121 -0.3746782 0.23129964 0.0029265352 -0.28457052 0.05829162 -0.24187838 0.13940336 0.043984596 0.1419831 -0.07982035 0.15972355 0.07393199 0.30482116 0.09814215 0.21470907 -0.08578303 0.25853345 -0.19793698 0.33793727 0.12586638 -0.03887053 -0.19976112 0.003858684 -0.18650134 0.041343685 -0.12188695 -0.31739214 0.10816924 -0.26454872 -0.088898726 -0.32251176 0.017885914 -0.25155553 -0.09596204 -0.0021194362 0.5421989
111310 -0.048630778 -0.039546296 0.006068983 0.011834387 0.09897655 -0.028398821 0.07684768 0.061876357 -0.0946527 0.11558586 -0.011808244 -0.0311902 -0.049886364 0.0023604773 -0.014473307 0.02734457 0.06599533 0.059999935 -0.057445638 -0.18943064 -0.035409376 -0.030532502 -0.06109237 -0.04852969 -0.060027402 0.04905662 -0.03459946 0.014467101 -0.15800294 0.03371332 -0.05271078 -0.020186877 -0.05200249 0.12603508 -0.052260593 -0.008900298 -0.07420367 0.048122372 -0.038213417 -0.09054344 -0.06336044 -0.0070240875 0.046274964 0.042667583 0.0342952 -0.051554922 -0.06585492 -0.10485296 0.028090041 0.07679306 0.048449032 0.010313868 -0.00904071 0.034714334 0.17020705 -0.04495422 -0.025522191 -0.007198124 -0.08249593 -0.017329454 -0.017780894 -0.022035895 -0.068844035 -0.0006597136 -0.0025417134 -0.0678559 -0.026317002 -0.07419999 -0.0002220906 -0.08892242 -0.03272459 0.08391628 0.019130515 -0.009582 0.09447973 -0.023117553 0.026547864 -0.032445423 0.03929627 -0.015619988 0.04851841 0.04472684 -0.16486502 0.039208602 0.005542717 0.0721361 -0.039678734 0.16029878 -0.022740437 -0.016145889 0.0005643873 0.04853342 -0.15735394 0.00203823 0.02837298 -0.09097213 0.10775743 -0.0034012666 0.049123205 0.06022163 0.046564616 0.051464196 0.0023987186 0.0027182978 0.045703232 -0.052076984 0.0040585194 -0.04750823 0.052727766 -0.06608582 0.12492 0.005644954 -0.014225292 -0.005477236 0.004128035 0.0053910655 0.019403372 0.024140699 -0.064957164 0.004108698 -0.099667795 -0.024859685 -0.013093553 -0.012829726 0.03903932 -0.017303398 -0.012764477 0.1514038
111311 -0.021211565 -0.012624444 0.028690852 -0.013476801 0.010240056 -0.022905754 0.044831518 0.08065683 -0.043683186 0.070240125 0.022289222 -0.0074059274 -0.009719475 0.016045215 -0.032931913 0.028128449 0.020933565 0.036737632 -0.010078551 -0.06292845 0.021227118 -0.03556052 -0.028753398 -0.030500157 0.031637404 0.04320921 0.01637083 0.009533074 -0.06211573 0.047595415 -0.028024457 -0.0074647646 -0.05222415 0.056131713 -0.022223352 -0.011540956 0.0034352557 0.0038215062 -0.0001237962 -0.027229233 -0.0527133 0.013613434 0.056500334 -0.003932205 0.011047325 -0.027813794 0.03433001 -0.03854518 0.019163724 0.03710572 0.047676552 -0.033213485 0.009892262 -0.005714298 0.06587283 0.003526026 -0.032732435 0.0056519317 -0.0524747 0.023666745 -0.014296417 0.01622368 -0.017292323 -0.006348971 -0.011214214 -0.03188686 0.012963468 0.019229284 -0.02321707 -0.019502394 -0.07757747 0.063859224 0.019368354 0.013739777 0.050997596 -0.016582934 0.009256493 0.0056059826 0.021330277 -0.004273229 0.0485776 0.020882279 -0.067480944 0.005459359 -0.01239543 0.0231803 0.031276822 0.09057169 0.022282286 -0.0061764554 0.023580952 0.03138822 -0.13448732 -0.04698441 0.050902586 0.0261994 0.06167276 -0.03274345 0.048168246 -0.027807038 0.044565283 0.023703892 -0.019305283 0.00384564 0.014259664 -0.022617104 0.008287294 -0.01490277 -0.0085244225 -0.01744844 0.033438746 0.03934532 0.0014603139 0.020537 0.050765608 -0.035459615 0.0014061019 -0.010248349 -0.008210887 0.00080048695 -0.033018872 -0.025885977 0.0076410994 0.0020748954 0.016800623 -0.028246127 -0.0099227615 0.114201285
111312 -0.06743501 -0.055820264 0.005988134 0.011119181 0.12408103 -0.06857972 0.109302334 0.08224105 -0.13423565 0.16436319 -0.015307227 -0.049534656 -0.06542235 0.0018033038 -0.031177446 0.06686588 0.054502342 0.0925936 -0.07218087 -0.25078765 -0.048522804 -0.06466412 -0.10656811 -0.05984258 -0.06485068 0.068775736 -0.061196316 0.048805818 -0.17592987 0.018928923 -0.051617853 -0.02260869 -0.10969261 0.13785326 -0.0941089 -0.026487773 -0.09803344 0.054546133 -0.047651675 -0.118357025 -0.10208802 -0.013970735 0.0855271 0.059395924 0.032271806 -0.08168589 -0.06416338 -0.091719575 0.0519821 0.07502171 0.09614631 -0.034944292 0.014240859 0.044066977 0.23088025 -0.07600049 -0.07671807 -0.010691588 -0.11887405 -0.043802112 -0.011507065 -0.013304602 -0.06466216 -0.020775389 -0.023008365 -0.06952231 -0.01684311 -0.05721859 -0.00217724 -0.13032283 -0.045855515 0.110507816 0.013672699 0.0045861793 0.12797049 -0.03908874 0.04664062 -0.045938168 0.048623715 -0.024998222 0.060458235 0.087345935 -0.20595823 0.04454619 0.017792746 0.08110179 -0.045341294 0.20387177 -0.0015040067 -0.033250086 0.01591986 0.05020894 -0.22989307 -0.013329075 0.04342742 -0.108492516 0.1420962 -0.05379156 0.07204478 0.052660987 0.07950719 0.05067916 0.021016749 0.0077753263 0.0817702 -0.022104587 0.040011898 -0.02970768 0.04323914 -0.0524901 0.12815927 0.013252194 0.0063711195 -0.011056591 0.042068943 -0.025910933 0.021072889 -0.015950482 -0.074976005 0.016739616 -0.13841449 -0.020753106 -0.04405478 -0.0004944465 0.02467054 -0.047183603 -0.018546192 0.22964916
111313 -0.06776875 -0.09423246 -0.014227475 0.0066573652 0.10067342 -0.045979246 0.10025306 0.09743737 -0.14444448 0.1536315 -0.019420754 -0.07610094 -0.042103928 -0.0074973707 -0.03707963 0.04106862 0.098663054 0.0647363 -0.07089164 -0.28578797 -0.026720766 -0.073603235 -0.069774374 -0.08454806 -0.052963793 0.072379716 -0.06306517 0.05329806 -0.19898377 0.057455424 -0.072199486 -0.0061894525 -0.089212604 0.1701145 -0.0979132 -0.033415064 -0.09010702 0.05185163 -0.048039 -0.12426517 -0.09588195 0.0030617823 0.08333004 0.053630084 0.03592787 -0.06337047 -0.09171981 -0.12961957 0.055811133 0.068068355 0.06486504 -0.0040624365 0.013706284 0.040099237 0.27774084 -0.08671468 -0.060207188 -0.012700768 -0.1240838 -0.016011158 -0.045023695 -0.024670087 -0.09298721 -0.024435086 -0.00011410299 -0.06292324 -0.033381633 -0.10267806 -0.012468971 -0.121573314 -0.040228263 0.13835463 0.006397756 0.018090682 0.1367603 -0.035624728 0.02896284 -0.03973077 0.05655198 -0.03860698 0.081719115 0.052660737 -0.23298424 0.06959532 0.035014074 0.092389636 -0.069922 0.23862743 -0.025649995 -0.033774044 0.008209357 0.08138601 -0.22359586 0.004077603 0.041198343 -0.12929499 0.14515603 -0.04244924 0.072598845 0.053557962 0.086402476 0.06486345 -0.0034206237 -0.013774342 0.08576425 -0.044155672 0.036224924 -0.06794066 0.058467504 -0.07416422 0.14716172 0.0032785814 -0.009788787 -0.011647465 0.03821428 -0.039682735 0.014234273 0.009247833 -0.0900439 0.052463293 -0.14960164 -0.032989077 -0.04546868 0.008833923 0.042602967 -0.03834173 -0.009308586 0.24668498
111314 -0.21036392 -0.17401643 -0.11878401 0.16605955 0.34314868 -0.07764229 0.116640076 -0.20168912 -0.2848998 0.17427392 -0.2433085 -0.04346648 -0.09876205 -0.14785495 0.11624841 0.16001135 0.085373685 -0.017623214 -0.092823036 -0.19874 -0.08135136 -0.106144875 -0.095527075 -0.241185 -0.18089667 -0.06347356 -0.04689459 0.059013426 -0.19076057 -0.052712977 -0.17155461 -0.047768585 -0.062042583 0.011673372 -0.19814768 0.00567149 -0.19354294 0.21970083 -0.17858844 -0.18925731 -0.04468306 -0.23557782 -0.033041604 0.07089979 0.0034924706 -0.18449485 -0.43658918 -0.14647521 0.2405839 0.10101407 -0.1162453 -0.11939931 0.040211182 0.1378482 0.3790425 -0.1273521 0.090616055 0.12570828 -0.09706398 -0.17698953 0.13585964 -0.08871971 -0.15870038 -0.031287134 0.0053371415 -0.053386062 -0.07561958 -0.20586443 0.08626142 -0.41350707 0.2246745 -0.13529944 -0.19228879 0.07808803 0.22857781 -0.1462737 0.14645043 -0.044232 -0.08074962 -0.006166411 -0.13360783 0.080436245 -0.36514565 0.18126339 0.10597317 0.33134145 -0.3485271 0.25023943 -0.12680733 -0.015612232 0.017996637 -5.9695885e-05 -0.121916726 0.24983248 -0.107138336 -0.36747307 -0.014902084 -0.10210399 0.04286097 0.21864358 0.014169274 -0.04011019 0.23612902 0.15583089 0.29022333 0.05610674 0.14936094 -0.0012822016 0.21425077 -0.19012982 0.29513684 0.040588 -0.008227403 -0.255016 -0.18129987 -0.00039633297 0.19954742 -0.021175798 -0.28194413 0.017378697 -0.13992369 0.084169455 -0.22808701 -0.05615349 -0.17535031 -0.15686625 0.026817909 0.2648784
111315 -0.14428467 -0.12706114 -0.052915208 0.09092825 0.16900408 -0.036868636 0.027930385 -0.09523649 -0.20129074 0.04897734 -0.18379031 -0.029964656 -0.034333844 -0.10112463 0.079039946 0.04019275 0.08540552 -0.040564995 -0.070333526 -0.16256618 -0.093367755 -0.0873983 -0.0631658 -0.20780042 -0.102806665 -0.01902611 -0.033331838 0.047695428 -0.14693038 -0.013390577 -0.11371363 -0.04942461 -0.03433409 0.00078003184 -0.16502346 -0.076811105 -0.13208342 0.12839745 -0.17533757 -0.17420582 -0.041655492 -0.21956088 -0.04243966 0.026040604 -0.027420469 -0.12742789 -0.3867368 -0.14647476 0.18122856 0.09558822 -0.15817001 -0.13625167 0.043844018 0.12981209 0.31103852 -0.052457314 0.08835857 0.068919964 -0.041076273 -0.11000997 0.09579408 -0.061773475 -0.16606683 0.007474956 -0.008698249 -0.008323816 -0.053566612 -0.12616202 -0.0025436387 -0.2622028 0.12899932 -0.085614406 -0.17853348 0.09518865 0.15295373 -0.15457246 0.11667806 -0.044126898 -0.01259851 0.018686801 -0.08659745 0.012540073 -0.2871952 0.090855695 0.10486391 0.24513032 -0.2529705 0.17961405 -0.09537424 0.017288465 0.07767214 -0.009941445 -0.05461529 0.13748728 -0.13415195 -0.33046764 0.006369861 -0.06552863 -0.009578391 0.12102587 0.022610443 -0.01155938 0.14031413 0.16937207 0.15432255 -0.0051610116 0.1186849 -0.052564736 0.20080957 -0.1590313 0.21415289 0.08396035 -0.045715865 -0.20696424 -0.08877649 -0.027796416 0.18765329 -0.012185186 -0.21432224 0.04544846 -0.09877184 0.06715502 -0.17982921 -0.04989052 -0.13037755 -0.08750582 -0.014408429 0.23244224
111316 -0.019286735 -0.018942729 0.005293209 0.0053946623 0.08552528 -0.041253466 0.03705249 0.082623094 -0.08061028 0.089125186 -0.024213014 -0.03578286 -0.017662488 -0.008149872 -0.022869801 0.035541795 0.044712193 0.05415096 -0.0609043 -0.17123199 -0.053074956 -0.057097886 -0.040555988 -0.053144466 -0.036856916 0.025210574 -0.032530002 0.016829338 -0.11779458 0.018341528 -0.05598868 0.011836457 -0.04718903 0.07490704 -0.07449391 -0.04025073 -0.053459 0.040929314 -0.06325319 -0.08453362 -0.06473005 -0.0022644373 0.021217419 0.0382242 0.005949259 -0.052178614 -0.0772186 -0.09509959 0.023955865 0.05040514 0.03957667 -0.021810858 0.0027298876 0.018537465 0.18617366 -0.044938605 -0.038753543 -0.0046055582 -0.060836554 0.021856496 -0.04137851 -0.012342695 -0.050836008 -0.021807468 -0.049421966 -0.014893245 -0.0044002174 -0.059252374 -0.014267391 -0.07151198 -0.045061003 0.09485616 -0.0024395632 0.010014603 0.08995427 -0.021692786 0.017421158 -0.034173455 0.03237267 -0.027981136 0.05528618 0.03308334 -0.13616654 0.037954595 -0.017563274 0.03992702 -0.046123747 0.14208676 -0.026347756 -0.024761721 0.015018244 0.07414103 -0.13857953 0.0035585884 0.013874101 -0.06328281 0.0902988 -0.031152852 0.05162646 0.0058013247 0.057377845 0.029187059 -0.01866137 -0.009006053 0.02126086 -0.019585589 0.00041414468 -0.048568748 0.05427888 -0.05720022 0.09421514 0.021085419 -0.024171693 -0.0006182864 0.02670546 -0.021186724 -0.013232225 0.028093211 -0.0709626 0.01634629 -0.115886964 -0.048246216 -0.025527678 -0.012641165 -0.005426922 -0.0043401876 -0.022811377 0.14301296
111317 -0.007733551 0.010769069 0.029261274 -0.01617741 0.03618748 -0.022327365 0.01400239 0.058563363 -0.03411803 0.038169097 0.0126149105 0.0055337115 -0.006334322 0.0016243203 -0.023644598 0.021558873 0.009695939 0.030094197 -0.013613544 -0.04600374 -3.4756427e-05 -0.02404293 -0.010960075 -0.022219583 0.0047698407 0.025233554 0.0045623695 -0.0017068405 -0.048931155 0.026876535 -0.030815031 -0.015338435 -0.017076746 0.028351216 -0.017735451 -0.021431241 0.011119531 0.02769346 -0.011585391 -0.013333998 -0.037193894 -0.008096645 0.025392676 0.007603971 0.0069318614 -0.016922269 -0.0053907624 -0.020982651 0.011841304 0.035607725 0.02536801 -0.013374719 -0.010462883 0.0010256305 0.05477285 0.011953856 -0.024153857 -0.0013806887 -0.030989846 0.020075094 -0.007461587 -0.008606441 -0.019140951 -0.0043441565 -0.02472373 0.006395354 -0.0018772555 0.010327579 -0.014673656 -0.012088408 -0.054684747 0.03895289 0.010582482 0.0032608446 0.038548626 -0.013174095 -0.005593947 0.0053202384 0.033034537 0.0015933516 0.0265923 0.019700948 -0.038041953 -0.0049346834 -0.031578366 0.0037528807 0.023304837 0.055412695 0.01861072 -0.0075035836 0.018481225 0.023811586 -0.080730885 -0.035906572 0.009922187 0.0013752247 0.045228038 -0.014675718 0.026695075 -0.026438156 0.017037537 0.017758073 -0.0050668125 0.012708459 -0.013822342 -0.03166885 -0.013559861 -0.027272223 -0.00024900507 -0.013010646 0.01778417 0.048636198 0.012321236 0.010196925 0.028246365 -0.016094515 0.013749681 0.0024446642 -0.007540391 -0.009464157 -0.027986962 -0.031542137 0.011601306 -0.012384311 -0.0025487635 -0.009061184 -0.014479577 0.06283672
111318 -0.029517645 -0.012459203 0.013513452 -0.005044802 0.022287933 -0.018309113 0.047178492 0.06306049 -0.04444836 0.053685065 0.014893351 -0.005231022 -0.01684015 0.010951899 -0.02117129 0.024848295 0.019335898 0.023848087 -0.013834069 -0.06539298 0.013797673 -0.037846137 -0.028793812 -0.034840725 0.0073238676 0.027305175 0.017438691 0.01927051 -0.0537767 0.041804258 -0.027821278 -0.014152381 -0.03915 0.05148662 -0.025656275 -0.0157719 -0.005108263 0.011198664 0.005957131 -0.010785451 -0.039154798 0.003334891 0.047897298 -0.000229714 0.009983024 -0.031784542 0.015493277 -0.023808405 0.023121694 0.03057437 0.036638662 -0.02419354 0.010239693 0.0041524014 0.06624793 0.003627473 -0.03457408 0.0014458876 -0.034015223 0.0046059364 -0.005668656 0.012324544 -0.018835884 -0.015720814 -0.00044636455 -0.022126893 0.008503896 0.0164388 -0.021006117 -0.018599177 -0.047910497 0.041052002 0.01162973 0.017403562 0.03882977 -0.017330796 0.004173298 0.006015592 0.018565007 -0.0013475636 0.025110701 0.022899855 -0.050470322 -0.0033135393 -0.010419211 0.015449662 0.02764594 0.061202038 0.020652149 -0.0014553289 0.012768155 0.01876 -0.11133878 -0.027242675 0.039280433 0.019743957 0.046353042 -0.043543212 0.041402638 -0.022758974 0.035553392 0.009462044 0.0042758444 0.022530127 0.024639511 -0.006620793 0.015580398 -0.012411828 -0.00076459267 -0.0051901215 0.030767867 0.041215345 0.0025730452 0.017661259 0.03483432 -0.027570784 0.0023811357 -0.0235563 0.0028750573 0.0015755051 -0.019905176 -0.018105194 -0.0046665524 0.008307183 0.008072606 -0.024080914 -0.0073474254 0.09126227
111319 -0.06158789 -0.056154437 -0.003991477 0.030343492 0.13174851 -0.056231033 0.089133054 0.08885099 -0.13385431 0.1622779 -0.02444165 -0.05788394 -0.051689368 -0.013551104 -0.020491507 0.052377343 0.07258011 0.08947929 -0.07557596 -0.26747128 -0.06418944 -0.06919165 -0.088160776 -0.06717506 -0.07839731 0.058158565 -0.06661318 0.0481763 -0.18703489 0.024186715 -0.07182942 -0.019348787 -0.1040792 0.12906237 -0.10040481 -0.026551498 -0.09624693 0.058720626 -0.057224758 -0.123279646 -0.08645297 -0.01696854 0.07251001 0.06956671 0.028143508 -0.062585875 -0.1114593 -0.11240559 0.035814863 0.06043033 0.081784345 -0.027567353 0.021767078 0.036517408 0.26137438 -0.099874295 -0.06585713 -0.0036042747 -0.11455602 -0.01954466 -0.021343073 -0.022882486 -0.077795856 -0.04110121 -0.027833471 -0.055339206 -0.023156783 -0.08158836 0.0052504293 -0.13695402 -0.03631136 0.12283655 0.0017085557 0.0062773777 0.13881719 -0.03220446 0.025753954 -0.05329065 0.049094684 -0.036283806 0.06780519 0.06815155 -0.22932066 0.05515783 0.002835125 0.081092425 -0.07701099 0.22296377 -0.016437558 -0.033152364 0.005800204 0.06799985 -0.22121724 -0.008415363 0.02808191 -0.122232154 0.12826298 -0.03762419 0.07213416 0.039854072 0.07577174 0.057854928 -0.003367153 -0.0044705663 0.073700644 -0.010550936 0.03238701 -0.050354693 0.045004457 -0.061591156 0.12913062 0.013040935 -0.005824035 -0.007986802 0.036597487 -0.027866356 0.010085438 -0.002323183 -0.106399335 0.019254547 -0.16391833 -0.042116605 -0.043750744 -0.0060431496 0.020289777 -0.023447739 -0.027718829 0.24491097
111320 -0.08318958 -0.08698787 -0.030568715 0.022100957 0.13455452 -0.061373655 0.09486858 0.06037607 -0.116837285 0.17536257 -0.060519036 -0.05654394 -0.045930758 -0.04209051 -0.011019665 0.0800586 0.0965947 0.06967613 -0.04089067 -0.24658553 -0.05022891 -0.08005327 -0.0852423 -0.09375874 -0.050096996 0.059770975 -0.03057113 0.05528583 -0.17339985 0.0380648 -0.09910715 -0.0010655163 -0.0913846 0.12094092 -0.11661736 -0.0225061 -0.07086237 0.06338305 -0.071421325 -0.09517183 -0.08546329 -0.0161233 0.0805524 0.044582803 0.038697217 -0.05237692 -0.12376407 -0.097211175 0.066616476 0.031624995 0.04903759 -0.035854228 0.031177036 0.04195922 0.2645689 -0.09387777 -0.04290075 0.01611121 -0.12123727 -0.022803139 -0.0057617715 -0.020946808 -0.08033817 -0.04778329 0.004940037 -0.053558204 -0.008360154 -0.07519311 0.009151353 -0.14642583 -0.006446035 0.108361654 -0.011183146 0.022514455 0.14321148 -0.03424553 0.032247093 -0.045886815 0.009612122 -0.03870858 0.05774925 0.048270665 -0.23519653 0.0859175 0.025594143 0.11100158 -0.0726271 0.21709402 -0.033356566 -0.03835676 -0.0017517536 0.07530709 -0.19767076 0.01392402 0.032808136 -0.13527653 0.10900695 -0.06454362 0.06942681 0.047924444 0.06569846 0.052953646 0.011533227 -0.0010448657 0.11321382 -0.0029304596 0.06442592 -0.037881136 0.076871395 -0.083611466 0.13502555 0.032664195 0.0052921753 -0.051214255 0.005268115 -0.055729184 0.018917374 -0.01292126 -0.12113037 0.044401057 -0.15625837 -0.049120314 -0.08624538 -0.00995783 -0.017247308 -0.049617037 -0.014940807 0.2669649
111321 -0.02115393 -0.011282806 0.0015014973 0.007065209 0.015453944 -0.016337851 0.019528642 0.046849154 -0.021630408 0.038550086 -0.0070869685 -0.0055410275 -0.0069910833 0.00052914495 -0.021083316 0.014760494 0.018870877 0.01894766 -0.007089365 -0.05381812 0.01275189 -0.018663572 -0.018495148 -0.018435894 0.008984046 0.014740549 0.0071918154 0.014578094 -0.029965093 0.014077199 -0.02991478 -0.014714845 -0.023619052 0.028125495 -0.013041316 -0.011832069 -0.0034226098 0.010434596 0.007371007 0.0023584813 -0.016782634 0.009750159 0.030428298 -0.0074735777 0.008289022 -0.009136864 -0.006682649 -0.005861745 0.023656012 0.0046895626 0.0141520025 -0.016180234 0.006983725 -0.009761331 0.048821833 -0.010372535 -0.020898797 0.013358378 -0.028388789 0.014619177 0.004992519 0.0025997574 -0.021332035 -0.014309467 0.006238871 0.008047951 -0.0057099964 0.009407427 -0.009238149 -0.018599104 -0.032553118 0.029306583 -0.010908198 0.012925704 0.025166623 -0.014528407 -0.006951657 -0.00012676955 0.010052884 -0.005090258 0.010422351 0.011355681 -0.04239876 -0.0058623757 -0.024397904 0.011143479 0.01765854 0.0463021 0.008996133 -0.007910733 0.0077830777 0.01828029 -0.06990264 -0.015206316 0.028631704 0.01058332 0.019591643 -0.026283821 0.021473065 -0.018425586 0.012410091 0.004303922 -7.885474e-05 -0.00057894806 0.0054845903 0.0027491455 0.009920677 -0.016504487 0.0009276692 0.0021402258 0.014570828 0.039455507 0.008217195 0.008756514 0.033587538 -0.033539265 0.006645269 -0.021512778 -0.003762265 -0.0019941104 -0.012871578 -0.016539985 -0.005223118 0.008392895 0.014505393 -0.012666735 -0.013402814 0.06554359
111322 0.0030167436 0.00036601 0.0013556824 0.0006853011 0.00029050466 -0.0016814263 -0.0029666966 -0.0003954798 -0.0017472139 -0.00022382577 0.00093874184 -0.0038544626 -0.0021240949 -0.0017156305 0.0035590082 0.0038346252 0.0007090567 -0.0023077433 0.0024148799 -0.0021943802 -0.0009449815 -0.0020964562 -0.002363989 0.00083355984 0.002987276 0.002126322 -0.0023380734 -0.0010571185 -0.0004308576 0.003163377 0.002119004 -0.0020229374 -0.003513175 -0.0016805307 -0.0038042879 0.0024878287 -0.001863428 0.00080678484 -0.0013923324 -0.00045667967 0.002634209 0.0029119793 -0.0017265965 0.000321533 0.0037920845 0.0036549557 0.0019080619 -0.00058340153 0.0030189622 0.0008183669 0.0023453399 5.8315076e-05 0.002497484 0.0017194262 -0.0022657204 0.0029469954 0.0015955329 -0.0024223388 0.0013705912 0.0009705749 0.002113708 -0.00053553045 -0.0023191413 0.0032478885 -0.0022319772 -0.00052284525 -0.0013788781 0.001886771 0.0027558666 0.0008578956 -0.0031053368 -0.00042225776 0.0007795376 0.0004362527 0.0036300963 0.0027843902 -0.00033177296 0.0014942123 0.000970766 0.0007691928 0.0038284527 0.00016769802 0.0026619423 0.0012656249 0.0028759546 0.000387453 -0.0015823201 -0.0034405238 -0.00060023676 0.002314128 -0.00034236145 0.0035254464 -0.00043680758 -0.00073731935 -0.0013954048 0.0018806189 0.0035486363 0.00067438756 0.0016110947 0.0025567724 -0.00041516015 -0.0006187563 0.0002063262 -0.0022511084 0.002070747 -0.0025848194 0.00074508874 0.003028585 0.0018652012 0.0018738988 0.00081356964 -6.684291e-05 -0.0013114745 -0.002687991 0.0013309785 -0.0023611872 -0.0018918787 -0.00087090215 -0.0004510422 -0.0015306013 -0.0013332797 0.003719488 -0.002267217 0.0034804961 0.0031711827 -0.0013068061 0.0015173365 -0.00026919114
111323 -0.106523566 -0.14760047 -0.022785267 0.015230314 0.17800039 -0.096194744 0.122135155 0.06448552 -0.110452846 0.2575869 -0.07343235 -0.057314754 -0.09191965 -0.11742747 -0.0031400577 0.14355023 0.1619048 0.12726796 -0.04371568 -0.3929953 -0.12729864 -0.090489395 -0.13360964 -0.12802051 -0.07347115 0.08082119 -0.12382635 0.1147882 -0.22055954 -0.038997844 -0.13163002 0.0070131468 -0.12432753 0.16093156 -0.16903695 -0.014086739 -0.12611786 0.097906865 -0.11505644 -0.14804915 -0.13396613 -0.0014722522 0.13529009 0.0740475 0.046155944 -0.0076885535 -0.20387955 -0.12541892 0.08601266 0.013478529 0.04841537 -0.06388265 0.0637584 0.08539966 0.38328984 -0.16448991 -0.055951435 -0.01544055 -0.20058252 -0.04555573 0.038317706 -0.043485288 -0.09278987 -0.08938368 0.037939027 -0.01826948 0.023716679 -0.12222185 0.023001047 -0.25855342 0.04420584 0.18941352 0.01046564 -0.045675658 0.2080325 -0.031956542 0.0663434 -0.11789238 0.022541972 -0.06549843 0.10355641 0.078016646 -0.38306713 0.16856581 0.10150428 0.1455058 -0.18485269 0.31909314 -0.034676343 -0.078507185 -0.01939559 0.14549932 -0.27680734 0.029576205 -0.008285356 -0.2377383 0.18408039 -0.097830385 0.10069162 0.06327896 0.08636631 0.096857786 0.030340958 -0.06974798 0.24296491 0.02194313 0.12675151 -0.031773876 0.14774954 -0.10698472 0.19765304 0.011576805 0.015131462 -0.13552153 -0.022864763 -0.10944411 -0.00045329225 0.0022734893 -0.23758803 0.05045301 -0.3178428 -0.07509392 -0.19061181 -0.0015930999 -0.11902485 -0.019734245 0.008970885 0.42646146
111324 -0.081008695 -0.08177251 -0.0051939934 0.01704882 0.1739485 -0.09261112 0.090570375 0.050307363 -0.14138453 0.2123009 -0.058681592 -0.0665927 -0.06178111 -0.06912318 -0.016072646 0.079686515 0.09178384 0.10153981 -0.060516723 -0.29037642 -0.09926929 -0.070415705 -0.12574165 -0.059414335 -0.06907112 0.08585919 -0.097165436 0.044171393 -0.19139773 0.015338015 -0.084004186 -0.017870849 -0.12167928 0.12751599 -0.14663604 -0.015527311 -0.107211515 0.06619155 -0.0938672 -0.12602854 -0.120492026 -0.01450314 0.08204453 0.07298887 0.04898122 -0.036312625 -0.13717324 -0.10591538 0.048688464 0.021683991 0.10693056 -0.039725192 0.030469388 0.05527086 0.29055056 -0.12916334 -0.06186117 0.0024911095 -0.16118369 -0.063792124 -0.011821896 -0.03874364 -0.066070154 -0.048148237 -0.0144599965 -0.05878452 -0.0017118256 -0.09245246 0.015087613 -0.1799058 -0.010300944 0.13548581 -0.00471926 -0.00069898367 0.17262417 -0.025858987 0.044270236 -0.077428505 0.019933874 -0.045287013 0.078521885 0.07889502 -0.27753398 0.097165465 0.051747512 0.10504239 -0.119022034 0.23355754 -0.02030668 -0.048793487 -0.015851032 0.0681414 -0.19583987 -0.0038632504 0.025177015 -0.18483724 0.14574721 -0.050788194 0.07372247 0.065228164 0.08210037 0.08359426 0.011251296 -0.051651176 0.12535146 0.006313012 0.05852457 -0.022480706 0.06161765 -0.0831939 0.12875333 -0.018250473 0.0508578 -0.056599595 0.016324883 -0.038680904 0.016235316 -0.0047074864 -0.15622893 0.044802897 -0.21364671 -0.048389886 -0.07836225 -0.027976373 -0.014422061 -0.045478623 -0.026278783 0.28126943
111325 -0.067619815 -0.07790329 0.065622754 -0.032647934 0.2303518 -0.1220544 0.10151395 0.13162819 -0.14651452 0.26514044 -0.04563442 -0.072799474 -0.041052748 -0.087644994 -0.022954829 0.13347597 0.1044408 0.14013673 -0.033295136 -0.31315365 -0.1375793 -0.10702275 -0.16040288 -0.12181278 0.0014126737 0.11408021 -0.042958643 0.055660877 -0.23572461 -0.00055798737 -0.18504046 -0.008923516 -0.14056635 0.14814849 -0.15623327 -0.094754204 -0.06896913 0.07105895 -0.13507703 -0.14977841 -0.13646634 -0.033370283 0.115358114 0.06716935 0.03780352 -0.061812382 -0.19636993 -0.14008008 0.034854133 0.026501844 0.11792911 -0.07127494 -0.004563942 0.040882938 0.32941976 -0.08818146 -0.062672526 0.020936832 -0.1622061 0.029839681 0.00932626 -0.05272178 -0.09948512 -0.07193678 -0.07352953 -0.02350401 0.027026307 -0.086601846 -0.010535515 -0.16507716 -0.078924544 0.21551114 -0.010797461 -0.014203451 0.21196485 -0.03040401 0.026791742 -0.07732237 0.02966083 -0.05662355 0.13455209 0.10009732 -0.3253585 0.11961475 0.0052746553 0.10841802 -0.07199654 0.29410857 -0.001795361 -0.057321638 0.021404661 0.12927622 -0.23884146 -0.057462294 -0.0120982295 -0.18868698 0.17408586 -0.05701084 0.10539077 -0.0038833108 0.094445415 0.12630655 -0.02043389 -0.034727383 0.105459824 -0.0043599657 0.042188328 -0.080699615 0.070318684 -0.12620048 0.13348497 0.11427616 0.0048568905 -0.055654548 0.033136714 -0.068966806 0.014302075 0.0016246986 -0.20520258 -0.0053441664 -0.3030812 -0.13126269 -0.11958487 -0.064810105 -0.08213314 -0.029032005 -0.063634716 0.40517342
111326 -0.049213402 -0.037055895 0.07004019 -0.018551024 0.19907255 -0.08640571 0.15890868 0.2132362 -0.17367317 0.23538446 0.030132832 -0.0828044 -0.099112555 0.019632516 -0.058078177 0.10990202 0.07018858 0.162065 -0.088358246 -0.33074585 -0.085768335 -0.12501135 -0.16637704 -0.09679687 -0.059461415 0.13259375 -0.044499606 0.061416313 -0.271112 0.045600954 -0.11266149 -0.023511894 -0.12537347 0.23093241 -0.083439626 -0.07574171 -0.08957953 0.077777535 -0.08512909 -0.20299368 -0.16843905 -0.0273731 0.13431808 0.091268495 0.06292264 -0.15500964 -0.08026002 -0.18513629 0.031844657 0.12899722 0.15826337 -0.064482994 -0.038124148 0.048095312 0.32019782 -0.07245602 -0.07737614 -0.038915828 -0.18550521 0.012835612 -0.022481458 -0.0005717116 -0.104466006 -0.03160365 -0.08189416 -0.1261731 -0.0011513516 -0.068722464 -0.034190226 -0.16454616 -0.14329192 0.2337688 0.080614425 -0.029215626 0.17371601 -0.05416639 0.065326765 -0.06632688 0.0901936 -0.03413399 0.1344315 0.13621639 -0.2954661 0.04699618 -0.029229058 0.110023245 -0.0179918 0.31075197 0.005286637 -0.035137247 0.026641339 0.13879143 -0.38629133 -0.09090875 0.05094572 -0.12606932 0.24004987 -0.020408385 0.09845032 0.013662272 0.11995753 0.114889905 0.0044502383 -0.0077466974 0.06218678 -0.06551765 0.01974526 -0.07416854 0.07171121 -0.09249179 0.18708526 0.076542236 -0.0353859 0.0042070635 0.061033584 -0.001920777 0.010588824 -0.0020723755 -0.11169811 -0.03618321 -0.25255674 -0.066120826 -0.036704797 -0.0107901385 0.008888994 -0.041186683 -0.058031533 0.37248614
