2314 128
110475 0.02956438 -0.062034942 -0.012517268 -0.00077262707 -0.07926219 0.006154724 -0.06671086 0.025674172 0.03943781 0.033607204 0.0029104962 -0.03665335 0.07195776 0.009358691 -0.025691295 0.052537486 0.0045614764 0.046976812 0.00092695194 0.037165545 -0.027001973 -0.033033404 0.002339514 -0.0148755945 -0.04885942 -0.09876493 0.04433834 -0.07866392 -0.04457292 0.07712109 0.065669954 0.000252286 0.040482886 0.024117948 -0.000344957 0.02526299 -0.015983714 -0.03203758 -0.042290255 0.039282385 0.012132847 0.0756876 0.042806637 -0.04291654 -0.003266232 0.044867203 0.10495956 -0.04209787 -0.0049789804 -0.041081887 -0.028120557 -0.002022531 -0.04496208 0.012647546 0.019108245 -0.0240731 -0.0874071 0.019588316 0.052459437 -0.04126942 -0.0455056 -0.034925275 0.006735246 0.086077996 0.04142908 -0.01287559 0.037612226 0.037740495 -0.060656298 0.0042403475 -0.07637218 -0.017716635 -0.036002837 -0.065766215 0.048823364 -0.04985191 -0.07517578 0.0472211 -0.023573145 0.0070791105 -0.01208256 -0.047633708 0.044575803 0.0299825 0.016024496 0.02325423 0.050791714 -0.03542895 0.00088380364 -0.0361109 0.057075564 0.02946012 -0.040644784 0.043196145 0.0031334364 -0.035625137 0.02249253 -0.04499233 0.016978782 -0.10519185 0.012712737 -0.006693993 -0.02861937 -0.028792115 0.0007935289 -0.046022803 -0.050443724 0.032589674 -0.003973383 0.05332703 -0.0005711216 0.04545188 -0.02794995 -0.023961654 -0.07285349 -0.039241817 0.0036507705 -0.0065006986 0.0153314015 -0.05569435 -0.07394039 0.0662307 -0.0036213147 -0.047051143 -0.025776396 -0.004033571 -0.07203917 0.020142227
110476 0.0032153605 0.00588757 0.022914281 0.009513194 -0.0045406087 -0.017687485 0.008760505 0.00398083 0.0035015685 -0.0057996055 -0.0031740635 0.019452792 -0.008813253 -0.0021640097 -0.0046131774 0.005921608 -0.0025455519 0.022771578 -0.0071279323 0.016487615 -0.009497526 -0.010836986 -0.0067684934 -0.0055057392 0.0065473057 -0.007529859 -0.0052679176 0.0070823506 0.004411297 -0.010869617 0.0046109604 -0.0036206522 -0.005494841 0.006894202 0.021167966 0.009441153 -0.015800979 -0.017627932 -0.009839132 0.0034252014 0.006261032 0.007290566 -0.018325102 0.004405361 -0.0013513707 0.004676447 0.0067323353 -0.01623328 0.0057146605 -0.01515403 -0.0002328459 -0.0022383984 -0.006024291 -0.006066451 -0.0037912056 -0.010966892 -0.004018951 -0.010048602 0.008147768 0.0051788203 -0.0031957612 0.012185095 -0.004781068 0.014492225 0.004199294 0.009641419 -0.010149479 -0.007484145 -0.0012271979 -0.010452786 -0.022070196 0.00878952 0.015534263 -0.0008635068 -0.0064659975 -0.00012669462 -0.010799389 -0.0060433336 0.013199747 0.0093018925 -0.008410061 -0.0022489342 -0.022239115 -0.0066389716 0.007535127 0.002812972 -0.008864304 -0.0013390614 0.00363812 0.007855912 -0.013523303 -0.009815401 0.0061917473 0.006868423 0.0020281218 -0.0037985472 0.0096559655 -0.01795984 -0.0070805512 -0.0024815167 -0.00939024 -0.009109985 -0.0047949203 0.0011821887 0.006995498 0.0015287064 -0.005623954 0.016270751 -0.0071303276 -0.0062901555 -0.010390833 -0.003634252 0.0084953895 0.005760117 0.010103489 0.003965361 0.0033753584 0.007248362 0.0002383889 0.014591294 -0.007817615 -0.020735165 0.0143522555 -0.0030970539 -0.0111231385 0.006738024 0.003388788 -0.011807501
108966 0.046602342 -0.137834 0.024697011 -0.04040951 -0.30855823 -0.05589989 -0.18923731 0.12540668 0.14561006 0.22744775 0.12264173 -0.13833067 0.07941864 -0.048122425 -0.02664707 0.0902709 -0.079882585 0.14502072 -0.03529634 0.10232191 -0.0691399 -0.15948349 0.04726896 0.0037181121 -0.20653552 -0.2795237 0.20547141 -0.33044615 -0.06693181 0.17704533 0.23103169 0.08487887 0.2281723 0.05983058 -0.052157287 0.067045465 -0.052089542 -0.052669335 -0.23214978 0.18885863 0.14882022 0.15394409 0.0995347 0.004265691 0.12724245 0.21226896 0.31932783 -0.15590362 -0.009481855 -0.08877703 -0.06599153 -0.06192272 -0.10760787 0.10622222 -0.093825474 -0.009417567 -0.35598955 -0.032851376 0.048792668 -0.34847105 -0.4355717 -0.23562893 0.07576278 0.18624426 0.06295275 0.1227182 0.13892113 0.09147395 -0.27014515 -0.06173756 -0.22297691 0.011771124 -0.15556897 -0.15618654 0.053530153 -0.2055159 -0.29330656 0.06275124 -0.08806263 -0.049765147 -0.11514487 -0.1978696 0.031696875 0.11847588 0.08752653 0.08284098 0.015549875 -0.19994698 0.031368583 -0.14343332 0.13100371 0.033130098 -0.05248589 0.20754059 0.02481093 0.03903738 -0.043927833 -0.14543496 0.15856704 -0.28094348 0.11670751 -0.012945197 -0.1328857 0.10388274 0.07107712 -0.12277498 -0.2498189 0.0797624 0.045437664 0.07214881 0.009385933 0.12282782 -0.11234149 0.036718242 -0.15998276 -0.23518324 -0.07719778 0.056480203 0.1664907 -0.15302776 -0.30634382 0.186507 -0.19643064 -0.12227407 -0.124160126 0.00637399 -0.1813512 -0.024207043
109086 0.002002749 -0.0010896882 0.021576712 -0.003711147 -0.020286307 -0.019095866 0.0061709383 0.012070922 0.013039021 0.0029358794 0.0063712182 0.010681789 -0.005974156 -0.0093624005 -0.0020082085 0.010553332 -0.008170211 0.028475083 -0.013665133 0.020191006 -0.010889804 -0.014066717 -0.005933141 -0.0088463435 -0.0018589116 -0.024988808 -0.003310635 -0.015843118 0.005057956 -0.0029918319 0.008052532 -0.0044306167 0.0066887117 0.01084568 0.02346784 0.008452598 -0.022319064 -0.017248321 -0.01934689 0.016108267 0.009242173 0.01072114 -0.013757977 0.0044583622 0.003906838 0.018608017 0.014659933 -0.024222676 0.013534121 -0.0233192 -0.0007778031 -0.004092735 -0.004119477 -0.0005159905 -0.0038960148 -0.0046290024 -0.013042052 -0.018089069 0.0064890394 -0.0041511543 -0.023925655 0.0016530934 0.0015762729 0.020099118 0.0026934047 0.017042609 -0.0048667933 -0.012252745 -0.011598836 -0.017443433 -0.02545072 -0.0020956863 0.0018214792 -0.0122906035 -0.002718047 -0.008148799 -0.02302602 0.0028339075 0.0035735872 0.00404355 -0.010090094 -0.0059732106 -0.020153577 -0.0018492659 0.011087229 0.005560699 -0.0026641968 -0.011125206 0.009748554 0.00034201713 -0.0099958135 -0.011523039 0.008765948 0.012514462 0.0033855687 0.0020694493 0.0011387262 -0.022190118 -0.002098651 -0.0039026975 -0.0059998524 -0.008626016 -0.016429238 -0.00217796 -0.0030614084 -0.0014093895 -0.015779521 0.015198728 -0.009169645 -0.007073121 -0.013172759 0.0016023167 0.00014986316 0.0031360458 0.010700787 -0.006040194 0.0044701234 0.0056629158 0.0053123296 0.007048763 -0.0247841 -0.009981426 -0.0014031259 -0.017751552 -0.017681237 0.0035889468 -0.004524457 -0.0072591016
109776 -0.0015676754 0.014364914 0.015296117 -0.008256617 -0.0037743077 -0.016570568 0.019754985 0.00040974503 0.00092359004 0.0027825877 0.002211182 0.019011797 -0.021017546 -0.006837886 0.008166658 0.005007159 -0.008461577 0.020404842 -0.005255269 0.020225475 -0.01061552 -0.010323992 -0.008624103 -0.0080563575 0.006021259 -0.0041248635 -0.0066557727 -0.0005539876 0.00801586 -0.009421447 -0.004643536 0.003751561 0.00069954107 0.0029395062 0.012468831 0.00909882 -0.012423822 -0.013570474 -0.004677542 0.009038078 0.0059760762 -0.0031786212 -0.017668318 0.018245706 0.009116937 0.004833513 -0.002134424 -0.020009033 0.004314006 -0.008808225 0.005517741 -4.6344176e-05 0.0029995057 -0.0049668015 -0.014881625 -0.0035211414 0.0044854325 -0.017352464 -0.005239659 0.0032123667 -0.01603942 0.004175831 -0.0028930122 0.00791278 -0.00043357388 0.027153293 -0.010690564 -0.020981798 0.0024256737 -0.015909532 -0.008162788 0.00035028218 0.012500345 0.008366025 -0.018770052 0.0034208011 -0.002635505 -0.012237346 0.010302237 0.008917501 -0.017358297 0.0057448517 -0.028521318 -0.007330175 4.265856e-05 0.0038421375 -0.018786829 -0.005866474 0.0077198287 0.00558262 -0.01568711 -0.016736774 0.013594608 0.007544821 0.0040705907 0.00926722 -0.004520407 -0.017146423 -0.002655604 0.012555683 -0.005393349 -0.00930146 -0.0062625236 0.01199834 0.003983121 0.007881811 -0.01248475 0.009768751 -0.0077301417 -0.011903925 -0.008334234 -0.008184427 0.0076583764 0.0070680655 0.021531926 0.0021581901 -0.00085387175 0.012404476 -0.0016488293 0.024012206 -0.010169722 -0.022375846 -0.0003567898 -0.002939869 -0.010821844 -0.00048657774 0.0047966335 -0.014989505
108984 -0.0006711516 -0.0037422467 0.0001435996 0.0038916538 0.0037580482 -0.002111286 -0.0011195039 0.003086992 -0.00080969144 -0.003833491 0.0033677968 -0.00011168832 0.0020953433 -0.0032968593 0.0022670703 0.00016594343 -3.605436e-05 0.00024811501 0.003143902 -0.0038483073 0.0015265465 -0.003036569 -0.0019389156 -0.00026204242 -0.003235815 -0.0025509973 0.0023769308 0.0010898674 0.003747173 -0.0018922777 0.0006363078 0.0024996614 0.002590618 -0.0022132206 -0.003030275 0.0012264855 -3.602164e-05 -0.0015229895 -0.0029248258 -0.0029527983 -0.00033969068 0.0033102436 0.0014279237 -0.003167381 -0.00015028974 0.0030143233 0.0022553718 0.001249901 0.0022720646 -0.00022267479 -0.0019324641 0.0037267604 0.0019468308 -0.00070124865 0.0033197212 -0.0035914062 -0.001996064 -0.0019227249 0.0012976143 0.00086076185 5.7819296e-05 -0.0022764406 0.00018052492 -0.00083165104 -0.0009861349 0.00036006593 1.0315978e-05 -0.00047278526 0.0025347823 -0.001959916 0.00072310254 0.003353372 -0.0009496002 0.0031086376 -0.0029608484 -0.003508897 -0.0031752805 0.0036471407 0.000932631 -0.0014189406 0.0013929665 -0.0007347655 0.0033525603 0.0036683627 -0.00096417556 0.0020341848 0.003586642 -0.0025778536 -0.0015681494 0.0013987375 -0.00092427206 0.00051423884 -0.0005024291 0.00042915548 -0.00045032203 -0.0014002785 0.0028710351 -0.0025081104 0.0037850728 -0.00049798796 -0.00079008826 0.00014833594 0.00073589897 0.0017842546 -0.0033878146 0.00034991023 -0.0033544698 -0.0019484847 0.002288934 -0.0037639136 -0.003671482 0.0034869215 -0.003643582 0.00010824518 -0.00040183758 0.003770086 -0.0019077358 0.003127864 -0.003831081 -6.992086e-05 -0.0028623312 0.003667708 -0.0008548317 0.0011544146 0.0031087135 0.002105207 -0.0010466818 -0.000899563
109241 0.049539164 -0.12010671 0.004684924 -0.04036049 -0.28539476 -0.037326086 -0.1719154 0.10724023 0.13431543 0.2021696 0.11292318 -0.13258362 0.079685144 -0.046898965 -0.019930698 0.0823697 -0.07043212 0.12544197 -0.022681994 0.08647362 -0.047032222 -0.14337006 0.05122689 0.005499541 -0.1848284 -0.24699013 0.19016269 -0.30233693 -0.06896661 0.16887866 0.20232159 0.06901873 0.19677043 0.04668069 -0.05479404 0.06023144 -0.040203318 -0.0343704 -0.20802368 0.16945127 0.12957169 0.13491473 0.09214639 -0.0008180862 0.11013413 0.18827547 0.28740203 -0.13202961 -0.02031322 -0.07044134 -0.054324843 -0.0582214 -0.09179504 0.090655714 -0.072900616 -0.000993808 -0.31446984 -0.024736445 0.04044099 -0.3184138 -0.3846237 -0.20838994 0.07363944 0.16188103 0.05557657 0.10905115 0.13550219 0.084986165 -0.23939063 -0.05332966 -0.18645044 0.0043495945 -0.1372967 -0.13446037 0.051606394 -0.1821684 -0.24998619 0.059598546 -0.08111215 -0.04558895 -0.10502315 -0.18446071 0.04001733 0.11089865 0.07518762 0.06939253 0.010213771 -0.17654987 0.03194787 -0.1267854 0.11236132 0.044163816 -0.051240586 0.17413975 0.024664616 0.04015707 -0.048909705 -0.1181484 0.14515169 -0.25538453 0.1072078 0.00018101843 -0.11222392 0.091296725 0.05545404 -0.10976257 -0.22637917 0.062181085 0.04165297 0.06857164 0.017201517 0.11470872 -0.104189046 0.032652594 -0.15770973 -0.22068234 -0.07471582 0.050580446 0.14082524 -0.13873893 -0.26702088 0.17715678 -0.18034013 -0.107450806 -0.10750297 0.0008845967 -0.16631466 -0.023427173
109007 0.048170988 -0.12662105 -0.034546968 -0.023005245 -0.18697481 0.033092245 -0.13864374 0.03684412 0.084843904 0.094731316 0.0149131 -0.09950833 0.15020007 0.027308188 -0.0350553 0.114454664 0.015239579 0.100116886 0.017853498 0.04532927 -0.05173898 -0.06021215 0.003119011 -0.032570936 -0.07066734 -0.23177692 0.0863537 -0.16975333 -0.101700656 0.1840222 0.14782868 -0.006505833 0.105866104 0.04001401 -0.00035895885 0.04376122 -0.0315027 -0.056305554 -0.093842395 0.078442134 0.02145316 0.14732872 0.102959946 -0.09196666 -0.017512895 0.12478539 0.21028046 -0.05627326 0.0006023614 -0.07984297 -0.07108005 0.0054832897 -0.09252238 0.050019264 0.045825444 -0.047665596 -0.16830249 0.046619758 0.111637 -0.097139485 -0.09066049 -0.082530595 0.021442894 0.19078316 0.09246088 -0.06033211 0.10253304 0.08133407 -0.11724896 0.029423034 -0.15700497 -0.035084095 -0.08496172 -0.16740938 0.12249111 -0.105042145 -0.18129745 0.12077841 -0.08658267 0.018672757 -0.038747303 -0.12735997 0.11429753 0.04568237 0.02111014 0.055064857 0.09471469 -0.074856125 -0.0058768494 -0.06656114 0.13858087 0.07581416 -0.0940336 0.078754865 0.0072598807 -0.09392464 0.037151292 -0.09052986 0.034838073 -0.22067906 0.022099571 -0.009116475 -0.04842924 -0.09731958 -0.018157942 -0.10713543 -0.10525589 0.06103219 -0.023042835 0.12853777 -0.0097575225 0.10133209 -0.08465916 -0.045414522 -0.14777087 -0.10455438 0.009120469 -0.019262934 0.026277127 -0.1280414 -0.16420065 0.18271749 -0.024458777 -0.11195909 -0.07520096 -0.021435682 -0.17736492 0.07129849
109361 0.050469525 -0.11067914 0.012966495 -0.0372166 -0.27450547 -0.046616893 -0.16400248 0.10275981 0.13277271 0.19738173 0.11199204 -0.121134 0.07831331 -0.040000256 -0.019340385 0.07812557 -0.073675126 0.12856789 -0.021739434 0.10186559 -0.053074148 -0.14347237 0.04214843 0.00841285 -0.17951027 -0.2370343 0.1830209 -0.2958461 -0.0667295 0.1493081 0.19755903 0.06617537 0.18967113 0.05821541 -0.0447944 0.0711135 -0.040407766 -0.04344885 -0.20250446 0.16855644 0.12454418 0.13464105 0.082467966 0.0069287345 0.11130574 0.17627297 0.2803766 -0.14086096 -0.015030786 -0.07403333 -0.058766272 -0.05635625 -0.09476086 0.08289444 -0.08394114 -0.0029734476 -0.31227097 -0.037213225 0.04004627 -0.30527052 -0.38458052 -0.19907199 0.07071214 0.16033837 0.047273766 0.1224202 0.1247908 0.07346031 -0.23586752 -0.058258977 -0.20083456 0.005218914 -0.13136056 -0.13042848 0.04586706 -0.17940769 -0.25024587 0.052452914 -0.07033031 -0.03938511 -0.10726982 -0.17125493 0.024900222 0.10900488 0.077157035 0.07178015 0.00228772 -0.17608121 0.034447346 -0.12401371 0.10504767 0.033131484 -0.039004453 0.16575822 0.021326805 0.037063766 -0.04690276 -0.120672874 0.14035012 -0.23412748 0.10693661 -0.0041077174 -0.114752494 0.0985298 0.061280236 -0.101908974 -0.2231727 0.06726091 0.040332865 0.06100269 0.019614674 0.106345184 -0.09881699 0.04283541 -0.14159441 -0.20710966 -0.06770328 0.056507334 0.14155145 -0.13472533 -0.26485747 0.1622786 -0.16559951 -0.10971537 -0.10888012 0.0049736854 -0.15864922 -0.027457908
109355 0.039386496 -0.08100741 -0.0102047045 0.0031190854 -0.09202236 -0.012071505 -0.069137946 0.043567132 0.044496994 0.039362032 0.019901931 -0.029415755 0.060113292 0.017034147 -0.01597605 0.05133207 -0.010462305 0.058292113 -0.010288815 0.0515803 -0.038404495 -0.047423787 0.010546388 -0.020665318 -0.041123863 -0.10048144 0.04236811 -0.09339075 -0.04473237 0.07514681 0.07045067 0.008670301 0.05239638 0.025298107 -0.0010268588 0.022836635 -0.029888641 -0.04363517 -0.051597737 0.052811373 0.017124703 0.08162327 0.03125648 -0.048277587 0.008810583 0.05699378 0.12004938 -0.054492 -0.0054402133 -0.054422848 -0.0225392 -0.004034291 -0.05363324 0.0029213447 0.017408023 -0.03402486 -0.099457994 0.02231012 0.052557915 -0.054875 -0.06622929 -0.03990805 0.0047528194 0.09125512 0.046243086 0.008629939 0.032664526 0.04194911 -0.068582065 -0.0053222333 -0.0789493 -0.016901504 -0.031549867 -0.06744271 0.035076912 -0.061184824 -0.07436859 0.03910677 -0.024948552 0.008400127 -0.026321294 -0.04219893 0.033431105 0.03418671 0.011380268 0.026690962 0.043227106 -0.048300732 0.012389074 -0.035799656 0.033754993 0.015148723 -0.03580787 0.052578032 0.0035910532 -0.031939417 0.022489905 -0.06569524 0.012919609 -0.09675015 0.019765409 -0.0154648 -0.033398036 -0.020729987 0.014401501 -0.055821985 -0.070260584 0.03865157 -0.01370882 0.045973014 -0.0029561925 0.04421258 -0.01999124 -0.009808515 -0.058023218 -0.051662806 0.011820827 -0.009392413 0.013981058 -0.0411947 -0.08584768 0.061927892 -0.021799432 -0.048590355 -0.029028203 -0.00063384906 -0.06694147 0.0051926854
108968 0.04753712 -0.12234958 0.018520657 -0.034462098 -0.26542178 -0.0330902 -0.168325 0.09810295 0.12605007 0.18103707 0.09172624 -0.12663463 0.106092766 -0.034439743 -0.029009895 0.10233399 -0.061535478 0.13591711 -0.016018417 0.1011195 -0.06990595 -0.13392575 0.03390207 0.010651566 -0.17388564 -0.23874407 0.1704678 -0.2707968 -0.07580474 0.17141932 0.20083003 0.06976976 0.1702258 0.055522308 -0.04359159 0.058585756 -0.041073095 -0.059045523 -0.18971515 0.1625854 0.109011546 0.13811795 0.087627664 -0.019804759 0.09085469 0.18014398 0.28646785 -0.1324214 -0.019618407 -0.08232201 -0.05948748 -0.04098758 -0.09281396 0.084584676 -0.054879565 -0.011890097 -0.29684705 -0.010032334 0.06563225 -0.28484082 -0.33711958 -0.1934244 0.05032467 0.16992252 0.053403914 0.09303096 0.1274399 0.088386305 -0.21225971 -0.03878355 -0.1987427 0.0009634284 -0.12535481 -0.13388611 0.072908185 -0.17332773 -0.26333413 0.067789935 -0.07174628 -0.033329763 -0.10183977 -0.17566718 0.040598985 0.10034526 0.073917694 0.073667996 0.021718018 -0.15400745 0.013988974 -0.115863375 0.12106169 0.037662446 -0.049085744 0.16327055 0.02105562 0.0055689737 -0.019701397 -0.11754189 0.11975726 -0.25799188 0.08799922 -0.008918966 -0.10088028 0.06872953 0.048195295 -0.12525427 -0.21466872 0.072806254 0.036285322 0.077886425 0.01856468 0.11833382 -0.10168551 0.022329431 -0.16451333 -0.20208508 -0.050066035 0.04910083 0.1220844 -0.14250249 -0.25258198 0.16548316 -0.14623378 -0.098147914 -0.09100037 -0.0036788466 -0.17150362 -0.014936016
110477 -0.007211022 0.010789435 0.022556495 0.004341 -0.00022979059 -0.0121312365 0.018386682 0.0038992395 -0.0010589707 -0.0036258262 -0.004262167 0.017708331 -0.008893812 -0.0073127835 0.00095907 0.003341375 -0.007944251 0.021121906 -0.002944065 0.017833414 -0.012706235 -0.0036967625 -0.014343604 -0.005126043 0.00392083 0.006011849 -0.0082422355 0.00608708 0.0106317615 -0.0038643288 -0.00416559 0.003101185 -0.002195036 0.0028217668 0.01052842 0.0042816745 -0.004200087 -0.019487062 -0.0061276546 0.004052617 0.0069110417 -0.007133665 -0.01336531 0.008518017 0.00045303587 0.0039097513 0.0006594204 -0.016579937 0.00034777203 -0.009727674 0.0015151892 -0.002380504 0.005664989 -0.0022273478 -0.008685345 -0.0066702142 0.0066271354 -0.011467607 -0.0004048105 0.0026903413 -0.014338148 -0.00036049262 -0.002166796 0.0028845489 -0.0023593365 0.014108686 -0.0041766814 -0.015227145 0.0012609945 -0.010894395 -0.010616815 0.006836673 0.010739043 0.001312372 -0.007152361 0.0012827329 -0.008495082 -0.012639069 0.016390033 -0.00029616262 -0.013752728 0.0051590335 -0.023610935 -0.0047552246 0.004177408 0.0019199313 -0.016966509 0.0035742768 -0.0051969723 0.004816401 -0.020433106 -0.013035956 0.015393 0.0073581543 0.004986956 0.0049787066 0.0005785718 -0.01194512 -0.0014516427 0.004871809 -0.009454754 -0.0058135395 -0.00027569616 0.0112525895 0.004865001 -0.0002539029 -0.0073666824 0.007911434 -0.002821471 -0.010217457 -0.005061043 8.004517e-06 0.001682196 0.0043210187 0.008893615 -0.00069246214 0.0037661255 0.012893727 0.0045410357 0.014628665 -0.003411863 -0.020733116 0.005851042 -0.0010592013 -0.0076568546 -0.0009161358 0.009092703 -0.019256815
109114 0.038327623 -0.10266354 0.028878154 -0.04531384 -0.28834933 -0.09702471 -0.15401416 0.10187792 0.13060908 0.19807765 0.12057098 -0.10599937 0.052020144 -0.064269096 -0.00987488 0.05781898 -0.123767555 0.15568806 -0.026460161 0.12093219 -0.07203227 -0.15375474 0.054612737 0.016861431 -0.20697738 -0.2190648 0.16388306 -0.30381355 -0.058510307 0.1338276 0.18603292 0.0958539 0.21348876 0.05602031 -0.054273494 0.05942781 -0.043142598 -0.039652597 -0.22790642 0.16210419 0.14326966 0.11589154 0.06988684 0.031030687 0.15623675 0.19773516 0.28739437 -0.17938182 -0.008937242 -0.070202135 -0.03415286 -0.057760246 -0.0938589 0.08997757 -0.1163228 -0.006578577 -0.32403183 -0.06630185 0.016072553 -0.340315 -0.4535544 -0.24607867 0.078486785 0.15031819 0.042872135 0.1684455 0.13246202 0.07047225 -0.2633691 -0.08708907 -0.19822621 0.005115461 -0.14694238 -0.1029837 -0.00635566 -0.1909868 -0.25374627 0.030656224 -0.030679004 -0.060340203 -0.15461242 -0.15664674 -0.008275867 0.10202826 0.079855606 0.07077791 -0.021153532 -0.18015859 0.013559463 -0.152914 0.06629948 0.006026167 -0.030929537 0.2062614 0.03038156 0.06793968 -0.066335164 -0.14325838 0.1835324 -0.22399074 0.1033905 -0.029380288 -0.10530734 0.12194441 0.08870738 -0.09417623 -0.26114577 0.052404504 0.042039234 0.052280027 -0.019430848 0.09334831 -0.11371774 0.048296954 -0.14077616 -0.23417282 -0.09310301 0.061816245 0.15555495 -0.12541823 -0.2709243 0.16696364 -0.19187477 -0.08297518 -0.13332015 0.0031673566 -0.15032177 -0.048299145
110478 -0.002018821 0.0006863292 0.0038386418 0.0026016592 0.0013674147 0.0026532863 -0.000927553 -0.0025552788 -0.0030935353 0.00046579083 0.0027226692 -0.0014733977 0.0023339398 -9.1478665e-05 -0.0003898121 -0.00096723775 0.0013744097 0.0025024025 -0.0014839418 -0.00023490687 0.0018975047 -0.0024639068 0.0019103169 -0.0003632608 0.0037103705 -0.0013066573 0.0017909833 -0.0013413627 0.00143766 0.001168766 -0.002512508 0.0024141588 0.0024625906 0.0014764311 0.003403121 -0.002930405 -0.0010001379 -0.0014501525 0.0021207698 -0.0038309153 -0.0037779834 0.0034444816 -0.003667393 -0.0022060627 -0.003132243 0.0027648997 0.00059793674 0.003648994 0.00073504046 0.002741631 -0.0016018292 -0.0025964545 -0.002735993 0.0037994082 0.0014100306 -0.00058173266 -0.0004328889 7.647301e-05 -0.0002179139 -9.872815e-05 -0.0012100595 -0.0028101953 0.0021488157 -0.0028051662 0.0020769015 -0.0010772541 -0.001688054 0.0024226077 -0.0035419182 0.0034638667 -0.0032126384 0.0033762555 -0.00032255097 -0.0035928343 -0.0038093876 0.0034320871 0.0008914588 0.001788903 -0.0009490724 -0.0010771991 0.0017344581 0.0011435611 0.001450821 0.0001561958 0.00042455978 0.0026336215 0.0011989984 0.0030133154 0.0026240568 -0.0010567608 0.002481443 -0.003605078 0.0016270549 0.0011174853 -0.0017926187 -0.0006828416 -0.0021125062 -0.0003642264 -0.0015455829 -0.0008997401 0.0034368418 -0.00033757166 0.00038459303 0.0014322953 -0.0017820805 -9.260013e-07 0.0008268519 -0.0022764623 -0.0027434737 -0.0006798962 -0.0007663725 -0.0014960632 0.0021091993 -0.001047288 0.0032293678 -0.0017390595 0.0018216769 0.0031491495 0.002209614 0.00084760314 -0.0031406397 0.003797042 0.0012749264 -0.0019819813 -0.003003959 -0.003035469 -0.0018142004 -0.0031963983
110351 -0.007378073 0.014033191 0.03577947 0.0054704077 -0.012498348 -0.048281666 0.02218687 0.011665635 0.0055894325 0.009550167 0.01737648 0.0299447 -0.027355818 -0.010122421 0.006835489 0.003194889 -0.025729222 0.04611763 -0.01800335 0.035793196 -0.031456742 -0.023183275 -0.0077407714 -0.010635309 0.010974541 -0.02013763 -0.013687437 -0.00091246364 0.01312334 -0.023126708 -0.004105705 0.01688062 0.008422333 0.010520812 0.023397861 0.014511801 -0.039190505 -0.038350806 -0.021467205 0.0123830885 0.01586401 0.0071325246 -0.047024563 0.0136186415 0.025080148 0.018677736 0.017721549 -0.034782268 0.02117298 -0.03464804 0.002053965 -0.0005226934 -0.006288564 -0.009263996 -0.028319182 -0.020844407 -0.015413696 -0.019245666 0.002415082 -0.0052918047 -0.03530176 -0.0031620278 -0.0058605927 0.013888255 0.005818976 0.03925507 -0.016090447 -0.017531786 -0.012011273 -0.024825592 -0.031605236 0.006303798 0.02134343 -0.0071477937 -0.027766611 -0.0096707735 -0.022920996 -0.017533453 0.03235547 0.013063641 -0.0318713 0.006994256 -0.050353814 -0.014400695 0.007363694 0.012895738 -0.026419213 -0.015632581 0.010469919 0.0008814817 -0.038527124 -0.028675372 0.0188658 0.024902 0.0029229994 0.010703198 0.011313505 -0.047842238 -0.013675128 0.010354716 -0.010440725 -0.019153457 -0.008611585 0.00556749 0.014936226 0.012736637 -0.026521659 0.025850298 -0.010870258 -0.028783023 -0.020091074 -0.01680811 0.012694282 0.011603842 0.03138506 0.0008058165 -0.004673518 0.024013419 0.0087909 0.03174092 -0.031382218 -0.041187342 -0.0057202526 -0.00093941065 -0.016552236 0.008435599 0.01415902 -0.034709767
110479 0.0018535873 -0.00015584662 0.0003525513 -0.0024464156 -0.0028346265 -0.0030152474 -0.000460408 0.0017002036 -0.002582644 0.001367666 0.0029785165 0.0013519932 -0.003807277 -0.0021228998 0.003232398 -0.00034550542 -0.0036537559 -0.0036095548 0.00097644044 -0.00014864208 -0.002627724 -0.0028754033 -0.0019314764 -0.00073276117 -0.0034887234 -0.0006768442 0.0012432544 -0.0017520249 -0.0007754332 0.0008693824 0.003802563 2.0724087e-06 0.00053882936 -4.8530426e-05 -0.0037510693 0.003452533 0.0034786595 -0.0036738403 -0.002422182 0.0016838041 0.0035724598 -0.00051107956 -0.0036550083 0.00011238812 -0.002206399 -0.0030484193 0.0023197373 -0.0017579432 0.00343899 -0.002908331 0.0013602758 -0.00034220342 0.0021362037 0.0026238365 -0.0022794583 0.003812439 0.0005329351 -0.0019022423 0.0032612637 -0.00029029237 0.0012060428 -0.002314539 -0.00154931 0.002436292 -0.001434583 0.0016974057 -0.0011886352 -0.0019739403 -0.0011182306 -0.0032732952 -0.000112323454 0.002447046 0.002285435 -0.0014215334 -0.003182526 -0.002380276 -0.0003603923 0.003448585 -0.0034266943 -0.0001330729 -0.0003310403 -0.0021607797 -0.0022775598 -0.0009506422 0.00017677814 -0.0028161923 -0.0016707374 0.0036657404 0.0022591525 0.00065826456 0.001087768 -0.002405324 0.0005883186 -0.0036569173 0.0025130664 -0.0016135789 0.0025198993 0.001578878 -0.0007303404 -0.0033335418 -0.001101787 -0.001135966 0.0032309769 -0.0019261938 -0.0008345016 -0.003600567 -0.0020635908 -5.7626166e-05 -0.00081403815 -0.003884082 -0.0017460133 -0.002890622 0.0021879112 0.003231133 0.003738143 0.00079444033 -0.0015567143 0.0016145301 0.00073035865 -0.0034319106 0.0007784734 -0.00055890414 -0.0018385431 0.002546661 0.00055838574 0.0034826582 -0.003531653 -0.0035466438
110480 0.060320932 -0.17368954 -0.2260588 0.018735353 -0.16071089 0.2671858 -0.28907073 -0.032446288 0.12316127 -0.009829859 -0.09379515 -0.22147822 0.3966177 0.09220377 -0.16873424 0.19883889 0.123904325 -0.052151084 0.09407654 -0.007950858 -0.027085835 -0.022620874 -0.00892888 0.048652902 -0.2630126 -0.17006315 0.11832464 -0.25954926 -0.190421 0.35099 0.2255891 -0.0346214 0.038465846 -0.037569955 -0.16947715 -0.027182095 0.15067431 0.034425158 -0.056675762 0.04978419 -0.068257794 0.15676156 0.29229572 -0.20038465 -0.12534648 0.031189548 0.17576392 -0.0137549965 -0.1073434 0.06520443 -0.15121098 0.05725728 -0.03088079 0.02333153 0.18964611 0.010004349 -0.17155463 0.13594282 0.20409894 -0.10926773 0.039126713 -0.12624724 0.01716147 0.132098 0.08959003 -0.29260814 0.14502889 0.25499684 -0.11421064 0.20398788 -0.1091525 -0.08192633 -0.2281038 -0.19308472 0.34406796 -0.020480288 -0.1652077 0.23487183 -0.18655314 -0.0493793 0.14595589 -0.1721214 0.38516155 0.14446937 0.06705126 0.027024016 0.23991698 -0.014806297 -0.06940537 -0.16502528 0.3124391 0.25832754 -0.24946974 0.027950158 0.020299494 -0.20976688 0.08490063 0.028937336 0.15788777 -0.50419396 0.065957874 0.017638886 -0.026330573 -0.10099574 -0.040138356 -0.0981436 0.0017155213 0.015270717 0.14754413 0.28264776 0.22490862 0.32830375 -0.13565803 -0.069744065 -0.50995594 -0.1083941 0.0019238652 -0.026728434 -0.0030448965 -0.3189264 -0.043078877 0.40667945 0.052139025 -0.09969888 0.036327608 -0.028138334 -0.37345266 0.1679379
109971 0.10258581 -0.16414739 -0.19237496 0.006508527 -0.12851204 0.25541282 -0.30860123 -0.0076748743 0.078651816 0.040401496 -0.08694515 -0.24340902 0.37307078 0.08151789 -0.1916341 0.20085879 0.17605972 -0.065149955 0.052533794 0.0002659681 -0.011351297 0.012350996 -0.0051568775 0.031020729 -0.2039201 -0.1048568 0.1367222 -0.22648512 -0.19009998 0.3279106 0.17738228 -0.010932416 0.014845162 -0.022442695 -0.16212338 -0.00060784904 0.15877542 0.041994695 -0.054306354 0.042187817 -0.08799918 0.13025515 0.2943308 -0.20638242 -0.14671367 0.0005108252 0.15494253 0.037381038 -0.08903498 0.059711333 -0.111560725 0.046158485 -0.016798493 0.003998481 0.18619132 0.0026687053 -0.18704872 0.12545387 0.1689622 -0.11747984 0.08051564 -0.061053835 0.056384906 0.14608012 0.077400394 -0.27922258 0.16231348 0.2740195 -0.07356093 0.18052821 -0.11467818 -0.08733602 -0.2163939 -0.22941543 0.38076714 -0.034537986 -0.16059405 0.22219026 -0.1728487 -0.017711947 0.14355186 -0.15996568 0.362646 0.17341386 0.06743951 0.033865336 0.23994339 -0.0076261056 -0.06015219 -0.15849867 0.34499738 0.24543755 -0.23214315 -0.011152996 0.0086407615 -0.18612795 0.08814194 -0.011082376 0.12972248 -0.5384335 0.058878932 0.03831709 -0.015887773 -0.063051514 -0.034861457 -0.16734429 0.020422492 0.013684709 0.1314113 0.23996586 0.18473348 0.26308587 -0.18454973 -0.105469964 -0.46716398 -0.046757992 0.0007006858 -0.052548796 -0.04383432 -0.3241835 -0.032445233 0.41014948 0.08385909 -0.11578025 0.02723832 -0.03663315 -0.3495688 0.14710402
109075 0.030683776 -0.05621534 -0.013087567 0.012623555 -0.115633644 0.012165688 -0.08733931 0.005792655 0.07955822 0.041221667 0.010846595 -0.036631458 0.10191885 0.007435822 -0.036466334 0.079270095 0.0016807789 0.07818114 0.010460435 0.05545663 -0.043160096 -0.03948302 -0.0048833466 -0.040125515 -0.035597414 -0.15687442 0.045765545 -0.09482521 -0.05850711 0.10424623 0.073132336 -0.021233167 0.045542322 0.018920967 0.02667466 0.045718756 -0.03482525 -0.04713921 -0.057259288 0.03523236 0.026067523 0.099376954 0.03892037 -0.0674827 -0.01851998 0.07815106 0.12449322 -0.059294302 0.024874112 -0.05230768 -0.031708788 0.01714942 -0.06072 0.018151367 0.04044613 -0.054886926 -0.09593703 0.00013605127 0.07852219 -0.04450182 -0.035290636 -0.02506464 0.025248755 0.1337559 0.07020321 -0.03714423 0.052053634 0.05181774 -0.070893124 0.026034681 -0.1178706 -0.032229204 -0.043726955 -0.1125782 0.07332921 -0.056883316 -0.12075304 0.06946545 -0.03212357 0.010206552 -0.024890494 -0.06376869 0.06910471 0.016355658 0.031491384 0.023755582 0.07493658 -0.06945978 0.0067055793 -0.051291257 0.07063664 0.04298921 -0.06994905 0.045061458 0.014349222 -0.08031074 0.040926546 -0.08152028 0.018166145 -0.13712266 0.010856527 -0.035175737 -0.028601905 -0.078710936 0.0005340536 -0.035640854 -0.056475725 0.055643734 -0.020574449 0.06642631 -0.022456182 0.05518627 -0.029175958 -0.030179415 -0.09298602 -0.038375348 0.0021823207 -0.004035741 0.011993668 -0.08026788 -0.08313424 0.094514206 0.0022789137 -0.09422748 -0.04363002 0.0024202117 -0.10791095 0.042626884
110481 0.02302912 -0.04651089 -0.0043786676 -0.00037207856 -0.067867056 -0.008691533 -0.04387305 0.021437908 0.030647935 0.01748113 0.015733894 -0.02809533 0.047015816 0.011016854 -0.014838836 0.035257675 -0.012558717 0.04182915 0.0020441369 0.03849258 -0.02449482 -0.033054113 0.0030559022 -0.014878799 -0.033072565 -0.06255025 0.03129637 -0.059868142 -0.038347743 0.052591454 0.050533246 0.011079942 0.034643844 0.0150775565 -0.0010962597 0.019592008 -0.014601547 -0.02767799 -0.03661854 0.030064492 0.00795935 0.053504743 0.022389516 -0.029429695 0.0067754947 0.039354347 0.089340195 -0.036980886 -0.0046772254 -0.03386198 -0.018798152 -0.00017279615 -0.03087648 0.011722451 0.014413159 -0.0233318 -0.064795904 0.013280627 0.032651473 -0.037237246 -0.039986007 -0.02750269 0.00661496 0.059743285 0.026964186 0.0034523602 0.026467329 0.03295253 -0.03973573 -0.006698275 -0.05077844 -0.0044123777 -0.021781892 -0.041323133 0.032941427 -0.031065293 -0.06104989 0.028290603 -0.0105976695 8.100116e-05 -0.028940039 -0.02765649 0.023748988 0.019934863 0.004802008 0.018717254 0.028620338 -0.027493205 0.008098802 -0.023756178 0.031277962 0.017161919 -0.023237893 0.03592109 0.00021636227 -0.021146892 0.018931862 -0.03872761 0.010637345 -0.073449045 0.013638302 -0.0059989383 -0.011861757 -0.014491459 -0.0027366728 -0.032851852 -0.04981369 0.024940057 -0.002105706 0.024105495 0.0007545197 0.02992741 -0.027577925 -0.008800352 -0.043580778 -0.033312425 0.010939125 -0.009302094 0.012756585 -0.041254282 -0.053522334 0.042802975 -0.009842488 -0.029175714 -0.020565778 -0.006277036 -0.049735174 0.004454067
109906 -0.004526968 0.012490097 0.0226074 0.009059814 0.007091582 -0.02278204 0.014519061 0.0010977556 0.006825406 -0.0019631444 0.0034054345 0.02392696 -0.014132079 -0.0019741913 0.0015671365 0.0013975402 -0.009343435 0.014655978 -0.013440114 0.01564623 -0.017134603 -0.0061473623 -0.01225414 -0.009510556 0.004824115 -0.0013212333 -0.010939111 0.0038486782 0.009273775 -0.01681698 -0.011667446 0.0022601401 -0.0053107576 0.0033302945 0.0160389 0.010376858 -0.016145788 -0.013409887 -0.009433038 0.002008501 0.0026091952 -0.0012919472 -0.029476801 0.010240152 0.005241326 0.003237323 -0.0072383857 -0.015426782 0.009665065 -0.014032521 0.0085285725 0.00088403374 0.0018766584 -0.0077429535 -0.013233446 -0.008808727 -0.0015863072 -0.014195606 -0.004510801 0.0010856371 -0.009714988 0.0020581936 0.0023490062 0.0016969766 -0.0013541807 0.014770472 -0.012321402 -0.013398147 0.005041792 -0.010906531 -0.011822845 -0.0014036899 0.012945646 -0.0038724686 -0.011791791 0.0012124651 -0.0041867923 -0.009750777 0.014744736 0.005012718 -0.00650007 0.0077647003 -0.018994192 -0.011138135 0.009655852 0.0051640687 -0.006151745 -0.0022748853 0.001326255 -0.0013042744 -0.024494758 -0.01407156 0.0126061095 0.010449552 0.004046541 0.003375943 0.008733088 -0.022166781 -0.003352467 0.0048030945 -0.0040360433 -0.017388647 -0.0027110684 0.000863123 0.008454449 0.009145337 -0.008072615 0.010838854 -0.0039008185 -0.01576848 -0.008022813 -0.010671551 0.0057736435 0.008629379 0.020056374 0.014637164 -0.008202942 0.013908246 0.0032081495 0.01821433 -0.0064098043 -0.02849806 0.011522926 -0.0035416868 -0.006134727 0.0072669983 0.00860927 -0.012693186
110482 -0.0036877943 0.0007892514 0.00038149182 0.0032587817 0.0033401644 0.00034136072 -0.002636428 -0.0024979655 0.0022734604 0.0019902876 -0.00285545 0.0014291157 -0.00075630797 0.002858985 0.001419762 0.0022218602 0.00044101267 0.0023040036 0.0030204603 -0.0027675717 -0.0026703048 0.00013313783 -0.0022855895 0.0007542378 0.00085556804 0.0036690459 -0.00072216167 -0.0012976154 0.002459143 -0.0020794345 -0.00031912347 -0.003017837 0.00054817426 0.000108748405 -0.0017084777 -0.0020891349 0.0028785956 -0.0014533519 0.0022142867 -0.002569616 -0.00300263 0.00088091946 0.0029254335 0.0023729403 0.002805025 0.0026260316 -0.0016178383 -0.000434849 0.0029982247 -0.0005784298 0.0010885607 -0.003365466 0.00031551 0.0036010237 -0.0018342073 -0.0010276573 0.0027511392 -0.0019251389 -0.0029499822 0.0029916612 0.0037770146 -0.0022870037 0.0033994648 0.00065914023 0.0031123757 -0.0019543665 -0.0024783886 -0.00024861432 -0.0014634238 0.00045527474 -0.001386288 -7.532019e-05 -0.0022661071 0.000625811 -0.0022320757 0.0018308026 -0.003727902 0.003630847 -0.0016059253 -0.0007396868 0.0038796081 0.0037145196 -0.0013194609 -0.0026633828 -0.00023282356 -0.0010643803 -0.0030834894 0.0012307949 0.0006501217 -0.0014127273 0.0028694114 -0.0038796428 -0.0024022986 0.0014411308 0.0013199426 0.00043934956 0.002728592 0.0031506722 -0.0038547048 -1.626291e-05 -0.0032521337 0.0033736306 0.0005549707 -0.00089026673 -0.0038525495 0.00064142206 0.0033109265 -0.0010374496 0.00014025676 0.001981762 -0.0010273595 0.0017176241 0.0013199763 -0.0008052537 0.002326963 0.00036094862 0.001796573 0.002951699 0.00030175954 -0.00050193485 -0.0015858681 -0.0001166831 0.0034554463 -0.001491773 0.0024952472 -0.00012121169 -0.003195155 -0.0014042215
110483 -0.0037889874 0.012367952 0.020606516 0.00044199405 -0.00065149384 -0.019605123 0.018329807 -0.0011756327 0.004293293 0.0030006 0.0030954555 0.013459495 -0.018190933 -0.007870629 0.0029180234 -0.0011256383 -0.0117655415 0.015515947 -0.005484841 0.011445458 -0.0092148045 -0.0029568817 -0.0083861 -0.0030508968 0.0052551087 0.0036480178 -0.009058571 0.01312612 0.005093071 -0.013938336 -0.005435093 0.0128135085 0.001492357 0.0062919967 0.007537724 0.00035695324 -0.013264148 -0.01555998 -0.0056890487 0.0005687798 0.0061456505 -0.003470447 -0.019447545 0.0090628555 0.010592247 -1.5900645e-05 -0.0039501656 -0.010848925 0.010345148 -0.013710243 -0.00013007567 0.0024900334 0.00088159984 -0.00086117856 -0.015898772 -0.0045720953 0.006004746 -0.010003372 -0.0010695284 0.0038980495 -0.01006413 0.0016483266 -0.0020050202 0.0011872405 0.0023457906 0.016883228 -0.006944302 -0.013318004 -0.0042062597 -0.014523387 -0.008191354 0.00889888 0.009551487 0.0078153 -0.0129308915 0.0006295161 -0.011737798 -0.012215844 0.014037451 0.002256899 -0.012910556 0.00043644302 -0.024342291 -0.00547221 0.0004548445 0.0058379886 -0.015572347 -0.0047029713 0.0013920267 0.0056060553 -0.01643547 -0.01233382 0.017345738 0.0048816055 -0.0013221819 0.007882001 0.001456344 -0.017647803 -0.008110298 0.010979489 -0.011463041 -0.0033558512 -0.0026202332 0.009218936 -0.00077129796 0.005522984 -0.0077283103 0.007191771 -0.004116072 -0.01185803 -0.0056244084 -0.011027578 0.0011158539 0.00043899202 0.016904585 0.0015216465 0.0013330271 0.013454547 0.0033215478 0.01953499 -0.003515684 -0.023199154 -0.0024989143 0.0008154017 -0.010405146 -0.0001835819 0.011663239 -0.010926759
109124 -0.0014204121 -0.0023599144 -0.00040167995 0.0037752585 -0.0014891318 0.0005888414 0.0009245378 0.00040124985 0.0021237542 -0.0028499314 0.0006817957 0.0019766202 -0.001479552 0.0027724074 9.9427314e-05 -0.0011973728 0.0037645511 0.00048105026 0.0037967728 0.0012358543 0.0014711698 -0.0023804961 -0.0034064623 0.0024747637 -0.0027045445 0.0009075068 0.0012840492 0.0012351816 -0.0013712804 -0.0007484385 0.00080158707 0.0010343782 -0.0023541888 -0.00073095225 -0.003093986 0.003133403 -0.0015536094 -0.0008522542 0.00081188633 -0.0022669411 -0.0024562294 -0.0005815015 0.003834922 0.0035455818 -0.0033264672 0.003301805 0.00086773426 0.003420163 -0.0026687847 0.0011657069 -0.0024611712 0.0015432307 -0.0019276425 -0.0021401988 0.0010585499 0.0017539655 -0.0013212414 0.0015842434 0.002912156 -0.0016001733 0.0018760584 0.002868123 0.00066608004 0.0035700472 0.00215072 0.00043484714 0.00042460102 -0.0002828199 -3.9056315e-05 -0.00029415524 0.0026763529 0.00095727306 -9.695558e-06 0.0013950305 -0.0035769136 -0.0021486212 -0.0037159296 -0.0022519978 0.0014991381 -0.002748957 -0.0012575743 0.0015808803 -0.0029350773 -0.003136783 -0.0025985374 0.000889908 -0.00077876117 1.255605e-05 0.0036268528 0.0028629154 -0.0007473881 0.0026654871 0.002274758 -0.0014832349 -7.437566e-05 0.00093244 0.0038518205 0.0033773447 -0.0031307943 -0.0031043193 -0.0024773383 -0.00078886474 -0.0015322572 0.00035479854 -0.0034931325 0.0027086802 -0.001303184 -0.0020647955 -0.0016443044 0.0004674505 0.0027536664 -0.0002628725 0.003901639 -0.0022818183 -0.001924528 0.0016854526 0.0005508216 0.0026332904 0.0016430365 -0.0028475814 0.0010094105 0.00039525997 -0.00307429 -0.0011408336 -0.0022627453 -0.0037665735 0.00060932257 -0.0036812401
110484 0.04008099 -0.17125787 -0.10795115 -0.009988969 -0.1688597 0.10433867 -0.17532764 0.005285453 0.07102584 0.06903243 -0.024310332 -0.11452944 0.21628356 0.07081357 -0.053095065 0.115858726 0.05915855 0.04928383 0.067454465 0.006216027 -0.040796336 -0.040881433 0.013827515 -0.027468784 -0.07497864 -0.23009895 0.07998062 -0.17287916 -0.14942954 0.23726106 0.15925124 -0.016219897 0.07968579 0.004117797 -0.05218598 0.021525573 0.013744968 -0.030280441 -0.05520705 0.04834257 -0.02856587 0.15182135 0.17121193 -0.14778845 -0.04691349 0.093079746 0.1986489 -0.013455548 -0.025306288 -0.042481072 -0.07404833 0.015252034 -0.0893004 0.04015417 0.10129026 -0.051232554 -0.15922539 0.102625705 0.1455235 -0.063255765 -0.0013445488 -0.084538564 0.025091097 0.18575142 0.11063568 -0.1623712 0.10950001 0.13951169 -0.10333137 0.09917305 -0.12257776 -0.054769676 -0.096856676 -0.19366066 0.17752038 -0.08545289 -0.1333669 0.1524587 -0.101463355 0.021032397 0.008075735 -0.12112844 0.21042503 0.054782607 0.020071503 0.054095607 0.14957982 -0.041962415 -0.028600568 -0.09412918 0.18467553 0.123936035 -0.15291579 0.062618844 0.002128179 -0.14377955 0.041542593 -0.05769959 0.05353934 -0.2725246 0.0427871 -0.0021032265 -0.00054117915 -0.1560362 -0.015790056 -0.11389143 -0.07465225 0.032930825 -0.009769357 0.19320793 0.044681877 0.14534758 -0.09311482 -0.076048136 -0.22565854 -0.091698356 0.020284811 -0.050396156 -0.004566882 -0.16121157 -0.13291869 0.25575754 -0.0029519433 -0.09653429 -0.035105035 -0.033352885 -0.21879527 0.11495975
110409 0.054283276 -0.13884035 -0.037391417 -0.015103115 -0.16255738 0.028122466 -0.13471971 0.03969058 0.070407376 0.055932507 -0.0062548933 -0.11140324 0.1899694 0.029915113 -0.03768975 0.106546514 -0.0034363742 0.07777416 0.030848505 0.034946896 -0.027818535 -0.04845808 0.013126375 -0.011750679 -0.07824957 -0.20862581 0.08423717 -0.13790163 -0.121436365 0.1682942 0.14806208 0.009337597 0.08171067 0.043881133 0.0026913686 0.03472653 -0.006614334 -0.057315055 -0.07095421 0.057521243 0.018283963 0.13915394 0.08875312 -0.12297291 -0.033815302 0.11126595 0.22631146 -0.03763534 0.00056861877 -0.08467683 -0.069116205 -0.0020254697 -0.0992785 0.055303425 0.08540832 -0.03064295 -0.14527476 0.06951898 0.10800187 -0.08653212 -0.041867055 -0.0761976 0.0070784544 0.16189326 0.0854664 -0.07823845 0.10231082 0.11263244 -0.10426582 0.038782433 -0.13107716 -0.02980627 -0.0887712 -0.1489426 0.1537956 -0.09178281 -0.16596895 0.11960747 -0.060914434 0.0018695453 -0.023079816 -0.12155914 0.1272126 0.051009145 -0.009548192 0.053982336 0.11282426 -0.06547846 -0.0062756464 -0.0813218 0.14084344 0.08483148 -0.10323674 0.068726666 0.017051568 -0.106489815 0.052939497 -0.04077035 0.030936508 -0.20658173 0.03374355 0.0072602225 -0.03474942 -0.096944556 -0.04193214 -0.11916927 -0.09180529 0.040573407 -0.01125628 0.12419895 -0.0071283183 0.10907468 -0.08900565 -0.05813523 -0.15957391 -0.08677532 0.043617602 -0.055909272 0.036059666 -0.15637772 -0.11035937 0.17463759 -0.015269235 -0.09161583 -0.06155042 -0.033764016 -0.15965678 0.075589366
109006 0.023297431 -0.079696186 0.021086639 -0.029502274 -0.1932768 -0.07075723 -0.10055599 0.06797657 0.08169179 0.13360006 0.08460303 -0.06567658 0.035583854 -0.03894064 -0.00072123413 0.030758958 -0.08877598 0.107030734 -0.017876882 0.0805017 -0.04455778 -0.105638325 0.03687634 0.018164245 -0.14217468 -0.14793925 0.11225093 -0.2096873 -0.04659865 0.08962817 0.13243966 0.07781893 0.15321694 0.02941864 -0.04638562 0.029838653 -0.025905438 -0.027049799 -0.15671672 0.10907852 0.10342529 0.08170228 0.044210695 0.0219226 0.11708542 0.13959025 0.1956533 -0.11570639 -0.017203633 -0.048460335 -0.0312966 -0.0385537 -0.07365565 0.06436793 -0.082987994 -0.0015748016 -0.21599536 -0.03609803 0.012156323 -0.23183133 -0.31077158 -0.17768277 0.04270668 0.09231333 0.034962565 0.11621658 0.08939871 0.03829728 -0.18881789 -0.06404955 -0.1256342 0.011857921 -0.10228578 -0.06464761 -0.013082787 -0.13461202 -0.16934615 0.020038132 -0.011194331 -0.04091252 -0.10609449 -0.106956735 -0.0100507485 0.06938113 0.049647193 0.05855554 -0.020885924 -0.12695074 0.004659754 -0.097810656 0.03647944 -0.0047914665 -0.014099982 0.14504658 0.018289233 0.049410634 -0.04524822 -0.09539851 0.1178982 -0.14624095 0.0706613 -0.01894993 -0.070064634 0.08607692 0.06380803 -0.066119224 -0.18108754 0.03385772 0.029656963 0.02997724 -0.0068071014 0.06360088 -0.07246875 0.036455058 -0.09258504 -0.16680862 -0.06004317 0.041790307 0.109890066 -0.07933381 -0.19060469 0.11082034 -0.14605199 -0.040037606 -0.08311911 -0.005584986 -0.0929541 -0.03982427
110485 0.0022858905 -0.0025364584 -0.002362126 -0.0019469567 0.001043516 0.00048271773 0.0019492405 0.0015500563 0.0015639901 0.0017405102 0.0009682602 -0.0026975307 -0.00034035664 0.0009917645 0.003802192 0.002706369 -0.0026714855 -0.00077845075 -0.0019500923 -0.003143997 0.0009819512 0.0032552986 0.0014200647 -0.0021585512 -0.00031591413 0.002450039 0.0011493649 0.0012056273 -4.853632e-07 0.00072217756 -0.0008115155 -0.0021251158 0.0006784113 -0.0038784263 0.0028584881 -0.00064975215 1.8581984e-05 -0.0033746061 0.0027090572 0.0012653877 0.002579535 -3.7999736e-05 0.0017484252 -0.00051163306 0.0019038623 -0.002637023 6.0320763e-05 -0.00093329884 -0.003751029 0.003164933 0.003325903 -0.0013483152 0.001564332 -0.0010461264 -0.00072915934 0.0018786186 -0.0029914628 0.00032338468 -0.0009768141 0.0037542637 0.0017553469 0.0006905529 0.00059960515 0.0022703642 -0.0035759322 0.0012007034 -0.003192043 0.00028771107 0.0024404344 0.0025950316 -0.0011707465 0.0021357466 -0.0011896399 0.0035386356 0.0023936043 0.0017675826 0.0023778991 0.0009799656 0.0026244852 0.00012992378 0.000727391 0.0007574539 -0.003526179 0.0012638455 0.0027435706 -0.0027294832 0.00050459785 0.0014181235 0.0025416075 0.0024456808 -0.00053188065 0.0033582898 -0.0014231624 0.00051546417 0.0017127926 0.002786969 -0.0031128195 -0.0035455925 -9.686152e-06 -0.00296104 0.0032527756 0.0028604628 0.001920597 -0.0017983901 0.0029945027 -0.0034095948 0.0013137662 -0.0033458045 0.0014973169 0.002359708 0.00010356308 -0.0030414271 -0.0019893635 -0.003663069 0.0036675616 -0.0036655448 -0.0015042125 -0.0022904407 -0.0022164858 -0.0021694654 0.0024442899 -0.003391759 0.0005118696 -0.00091808476 -0.0013260158 0.00075032614 0.0022274833 0.002625407
110486 0.03394841 -0.092591435 -0.013158029 -0.019610923 -0.12707643 0.019136589 -0.10638611 0.023945136 0.06916042 0.049083002 -0.0011749907 -0.0984636 0.14491588 0.017068386 -0.03797504 0.07860454 -0.0026395298 0.062759615 0.026008967 0.019495023 -0.012868374 -0.030510303 0.0041799825 -0.005530631 -0.055783156 -0.17143501 0.072303794 -0.10493313 -0.08664241 0.12673186 0.11293923 -9.530608e-05 0.06890173 0.03893698 0.02064481 0.028231975 -0.004219111 -0.0331099 -0.060570434 0.03915701 0.020473313 0.10631371 0.077219404 -0.09469481 -0.031309538 0.095757894 0.17231534 -0.02332371 0.013455874 -0.06357813 -0.061988916 -0.0008747169 -0.07387614 0.05608532 0.06442442 -0.0239674 -0.1100983 0.037154485 0.080053136 -0.07206752 -0.03175623 -0.06236279 0.014771088 0.12753367 0.05716545 -0.069202304 0.08350775 0.08702159 -0.07752291 0.028203305 -0.10993373 -0.023190089 -0.08083157 -0.11705189 0.12423455 -0.083172776 -0.14870787 0.098977625 -0.058399763 -0.0030483932 -0.025458584 -0.09809943 0.09591038 0.0410252 -0.0015915206 0.041121237 0.095183976 -0.054298364 -0.010729322 -0.065762304 0.12356254 0.069443844 -0.07566413 0.05427784 0.016585737 -0.08097567 0.044846985 -0.03602381 0.024854306 -0.16465305 0.019463148 0.008516028 -0.02650021 -0.075334184 -0.04236687 -0.0928184 -0.06552917 0.04026146 -0.007138544 0.10672398 -0.02071985 0.07188363 -0.06803653 -0.05436129 -0.11785488 -0.06915342 0.024132071 -0.046461545 0.028587159 -0.13172755 -0.08224987 0.14413598 -0.001485425 -0.078872584 -0.052315 -0.025772724 -0.13361727 0.0728142
109879 0.026822113 -0.07770822 -0.014868689 -0.009301362 -0.10210874 -0.0028785928 -0.0810202 0.04128884 0.05603667 0.051406574 0.02737665 -0.05093695 0.0640391 0.009349798 -0.02266101 0.055749547 -0.015630316 0.048913836 -0.010913843 0.038589846 -0.022157757 -0.040981982 0.007148221 -0.0209366 -0.055308603 -0.12187099 0.05271641 -0.103967674 -0.041771494 0.08340338 0.08547308 -0.0035125434 0.06241184 0.027216978 0.0037514053 0.031595055 -0.025160953 -0.031338405 -0.05123932 0.046883382 0.022857344 0.09430658 0.040754568 -0.037259657 0.014963961 0.074884236 0.12136953 -0.047113333 0.008026517 -0.051705264 -0.03472219 -0.007611247 -0.05196201 0.030553445 0.016990906 -0.025541384 -0.10384035 0.011781905 0.054485846 -0.07020837 -0.07278848 -0.047062553 0.017000187 0.090513825 0.045228373 -0.002288315 0.050023377 0.045151208 -0.068608515 -0.0006996986 -0.07906447 -0.011512731 -0.050269537 -0.07608837 0.040349323 -0.05941607 -0.090175115 0.05298997 -0.037390955 -0.002831896 -0.024934132 -0.06137102 0.04767496 0.03396023 0.017280983 0.024639782 0.054693144 -0.055487882 0.016705427 -0.04621501 0.05880753 0.03313451 -0.047858898 0.049916226 0.0026733854 -0.026052307 0.02337047 -0.058103167 0.024004119 -0.104161866 0.030146055 -0.014432861 -0.039131388 -0.030263016 0.0005867167 -0.057844203 -0.060830146 0.044789664 -0.008990765 0.054212768 -0.012756616 0.042105112 -0.033761118 -0.014729103 -0.060436856 -0.055382747 0.0030042995 -0.01745437 0.024506435 -0.07004576 -0.091291815 0.07220052 -0.029784877 -0.062770344 -0.03289058 0.003099726 -0.07095366 0.021891693
109040 -0.007963835 -0.00037906272 0.02627186 -0.00042087623 -0.004838959 -0.035898756 0.018951066 0.009424012 0.006698281 0.0029859524 0.00068523607 0.025767095 -0.02300221 -0.01113767 0.010963638 0.0017460552 -0.0092876125 0.028513532 -0.016735978 0.018305548 -0.013677417 -0.0061291666 -0.005046923 -0.00871361 0.008054277 -0.01513946 -0.010918077 0.006710479 0.0059145456 -0.012414333 -0.00048254093 0.004153634 -0.0018215334 0.011257596 0.022279818 0.008843748 -0.02565535 -0.024593893 -0.012951647 0.006932033 0.007601962 0.0023299574 -0.03018167 0.00931235 0.008683214 0.010327295 0.0049146074 -0.019559963 0.013265896 -0.025165793 -0.00052336906 -0.0024634677 -0.0018545734 -0.010048171 -0.013225815 -0.014592818 -0.0065130577 -0.013092497 0.0038065258 0.0092147915 -0.009233858 0.004067136 -0.011704053 0.02015747 0.0014309292 0.023464452 -0.010189875 -0.02244452 -0.00018292667 -0.024694376 -0.023217091 0.007876791 0.016361922 -0.0053168866 -0.013376489 -0.009738368 -0.017370202 -0.012722079 0.013872225 0.010579073 -0.014217255 0.0011047085 -0.03814392 -0.0127131585 0.006702774 0.008439252 -0.01401508 -0.0038884564 0.0029786828 0.005354233 -0.02035914 -0.023312869 0.013752921 0.0104088 -0.0028164154 -0.00017616522 0.010070466 -0.025269821 -0.019002754 0.008515237 -0.008382895 -0.009165057 -0.0029520043 0.0032239095 0.004258897 0.0005570146 -0.016405541 0.023064284 -0.013241683 -0.012581523 -0.01875057 -0.018366432 0.012996036 -0.002468773 0.024156196 0.003161334 0.0051779263 0.011457859 0.0071049705 0.01748933 -0.014778104 -0.03611365 0.0059994534 -0.0016997602 -0.018553372 0.0056009516 0.012471535 -0.018247863
109586 0.10868961 -0.14978391 -0.21370347 0.027027434 -0.2093482 0.24202633 -0.30799952 -0.028860569 0.08326534 0.052684125 -0.0014824596 -0.30410913 0.32265767 0.049501568 -0.12462309 0.10766411 0.0019637777 -0.100077994 0.13679907 -0.03916704 0.04708299 -0.01679394 0.07998587 0.07994322 -0.25300518 -0.09468662 0.22711131 -0.21474698 -0.16846599 0.28005648 0.14575528 0.051232994 0.059986908 -0.07705451 -0.21807648 -0.03572208 0.18914707 0.09084485 -0.08422172 0.06431232 -0.009886922 0.10243575 0.29769573 -0.16387369 -0.020190874 0.024179801 0.21389063 0.061060708 -0.12935981 0.094619825 -0.08828718 0.005643478 -0.05017074 0.1061995 0.13776903 0.03388684 -0.24470003 0.12177116 0.06993392 -0.28389502 -0.09696939 -0.18838386 0.08358214 0.010183428 0.028564628 -0.13033327 0.20173173 0.27346423 -0.14844635 0.13347943 0.035009343 -0.037275266 -0.21561727 -0.06598175 0.2621449 -0.12397419 -0.13643564 0.12950683 -0.13485041 -0.14400336 0.02571761 -0.16013789 0.3394608 0.18605053 0.016287267 -0.009459037 0.16597436 -0.07519171 -0.07261301 -0.13988128 0.2263875 0.23303625 -0.1591557 0.05300528 0.014686277 -0.07039544 -0.04181034 0.11445868 0.14014588 -0.35585856 0.14481741 0.08255643 -0.013419463 0.030272884 0.0029937827 -0.16056216 -0.07637062 -0.09380725 0.14774057 0.2050885 0.17360026 0.21725558 -0.18763177 -0.03421201 -0.3966095 -0.17733814 -0.044844057 -0.050384644 0.032766175 -0.3095878 -0.023249162 0.36995286 -0.14410625 -0.015562494 0.11886215 -0.051315464 -0.24397728 0.060236316
110487 0.15882559 -0.2088617 -0.19892864 0.033920914 -0.17973334 0.26220655 -0.38129085 -0.039195303 0.109211184 0.010692549 -0.039326202 -0.3406199 0.4786449 0.06643479 -0.21484183 0.21839204 0.055414613 -0.085184425 0.13392812 -0.004189168 -0.012204913 0.0020993978 0.07314989 0.11488403 -0.32063642 -0.1200213 0.22894055 -0.24502638 -0.21871231 0.3373234 0.18455149 0.084129676 0.016200608 -0.0874403 -0.24399853 -0.03001693 0.19585535 0.026762035 -0.06392782 0.045908824 -0.057779696 0.15552191 0.33936846 -0.27357137 -0.08479551 0.05430166 0.27435228 0.020072136 -0.13268487 0.083378576 -0.12657236 0.051039957 -0.06716982 0.099939406 0.22931272 0.0010957146 -0.2743083 0.15303956 0.14586042 -0.30545872 -0.03356159 -0.17021388 0.06579113 0.06214359 0.08135473 -0.21775948 0.20208701 0.40424308 -0.1269046 0.19656934 -0.019115608 -0.05398775 -0.25578845 -0.13881221 0.40491867 -0.10055452 -0.167544 0.22555101 -0.1146796 -0.15745474 0.07179805 -0.17617798 0.44949174 0.22350864 0.022525264 -0.0042128004 0.28803247 -0.0509158 -0.100500345 -0.21656798 0.28450164 0.2872525 -0.250891 0.056396767 0.05655096 -0.18099405 0.054342575 0.09068665 0.14043085 -0.5495262 0.1401422 0.03325875 0.010083387 -0.029560082 0.01170171 -0.21960759 -0.057357106 -0.046002425 0.18218884 0.25848266 0.20171282 0.3383699 -0.22084276 -0.076388426 -0.5470156 -0.16442588 -0.027558792 -0.057071738 -0.028466478 -0.38675192 -0.0077971416 0.41802916 -0.052793354 -0.043959774 0.16101302 -0.020309515 -0.34771353 0.0719283
110155 0.09541832 -0.17111374 -0.031334 -0.016702441 -0.3474331 -0.10931054 -0.23916747 0.13608827 0.22684987 0.33086854 0.18936314 -0.1197351 0.09366577 -0.031631395 -0.0141773 0.18812506 -0.04306598 0.22458273 -0.059073154 0.11953279 -0.11348683 -0.22310999 0.07755553 -0.07503907 -0.12366838 -0.4925428 0.16129413 -0.36899647 -0.042266726 0.18927382 0.24382731 -0.020384878 0.2490308 0.10933218 0.07757316 0.12898487 -0.1728704 -0.098436005 -0.2196877 0.24866909 0.15789357 0.27943668 0.08655272 -0.056813627 0.13045737 0.23446487 0.39069274 -0.16672608 0.12131093 -0.1922994 -0.106115185 -0.100780025 -0.21180679 0.09112869 -0.06786231 -0.0755208 -0.42331406 -0.022783497 0.1748608 -0.32053986 -0.41931704 -0.13093233 0.053499535 0.33744985 0.13634345 0.15844774 0.13014983 0.07154273 -0.2732556 -0.023432374 -0.32801244 0.015057442 -0.13986738 -0.24241935 -0.015470749 -0.26237184 -0.33924812 0.12547071 -0.11152279 0.02236484 -0.08431843 -0.22178157 0.032210037 0.09456381 0.099110596 0.11101428 0.017823167 -0.3208313 0.09786039 -0.0868852 0.16655262 0.06702587 -0.050600857 0.1590258 -0.017833319 -0.029313643 -0.011998843 -0.24094729 -0.0060528065 -0.20907173 0.12108355 -0.048830047 -0.18207674 -0.0694116 0.099865526 -0.13530868 -0.2768249 0.22622636 -0.12679681 0.10809103 -0.0970228 0.034544066 -0.04859754 0.03589624 -0.062280316 -0.27004135 -0.06855449 0.09962216 0.12485739 -0.1362491 -0.39630863 0.113116056 -0.21339087 -0.17969052 -0.1392697 0.012427387 -0.17653035 -0.0026061689
110027 0.04183408 -0.11893088 0.053105745 -0.040916234 -0.34029233 -0.12269625 -0.19872016 0.11777074 0.16551922 0.21644297 0.13379475 -0.11912936 0.06371609 -0.0666462 -0.03331248 0.08444608 -0.14561959 0.20319173 -0.045726765 0.1515019 -0.09988347 -0.17607446 0.049142953 0.021005206 -0.2500197 -0.27208823 0.20002781 -0.3558891 -0.07915001 0.16661854 0.22741942 0.10834229 0.24970835 0.06654861 -0.04747908 0.068851106 -0.059470445 -0.060545616 -0.2837141 0.18436359 0.16143528 0.1500597 0.07098451 0.024635138 0.17050165 0.23863208 0.3378798 -0.22249685 -0.0068336218 -0.09778444 -0.04422231 -0.059400253 -0.10523008 0.111721866 -0.1285071 -0.026319701 -0.39235944 -0.090073 0.027464682 -0.40548864 -0.5204564 -0.2908033 0.097440735 0.18870577 0.051239654 0.1805817 0.1555611 0.09044596 -0.30831763 -0.1022492 -0.25447682 0.0016197042 -0.17839965 -0.13470419 0.015311022 -0.22545905 -0.31711805 0.046946086 -0.028464662 -0.06860817 -0.17799877 -0.18213698 -0.0048751594 0.12546673 0.10610702 0.08494775 -0.00012745407 -0.20665874 0.008047836 -0.19615938 0.07400851 0.0062640985 -0.04664549 0.25658986 0.040772658 0.054494023 -0.060293164 -0.18480176 0.2199557 -0.2975855 0.11213385 -0.04763098 -0.11695162 0.13133596 0.10353221 -0.108055495 -0.30041304 0.082236804 0.062227044 0.064006746 -0.024017198 0.10916143 -0.1327189 0.050460506 -0.17946087 -0.2542212 -0.10600339 0.07446597 0.18345267 -0.16298111 -0.33131135 0.20512822 -0.19362994 -0.113158815 -0.15901758 0.023732724 -0.19805177 -0.052362755
109016 0.015893761 -0.016827097 0.026732331 0.004169855 -0.06364256 -0.044305664 -0.01307318 0.023726754 0.037625715 0.016958654 0.022346703 0.0077431123 0.02322927 0.0016661887 -0.0051828497 0.05307039 -0.019505808 0.07593322 -0.011802242 0.05935756 -0.04633446 -0.044246156 -0.014233745 -0.038842313 -0.008752774 -0.080575235 0.00013159197 -0.036195338 -0.015551745 0.030651558 0.029117025 0.0051648323 0.023555344 0.023522403 0.03732458 0.03204111 -0.048907448 -0.059755705 -0.042264834 0.035121165 0.01981638 0.053629473 -0.0305031 -0.021749988 0.012398653 0.05059732 0.074338876 -0.06266973 0.022335302 -0.05866203 -0.01578847 0.0018468018 -0.033732057 -0.002144182 -0.006452496 -0.03556607 -0.052726742 -0.01449746 0.03435228 -0.020728512 -0.046673007 -0.010511996 -5.255943e-05 0.0789366 0.03657664 0.02609358 0.010757111 -0.0032707416 -0.02726942 -0.017689763 -0.075944275 -0.0043978025 0.0050678113 -0.051982146 0.0049337805 -0.028643668 -0.072730534 0.012723614 0.014295628 0.01600039 -0.04698211 -0.020962168 -0.018925704 -0.0068881027 0.012632366 0.025341704 0.0017072472 -0.039358664 0.013132918 -0.0078415545 -0.0047322363 -0.010699541 -0.004598721 0.035977382 -0.0006544345 -0.021553399 0.031268492 -0.08412333 -0.01897363 -0.0531198 -0.0061833085 -0.03343794 -0.019574376 -0.026766568 0.01223559 -0.010776301 -0.052552078 0.04392584 -0.028600913 -0.0006404772 -0.030820534 0.012985729 -0.009332778 -7.7104516e-05 -0.00804817 -0.02357551 0.013387247 0.012412603 0.005610322 0.0023344401 -0.06310638 0.002978354 0.0028599133 -0.035104934 -0.034101628 0.0018808595 -0.03311672 -0.01695542
110427 -0.006854208 0.009837071 0.03751809 -0.002199615 -0.008180678 -0.035707768 0.020057846 0.0049630273 0.0041760686 0.0057411003 -0.0004991785 0.030284787 -0.014336425 -0.008260005 0.004523893 0.009093665 -0.0063372445 0.041242592 -0.015080069 0.035093047 -0.02156799 -0.009905962 -0.020150352 -0.011196528 0.006092568 -0.016894555 -0.02081463 0.00422708 0.009829292 -0.015771177 -0.003691661 0.0099752145 -0.0041601546 0.015322681 0.029045379 0.015456184 -0.028088007 -0.03120624 -0.014235608 0.014973376 0.006296808 0.0064490014 -0.034188602 0.009254501 0.009438959 0.015896454 0.0023464523 -0.03217997 0.014299791 -0.02586894 -0.00072229333 0.0027394686 -0.005371559 -0.009555929 -0.016816894 -0.012316061 0.004636186 -0.014264453 0.005446318 0.010891534 -0.018412951 0.006650251 -0.011726956 0.01735889 0.012921757 0.022512969 -0.013340921 -0.028452653 0.0027778887 -0.017483234 -0.03496111 0.0033917427 0.014113881 -0.011326479 -0.009285899 0.0015841917 -0.018747937 -0.009889557 0.02200279 0.017821325 -0.014775108 0.004631094 -0.043686107 -0.012403444 0.014300267 0.01198934 -0.019964686 -0.006966272 0.0087997895 0.0012790308 -0.019671828 -0.017283505 0.012073745 0.010268496 0.0048896074 -0.0012562802 0.00898498 -0.03766113 -0.010885939 0.006620052 -0.020306978 -0.018533427 -0.010798705 -0.00029520947 0.0029313345 0.0035174086 -0.013728113 0.020439591 -0.016750975 -0.0189376 -0.014914971 -0.008234718 0.000905206 0.0038234533 0.016934596 0.011871353 -0.0001462199 0.014222613 0.00718164 0.019165017 -0.013086646 -0.032529924 0.0151718175 -0.009370692 -0.024423668 0.0012895546 0.003066083 -0.015487343
110488 -0.0032436154 -0.0037415633 0.003451714 0.0018690093 0.00025274642 -0.0038433848 0.003461184 0.0031823344 -0.0028034353 0.0005843479 0.0016916005 0.002040746 0.0014821197 -0.0021574602 7.362113e-05 -0.002599492 0.0024134365 -0.0027738474 -0.0035582567 0.002051238 0.0017474801 -0.0021634714 -0.002729212 0.0023206607 -0.0017661289 0.0020951326 -0.003250834 0.0037309183 0.0029565692 0.0019695656 0.0003653089 -0.003367981 0.0016737834 -0.0034634103 0.00015454234 0.00036840988 0.0029273578 0.00091842015 -0.0030928836 -0.000403687 0.002842652 -0.0017557814 -0.0024438037 0.0032464112 0.0037298712 0.0010478251 0.003818704 0.0013058322 -0.0026237874 0.0034591507 0.0020502203 -0.0018797986 -0.0021537894 -0.0003674156 -0.0014562819 -0.002620516 -0.0008710722 0.00043781733 0.00047420303 0.0004976188 -0.0017546413 -0.00056276156 0.0032440212 0.0012895393 0.0009201946 -0.0013940997 0.0012237685 8.644951e-05 0.0013966738 -0.0033521422 -0.0003265602 -0.0019848307 0.00089134177 0.0023072958 -0.0005336988 0.0027893449 0.0011022611 -0.0024812918 -0.0031238839 -0.0037815226 0.0035042965 -0.0025698594 -0.00039978325 -0.003423895 -0.0021498234 0.0014926561 -0.001101389 0.0017615125 0.0010754435 -0.0025936784 0.0031104158 -0.0019219413 0.002514228 0.0024209518 0.0031776605 0.0023924957 -0.0021186925 -0.00012353153 -0.0013052488 0.0028618588 -0.00048996246 0.0015183352 -0.0025822746 -0.00020954708 -0.001454675 0.0010039238 -0.0020719601 0.0015623139 -0.00045754077 -0.0008089677 0.0011596181 0.0024505511 -0.00012838334 0.0031679268 0.0018401997 -6.8525405e-05 0.002362482 -0.0013456284 0.00030439085 0.0024085853 -0.0032973173 0.0034654827 -0.0003426986 0.0011238266 -0.00038241295 0.0010039166 -0.00037990822 2.991247e-05
109489 0.04028639 -0.06837441 -0.036483485 -0.0035353869 -0.1142174 0.05095982 -0.09923804 0.0073175314 0.054221902 0.054254316 -0.0013715667 -0.07518687 0.10958554 0.00018655119 -0.028546043 0.053576592 0.0056704665 0.03218597 0.029092738 0.018083623 -0.0058463896 -0.020981617 0.01928527 -0.009877609 -0.05785608 -0.12949777 0.06428607 -0.09710348 -0.06870972 0.11742929 0.079029776 -0.014232884 0.05429699 0.0133382315 -0.007268845 0.015836965 0.0137698455 -0.002933837 -0.050647557 0.040562175 0.02423262 0.07942005 0.08904899 -0.057865605 -0.013618089 0.063184164 0.118139215 -0.016076408 -0.0054576807 -0.022824243 -0.037390932 0.005315464 -0.05417239 0.032946244 0.046091467 -0.016427951 -0.08925343 0.02656173 0.054584138 -0.062508784 -0.050847955 -0.043561727 0.02504256 0.09959403 0.045951474 -0.042247705 0.07146454 0.060997047 -0.07906639 0.03193844 -0.07393504 -0.025300262 -0.06227253 -0.08278472 0.08137062 -0.06061549 -0.09614675 0.06079986 -0.05847661 -0.009918841 -0.012349216 -0.07490875 0.08901775 0.037026305 0.015354875 0.00935073 0.07094395 -0.049420297 -0.0047951196 -0.048424866 0.093121454 0.05498676 -0.06504831 0.030479187 0.012878265 -0.05752557 0.007026677 -0.017532965 0.03842152 -0.120735444 0.028503526 -0.0014500569 -0.038434044 -0.0475567 -0.006324327 -0.06250191 -0.048254624 0.013840411 -0.0039390638 0.08708464 -0.0056386935 0.06799047 -0.04620166 -0.027695067 -0.10253247 -0.06298877 0.00072564837 -0.016260829 0.014298179 -0.09552955 -0.07204924 0.121495806 -0.031565394 -0.062813655 -0.03230046 -0.009310758 -0.10801557 0.056634013
109272 0.031878866 -0.07317455 -0.025761174 0.008271264 -0.082058564 -0.011808983 -0.06348148 0.036058452 0.041047603 0.039439958 0.027852574 -0.024765009 0.049322337 0.01716136 -0.009971934 0.04117406 -0.015284241 0.037753083 -0.0038769462 0.046738848 -0.040622868 -0.052711897 0.017908024 -0.030276604 -0.049549785 -0.088407025 0.038877692 -0.08583203 -0.041066837 0.06623242 0.06386625 0.0144368615 0.0464496 0.006406364 -0.019250432 0.026437977 -0.028452676 -0.03896708 -0.04110663 0.04647942 0.011135959 0.074564435 0.024433529 -0.042448655 0.024589462 0.039840054 0.10856197 -0.048742995 -0.007278519 -0.040147576 -0.022808308 -0.010949645 -0.04498889 -4.1731357e-05 0.0050288043 -0.034299653 -0.09885266 0.027868643 0.04125003 -0.06059501 -0.06855788 -0.04056452 0.006524417 0.07105171 0.046376005 0.007076061 0.028838998 0.04849884 -0.06675968 0.0034621912 -0.055774927 -0.010403561 -0.03046226 -0.056345496 0.014383322 -0.04484114 -0.053199142 0.028085487 -0.014419388 0.0010112554 -0.022356965 -0.03394201 0.037804946 0.035628445 0.011695578 0.022384036 0.037640773 -0.054420523 0.015459166 -0.035596546 0.018076358 0.021763127 -0.035858788 0.05001901 -0.0028478394 -0.025001897 0.015913514 -0.06245167 0.012325176 -0.08845354 0.034672115 -0.021342004 -0.020511312 -0.020051766 0.025175301 -0.03747539 -0.06492115 0.028602667 -0.007323918 0.03893657 0.0041817212 0.03971541 -0.021110483 0.0005752629 -0.059275337 -0.051499724 0.0024971217 -0.0053062984 0.011097922 -0.037478782 -0.084278144 0.051684406 -0.031096954 -0.033732742 -0.009401357 0.0010480827 -0.05293114 -0.0013028793
110336 0.017610742 -0.027392449 0.012235458 0.0025120485 -0.08566007 0.0055863224 -0.050609466 0.008972768 0.052316036 0.03429405 0.0052754995 -0.026386565 0.060562555 -0.001951979 -0.031515125 0.06549289 0.006016083 0.067454934 -0.007745671 0.051619317 -0.036213417 -0.023130747 -0.017445127 -0.03237446 -0.027162943 -0.11272335 0.027048463 -0.07798502 -0.031516243 0.0713156 0.06694117 -0.020983644 0.03234745 0.025605148 0.030715678 0.036019944 -0.020870805 -0.03452542 -0.05035274 0.041778844 0.014729362 0.07257955 0.03258564 -0.03183592 -0.019859662 0.06857162 0.07372943 -0.047945946 0.020968562 -0.036714435 -0.02442118 0.0057318592 -0.030133927 0.012167307 0.02783434 -0.032314952 -0.06698553 -0.021380102 0.04977224 -0.03247718 -0.034753345 -0.014383009 0.019265424 0.11045238 0.044526685 -0.013010049 0.040054448 0.020800052 -0.037022978 0.006618495 -0.1021001 -0.023796055 -0.03217713 -0.09233873 0.05632955 -0.03718674 -0.09494215 0.05597268 -0.03157461 0.016553337 -0.020869305 -0.048441824 0.030807659 0.013722582 0.03440643 0.021425785 0.035476375 -0.033447243 0.005503192 -0.037188724 0.053474456 0.030690841 -0.037103694 0.029956782 0.016857915 -0.05577167 0.021679085 -0.06917553 0.019270778 -0.1150401 -0.0053519728 -0.025735484 -0.03429618 -0.033511005 -0.0052916673 -0.032742538 -0.038869273 0.044348244 -0.014476232 0.046768483 -0.02277135 0.049942162 -0.02731095 -0.017430367 -0.06067839 -0.027012134 0.0025365155 0.0056963474 0.005245191 -0.051949114 -0.07492665 0.06298148 0.01693845 -0.08021218 -0.048123326 0.00147424 -0.09518817 0.0275094
108957 6.301726e-05 -0.00066685316 -0.0007157039 -0.003777501 -0.00024028795 2.5228626e-05 -0.0038672932 -0.0018973323 -0.0035985075 -0.0029778974 -0.0026026855 -0.0034914685 0.000520319 0.0010603016 -0.00060399587 -0.00067143154 0.0032122636 0.00021647301 -0.0027083107 -0.0023685738 0.0024046747 -0.0024024793 0.0009688991 2.508184e-06 0.00059935666 0.0023254286 -0.00083437585 -0.00023800715 -0.0016343609 0.001341809 0.00313062 0.0027582126 0.002132917 0.0013157591 0.0027208216 -0.0030119063 0.0037373162 0.00017963558 -0.0018204267 -0.0019580927 -0.0028956349 0.0024815341 0.0029014756 -0.0025588481 -0.0026725922 0.0017548987 -0.00050748617 0.00031294767 -0.003830104 0.0022117677 -0.0028104403 -0.001143916 0.0015434226 -0.00015178972 -0.0023920557 -0.0034861416 0.0017964474 -0.0027218952 -0.003434715 -0.0031784424 -0.0028611757 0.0037252475 -0.0021217936 -0.00357059 -0.0026261439 -0.0027810654 0.00025630274 3.4488396e-05 0.0002979654 -0.003781899 -0.0031327899 0.0018819062 0.0024241244 0.0001722627 -0.001721756 -0.002911191 -0.0024033866 -0.003518172 -0.0004701851 -0.00028713632 0.0023259178 -0.00044082163 -0.002873793 -0.0006787303 0.003816248 0.0033932468 -0.00045364935 0.0011203397 0.002078343 0.0026159172 -0.0008972496 -0.0038236591 0.003856001 0.0031706241 -0.0015200219 -0.0022960645 -0.0022761712 -0.0008282073 0.00057180005 -0.0036637972 0.0034308534 0.0014293962 -0.002213184 -0.0022833692 -0.0032750585 0.003670499 0.0012196018 -0.0014052849 0.0011825812 -0.0022670114 -0.001973609 -0.0024924222 -0.0038212927 -0.0006674025 -1.828273e-05 -0.0025047355 -0.0011206697 -0.0016707336 -0.0016115187 -0.001739814 -0.0007873755 0.0006159112 0.00014073605 -0.0021369287 -0.0028919363 0.0031117422 -0.0015990841 -0.001576434
110489 0.0013870947 -0.00039752558 -0.0029932826 -0.0032125427 -0.002693352 -0.0031913486 -0.0015957762 0.002841405 -0.0026489692 0.0014860102 0.0015557705 -0.0010965181 0.00077730115 -0.0027007891 0.0024590755 0.0026555348 0.00049413525 -0.0029242316 -0.00019545191 0.0028117828 -0.0008741885 -0.0021473633 0.0015204082 0.0032215354 0.002044558 0.0024553589 0.0026842798 -0.00050573633 -0.00069771166 0.0028938414 0.0037969903 -0.001897544 -0.00019012115 -0.0003176871 0.0006494554 -0.001916517 -0.001864872 -0.001408011 0.0010409665 0.0025722734 -0.0019332713 -0.0026364631 0.0016582261 -0.0031469273 0.0019739172 0.002597899 0.0027516617 0.0029238663 -0.00029419395 -0.0025534509 0.0017937556 0.0013480961 0.0023026539 -0.001582407 4.687677e-05 0.000709034 -0.0009172116 0.0032127812 0.0019935532 -0.0010627749 -6.875284e-05 -0.00083477574 0.0025464073 -0.0025294018 -0.0014445701 -0.00019311243 -0.002059704 -0.001677789 -0.0037470167 0.0005198043 -0.00045013506 0.0023603365 -0.0030308017 0.0014446982 -0.0011740349 -0.0028242373 -3.092807e-05 -0.0038727163 0.0036005895 -0.0015840416 -0.0029596258 -0.0012214796 0.00017279988 -0.0016324163 0.0023937512 0.0023309144 -0.003799636 0.0034457478 0.002050729 -0.0009100694 -1.0916896e-05 0.002686876 -0.0015987286 -0.00089004426 0.0015882838 0.0012978474 0.001890368 0.00384081 0.0017861213 0.00036015915 -0.0001739489 -0.0001866197 -3.3455068e-05 0.0024697604 0.00055139384 -0.0032939834 -0.00037492215 0.0033249094 0.0010994026 -0.0030829408 0.0032019946 0.0001330923 -0.0001886026 0.0030008114 0.001412407 -0.0017350987 0.0029688159 -0.00026661644 -0.00062643975 -0.0026729268 -0.00052382215 0.0036804727 0.0025505866 0.002703171 0.0008522404 -0.0007809419 -0.0026565427 0.0013334142
110490 0.12001986 -0.18518929 -0.2100696 0.017173395 -0.1885636 0.21309036 -0.28438827 -0.031347074 0.08223844 0.026364159 -0.01339178 -0.24478132 0.33724365 0.051388267 -0.08691307 0.11328224 -0.013494995 -0.07740059 0.15232038 -0.022041388 0.012262465 -0.042882614 0.092331804 0.07044148 -0.2265143 -0.11255006 0.18922749 -0.17642026 -0.19590002 0.2850908 0.12759802 0.06878391 0.043466467 -0.0656514 -0.19435711 -0.02232512 0.14065345 0.033119813 -0.04316231 0.0521753 -0.019187279 0.11030331 0.2567537 -0.21558034 -0.009781231 0.0199431 0.25596893 0.03455973 -0.12127555 0.05272202 -0.08394082 0.0017550853 -0.08545745 0.07682569 0.13799551 0.011956203 -0.21352108 0.16147389 0.09710078 -0.22342177 -0.069706745 -0.15364565 0.040029835 0.029727103 0.07219312 -0.1403116 0.17744455 0.26787078 -0.1485325 0.13342331 0.023782626 -0.03984388 -0.17037728 -0.07243034 0.23531392 -0.10318452 -0.1194923 0.11075765 -0.08644607 -0.12542218 0.032349266 -0.13370599 0.3416982 0.1713568 -0.026768584 -0.0061061825 0.20365782 -0.08157833 -0.08194314 -0.12427628 0.17758825 0.20088859 -0.1832392 0.07174483 0.0068530734 -0.10330642 -0.015323583 0.10524774 0.09966994 -0.30254385 0.13690469 0.053552143 -0.004535246 -0.037107084 0.014734581 -0.15047002 -0.090883896 -0.08713638 0.105502024 0.20636629 0.14824015 0.22815697 -0.15365271 -0.043499302 -0.3840585 -0.14542283 -0.018996874 -0.069425434 0.012007918 -0.273595 -0.0047901836 0.3189398 -0.121563345 -0.0044341907 0.13035941 -0.042000722 -0.21390983 0.064613126
110491 0.07221146 -0.16537327 -0.13806435 0.022573845 -0.13934556 0.17871773 -0.25130552 0.0002687953 0.055512186 0.036064155 -0.0104725445 -0.23667218 0.30051133 0.0637116 -0.124433324 0.12970445 0.03429383 -0.05533352 0.0799928 -0.009102738 0.00036825542 0.0021602074 0.043812934 0.0467141 -0.21049014 -0.0936502 0.16817476 -0.18134108 -0.13618103 0.25974965 0.15674262 0.034567416 0.026398838 -0.0459981 -0.14746393 -0.037905097 0.12171855 0.030462706 -0.063055016 0.058115527 -0.040603355 0.120660834 0.23295197 -0.16145916 -0.038995717 0.033570416 0.18536435 0.037853498 -0.09538981 0.04664289 -0.07672115 0.0073708724 -0.049250457 0.089796044 0.1328187 0.0025540125 -0.19490112 0.118232995 0.10255224 -0.20402224 -0.02490455 -0.12167476 0.04025978 0.06422669 0.053113095 -0.13885829 0.15090734 0.24550518 -0.08908696 0.112849325 -0.02237319 -0.033251617 -0.17795643 -0.10916032 0.24909692 -0.0931863 -0.1336142 0.13865227 -0.09891886 -0.098473795 0.038410597 -0.13518287 0.29081506 0.14940555 0.01618034 -0.003462863 0.17831536 -0.043608416 -0.06460946 -0.13665107 0.20075367 0.18232192 -0.16731405 0.051164575 0.009553438 -0.11768255 0.03816293 0.059777334 0.103066415 -0.35565734 0.09299113 0.03449561 -0.010901782 -0.015834428 0.003650071 -0.16269282 -0.050191678 -0.034065746 0.106236756 0.17535743 0.13290837 0.2064602 -0.14208865 -0.05192133 -0.33768198 -0.103414826 -0.009667027 -0.059359476 -0.003128838 -0.25565967 -0.020654274 0.28802118 -0.053859845 -0.043268085 0.105709985 -0.041419208 -0.21234158 0.06716135
110492 -0.010688965 0.014363023 0.028268475 0.0051432867 -0.010220551 -0.03800808 0.01992899 0.010451545 0.0110477125 0.0043137884 0.013175652 0.021375358 -0.021096267 -0.013830884 0.0046089613 -0.002822145 -0.023591988 0.026991505 -0.014914857 0.016962675 -0.016288444 -0.0141214235 -0.0030492675 -0.0072775315 0.007901666 -0.007338655 -0.011860204 0.0022092632 0.02079555 -0.019528847 -0.003625339 0.01608826 0.0060986774 0.0062173745 0.01550391 0.009492327 -0.030168174 -0.02317281 -0.009865995 0.0034194018 0.016348876 0.004532389 -0.036357384 0.016394543 0.024342373 0.013263614 0.0031087748 -0.021889858 0.019382864 -0.024995616 -0.00062146987 -0.006302721 -0.0052845404 0.0016417808 -0.028904213 -0.010559976 -0.0060456144 -0.018555548 -0.0049417904 -0.006860733 -0.028623112 -0.0014881818 -0.0039434154 0.009235237 0.0064318813 0.037490807 -0.009338881 -0.023547776 -0.0055772 -0.018378485 -0.016353512 0.004915037 0.009021802 0.0019872596 -0.026135365 -0.0046617654 -0.01761882 -0.012546941 0.021526325 0.005069683 -0.0196356 -0.0014426467 -0.044683505 -0.008499909 0.0050322916 0.008941299 -0.023134483 -0.01309161 0.008265454 0.007487525 -0.031280417 -0.017195862 0.013814915 0.018613432 0.0074393447 0.014687879 0.001107359 -0.031568374 -0.0054063443 0.018328853 -0.010884092 -0.01976061 -0.0067344317 0.008324688 0.009653857 0.012199018 -0.0151350135 0.014173782 -0.009361951 -0.025094336 -0.019388454 -0.012369745 0.0075504226 0.009472971 0.026015427 -0.0032218224 -0.0043980908 0.014222763 0.013719885 0.019985272 -0.01746268 -0.04163152 -0.010596497 0.000117459305 -0.015791755 0.010323707 0.022378081 -0.020895615
110493 0.0012686666 0.015443574 0.03371722 0.005341156 -0.007809348 -0.04633954 0.019186852 0.006661457 0.007794327 0.0049518263 0.011032426 0.03517823 -0.01936909 -0.014045894 0.006457286 0.009573999 -0.021957135 0.048925474 -0.005872906 0.039257556 -0.030377788 -0.024030434 -0.008880714 -0.0128640635 0.014991407 -0.020681301 -0.015155417 0.00379259 0.0053299405 -0.025393173 -0.014102555 0.016733378 -0.000682728 0.0017725225 0.029130684 0.027574355 -0.034535896 -0.035122756 -0.008092456 0.011748439 0.016726557 0.0058394982 -0.04487401 0.006709318 0.01860301 0.016056078 0.019975834 -0.033940867 0.029115872 -0.026446886 0.008677675 0.0032989043 -0.012612396 -0.0044525242 -0.025859222 -0.024552012 -0.002293439 -0.018333383 -0.0017767643 -0.0004282023 -0.026577009 0.0062710997 -0.0060442607 0.013253801 0.015513954 0.041586444 -0.017135605 -0.026093835 -0.0049590524 -0.0220961 -0.032288194 0.0053528533 0.021226164 -0.014119866 -0.028328693 -0.0019422275 -0.020648118 -0.018881679 0.037396897 0.009897586 -0.03427463 0.005565952 -0.041644845 -0.01658725 0.007000677 0.013509011 -0.022592198 -0.021878384 0.008842812 0.0047574197 -0.032359097 -0.025717212 0.014269821 0.015024986 0.0009786882 0.0092944745 0.0046482575 -0.04617001 -0.020447055 0.00688708 -0.0034216747 -0.018854793 -0.0038306639 -0.005700985 0.014357736 0.010603304 -0.026767997 0.027306704 -0.017367253 -0.02831697 -0.026431015 -0.017105652 0.002138436 0.007108832 0.026250338 0.0003665188 -0.0038260869 0.020376334 0.0056419955 0.024378765 -0.01810045 -0.044213317 0.0027957347 -0.0035406237 -0.015940242 0.0053566713 0.011537927 -0.033726253
110494 0.002900271 -0.0015179195 -0.0034783394 -0.0015945418 -0.001934777 -0.0017175016 0.0005358724 0.0021478417 -0.002783554 0.0026756541 0.0027504333 -0.00021199413 0.003735512 -0.0009810949 0.0028095266 -0.0025895515 -0.0033263485 0.0026852211 -0.0005147006 5.2570886e-05 -0.0025786783 0.0019315387 0.0030724956 0.0015742626 0.00015802999 -0.00309747 0.0038292343 -0.0033886149 0.0031854794 0.00049142854 -0.0038984986 -0.0014142309 -0.00035382333 -0.0033031001 0.002558769 0.00088772055 0.0022172926 0.0036499286 -0.00068583473 -0.0013200035 -0.001904288 -0.0011980642 -0.00057940284 0.0030695838 0.002711452 -0.00035203542 -0.0035779888 -0.0010923147 0.0018051885 0.0036897515 0.0015389904 0.0036828627 -0.0032304365 0.00049541023 0.00017569942 0.0031469257 0.0014299529 -0.0023088714 0.00014946055 -0.0016089646 0.0036151037 -0.0019588752 -0.0032367036 0.0025687634 -0.0016814636 -0.0033466239 -0.0028262702 0.0029370824 -0.0023488193 0.0033984042 -0.0022811913 0.0017130305 0.0031531865 -0.0010005098 0.0021951622 0.0004268149 0.0016974944 0.0037304615 -0.0026765927 -0.0031376423 -0.0018308449 -0.0006711541 0.003786472 -0.0012805308 0.00073753134 -0.00093124213 -0.002584445 0.0032983606 -0.0032677008 0.002462774 0.0005946235 0.002913223 -0.0024790065 0.0022368345 0.001997055 0.0010331308 -0.0018785226 3.2919397e-05 0.0036219228 -3.7040813e-06 0.001579753 -0.0011617218 -0.0036183707 0.0010108786 0.0029555964 0.0010383106 0.00271986 0.0032939464 0.0005499294 0.0025977846 -0.0018091307 0.0016616635 0.00032696815 0.0035030385 -0.00065442565 0.0036628076 8.946625e-06 -0.0035951338 -0.002148651 -0.0014916682 0.002920115 0.0005671055 0.0035861013 0.0031995613 -0.0017187214 -0.0004559131 -0.0021459053 0.0033644042
109864 0.096363954 -0.18227854 -0.22403185 0.007272745 -0.16652064 0.30491385 -0.31850207 -0.08350984 0.12357916 -0.021736749 -0.08752406 -0.2889159 0.46817988 0.095366865 -0.20240755 0.2266299 0.10134201 -0.08361738 0.15058608 -0.0035028667 -0.02017773 0.0034908822 0.027725907 0.089843884 -0.31480217 -0.16092135 0.1697067 -0.2530853 -0.22521521 0.3718646 0.20794408 0.010392933 0.016659934 -0.07937399 -0.21707278 -0.050359037 0.19115196 0.05922687 -0.044678107 0.03698649 -0.080789536 0.15922838 0.34764603 -0.23896119 -0.119041875 0.05905335 0.20694533 0.0057587037 -0.15144165 0.1062047 -0.14922425 0.07736208 -0.039730065 0.0792003 0.23955543 0.02022481 -0.18714438 0.14928226 0.19596834 -0.19119142 0.0197252 -0.17535143 0.03537259 0.08218365 0.09861057 -0.27569434 0.17476398 0.3396849 -0.10472889 0.23755808 -0.04140213 -0.07022403 -0.24877052 -0.15299492 0.38725296 -0.043547153 -0.14808194 0.2480105 -0.18400003 -0.11302956 0.12409444 -0.17409724 0.46396726 0.17240626 0.04616346 0.012295392 0.27485555 -0.006214863 -0.101084664 -0.19810614 0.3118501 0.2861742 -0.26550528 0.0314216 0.047749266 -0.21820472 0.07614645 0.09103225 0.15479772 -0.5438865 0.09141515 0.014417972 -0.006400761 -0.095776506 -0.012632899 -0.14891247 -0.008789214 -0.024606932 0.17437173 0.30119777 0.23753412 0.37903205 -0.18107867 -0.0730532 -0.5748468 -0.16346782 -0.007729312 -0.040625002 -0.04023525 -0.34590933 -0.010373209 0.43109494 -0.0042655542 -0.070433535 0.12756617 -0.027379282 -0.3936977 0.13675426
110495 0.13949575 -0.17724918 -0.16397129 0.05261212 -0.16685718 0.2381692 -0.25687215 0.030598197 0.061391357 0.020266792 -0.06619152 -0.19893707 0.34751013 0.0757156 -0.16597463 0.19568063 0.15624355 0.006019052 0.028014725 -0.0005926761 -0.03917195 -0.012612559 0.016806677 -0.020464256 -0.15998994 -0.09300193 0.12572971 -0.22719193 -0.16632931 0.34576568 0.18823892 -0.02431583 0.046919882 -0.025989743 -0.16881205 -0.03659647 0.13278276 0.0008279386 -0.078232065 0.036292173 -0.08879073 0.13443488 0.26629376 -0.20757778 -0.14935803 0.010254613 0.20279653 0.008296932 -0.11656251 0.032967247 -0.09257424 0.04986591 -0.09056228 -0.044044446 0.20306209 -0.018444508 -0.21334708 0.13692266 0.17137721 -0.119174264 0.06470547 0.0017211558 0.027347147 0.23273027 0.11247518 -0.21522738 0.14947669 0.24884416 -0.07755704 0.15420276 -0.11772664 -0.06468546 -0.15234119 -0.19179699 0.3387579 -0.08768238 -0.15446289 0.23115791 -0.18013945 0.017574387 0.109463 -0.16579768 0.31611618 0.147375 0.048974805 0.056118086 0.18242684 0.0006380248 -0.06938515 -0.076913066 0.24683684 0.2005635 -0.1909213 0.008766444 0.007825861 -0.22352687 0.09292619 -0.023205457 0.08375113 -0.50966483 -0.014227704 0.009124707 0.004209755 -0.07465002 -0.018600116 -0.17032589 0.0035861048 0.01878377 0.10248285 0.23672134 0.14051662 0.30277744 -0.14324997 -0.08551145 -0.39189807 -0.09398107 0.03988426 -0.042880207 -0.07144827 -0.23966317 -0.086393654 0.35219944 0.06307339 -0.11223537 0.00939244 -0.021396054 -0.30318192 0.090008035
110496 0.12353595 -0.15900831 -0.15446408 0.015504574 -0.19866411 0.16860673 -0.22997217 0.041447956 0.06531373 0.023984151 -0.0474864 -0.16017604 0.27867284 0.07937779 -0.0945643 0.17379035 0.09987633 0.03160247 0.04684949 0.049783513 -0.03173549 -0.047137994 -0.0071070055 -0.036586583 -0.10581633 -0.15728596 0.13201572 -0.21075737 -0.18355061 0.3132173 0.16192695 -0.06753912 0.03690486 0.031851664 -0.08381081 0.0073032626 0.08345155 -0.015953077 -0.08957517 0.06383626 -0.07311757 0.1402528 0.21193843 -0.17099963 -0.1381915 0.029342202 0.23255561 -0.03418839 -0.0877026 -0.013842393 -0.08288206 0.030011207 -0.07995244 -0.011167404 0.1712624 -0.021900551 -0.22603315 0.09013444 0.14932735 -0.083756685 0.04288803 -0.008379932 0.0416854 0.24088807 0.08292165 -0.16007656 0.14381817 0.1761864 -0.08649303 0.1273172 -0.16206433 -0.07028673 -0.1290037 -0.17545614 0.26276436 -0.08547552 -0.16496268 0.18178894 -0.1569457 0.034637775 0.052002765 -0.13011092 0.26314336 0.10925589 0.021432158 0.050653648 0.16978899 -0.029406449 -0.044158492 -0.072348535 0.23198305 0.16198006 -0.14961863 0.005710262 0.0022707742 -0.18719187 0.07598252 -0.042396262 0.058441058 -0.3894876 0.011280853 0.049208038 -0.0018980175 -0.07156617 -0.029613597 -0.14124796 -0.039272577 0.015993653 0.05767382 0.2088985 0.11424503 0.22107208 -0.10990954 -0.07235367 -0.29946825 -0.0738451 0.049276892 -0.05608921 -0.036677945 -0.21787973 -0.09468955 0.33554253 0.07479997 -0.12679256 -0.04504762 -0.059698008 -0.28045446 0.094031826
109314 0.046351716 -0.1329697 0.053248715 -0.059821464 -0.36803147 -0.12883258 -0.20621257 0.13417947 0.16966233 0.24142778 0.14645182 -0.14212279 0.06353533 -0.07862663 -0.020956418 0.07580356 -0.16336924 0.20851886 -0.038724523 0.14515787 -0.08858194 -0.19126397 0.06900762 0.027933992 -0.26228037 -0.28609368 0.22017986 -0.38005581 -0.086530074 0.17125069 0.24575156 0.12540278 0.28158528 0.08082539 -0.058287006 0.071348056 -0.05437081 -0.048523955 -0.29692012 0.20060112 0.19099362 0.1504913 0.085517265 0.033352423 0.1853729 0.25905338 0.37099323 -0.23063754 -0.0046191653 -0.0939736 -0.04494113 -0.072797805 -0.11896945 0.12245146 -0.13870929 -0.014037939 -0.4186991 -0.09217111 0.014932061 -0.434687 -0.57397544 -0.3089935 0.10796303 0.18895887 0.04589198 0.20283137 0.1759882 0.09983751 -0.34412017 -0.11558983 -0.26171237 0.0056602946 -0.19431995 -0.13497059 0.0062988456 -0.25058442 -0.32795423 0.042185612 -0.043569256 -0.076221146 -0.1923031 -0.19999295 -0.006482573 0.13713682 0.09589443 0.09276227 -0.009154718 -0.22829519 0.01081452 -0.19860616 0.08402878 0.005545263 -0.038212303 0.26295483 0.042947333 0.07812384 -0.07798837 -0.17507187 0.23493606 -0.29016957 0.12847437 -0.040787533 -0.13870858 0.14836103 0.09957408 -0.11866171 -0.33005017 0.07758709 0.06178768 0.069805205 -0.03391066 0.11645174 -0.1385076 0.052552763 -0.17294599 -0.2835346 -0.1155538 0.07535359 0.20597573 -0.17594264 -0.3496569 0.22000536 -0.22698972 -0.112189665 -0.18304332 0.018166339 -0.19971597 -0.05711025
109156 0.00079241366 0.0021367057 0.0006075811 0.003904913 -0.003891319 0.00078557676 0.0011223899 0.0023610587 0.0037715537 0.00270449 0.0018959021 0.0021246537 0.001269432 0.0021856085 -0.0015523663 -0.00022185736 -0.0017204962 0.0029956412 -0.003189988 -0.0006525409 0.0017454135 -0.0014519199 0.0010576444 0.0016122703 0.0030978795 0.0028374738 0.00028591667 -0.00020001456 -0.002799005 -0.003585595 -0.0002781958 -0.0014510817 0.0007079143 -0.0019287438 -0.0012896038 -0.0031141867 -0.002768536 0.00132884 -0.0012501938 -0.00022554495 -0.0013773008 -0.00055424223 0.0015151988 -0.0014104724 -0.0020039566 0.0008112457 -0.0018676254 0.0007884969 -0.0023647472 0.0023223027 0.0007266046 -0.0027976902 -2.1938544e-05 -0.0005150565 -0.0015183024 0.003126796 -0.001923268 0.0037429724 0.0017765992 -0.0029433067 -0.0008701783 -0.0017449959 -0.0026309348 -0.0005450593 -0.0033854237 -0.0030535434 -0.0019829671 0.0021832876 0.0014963245 0.0030635076 0.00063115626 0.001631383 0.0035679392 0.0015280904 0.0013963188 -0.0032654237 -0.002939518 -0.0016264996 -0.0017823067 0.0036962957 0.0013294474 -0.0024341845 -0.0037846197 -0.0038511043 -0.00038177148 -0.0024804333 -0.003645657 -0.0033328661 -0.00069435814 -0.0031685382 -0.0012846412 -0.00063821836 0.0015479072 0.0035539942 -0.0017160747 0.0025267145 0.003300164 0.0037068168 -0.0018321889 0.0015252455 -0.003623947 0.002006402 0.002534292 -0.0034477087 -0.0019308989 0.0031394358 0.002568255 0.00015540936 0.0014931493 -0.0018709506 -0.0010559541 -0.003681888 0.0021626824 -0.0034437794 -0.0011966558 -0.00021231323 -0.0038704732 -0.003619812 0.0038066476 0.0036931352 0.00070430385 0.00087897404 -0.00035401978 -0.0019050591 -0.0011744238 -0.0007305559 0.0022458483 -0.0010574285
109180 0.034604177 -0.12422526 0.050282046 -0.05082454 -0.3483542 -0.12271332 -0.19813408 0.11927247 0.17156515 0.22545382 0.13621227 -0.12267117 0.060682844 -0.075248 -0.027257416 0.075810544 -0.16256766 0.19606125 -0.041672032 0.14520247 -0.099853136 -0.18871368 0.06362135 0.032058608 -0.25902104 -0.27066973 0.21046041 -0.36443385 -0.076557934 0.1640946 0.23348197 0.12257784 0.26332602 0.062391777 -0.05392107 0.07263393 -0.05761102 -0.055094175 -0.28549254 0.18130484 0.17920339 0.14647377 0.07354943 0.027547115 0.18757492 0.24377584 0.35016167 -0.22982827 -0.0023150954 -0.09241303 -0.04246426 -0.06695355 -0.1119817 0.11619498 -0.13456027 -0.026551163 -0.40076488 -0.09283088 0.019538105 -0.42472148 -0.54641116 -0.30263796 0.10416036 0.17990246 0.04720473 0.1931624 0.16230662 0.098757714 -0.3241787 -0.10646069 -0.24779171 0.009176465 -0.1877704 -0.1247312 0.00892882 -0.23442164 -0.31665343 0.04406913 -0.030410994 -0.07434354 -0.18935342 -0.18651664 -0.0034581567 0.12918611 0.09415695 0.091305934 -0.008657991 -0.21949255 0.0060790866 -0.19341177 0.07086137 0.009622597 -0.04714057 0.2624003 0.03983279 0.0679434 -0.064977616 -0.1808054 0.22948095 -0.2975564 0.12128163 -0.047530882 -0.12266775 0.14329329 0.10702015 -0.10751171 -0.31379196 0.07244673 0.06384778 0.06485501 -0.023921624 0.11467351 -0.12989368 0.05270698 -0.18385485 -0.26532808 -0.118853755 0.07155224 0.19457847 -0.16594955 -0.33609608 0.20774047 -0.21686739 -0.10123252 -0.16675021 0.020788208 -0.19065733 -0.058790036
110497 0.034642596 -0.069692805 -0.0108875595 -0.010136742 -0.09439482 -0.01121854 -0.05086709 0.05152633 0.038661156 0.04213521 0.022738984 -0.021080554 0.05567179 0.0048101577 -0.011269692 0.048863333 -0.015922375 0.05828454 -0.0051729497 0.051202 -0.037874326 -0.05837438 0.0035173541 -0.0236713 -0.046633102 -0.090268925 0.032682512 -0.08776399 -0.036543116 0.06877709 0.0740012 0.023121059 0.0542475 0.027540727 -0.007475228 0.029346675 -0.029153718 -0.049379114 -0.041419663 0.057439536 0.016100368 0.07684049 0.025261745 -0.032204296 0.023741905 0.054098293 0.11690089 -0.060921665 -0.007781255 -0.055423737 -0.026343307 -0.01764653 -0.047889 0.001001052 -0.0009771906 -0.022914045 -0.087305255 0.018737817 0.046000674 -0.05222077 -0.080457784 -0.04082274 -0.0007253439 0.088629924 0.05016083 0.015257956 0.028178124 0.030369816 -0.06901411 -0.01259318 -0.072149105 -0.007139025 -0.031656425 -0.06409471 0.025113704 -0.04435233 -0.06711671 0.03465405 -0.024542514 0.004997502 -0.021842953 -0.051375482 0.02096091 0.04207953 0.013788734 0.028155195 0.02961631 -0.04579956 0.014089589 -0.032600574 0.021882124 0.021842826 -0.038831633 0.04841276 0.0051801777 -0.022236617 0.010393233 -0.060098797 0.016714113 -0.08475768 0.0190203 -0.010224225 -0.03616031 -0.00943867 0.008519583 -0.05419677 -0.066641696 0.028792871 -0.011367413 0.032932986 -0.006473552 0.0540936 -0.029510938 -0.0029856563 -0.05744935 -0.04944774 0.0118756015 -0.009366909 0.020707 -0.034069818 -0.08442545 0.044316605 -0.02928391 -0.039517168 -0.029362485 -0.007484825 -0.058609955 -0.0013037813
110498 -0.0014375822 0.008874777 0.031969886 0.0051195365 -0.00438772 -0.036986195 0.015137748 0.007104456 0.0066471556 0.0027543171 0.0136376545 0.031185193 -0.015537938 -0.013622142 -0.0010548487 0.0054288 -0.0154042095 0.033049844 -0.016635401 0.030135069 -0.025379485 -0.01802084 -0.015383222 -0.011043695 0.0039665014 -0.011690157 -0.012917249 0.0038148733 0.016778782 -0.013115041 0.0020311968 0.006669634 0.0030711542 -0.000356896 0.023129718 0.019985348 -0.03177039 -0.028940957 -0.008928241 0.008155904 0.015528298 0.011751359 -0.036412586 0.012826838 0.008066676 0.020143513 0.006661053 -0.03015345 0.019369712 -0.02155813 0.0017198109 -0.0010772359 -0.0075746337 -0.0071434253 -0.016530782 -0.013816753 -7.3467876e-05 -0.024471162 0.0024540713 0.002790617 -0.024912765 0.008192277 -0.0021045334 0.021513011 0.008329072 0.029787747 -0.009391534 -0.018346794 0.003599518 -0.018353395 -0.024676606 0.0016985063 0.009838441 -0.014385934 -0.019526385 -0.0034599183 -0.017615795 -0.008452749 0.017717296 0.0063217515 -0.020533307 8.799048e-06 -0.031810645 -0.0069281175 0.0091426745 0.011366701 -0.016502544 -0.013078749 0.011594433 -0.00044185648 -0.03048229 -0.016250033 0.011051141 0.011406951 0.0077913892 -0.0012599841 0.011332056 -0.033710465 -0.005761444 -0.003565258 -0.014187394 -0.02380328 -0.0057052374 0.0024563037 0.009151082 0.007743284 -0.0087854415 0.020329986 -0.015693376 -0.024375396 -0.021108469 -0.0048058103 0.0072920593 0.009832628 0.02069617 0.004708635 -0.0040609012 0.0151822455 0.00020624332 0.018842304 -0.015259807 -0.032302916 0.00043965178 -0.009349934 -0.01338121 0.0072847027 0.007989207 -0.016694311
108971 0.0008603185 0.0004041653 -0.0024999569 0.0031484761 0.0005851996 -0.0021911887 -0.0038986956 0.0025971802 -2.2913242e-05 4.4454286e-05 0.00065219303 0.0016075738 0.002843106 -0.0025432159 -0.0022008969 0.0003136838 0.0014000402 -0.0018443562 3.212395e-05 -0.0004996147 -0.0018859474 -0.0003662775 -0.0035560692 0.0032938668 -0.0018710595 0.0012860347 -8.4381645e-05 -0.0031702064 0.0030969852 -0.0029887378 0.00056960207 0.002417159 -0.0019796258 -0.0024988581 -0.0028410289 0.0009881702 -0.0018416055 0.0001549808 -0.0013521493 -0.0011695478 0.0002980226 0.0018318662 0.0016352508 0.0004926385 0.00013312345 0.0019856908 -0.0007472065 0.0021362968 -0.0016796805 0.003489048 -0.00147793 0.00081066065 -0.00038598955 -0.0015910895 0.0015625433 -0.0004897424 0.0025155137 -0.001093781 -0.0023755895 -0.0019081585 0.0016015829 -0.0026817268 0.001913109 -0.0027478717 0.00024191529 0.0009109987 0.0018277249 0.0018241077 0.0027811003 0.0032130163 -0.0027278573 0.0002549005 0.003550369 0.0019073504 0.0027423608 0.0003899412 -0.0020270771 0.001134869 0.0015703487 -0.0017959492 -0.0018821111 -0.0024110356 -0.0003220286 -0.0035750247 -0.0008125828 0.00072940375 -0.0017117906 0.0017989832 0.0029622328 0.0004984247 0.0034123852 -0.0015171104 -0.0029142955 0.0033701481 0.0015051089 0.0024022625 0.0035704996 0.0016943136 -0.0022671132 -0.0013553165 -7.3727875e-05 0.0001666215 -0.0028284872 -0.0007084045 -0.0018687248 -0.002864202 -0.0004635422 0.0036280893 -0.002301354 0.0035107157 -0.00137505 0.0029319916 0.00017969744 7.5604905e-05 0.0008717598 0.002239831 0.0010112723 -0.0005650658 -0.002210666 0.0019600894 -0.0005156676 -0.0024062772 -0.0036731064 -0.0037383996 0.00093516166 -0.00087959104 -0.0015225164 0.0035856848
109928 -0.00025734204 0.010823306 0.019120917 -0.0028707157 -0.0020044353 -0.012266224 0.014162417 0.0017448479 -0.00094892463 -0.0022197184 -0.0009572497 0.011054596 -0.016054709 -0.0074586375 -0.0026119545 0.0063282447 -0.0034570629 0.018040989 -0.008000392 0.014666259 -0.012290519 -0.0042026583 -0.00675987 -0.0065807537 0.0034424933 0.0008235672 -0.0081856195 0.0074593234 0.011044185 -0.0068379436 -0.008000566 0.007176996 -0.007911133 0.009848499 0.01404068 0.005718597 -0.006528089 -0.019424796 -0.007669157 0.010242539 0.002204468 0.0013970865 -0.015188069 0.010296388 0.00581401 0.0002879196 -0.0066857827 -0.012203771 -8.645396e-05 -0.007424541 0.0021493398 0.0021463763 0.0063160956 -0.011894072 -0.011127929 -0.002497521 0.0012579 -0.0051346454 0.0019505136 0.009293686 -0.010326602 0.0024229954 -0.00695328 0.0075339065 0.0017715088 0.01840901 -0.0038507644 -0.015440311 0.006621132 -0.010692584 -0.016015869 0.007255247 0.008487798 0.0020868767 -0.004526549 -0.0017443032 -0.0044080494 -0.004572725 0.0072882944 0.007210818 -0.0073868474 0.0060926313 -0.022270767 -0.003888412 0.011126018 0.002458116 -0.013595614 0.004528999 0.00012347888 0.0027958546 -0.011434836 -0.008378455 0.008926785 0.0037568929 -0.0013941226 -0.0010963767 -0.00043179138 -0.018851144 -0.011813443 0.000855153 -0.014867246 -0.004817757 -0.0069962693 0.011666337 0.0034063603 0.0015520661 -0.007893947 0.006927578 -0.0055370866 -0.011800548 -0.0064397925 0.00010500418 -0.00038541039 0.0007960127 0.0139811635 0.007347564 -0.002294202 0.014909459 0.0003919308 0.014190609 -0.0023228575 -0.017339135 0.010124897 -0.00087862177 -0.009397655 0.0012585891 0.0018626732 -0.013637994
108989 0.0008230257 -0.0032032344 -0.0031253889 0.0013608001 -0.0031453294 -0.0030451638 0.0021224509 -0.003408705 0.001862586 -0.0018281882 -0.0035179094 -0.0023238265 -0.002402231 0.0017365515 0.0011726898 -0.0022539608 -0.001210663 -0.003001573 -0.0036962223 -1.7971068e-05 -0.0012308661 -0.0009521488 0.0038780675 0.0025509165 -0.0021222266 -0.0022671907 0.0028892076 -0.0022982792 -0.0013370666 0.00337659 -0.0035766533 0.00082989177 0.0014522272 -0.0028361657 0.0031869293 -0.0015611392 0.0017941026 0.00093942723 0.0031729261 -0.003476565 0.0016507643 -0.0013643492 -0.0016934369 -0.0008750974 -0.003465692 0.00247757 0.0005008126 0.0015820101 0.00069576583 0.0012836513 -0.00012883352 -0.0024320178 -0.0031159662 0.0018986427 0.0037934456 0.0018227219 0.0005109501 -0.002613385 -0.00051474996 0.0011626887 -0.0033721556 0.003849354 -0.0031925894 -0.0016835589 -0.0029981732 0.0018291427 0.0010360314 -0.00058496813 0.0014984765 -0.0017124339 0.0023825627 0.0035837912 0.0001240231 0.0007263821 0.00041670402 -0.0010591426 -0.0036645937 -0.001480206 0.0023606531 0.0012800422 -0.0021934505 0.0023285525 -0.00044082326 0.00012810965 -0.0013125645 -0.0033847047 0.0038651875 1.0081227e-05 -0.0031115352 -0.0005938843 0.0032811777 -0.0027348152 -0.0010264468 0.00034153284 -0.0038828505 -0.00038678676 0.0026936545 0.0013719213 -0.0002118487 0.0025333806 -1.2490195e-05 -0.0010892279 0.00048181668 0.0021038335 -0.0034720718 -0.0018847438 -0.0037423503 0.0020634849 -0.0010848672 0.0009761007 -0.002822126 -0.0036360726 0.0007054007 -0.00059534085 -0.00022296574 -8.2577746e-05 -4.6799032e-05 -0.0011917197 -0.0025490872 0.0012681909 0.0023035211 0.0017762518 0.0030346718 0.0015780735 -0.00027879735 0.0030977216 0.0017019153 0.0004928354
109716 0.026180573 -0.09559392 0.042160682 -0.05029591 -0.28364176 -0.12050651 -0.15328515 0.09936987 0.13343593 0.18884863 0.12501563 -0.093122825 0.041926205 -0.07027072 -0.010223288 0.04449295 -0.13765574 0.16633533 -0.02772415 0.11236482 -0.076736465 -0.15851513 0.058010675 0.028839527 -0.20911123 -0.22324932 0.16716902 -0.30400828 -0.060620382 0.12158427 0.18516219 0.10925145 0.22722928 0.050740115 -0.04676693 0.06086444 -0.04686203 -0.03991038 -0.2323948 0.15469542 0.15172516 0.11205252 0.05581302 0.042507004 0.16628176 0.20503366 0.28968388 -0.185101 -0.002036841 -0.07594807 -0.03405285 -0.055633847 -0.094987705 0.09914725 -0.12186325 -0.008128658 -0.32020286 -0.08133423 0.0064218105 -0.34924206 -0.46607864 -0.26262712 0.08652783 0.13571061 0.035976797 0.17166653 0.13064238 0.07053182 -0.27855015 -0.09832971 -0.20245771 0.0091860695 -0.14912894 -0.10247327 -0.0082190465 -0.19263677 -0.25121254 0.025234997 -0.020401185 -0.061663132 -0.16387168 -0.15206026 -0.018089956 0.09850044 0.075474344 0.079266466 -0.01778703 -0.18475838 0.01525407 -0.16108151 0.054421067 -0.0037987824 -0.029404696 0.22663578 0.035674166 0.07516465 -0.06727582 -0.13797052 0.19559978 -0.21784976 0.10161616 -0.041539155 -0.10070666 0.122604415 0.087764606 -0.07830594 -0.26640457 0.056230053 0.04902564 0.04182199 -0.032342035 0.08480401 -0.10825909 0.054551944 -0.13072996 -0.22563119 -0.10066827 0.058803216 0.17777504 -0.13278635 -0.2756972 0.16347566 -0.19598837 -0.07300535 -0.14029977 0.016236708 -0.14553007 -0.053412735
110499 -0.009445982 0.011719863 0.03376083 -0.00016645459 0.008320306 -0.030524407 0.01877124 0.0053789234 0.0066923043 0.0045174635 0.0001142284 0.02179471 -0.019530324 -0.007582105 0.005047458 0.007912751 0.0011647947 0.023849042 -0.016774656 0.01747677 -0.016710516 -0.0039330185 -0.016443435 -0.012577561 0.009820208 -0.013807978 -0.014206987 0.0055025695 0.010205863 -0.016558297 -0.0073397704 -0.0026894936 -0.004598597 0.0067849155 0.029128525 0.009786742 -0.027439686 -0.021532806 -0.005196076 0.005269308 0.008197094 0.0052180216 -0.02517512 0.015455659 0.0044484218 0.011269561 -0.0059554786 -0.022293124 0.016639281 -0.019548677 -0.00057398493 -0.0013161089 0.00059059594 -0.0005857057 -0.015332806 -0.011044032 0.0029700578 -0.017128913 0.002459727 0.013069773 -0.009564477 0.004154763 -0.0049908124 0.010004174 0.0017818082 0.013298503 -0.014739819 -0.018844288 0.008122231 -0.017187592 -0.023293998 0.0038514591 0.016756963 -0.008240857 -0.010925793 0.0055700527 -0.010910876 -0.000106554355 0.009435206 0.013588765 -0.0112474095 0.006958711 -0.035221133 -0.011846133 0.0057389713 0.0009567726 -0.011282133 -0.002940388 0.008777835 8.712843e-05 -0.01706746 -0.020479627 0.013166005 0.0026624969 0.0033243948 0.005309028 0.0059985532 -0.030013485 -0.009746893 0.0049274126 -0.013639803 -0.0104247 -0.004683953 -0.0028255312 0.0022015763 0.009043207 -0.009523709 0.021878285 -0.0136376815 -0.01409681 -0.015749296 -0.016265703 0.010593318 0.004646605 0.026141431 0.0077848416 -0.0015447332 0.008865428 0.004825456 0.018196872 -0.01738216 -0.03223726 0.011508002 -0.009973863 -0.012135475 0.0057747765 0.0018330347 -0.0067971824
109047 0.06273017 -0.11927847 -0.02836015 -0.0054874537 -0.22880992 -0.04120207 -0.17955078 0.10320889 0.15088893 0.24091801 0.11945502 -0.07324811 0.050627735 -0.036419105 -0.0036914565 0.11076459 -0.037528437 0.111371055 -0.038025673 0.06009756 -0.040097274 -0.15714519 0.078111365 -0.053192537 -0.09130895 -0.3208554 0.121251844 -0.2527625 -0.017330052 0.12587628 0.18047328 -0.020849641 0.16080044 0.0664992 0.037470046 0.09161426 -0.10811639 -0.045635317 -0.13838701 0.15860115 0.09457607 0.17947873 0.06867859 -0.02977464 0.08867627 0.13622463 0.23635489 -0.07827405 0.0788707 -0.10446036 -0.08336218 -0.088572085 -0.15378763 0.049322978 -0.060456354 -0.030998759 -0.29884535 0.003527268 0.09837891 -0.22631103 -0.2725304 -0.07398659 0.043494977 0.23658887 0.092273846 0.097932816 0.08715808 0.06595293 -0.1872676 0.005568256 -0.22729708 -0.010411408 -0.101459615 -0.16952184 -0.004256796 -0.18158832 -0.19907472 0.083313726 -0.09721181 0.026231343 -0.03888672 -0.15447919 0.04671127 0.08650369 0.048922144 0.066319145 0.00522274 -0.21375456 0.081205495 -0.0731245 0.095917344 0.05525278 -0.051773448 0.08857932 -0.01909216 -0.01914587 -0.033185195 -0.16155644 0.00682887 -0.13575952 0.11259475 -0.01188114 -0.13250417 -0.054342423 0.09895164 -0.118535325 -0.18089597 0.14632343 -0.0941796 0.08637805 -0.037014853 0.04170649 -0.02284233 0.03039656 -0.041187633 -0.1851138 -0.063899025 0.07479618 0.06876037 -0.08222045 -0.27200645 0.0846061 -0.14706437 -0.1292154 -0.08267188 0.0002516205 -0.1092631 2.3329752e-05
