1089 128
113787 -0.00389194 0.12972087 0.077568606 0.115231 0.2761739 0.078056686 -0.094599925 -0.10556408 0.0031524429 -0.08103271 -0.015522535 0.05238575 0.018191054 0.06347061 0.024271486 -0.09170082 -0.096965924 0.0385215 0.0720066 0.014761509 -0.047905095 0.16648547 -0.051971838 0.015628336 0.04662959 -0.1147361 -0.085552335 0.09935645 -0.057814825 0.09963369 0.09399194 0.14117974 -0.120043725 -0.11066874 -0.02517246 -0.021393035 -0.11381574 0.10390891 0.091500625 0.023702674 0.0069276737 0.06476598 0.10020737 0.06847134 -0.12822458 -0.07112285 -0.13829367 -0.036081 0.008320159 0.043312497 -0.004043172 -0.15896028 -0.06508251 0.10738275 -0.069918476 -0.17961614 -0.16138177 0.11624632 -0.08872582 0.08997565 0.10369242 0.080493025 0.10836819 -0.042575598 -0.036671773 -0.009352584 0.043396097 -0.035986844 0.005947586 0.16224167 -0.08570906 0.043685026 -0.17023998 -0.16339464 -0.13160452 0.06549091 -0.050968666 0.10024254 0.069392115 -0.09042747 0.14440356 0.03250383 0.13642496 0.042077202 0.04026894 0.014132422 0.0078054904 0.0022226144 -0.030296085 -0.11355529 0.030873416 -0.13927972 -0.029372958 0.06493277 -0.0076207663 0.051621277 0.037779063 -0.05546439 -0.1350817 0.1642229 -0.0263727 -0.04250579 -0.08195173 -0.07214533 -0.027802259 0.0015150496 0.032392677 6.735134e-05 -0.018919956 0.010316298 -0.031073835 -0.21259893 0.048472207 -0.02057505 0.011472169 -0.17127371 -0.08869014 0.022986295 -0.08316946 0.105782144 0.010317768 -0.11916137 0.004339354 0.013845211 -0.053079136 0.055522658 -0.043339834 -0.04107097
113788 -0.0027831174 0.003413063 -0.007981567 0.00053764903 -0.00572602 -0.002620455 -6.8799025e-05 -0.0038463203 0.006594724 0.0036757456 -0.0018668348 -0.0027492759 -0.00514676 -0.00952233 0.00013141334 0.0081286635 0.004198547 -0.0014096323 -0.0062249387 0.00045790378 0.0014527821 -0.0064058183 0.0074166004 -0.000789734 0.006779102 0.0028643485 0.0051826155 -0.011944648 -0.0014442983 -0.0013665814 -0.0048063737 -0.009494061 0.0010083653 0.005677585 -0.0033070222 -0.011174698 0.008443625 -0.0035276648 0.005196391 2.7678965e-05 -0.001657388 -0.010997313 -0.014166012 -0.012944263 0.0008615006 0.007880172 -0.0017393838 -0.0044290847 -0.0043427707 -0.008032329 0.005941112 0.0077568996 -0.0040699905 -0.0044750217 -0.002861798 0.015710287 0.007414117 0.0028082419 -2.1217711e-05 -0.002872446 -0.008063914 -0.012725713 -0.010434518 0.008491793 0.008522119 -0.0037300112 0.011664474 -0.0024840252 0.0111957 0.004374098 0.007756251 -0.0072756163 0.007585835 0.013776776 -0.003077718 0.008753048 -0.0094096325 -0.0052010803 0.003396631 0.012715351 -0.00059545226 -0.0023187092 -0.0032718023 -0.008112171 -0.0054341992 0.0018118338 -0.002365507 0.0052735005 -0.010463379 0.01187096 0.0012247289 0.0015622521 -0.010879918 -0.0055237147 -0.0042549 0.00023895835 0.0072262445 0.007753198 0.003935288 -0.0004989004 -0.0007264908 0.0056934822 -0.003904452 -0.0028937925 -0.0077991444 -0.0080944365 -0.007564301 -0.008521868 -0.0014235472 0.005225272 0.0025788671 0.014876294 0.002020712 -0.0042025526 -0.014939997 0.0019214506 0.0037381432 0.0018087758 0.006400456 0.010165954 -0.008102587 0.0029998177 0.0013284482 0.01119498 0.0061007096 -0.0019320962 -0.005162548 0.0017327133
113789 0.08071374 0.008295733 0.10943308 0.048817825 0.10472657 0.09812247 -0.07291911 0.075306825 -0.06452398 -0.040850118 0.007911811 0.067745835 0.07896981 0.16434465 -0.043266777 -0.12291914 -0.06574485 0.09291112 0.05242227 0.047933303 -0.0154404165 0.11902916 -0.11371261 -0.03605716 -0.02002434 0.0025892337 -0.05639465 0.15736994 -0.03908106 0.04429245 0.07370111 0.1766165 0.020258596 -0.09652215 0.030306274 0.08266512 -0.19735268 0.094119884 0.0046498254 0.04952485 0.05721795 0.118692994 0.17289364 0.16514929 -0.061557963 -0.10987492 -0.0036860313 0.06946624 0.05524941 0.10128711 -0.05919709 -0.12330223 0.0040572123 0.052521486 0.032259516 -0.25222787 -0.18636522 -0.049898263 -0.050109815 0.036151398 0.10217918 0.16382109 0.14159767 -0.1324493 -0.09672445 0.017961904 -0.18142611 0.06133786 -0.17528808 0.045115646 -0.13274269 0.14847332 -0.073520154 -0.24404757 -0.050577935 -0.06376542 0.075870395 0.10327095 -0.0010623123 -0.1777135 0.09145285 0.036718618 0.061558872 0.13716643 0.048556715 0.026930828 0.05576356 -0.01961866 0.16453023 -0.21411873 -0.035125785 -0.09516176 0.06672444 0.0802086 0.058450352 -0.008730654 -0.022325257 -0.13391252 -0.13071771 0.11501063 0.03921573 -0.036305737 -0.007836582 0.015796885 0.057283018 0.04460713 0.10513331 0.10508917 0.00069547194 0.014528934 -0.03739095 -0.20352 0.0180903 -0.02788073 0.18604493 -0.0493008 -0.09244677 -0.050395608 -0.12641564 -0.08720955 0.08128567 -0.075066395 -0.058233272 -0.08458878 -0.07256246 0.04762927 0.04980312 -0.07269231
113790 0.093073055 0.04081195 0.16390331 0.07025959 0.20105667 0.122675374 -0.09412769 0.034935843 -0.09932273 -0.066428386 -0.0006521968 0.086765975 0.10121368 0.16247958 -0.051214647 -0.18950117 -0.099897616 0.09601082 0.07291211 0.05495656 -0.022276275 0.16610318 -0.17823495 -0.039671484 -0.017662382 -0.044251047 -0.0889229 0.1959637 -0.038216595 0.052309934 0.0736757 0.22093725 -0.026445227 -0.14080651 0.05518604 0.10401521 -0.2544614 0.15365544 0.029499086 0.063654415 0.044482607 0.15426552 0.26580113 0.24572328 -0.082770854 -0.14463167 -0.05127457 0.07641271 0.062372733 0.1605434 -0.08390072 -0.15596817 -0.002132698 0.06923765 0.030022573 -0.30867437 -0.21160163 -0.02216289 -0.062488243 0.083591916 0.15486872 0.22162563 0.2032344 -0.11995927 -0.12047972 0.03776528 -0.21278472 0.06646781 -0.21214363 0.08951555 -0.16076523 0.20341362 -0.15440066 -0.32398778 -0.080371246 -0.09120309 0.08145599 0.14206904 0.02342347 -0.21290691 0.14500217 0.08260119 0.084592834 0.19025983 0.045446407 0.0064439713 0.042322945 -0.050013613 0.21962276 -0.26383328 -0.02642715 -0.13247563 0.0988628 0.11203 0.044393856 0.005513413 -0.04454172 -0.16412552 -0.19950008 0.16906565 -0.011220364 -0.08212304 -0.008495071 0.0013315034 0.092828944 0.080839455 0.086356 0.12926532 -0.015195838 -0.03863441 -0.06623036 -0.30294746 0.03260395 0.009286881 0.21740538 -0.06829593 -0.13375072 -0.069358826 -0.1770461 -0.07950955 0.10817777 -0.115271516 -0.088113576 -0.118063636 -0.055286672 0.058856104 0.050299328 -0.07756023
113791 0.018759213 0.006897792 0.028454078 0.03921192 0.054905962 0.041567758 -0.036864802 0.013574578 -0.013778724 -0.013818371 -0.0021199542 0.026048593 0.025765177 0.065850206 -0.006327482 -0.039660566 -0.03188415 0.03783217 0.031496257 0.02305718 -0.022230381 0.052767474 -0.02302694 -0.011458329 0.004762704 -0.0023585686 -0.019763537 0.059421346 -0.02329206 0.032845214 0.048533153 0.07135582 -0.0029443551 -0.04004405 -0.004612549 0.007166517 -0.060675632 0.032312356 0.008699743 0.016304305 0.019237194 0.033228338 0.04106982 0.025351945 -0.03711408 -0.04226315 -0.01732898 0.013790652 0.015239313 0.015334591 -0.014754467 -0.0597548 -0.008947649 0.03918434 0.00010131116 -0.109494984 -0.08522695 -0.008474389 -0.040534757 0.017113557 0.034107573 0.042634312 0.04200092 -0.058562536 -0.02713907 -0.006331538 -0.03446683 0.014562148 -0.047880992 0.03317394 -0.046927556 0.028960666 -0.020067422 -0.089042686 -0.036007963 0.007879246 0.008958311 0.042469487 0.01137575 -0.06443829 0.04312965 -0.00677857 0.04133941 0.03492571 0.024810437 0.026005302 0.03508525 0.017370664 0.028984608 -0.07789979 -0.019941028 -0.04944875 0.0053989743 0.030394804 0.028862834 0.0048702634 0.010890204 -0.04761976 -0.044799384 0.06113984 0.028819663 -0.005377642 -0.020152336 -0.0068961065 -0.0026041807 2.8791752e-05 0.055378027 0.020606346 0.0034858023 0.032602347 -0.01069576 -0.06883838 0.018411443 -0.02189176 0.054322425 -0.046199467 -0.025687968 -0.0011872714 -0.04975987 -0.0059366925 0.017966766 -0.03138007 -0.0075397696 -0.009398267 -0.04686447 0.025313048 0.007480887 -0.028474323
113792 0.024581179 0.011138457 0.04289292 0.054551292 0.0690749 0.05151613 -0.04723851 0.014653147 -0.01526183 -0.02028023 -0.0014239289 0.038937688 0.029196683 0.08316392 -0.011644587 -0.045441482 -0.03659446 0.04775655 0.034640934 0.027073253 -0.020607674 0.07323173 -0.03415056 -0.01025856 0.0055777123 6.934116e-05 -0.027669143 0.07455305 -0.032973416 0.044572227 0.060091816 0.092608035 -0.0025208576 -0.051922135 -0.006993517 0.0074495953 -0.08588244 0.03899795 0.017223952 0.017637411 0.0243849 0.051178228 0.061281227 0.03781856 -0.048223395 -0.051995628 -0.021855976 0.02082956 0.024256527 0.025901834 -0.024732316 -0.07725645 -0.009100026 0.052657995 -0.004543364 -0.13617927 -0.10915494 -0.009485345 -0.04510475 0.019046608 0.04934843 0.05996705 0.058756743 -0.072248 -0.03812555 -0.011031012 -0.048840433 0.023533313 -0.060280785 0.043371607 -0.06276086 0.042623933 -0.028032303 -0.11714717 -0.040884998 0.0052540377 0.012863002 0.051618446 0.010790839 -0.08098209 0.058823485 -0.0031519998 0.054929797 0.044930298 0.028682727 0.028495455 0.04004221 0.018469363 0.037816606 -0.100526646 -0.024432857 -0.06334404 0.0072697694 0.04133236 0.031686995 0.00690176 0.010146328 -0.05527719 -0.064503275 0.0740131 0.032545924 -0.007783369 -0.025650658 -0.012814275 0.00020187438 -0.004798012 0.067721926 0.033647392 0.005435621 0.03807245 -0.012129085 -0.09084085 0.020756576 -0.03143312 0.06932929 -0.057914108 -0.03594238 -0.0047056554 -0.06209061 -0.012067057 0.027843397 -0.03953245 -0.00934301 -0.012305909 -0.056232184 0.029034108 0.011720128 -0.031291522
113793 0.023523027 0.090357594 0.08873152 0.111800715 0.22335033 0.08023938 -0.09442038 -0.05378383 -0.033319328 -0.056438804 -0.0035546229 0.059964206 0.029338771 0.0657577 0.00016107436 -0.098278254 -0.089311525 0.05668415 0.0740413 0.029401561 -0.044544093 0.15456405 -0.065930605 0.0028778072 0.028871547 -0.0731785 -0.06698145 0.1105383 -0.05162971 0.077639885 0.09691698 0.14594659 -0.08033793 -0.101549484 -0.0060750106 -0.0062751975 -0.1240933 0.10117536 0.054576818 0.020880112 0.012919585 0.08714256 0.11765027 0.08793517 -0.108434975 -0.08166779 -0.10278883 0.00089060265 0.015550811 0.04471956 -0.02487505 -0.14453094 -0.053025827 0.09566895 -0.048097577 -0.19374828 -0.15526606 0.06554626 -0.080209315 0.068717055 0.09322889 0.109548755 0.11047474 -0.070181295 -0.042380597 0.004428666 0.0041875597 -0.007885485 -0.056404937 0.1265494 -0.101228036 0.059323844 -0.1279162 -0.17878816 -0.110195935 0.0371654 -0.011844418 0.099347845 0.052172408 -0.10788369 0.13535747 0.025081586 0.1165097 0.06772028 0.03527152 0.0005532318 0.024218276 0.0069924598 0.02340734 -0.13952589 0.0021530583 -0.1294193 -0.0041070892 0.073997155 0.010652892 0.04308118 0.020731876 -0.071156986 -0.13644381 0.15613925 -0.01270709 -0.04489441 -0.06710527 -0.043692417 0.01023382 0.0009860647 0.055258065 0.02034462 -0.0065474757 0.014145284 -0.036411487 -0.20425744 0.049656395 -0.011414412 0.06047454 -0.12607503 -0.07924414 0.0070095216 -0.10647408 0.059905615 0.037469458 -0.08986809 -0.017318767 -0.010784131 -0.0568408 0.039593913 -0.031974126 -0.043344676
113794 -0.0037008652 -0.0012188507 -0.0014402521 -0.0020887281 -0.0038233814 -0.002497414 0.0014319724 0.0026151575 0.00047347796 0.0018216745 -0.001969986 -0.003547637 0.00050248276 0.0010946608 -0.003371336 0.0014908492 0.0021223049 -0.00032448786 0.0037493913 0.0024677569 -0.0011377825 0.00041388778 -0.0036589964 0.0013138189 -0.00060284167 0.0015454374 -0.0038032432 0.001458094 0.0014900673 -0.0011108873 0.0017800545 -3.6268164e-05 -0.0026534614 0.0003109479 0.0031442938 0.0016605436 -0.00071059907 -0.0025248956 -0.00077817787 -0.0030192314 0.0018936977 -0.0016532823 0.00280158 -0.0012530157 0.003053033 0.0007363995 -0.0032130226 0.00094848586 0.0028899724 0.0013133927 0.003429755 0.0019635048 0.0021412226 0.0005337056 0.0003402179 0.0034895104 -0.002762509 -0.002653879 1.8074497e-05 -0.0022812355 0.00013246379 -0.0007171026 -0.0010116254 -0.0037011642 0.0033051767 0.0037152725 -0.003420863 0.0032782059 1.6630958e-05 -0.0018168632 0.0032820418 -0.0016316996 0.0011664442 -0.0015553467 2.251673e-05 -0.0017495847 0.002032334 0.0028422603 -0.00013570182 -0.0033538237 -0.002492256 0.00039034884 0.001484009 -0.00048783718 0.0030037644 -0.0028952633 0.0030340275 -0.0012395694 6.6813554e-05 -0.002550913 0.0035254399 0.003793927 -0.00039434835 0.0023829148 -0.0014452719 -0.0010981342 0.002130255 -0.0024616264 0.0027824717 -0.0031291684 0.00058517983 -0.0020498864 0.002545848 -0.00325341 -0.0012717922 -0.000103538565 0.0027103976 -0.0017103705 0.001259272 0.0021279205 -0.0035520634 -0.0012590684 0.0032360412 0.003420403 -0.0012472103 0.003160774 0.003190743 0.001074739 -0.001748774 0.00022146877 -0.002058041 -0.0024062926 0.0020000807 -0.0004392349 -0.0019344686 0.0015115939 -0.003598228 0.0027554939
113795 0.028106378 0.07856765 0.09132584 0.11220754 0.20460336 0.09539499 -0.0871501 -0.032999046 -0.031104079 -0.05116745 0.0022314328 0.072133616 0.041262493 0.106348805 0.0024588236 -0.108211756 -0.08329925 0.071499124 0.07151801 0.037661705 -0.045420177 0.15270238 -0.074727125 -0.0041175964 0.015592068 -0.059307456 -0.06615436 0.12324556 -0.0559253 0.086273365 0.09950943 0.16707277 -0.059599925 -0.10876737 -0.014596946 -0.0019396156 -0.14146645 0.10716552 0.050655365 0.02598541 0.019721717 0.089428976 0.12535837 0.09690311 -0.106474645 -0.08461046 -0.08245097 0.013759381 0.022688063 0.05785862 -0.033154335 -0.15072389 -0.039278477 0.103111625 -0.02417115 -0.21466997 -0.17559655 0.048208684 -0.090660736 0.07025285 0.102354646 0.11637331 0.11946226 -0.09930849 -0.063041955 0.003319719 -0.03393631 0.007827101 -0.07909384 0.1252603 -0.11287036 0.06870593 -0.11436767 -0.20632531 -0.103397876 0.024075633 0.0027843004 0.11364151 0.047661737 -0.12950833 0.12789905 0.020461567 0.120472185 0.0793433 0.048083276 0.020538552 0.04431499 0.013025003 0.04555108 -0.15475076 -0.006769592 -0.13351625 0.007907706 0.08148277 0.021870222 0.031742185 0.029452287 -0.08446956 -0.13177577 0.15692446 0.007842305 -0.032171473 -0.058862694 -0.04555279 0.0028271927 0.007866185 0.08050483 0.036253035 -0.005527084 0.0368276 -0.031724915 -0.20003375 0.051461183 -0.028535597 0.08854584 -0.13387533 -0.07719734 0.0100361 -0.10833343 0.031382117 0.040049177 -0.089350045 -0.026315456 -0.020703306 -0.067046896 0.04671041 -0.01035633 -0.047191877
113796 0.0038055906 0.0012817977 0.0025311594 -0.0009082924 0.0028779258 0.0038608701 -0.0033058645 -0.0011329161 0.0014718096 0.0025574937 -0.0004955824 0.00022073295 -0.0022810183 -0.00068875594 -0.0019824514 -0.00045825186 0.00064477907 0.0027339526 -0.00027687714 0.00029739118 -0.0023310934 -0.0022097535 -0.0015424986 -0.00058319746 -0.0025079972 -0.002902628 0.001574694 -0.0033979868 0.0011212246 -0.0011856948 0.003205844 0.002333199 -0.0014161038 -0.0015703236 0.003475279 -0.0016777832 0.000464034 -0.0038570238 -0.0013806521 0.0024834254 6.832628e-05 0.0034787054 -0.0005103942 -6.814131e-07 -0.0013839473 0.002412703 -0.0037755067 -8.840877e-05 -0.0034536433 0.0029458539 0.0025970365 -0.0016272072 -0.00063455576 -0.0033788627 -0.0008404867 -0.0006731022 0.0035709909 0.0021444736 0.0032740938 0.00050158554 -0.0005115739 -0.0031733965 0.00012901456 0.002840218 0.0029775235 -0.002358671 -0.002373349 -0.0023962115 -0.0025380026 -0.00079665915 0.002483526 -0.0020665282 0.0026696383 -0.0027617966 -0.0004896611 0.001980766 0.0017707304 0.0022869965 -0.0017973481 1.836559e-05 -0.0007092265 -0.00096945587 0.00072686025 -0.0030662918 -0.00023009593 0.0010637682 0.0010826507 -0.0021235691 0.0032511142 0.00378824 0.0011443708 0.0029169316 -0.0015226584 0.0031809702 0.00038964255 -0.003636243 -0.0009934374 0.0020770673 -0.001266619 0.002417896 0.0029396336 0.00025985157 -0.0010927415 0.0007272616 0.0009322019 0.00019529737 -0.0010849276 -0.0021468524 0.0011929799 -0.0008906884 8.946106e-05 -0.0016171131 -0.0033635201 -0.00023884152 -0.0020331233 0.0034497539 0.0025979716 0.00101686 -0.00016464193 -0.0032355615 -9.797816e-05 -0.0016746768 -0.0009875438 -0.0021017904 -0.00053114747 -0.0001907057 -0.003116092 0.0031314802
113797 0.010887301 0.020919934 0.031653002 0.038048573 0.06068652 0.0390822 -0.03853593 0.010387136 -0.010167448 -0.022195954 0.0021911026 0.027136575 0.015701538 0.058700204 -0.0050160196 -0.03591098 -0.029983308 0.038695633 0.027981345 0.017601429 -0.025716735 0.056977656 -0.025826167 -0.0047922204 0.014570465 -0.008728024 -0.020875258 0.052033555 -0.031473808 0.03207966 0.04356978 0.06747789 -0.0026685402 -0.038824297 -0.008602349 0.0075472044 -0.06746978 0.032187648 0.01221199 0.013188813 0.018670985 0.030691987 0.034448527 0.02460775 -0.044916954 -0.039783396 -0.017505093 0.008954544 0.015544316 0.016114326 -0.008086216 -0.05917211 -0.010274155 0.034012213 -0.012443628 -0.10222712 -0.08349387 0.0060525727 -0.032127194 0.017468013 0.02904518 0.045435235 0.041545045 -0.051790338 -0.029225452 -0.008352085 -0.025454778 0.0072924127 -0.03570651 0.03629111 -0.045665093 0.030677753 -0.021348406 -0.08251938 -0.033637043 0.010382933 0.010264089 0.039260883 0.01384354 -0.062098667 0.044029403 -0.0030405892 0.04262076 0.025138585 0.022744833 0.018535672 0.026639426 0.0070032803 0.020007776 -0.07372236 -0.008810151 -0.04916158 -0.0014174281 0.024800202 0.022141265 0.00054143486 0.01766933 -0.040167775 -0.05125661 0.054756634 0.022355363 -0.0060808356 -0.021533743 -0.0081201 -0.006730166 -0.002706071 0.04946806 0.018754888 0.0013330713 0.034385465 -0.012167056 -0.06930666 0.015997447 -0.02748434 0.044978194 -0.050435796 -0.027528899 -0.0064158747 -0.045653503 -0.002833697 0.010025233 -0.037124626 -0.0063110227 -0.012453715 -0.03955454 0.02172263 0.0011690459 -0.025115589
113798 -0.010851244 0.0117069 -0.0015695724 0.010959521 0.0068310397 -0.0023507723 -0.0033128434 -0.017392185 0.0075519835 -0.0011575036 -0.002568349 -0.0006494916 -0.013667928 -0.0068389014 0.0043372284 0.0084504355 -0.0018947644 0.0024992332 0.0021024158 -0.0050076605 -0.003281241 0.0073100156 0.013610998 0.0030724995 0.0044836495 -0.005127125 0.010020475 -0.0076923817 -0.001018973 0.004575748 0.0024533463 -0.0064154984 -0.0091230115 -0.003950004 -0.00984881 -0.018588873 0.01201358 -0.0045268 0.0076814587 0.0006302638 4.474194e-05 -0.0021461146 -0.019010864 -0.013904321 -0.0056140632 0.007015873 -0.0068392605 -0.014513961 -0.00046096687 -0.013645309 0.012273842 -0.00864829 -0.0082589425 0.008776137 -0.0058306977 0.0072799297 0.0011319866 0.015832206 -0.0040299296 -0.005221947 -0.007742511 -0.015241086 -0.008820358 0.0027648206 0.0069254884 -0.0011896201 0.026654255 -0.009740072 0.015648419 0.012241981 0.0013061932 -0.021113852 -0.0022089176 0.017746594 -0.0030569897 0.022097994 -0.017318554 0.00039893147 0.0067564114 0.009026461 0.006703666 -0.0054814313 0.01057119 -0.012800597 -0.0005352038 -0.002530261 0.00209631 0.003305795 -0.025796307 0.017080111 0.0072055925 -0.0044814064 -0.016502934 -0.001661225 -0.0054713115 0.008014321 0.009645755 0.01261684 0.010773351 0.0034216412 0.0029194495 0.011312361 -0.01233453 -0.010816764 -0.0127394525 -0.0070504188 -0.0047416384 -0.011507087 0.005114604 0.0135102505 0.0023584787 0.009286468 0.008931202 -0.0061851614 -0.015232943 -0.014174813 0.0071564415 0.012058856 0.0039719734 0.024431212 -0.009184 0.0033971935 0.0127669675 0.014199571 0.0015961062 0.0034072553 -0.00826797 0.002634639
113799 0.010530518 0.018228933 0.021544337 0.03751169 0.052487683 0.026395524 -0.027011905 -0.001326217 -0.0014139542 -0.013226294 0.0008897542 0.023779426 0.014911699 0.047594264 0.00021711682 -0.031161519 -0.032030996 0.025629578 0.02196763 0.013513663 -0.015710784 0.04651178 -0.020944176 -0.0019670988 0.013137281 -0.006850484 -0.018885298 0.042082433 -0.023654828 0.03225899 0.03430273 0.05661088 -0.007844792 -0.02684804 -0.010129528 0.0054769977 -0.049342122 0.025002478 0.012411763 0.0070382254 0.015025223 0.02766725 0.032250766 0.016927265 -0.034729827 -0.027434401 -0.018429663 0.0060387882 0.008348219 0.008366837 -0.011176491 -0.052096017 -0.00808063 0.038086593 -0.014078651 -0.082613826 -0.06510889 0.0049324967 -0.037365455 0.01659403 0.029315261 0.03681128 0.03366421 -0.038508397 -0.020354016 -0.012293583 -0.008209959 0.0031448377 -0.022080641 0.033326883 -0.040276695 0.018571714 -0.026951013 -0.06438447 -0.03235898 0.010750182 0.0041698315 0.036874644 0.014196039 -0.046566196 0.036798712 -5.2654883e-05 0.039523777 0.01960769 0.012541112 0.019934544 0.024022771 0.01420763 0.010819195 -0.051115066 -0.0022170239 -0.04542785 -0.001229565 0.0249766 0.016399847 0.0075362106 0.011680357 -0.029808318 -0.043003134 0.04633503 0.016336052 -0.004923386 -0.022071376 -0.007236646 -0.0018462599 -0.0064308573 0.03286492 0.011577563 0.0058778906 0.024050757 -0.009663335 -0.060055632 0.014604262 -0.018699696 0.030606747 -0.040182557 -0.021398239 4.5290275e-05 -0.034264874 0.0022579299 0.011314109 -0.02698784 -0.00240886 -0.0026091717 -0.031679425 0.020702654 0.0038212913 -0.019101012
113800 -0.014037482 0.008619198 -0.008706552 0.008804752 0.0043958593 -0.0027741364 0.002078379 -0.010513865 0.00613282 0.00058260374 0.002795969 -0.003243765 -0.006175398 -0.012159085 0.011170253 0.0129127875 -0.0036787179 -0.0041084113 0.0031056963 -0.00047381004 -0.004807654 0.0032329042 0.011377933 0.0055316105 0.007532349 -0.0074166306 0.0010434093 -0.0064941505 -0.001338764 0.0029002542 0.005001685 -0.009737991 -0.0057173837 0.002899339 -0.009276989 -0.017125973 0.012739655 -0.002369641 0.0071538277 -0.007242582 -0.0020957056 -0.011962537 -0.017439943 -0.020185275 -0.005056066 0.0068511157 -0.0057173474 -0.010540578 -0.005074676 -0.016452495 0.006567897 -0.0034782754 -0.007833077 0.008085403 -0.006818155 0.011714954 0.0009704177 0.017177898 -0.004132822 0.002985535 -0.0070218453 -0.0136081595 -0.011841509 0.0030772411 0.010611088 -0.0040234923 0.031482626 -0.0095003 0.023046551 0.010207718 0.006300557 -0.016123395 0.0061825286 0.014731495 -0.0076982467 0.017354475 -0.015516567 -0.00022639128 0.010174198 0.013759188 0.0018931818 -0.0076222857 0.009117315 -0.013335288 0.0010227098 0.0016009288 -0.0055391267 0.007379458 -0.025535084 0.013534552 0.005864606 -0.000500788 -0.013517597 -0.0012039258 -0.008261241 0.003923222 0.009915643 0.010984172 0.007275042 0.0038453515 0.0032841892 0.0031526892 -0.0065737567 -0.006440201 -0.011538871 -0.010535068 -0.0010415782 -0.015875252 0.0027613977 0.01016497 0.0029580262 0.00864896 0.0053348253 -0.0007267506 -0.017606901 -0.008068628 0.004230835 0.009835114 0.009277041 0.015662657 -0.0077360044 -0.004214009 0.00785451 0.015151608 -0.0019968306 -7.646995e-05 -0.012547333 0.0025404913
113801 0.011772095 0.010498333 0.024539035 0.02212652 0.04791073 0.023341686 -0.019087128 0.001232201 -0.011312627 -0.013333261 -0.0026912205 0.015995909 0.008805247 0.03217583 -0.0021013687 -0.030154863 -0.024281664 0.023823747 0.011599907 0.008968397 -0.0084657 0.041663002 -0.027989812 -0.0070506143 0.008177145 -0.011280787 -0.017932698 0.039122097 -0.016529853 0.014813697 0.019737167 0.03927758 -0.0076253894 -0.03063038 -0.0002480626 0.009773789 -0.04372388 0.028774148 0.009948887 0.017566657 0.014856194 0.024651757 0.03570128 0.029396417 -0.02648754 -0.021366596 -0.015489611 0.011527712 0.010284935 0.021998141 -0.008794815 -0.038251054 -0.0022572333 0.021227088 -0.0040654894 -0.060758203 -0.04972812 0.0054532937 -0.016981652 0.016069949 0.024494112 0.037058827 0.030941585 -0.02226652 -0.015235343 -0.0026180896 -0.018697282 0.0037534998 -0.030112155 0.022200702 -0.026326077 0.023344265 -0.023392765 -0.055931475 -0.024199711 0.00012282445 0.0049121347 0.029250834 0.0062513426 -0.03916877 0.0284048 0.0057218596 0.027293278 0.02713978 0.011751781 0.005417192 0.014605481 -0.00048035092 0.015887335 -0.046979893 0.0025257457 -0.033092525 0.0014159244 0.017238228 0.015482047 0.0012839333 0.00045691858 -0.03107469 -0.041247927 0.034474697 0.0077100587 -0.012981052 -0.011370021 -0.0045990213 0.0044428855 0.004202617 0.023269264 0.015144182 0.0014122117 0.0035851744 -0.0087891165 -0.051326822 0.0064936522 -0.01265473 0.038170833 -0.028966019 -0.02301676 -0.0110633485 -0.029616239 -0.0041552032 0.009979843 -0.017988022 -0.0080259 -0.011883605 -0.022871174 0.013348384 0.004500861 -0.016504107
113802 -0.0013144665 0.0036517042 -0.0052102106 -0.0007498622 -0.0044383253 -0.00038486827 -0.0024010816 -0.0018295953 -0.00023538408 -6.535904e-05 0.0002625436 0.00040226508 -0.0047342624 -0.0066827964 0.001881472 0.00040664108 0.004041535 -0.000446053 0.000109354616 -0.0016059327 0.002249958 0.00021107493 0.004367568 0.002380272 0.004167565 0.0027733457 -0.001103801 -0.0038390525 -0.0013644638 -0.0039420696 -0.0054541454 -0.003286395 0.001934226 0.0028301734 -0.0040526837 -0.0008954184 0.0065548928 -0.00038282762 0.0026515813 -0.0053459234 -0.0006113074 -0.008400711 -0.009132743 -0.005550558 0.0035381792 0.0073312204 -0.0013783938 -0.005364492 0.0012713877 -0.005047881 0.0015120058 0.0068876348 0.0002768726 -0.0025381788 -0.0056551695 0.0058743954 0.00980203 -0.00041086922 0.0032757258 0.0025594435 -0.0015265931 -0.005054743 -0.0013388302 0.007157973 0.003794531 0.0008080505 0.009244631 -0.0020468284 0.00602985 -0.0022433372 0.00710188 -0.007002203 -0.0010839234 0.0070405225 -0.0028145502 0.003003429 -0.005550817 -0.006525606 -0.0012308507 0.005047858 -0.0068377075 -0.0033355101 -0.0031760065 -0.008254882 -0.0017887069 0.0006841403 -0.0032959331 -0.001089728 -0.009275665 0.008603398 0.0021444988 0.0062852064 -0.0032121493 -0.0031625817 -0.003171938 0.0049131396 -0.00091707095 0.0018695234 0.0032637932 -0.002248751 0.0024103224 -0.0014745513 -0.00071306847 -0.00061407004 2.6855188e-05 0.00033148853 -0.0028788322 -0.0086925365 0.0024739767 0.001427079 -0.0016999836 0.009980076 -0.0017235765 0.0028182273 -0.004181513 0.00026852253 0.0013813836 0.00039483028 0.0016892015 0.00540449 -0.007171338 0.00097360025 0.0024878252 0.0025098384 0.0052289437 0.0009270705 -0.003527836 0.005153772
113803 -0.011852712 0.012503623 -0.006881855 0.013485613 0.021505602 -0.005787154 -0.0059010675 -0.024188355 0.007817635 -0.0035894196 -0.0036558753 0.003286627 -0.008596225 -0.013204941 0.006531162 0.0064565423 -0.0019797757 -0.006737833 -0.00082148536 3.3400644e-05 -0.0062622195 0.004971948 0.0090332795 0.0067596138 0.0104071535 -0.012173119 -0.001905091 -0.012192076 -0.001720023 0.0027768675 0.005803922 -0.0057014273 -0.01675633 0.0018791372 -0.010546693 -0.016563322 0.013895906 0.0039552045 0.009406267 -0.0056679626 -0.008981306 -0.00578252 -0.014279865 -0.015022298 -0.0074083963 0.0030710201 -0.017062306 -0.01131565 -0.008566753 -0.011232414 0.005899567 -0.0037019183 -0.0073729423 0.0051323506 -0.012173656 0.016741734 0.01078593 0.023312557 -0.0068579237 0.0045584342 -0.0026751033 -0.013181566 -0.00965383 0.015313696 0.012035422 -0.0049583763 0.02974337 -0.008959317 0.020776842 0.01483436 0.0077931173 -0.017503416 -0.0070754513 0.0144562125 -0.009880748 0.015405378 -0.017097363 0.00042062326 0.009044645 0.013034668 0.004822949 -0.004424859 0.012900584 -0.016689133 -0.0006535499 -0.0054819053 -0.008037598 0.0027298038 -0.029633557 0.018727273 0.011689265 -0.002582883 -0.014154228 -0.0024021734 -0.008124531 0.011476886 0.0043096617 0.013511052 0.0055234036 0.00474191 -0.007502685 -0.00039952452 -0.0068062013 -0.006375483 -0.012310886 -0.007427204 -0.011977741 -0.016531128 -0.0021751919 0.0009011285 0.0032159514 0.003321805 0.009798704 0.0036825328 -0.026599841 -0.014299359 0.0054991352 0.012918945 0.007201123 0.023667833 -0.006529301 -0.0017102525 0.004409215 0.010913134 0.005043342 0.0023139215 -0.015007529 0.0098019475
113804 -0.0026273301 0.0033523531 0.0022918105 -0.0024575342 0.0023584384 -0.0016339527 -0.0030333295 -0.0015405656 0.0026339989 0.0017560008 0.0031646714 0.0017825136 0.0011539304 0.0017877446 0.00010672899 -0.0014559634 0.00052319834 0.00344157 0.0023496 0.00039998468 -0.0015330194 0.0030752637 0.0017612703 -0.00059158774 -0.0014380272 0.00327924 -0.0018139553 -0.00067291496 -0.0030888314 0.0028730726 0.0005103487 -0.0012420746 0.002230922 0.0021536755 -8.996438e-05 -0.0034506542 0.0025325494 0.0016813325 -0.0022090427 0.00069451705 0.0014229832 -0.0025750517 0.0030118565 0.0024158629 -0.0011193076 0.0028726608 0.002249064 0.0016471655 -0.0038839085 -0.002125943 -0.0007954658 -0.00071311457 -0.0035206617 0.0010729819 -0.0025201538 -0.0014138799 0.0006134379 0.002691065 0.00038059778 0.0032783146 -0.0031734693 0.0037315546 0.0020818417 -0.0006161537 0.00025527962 -0.0006582955 -0.0013310793 -0.002353275 -0.00096464343 -0.0011103064 0.0013196458 -0.0016975455 0.0034073512 0.0025213799 -0.00326975 -0.002179467 -0.0012788242 -0.00010740449 -0.003231668 -0.0018705421 -0.000763466 -0.00055856584 -0.00043089504 -0.0018439941 0.000511598 0.0035028006 0.0007877973 -0.0016910547 0.0018372334 -8.882346e-05 0.0017322215 0.0022883716 -0.0022900377 -0.0009414899 -0.0017692508 0.0029002056 0.0015395429 -0.0020609598 0.0032462447 0.0019437025 -0.0009311678 -0.002153445 0.0013607106 -0.0025125877 -0.00038612468 0.0025000877 -0.003297334 0.00015068997 0.0017214245 0.0026394103 0.002434116 0.00068426767 -0.0016023524 -0.0026516612 0.0036317157 0.0017412018 -0.000626384 0.0029511882 -0.0023685098 0.0011508645 0.0024738177 -0.0034698276 0.0003999673 -0.0029466986 0.002411676 -0.0021485952 -0.0035342318 0.0010929726
113805 -0.007437422 0.0027559388 -0.009800848 0.0029173363 -0.0030462402 -0.008811544 0.007320693 -0.008529856 0.009005322 0.0051261024 0.0038145543 -0.008194457 -0.009399956 -0.008023861 0.0089335935 0.009625561 0.00090077653 -0.0058012647 -0.00397442 -0.00036628536 -0.006028972 -0.008377652 0.011404028 0.00014948119 0.006042478 -0.00053426164 0.007311639 -0.01299309 -0.0012611148 0.0017539363 -0.0031417853 -0.015474324 -0.0011461627 0.003031742 -0.010637143 -0.012428885 0.021420132 -0.010814305 0.005872475 -0.0023769797 -5.704366e-05 -0.01431711 -0.018994072 -0.02070246 -0.0036415474 0.0077931276 -0.0016192568 -0.012326459 -0.006781315 -0.0128038535 0.0063516963 0.0048172767 -0.0074402597 5.7202073e-05 -0.0037044093 0.01636113 0.009976943 0.010237723 0.0025517968 -0.0035920073 -0.008355343 -0.014803884 -0.0134644 0.009027005 0.010999426 -0.008167638 0.027777074 -0.01008429 0.01889502 -0.0029052696 0.012736312 -0.015646521 0.0054118945 0.024050515 0.0018053307 0.01631097 -0.0071661556 -0.0045927684 -0.0010420373 0.012126919 -0.001215616 -0.007807865 0.003264617 -0.018810831 -0.0006588061 -0.003247419 -0.0002562649 0.008685581 -0.02629149 0.018625733 0.002558179 0.002383512 -0.01103959 -0.0039508524 -0.0027465487 -0.0010471953 0.009139753 0.011045359 0.006349255 -0.0053006546 0.0006976777 0.008355057 -0.00214122 -0.0028134575 -0.008673529 -0.0052937036 -0.0060209613 -0.014211068 -0.0022788204 0.007660747 0.0045496714 0.013641655 0.0032784322 -0.00285241 -0.017457828 -0.006347735 0.009113687 0.009791309 0.007970305 0.012083496 -0.009955784 0.006218267 0.0069249063 0.009985526 -0.0012080852 -0.006211675 -0.007893382 0.0073343352
113806 -0.0022885571 0.0018242266 -0.0027019386 -0.001714815 0.0021653718 -0.0023718106 -0.0031441997 -0.001287101 -0.00298148 0.00103459 -0.0026356697 -0.0033994347 0.0007404428 -0.0014516094 0.003785409 -0.0025572558 -0.0037186253 -0.003130131 0.0037981938 0.0010546991 0.0032232206 -0.0032384393 0.0020022064 0.0006431129 0.0034012678 -3.6504003e-05 -0.0016153692 0.003593014 -3.5018275e-05 0.0015626168 -0.003211884 -0.0025550013 -0.0021764913 -0.0025947015 -0.002056383 0.0021318803 0.002760747 -0.00044657718 -0.0020229886 0.0008151964 0.001940342 0.003739006 0.0015098057 0.00024363247 0.0032305466 0.0030164658 -0.0019659295 -0.001701915 -0.003355834 6.2239356e-05 0.0010406893 0.0032306751 -0.0033958417 0.003756774 -0.0011831967 -0.0010419365 -0.0010048575 -0.001416813 -0.0025196478 -9.833896e-05 0.0016417343 0.0005457108 0.0031265235 0.0035472936 0.001319666 -0.001097078 -0.002557337 0.0010426324 0.00070103427 -0.00036996597 -0.0021495884 0.0037552542 0.0015246079 -0.00012354496 -0.0006944558 -0.00044262208 -0.0010893535 -0.0031232683 -0.00022198835 0.0007503888 -0.0001165902 0.0031232338 -0.0019772009 -0.0028928884 0.0035956434 0.0017720916 -0.0002926023 -0.001051336 0.0014092503 -0.0029765365 0.0014971058 -0.003755459 -0.0031598997 0.0031941663 -0.0034174803 -0.0006150015 0.0029064557 0.0023264023 0.0034413391 0.00029154212 -0.0014880422 0.0038715233 -0.00026371502 -0.00046917875 0.0037751577 0.0025259433 0.0026146544 -0.0037773259 0.0022129463 -0.0008450072 0.0010391754 -0.0020188775 -0.00022767467 -0.0037445244 0.0016569159 -0.002083202 0.003104976 -0.001547747 -0.0016622172 -0.0007555407 0.0034077272 -0.0035474075 0.0035242357 0.0014708785 -0.0019457085 -0.0038236687 0.0015424147 0.0030704034
113807 -0.0071328287 0.0022873452 -0.004355764 0.0054232418 0.008496315 -0.00255695 -0.000425126 -0.0026056997 0.006864826 -0.0045151133 0.0014562878 0.00041348563 -0.0018839092 -0.0039586616 5.9147278e-05 0.0018692749 -0.0007039685 0.00086982735 -0.0039290613 0.0009506647 0.0002112832 0.0049665435 0.0027919335 -0.0015789835 0.005544171 -0.0019716783 -0.00066324935 -0.00066639174 -0.0011621662 0.0043819807 0.0048491186 0.0011024764 -0.0025369725 0.00053950713 -0.003282148 -0.010287819 0.005631989 0.0018057091 0.0015772723 0.0016359027 -0.00084646855 -0.0005873693 -0.013592113 -0.007901146 -0.002008623 -0.00063868426 -0.007881647 -0.0062286113 -0.00018879033 -0.009085217 0.008389257 -0.0013807281 -0.0030490358 0.004074598 -0.0072445255 0.0033999442 0.0034867732 0.008959686 -0.0025493419 -0.0045988797 0.00018444895 -0.009944746 -0.0029276812 0.0013513815 0.0013700275 -0.005091073 0.016451748 -0.0020394246 0.012871037 0.0077886633 0.005298979 -0.011527642 0.0023467843 0.011373632 0.00030016614 0.010470578 -0.0066660177 0.0018697166 0.00035779268 0.00379427 -0.0022669733 -0.0030093456 0.0025187286 -0.005818323 0.002622558 0.0045347675 -0.0013667 0.0014859794 -0.012519787 0.006000201 0.0068011032 0.0019882158 -0.0088740885 -0.0028284094 -0.0024819914 0.0014335391 0.0042878073 0.0071501313 1.8903334e-05 0.0017831862 0.00075029035 0.0026863394 -0.0049665794 -0.0042474405 -0.009749109 -0.0044947225 0.003433304 -0.005464836 -0.00073490787 0.006238262 -0.0022453812 0.0028318958 0.0061457655 -0.0015025795 -0.0069543356 -0.0035014916 0.0043145483 0.0056569544 -0.0014909361 0.013266645 -0.003760403 0.00412799 -0.00028219796 0.003386551 -0.0006931835 0.0022320575 -0.0016858844 0.0020372886
113808 -0.0053969496 0.0059612705 -0.0035285251 0.006057019 0.008464362 -0.0066670794 -0.0020495735 -0.014344865 0.0067512468 -0.002684737 0.0025369662 -0.0047521307 -0.008052966 -0.01263639 0.008567406 0.0052376026 -0.0017465685 -0.006114831 0.0005323939 -0.006224023 -0.008252927 0.0063315993 0.009781189 0.0011815717 0.009814279 -0.0054928027 0.0009747582 -0.010748601 -0.004078248 0.0026870563 0.003830659 -0.0023378571 -0.012254239 0.00018893181 -0.008393515 -0.016421532 0.012308112 -0.0036760273 0.0067603164 -0.0021225798 -0.0075424565 -0.010301546 -0.010652927 -0.014286861 -0.003898153 0.007996048 -0.011799519 -0.010030579 -0.009565654 -0.013947131 0.007099202 -0.005350649 -0.008818146 0.0024401061 -0.011293253 0.007257255 0.0024536387 0.012121343 -0.00704757 -0.00024793018 -0.00618622 -0.010657518 -0.010129484 0.009172574 0.0044346075 -0.007906771 0.024939278 -0.010989995 0.016225688 0.011896025 0.004727446 -0.01777089 -0.003265293 0.017119324 -0.007767788 0.012147112 -0.009170375 0.0007113374 0.0023507795 0.0096908575 -9.898293e-05 -0.008466421 0.0075622 -0.012666081 -0.0009963476 -0.0019023932 0.00010302129 0.007892202 -0.021221388 0.013797698 0.0031562545 -0.0019507138 -0.015151108 -0.0028431916 -0.000854054 0.005508738 0.00899379 0.012623118 0.0040104785 0.0037743158 -0.0033860528 0.00036712058 -0.004637228 -0.0070978287 -0.011077158 -0.008376146 -0.005457325 -0.013655576 0.00096781313 0.0056400844 0.005578443 0.005087996 0.0035671555 -0.0016376049 -0.020401629 -0.008148265 0.006143008 0.006900763 0.008058903 0.018294105 -0.013820431 0.002341414 0.0071801185 0.015897686 0.0016244246 -0.0038145604 -0.011540844 0.006200148
113809 0.00027747152 -0.002908652 -0.0015889271 -0.0028184694 -0.0008143055 0.0031563472 -0.0015092838 0.0011838767 0.000874819 -0.002193824 -0.0031627354 -0.0028788755 0.002483268 -0.00262534 0.0020157807 0.0012001565 -0.0037278307 0.0030387356 0.0026140788 -0.0030500263 0.0017431099 0.0009741634 0.0012736971 0.0010107843 0.0005690517 -0.0030294952 0.0031604634 -0.00042318192 -0.0028806683 -0.0026559317 0.0022422918 0.0009118993 0.0010902836 0.00046094385 0.0024456414 -0.0017877474 0.0018821215 -0.0035823816 0.00027025328 -0.0017990711 -0.0032604116 -0.0007309697 0.0014219646 -0.00012369787 -0.0005698171 0.0027528768 -0.0025608575 0.0019041379 0.00080434536 -0.000120854085 0.0024419231 -0.0038385005 -2.8810135e-07 0.00016726437 0.002389979 -0.0014326132 -0.0035616101 0.0030122418 0.00289096 -0.003889897 0.0015420308 -0.0005759792 -0.0011880882 -0.00021147617 -0.001208971 0.0013702743 -0.00084089296 -0.0021046903 -0.002962185 -0.000731457 0.0013083103 0.0004741018 -0.0036824988 -0.0032600213 -0.0008026896 0.002104921 0.0012809263 0.000982075 0.001519323 -0.0025128874 0.001431796 -0.0017313509 -0.002061173 -0.00088655145 0.0018344048 0.0035214303 -0.0033791957 0.0020971932 0.0038265283 -0.0021149714 0.0015914377 -0.0014466487 0.0021454354 0.0020670563 -0.00086670305 -0.0015436689 0.0030697035 -0.0014926854 -0.0011399821 0.00074173167 -0.0003888154 0.0021681958 0.0030822975 0.0011012902 -0.00022081731 -0.0027715017 -0.0030882207 -0.0039032348 0.0027940015 -0.0009476707 -0.001905957 -0.0034156346 0.0036549387 0.0021963245 0.00064304756 0.0016092022 0.002096486 0.0014730083 -0.0009775001 -0.0033271036 -0.0021241768 0.0024918462 0.0027574261 -0.00021258775 7.645706e-06 0.0008155779 -7.9386606e-05 0.00080552517
113810 0.057813354 -0.0067363484 0.058053244 0.072789855 0.07777044 0.09442291 -0.06327141 0.04977841 -0.029837871 -0.016276248 -0.0007112509 0.0593557 0.051163126 0.15502882 -0.028553579 -0.072255835 -0.060286112 0.08928531 0.055037674 0.04746246 -0.03953199 0.10605286 -0.053049266 -0.023676487 -0.0018136979 0.01622315 -0.04148412 0.14285845 -0.038802512 0.07172776 0.102296725 0.15111572 0.024474796 -0.0761928 -0.0014395699 0.025289917 -0.14197324 0.052685924 0.012451268 0.029592164 0.03888111 0.082922414 0.09970896 0.05065359 -0.064703144 -0.0850586 -0.010027428 0.048143756 0.04130605 0.038827024 -0.053261843 -0.12331897 -0.0017399425 0.07783 0.008598333 -0.2413209 -0.18130244 -0.043977078 -0.08347446 0.02701974 0.07880239 0.09491357 0.098771624 -0.14876892 -0.06856703 -0.019275181 -0.1059849 0.048729375 -0.12543848 0.04894411 -0.11018359 0.076579906 -0.02207589 -0.19347048 -0.06632772 -0.0015641012 0.04873791 0.094722316 0.007627641 -0.15084785 0.090104684 -0.009775108 0.07155936 0.08181899 0.061170973 0.057079453 0.07417325 0.03432257 0.09025929 -0.1874321 -0.0598476 -0.09357177 0.018469233 0.06488756 0.065262444 -0.0034372527 0.014531125 -0.105079174 -0.09050978 0.113493405 0.07966774 -0.01670313 -0.030753627 -0.013894561 0.0015392955 8.944794e-05 0.13218209 0.06598343 0.001951823 0.0821622 -0.010196942 -0.14694123 0.03050491 -0.047784254 0.13368903 -0.08172211 -0.057358723 -0.0089147575 -0.113840036 -0.0485788 0.044295166 -0.059120808 -0.023663584 -0.0318103 -0.10194933 0.04399885 0.0335491 -0.06325414
113811 0.040044386 0.0072544096 0.062882006 0.057041313 0.08662817 0.062406283 -0.051269814 0.026814984 -0.0258542 -0.020992935 0.00027401585 0.044066485 0.040279277 0.10444205 -0.01901729 -0.06780904 -0.04394162 0.059992634 0.03740458 0.030758025 -0.020907221 0.08424407 -0.05038251 -0.013346603 -0.000334565 -0.0014342911 -0.03300628 0.09551331 -0.033550426 0.045540843 0.05982244 0.111677855 0.00096975866 -0.06179234 0.004654854 0.023135867 -0.11323392 0.053006556 0.018087927 0.023125159 0.03154972 0.06743129 0.08643561 0.07013929 -0.05821113 -0.069912925 -0.021064714 0.036304828 0.033071738 0.04103697 -0.028654847 -0.08975225 -0.0075126 0.05051522 0.0053111077 -0.16860242 -0.124712564 -0.02072514 -0.048692457 0.028136322 0.0638037 0.08647953 0.07728837 -0.09252655 -0.0530494 -6.826245e-06 -0.08104157 0.029538441 -0.090407096 0.052085314 -0.085190155 0.06539382 -0.042539727 -0.15035689 -0.044480998 -0.010893936 0.02937196 0.06329621 0.0069534406 -0.1128575 0.07135876 0.0088114105 0.057834424 0.06824298 0.03665403 0.027291082 0.044868223 0.0077907015 0.07113247 -0.1314237 -0.03265804 -0.07637178 0.011200429 0.04918078 0.034177627 -0.0008613372 0.005906791 -0.0739336 -0.07548049 0.085299626 0.03771864 -0.012155313 -0.02018866 -0.009759805 0.015674185 0.010360375 0.07629941 0.047850795 0.005081454 0.03971574 -0.011210328 -0.12462415 0.020573586 -0.025909051 0.09594936 -0.06307978 -0.05311563 -0.013306589 -0.08527362 -0.0290717 0.046542335 -0.04902296 -0.021527955 -0.029788356 -0.06464132 0.03560537 0.027681364 -0.038907234
113812 -0.014187071 0.0089501925 -0.0042893128 0.0074942173 0.010359242 -0.0020384965 0.0048491172 -0.009961816 0.00912575 -0.0033239094 -0.0011480378 -0.0011123654 -0.00907781 -0.008904657 0.0034915146 0.012060511 -0.0010940008 -0.0021145183 0.0009413062 -0.0037001304 -0.005673984 0.0033278682 0.010786789 0.00244653 0.012065386 -0.005779033 0.004827769 -0.01352465 -0.006093291 0.0012575247 -0.0030654725 -0.010196161 -0.0076895263 -0.0014770867 -0.011197008 -0.0080057625 0.015820343 0.00034705503 0.0063207136 0.00089242304 -0.0066627637 -0.0068487804 -0.013543094 -0.016668411 -0.0053062984 0.010684023 -0.010902602 -0.010436043 -0.0052424837 -0.0093270885 0.0043022353 0.0017945908 -0.0050843055 0.0018148827 -0.009179071 0.014981414 0.009975637 0.018471504 -0.00028002053 -0.0007026036 -0.0044853347 -0.014552122 -0.008813507 0.009037114 0.011331762 -0.0060844533 0.030477863 -0.012750568 0.022186441 0.009193813 0.0062055574 -0.016713394 0.0002536334 0.020018743 -0.004222049 0.0149366455 -0.01191855 -0.003605795 0.0064048464 0.014937481 -9.7553e-05 -0.0032286863 0.003553732 -0.014173338 -0.003997897 -0.0024061822 -0.0037117656 0.0045225895 -0.026123824 0.017832654 0.009569637 -0.0018049257 -0.015429105 -0.0014542382 -0.0055410927 0.0052413912 0.011393291 0.0094662 0.00931154 -0.0010739086 -0.0067055644 0.006795536 -0.0028529798 -0.005306099 -0.008467259 -0.010461704 -0.0051793642 -0.014604799 0.00018587755 0.0040886537 0.0012059764 0.011177326 0.0040880824 -0.0040547224 -0.021141399 -0.007786954 0.006697606 0.0043819887 0.009761219 0.018682366 -0.013680938 0.005414137 0.009221331 0.008088827 0.00030681212 -0.0035192454 -0.008342626 0.0023088146
113813 -0.0027915235 -0.0019415255 0.0034591032 0.002353759 0.002596793 0.0015608057 -0.0005605228 0.0020771541 -0.0008334998 -9.019017e-05 -0.0034316513 -0.00026611923 0.0009900348 0.0032557067 -2.118617e-05 0.00095366256 -0.0020616539 0.0029993807 -0.00370495 0.0011407302 -0.0024135327 -0.0003105055 0.0022787717 -0.0014537802 -0.00083295425 -0.003707346 -0.0004280161 0.00019651449 0.001928015 -0.002541631 -0.0016648168 0.0011469283 -0.0021826182 0.00055117777 -0.00023506315 -2.9812687e-05 -0.0013834932 -0.00013544815 0.0031041654 0.0015658635 0.0025863938 0.0017494456 -0.00037118164 0.0021255657 -0.0008313507 0.0031973645 0.0029859059 0.0025001667 -0.003003634 0.0008189988 0.003262802 0.0028870262 -0.00010549577 0.00349592 -0.0031367769 -0.0005085929 0.002149317 0.0019419298 0.0022083323 1.390528e-05 0.0036290349 -0.0002314539 0.0038120197 0.0032672847 0.003428409 0.0025501733 0.00015220762 -0.0008720904 0.0031058567 0.0005227318 -0.0016838661 -0.0018828555 -0.00037140664 -0.0019168154 -0.00064305664 -0.0011604324 0.00013106277 -0.0022356333 -0.0027296206 0.0017130448 0.0020545817 -0.0023864869 -0.002482715 0.0011359171 -0.0018044019 -0.0022705672 -0.0035244976 -0.00031938715 -0.0033104683 -0.003324826 0.0032559284 -0.0027445224 -0.0007479938 0.0007982341 0.0008291628 0.0009117957 0.0030736143 -0.002432447 -0.0026103407 0.002419954 0.0034805806 -0.0021065506 -4.6163343e-05 0.0027935968 -0.00041753618 0.0009994837 0.0031209385 0.0015085569 -0.0022932081 0.0036630481 -0.0023877032 -0.0010158655 -0.0020988774 -0.00057526433 -0.0034332636 0.0011227635 5.6401488e-05 0.0005309063 0.0012021407 0.0026328189 0.0016512094 0.0006807163 -0.00084255694 -0.0016694425 -0.00131786 0.0019946531 0.0038560815 0.0034022334
113814 -0.014653317 0.010404857 -0.009487099 0.007072253 0.007535231 -0.005018337 -5.0916307e-05 -0.017983286 0.0092365565 -0.0028142468 0.00202012 -0.0017743764 -0.0069568357 -0.010237987 0.0046500256 0.00928234 0.0019271317 -0.0053362167 0.0004137136 0.00057763665 -0.005602905 0.0016154607 0.01117535 0.008361359 0.005613556 -0.0029031588 -0.0012437738 -0.006167123 -0.007464993 0.00551725 0.008023559 -0.0037129696 -0.011233774 0.0022319471 -0.014121644 -0.018497055 0.015050576 -0.002882119 0.0091230655 -0.0044645895 -0.0048706443 -0.009852926 -0.018630333 -0.02029658 -0.004089563 0.009916014 -0.012357622 -0.012324288 -0.010358759 -0.017636238 0.007363905 -0.002185158 -0.009038619 0.0075503606 -0.014710713 0.0059765982 -0.0019167699 0.010152299 -0.0051094675 -0.0031656756 -0.008710653 -0.01994511 -0.009368275 0.0031333298 0.0074758646 -0.0105900075 0.029829187 -0.009237833 0.022189701 0.012647853 0.0074859224 -0.023778275 0.003031904 0.02115174 -0.0075408914 0.019268915 -0.012693567 -0.0044459896 0.0013861426 0.013395224 0.0036429346 -0.011592713 0.0075225825 -0.01851886 0.0011830591 0.001079556 0.0038029866 0.010270965 -0.03322419 0.018550327 0.004104848 -0.0024323587 -0.013478085 -0.0028507656 -0.0014384682 0.006032411 0.008534802 0.011107753 0.0036181952 0.004708048 -0.0023451373 0.007438464 -0.010357257 -0.0112399645 -0.013302611 -0.015154963 0.000271978 -0.015165365 0.005584048 0.010007601 0.003162388 0.013481829 0.0007846127 -0.009125227 -0.023750076 -0.015599222 0.0051577706 0.012949531 0.0063407435 0.0215564 -0.014555676 0.004876297 0.01137732 0.01809759 -0.005354405 -0.0019417183 -0.010291773 0.0048277644
113815 0.050870597 -0.004810871 0.06135946 0.055708095 0.061348103 0.08923977 -0.063173294 0.07543852 -0.037146844 -0.009036022 0.006830482 0.05505095 0.06077341 0.15259062 -0.03079529 -0.07738233 -0.045916207 0.08870541 0.04890411 0.038469143 -0.02769589 0.09499304 -0.05562693 -0.01206553 -0.018456709 0.021045547 -0.030423589 0.1175292 -0.04098633 0.045743007 0.08351727 0.14795777 0.034859415 -0.06679829 0.01196758 0.035560194 -0.13868764 0.045967415 -0.0031939517 0.022436237 0.042198256 0.080446355 0.09797937 0.0666538 -0.056336373 -0.09411457 0.008502051 0.04273536 0.049113132 0.035439048 -0.028427612 -0.098986596 -0.0031893668 0.065231174 0.015991863 -0.21880697 -0.17245804 -0.056136705 -0.06947118 0.0024316905 0.07225694 0.10136978 0.095513046 -0.1410611 -0.072369605 -0.006658581 -0.13006677 0.055117004 -0.1347542 0.032466356 -0.11874149 0.09008795 -0.009433125 -0.18909822 -0.041569903 -0.011446824 0.05111866 0.07146213 -0.004582621 -0.14631702 0.072994865 -0.0052919555 0.06634109 0.08968629 0.05145981 0.042287085 0.06678066 0.022698043 0.09727182 -0.18326066 -0.050875813 -0.077945106 0.029194701 0.05228824 0.055262957 -0.0085109845 0.009953247 -0.10329071 -0.089211084 0.100829974 0.07250165 -0.001745482 -0.026142146 0.0059715896 0.025075043 0.006710631 0.12480654 0.060037583 0.008358291 0.0773043 -0.006311168 -0.13295485 0.014610822 -0.041673195 0.12530626 -0.063011624 -0.052791543 -0.023945529 -0.096102744 -0.059725177 0.048728578 -0.0627676 -0.028565597 -0.040641353 -0.08953331 0.050625153 0.03924935 -0.044790324
113816 0.0030593676 0.0037391083 -0.0014002264 -0.0014095486 -0.0024877887 0.0007958604 0.0022986345 -0.001009742 0.002940917 -0.0028573854 -0.0035970763 -0.0028562304 0.0015997388 -0.0001987439 -0.0013428295 -0.00026621515 -0.0001617958 -0.0009550825 -0.001909668 -0.0003707038 0.0006708202 -0.0021271089 -0.0017323743 0.00360057 -0.00326846 -0.0008947798 0.0023758623 -0.0031244983 -0.001267082 -0.001478623 0.00013850698 -0.0036614323 -0.0014867762 -0.0029550141 -0.0029893161 0.0009487655 0.003314822 -0.00080065406 0.0014707999 0.0030140947 -0.0024133597 0.0009479431 0.0020118118 -0.0021495821 0.0017721591 0.0023077016 -0.0002449566 -0.00051556056 -0.0009869586 -0.00071845297 0.0024493549 0.0008159903 0.0032077306 0.0036348405 0.0013342708 -0.0017953339 -0.0012345182 -0.00032064965 0.0010341051 -0.0018915371 0.0012060046 0.0038220775 1.6012003e-06 0.002617751 0.0029174916 -0.0037588056 -0.0022662017 -0.0027046984 -0.003028566 -0.0013547193 -0.0029332184 0.0031461935 -0.00041106757 0.0007296806 -0.0020120365 0.0032950107 0.0028116296 -0.0011001688 0.0027304974 0.0021082407 0.0016464283 0.0029228444 -2.056332e-05 -0.0038360937 -0.0032782662 -0.0032528318 0.00039469823 0.0037231403 0.0016671148 -0.0034844154 -0.0029087518 0.0003284333 0.0020827209 -0.002967291 0.0030529888 0.00027390302 -0.003735179 0.0031442319 0.0007980159 -0.0021934763 0.0020105809 -2.4207451e-05 -0.0011792626 0.0033425875 -0.002013819 -0.0015673211 0.00013096008 0.0026559823 0.0038171127 -0.003711919 0.0029089728 0.0024981 0.001135516 0.00048336477 0.00022039606 0.003133698 0.0017084999 0.0011456662 0.0015993984 0.00025935672 0.0025620374 0.00085815415 0.0034087878 -0.0025349844 0.00026316612 -0.002410958 -0.001590549 -0.0037214758
113817 0.028275693 0.0819165 0.09259685 0.14305373 0.23268378 0.117066965 -0.10353267 -0.035890218 -0.018250126 -0.05266567 0.0025479 0.08410282 0.04292203 0.13524164 -0.0046631834 -0.10264035 -0.09896639 0.08336274 0.07917653 0.04908674 -0.06271701 0.18025218 -0.06589991 -0.004655036 0.036921263 -0.052255847 -0.061607707 0.15207918 -0.0744311 0.11086151 0.13626361 0.18784085 -0.061928697 -0.118657716 -0.032219775 -0.00486859 -0.16409759 0.10896949 0.06570467 0.025534168 0.041345417 0.09879164 0.11128208 0.074759156 -0.13272688 -0.10207049 -0.09396019 0.015815025 0.029866451 0.0396238 -0.0361669 -0.1804841 -0.050695423 0.120006435 -0.048308816 -0.26805368 -0.21265952 0.054474305 -0.12046262 0.06651096 0.102849536 0.12209781 0.1278259 -0.137704 -0.066138335 -0.021286083 -0.027860451 0.018201686 -0.08416881 0.1396615 -0.13421372 0.06262468 -0.104632095 -0.23434414 -0.12067886 0.046285875 -0.003423853 0.1157096 0.052403774 -0.15141489 0.15013339 -0.0001727632 0.14818317 0.07582136 0.050114322 0.040882036 0.06265429 0.031889882 0.025201641 -0.19051105 -0.017510327 -0.15468878 -0.012223241 0.088101335 0.03725044 0.031263124 0.04332 -0.09736629 -0.14208901 0.18258025 0.040045366 -0.02727412 -0.08167449 -0.05616819 -0.0062080356 -0.018564822 0.11810294 0.031125192 0.0033645895 0.082779035 -0.025767999 -0.21222082 0.06407343 -0.055367593 0.10209606 -0.16559614 -0.08969676 0.012098121 -0.11852452 0.04660703 0.03651701 -0.09929655 -0.014754773 -0.007655608 -0.1014113 0.055982005 -0.0056136907 -0.051736776
113818 0.03005545 0.108148865 0.105032966 0.132772 0.2673405 0.10303571 -0.11058781 -0.04823811 -0.03619155 -0.07150445 0.00061192724 0.076038055 0.04216828 0.1051895 -0.0022156572 -0.12587948 -0.1095203 0.070915885 0.08407096 0.04880367 -0.057021942 0.1884778 -0.085524514 -0.0066381856 0.043290414 -0.08547198 -0.082522035 0.15193182 -0.07288888 0.10043358 0.12256254 0.18116026 -0.08694018 -0.13114163 -0.014053737 0.008274475 -0.16425481 0.12763761 0.067602694 0.0371006 0.027000675 0.11063928 0.14503573 0.10199 -0.13140742 -0.10038561 -0.10840511 0.005733279 0.019045684 0.057623066 -0.03599139 -0.17609711 -0.057628367 0.1166133 -0.059048556 -0.25849825 -0.20833398 0.06817944 -0.104279384 0.08960391 0.11643378 0.14139892 0.14577724 -0.09889426 -0.0616142 -0.008209481 -0.0053254347 0.0043446613 -0.07817688 0.14542478 -0.12532161 0.08104519 -0.14604647 -0.2343461 -0.13987622 0.034562133 -0.0066166837 0.12269752 0.055934526 -0.14052832 0.16805018 0.023938753 0.13541889 0.091274984 0.050187837 0.014701197 0.042123217 0.010238226 0.026434377 -0.18487932 0.0018520466 -0.16145274 -0.009244993 0.0971693 0.024651054 0.041076675 0.027725196 -0.09565947 -0.17063004 0.18923573 -0.008815751 -0.055083703 -0.07563881 -0.04698324 0.0026481005 0.0051565557 0.08174881 0.03849533 -0.0010159685 0.035354637 -0.044915915 -0.24673317 0.06437357 -0.026348999 0.08972462 -0.15842862 -0.09641409 -0.005293405 -0.12912382 0.05056278 0.033460148 -0.10714394 -0.027794128 -0.02253076 -0.08532617 0.05379116 -0.030311005 -0.067299195
113819 0.0923762 -0.004368091 0.11421574 0.072984464 0.095466815 0.120845325 -0.094291836 0.081338435 -0.07207044 -0.03073198 0.009576081 0.08240401 0.09406332 0.19201747 -0.053359587 -0.14237034 -0.07003704 0.11899295 0.067461476 0.052039977 -0.02403524 0.13212986 -0.10855377 -0.03045047 -0.03769493 0.017523654 -0.060853045 0.1872654 -0.042311408 0.06333163 0.10237671 0.22237518 0.02719786 -0.106182024 0.0353249 0.063866116 -0.21815598 0.08476256 -0.002257203 0.044273276 0.05849529 0.12564763 0.18469751 0.15519267 -0.07670148 -0.13622127 -0.003056568 0.080818854 0.06015539 0.09657084 -0.067199096 -0.1476208 0.011509936 0.08111664 0.041409623 -0.30598494 -0.21507615 -0.071733244 -0.08395617 0.03458772 0.120443046 0.16406018 0.15158805 -0.17584093 -0.112300836 0.009011972 -0.21109664 0.08467724 -0.20411554 0.048896987 -0.15791604 0.14967488 -0.054636285 -0.28156096 -0.052039087 -0.049512878 0.084588714 0.120922595 -0.0048741885 -0.2092792 0.10083064 0.029437166 0.0803762 0.1465219 0.06492345 0.04915801 0.09058272 0.014814015 0.1908963 -0.2607275 -0.06749956 -0.108177006 0.080464154 0.0899825 0.069912106 -0.016592588 -0.016125834 -0.152058 -0.13491133 0.15384842 0.07838082 -0.027003761 -0.021723652 0.004042076 0.05300066 0.044099156 0.15507565 0.108354755 -0.001348335 0.05500985 -0.038031086 -0.22203694 0.0205229 -0.029949522 0.21282369 -0.07121408 -0.08607713 -0.028224664 -0.16184624 -0.09171204 0.09373566 -0.08745738 -0.06388028 -0.07410568 -0.10120289 0.06400553 0.067732155 -0.06936075
113820 0.038613964 0.0056515285 0.05437268 0.06016111 0.086929485 0.075308785 -0.06374969 0.034344696 -0.025407515 -0.02617801 0.0009868866 0.04239126 0.040399358 0.123294055 -0.016833436 -0.06363493 -0.054986544 0.07241692 0.040111333 0.035297725 -0.02806144 0.09694739 -0.051493984 -0.023468507 0.006999467 2.1923324e-05 -0.03909654 0.11410751 -0.044187736 0.05524926 0.081510864 0.1208814 0.008126855 -0.06814655 -0.00081779674 0.028751163 -0.11915558 0.05735377 0.021875672 0.029997203 0.03876482 0.0680148 0.079559624 0.056198616 -0.0670547 -0.07371859 -0.019953888 0.037465878 0.038953282 0.036479473 -0.033868074 -0.10793416 -0.009764487 0.05698707 -0.0011240982 -0.20214278 -0.15291712 -0.024502786 -0.06147411 0.027644342 0.0657686 0.09180439 0.08289516 -0.11247384 -0.058133397 -0.019341605 -0.0753255 0.03577874 -0.097266346 0.056472413 -0.0899689 0.0721345 -0.03724515 -0.1682064 -0.058953144 -0.0044029513 0.033740994 0.07852604 0.010264942 -0.124062896 0.075448774 -0.004406508 0.060770202 0.06267289 0.047385987 0.044220783 0.056683578 0.012015044 0.058758 -0.15781043 -0.032091398 -0.08729513 0.011765364 0.055607654 0.049226854 -0.00056600675 0.014896644 -0.08401672 -0.08760366 0.09952794 0.049260665 -0.01371772 -0.03003106 -0.011333956 0.008105714 -0.0020081063 0.09386338 0.05003435 0.0037454688 0.05441849 -0.013118758 -0.13261819 0.029190436 -0.046087697 0.108521774 -0.077308334 -0.05677214 -0.014872606 -0.08415341 -0.032051682 0.034514684 -0.052272752 -0.016434273 -0.032183155 -0.08038885 0.035662048 0.025373837 -0.053766504
113821 0.007293759 0.02635773 0.026702529 0.04401989 0.07426675 0.032488313 -0.036419664 -0.013978169 -0.0013976294 -0.022709107 0.0019974245 0.020458102 0.0061211134 0.041358653 -0.0062699653 -0.03456573 -0.03412528 0.02719051 0.026303347 0.010264355 -0.021901958 0.058755882 -0.022800097 -0.0062054964 0.015054956 -0.011075869 -0.021886341 0.047392257 -0.025651682 0.033008847 0.043065347 0.056365993 -0.018940846 -0.041273408 -0.014666987 0.0013729178 -0.050086267 0.031605545 0.02051886 0.017441163 0.016245838 0.03483134 0.03544338 0.027186455 -0.044485644 -0.029269518 -0.033043366 0.003941068 0.009861643 0.011977735 -0.0064294953 -0.056461953 -0.014275814 0.036290716 -0.01737629 -0.08543365 -0.06788453 0.017713701 -0.03053519 0.02070763 0.025416031 0.038128898 0.034413014 -0.03554632 -0.016918061 -0.000371482 -0.0056590694 0.0070019253 -0.018959275 0.044361465 -0.039480686 0.01589171 -0.03374685 -0.068921916 -0.036923837 0.017420711 -0.0073574977 0.039879803 0.01553392 -0.047040917 0.043925438 0.002304828 0.04037656 0.024543969 0.01754166 0.013781399 0.018147836 0.003058398 0.0038725603 -0.05156595 0.0029530392 -0.045465343 -0.0026293914 0.02913857 0.011888506 0.00968485 0.013205507 -0.0313345 -0.040710717 0.056278292 0.010734657 -0.006821976 -0.025181813 -0.011879301 -0.010756231 -0.00039036275 0.03403062 0.017601693 0.0037994056 0.0223462 -0.009260039 -0.06917384 0.02119623 -0.01918553 0.03166718 -0.051775146 -0.028514383 -0.001642141 -0.03329587 0.014042631 0.003929945 -0.028947737 -0.0055342093 -0.0075028758 -0.031118546 0.018812967 0.002217668 -0.019206736
113822 -0.013466592 0.008377549 -0.005222511 0.007326419 0.013466142 -0.0039225854 0.004355448 -0.018135354 0.009498035 0.0031780454 0.002369447 -0.006806976 -0.0071462533 -0.013641031 0.0075170132 0.012111123 0.0050181537 -0.008861897 -0.0034465564 -0.0041289786 0.0009024573 0.00047596428 0.012524717 0.0050100116 0.005916275 -0.008053876 0.003445146 -0.014375263 -0.002641835 0.0050483607 -0.00044008513 -0.011803544 -0.01577197 0.0056345966 -0.0093323225 -0.016520992 0.013720983 -0.0062036603 0.0067720464 -0.010554537 -0.00907804 -0.005879242 -0.014843368 -0.02103362 -0.008803803 0.0059825177 -0.011915476 -0.015262635 -0.00906158 -0.011269028 0.0032237708 0.0043553743 -0.00991394 0.0022199966 -0.009070744 0.0202214 0.009121883 0.015821604 -0.002202193 -0.00024506424 -0.0067466972 -0.020424208 -0.011503545 0.014777974 0.007095607 -0.006024035 0.034790598 -0.010355063 0.024449129 0.008104763 0.010686162 -0.019269481 -0.004786572 0.020791186 -0.0018163732 0.018097531 -0.015293347 -0.0035740226 0.0035175113 0.01405449 0.0026856528 -0.0074020466 0.004225468 -0.016856892 -0.0006189297 -0.003545495 -0.0072184093 0.0047414917 -0.022387516 0.023320116 0.0038716516 -0.0017231182 -0.012812211 -0.0071881795 -0.008610698 0.0046737 0.008690691 0.015887748 0.009634248 -0.00063897204 -0.01018735 0.00043157343 -0.0022872898 -0.012145102 -0.009326766 -0.005005313 -0.007749566 -0.014044294 -0.0004160643 0.004768509 0.003445471 0.010277617 0.0070594335 0.00324438 -0.023248505 -0.0065948423 0.008054694 0.0073088068 0.0126133235 0.023872616 -0.007893225 -0.00031659982 0.004906087 0.011457985 0.008179068 -0.0027469296 -0.00906731 0.0038584473
113823 0.016643388 0.1411534 0.10248712 0.15328224 0.30123183 0.0935198 -0.11252807 -0.10639333 0.0013139406 -0.0821155 -0.022364112 0.06664438 0.016141396 0.07571485 0.015062781 -0.10633296 -0.10031024 0.05016869 0.07660658 0.020487806 -0.07212419 0.20330115 -0.07486081 -0.0105858315 0.06108324 -0.09729471 -0.08467232 0.12558629 -0.076741606 0.10701357 0.12695529 0.1678137 -0.12579805 -0.12285422 -0.029593393 -0.010922394 -0.1378516 0.120994546 0.089539126 0.024073493 0.022412568 0.08183541 0.12528291 0.089740805 -0.14344919 -0.087787785 -0.15835238 -0.027529394 0.006007967 0.05801464 -0.01565776 -0.15919104 -0.06528832 0.12578705 -0.07841043 -0.22510108 -0.18856701 0.117437765 -0.110718906 0.08598409 0.09910557 0.10495515 0.115932696 -0.05973799 -0.052794863 -0.0012027886 0.045320295 -0.02550141 -0.020019345 0.1775543 -0.11697035 0.064471066 -0.16769695 -0.19515277 -0.13911828 0.062591575 -0.053306703 0.12604813 0.07792057 -0.11042943 0.15954103 0.030473603 0.16009338 0.07056684 0.029421005 0.02215642 0.022118377 0.005237201 -0.010783853 -0.1291868 0.04058417 -0.16210987 -0.033229508 0.08520095 0.017173676 0.045666754 0.05145111 -0.078176536 -0.1647207 0.17999275 -0.014354856 -0.054837447 -0.09447775 -0.06540084 -0.023316365 -0.018391486 0.042663414 0.00931344 -0.0017778078 0.030569565 -0.034659617 -0.23164375 0.06256913 -0.043975145 0.053085107 -0.18058068 -0.0991095 0.017524239 -0.09096358 0.09601933 0.0043488075 -0.13432732 -0.007741484 -0.012025332 -0.0555157 0.045299713 -0.04444074 -0.034925856
113824 -0.00028465744 0.002607251 0.0013219605 -0.00028234566 -0.0006902959 -0.0031342942 -0.0015053938 0.00015042082 0.0028976395 -0.0023025463 -0.0012746648 0.0019012514 0.002553735 0.0011697094 0.0003595957 0.0024247225 -0.0018895795 0.0031659633 -0.0008924868 -0.000768538 0.0038932532 -0.00012308602 -0.0023178032 0.0018857421 -0.0021784606 -0.0020420584 0.0036377362 0.0005993306 -0.0015456503 -0.0026578917 0.0009928034 -0.00023389005 0.0025728801 0.0027906979 0.0011600032 -0.002254385 0.0006632326 -0.0018234464 0.0037410378 0.0025503987 -0.0011305428 0.0017513477 0.0025632863 -0.00032823253 -0.0015269145 0.0021473395 0.0022908133 0.00045265543 0.0018965921 0.00013472416 0.0022594896 0.000765349 0.0020985836 0.0010816789 0.00059230794 0.001958377 -0.0013099001 -0.0012625554 0.0001239046 0.0037973046 -0.0032172475 0.0017597711 0.0038090379 -0.0019153166 -0.0026359754 0.00040168135 0.00047960473 0.0008347019 -0.0038981996 -0.0038140789 0.00230701 -0.00010142599 0.0034815709 -0.0033794441 -0.00019870457 -0.003564449 0.0012710097 -0.0013362047 0.0035307335 0.0037990403 0.0034257437 -0.00023305723 -0.00026521212 0.00082050706 -0.0015529811 0.0021525316 0.0026556228 -0.0014221892 0.003656183 0.0035348232 0.0021769041 -0.0026556635 -0.0036926072 -0.0030210507 -0.003599895 0.0026348021 0.0025892197 -0.0009752701 0.00061802904 -0.0024511146 0.00089498115 0.00033172962 -0.0002517524 0.0020772933 -0.0013933091 -0.001049784 0.0008703901 0.0022812062 -0.002073429 -0.0017362977 0.00061679404 -0.0033118895 0.0028348446 0.0023908361 0.0019087673 -0.00266229 -0.0022914081 0.0022158406 0.0031571093 0.0037746052 -0.00056836754 -0.0027544452 0.0034675125 -0.0031813085 -0.0015102716 0.0036259345 0.0019379392 -0.001625869
113825 -0.0053547304 0.0031456728 -0.004071741 0.0014693444 0.0006638447 0.00032047994 -0.0006522073 -0.003695898 -0.00024257692 -0.003344665 0.0019530387 0.00036064693 -0.0041538426 -0.0034539655 -0.00040732516 0.0065673306 -0.0014354229 -0.0015763807 -0.0033090722 0.0009875991 0.0016924423 0.0028278877 0.0043134103 0.0056224396 0.0005547586 -0.002654706 -0.0012832613 -0.0034965493 0.00054481294 0.0025836674 0.0013992771 -0.0005853172 -0.0040672766 -0.0020804054 0.000393922 -0.006404276 0.0020252557 -0.00067516277 0.00090596185 -0.0018783594 -0.0015245079 -0.0013116518 -0.009730776 -0.0113424305 -0.0029137419 0.0027534761 -0.004512141 -0.007160471 0.0015727225 -0.0060883206 0.0039189383 0.0016024327 -0.0006926485 0.0020453008 -0.006683046 0.004418181 0.003612231 0.00072690553 -0.0064872843 0.0010737795 -0.00031502487 -0.004680639 -0.00012743459 0.0061583538 0.002108808 -0.0041022096 0.00910385 -0.0024562269 0.010668927 -1.42332865e-05 0.002657984 -0.0030597458 0.004127853 0.007751386 -0.0030012175 0.0048744297 -0.0004214805 0.0013446442 -0.0010428522 0.0036320728 -0.003158317 -0.004597015 0.0021372165 -0.0012191321 -0.0006944669 0.00026066473 -0.0011056191 0.0063437675 -0.0113132065 0.00092183764 0.00026713999 -0.0024896376 -0.0049623656 -0.003506742 0.00048768154 0.0023141901 0.0042435657 0.0031426493 0.0042477096 -0.000485954 0.002460187 -7.3214425e-05 0.0015589078 0.0026029174 -0.0062256875 0.0005842877 -0.0036833123 -0.0046858015 -0.0015751737 0.0033324715 -0.0029039355 0.00657829 0.0034272708 -0.0009832431 -0.008249719 -0.004721427 0.0017938616 0.0045969705 0.0033344077 0.007550941 -0.002902623 -0.0031089261 0.00088437536 0.005370712 -0.000850723 0.0039504557 -0.007612062 0.00066595577
113826 0.0012919564 -0.0007322909 -0.0005753885 0.00060766516 -0.0013876719 -0.0011031713 -0.0035555635 -0.0030280005 0.0019969437 0.00220874 0.0017282479 -0.001033275 -0.0020227549 -0.0028095802 -0.0025495917 -0.0028647056 -0.0014221687 0.0007642504 -0.001662207 -0.0018091886 -0.0005407355 0.0015686054 0.0037358524 0.0033470874 -0.00044889603 0.003275372 0.0032476413 0.00384215 -2.0767653e-05 0.0031848298 -0.0018002068 0.0031834622 -0.0013803756 -0.0016151404 -0.001481036 0.0033820265 0.0020641594 -0.0026654252 0.002182731 0.0022924186 0.00016737678 -0.003900764 0.003609691 -0.0012510808 0.0036382938 -0.0025910938 -0.0023649188 -0.0037987893 0.0037243192 -0.0029972405 -0.0006619331 0.0033141905 -0.00057025993 -0.0018790378 -0.0023384802 -0.0033634044 -0.0034986762 0.0008298482 -0.0003640573 0.00041259473 0.0028407106 -0.0010366306 -0.0030262338 0.0029331972 0.00019481206 0.0016248333 0.0020557526 0.0018460995 0.0031508263 0.001144286 -5.9508016e-05 0.0031707217 -0.00030539674 0.002307167 0.0037096867 0.00097346405 0.0021988251 -0.0022375155 -0.0018694378 0.0011582813 0.00060947833 -0.0011659461 0.0037785715 -0.0013254597 0.0018898911 -0.0012138473 -0.0020391077 -0.0017586903 0.0011691166 0.0029382484 0.0014271394 -0.0024071084 -0.001633266 -0.0007128223 0.0006111956 0.0027796854 -0.0026499133 0.003201985 0.0035665343 0.0025351248 -0.0014084917 -0.0025597904 -0.003715489 -0.0014529789 0.0035267326 -0.003172422 0.0020242794 -0.0038785131 -0.0031867565 -0.0015183642 0.002144247 -7.681592e-05 -0.0021207733 0.0009153271 -0.0035262567 -0.00073497905 0.001069731 -0.002825506 0.0036122745 -0.0014497481 0.0037176812 -0.0030950992 -0.003678097 -0.0018739667 0.0036362282 -7.3691226e-05 0.003034201 -0.0014817048
113827 0.07994493 -0.012000246 0.09238989 0.06863588 0.07716214 0.12972124 -0.091458224 0.110605985 -0.055166826 -0.015762186 0.013260323 0.08326981 0.09102634 0.22594309 -0.047776923 -0.12042971 -0.066793226 0.13536017 0.07132984 0.05298295 -0.03759929 0.12737948 -0.08943294 -0.033625267 -0.028707763 0.03259996 -0.04599604 0.17248808 -0.051244803 0.06514568 0.1141471 0.21505502 0.054066256 -0.09656844 0.028100112 0.06094408 -0.21415003 0.07089831 -0.0026940757 0.040294565 0.06312398 0.115583435 0.15082659 0.11180243 -0.07154232 -0.13450192 0.01375163 0.077206835 0.07482309 0.072316945 -0.053055342 -0.14318614 0.008792012 0.08681381 0.03201635 -0.31037873 -0.24630405 -0.10155562 -0.08893424 0.008638328 0.107760616 0.15777937 0.13506334 -0.2009918 -0.104705244 -0.0017096109 -0.20862816 0.08272924 -0.20370698 0.038592428 -0.16128723 0.14362472 -0.01065995 -0.2772428 -0.05340272 -0.04187067 0.080340855 0.10454115 -0.010817122 -0.2114256 0.09185575 0.0029026465 0.07922543 0.1351705 0.07057292 0.06475455 0.09776508 0.021768779 0.15764064 -0.2706291 -0.07625304 -0.10725872 0.05446475 0.07898565 0.08522483 -0.023993855 0.010106423 -0.15077278 -0.13118787 0.13639234 0.10780887 -0.013541327 -0.029112944 0.0083909165 0.039138384 0.0287495 0.1761046 0.09931169 0.004199559 0.09540749 -0.016801998 -0.19544138 0.010037522 -0.059933104 0.20056035 -0.074773245 -0.07586815 -0.047092207 -0.14169802 -0.10373104 0.07885163 -0.085050404 -0.049480483 -0.06677186 -0.12679972 0.06807391 0.07039598 -0.0709146
113828 0.076062456 -0.016004177 0.084492825 0.056117035 0.065113015 0.09904866 -0.076113716 0.0747512 -0.062126648 -0.016869854 -0.004625671 0.06532468 0.076169714 0.17501648 -0.039538518 -0.10789315 -0.059739757 0.094430834 0.06521093 0.052979574 -0.021925466 0.10127758 -0.081999026 -0.02607937 -0.024438972 0.025543429 -0.044040747 0.15402043 -0.03373572 0.057408165 0.08908404 0.1720077 0.0332435 -0.08166905 0.024408711 0.056517158 -0.1765766 0.06643599 0.003819885 0.033688035 0.046467185 0.09498831 0.14112593 0.10658515 -0.055519763 -0.10528997 0.016068889 0.07502434 0.061547972 0.064651415 -0.055569325 -0.12119136 0.016899228 0.07071837 0.03493527 -0.26166946 -0.1880188 -0.07347706 -0.07885068 0.024110958 0.09558462 0.1370938 0.12246599 -0.15840317 -0.09317227 -0.00092103746 -0.16677445 0.06887924 -0.17245413 0.029784782 -0.13328102 0.12709038 -0.028224513 -0.23616742 -0.045509942 -0.04115964 0.068036005 0.09799571 0.0015417592 -0.18310471 0.084498905 0.003873192 0.06576658 0.11859502 0.051305484 0.047684405 0.07914722 0.015520001 0.15515864 -0.22155938 -0.06880671 -0.09316027 0.062732175 0.07010625 0.06325014 -0.009079394 -0.0055869995 -0.12521113 -0.105533116 0.12479998 0.07732937 -0.013936051 -0.024580356 0.004155146 0.043410547 0.027344987 0.13737802 0.08511143 0.0009871356 0.06466993 -0.024928441 -0.17015705 0.016325163 -0.03390856 0.17502894 -0.061746277 -0.062635705 -0.028632205 -0.12813279 -0.08319806 0.0777357 -0.0676915 -0.039221704 -0.06149721 -0.09915746 0.060230132 0.05723541 -0.06319313
113829 0.12861273 -0.015614036 0.15641053 0.056429096 0.1057847 0.13048555 -0.108330816 0.12950516 -0.10599858 -0.0504486 0.011033245 0.09892489 0.13111201 0.23072556 -0.0761437 -0.18477754 -0.083229065 0.1312686 0.07544327 0.06851684 -0.017198252 0.15202725 -0.17037173 -0.060943782 -0.04869035 0.025331331 -0.072790936 0.23002243 -0.04728057 0.04356798 0.09117164 0.25394088 0.044498116 -0.1276526 0.05897949 0.13445735 -0.2889392 0.13238026 -0.013543161 0.07991703 0.07770136 0.17251937 0.2632394 0.26111805 -0.063669816 -0.15486124 0.0036210257 0.12076796 0.08291135 0.16558799 -0.08502813 -0.15640894 0.030339919 0.0536194 0.07196067 -0.35669962 -0.24026088 -0.09834134 -0.049721584 0.0524699 0.14016329 0.25018036 0.19926505 -0.1877056 -0.148053 0.05073789 -0.30885828 0.1089716 -0.2746299 0.04081063 -0.1860969 0.22493841 -0.098503456 -0.3509896 -0.0464851 -0.11651017 0.11644047 0.14174244 -0.015496221 -0.2537328 0.1130868 0.06795289 0.07040739 0.20935993 0.06641427 0.04689155 0.070241466 -0.0338577 0.26561114 -0.30288127 -0.060315453 -0.11870317 0.11974688 0.10591457 0.092865475 -0.032164134 -0.05370089 -0.19846685 -0.17513855 0.15423012 0.054306578 -0.056369368 0.00170294 0.033401225 0.089500695 0.08737928 0.14744924 0.16751353 -0.005343405 0.0045984145 -0.06467508 -0.29429823 0.012539396 -0.021463402 0.2848435 -0.046497047 -0.12177856 -0.0776693 -0.18762839 -0.15493838 0.1277115 -0.09927514 -0.0978906 -0.13920757 -0.101017214 0.068249844 0.09583096 -0.09866773
113830 0.08934389 -0.009849648 0.117448665 0.05557356 0.09848436 0.11828271 -0.08690205 0.10632257 -0.06873406 -0.04310405 0.013377218 0.073602356 0.09632109 0.21560916 -0.06533862 -0.1310675 -0.07098542 0.12329004 0.05182733 0.057095088 -0.02516095 0.13819464 -0.12289879 -0.048732854 -0.026261356 0.02078645 -0.052081127 0.19127148 -0.059774 0.049947884 0.09251944 0.21059538 0.031520993 -0.118947014 0.033228967 0.0932997 -0.23825258 0.094536446 0.001698613 0.0689933 0.07903659 0.1377351 0.18935043 0.17407732 -0.07164346 -0.13232772 -0.0010089139 0.08338457 0.074895985 0.10292367 -0.05777216 -0.14554155 0.009305637 0.05833377 0.032654732 -0.3060559 -0.22506188 -0.07052523 -0.054868374 0.039466165 0.10721902 0.1886523 0.15139905 -0.17210731 -0.11161279 0.019752553 -0.2298768 0.07757793 -0.21599977 0.05130565 -0.1547243 0.16452828 -0.06886611 -0.28765005 -0.049500268 -0.06973857 0.08085053 0.10925804 -0.015137013 -0.21905884 0.10254329 0.03765224 0.0629681 0.15156206 0.06188122 0.047738973 0.07425731 -0.015214795 0.18223634 -0.2648041 -0.05446726 -0.1080525 0.068972826 0.08753988 0.07947745 -0.02360548 -0.012645304 -0.1632213 -0.14779922 0.1346384 0.07682097 -0.023684388 -0.012621996 0.020529164 0.054629784 0.052869115 0.14812128 0.12893872 0.0048228293 0.047843028 -0.036448903 -0.22556028 0.016553152 -0.04409158 0.22126739 -0.06816859 -0.097320385 -0.060291495 -0.14387117 -0.1046853 0.08543353 -0.08114422 -0.068661325 -0.099227965 -0.105188765 0.060969274 0.06963244 -0.0904927
113831 0.06117652 -0.00534503 0.07589905 0.066736825 0.08399905 0.10117045 -0.07828799 0.073706366 -0.048394717 -0.017762294 0.00042032148 0.064346366 0.065019615 0.1706096 -0.03710623 -0.093742855 -0.057635166 0.10093534 0.06254231 0.048008546 -0.025747007 0.10864812 -0.07444407 -0.030298974 -0.012355371 0.021101456 -0.039524946 0.14791171 -0.049169283 0.05931057 0.09228635 0.16966209 0.03001223 -0.08308084 0.01793858 0.05217003 -0.16898769 0.0659221 0.008965822 0.031047706 0.052482825 0.09295027 0.12260469 0.08943528 -0.06794223 -0.098474145 0.0036097881 0.058170598 0.053729326 0.058069814 -0.046280723 -0.12599558 0.0048842253 0.072068185 0.020100955 -0.26255304 -0.19970988 -0.059702937 -0.08045418 0.026067492 0.08667783 0.12972127 0.11413732 -0.16110215 -0.080672875 -0.005282513 -0.14330833 0.05828462 -0.15300918 0.047645535 -0.13330956 0.10993897 -0.029894326 -0.22469158 -0.05638895 -0.0232911 0.05679983 0.09277029 0.0001775413 -0.18213435 0.09299598 -0.0057837684 0.07072401 0.10375554 0.05590322 0.04830141 0.071234755 0.023281844 0.121785514 -0.21777435 -0.057827786 -0.098766886 0.037045136 0.069252476 0.06295916 -0.00830272 0.0024000178 -0.122049905 -0.10998759 0.1252187 0.07801446 -0.009565419 -0.028997006 0.004075309 0.028224617 0.012657384 0.13510433 0.078520074 0.002216441 0.07501769 -0.014622088 -0.16929355 0.01900801 -0.04315028 0.15981779 -0.07722051 -0.062366042 -0.027586065 -0.1160472 -0.06224925 0.06486623 -0.07269677 -0.027744131 -0.049353294 -0.09939158 0.053286094 0.046059065 -0.0612025
113832 0.055267118 -0.005350214 0.06391175 0.052232288 0.06031284 0.08222133 -0.059261188 0.05006341 -0.042632595 -0.0195448 -0.0021580656 0.053616762 0.061195105 0.13256069 -0.026701849 -0.080148205 -0.05482551 0.07677306 0.051720135 0.03783924 -0.026821798 0.08678581 -0.066827774 -0.03232171 -0.012635491 0.016200185 -0.045641363 0.1280105 -0.023923201 0.046040878 0.074981555 0.1351984 0.0253728 -0.064929046 0.014003318 0.042088594 -0.13744979 0.05626956 0.0052006794 0.034682505 0.036934327 0.07444187 0.112562254 0.07923808 -0.043821216 -0.07946054 -0.0016157887 0.054328054 0.044509493 0.05376907 -0.04812036 -0.09662632 0.010199165 0.05726575 0.021564294 -0.21106534 -0.15271261 -0.0492909 -0.06840645 0.025211427 0.077686146 0.09885174 0.100317046 -0.11632092 -0.064284064 -0.01230534 -0.1185671 0.052410632 -0.1226471 0.025710475 -0.091086164 0.08849909 -0.025825132 -0.17713267 -0.04358711 -0.023467492 0.05496892 0.08361921 0.0041720388 -0.1331351 0.070986524 0.004548365 0.052477363 0.08777904 0.045193616 0.04081446 0.06450372 0.01849201 0.10145888 -0.17131373 -0.048489325 -0.073517315 0.041376695 0.055807695 0.055377547 -0.003845812 -0.0005875289 -0.10349074 -0.08711742 0.0967404 0.05496319 -0.021932019 -0.017155217 0.004327246 0.021910932 0.019321956 0.105230026 0.067807324 -0.0011573668 0.050763696 -0.02584078 -0.14238521 0.016434494 -0.03339922 0.13503513 -0.05502979 -0.050656095 -0.016902154 -0.10251005 -0.06345001 0.053610858 -0.05093854 -0.03226656 -0.039044183 -0.07511037 0.03943027 0.037343673 -0.0489691
113833 0.036469057 0.1095298 0.11818759 0.14485975 0.2838081 0.11445243 -0.11357011 -0.05373706 -0.03772698 -0.07272112 -0.0035842312 0.083940215 0.04677991 0.112649985 -0.0030850659 -0.13928455 -0.11704247 0.08019909 0.092947766 0.043845195 -0.06420203 0.19846518 -0.0919301 -0.002377665 0.035388805 -0.093370214 -0.086249895 0.15398599 -0.076449946 0.107173905 0.13353677 0.20087625 -0.09323471 -0.14117275 -0.009754983 -0.0007550558 -0.18095997 0.13667767 0.070164695 0.029067563 0.02324501 0.12209548 0.16248755 0.122784756 -0.14680143 -0.109084025 -0.12207814 0.004594228 0.022263622 0.06593209 -0.03857622 -0.1926207 -0.063206024 0.13074264 -0.055476923 -0.27183792 -0.21220982 0.07479582 -0.10690761 0.09159604 0.12885591 0.14590347 0.1517864 -0.10625415 -0.06228915 0.0037418646 -0.012059399 0.0074225008 -0.08614773 0.15689428 -0.14212999 0.08699257 -0.15962367 -0.24932614 -0.14328773 0.04256325 -0.008306964 0.13402995 0.06002391 -0.15468158 0.18274558 0.03253364 0.14871728 0.0965902 0.050840158 0.007130246 0.03885139 0.007552713 0.04101264 -0.19751883 -0.0016591687 -0.17588748 -0.0035698619 0.10861827 0.022834107 0.047799844 0.03165512 -0.099577665 -0.17969681 0.20850274 -0.014118471 -0.06106721 -0.07894468 -0.057306573 0.009175722 0.0016448612 0.089428306 0.04155846 0.0019882647 0.034181256 -0.042767446 -0.27033266 0.07013203 -0.021599768 0.0963275 -0.16326107 -0.10896519 -0.0005112228 -0.13884796 0.06148354 0.04987693 -0.11786503 -0.032078173 -0.024265815 -0.08176657 0.05277588 -0.02958314 -0.0639689
113834 -0.013554698 0.015652634 -0.004036434 0.015469521 0.014624658 -0.0026171475 -0.0026699838 -0.017068012 0.010575369 -0.0051260414 -0.0020265733 0.0010174435 -0.011214383 -0.010841094 0.010571281 0.011153543 0.0016719606 0.00018833939 0.0017580928 -0.0047816373 -0.0059956578 0.0042446638 0.013440189 0.0066198576 0.009987136 -0.00980092 0.007893986 -0.010743293 -0.010091122 0.003017715 0.0041182362 -0.0058138543 -0.01381442 -0.004341453 -0.008353894 -0.014752193 0.011864645 -0.0026262703 0.007920096 -0.0021829214 -0.001940279 -0.0036414957 -0.020027526 -0.013095022 -0.010860152 0.008960536 -0.013322948 -0.015842417 -0.0054699215 -0.01191438 0.011760942 -0.009352585 -0.011281408 0.0028865724 -0.00848544 0.011199011 -0.0010369575 0.022815922 -0.0034790435 0.0015087944 -0.008883116 -0.009555326 -0.015284831 0.00236418 0.012072603 -0.00073356676 0.027659921 -0.008117837 0.024931688 0.018582834 0.0036441546 -0.015844453 -0.0052624545 0.011831927 -0.008702315 0.021284577 -0.017566653 -0.004807103 0.00798733 0.013854952 0.0065072076 -0.0056098443 0.0084267575 -0.012782885 -0.0008243783 -0.0034319563 -0.0043270667 0.007298548 -0.024296783 0.015745107 0.0036280479 -0.0026673737 -0.01973442 -0.003906621 -0.009267841 0.004730074 0.01475864 0.011224337 0.0065733595 0.0027890755 0.0006924082 0.009043755 -0.012500118 -0.012171071 -0.015509251 -0.013198635 -0.005281069 -0.0179805 0.0060692397 0.0053836843 0.004370767 0.008448326 0.007698685 -0.0089355605 -0.021957364 -0.018442212 0.0014670818 0.009034701 0.0057458836 0.02443244 -0.006870322 -0.005170406 0.012690741 0.010965587 0.0014585195 -0.0006663669 -0.0120505765 0.0020319843
113835 -0.010407346 0.009184864 -0.0051361476 0.010793165 0.002349741 -0.0038441995 -0.002782172 -0.011648487 0.011330245 -0.0023872429 -0.0022909506 -0.005746846 -0.005019261 -0.0045502624 0.0026640552 0.0071399524 -0.002801662 0.0035717837 -0.00060174795 -0.004941238 -0.0066899955 0.0035381322 0.014218431 0.0023756635 0.0045730043 -0.003599834 0.0062339096 -0.010891629 -0.0076323966 0.0037929737 0.0052121677 -0.006421615 -0.005833674 0.00064890995 -0.006158207 -0.013768486 0.0097103575 -0.0074547725 0.00371382 -0.0009967249 -0.0018973784 -0.0044388077 -0.018074997 -0.017768718 -0.0037028315 0.0055561922 -0.009951335 -0.008252566 -0.003501798 -0.015725303 0.008984511 -0.0024217966 -0.0054099853 0.005747629 -0.008754723 0.0071301754 0.0024632444 0.0064960164 -0.0053083757 -0.0014074724 -0.0074179764 -0.015622638 -0.007847592 0.0030798037 0.007040205 -0.008219924 0.022880832 -0.009427551 0.014322662 0.0069409944 0.0057857726 -0.02167201 0.0063169664 0.014239512 -0.004897459 0.01389669 -0.014321874 -0.0022413707 0.006459197 0.011000025 0.005224017 -0.0049262703 0.0063807983 -0.014723605 -0.0011242181 0.0034976825 0.00075195805 0.0074548 -0.023784364 0.010166995 0.005719409 -0.0048926272 -0.01635493 0.00059422007 -0.005422185 0.002937819 0.014167075 0.012051443 0.0029100743 0.001927179 0.007430451 0.00957283 -0.011048845 -0.007669465 -0.016029675 -0.0070726685 0.00052560173 -0.012207075 0.00062568113 0.0073875017 0.0066786483 0.007896293 0.0006315473 -0.00757045 -0.017868273 -0.00741239 0.0062234476 0.011310979 0.0052830507 0.013310792 -0.008860676 0.0010538945 0.009427387 0.0085227955 0.00022714441 0.0021697264 -0.007093241 0.0045547327
113836 0.023903523 0.01484365 0.030283183 0.032532346 0.056103706 0.035054076 -0.030535033 0.003830104 -0.016073732 -0.021804035 0.000700118 0.023575941 0.022619916 0.053212464 -0.007304167 -0.045624115 -0.034327365 0.026939515 0.022503547 0.017978942 -0.01540397 0.05419942 -0.03144605 -0.015150703 0.009184681 -0.007966192 -0.022571879 0.05545704 -0.026842676 0.029101372 0.036533616 0.06205233 -0.007998678 -0.035981633 -0.0005018075 0.019567618 -0.066489 0.03691033 0.016114388 0.01433728 0.016054979 0.035709083 0.046193615 0.036690347 -0.034401245 -0.037753146 -0.01929941 0.014703864 0.013002413 0.023021657 -0.011206462 -0.051029783 -0.0048440364 0.029869663 -0.0020608485 -0.10023189 -0.07783683 -0.0011011508 -0.03558761 0.024601992 0.033820618 0.05162853 0.04609103 -0.04355851 -0.029409649 -0.0014725244 -0.033415873 0.013154301 -0.044160884 0.03421651 -0.04242555 0.033351585 -0.034501143 -0.081450425 -0.03474543 -0.0033719842 0.012887198 0.04612768 0.01021064 -0.059215177 0.03859304 0.0033823668 0.034783766 0.032292437 0.016118573 0.017603183 0.021685326 0.0056175087 0.030348908 -0.0659896 -0.0032642796 -0.045906845 0.013462948 0.027290452 0.026119808 0.0006103193 0.006600028 -0.044841092 -0.05629065 0.048048966 0.010759447 -0.01760443 -0.017682325 -0.00011260185 0.0015178674 0.0020929123 0.03426292 0.026667465 -0.0002691317 0.016829036 -0.0198483 -0.0777383 0.011741195 -0.020292208 0.055529054 -0.038218364 -0.030851869 -0.0090585835 -0.041041996 -0.007383444 0.012178652 -0.02839894 -0.01607762 -0.016464714 -0.03441817 0.024484638 0.006373131 -0.027930545
113837 -0.010696761 0.002439735 -0.0065638986 0.00297886 -0.0024747155 -0.008476048 0.0033909287 -0.0057357773 0.0036357483 0.002833277 0.003627111 -0.0035432156 -0.010594333 -0.0059424406 0.003029102 0.012312656 0.00018407787 0.0012155785 -0.0028255987 -0.0014114741 -0.0029470865 0.0006888642 0.010584798 0.0056024347 0.0040948153 0.0019298969 0.008980185 -0.0066388063 -0.004744817 -0.0024374628 0.00035779382 -0.0059590135 -0.0059883874 0.006199878 -0.0026305686 -0.011067061 0.013054686 -0.0042784195 0.0023684073 0.0006952569 -0.001990142 -0.006609161 -0.011940485 -0.012259414 -0.0013440049 0.004307029 -0.003429909 -0.01017948 -0.0078351665 -0.007266868 0.004289663 0.002106526 -0.0024590106 -0.004513711 -0.00032763145 0.01070895 0.0113238115 0.008737133 0.0031456097 -0.007341952 -0.0062064514 -0.0064722854 -0.009813078 0.004289206 0.0036680691 -0.0013959445 0.012794973 -0.008268 0.011772029 -0.0010844797 0.008735771 -0.012881643 0.00637089 0.015363475 0.0015134006 0.0043295934 -0.006999449 -0.0042728567 -0.0012976248 0.0136286095 -0.002741502 -0.0005512908 -0.0042511495 -0.01042399 0.0015398988 -0.0027236105 0.0004079928 0.0016355282 -0.01718951 0.014659906 0.0018488092 0.0008972732 -0.012263533 -0.007385607 -0.0029226593 0.00088596233 0.005708015 0.008333685 0.005584248 -0.007608549 0.0023957626 0.008435752 -0.0051567783 0.00025215384 -0.0077044056 -0.0048220633 -0.0052291052 -0.006394216 0.00496706 -0.0007463754 0.0064215455 0.010485928 0.0028603922 -0.0054964693 -0.014440412 -0.004253268 0.00088591955 0.0054041822 0.008491867 0.013590613 -0.007173885 0.0056822672 0.0029992904 0.004318802 0.0055437014 -0.00066164625 -0.0011823367 0.0011854715
113838 0.19489275 0.08298626 0.31745604 0.0928757 0.3906317 0.20778137 -0.15222347 0.03680078 -0.22596233 -0.13583699 -0.032036643 0.158588 0.2019701 0.24172181 -0.09836463 -0.39042896 -0.19141331 0.13129249 0.1415135 0.086023286 -0.016418673 0.27258602 -0.37389183 -0.08804681 -0.034487233 -0.11773199 -0.19095436 0.34579903 -0.025228076 0.080634914 0.09308597 0.3712313 -0.06300449 -0.25955203 0.13335529 0.22425571 -0.48147523 0.3104996 0.06435259 0.11575603 0.055489004 0.29781142 0.55051744 0.51796466 -0.10995778 -0.2618856 -0.09172336 0.16725117 0.1156333 0.3611237 -0.18899387 -0.25735137 0.005080449 0.09757093 0.058371853 -0.52243805 -0.34095645 -0.04118863 -0.08579174 0.19808787 0.30691966 0.43681568 0.40091532 -0.16693927 -0.22810291 0.09715557 -0.42263576 0.120883085 -0.40944493 0.14673817 -0.27937937 0.42668065 -0.34335706 -0.60611314 -0.14403968 -0.23016311 0.17142761 0.27751127 0.043917887 -0.37946588 0.2789953 0.20652236 0.12921554 0.38662952 0.0643631 -0.024393583 0.042669185 -0.14589176 0.45855826 -0.47718495 -0.041969284 -0.2269216 0.22060992 0.22649525 0.061320186 0.026461631 -0.12432263 -0.30122337 -0.38101885 0.29387012 -0.0919616 -0.21472356 0.021871954 0.004520824 0.21071868 0.18906406 0.097213864 0.2657408 -0.04757875 -0.16937515 -0.13965608 -0.59115845 0.048352245 0.067497104 0.40474805 -0.07790253 -0.26008365 -0.14382741 -0.3304871 -0.16575584 0.22975637 -0.2058243 -0.18732122 -0.2479561 -0.052518517 0.079401895 0.09344144 -0.13618493
113839 0.1935476 0.062320426 0.30495644 0.07476221 0.33192283 0.19643421 -0.15283382 0.0707639 -0.21461555 -0.12343088 -0.013995852 0.15830424 0.19481307 0.25212467 -0.10033031 -0.36346963 -0.16825123 0.14383826 0.1308958 0.08257917 -0.0032228245 0.252593 -0.34953162 -0.08013928 -0.051356673 -0.09239786 -0.16600023 0.32325798 -0.029162506 0.059673995 0.08296043 0.3572011 -0.035207946 -0.24137759 0.13339756 0.21823923 -0.46993724 0.28578305 0.03858451 0.11964019 0.06379988 0.2814382 0.5178088 0.51461744 -0.10300395 -0.25419044 -0.071300246 0.16233568 0.11259248 0.34017718 -0.17223687 -0.24080026 0.01950415 0.08223084 0.08168605 -0.49005574 -0.3212814 -0.061397534 -0.060034424 0.15630284 0.27515134 0.4254402 0.36832327 -0.17937008 -0.22069421 0.111882396 -0.44224703 0.124782145 -0.40440512 0.12390761 -0.27424327 0.40679407 -0.3045753 -0.569355 -0.10798825 -0.2328869 0.1719873 0.25396776 0.022071283 -0.35615513 0.24276942 0.19962351 0.11571854 0.37339756 0.061985336 -0.017782314 0.043492626 -0.13485144 0.4585794 -0.46471316 -0.047367338 -0.19882898 0.2149306 0.20675871 0.07296643 0.005521588 -0.12035328 -0.29609525 -0.3476705 0.26389015 -0.07032835 -0.18439065 0.026690641 0.018086841 0.21052718 0.18818003 0.101267375 0.26293635 -0.0361624 -0.15737976 -0.13101426 -0.55234534 0.03677917 0.057883196 0.4044045 -0.059006225 -0.24670365 -0.14048079 -0.31426692 -0.18581739 0.2329803 -0.18501292 -0.17955126 -0.24628668 -0.05845062 0.07492537 0.1071739 -0.13464838
113840 -0.0023392143 -0.0020834105 -0.0028486208 -0.0014690172 0.0032151127 0.0014736309 0.0019206695 0.0031882192 0.001481996 -0.0012989583 0.00046624904 3.974569e-05 0.0031932765 -0.0010207638 -0.002484448 0.0014088256 -0.0015711396 -0.003878302 0.0022946775 -0.00065550685 0.0032183218 8.653844e-05 0.0036617776 -0.002009495 -0.0024134524 0.0038387892 -0.00088326476 0.0024299177 -0.0034492728 0.0019021155 0.0025306349 0.0036327438 0.00028177025 -0.00017143265 0.002570802 0.0031986686 -0.0031367105 0.0010757372 -0.0012285339 0.0023682464 0.0025774215 -0.0026809738 -0.0022488032 0.00022375601 -0.000100412435 -0.0024263985 -0.00095708226 -0.00359184 -0.0028502909 -0.0015975222 0.0018806907 0.002542028 0.0031997587 0.0038182207 -0.0038707643 0.003219344 0.0020285423 -1.7033377e-05 -0.002417934 0.003799643 -0.0017510662 0.0010670424 0.00047380145 0.00074255595 0.0035720416 -0.00019462926 0.0016334618 -0.0035141043 -0.00039185438 0.00015418438 0.0027072602 -0.0014443068 0.0018578559 0.0035336607 0.0003131193 0.0015166679 -0.0012948496 0.003466293 -0.003871229 0.0031552159 -0.00083550997 0.0014162617 -0.0001332241 0.0030705049 0.0028779139 0.0018782947 -0.00022250692 -0.0019180326 -0.0018534336 -0.0023829194 -0.0022183189 0.00049894064 -0.0004032481 0.0028898902 0.001587879 -0.0027196691 0.00028773787 0.0024321817 -0.0030921332 0.0032829621 0.0036224877 0.0003902922 -0.0018684713 -0.002009498 -0.0007190763 0.0024513246 0.00018287337 -0.00051872234 -0.00071162655 0.00276273 0.0038874946 -0.0028621834 0.00071563537 0.0035880993 -0.0025652533 -0.0032473973 0.0019762914 -0.0007774063 0.0006329785 -0.00045777485 0.0032400414 -0.0037555748 -0.0005277315 -0.003623726 -0.0025695455 -0.0038211746 -0.0006972721 0.0011261492
113841 0.19451787 0.104804 0.32754207 0.11814615 0.43113106 0.216701 -0.17503908 0.016243203 -0.21432042 -0.13335599 -0.036875572 0.1720217 0.19212525 0.2400457 -0.088799134 -0.40027422 -0.19809346 0.13186455 0.16281769 0.09750249 -0.020862296 0.29702798 -0.3727915 -0.0815158 -0.029908543 -0.13567093 -0.18667561 0.3549052 -0.029246163 0.100816205 0.09771252 0.38857487 -0.08661128 -0.28108415 0.118125066 0.20371868 -0.49571827 0.33113346 0.076185144 0.111731976 0.05429599 0.30968446 0.5641423 0.53561974 -0.13719219 -0.26903254 -0.12492909 0.15844133 0.11033348 0.36666948 -0.18945672 -0.28476793 -0.0030316496 0.11742901 0.04623558 -0.53440017 -0.3501396 -0.021753397 -0.093502074 0.20059466 0.3165534 0.45488447 0.39946136 -0.18186027 -0.23303227 0.10017985 -0.41298315 0.11540496 -0.40171593 0.18151875 -0.3013366 0.4225081 -0.37146637 -0.62401026 -0.16108918 -0.21502668 0.15273637 0.295499 0.06314538 -0.37712678 0.3076066 0.20404547 0.1542431 0.3922548 0.06703557 -0.01989248 0.042381622 -0.13676348 0.45937067 -0.48298377 -0.03844672 -0.24952446 0.2101773 0.23672539 0.057789497 0.039412178 -0.10904685 -0.30602258 -0.39205685 0.32262906 -0.0987059 -0.21144754 0.008402251 -0.023187725 0.21377707 0.17634603 0.11121141 0.25758684 -0.04647466 -0.16437274 -0.13088678 -0.6148241 0.068344645 0.06678333 0.40865892 -0.1078246 -0.26965067 -0.1301609 -0.3386507 -0.14026792 0.24198477 -0.21578807 -0.18751289 -0.2279008 -0.06392422 0.09203938 0.08980554 -0.13723785
113842 0.18857156 0.10530615 0.32725686 0.106772594 0.44246548 0.20824997 -0.15499248 0.0054413057 -0.22272342 -0.13660784 -0.03412952 0.16601707 0.19795114 0.2143968 -0.088741235 -0.39673597 -0.19648205 0.12075265 0.15210491 0.083360106 -0.01813453 0.28907606 -0.3767652 -0.07106501 -0.02627608 -0.14790042 -0.20236672 0.3359878 -0.023134578 0.09406848 0.10060594 0.36932877 -0.09181831 -0.2718565 0.12734023 0.20896551 -0.48652083 0.32617489 0.09028631 0.108423196 0.038753893 0.3015243 0.5634412 0.52405816 -0.13019374 -0.26308307 -0.12472697 0.1510305 0.10221216 0.37539473 -0.19700857 -0.26846054 -0.0041017104 0.112966344 0.04308308 -0.5077933 -0.32906985 -0.020515943 -0.092879325 0.21302043 0.31808746 0.43588427 0.40540415 -0.14812817 -0.22136438 0.10052916 -0.40407807 0.10948501 -0.39813924 0.17721103 -0.28580648 0.4244678 -0.3813645 -0.6138273 -0.16230336 -0.2293284 0.15018883 0.28554764 0.061506763 -0.3689765 0.3047072 0.21058169 0.14200675 0.39633542 0.05846102 -0.03603589 0.017781463 -0.13970502 0.45520478 -0.47000018 -0.037865523 -0.23852293 0.21459204 0.23861359 0.037590757 0.035342943 -0.1260845 -0.29754448 -0.38711393 0.31363246 -0.12430558 -0.23206934 0.017313559 -0.02712725 0.21360937 0.18270369 0.07882973 0.25002143 -0.056406494 -0.18986113 -0.13215455 -0.61644244 0.06430276 0.08020446 0.38299567 -0.10061067 -0.2692966 -0.13403034 -0.3325097 -0.14199388 0.2318881 -0.216077 -0.19231136 -0.23073223 -0.037877038 0.07442773 0.07974945 -0.13122813
113843 5.1668583e-05 0.008320363 0.0038840468 0.008762312 0.019187547 0.0070929863 -0.0045234472 -0.0053774123 -0.0026596028 -0.0027415846 -0.0027158698 0.0033725265 -0.0013299059 0.0064043566 -0.00053449086 -0.00952132 -0.008724346 0.0077040736 0.0060957777 9.25628e-05 -0.008654592 0.011304644 -0.006397048 0.00077942444 0.004539219 -0.0077822334 -0.007569957 0.007291548 -0.0034531583 0.011669962 0.011522834 0.011319242 -0.008870824 -0.0039512753 -0.0053766416 -0.005618199 -0.0064605866 0.008700682 0.006435695 0.0025557084 0.0010059352 0.0036664223 0.0050634583 0.006402134 -0.008343821 -0.0048114364 -0.0055300817 0.0014655228 0.0038154195 -0.0014985586 0.0010553352 -0.011765192 -0.004747564 0.006177717 -0.0060672997 -0.019460043 -0.013549582 0.0024775225 -0.013088662 0.0011086602 0.0027021568 0.0034785534 0.010951363 -0.007484805 -0.0043798 -0.0008640874 0.0035648244 0.0022904356 -0.0035106952 0.006595066 -0.0065839747 -0.0006246634 -0.005875898 -0.012840036 -0.010853626 0.0025618416 -0.0010954561 0.008336439 0.001691272 -0.0068566604 0.013693967 0.0021858723 0.008761068 0.0023382762 0.003115546 0.0030621276 0.004198988 0.0033657562 -0.001624542 -0.012832332 -0.0012963266 -0.008237826 0.00085303443 0.002013523 0.0009482828 0.0063384143 0.0042170063 -0.008958711 -0.0102501195 0.012438682 -0.0015049463 0.00085882266 -0.0037181922 -0.0023779012 -0.0065739932 0.0010398708 0.007481943 0.002063627 0.0011712225 0.0016215089 -0.005694672 -0.009313021 0.0034254286 -0.0011631391 0.0077170827 -0.008959845 -0.004316749 0.004993369 -0.011419603 0.002664227 0.003685322 -0.008391092 -0.00081939984 -0.0013685197 -0.0068330867 0.0037409377 0.0012289908 -0.0008300662
113844 -0.00095135556 -0.0013716011 0.00045113635 0.002351874 -0.00043848096 -0.0022580684 -0.0016275068 0.0015285643 -0.0032868397 0.0009353481 -0.0019718648 0.00096425443 -0.0035898655 -0.0023736288 -0.002325095 -0.0024353964 -0.002788043 -0.0038139676 0.0015560203 -0.0038945011 -0.00030887953 0.0020726544 0.0010414198 0.0018999004 -0.00044907987 -0.0014003201 -0.0018318007 -0.0011417316 -0.001478731 0.0029908852 0.00025443686 -0.0017295626 -0.0016824328 -0.0011097766 0.0033999593 0.002571141 -0.0032071723 0.003296599 0.0006934994 -0.0027348872 -0.0009885184 -0.002765407 0.0023185282 -0.00036007355 0.0030432357 0.0024696894 -0.00083632604 0.0034947188 0.002247339 0.0015356246 0.0005157989 -0.0020453555 0.0036488415 -0.0012058171 0.0006632994 0.0029630635 -0.00051184883 -0.0034661638 0.00093620375 -0.0009649481 0.0005839098 0.0017055706 -0.0032388153 -0.0011493015 -0.0032937988 -0.00034305223 -0.0019289661 -0.0019300674 0.00216171 -0.0018144725 -0.00095642335 -0.0013883454 0.0032426305 -0.0015665106 0.0015329561 -0.0031074968 -0.0031455723 0.0017384251 0.0017341074 0.0013810201 0.0035941666 0.0015860652 -0.0001452544 0.0031178964 -0.003171401 0.0030359917 0.0004751407 -0.0026457817 -0.0025147847 -0.0030662527 0.00011171293 0.0012580307 0.0037798753 -0.0010722135 0.0038589379 -0.0017630806 -0.0018005585 -0.0035249204 -0.0037406029 -0.0017484226 -0.0037679428 -0.0005709211 5.7433444e-05 -0.0037654345 -0.00100316 -0.0037667768 -0.0027570457 -0.002409007 0.00086686434 0.0013706089 -0.0011210787 -0.00326476 -0.0006233642 0.00029609955 0.0014061863 -0.001049688 -0.0026560083 0.0025743893 0.0022218456 -0.0023457783 -0.0033904654 0.00041452388 -0.0023219225 0.0012604645 0.0009108601 -0.00069655734 -0.002451236 0.0017477932
113845 0.024229504 0.0058915885 0.041702274 0.045645166 0.06415009 0.05809397 -0.048412725 0.020750677 -0.014654576 -0.02294035 0.0022142064 0.033054285 0.026145833 0.08531769 -0.012332298 -0.049302466 -0.040290236 0.048128996 0.034679357 0.031545542 -0.024979755 0.069458954 -0.037295762 -0.018808275 0.010787725 -0.0052688383 -0.02601626 0.07824179 -0.033234257 0.042781606 0.060706016 0.09211907 -0.00015202454 -0.047264375 -0.0063780327 0.01322445 -0.08659241 0.040512137 0.0119457 0.02164824 0.030769277 0.048991855 0.05677697 0.036065195 -0.052356046 -0.05256986 -0.017895548 0.024705375 0.027681168 0.020521572 -0.017132442 -0.080564335 -0.0071877996 0.045118347 -0.0049961456 -0.1417724 -0.11436683 -0.015197514 -0.05354826 0.024354115 0.045175567 0.06356413 0.055082325 -0.07634591 -0.041528456 -0.016463526 -0.04644177 0.024229871 -0.058861267 0.039876405 -0.06303388 0.042045783 -0.027705645 -0.11624699 -0.044667874 0.005526551 0.021535901 0.056707337 0.009979924 -0.09036214 0.052894093 -0.003389328 0.051455345 0.04344826 0.031366512 0.03190301 0.04187491 0.014368393 0.038179092 -0.10679964 -0.02016824 -0.06181036 0.0015911701 0.036676295 0.038274992 0.0049863607 0.015110862 -0.05707158 -0.0633051 0.07082363 0.039688952 -0.004214441 -0.024293048 -0.008422138 0.0007009309 0.000256851 0.06849459 0.032369092 0.0037208775 0.047129873 -0.010142072 -0.0878202 0.017635997 -0.037915606 0.07405089 -0.061743096 -0.03993189 -0.0058773467 -0.062528335 -0.0156043125 0.018769272 -0.041087504 -0.009230602 -0.014243407 -0.062535845 0.027917864 0.014607568 -0.03415469
113846 0.014120195 0.014784882 0.025275128 0.038209982 0.0609807 0.03641333 -0.03335183 0.0010575143 -0.008502788 -0.01585378 -0.0014023897 0.025243469 0.013530296 0.051389445 -0.0008306706 -0.034074806 -0.025629135 0.03206661 0.024708703 0.011689616 -0.017011197 0.05415135 -0.01818617 -0.006214578 0.00649973 -0.0076947804 -0.019617938 0.04628148 -0.024373686 0.028642984 0.03862222 0.059063915 -0.01294326 -0.031834826 -0.0077189766 0.0037957265 -0.05212304 0.030285412 0.012190847 0.0056545967 0.012857247 0.03205305 0.032540023 0.023768684 -0.039317865 -0.031554364 -0.023982542 0.010494161 0.014364461 0.014663196 -0.008826798 -0.048277948 -0.010998134 0.04016206 -0.0078033237 -0.08939413 -0.071915716 0.0071371607 -0.037827548 0.019309884 0.028965581 0.037817407 0.04140988 -0.040913727 -0.024162967 -0.0043458818 -0.019280707 0.0058102757 -0.03261052 0.037341777 -0.0424531 0.025237879 -0.02152973 -0.07568433 -0.031195171 0.013400616 0.003975686 0.03648921 0.016079474 -0.052218966 0.037799664 0.0008392675 0.04067172 0.02211627 0.014815593 0.01609533 0.021369833 0.010423511 0.018918656 -0.060032524 -0.00823011 -0.046115134 0.0033725905 0.025568966 0.020154769 0.007257837 0.015228777 -0.032796267 -0.047629055 0.05488637 0.014825134 -0.009574335 -0.021856815 -0.010762889 -0.005667448 -0.0025994387 0.03924063 0.010379337 0.0013811301 0.030427031 -0.010777722 -0.06503504 0.017464051 -0.020806253 0.038885523 -0.041462712 -0.023481201 -0.0016936307 -0.040336713 -0.00027148458 0.010631875 -0.030660052 -0.004704463 -0.0036041343 -0.03796607 0.020998094 0.004376397 -0.019362472
113847 0.076040804 -0.0048648235 0.09812625 0.07497839 0.09344009 0.114882804 -0.09309066 0.08879674 -0.052423064 -0.033585455 0.01499004 0.07532587 0.078609504 0.19947676 -0.039213147 -0.118050784 -0.06855822 0.12510896 0.06673502 0.054171856 -0.03548298 0.12868144 -0.09278155 -0.031989902 -0.02593876 0.026025236 -0.052167956 0.17179698 -0.05308546 0.060301006 0.10803725 0.19904827 0.036495734 -0.09950334 0.015501006 0.05232407 -0.19690897 0.08247009 0.008181883 0.051749606 0.05819513 0.113429815 0.14314233 0.12082028 -0.0751225 -0.117016435 -0.010616543 0.06785344 0.06161935 0.06673224 -0.05496683 -0.14427024 0.008594165 0.084559396 0.028762342 -0.296891 -0.21773022 -0.060368583 -0.0833518 0.01408176 0.09823904 0.15571085 0.13415058 -0.1750376 -0.097363934 0.0039046288 -0.17996474 0.064890444 -0.17131701 0.058711242 -0.14688224 0.12605076 -0.040890437 -0.2581102 -0.05486932 -0.02708949 0.065169446 0.11287179 -0.0029857627 -0.19853604 0.095832795 0.009057504 0.08260306 0.12582941 0.064962104 0.05929009 0.084529325 0.022587376 0.14690922 -0.23671865 -0.0543548 -0.10712984 0.045828424 0.077632315 0.08178738 -0.010523258 0.009248199 -0.14328253 -0.124420896 0.14023288 0.08472406 -0.013157137 -0.026161402 0.0071580117 0.029250596 0.02860862 0.14988166 0.09529289 0.0046470645 0.075067095 -0.026054924 -0.20208323 0.021571955 -0.051686622 0.19103862 -0.07995119 -0.075035684 -0.035136603 -0.13998048 -0.08539195 0.07755935 -0.07795363 -0.04373311 -0.058924504 -0.11241997 0.06369822 0.06288941 -0.07855822
113848 0.06559422 0.005992049 0.08392156 0.06771963 0.08471131 0.101989284 -0.09216964 0.07447378 -0.03958447 -0.034751028 0.011339795 0.07218546 0.07352602 0.17316525 -0.034344196 -0.10710237 -0.0730313 0.104933895 0.06504523 0.04654493 -0.031408697 0.1106175 -0.08262084 -0.02824587 -0.018196678 0.017668355 -0.05355737 0.15100965 -0.043912347 0.05313884 0.0826245 0.17528655 0.02975906 -0.08160518 0.02567516 0.04901421 -0.17442209 0.07705175 0.008968987 0.0360808 0.05568429 0.09949783 0.13352928 0.11687923 -0.06685869 -0.10619564 -0.0041397284 0.06604567 0.053739432 0.071553804 -0.03831755 -0.12649524 0.0065577445 0.07844691 0.021899188 -0.26316208 -0.1940156 -0.05017661 -0.076314755 0.022043025 0.09093305 0.14057496 0.119121395 -0.14904998 -0.08237628 0.0040292176 -0.15279232 0.051055916 -0.1561425 0.04549167 -0.13291502 0.11890955 -0.039379124 -0.23665442 -0.05863693 -0.02551882 0.06789851 0.102147356 0.0047266735 -0.1715581 0.08917322 0.009937222 0.0711792 0.113522954 0.054843836 0.043454878 0.072445475 0.011809773 0.12809382 -0.21018772 -0.041227907 -0.09541734 0.046402417 0.06486386 0.06621142 -0.006416236 0.005613205 -0.12546931 -0.12547003 0.11486752 0.06676981 -0.012828751 -0.030037802 0.013865344 0.024704024 0.031044692 0.13010703 0.08449329 0.006408617 0.05915035 -0.034416344 -0.18458979 0.020548206 -0.042676035 0.16735002 -0.06231948 -0.07302929 -0.03662401 -0.120846905 -0.076480664 0.065927476 -0.0710112 -0.038430136 -0.053379085 -0.09975533 0.05931219 0.04828207 -0.0667956
