1653 128
114876 0.013776101 -0.005854198 0.044269037 0.0183987 0.028273612 -0.041773625 -0.046851356 0.02932354 0.00069904403 0.05221071 0.17084481 0.0037789724 -0.044501152 -0.0022739891 -0.057795458 -0.01462505 -0.06843068 0.019627396 0.054796662 -0.015597403 0.019695416 -0.08027096 0.082845435 0.07334488 0.03544771 0.0026696315 0.0066205445 -0.018993825 0.100315005 -0.045728695 0.014548214 -0.060649283 -0.020735549 0.016561728 0.024971874 0.0137529895 -0.014592562 0.0005626846 -0.009127146 0.00095751544 0.058033455 0.02884222 -0.05507895 0.028489387 0.055038985 0.04418562 -0.0365032 0.0060950248 0.12960932 -0.009352956 0.015406647 0.08934986 -0.08881579 0.05531226 0.05776418 -0.04458503 0.05459192 0.051225226 0.015148482 -0.005453022 -0.04708411 -0.010496408 -0.04391223 -0.05177353 -0.0072488952 -0.14492597 0.005239039 0.041607343 0.036824018 -0.012678028 -0.11092443 -0.04853601 -0.008498011 -0.020714907 0.09017318 -0.06806787 -0.06498773 0.03053128 -0.012815491 -0.03660577 -0.014289134 0.0006146658 -0.0670569 -0.021272253 0.05022086 -0.0076295948 -0.073812336 -0.05006102 0.011976835 0.11909636 -0.013731515 -0.011234484 0.030093824 -0.06964125 -0.06186941 -0.026496135 -0.063922666 -0.11692868 -0.046363946 0.007318886 -0.016413864 -0.032617707 0.073569 -0.05294264 -0.029991206 0.010287745 0.029171633 -0.037454974 0.026035737 0.02346957 -0.08246559 0.036801443 -0.0060925465 0.022299368 0.02666324 -0.051102262 0.061783236 -0.07923501 -0.017559072 -0.0127855865 -0.014824184 -0.14334151 0.056779973 0.04531384 -0.07452352 -0.008713131 -0.0947816 0.059568845
114877 -0.002310044 -0.0038655573 -0.00018923472 0.0030729186 0.001187492 -0.0009119314 0.0007302163 -0.0010153204 -0.0014226305 0.0032516909 -0.0022393817 -0.002705212 -0.0024644355 0.00090416113 -0.0026660294 -0.00080141536 0.0022235732 9.489127e-05 0.0016747561 -0.002045871 -0.0020714412 -0.0012635976 -0.0017712412 -0.0036080927 0.0028391208 0.0016354616 0.0019831522 0.0009809682 0.002346393 -0.002491129 -0.0014991973 -0.0007907593 0.0004094632 0.0023387475 -0.002147145 0.0034999468 -0.0022553352 0.0033478108 -0.0009937958 0.0006649019 0.00092315103 -0.000688513 0.0017310242 -0.00023492478 0.001473581 0.00020572639 0.0004254523 0.00013993923 0.00034308998 0.0023668904 0.0035484438 -0.00041301377 0.00235964 0.0022311239 0.0026863385 0.00359701 -0.0018837288 -0.0005055199 -0.0021715448 -0.0008783075 0.0036560227 0.0020963966 -0.00062235043 -0.001827257 0.0012394752 0.001440351 0.0010408872 0.0036224509 0.0014562166 -0.000797801 0.00075307844 -0.0025664929 0.0030923728 0.0016888394 0.0033763025 0.0014262499 -0.0010771474 0.0031374937 -0.0018283027 -0.0004427275 0.0016893719 -0.0005289043 0.002138228 7.725764e-05 0.0017956294 -0.00044956472 0.0020760074 0.0012219346 -0.0037595534 -0.0033148425 0.0028667809 4.024879e-06 -0.0038266794 0.0031915298 0.0029682277 0.0022947232 0.0037295453 0.0031982337 -0.00036293667 0.0012098101 -0.00014296318 0.0014555221 0.00025664404 0.0020113296 -0.003025088 0.0023735468 -0.0023677987 0.00089562463 -0.0012766051 -0.0033452164 0.0032863314 0.00014976996 -0.001152167 -0.0034663177 -0.0019571795 0.00040536534 -0.00181898 0.0028629526 0.0036613175 -0.0004592348 0.0002734722 0.0006436189 0.0001723535 -0.0022894961 -0.0024839418 -0.00058259297 0.0039056155 -0.0035832415
114878 -0.005141453 0.061583377 -0.2754212 -0.19098438 -0.32754067 -0.13164082 0.031285707 -0.064826466 0.013227656 0.12383073 0.14453168 0.14881495 -0.2585229 0.18830788 -0.0629964 -0.0014001188 -0.069408014 0.26918647 0.09847155 -0.05218254 0.034834784 0.12293296 0.2103211 -0.07663152 0.011067035 0.1921957 -0.0073074717 -0.063700944 0.053538814 0.0719165 -0.26416028 -0.034617133 0.21887214 0.2117116 0.06933497 -0.082731195 -0.009966597 0.27077892 -0.045035634 -0.21379822 -0.11583513 0.30754206 0.15915827 0.2978382 -0.19649439 -0.25724894 0.091340736 -0.23475023 -0.05069562 0.06367438 0.11929403 0.15181977 0.00023852821 -0.16046299 0.21528977 -0.07480378 0.027156692 -0.21566002 -0.028616538 0.056546245 -0.24387898 0.40806425 -0.27677432 0.25070655 0.17432071 -0.101134904 0.18472122 -0.10420643 -0.01993172 -0.2613603 -0.0074364967 0.4790764 -0.050231382 0.1215557 0.05980302 0.047532618 0.060266767 0.15916744 -0.19176048 -0.040661164 -0.49085078 -0.14582163 -0.12592782 -0.13448519 0.033427417 0.16858673 0.18674652 -0.52564096 0.011153934 0.009357218 -0.025184464 0.004789659 0.175084 -0.12944546 0.14127332 0.08088962 0.21646777 -0.14208785 0.040064123 -0.08824017 -0.23343316 -0.106811486 0.17005889 -0.20164596 -0.13159311 0.010554029 -0.01372253 0.14439371 0.15213716 -0.10019199 -0.14291933 0.13329615 -0.08144129 0.19251382 0.18803167 -0.15240115 0.3808746 -0.07666264 -0.016501836 -0.21755244 -0.31277904 -0.24523038 -0.04074627 0.10815987 -0.21239015 0.14869216 -0.23881435 0.12611774
114879 -0.015150065 0.04848434 -0.24749362 -0.17425995 -0.24875638 -0.14064431 0.013840869 -0.06606117 -0.036198754 0.119247064 0.13598737 0.14572406 -0.26234913 0.16294275 -0.06296246 0.015807813 -0.1357389 0.24780713 0.08256294 -0.08041618 0.03111764 0.021656364 0.15628478 -0.10744063 -0.007826581 0.13213551 0.005514183 -0.054730255 0.08634985 0.0018549607 -0.20064026 -0.037890043 0.21718335 0.14208129 0.02142759 -0.0935231 -0.013599281 0.2213153 -0.0067595686 -0.20671427 -0.04215683 0.25664994 0.13595948 0.23170014 -0.14163914 -0.25473163 0.06853076 -0.20471579 -0.02251285 0.066390865 0.12683547 0.14584535 -0.07824953 -0.14765532 0.20773032 -0.007699705 0.013297493 -0.13053253 -0.04233263 0.081805 -0.22670671 0.4042413 -0.28798893 0.23456672 0.24360448 -0.103821374 0.1631689 0.0013444546 -0.06978923 -0.23973718 -0.014618083 0.39906296 -0.062530324 0.101472 0.016867988 0.0026365838 0.0808886 0.18200132 -0.20402572 -0.037877083 -0.36327845 -0.114848144 -0.0759829 -0.16398613 0.08832977 0.17431177 0.11592284 -0.44640443 0.02188265 0.07601305 -0.012935939 -0.05753107 0.18923406 -0.0902441 0.13439198 0.06480642 0.16676688 -0.15560883 0.027058437 -0.10064202 -0.16565348 -0.08336201 0.16520682 -0.17845507 -0.09277682 0.027886514 0.009368341 0.14391784 0.17449479 -0.053607684 -0.13628379 0.11775438 -0.046555918 0.12928267 0.21390198 -0.15220238 0.3187489 -0.10998507 -0.019044416 -0.19343752 -0.33431333 -0.20361106 -0.04881636 0.12261127 -0.23497513 0.10481595 -0.22336112 0.10246767
114880 0.009976561 0.00014451935 0.02985692 -0.005610336 0.008291951 -0.028606674 -0.018463997 0.012376381 -0.0021914414 0.018175207 0.07428384 -0.0032670551 -0.0041564372 -0.011294801 -0.015586614 -0.011334316 -0.025268672 0.01410751 0.039291617 -0.004555825 0.013346896 -0.045084488 0.039922554 0.036155514 0.020845724 -0.016201649 0.008783683 -0.0023744532 0.06503874 -0.017221062 0.023027208 -0.03243295 -0.009689558 0.0137186395 0.026768697 -0.0022166388 -0.023199093 -0.0029280738 -0.01973031 -0.013200089 0.03725358 0.014656519 -0.044693824 0.0222407 0.032869134 0.032509327 -0.051218003 0.0049818223 0.062836155 -0.013826008 -0.0010134826 0.04742643 -0.04848574 0.044459205 0.022239853 -0.040027328 0.021662991 0.037997942 0.020460203 -0.0021043126 -0.021635136 -0.015989032 -0.016910974 -0.014204389 -0.0028911303 -0.08267778 -0.002852167 0.020036338 0.018192759 -0.008200151 -0.047906153 -0.029415036 0.0070514036 0.012376505 0.05171061 -0.043209095 -0.040211406 0.0155385295 0.005909287 -0.02666693 -0.007941096 0.012759357 -0.029580783 -0.015911605 0.03617712 0.0070744213 -0.041911602 -0.033505246 0.006544202 0.06381327 -0.0025881745 -0.020217255 -0.008235837 -0.038745232 -0.03878197 -0.010163965 -0.028517975 -0.068989515 -0.02835831 0.0075835898 -0.007299971 -0.023688534 0.029501919 -0.020895865 -0.018878696 0.021421619 0.012695315 -0.012417905 0.008717537 -0.008172117 -0.052499242 0.010249439 0.011837527 0.0028209237 -0.008153032 -0.019472407 0.03697875 -0.027818594 -0.01614149 -0.014032734 0.012700153 -0.08361499 0.03477003 0.024284888 -0.029566588 -0.011197894 -0.069127545 0.022004103
114881 0.0024579125 0.00084691256 -0.00043547907 0.0015996763 -0.0015135128 -0.0035102963 0.003020505 0.0027831309 -7.6952136e-05 -0.0017454096 0.001141597 0.003649994 0.0032044668 0.0033591588 -0.0034706574 -0.0016269695 0.002345275 0.0034213334 0.0028048018 -0.0024231472 0.0018759677 -0.0017626672 -0.0034896312 -0.002052751 0.0035520738 -0.0020879076 -0.0020347976 0.0037647292 0.003235297 0.0026402078 -0.00324666 0.002406644 -0.0009787803 0.00011148981 -0.0018328456 0.0008739759 -0.0038880787 0.0021791344 0.00069715147 0.0026012845 -0.0013816778 -0.0032726086 -0.0029331674 0.0032686947 -0.0016629216 0.003207791 0.0018969701 -0.0010649223 0.0034906585 0.0010508443 0.0033185824 -0.00038715408 0.0027410802 0.0012476281 0.00036245384 8.461345e-05 -0.0014986641 -0.003539124 0.00079535844 0.0035922548 0.0037308345 0.0014364664 -0.0016535077 0.0011633516 0.0027942443 -0.0027866508 0.0037527534 0.003028794 0.0025701819 0.0027006643 0.0006415581 0.0019031104 0.0033384582 -0.0023115196 0.0029820988 0.0009275269 0.00018898763 -0.0036382265 0.00025533958 -0.0026873914 -0.0027270422 -0.002358082 0.0010402818 0.0020291416 0.0029281594 0.0017035283 0.00016820373 -0.001578765 0.001224202 0.0008306892 -0.0037639125 -0.0002758113 0.0038561295 0.00010479445 -0.0012025409 0.0034088485 0.0011164154 -0.0018587644 0.00286423 0.0019224618 0.0036070386 -0.0009632562 0.002068616 -0.0003758685 -0.00326278 0.0014619462 -0.00017998491 -0.0025108962 -7.895755e-05 -0.0013959715 -0.002429335 0.0020141006 0.0007508108 -0.0003376934 -0.0018103017 -0.0016379242 0.0010141891 0.0027330488 0.002526775 -0.0024770566 0.0021254602 -0.0010770933 -0.0018168162 0.0020592755 -0.0012977405 0.0006966352 -0.0012848488 -0.003778248
114882 0.014840595 -0.0036655285 0.015031541 -0.014675568 -0.010802974 -0.04017844 -0.023301197 0.0066723176 -0.011169503 0.03595152 0.099522136 0.009529098 -0.03547073 0.013135744 -0.035344116 -0.005975356 -0.051510654 0.038343553 0.04688513 -0.013680679 0.016536687 -0.048635386 0.071198165 0.025863072 0.022753768 0.0126692075 0.014783039 -0.017290974 0.09694324 -0.02727999 -0.0015537073 -0.03900126 0.007870787 0.022053726 0.029303787 0.0046545635 -0.016271465 0.013865236 -0.017867291 -0.030780118 0.029879842 0.037829697 -0.040527884 0.028208641 0.015723716 0.0060034823 -0.02384615 -0.019229885 0.070738114 -0.011520776 0.012603314 0.0637145 -0.063144326 0.04387026 0.042627357 -0.029054867 0.029285211 0.015377751 0.026520498 -0.00039256757 -0.046030495 0.01315481 -0.04793502 -0.0028397879 0.022872306 -0.101194516 0.01489649 0.023060795 0.012683534 -0.031949658 -0.067421995 0.0153961815 -0.003926358 0.0041020773 0.050074186 -0.048215058 -0.050188933 0.044299513 -0.028517013 -0.023896705 -0.042096626 0.0032237559 -0.057189707 -0.03192481 0.05779527 0.015667964 -0.038969815 -0.073699676 0.015780302 0.07849252 -0.008697084 -0.021003362 0.019554345 -0.058871146 -0.026209148 0.0062472066 -0.021709843 -0.09142222 -0.01902132 -0.0021828038 -0.028470032 -0.03543067 0.05491484 -0.04463621 -0.048574846 0.014005178 0.01532255 -0.0020333063 0.024001924 -0.0074668257 -0.056130804 0.039245278 0.012073428 0.017766278 0.034773502 -0.048578426 0.07327319 -0.049498517 -0.02714995 -0.031471405 -0.020316867 -0.12113756 0.041477907 0.039748944 -0.057301495 0.007601738 -0.08734242 0.041404817
114883 0.0012599758 -0.0011828974 -0.0017363023 -0.0030250717 0.0014727439 0.0026704958 -0.0005844049 0.0029921916 0.003270928 0.00018285013 0.0035009414 -0.0036006689 -0.0012409658 -0.002290113 0.0033443898 -0.0019253835 0.003771675 -0.0010742212 0.0005928314 -0.0018278534 -0.0031604664 0.002937146 0.0021757786 0.0015500867 -0.0020811094 0.0032590847 0.0002828622 -0.0011449328 0.003661441 -0.0023404278 -0.0011040786 -0.0010507003 -0.0027914718 -0.0013184652 0.0034524607 0.0033520998 -0.0011864059 0.00046332137 -0.0026484265 -0.002777018 -0.0027862946 0.0038316697 0.002167053 -0.0025484746 0.0034654948 0.0025079355 -8.203384e-05 0.0008499835 0.0019068496 -0.0019939314 0.0002140044 0.0014385066 -0.0031142978 -0.0026801247 -0.0031610029 -0.0011933189 -0.0026700976 0.0014301949 0.0015491087 0.0003612938 -0.0009047963 -0.0002973985 0.0019374682 1.9279745e-05 0.0027278382 0.0024521518 -0.0006761083 0.00055857253 -0.0027321877 -0.0036790506 -0.00042265817 0.0033724091 -0.001205508 -0.0037722245 0.002433286 0.0034038336 -0.0033296521 -0.00018547886 -0.0011345356 0.0029364503 0.0038637675 0.0026004731 0.0035090398 0.0030369668 -0.0007112922 0.0019355692 0.00046964036 -0.0027440877 0.0007325172 -0.0032337292 -0.0021572555 -0.0009037124 0.0018033213 -0.00067517575 0.001518839 0.0011150595 0.003448665 -0.0025709954 0.0031636262 -0.0015810982 -0.002739836 -0.0010890906 -0.0029909143 0.0024372707 0.002391891 -0.0021248688 -0.0037176844 -0.0032135046 0.0010745038 -0.0011505237 0.002492385 -0.003473378 0.0017854676 0.0009610183 0.002684424 6.0465867e-05 0.0022627627 0.0037229094 0.0022398066 0.0019158833 0.0008523523 -0.001463517 0.002003256 0.0035704041 0.001266404 -0.0023713538 0.003075993 -0.00018056639
114884 0.010541301 0.07333846 -0.228124 -0.30396453 -0.3618002 -0.225759 0.00014373833 -0.0800406 0.067576386 -0.039441 -0.013876482 0.25347131 -0.17666961 0.08489387 -0.029975459 -0.005287549 -0.028850598 0.23627506 0.18168527 0.14405198 0.08402175 0.2495217 0.20776229 -0.11184182 0.06386947 0.2154645 0.010413024 -0.098448604 0.055703428 0.14435168 -0.19670498 0.06982504 0.24592535 0.18475366 0.16908377 -0.0012456398 -0.00060219335 0.35259578 -0.07513748 -0.24167943 -0.08105197 0.37471688 0.13247909 0.27116084 -0.23484018 -0.27181447 0.13658863 -0.33670825 -0.12982751 0.051177613 0.014999878 0.012645269 0.090405315 -0.12960106 0.2791758 0.07119131 -0.054374404 -0.3308611 0.0658164 0.079645 -0.29114088 0.31966305 -0.30609888 0.32101882 0.1139924 -0.078402646 0.14166386 -0.076018654 -0.0924015 -0.3008666 0.0554086 0.6095122 -0.06256897 0.07306274 0.037090063 0.13443686 0.00035645693 0.1755134 -0.089827575 -0.12121879 -0.49916255 -0.21310262 -0.19808844 -0.20090155 0.115117356 0.1936306 0.13481097 -0.5802165 -0.02447658 -0.0025724997 -0.02514072 0.058813546 0.018251318 -0.17110813 0.20058651 0.15038395 0.31074703 -0.13571504 0.107955225 -0.114048555 -0.17005523 -0.17134513 0.11707578 -0.20752165 -0.20548187 0.12582886 -0.069136344 0.21013445 0.038370274 -0.2282226 -0.09329373 0.13983287 0.10361664 0.24700013 0.100019515 -0.18158261 0.34228995 -0.02820945 -0.07471634 -0.17606732 -0.26237524 -0.15261716 -0.034820486 0.09899116 -0.052521866 0.16514437 -0.28370348 0.087378636
114885 0.0017559043 0.06937157 -0.21897958 -0.27638528 -0.39042905 -0.17553951 -0.015471886 -0.029777354 0.032251153 0.018754883 0.02974149 0.20258273 -0.15851417 0.06964769 -0.043987628 -0.01184631 -0.025704006 0.19354784 0.12728322 0.048069496 0.12088821 0.21305414 0.21977411 -0.112951204 -0.0038195825 0.19611482 -0.036654264 -0.11249349 0.105367936 0.120817 -0.19486745 0.04328819 0.25385788 0.22359885 0.11850107 -0.005323013 0.05313092 0.2966136 -0.022963272 -0.26048777 -0.09238768 0.3385379 0.18231192 0.2619404 -0.17954153 -0.27738944 0.1692742 -0.28280324 -0.07950692 0.05870591 0.02151239 -0.01572096 0.06666748 -0.16004866 0.2844213 0.030721856 -0.07979174 -0.29867378 0.021275338 0.08050159 -0.30377644 0.37945166 -0.31593594 0.26258773 0.1330772 -0.100922786 0.13842492 -0.058648508 -0.06968116 -0.3204098 0.009703805 0.5878079 -0.062400684 0.058725964 0.024035592 0.07199023 0.015338034 0.1248432 -0.17726992 -0.10522613 -0.49913082 -0.20702548 -0.16697979 -0.1602635 0.0930953 0.20126984 0.13534676 -0.5905362 0.026092617 -0.013055012 -0.026896205 0.009319329 0.044901825 -0.11517156 0.18259335 0.14579582 0.30387545 -0.10623882 0.10645517 -0.09484304 -0.20734037 -0.1861905 0.17884347 -0.21253172 -0.17487292 0.09260044 -0.04023599 0.19509922 0.10785084 -0.20967549 -0.09826616 0.13163544 0.09215407 0.23384765 0.16378145 -0.16987108 0.3556341 -0.052529033 -0.07533116 -0.15872885 -0.286006 -0.21499029 -0.0045702066 0.11891269 -0.15923713 0.21125013 -0.24026775 0.090884015
114886 0.03564192 0.009298555 0.011573903 -0.00255223 -0.020781137 -0.058415044 -0.051970422 0.023216525 -0.004557957 0.06403862 0.15309858 0.00065177237 -0.061554927 -0.013561784 -0.06876747 -0.012719492 -0.079553805 0.060485475 0.07653858 -0.0014627217 0.03164101 -0.058726653 0.10132016 0.033809975 0.05322559 0.019185465 0.0086366525 -0.045975015 0.12453773 -0.053742003 -0.0055360575 -0.061169785 0.0149815325 0.0317572 0.048222948 0.032119926 -0.017870998 0.054993518 -0.020106288 -0.04129874 0.06183913 0.07355362 -0.051239062 0.038360503 0.013409022 -0.02278563 -0.0032683657 -0.040641807 0.124955505 -0.0033398683 0.018895783 0.09267647 -0.098084606 0.07439236 0.08918845 -0.035704106 0.05881461 -0.0046530734 0.028429735 -0.003400624 -0.061092723 0.028697781 -0.07864344 -0.024367776 0.03136472 -0.15671147 0.031188732 0.04653614 0.029263236 -0.056311477 -0.12064197 0.01974961 -0.0149650015 -0.003634914 0.07903129 -0.072501935 -0.07823557 0.07773615 -0.011358459 -0.048762083 -0.05689188 -0.0040094745 -0.09626776 -0.058562454 0.079335384 0.00010572525 -0.058278903 -0.123025276 0.014046568 0.12284844 -0.017715853 0.011939513 0.05482965 -0.10152983 -0.04139352 0.0018389684 -0.034179155 -0.14289206 -0.038168434 0.0010929701 -0.05421325 -0.05625168 0.08400444 -0.07697269 -0.07299856 0.024845188 0.05401711 -0.007494229 0.025399866 0.006691258 -0.13341288 0.032717705 0.015123189 0.03676381 0.032459985 -0.09513772 0.13032266 -0.06121946 -0.022395652 -0.06757347 -0.037766684 -0.16576415 0.07301495 0.05824936 -0.07684108 -0.009676333 -0.13841924 0.07907596
114887 0.0030224829 -0.003677 0.041291405 0.010219355 0.018156346 -0.020017682 -0.013060072 -0.00042383268 0.0051876386 -0.0034927267 0.046721343 -0.0049001165 0.006790449 -0.010679074 -0.016677706 -0.0035874825 -0.01313724 0.0051969765 0.022331195 0.009368243 0.002862364 -0.03610654 0.013133803 0.027713561 0.028161915 -0.018802335 0.0025644233 0.00949166 0.05090522 -0.0033410122 0.03597748 -0.019610649 -0.0071692267 -0.00391637 0.014454253 0.00074457115 -0.014580291 -0.01243071 -0.02227016 -0.0038649614 0.027281433 -0.0031991904 -0.036889266 0.010295129 0.013914587 0.031226065 -0.038556557 0.012918867 0.044464383 -0.014563341 -0.002026115 0.029926956 -0.038045984 0.03820245 0.0063667195 -0.028599452 0.019621998 0.050109114 0.0073226574 -0.004170372 -0.0034876561 -0.03753108 -0.007972844 -0.022523776 -0.014261419 -0.056620624 -0.0063557997 0.019852385 0.02366394 0.007317334 -0.03108263 -0.037968025 0.010275516 0.0012378736 0.031878993 -0.020086056 -0.026977587 0.0074726245 0.00965032 -0.021407844 0.016927347 0.019578181 -0.007528882 -0.0037472895 0.01881769 0.0034341104 -0.04154091 -0.0021998775 -0.001872989 0.046406012 -0.0025435097 -0.022111114 -0.014876452 -0.036600027 -0.04091378 -0.008459306 -0.03205749 -0.03961748 -0.023390317 0.008503459 0.014891387 -0.013438559 0.014175042 -0.00911882 -0.005974598 0.009460191 0.016983315 -0.015216498 0.0026854486 0.0027242 -0.033702753 0.015190801 0.01724143 0.0027854044 -0.01618667 -0.014165705 0.017103422 -0.025055747 -0.014467218 0.011957049 0.009141557 -0.040912148 0.01963852 0.011485445 -0.015679663 -0.024561722 -0.037810877 0.014915213
114888 0.0052205953 0.062171675 -0.27982396 -0.16846083 -0.2867201 -0.11582479 0.011677319 -0.03727513 0.013275828 0.13369834 0.11951051 0.14387435 -0.27128103 0.168783 -0.0367728 0.00887692 -0.1115776 0.26446888 0.07296184 -0.07595116 0.03633447 0.11868812 0.17228965 -0.07083237 0.037408397 0.17393322 -0.014978254 -0.052269094 0.022661947 0.052869055 -0.24995081 -0.042857073 0.19656053 0.19973549 0.055912107 -0.074023746 -0.034420703 0.27437568 -0.022385867 -0.21408352 -0.12976038 0.3129455 0.14204293 0.2996609 -0.1969599 -0.26599506 0.09634718 -0.21349032 -0.05188393 0.060884044 0.12292001 0.18846217 -0.0021709993 -0.13730508 0.21932536 -0.023698855 0.023180429 -0.1732279 -0.029493364 0.071549594 -0.24397798 0.4370389 -0.26043513 0.2505236 0.18216076 -0.109309204 0.17782971 -0.054136395 -0.029008277 -0.2662863 -0.042220548 0.4682765 -0.07363076 0.13514341 0.077079065 0.025877811 0.08012745 0.1341769 -0.19530939 -0.033856492 -0.4686568 -0.18737689 -0.09639516 -0.14600831 0.017450599 0.16712935 0.18302056 -0.5222955 0.009948992 0.0027429902 -0.053221304 0.035270732 0.20479548 -0.116329126 0.1372116 0.086719535 0.17687458 -0.13580392 0.031022869 -0.096070796 -0.21025589 -0.09304906 0.14939074 -0.19876122 -0.089799225 0.04272613 0.0065626246 0.14326851 0.15411587 -0.0860571 -0.1945564 0.082847305 -0.08837135 0.17343482 0.1661072 -0.1401655 0.37646064 -0.050062705 0.001998799 -0.20075825 -0.30646276 -0.23213236 -0.047248367 0.1307618 -0.20867889 0.15348452 -0.280572 0.09443523
114889 -0.021867827 0.036214143 -0.29852372 -0.17830871 -0.25888395 -0.15114072 -0.016758414 -0.078096494 -0.019529033 0.08784229 0.13136826 0.15503842 -0.31846568 0.17721133 -0.08902784 0.01097624 -0.1436658 0.2695744 0.07771856 -0.101674244 0.02245743 0.041775033 0.15931514 -0.100145355 0.019209035 0.16460642 -0.018288504 -0.069801904 0.109012455 0.024754027 -0.19650555 -0.036706194 0.2246836 0.14888872 0.059648156 -0.09535243 0.018379774 0.25149837 -0.028577153 -0.20406626 -0.057744294 0.26306784 0.13889131 0.24860556 -0.1811491 -0.28168014 0.1145206 -0.2440721 -0.025041552 0.06843203 0.11946466 0.17486776 -0.07267814 -0.17304151 0.23295115 0.033795256 0.010552983 -0.15671556 -0.03141688 0.09907596 -0.23231451 0.43401295 -0.314757 0.2569502 0.23875308 -0.13666846 0.20750855 -0.011019121 0.0021415306 -0.26161617 -0.03585289 0.43086043 -0.08900456 0.09865556 0.006522203 -0.010744675 0.089825824 0.14531395 -0.21420437 -0.06575208 -0.3881632 -0.15536836 -0.06024368 -0.15819423 0.03524034 0.14583506 0.117612615 -0.46900487 0.00877176 0.03165259 -0.018727798 -0.037900295 0.21247731 -0.11225643 0.10687625 0.073054865 0.15768541 -0.15513892 0.052995324 -0.12655477 -0.16976693 -0.105722874 0.17464557 -0.2288237 -0.106947765 0.0014430874 0.0022328075 0.13202153 0.19433655 -0.059349023 -0.17753242 0.13349997 -0.033615284 0.13992076 0.24551004 -0.16169478 0.3583752 -0.14942336 -0.02304471 -0.14492941 -0.36124432 -0.17485707 -0.029556476 0.17001954 -0.25163782 0.11985189 -0.20431356 0.08582437
114890 0.020545503 0.013867036 -0.005359464 -0.02422296 -0.025268618 -0.06006347 -0.03153157 0.014107297 -0.0037756795 0.05858647 0.12529291 0.017145146 -0.055433262 -0.0029039122 -0.050800256 -0.017377265 -0.0730125 0.047670156 0.068010576 -0.005464598 0.030079797 -0.059303407 0.093470395 0.026841985 0.04583362 0.010504505 0.007718729 -0.036232855 0.102558635 -0.036346264 0.0011243548 -0.05369762 0.013959409 0.03197733 0.044404864 0.018759113 -0.018536545 0.03663896 -0.014027369 -0.043841552 0.05272824 0.06176619 -0.036613505 0.030308722 0.008028298 -0.0007632746 -0.011800145 -0.03532762 0.10311445 -0.0020114353 0.008229694 0.07590826 -0.073533475 0.06287968 0.07912829 -0.034925092 0.045779485 0.01409655 0.028800685 0.002971031 -0.05661945 0.03126917 -0.069864444 -0.020089598 0.029646572 -0.13288529 0.028434161 0.035096824 0.01106734 -0.049653783 -0.101323515 0.024826655 -0.0006088156 0.004472275 0.075400665 -0.052673277 -0.067736894 0.066781074 -0.013087317 -0.035375245 -0.06426945 -0.01659749 -0.079864234 -0.062265016 0.069163755 0.007183304 -0.046214007 -0.11504875 0.010286643 0.1077798 -0.014422423 0.003741767 0.045204256 -0.07898377 -0.027518636 0.0042066625 -0.02228705 -0.119599804 -0.028716125 0.0005205869 -0.04219194 -0.051779125 0.07231728 -0.06598883 -0.060245328 0.026512684 0.039487664 -0.0067456244 0.01752568 -0.010261805 -0.10814641 0.02559352 0.004931041 0.030092418 0.030870927 -0.069076404 0.10290102 -0.054229554 -0.023894485 -0.0551671 -0.036324196 -0.15047912 0.056452177 0.054773834 -0.06649179 -0.006359617 -0.12555958 0.052387554
114891 0.011013487 -0.022024838 0.010135061 -0.010848051 0.009032139 -0.076267764 -0.025701825 0.0064100763 -0.013740264 0.08751296 0.2037939 0.041600943 -0.11214089 0.05342817 -0.060971018 0.027287507 -0.13163252 0.0643583 0.08666548 0.018075557 0.016422683 -0.06848405 0.14562827 0.02441634 0.07890024 0.045524813 0.06920301 -0.044643197 0.12632567 -0.05793203 -0.016570784 -0.057142474 0.018234074 0.022916693 0.039888047 0.04372361 -0.037675455 0.08708412 -0.037688088 -0.08213184 0.06508423 0.11280629 -0.066826075 0.051451355 0.03433267 0.0002157722 -0.04528141 -0.04361682 0.12070232 -0.03660837 0.060691673 0.14129129 -0.110213175 0.063316636 0.08886102 0.030355219 0.034365684 0.012430993 0.06536679 0.0056838687 -0.08500942 0.06355587 -0.09462819 0.04781055 0.043253165 -0.18305993 0.026376266 0.06560467 -0.057233766 -0.044137977 -0.12599735 0.048913028 -0.035784476 -0.0006856284 0.122305855 -0.04742017 -0.051192056 0.10697903 -0.07824265 -0.05153191 -0.11629451 -0.021552494 -0.12255511 -0.070403844 0.11726009 0.041911867 -0.083852485 -0.1615956 0.006235878 0.15107843 -0.007560917 -0.026617091 0.07799748 -0.14428098 -0.03632477 0.015420177 -0.038963407 -0.19442508 -0.058936562 -0.037667178 -0.03451158 -0.06834375 0.106891476 -0.10898558 -0.0945282 0.03985948 0.026344303 0.017722202 0.030918825 -0.0030248864 -0.093496986 0.08592733 0.015552525 0.058136046 0.07392844 -0.106670655 0.12819208 -0.08507758 -0.053694263 -0.06524738 -0.0804581 -0.21902046 0.04696239 0.06761077 -0.0804106 0.034460954 -0.20349412 0.10021542
114892 0.035468776 0.015741821 0.011621509 -0.010144311 -0.02288086 -0.077251256 -0.05256788 0.022713602 -0.0036912772 0.069307335 0.14955696 0.0061197197 -0.060057182 -0.018192593 -0.070985995 -0.0085137915 -0.08227365 0.05801586 0.06551254 -0.00256297 0.031377904 -0.07241726 0.10552716 0.0473613 0.04524527 -0.0006165218 -0.006268302 -0.04484462 0.1339396 -0.054920986 0.008162063 -0.06649116 0.013111641 0.035768203 0.038403396 0.025267102 -0.019660467 0.04717708 0.0055029984 -0.0516764 0.073557995 0.07873131 -0.03568398 0.037374474 0.031983424 -0.011990369 -0.009582508 -0.041650586 0.13430886 0.0027994257 0.019083055 0.08954845 -0.096501365 0.083679155 0.10639802 -0.037355755 0.056548096 0.015842004 0.010925611 0.005859378 -0.061382387 0.04361862 -0.08250562 -0.038305663 0.037128218 -0.16221915 0.027549291 0.06040145 0.016171046 -0.064210124 -0.12136058 0.0249258 -0.0028805516 0.0076174326 0.102213636 -0.08280689 -0.06583283 0.08965117 -0.025197342 -0.03770647 -0.049519595 -0.020692496 -0.088929236 -0.081207655 0.09162693 0.011585363 -0.06823142 -0.13189396 0.017580882 0.14617454 -0.027243441 0.005366107 0.05036482 -0.08860206 -0.026917724 -0.0032348218 -0.03692297 -0.115749896 -0.03941741 0.0042703315 -0.05415215 -0.058507245 0.10198531 -0.072573334 -0.062175438 0.032870684 0.063736714 -0.011242038 0.03564519 0.008372222 -0.14508744 0.010701661 0.015720146 0.034034546 0.02588089 -0.086486414 0.122667626 -0.057693537 -0.030634133 -0.08358414 -0.0462285 -0.18085755 0.06894588 0.064006515 -0.09330574 -0.026690062 -0.15272528 0.0674505
114893 0.010000245 0.0031817697 0.03311432 0.0075516365 0.008720323 -0.038940184 -0.027702335 0.016003722 0.0048867757 0.044538364 0.11132453 0.0034979305 -0.025557369 -0.006429454 -0.044797134 -0.0028818015 -0.05032462 0.030762317 0.043138374 0.013061217 0.01192302 -0.04354412 0.061369933 0.03226344 0.04148473 0.0061875917 0.021588992 -0.009259769 0.068855286 -0.035762466 0.006368248 -0.039573904 -0.0032516106 0.012314764 0.015140905 0.010837333 -0.010902189 0.023449404 -0.012121096 -0.018459149 0.035294633 0.03550904 -0.043902896 0.0154539645 0.015082137 0.011451539 -0.036147367 -0.016256278 0.071101226 -0.012207881 0.010184521 0.060126446 -0.05958115 0.048369315 0.03734399 -0.021313526 0.035894655 0.024684288 0.021769494 -0.0023821008 -0.037208006 -0.004276841 -0.036336955 -0.023445223 0.01226746 -0.099968195 0.002382249 0.032776784 0.010917755 -0.017880224 -0.064475164 -0.015085169 -0.0045288308 -0.0050295447 0.051191412 -0.030113485 -0.046688933 0.04819127 -0.0031876788 -0.027890144 -0.022567175 0.013235793 -0.0578327 -0.031816058 0.04848693 0.0077594775 -0.043457776 -0.05545197 -0.0021996596 0.085106574 -0.006484284 0.0042285267 0.018616145 -0.06791457 -0.029732965 -0.0078042746 -0.03119445 -0.09371234 -0.03731077 -0.0017039893 -0.014970357 -0.02157877 0.04161323 -0.030438164 -0.03519913 0.0056999363 0.03810779 -0.003189281 0.0019683477 0.0045606387 -0.058567416 0.02147632 0.010359115 0.019804968 0.017912202 -0.042224545 0.050428167 -0.04181717 -0.020033428 -0.02599288 -0.019118855 -0.105837665 0.032347612 0.03723646 -0.03125289 -0.017708454 -0.08451311 0.051375933
114894 0.00037040174 -0.0011311882 -0.0030137005 0.002502507 -0.001372771 -0.0025526856 -0.0022018251 -0.0038851565 -0.00019623258 -0.0035883174 -0.0030853883 -0.0025419153 0.0008835818 0.0020589358 0.0008150963 0.001786472 -0.00087075407 -0.0014348266 0.0027513301 -0.001541646 0.0017573417 0.0015686566 -0.0020670125 0.0017765741 -0.0020872748 0.0013427591 0.00303769 -0.00048136833 -0.0008319495 -0.0028839868 -0.0036990645 -0.0034824724 0.0018589649 -0.0025129388 -0.0003578519 -0.0012595106 -0.001053557 0.00031912926 0.00043113917 -0.0010195114 -0.0029788434 -0.001781299 0.0007629031 0.0019934056 -0.0026289427 -0.0027138558 0.0037578992 0.0008638056 -0.0020546585 -0.00011474637 -0.0013191585 0.0034301118 -0.0034019519 -0.0037161293 -0.0034012562 0.00089389784 -0.0025339506 0.002707661 0.0014286467 -0.00065801316 0.0023144558 -0.0004181532 -0.0025022752 -0.0017335125 -0.0024727639 -0.0011062949 -0.00012923544 0.0003341001 0.0007178 -0.0036100922 -0.0036561764 -0.0024159595 -0.0010120007 -0.00037278698 0.0017490347 0.0007939173 -0.0026794462 0.0033667115 -0.003433619 -0.0033690413 -0.0005918885 0.00037979477 -0.0014815205 0.0008594201 -0.0011652972 -0.0017115474 0.0011386243 -0.003093775 0.003455763 -0.0006754447 0.0014690198 0.0016167995 0.0016096262 -0.0014071038 0.0027924716 0.0021016316 0.0019469748 -0.00345949 0.0012177485 -0.0010874636 0.0038067782 0.00012457541 -0.0029945108 0.0025062421 0.0020574273 -0.0031487353 0.0009279856 -0.0011161817 0.0028011329 -0.0027658995 -0.00044730492 -0.00225612 0.0029895778 0.0032516925 -0.001796301 0.0025916332 0.0021489987 -0.0006312212 -0.001389902 0.0008211105 0.0034869146 -0.0001337577 -0.0023497676 -0.0011743391 -0.0035107837 0.0027108341 0.0031793732 0.0010934474
114895 0.01359039 -0.008834136 0.0045597907 -0.016439471 -0.010694719 -0.08115977 -0.026849296 0.009024915 -0.0056001716 0.083683334 0.16853319 0.025585804 -0.071290694 0.022464931 -0.071035706 0.023826577 -0.11194398 0.07620248 0.075629115 0.025047615 0.024632124 -0.056762055 0.12444738 0.010954844 0.09022828 0.026137806 0.053309567 -0.03587943 0.12811318 -0.052992843 -0.001813007 -0.0639149 0.013864859 0.02285498 0.040390775 0.041461896 -0.02924928 0.082672186 -0.036528964 -0.08287346 0.050511517 0.10626502 -0.06286225 0.03872715 0.00034959643 -0.017981885 -0.03736035 -0.05411407 0.109711334 -0.02740838 0.04048267 0.11453481 -0.10673625 0.075524 0.073533066 0.009773407 0.04106555 0.008451492 0.06315199 0.00052738795 -0.07860875 0.044191476 -0.090579145 0.016665457 0.052035462 -0.16875978 0.018494524 0.06469712 -0.044551484 -0.05166245 -0.11393257 0.05891223 -0.017346809 0.005670057 0.09716715 -0.05384168 -0.065180145 0.10712152 -0.04553166 -0.048926357 -0.09936935 -0.022127409 -0.12018486 -0.087573774 0.11314254 0.046595115 -0.06323384 -0.1644921 0.00077763177 0.13322695 -0.016313694 -0.0053732735 0.0656984 -0.1386893 -0.035075486 0.018883282 -0.030900644 -0.16819628 -0.050538637 -0.020538192 -0.03987836 -0.06476034 0.07415694 -0.09049111 -0.08573511 0.03594393 0.054331996 0.027769769 0.019589614 -0.022080755 -0.10931094 0.053568393 0.02944209 0.053991195 0.047876727 -0.10634511 0.13353437 -0.072593406 -0.055232212 -0.08066324 -0.062023714 -0.20098576 0.056958906 0.06259186 -0.05799032 0.0042725983 -0.19340615 0.08282068
114896 -0.006599444 -0.0046551963 -0.037131198 -0.030065248 -0.034593645 -0.052808456 -0.023868054 0.003205585 -0.050599806 0.098630235 0.232551 0.042704478 -0.1508097 0.0714262 -0.10601633 -0.019596737 -0.15899986 0.09949267 0.09475839 0.035374876 0.006440485 -0.08274906 0.17181236 -0.00015268539 0.097038776 0.081461534 0.07721063 -0.031179613 0.09764416 -0.03548255 -0.011037951 -0.07759206 -0.0023206344 -0.005037027 0.061886046 0.07200486 -0.072397724 0.12837167 -0.022974513 -0.05950318 0.05796715 0.12505357 -0.052012548 0.027796056 -0.021855718 -0.043531276 0.026601786 -0.08618173 0.15897891 -0.01185295 0.07112545 0.15965088 -0.12523109 0.069922075 0.091515295 -0.0071331505 0.059892643 -0.034573827 0.06761504 0.0029091334 -0.08634739 0.07462904 -0.061811086 0.050782528 0.037181865 -0.20548883 0.062448405 0.062854715 -0.07226165 -0.033086337 -0.14148505 0.10597724 -0.070651375 -0.014193228 0.16982995 -0.044474915 -0.06928704 0.1320266 -0.016765513 -0.05238994 -0.13380212 -0.024952674 -0.18232837 -0.08664035 0.13796116 0.06067934 -0.06332942 -0.20409147 0.004294149 0.16698441 0.0045885053 0.023088152 0.11641616 -0.1748536 -0.013673473 0.0031174242 -0.03367517 -0.25981432 -0.032140672 -0.06610289 -0.05443235 -0.04110459 0.07586932 -0.1590342 -0.08755994 0.059763998 0.069834694 0.034407724 -0.016835192 0.0004285134 -0.11845843 0.06858441 -0.000552409 0.03978172 0.08790425 -0.16094583 0.18645568 -0.12764493 -0.04555327 -0.11732237 -0.098926 -0.22351676 0.093728974 0.0612931 -0.023162346 0.016590934 -0.2265021 0.13538487
114897 -0.045355115 -0.0075669377 -0.15486518 -0.078385495 -0.088509865 -0.058864776 -0.039524466 -0.07899622 -0.061336476 0.08627485 0.2183255 0.08384137 -0.25129214 0.21908322 -0.1196718 -0.0035778277 -0.14943843 0.23736668 0.05281727 -0.0021154946 -0.06926247 -0.029429007 0.13893794 -0.056018457 0.07683638 0.17598839 0.108530775 -0.04181389 0.08119891 -0.007095102 -0.12294308 -0.03375833 0.08757425 0.0015862496 0.037964035 0.043049376 -0.04336255 0.23628035 -0.05597841 -0.13155709 -0.0010796759 0.22108369 0.049946133 0.097333774 -0.09376361 -0.20977756 0.093334265 -0.16377525 0.056929138 0.022345077 0.17444088 0.21638642 -0.116412625 -0.062544525 0.16301103 0.038743377 0.04082625 -0.15349352 0.011178349 0.02660925 -0.14440513 0.2712545 -0.14280713 0.24473616 0.16728657 -0.13402714 0.15043664 0.020628799 -0.0676224 -0.100363724 -0.07872816 0.27283198 -0.1401883 -0.044556137 0.1154954 -0.0011931383 -0.011214427 0.16734982 -0.1255144 -0.057258666 -0.2602549 -0.02997677 -0.14577198 -0.110235974 0.15144269 0.0989344 0.028726185 -0.31895867 0.016139684 0.14799565 0.0096976785 -0.0015390359 0.23193909 -0.1591918 0.10131436 5.2829564e-06 0.038537815 -0.21620508 0.0024179367 -0.16672055 -0.06359103 -0.035384007 0.17381965 -0.2786946 -0.07395683 0.03948328 0.008838762 0.11152311 0.1038656 0.016090317 -0.11351722 0.17009346 -0.036853965 0.08072089 0.16978978 -0.22019242 0.30452803 -0.20969357 -0.03338711 -0.16711949 -0.2314102 -0.19348454 0.037820745 0.10550807 -0.11105495 0.0823015 -0.16744854 0.17249137
114898 -0.04224583 -0.015861066 -0.10009264 -0.057378445 -0.06627262 -0.05828543 -0.009241477 -0.019838363 -0.069044404 0.12439477 0.29148605 0.07575282 -0.22356278 0.18142049 -0.12074775 -0.018514212 -0.17095608 0.14762983 0.07930087 0.006285925 -0.02926876 -0.0692809 0.20477559 -0.024016507 0.04455926 0.15850289 0.09480534 -0.013019982 0.10096296 -5.3381948e-05 -0.0600369 -0.08414713 0.0449511 -0.0056327246 0.03439732 0.05524589 -0.057235684 0.18950784 -0.024093485 -0.093495406 0.042191748 0.15601942 0.015439463 0.04042382 -0.036976155 -0.10077228 0.092421725 -0.14166492 0.12933479 0.006565859 0.120029345 0.1693121 -0.103889965 -0.017671281 0.12130515 -0.0020785865 0.063719094 -0.11378489 0.007122054 0.020153537 -0.11568194 0.17021835 -0.08180063 0.14282902 0.08648122 -0.15112764 0.102822 0.046496034 -0.10403598 -0.06549377 -0.11121218 0.18446901 -0.11434044 -0.056028973 0.18041605 -0.0064306096 -0.040593885 0.16903931 -0.07202501 -0.018108217 -0.19531499 -0.01965992 -0.20864879 -0.08779555 0.16734278 0.10202266 -0.019902788 -0.2772211 0.015291243 0.19607387 0.030487202 -0.0082035605 0.17154187 -0.1547911 0.052713193 -0.008475932 0.010646386 -0.25084287 0.0005527867 -0.12901244 -0.059959766 -0.03767504 0.13009748 -0.21295305 -0.082900755 0.045946594 0.038338836 0.082415186 0.026921423 0.027723974 -0.059377808 0.14569677 -0.029466704 0.059555404 0.17877759 -0.20598814 0.24581148 -0.19924566 -0.057031453 -0.1545319 -0.1877797 -0.2466246 0.0827929 0.06797822 -0.08951373 0.047147483 -0.18137062 0.19129139
114899 -0.027234867 0.04780163 -0.27350265 -0.19409496 -0.26868132 -0.141005 0.0054813894 -0.10095444 0.011342852 0.07747643 0.05607405 0.17944035 -0.25168264 0.14303216 -0.06765374 0.043657787 -0.09885257 0.25496036 0.08623341 -0.009651853 0.02008445 0.11339343 0.1443821 -0.12068282 0.048661567 0.18239942 0.0026040887 -0.0446846 0.077547595 0.057664312 -0.19134952 -0.020657735 0.23018579 0.13539371 0.06664686 -0.069783695 -0.017416202 0.30053973 -0.072753504 -0.2366081 -0.098748334 0.28051916 0.12652908 0.22232908 -0.22402403 -0.27957565 0.111795634 -0.2629273 -0.099850446 0.03278843 0.107556246 0.118049495 0.007062565 -0.14004073 0.20737946 0.053358812 -0.03557114 -0.21000892 -0.008365048 0.07460698 -0.20182493 0.3876799 -0.270356 0.29296267 0.1989012 -0.08009681 0.18368267 -0.022423496 -0.06117402 -0.25463974 -0.006314141 0.4690604 -0.087318026 0.11618756 0.030214492 0.06281591 0.07271734 0.17975767 -0.17096724 -0.059828408 -0.3897576 -0.16731662 -0.09577544 -0.1721445 0.071510844 0.17934902 0.1452087 -0.49300808 0.017633414 0.009264965 0.0008189216 -0.011797153 0.1670809 -0.116010584 0.1251996 0.09256305 0.19315018 -0.112215206 0.06786297 -0.12979133 -0.15155984 -0.10760605 0.1403918 -0.20721158 -0.1333614 0.054618433 -0.0062922696 0.1761126 0.13174254 -0.12775643 -0.15028578 0.0997036 -0.010843252 0.17537028 0.18741083 -0.164431 0.35259363 -0.08844766 -0.0501871 -0.17231701 -0.3053834 -0.1640851 -0.040176496 0.120068625 -0.16362986 0.13258138 -0.2320587 0.08826714
114900 -0.041271064 0.0148957465 -0.25808004 -0.17142682 -0.22216031 -0.12738292 0.003116055 -0.103206314 -0.017618958 0.06658391 0.12754418 0.2080338 -0.2859632 0.21376999 -0.084707156 0.0068058553 -0.118503965 0.25114432 0.08161269 -0.057171036 0.008711296 0.038508993 0.1615321 -0.08129486 0.04417495 0.19569409 0.012752679 -0.037068132 0.07710704 0.036775146 -0.21198861 -0.023091594 0.20589235 0.12118729 0.06086007 -0.09838809 -0.004002459 0.23128717 -0.06104495 -0.1737902 -0.090067774 0.2669182 0.13014412 0.24369955 -0.20713067 -0.23534513 0.08326923 -0.22802025 -0.04725663 0.06353449 0.1300639 0.18247324 -0.07488957 -0.14666796 0.22170725 0.01842862 0.0033198858 -0.1602173 -0.014735398 0.057284717 -0.21973215 0.38791132 -0.2849811 0.27243084 0.20622583 -0.11647582 0.1991639 -0.054060433 0.016270284 -0.23006962 -0.033438347 0.41396114 -0.094903916 0.08112915 0.023910964 0.040733006 0.05037881 0.14695647 -0.18634136 -0.082300395 -0.39245236 -0.13894878 -0.07070322 -0.13626873 0.02303669 0.14010051 0.11579887 -0.42879963 0.009871726 0.042264506 -0.0071674627 -0.04294365 0.21591331 -0.1260269 0.10318301 0.05379887 0.15453032 -0.16467607 0.05431788 -0.13058391 -0.15035248 -0.078652605 0.19515035 -0.23974334 -0.11087101 0.004508361 -0.03982492 0.12157402 0.17472132 -0.09337846 -0.14446735 0.15988642 -0.071629144 0.145072 0.2438409 -0.15288098 0.32667914 -0.15983143 0.0005195868 -0.118683845 -0.33209 -0.15275694 -0.031975232 0.14065911 -0.20628634 0.14356814 -0.18165332 0.094814256
114901 -0.03614139 -0.017385174 0.29016978 -0.08585744 0.027371434 -0.18593009 -0.08035338 -0.04386148 0.05642601 -0.02630386 0.29288095 0.1046838 0.04567592 -0.010407074 -0.09094714 0.0031783842 -0.111124 0.13879588 0.20633368 0.26625308 0.00862587 -0.06860965 0.16323821 0.116083585 0.24711241 -0.074148685 0.17098211 0.13956214 0.23955153 -0.0065344414 0.07582551 -0.036815528 0.020556977 0.034597997 0.1038325 0.052294053 -0.17246298 0.12040402 -0.15847534 -0.113052204 0.09486444 0.21802558 -0.1593853 0.17767216 0.05311635 0.1473223 -0.42062867 -0.033742964 0.13069566 -0.08466448 0.08544379 0.2896694 -0.2546087 0.239368 0.16911514 -0.025809461 0.019093186 0.2136768 0.1250851 -0.00027779926 -0.19361144 -0.08554795 -0.08798461 0.10419423 -0.011314 -0.45858496 -0.042176727 0.13727616 -0.06808389 -0.0346108 -0.18057792 0.008429242 -0.05021111 0.14769189 0.28785396 -0.05405718 -0.17331009 0.18543316 0.034118835 -0.23729557 -0.16624635 0.007957046 -0.11550936 -0.19760706 0.311169 0.23291986 -0.24430966 -0.30327103 -0.056520745 0.3078499 -0.09395641 -0.081151195 -0.07734514 -0.3988739 -0.01731937 -0.0043026768 -0.07096374 -0.40596446 -0.13679154 -0.04095512 0.015833046 -0.09672891 0.16563727 -0.12655967 -0.17451775 0.23107404 0.03259265 0.04581057 0.026087793 -0.1617213 -0.25606212 0.06558428 0.11842288 0.038029835 -0.12678432 -0.1000897 0.22274044 -0.09651326 -0.11105624 -0.09287856 -0.004294796 -0.37695268 0.047583308 0.18365893 0.029265968 -0.06174805 -0.57736 0.13068977
114902 -0.002872925 -0.0031935356 0.0033216032 0.0033058422 -0.0028112724 -0.0015103252 0.00019338111 -0.0018849826 -0.0031322257 -0.001702072 -0.0016076247 0.0029443065 0.0005696139 0.00015930562 -0.0010936541 0.0014958802 -0.0035370518 -0.0032110435 -0.0027746833 0.00093642063 0.0018212814 0.0023511986 0.0015947171 -0.0034896554 -0.0010369684 0.0032677879 0.002729439 -0.0010490135 0.0037294286 -0.0032015834 0.00090124854 -0.0018434308 -0.0030241373 -0.0010274592 0.0005137248 0.00060150726 -0.0025105146 -0.0023236827 -0.0030164078 0.0016292189 0.0014595885 -0.0013941948 -0.0009523441 0.0015473318 0.0034787692 0.0016671239 -0.0025237883 -0.0025347942 0.00077534385 -0.00097249396 -0.0018522464 -0.002275638 -0.003270441 -0.0019080669 0.0030823057 -0.00036053112 -0.0025233114 -0.0018355988 0.002067205 -0.003287885 0.0038287458 -0.0030327586 0.00086884975 -0.00013782013 -0.0036382766 0.0033033555 0.0005567142 0.0032480252 0.00019536508 -0.0009313444 -0.0030430946 -0.00063068036 0.00087984995 -0.00093424344 0.0029804737 -0.00013470434 0.0014588479 0.00039295517 0.0033584812 -0.0017905261 -0.0010704908 -0.0025723148 0.003553326 -0.00084677665 0.002191961 -0.00021019006 0.003728222 -0.0024385839 0.00030916365 0.002604794 0.0033458364 0.0009981261 0.0024092558 0.00044642706 -0.0013810303 0.003747293 -0.0024965364 0.00021226997 0.0015218373 0.0038393822 0.0018395312 0.0025916172 -0.0019186211 -0.00074994087 -0.0016740386 0.003661486 -0.0010226815 -0.0023493292 0.00121296 0.0033122902 -0.0007156027 0.0030706236 0.001586268 -0.0003753138 -0.002279799 -0.0035708358 0.0013534002 -0.003871425 0.0031745033 -0.003721896 0.0031994972 -0.0024307696 0.002737728 -0.0019710097 0.00012943477 0.00042772898 -0.0007606159 -0.0033677593
114903 -0.0022253525 -0.007198616 0.031785507 0.017471522 0.014646146 -0.020358313 -0.0138711985 0.0071634487 0.0066486066 0.01118476 0.08214641 -0.005446544 -0.01624578 0.009401422 -0.023198806 -0.0013043055 -0.020871704 0.004862527 0.018615507 -0.0068800026 0.009833296 -0.044644568 0.032349497 0.031734012 0.013309419 -0.0066147833 0.0005610406 0.0033692745 0.038313814 -0.015667008 0.015649889 -0.02887387 -0.019188397 0.008917162 0.004683591 -0.0036100335 -0.0006850752 -0.017651591 -0.0059734904 0.012624407 0.026738815 0.0062648165 -0.025915498 0.0068383017 0.028660113 0.035636585 -0.030571768 0.014618306 0.048567735 -0.00814919 0.006236464 0.040175203 -0.039468355 0.019224225 0.025165388 -0.03052884 0.023811476 0.03914038 -0.005941918 -0.002710962 -0.018205946 -0.015170264 -0.010818583 -0.021033578 -0.011406112 -0.060689695 0.0006457955 0.013963854 0.02413017 0.0038790987 -0.044339128 -0.033395573 0.004503124 -0.0031708898 0.030495193 -0.024522712 -0.021089684 0.008310631 -0.010271351 -0.020108266 0.0042656166 0.011084735 -0.020519316 0.0057874536 0.0153818205 0.0023273854 -0.036876064 -0.0048491443 0.0005372181 0.04993637 -0.0019243804 -0.0143449465 0.0013250455 -0.030434363 -0.033510067 -0.016226143 -0.033494335 -0.048199963 -0.022296613 0.007895596 -0.0012937378 -0.013862572 0.02531035 -0.015073824 -0.011430305 0.00040909727 0.008787451 -0.017537478 0.0073359506 0.018882811 -0.021143058 0.023117121 -0.0057614567 -0.00018951463 0.0069942498 -0.008908397 0.008879262 -0.038043167 -0.008588492 -0.00072915084 -0.002061855 -0.0596295 0.013519309 0.020303838 -0.026335487 -0.013431255 -0.03248083 0.022660695
114904 -0.0023835925 -0.00158069 0.002664502 -0.0032688042 -0.0028463134 -0.002278942 0.0011621466 -0.0020269335 -0.0029314547 -0.0027978022 -0.0021750608 0.0018366982 0.0005400579 0.0033925874 -0.0016574926 0.002991235 0.0029460003 0.0011271968 -0.0009739789 0.0018007773 -0.0038839178 -0.0022494616 -0.0034898594 -0.0037690662 -0.0027600452 -0.0011187214 0.002500138 -0.000690633 -0.00072289206 -0.0034096325 -0.00093887374 -0.0034315903 -0.0031919095 -0.0033366124 0.0018944714 -0.0027543644 -0.0010770847 0.0038861088 -0.001162138 0.0038920043 0.0024638965 -0.0011594348 -0.0011384612 -0.0033497238 -0.0029051455 -0.0011616343 0.0011336246 0.0010431021 0.0021478194 0.0033109284 0.00046577974 0.001565073 -0.0024137087 0.0024557754 0.0036750718 -0.0007971451 0.0016946389 0.0006932923 -0.00082552433 -3.7835445e-05 -0.00065313757 -0.00086403836 -0.0031971817 -0.0016073341 0.0015691203 -0.0027776272 -9.46495e-05 -0.0013541544 -0.0016080831 0.0015269837 -0.00096537767 -0.0027619416 -0.0032236122 -0.0018748449 -0.0022383067 -0.0027458433 0.00010369168 0.00014015232 -0.001565866 -0.0008336452 0.0013329586 -0.002455559 0.003309044 -0.0021495288 -0.0039051764 0.0031415427 0.0030717044 0.00076114567 0.002351254 0.003076715 -0.0020294667 0.003764634 -0.001818032 0.0018413017 0.002006068 -0.0033704853 0.0019505719 0.001551233 0.0034343898 0.0006399454 -0.0017563778 -0.0009678538 0.0013038181 0.0022626733 0.0032400086 -0.0022108317 -0.00208449 0.0010834361 -0.0030458332 0.00024962536 0.0023995414 -0.002113423 -0.0012311599 -0.003334185 -0.0024153758 0.0026183643 0.0032705246 -0.0033781128 0.0009746307 -0.00019449738 0.0018314942 7.385716e-05 -0.0017137952 0.0035972155 0.0008823776 0.0014261287 -0.0021310237 -0.0014856389
114905 -0.03483336 -0.021132104 -0.05708516 -0.03593357 -0.031568933 -0.08289019 -0.034202714 -0.035054132 -0.050018065 0.058100518 0.23121014 0.02822093 -0.19962539 0.14761141 -0.12529656 -0.022380661 -0.109245405 0.16827144 0.11400904 0.01112691 -0.033341836 -0.09405886 0.15786432 0.0028530592 0.10598607 0.09572815 0.10458331 -0.02429769 0.09457919 -0.0007398561 -0.07339584 -0.04086539 0.028243547 0.0024184145 0.072111584 0.048998524 -0.06206277 0.17661172 -0.08106218 -0.07508434 0.06022292 0.17703192 -0.03519352 0.10027623 0.00030404225 -0.11400845 0.0057860385 -0.101435214 0.13387248 -0.016414708 0.12065356 0.18594328 -0.15326227 -0.026672473 0.12501022 0.0028664132 0.035943538 -0.092626736 0.06993383 -0.01776658 -0.12248922 0.124244444 -0.09738514 0.17682351 0.07752055 -0.21959639 0.067925744 0.030533047 -0.048444994 -0.04643091 -0.06876966 0.1369615 -0.10515331 -0.02671392 0.15516469 -0.031367812 -0.015366502 0.11475687 -0.06363406 -0.119269215 -0.16730504 -0.003614141 -0.12879471 -0.03655203 0.13609217 0.059692387 -0.052202642 -0.20701623 0.004045929 0.11541374 0.0068538547 0.017978702 0.128197 -0.16376871 -0.010130983 -0.026361398 -0.010493887 -0.27076572 -0.05789129 -0.1070797 -0.05835244 -0.035538424 0.108647786 -0.21121536 -0.08391627 0.006409925 0.01562588 0.056398932 0.026053458 0.025728466 -0.11086024 0.15127195 0.0034677836 0.051491383 0.084772855 -0.19928803 0.21231379 -0.17548454 -0.010890597 -0.12072613 -0.13297054 -0.17117149 0.075868204 0.06219388 -0.070647925 0.02685713 -0.17593345 0.17908539
114906 0.001958221 0.00088352204 0.0018943457 -0.0030063929 -0.0024577728 -1.2677818e-05 0.00097612786 -0.0021701197 0.0011945693 0.002772544 -0.0015389076 -0.0027075182 -0.0025680978 -0.00029758067 -0.0018627999 -0.0012772174 -0.0012920897 0.0030857688 0.0010169008 0.0031954255 -0.0013030486 0.0025011 0.0039008963 -0.0013559322 0.0008555245 -0.0016277318 0.0005787746 0.0036122215 0.0018378615 -0.0035591137 0.0013751361 0.0018030417 -0.0038422248 -4.560173e-05 -0.0026640606 -0.0034930983 0.0002689326 0.0007356484 -0.0024665587 -0.00084525766 0.0032814534 -0.0021748666 -0.00028700105 -0.00061820395 0.001061968 0.0013401255 -4.7332815e-05 0.0032659338 0.0037960005 0.002977079 0.0026335048 -0.003566226 0.0018501244 0.00010973113 -0.0015241426 -0.002958459 0.0034210586 0.0022454362 0.0023697424 -0.000714986 0.0010456394 0.0027329987 -0.0038061233 -0.0034820894 0.0007178112 0.00223342 0.00061322027 0.0010085825 0.0028054856 -0.00092690816 0.0031603337 0.00019535591 0.0027072593 0.0007555094 0.0031214321 -0.0032489025 -0.0006553189 0.0022104082 -3.691079e-05 -0.0036423255 0.0010156331 0.0004989819 0.003388683 0.0016823137 0.001423743 0.0031873966 0.0010440561 -0.0012822056 0.0034316 -0.003007384 -0.0018017926 -0.0003888157 -0.002848065 -0.0033115502 0.003220518 -9.001674e-05 -0.0027699242 0.0018016418 0.0008722275 -0.0007111855 -0.0022149095 -0.0033990638 -0.001781017 0.0026647993 0.0017807648 0.00297022 0.0019802821 0.0033892812 0.00054551987 2.5226685e-05 -0.0022722895 0.0017886575 -0.0023671775 -0.002960921 0.002099016 -0.0012516046 -0.00019527292 -0.002341584 -0.0023354692 0.0038532303 0.0011846931 0.0013127368 -7.369776e-05 -0.00085506815 0.0006944476 -0.002562819 -0.003279848 0.0023322254
114907 0.01266231 -0.02379809 0.0056463396 -0.002162436 -0.011122721 -0.04801308 -0.059048 0.024851339 -0.04187575 0.10864465 0.2504262 0.043364257 -0.13934688 0.06340232 -0.0980213 0.00051649223 -0.15651155 0.099728145 0.0962406 0.04063297 0.014644935 -0.06082873 0.17678249 0.020524796 0.10449253 0.09850467 0.099896364 -0.046768505 0.12637778 -0.06786427 -0.02816265 -0.091865644 0.0028577154 0.00972999 0.06881949 0.09430693 -0.06801728 0.12813134 -0.033760697 -0.05381481 0.052089665 0.1463564 -0.08707696 0.048968293 0.00638934 -0.029648371 -0.021938572 -0.07505612 0.1556644 -0.03130952 0.08151002 0.18922012 -0.14568026 0.08310383 0.096749984 0.04303483 0.063301325 -0.033639673 0.09442107 -0.011907649 -0.104810916 0.08315692 -0.0719308 0.052749813 0.05357991 -0.22328602 0.04115654 0.06927716 -0.087987974 -0.03766475 -0.17566487 0.08057442 -0.08249183 -0.024519755 0.15951069 -0.07160925 -0.080504134 0.13438725 -0.057855718 -0.05849836 -0.15975659 -0.018645689 -0.1932022 -0.08272538 0.14667742 0.05475961 -0.08687117 -0.2111526 0.0012097897 0.17639701 -0.030168837 0.017091064 0.13380264 -0.20337762 -0.018735403 0.025771767 -0.0384805 -0.27988178 -0.04766457 -0.061287943 -0.059717573 -0.056048065 0.09473015 -0.16640443 -0.12242632 0.0676002 0.058689125 0.041376337 0.003219292 -0.005993732 -0.13170205 0.10000459 0.0048730085 0.06233362 0.112031884 -0.14938591 0.18486835 -0.113710925 -0.053589594 -0.094397284 -0.08891706 -0.2706357 0.08600049 0.0929429 -0.030609382 0.039811015 -0.26768926 0.14803857
114908 0.025613448 -0.019772504 0.0073454347 0.012023209 0.0031947945 -0.08688051 -0.029191775 0.0350379 -0.004537839 0.110020705 0.18544236 0.017309915 -0.08202632 0.013451073 -0.078266576 0.050220817 -0.13837302 0.075119264 0.07799978 0.026538765 0.031939894 -0.05351654 0.13995759 -0.005885291 0.10441089 0.035235915 0.06992192 -0.06415399 0.13181245 -0.08438726 -0.01392114 -0.07305348 0.010817111 0.022892915 0.031827968 0.068477646 -0.0074279555 0.09061937 -0.028209079 -0.08874198 0.062914506 0.10795475 -0.08781291 0.034140058 0.0077667404 -0.026300743 -0.031491674 -0.05560638 0.109123886 -0.04465119 0.041462198 0.11094221 -0.11421725 0.079807624 0.06692551 0.038284745 0.04884023 -0.0008569318 0.08138519 -0.008696169 -0.082740895 0.050630126 -0.101956345 0.01345795 0.061291557 -0.17199844 0.013392109 0.07419676 -0.065567836 -0.05213466 -0.13512972 0.055234898 -0.019058762 -0.009486482 0.08915272 -0.06632275 -0.057526235 0.114665546 -0.06575528 -0.043724973 -0.10485553 -0.013221523 -0.1340553 -0.090633966 0.11526001 0.032214437 -0.07519871 -0.15980265 0.0017833214 0.13512349 -0.0127751175 0.013011181 0.08430152 -0.15092503 -0.039703753 0.020581521 -0.0383884 -0.1886881 -0.07068482 -0.0087254755 -0.041591432 -0.0664325 0.07643838 -0.095333025 -0.108436815 0.02635289 0.055350542 0.035544716 0.013612863 -0.011801504 -0.10730101 0.056957327 0.029228836 0.06837381 0.07745017 -0.10377707 0.11976677 -0.06850186 -0.05471997 -0.08750838 -0.06263196 -0.21163316 0.055273794 0.06753244 -0.06190881 0.012719422 -0.20915236 0.09762221
114909 -0.012580068 -0.03893934 0.14165728 -0.09432357 -0.009891696 -0.14727184 -0.04215412 -0.020179283 0.014354626 -0.011945335 0.21732384 0.10591257 -0.028971065 0.029508838 -0.053957783 -0.0049366835 -0.08943627 0.12354075 0.15289633 0.11995042 0.014972407 -0.054921716 0.16001092 0.07207064 0.13269201 -0.015334775 0.11033221 0.063747644 0.20517077 0.005331693 0.028175859 -0.030033011 0.0356917 0.045286838 0.08370504 0.018002152 -0.10561418 0.09250529 -0.10822433 -0.10415964 0.049010266 0.15461498 -0.10674033 0.14955053 0.031866644 0.07255495 -0.24342081 -0.05368537 0.096313745 -0.05966598 0.058360115 0.20632014 -0.16536993 0.12691885 0.13837376 -0.00829961 0.007744125 0.097386286 0.08530128 0.02545791 -0.15295811 -0.008072323 -0.09554507 0.09815955 0.003793428 -0.31045476 0.010537322 0.08306974 -0.033577282 -0.059875414 -0.13027568 0.069674544 -0.034428257 0.09091371 0.19912823 -0.047925454 -0.10619336 0.1220798 -0.01727251 -0.14672016 -0.1477668 -0.03389719 -0.10282736 -0.11154573 0.20239767 0.1642604 -0.14265552 -0.2560535 -0.001108099 0.21555386 -0.048343103 -0.069262356 -0.035199974 -0.2537944 -0.025264896 0.007028796 -0.044893533 -0.27816984 -0.07799661 -0.038696915 -0.009053026 -0.086523816 0.15282643 -0.10918057 -0.14500009 0.1451182 0.00724618 0.037947845 0.051034622 -0.116057016 -0.173952 0.06659962 0.075591825 0.039991263 -0.025817914 -0.081883825 0.18416624 -0.11338848 -0.091464005 -0.068074346 -0.025567321 -0.29302198 0.04970992 0.13195485 -0.06096929 -0.0011770277 -0.38588762 0.082717106
114910 -0.033061035 -0.022548914 0.27216095 -0.073580034 0.027387684 -0.18047656 -0.07665461 -0.03546603 0.051734 -0.007150584 0.29797763 0.094689734 0.036082305 -0.0053926953 -0.097296216 0.0015281681 -0.121013775 0.13267301 0.1953549 0.23894067 0.011651288 -0.08515889 0.16345936 0.11549579 0.2351366 -0.07308957 0.1692816 0.13213915 0.22713754 -0.017253676 0.06959748 -0.04187912 0.011082992 0.027604816 0.09057309 0.049010936 -0.16981825 0.11054317 -0.14760749 -0.102590255 0.101275295 0.20421547 -0.16145681 0.16468048 0.054253887 0.14099091 -0.4018559 -0.02400722 0.1485424 -0.08146627 0.07723408 0.2775207 -0.24950525 0.22553253 0.16178259 -0.0234428 0.030833812 0.20307332 0.11377573 -0.008084101 -0.18265407 -0.07601181 -0.08972624 0.085556544 -2.8598328e-05 -0.44311106 -0.043023854 0.1296571 -0.055698 -0.028583052 -0.17982246 -0.0053562745 -0.04837764 0.13008718 0.27558896 -0.056983985 -0.1729039 0.17982303 0.037930492 -0.21745434 -0.14713348 0.009609042 -0.11218127 -0.17729448 0.30275965 0.20791422 -0.2393656 -0.27795756 -0.047888342 0.30821875 -0.089154325 -0.07269362 -0.06368251 -0.3709787 -0.021537717 -0.01674621 -0.08305345 -0.3990568 -0.13655706 -0.044932626 0.018087717 -0.08269259 0.16223048 -0.11926693 -0.15565938 0.20069239 0.033416215 0.032895617 0.032827202 -0.14348131 -0.24894324 0.07055926 0.105344094 0.031239932 -0.10403258 -0.09927815 0.20896575 -0.10152794 -0.09848298 -0.0859663 -0.009746171 -0.3658672 0.050540507 0.17226692 0.013331935 -0.061433822 -0.5406424 0.12741223
114911 0.018642833 -0.000780163 0.022062983 0.008739406 0.0074054915 -0.037008677 -0.021196106 0.0073020807 0.0049014995 0.0342739 0.07959275 0.00049065833 -0.023150994 -0.009964379 -0.036291525 -0.0006955111 -0.040047202 0.029812373 0.033818968 0.011945645 0.009956151 -0.03046723 0.043348636 0.020259542 0.04291872 -0.001346529 0.019822892 -0.011361794 0.069311924 -0.0257981 0.018946575 -0.036045205 -1.707705e-05 0.0064819846 0.022331947 0.020349523 -0.011770342 0.027709788 -0.02017107 -0.029099746 0.032513242 0.03730041 -0.045835186 0.013802813 0.006532615 0.001402754 -0.024469698 -0.008848386 0.064576946 -0.01544907 0.0070231888 0.05086088 -0.057535727 0.049083214 0.026295653 -0.005308811 0.03088465 0.017985417 0.024796473 -0.0006882377 -0.021081919 -0.004486073 -0.030822052 -0.014790111 0.0109386975 -0.08794148 0.0017026481 0.030358942 0.0038938478 -0.016646111 -0.061020188 -0.0015526221 -0.0028858033 -0.0026304768 0.043663826 -0.033768773 -0.04440573 0.03768263 -0.0022863855 -0.029678004 -0.023539178 0.008337037 -0.047149364 -0.03470344 0.049569298 0.0071781133 -0.0508755 -0.049880836 0.002129934 0.065934815 -0.012353072 0.00044181317 0.020989897 -0.06452911 -0.03238509 0.003044245 -0.03193672 -0.08111383 -0.034491234 0.0028429478 -0.010821537 -0.02597971 0.028839303 -0.03423788 -0.038536705 0.015712945 0.03272999 0.0006036574 0.006552621 -0.0018869694 -0.060780127 0.018185487 0.022811925 0.016758014 0.009778012 -0.04605571 0.05591555 -0.03346882 -0.020960966 -0.024813425 -0.012941172 -0.086097255 0.035257068 0.033346824 -0.022891168 -0.012947258 -0.08795001 0.04193568
114912 0.030949779 -0.0029110739 0.050849073 0.030374458 0.010347628 -0.034661397 -0.043658756 0.030884326 -0.005226403 0.054921642 0.14787728 -0.012262056 -0.033231836 -0.014198446 -0.057178896 -0.016210806 -0.06309738 0.01708313 0.05039114 -0.017815325 0.019880535 -0.07609267 0.058587868 0.05165493 0.032690726 0.011048449 0.0026498695 -0.023546094 0.09551243 -0.05290044 0.015427172 -0.06835814 -0.017780423 0.017028896 0.015061122 0.016444588 -0.007764874 -0.008439207 -0.0042462656 0.009854522 0.049723547 0.022726415 -0.056353167 0.0148620475 0.031419285 0.021879934 -0.030485215 0.011956367 0.112400174 -0.007634052 0.009393515 0.072003186 -0.0804909 0.060315605 0.0353305 -0.050491028 0.05803317 0.03538688 0.015878962 -0.009230457 -0.030959744 -0.016126664 -0.04136087 -0.062149737 0.007676886 -0.111397766 0.009083055 0.030151106 0.03948917 -0.012479885 -0.10603836 -0.044820078 -0.012075863 -0.016596492 0.05055352 -0.07087931 -0.072531566 0.03218753 -0.003956365 -0.027128188 -0.004628245 0.030355226 -0.06795178 -0.0130346455 0.03361475 -0.0227594 -0.058793187 -0.038209684 0.016069483 0.1005451 -0.008064521 -0.005517486 0.034526527 -0.062392004 -0.05806446 -0.011293903 -0.056848522 -0.10297561 -0.0451085 0.017335627 -0.015748559 -0.026765376 0.043588534 -0.03365245 -0.029856352 -0.002466306 0.049927518 -0.03090958 0.008490242 0.02657738 -0.06806185 0.026269915 0.0006294303 0.019512378 0.029565953 -0.048897516 0.05922498 -0.06421432 -0.015395636 -0.014713104 -0.0076639843 -0.12642506 0.059252203 0.039643724 -0.06442738 -0.021055136 -0.07131973 0.056404386
114913 -0.040138856 0.04535777 -0.26774606 -0.16474749 -0.25370717 -0.12161398 -0.0008222512 -0.08933577 -0.037702054 0.10678553 0.1432512 0.14771059 -0.2921187 0.17007647 -0.09102028 0.018227344 -0.1462117 0.2405383 0.0628321 -0.06981109 0.029179145 0.033952687 0.1348038 -0.099328645 -0.00028746112 0.15656476 0.00081982615 -0.0581985 0.086087584 0.004686752 -0.18526345 -0.06430809 0.20739189 0.1363999 0.03273436 -0.095486626 0.0022646845 0.2167629 -0.013125714 -0.17355682 -0.06028533 0.25210258 0.14939176 0.2143469 -0.18452348 -0.24437205 0.0950863 -0.22471061 -0.03528919 0.074552014 0.12669733 0.15546398 -0.0737805 -0.1552315 0.2038998 -0.019523649 0.0126462085 -0.12596981 -0.043651544 0.095911115 -0.21475556 0.40280813 -0.2722908 0.22136216 0.23450838 -0.0948221 0.20593256 -0.017041765 -0.046522494 -0.21698895 -0.03938065 0.4125506 -0.07152691 0.084964566 -0.010912808 -0.0014067522 0.06401783 0.1650324 -0.20289263 -0.025788112 -0.37416145 -0.111535735 -0.08459316 -0.17823444 0.06053085 0.16553526 0.14150497 -0.45875508 0.011870748 0.06986316 -0.010614377 -0.07300886 0.2179793 -0.11994865 0.12815423 0.06864122 0.17101987 -0.14517689 0.06659817 -0.12517765 -0.16061616 -0.09383779 0.14716879 -0.19742048 -0.096995585 0.034202054 0.022845205 0.13808216 0.16884454 -0.04766485 -0.12100814 0.13458282 -0.053667136 0.13448472 0.25541154 -0.14914511 0.33096644 -0.12851526 -0.026029106 -0.16234262 -0.35260272 -0.19941561 -0.05909144 0.13265273 -0.21243973 0.12679361 -0.19043995 0.09275059
114914 -0.08377419 0.012424133 -0.2183871 -0.12344028 -0.19267079 -0.14344761 -0.024160437 -0.07871451 -0.009962865 0.0980561 0.16657193 0.16622263 -0.25479335 0.20043004 -0.13102779 0.020585883 -0.12911019 0.23058815 0.040646322 -0.005931885 0.0020580161 0.014325289 0.15190725 -0.08736448 0.056243442 0.1568034 0.03436948 0.0013751356 0.06121599 0.005456163 -0.19647494 -0.0601459 0.17520665 0.08888345 0.006400087 -0.075302325 0.01575911 0.22606678 -0.010022035 -0.14500585 -0.06069023 0.28524303 0.16442809 0.19118734 -0.17652693 -0.24041861 0.07934974 -0.2379285 -0.022139292 0.074817345 0.17289884 0.19403748 -0.13610072 -0.15906648 0.23227753 0.0045832954 0.016235743 -0.13774261 -0.05161415 0.037715193 -0.21667026 0.3873442 -0.2720618 0.24027315 0.22419791 -0.12875712 0.17046562 -0.010115028 -0.020191267 -0.18931806 -0.015679495 0.38511038 -0.08305749 0.07085107 0.043382872 0.03144508 0.08047556 0.19595976 -0.19814609 -0.085593775 -0.3727171 -0.1263741 -0.075751856 -0.2028818 0.045370474 0.14481859 0.07556059 -0.41338122 -0.016843298 0.09692227 -0.013050346 -0.03573069 0.25782108 -0.15001035 0.1334431 0.033955257 0.14445761 -0.17126614 0.025298677 -0.13315037 -0.126476 -0.03246759 0.1989059 -0.23565862 -0.089794286 -0.010577156 0.015326087 0.11419488 0.17620721 -0.025630359 -0.13443615 0.13884346 -0.08294631 0.12959191 0.2380738 -0.1484488 0.29158282 -0.18710263 -0.0011234117 -0.17619191 -0.36662167 -0.15401891 -0.033830743 0.14623505 -0.17946622 0.08010136 -0.17807475 0.13513404
114915 0.014039099 -0.003582567 0.051393434 0.022751441 0.025662087 -0.035289653 -0.025128208 0.011595898 0.011611857 0.01919612 0.0964516 -0.002436028 -0.006272845 -0.009783252 -0.029456675 -0.0098367315 -0.034222003 0.008671378 0.025869207 -0.0035246515 0.0065230858 -0.054594763 0.026389802 0.04386652 0.026177784 -0.014877221 0.008791396 8.386412e-05 0.05871362 -0.028511055 0.02232555 -0.031405307 -0.0142661575 0.006573086 0.0135056665 0.0045862263 -0.007881594 -0.017137377 -0.010499027 0.0028274043 0.038757697 0.0026607614 -0.041756257 0.013735367 0.03412699 0.03508405 -0.0477835 0.016748745 0.0689286 -0.014602774 -0.0028110729 0.04296194 -0.053090412 0.044913013 0.021282148 -0.035920978 0.041508917 0.04438743 0.010972439 -0.005858578 -0.011712622 -0.032532725 -0.025588645 -0.035642795 -0.01027698 -0.078489915 -0.0069406987 0.027193662 0.036773793 -0.0024590143 -0.04985744 -0.05260655 0.006781437 -0.00659784 0.035455804 -0.04026023 -0.046881728 0.0130364755 0.0015160937 -0.024993204 0.0077827256 0.02667731 -0.024023386 -0.007362251 0.027146455 -0.0024922837 -0.057768762 -0.005155922 0.00020768892 0.07132805 -0.0060220817 -0.009511047 0.0015368834 -0.040203635 -0.045286722 -0.020955678 -0.04411895 -0.065196544 -0.044947404 0.011124629 0.008793216 -0.017257594 0.022660162 -0.0076035624 -0.008194506 0.005621702 0.020600121 -0.02377392 0.00903126 0.017346881 -0.036690015 0.024409544 0.012826806 0.0061442195 -0.007236211 -0.020356154 0.026137734 -0.03771374 -0.01123515 0.0038089228 0.0050922865 -0.07238235 0.025634415 0.02013411 -0.037616897 -0.024918403 -0.04925919 0.03308932
114916 0.001292324 -0.0015387189 -0.0011367914 -0.0010298176 0.0036179905 -0.0033951674 -0.0009793687 -0.001302034 -0.00097106077 0.0015172038 -0.0021565445 0.0014994742 -0.0038441364 -7.681727e-05 0.00023342822 -0.0017551234 -0.0004986233 0.0033220882 -0.002852358 0.0031253574 0.0013228748 0.0016073742 -0.002518584 -0.0038573411 0.0005729706 0.0018540894 -0.0019970362 0.003018687 0.00038554796 -0.0022902421 0.0017957176 -0.00041474067 -0.0031240357 0.0012131163 0.0036699348 -0.0029318111 0.0022713358 0.0031690735 -0.0031185627 0.0023650476 -0.0023922937 -0.0029117356 0.0034028052 0.0006662955 0.0021830518 0.0024767986 0.001118998 0.0032552464 -0.0019857974 -0.0033826604 0.0016651653 0.0027673636 0.0022570305 0.0032702528 -0.0035995024 0.0038544622 -0.0029438676 0.0024489784 -0.0024485756 -0.002400749 -0.0008601144 0.0015887349 0.00018508235 -0.00061291765 -0.0007121776 0.0008652167 0.0034728793 0.001848864 0.0018536148 0.0037548605 0.00062656595 -0.0012418457 -0.0037197936 0.0030779415 0.0026382692 0.0027713347 0.0004453112 0.0006379363 0.0022468218 0.00022760527 -0.0030552952 0.0034986334 -0.0017716101 0.0034831406 0.001232769 -0.0029269003 -0.003253852 0.0006446137 0.0009587266 0.0026400336 -0.0021503305 -0.0020586082 -0.00357945 0.0006319536 0.0030236223 0.0015229699 0.0029227005 -0.0034451094 0.00045311946 -0.0006423486 0.0020724584 0.00033141748 0.0032160021 0.0016405763 -0.0002443313 -0.0017413591 -0.00042118996 0.0018636544 0.00305333 0.0033031928 0.0034729529 -0.0021061834 -0.0014266145 0.00014745412 0.00049284165 0.0013871834 -0.0026729929 0.0021672598 0.003105924 -0.0037135144 -0.0035347259 0.0031253267 -0.00046614124 0.0038220268 0.0016270543 -0.0002005983 -0.0026591294 -0.0009010415
114917 -0.062371634 0.010963492 -0.1395828 -0.12918255 -0.09087496 -0.10403512 0.005415018 -0.056157712 -0.048582938 0.04410552 0.21152322 0.10478069 -0.25326186 0.2371723 -0.06450653 -0.048968934 -0.15646444 0.2823642 0.040968098 -0.016820282 -0.065557405 -0.06280081 0.1621009 -0.02360579 -0.0012554603 0.09217311 0.10127368 -0.037479844 0.048958138 -0.012427967 -0.13060759 0.028951349 0.07884967 0.019550024 0.024932766 0.0069258325 -0.050327998 0.17915887 0.00028377541 -0.105904974 0.05405829 0.24580145 0.09196197 0.15040568 -0.02877644 -0.1912797 0.04128138 -0.14518669 0.065086745 0.052561797 0.1528844 0.18540737 -0.13653202 -0.043061588 0.22096115 -0.035123203 0.06156629 -0.11431755 -0.055270165 0.05961528 -0.17925398 0.27561817 -0.121112995 0.24128532 0.1591618 -0.12353101 0.15603334 0.030597063 -0.10166791 -0.10175999 -0.036046598 0.31286052 -0.08339856 -0.013064932 0.14925429 -0.01577124 0.013609856 0.1889535 -0.08618337 -0.03462993 -0.27444842 -0.030064663 -0.12484098 -0.101360425 0.2089027 0.1264317 -0.006373038 -0.3216538 0.022097394 0.20644303 -0.034120496 0.018002847 0.17482798 -0.16690996 0.18238764 -0.053501733 0.059995692 -0.20275906 -0.021066157 -0.12590565 -0.062032953 -0.02106193 0.21132334 -0.21237184 -0.026927983 0.037243623 -0.043100554 0.097594164 0.14777774 0.05222525 -0.10775109 0.12852882 -0.05268114 0.0014246951 0.09932815 -0.16528942 0.23154017 -0.18529177 0.009135686 -0.26082683 -0.18469757 -0.17894395 -0.002588057 0.061321974 -0.15789941 0.03499414 -0.19670032 0.11674093
114918 -0.06645148 -0.04098954 -0.08110755 -0.06638413 -0.078419104 -0.036602702 -0.020973774 -0.055952467 -0.09098051 0.045968533 0.18361178 0.028427644 -0.22364853 0.24409474 -0.084503435 -0.03345248 -0.089373164 0.22191887 0.06667481 0.01155418 -0.059168488 -0.050322946 0.15191141 -0.047317315 0.006201668 0.099221766 0.13198917 -0.06080641 0.096851565 -0.0013081005 -0.11199276 0.0028332162 0.0484778 0.018469896 0.04434803 0.07811516 -0.05906556 0.21613716 -0.029311547 -0.09807299 0.060064863 0.28258175 0.03860441 0.14749385 0.023389136 -0.16474544 0.04698035 -0.11201359 0.08850905 0.012293977 0.18776523 0.20715412 -0.16341096 -0.06408217 0.1824437 0.015686058 0.014882029 -0.15481685 0.019791106 -0.0075510344 -0.15721898 0.234687 -0.08529452 0.2724531 0.12470045 -0.15520409 0.11883612 -0.007550633 -0.11515625 -0.056386366 -0.033360034 0.27112642 -0.1031688 -0.052834447 0.13317657 -0.06490868 0.011560546 0.14058284 -0.15866217 -0.09997191 -0.2718891 -0.005417136 -0.12976283 -0.071034536 0.20608103 0.0920498 -0.0023036108 -0.26231918 0.04586601 0.15135722 -0.02017335 -0.024012085 0.17854878 -0.17286979 0.10714486 0.003491093 0.06423322 -0.206927 -0.042713605 -0.13204741 -0.101300545 -0.045189913 0.19184528 -0.2515953 -0.08613023 0.039719503 -0.035672184 0.10042241 0.0994985 0.056645047 -0.07877016 0.18523553 -0.008853084 0.048838004 0.077509575 -0.19600508 0.25649515 -0.1728879 -0.008899907 -0.20790608 -0.14864682 -0.210748 0.050695345 0.049772013 -0.09837616 0.094262 -0.17385212 0.17368267
114919 -0.0287842 0.043839015 -0.16031635 -0.36710575 -0.3322209 -0.17975026 0.00627733 -0.13157715 0.0035836697 -0.08385302 -0.12052687 0.24936877 -0.12925908 0.17441556 0.056499045 -0.018280443 -0.02320337 0.29025078 0.12067323 0.2375439 0.020040885 0.269039 0.17375523 -0.18724795 0.13039914 0.15491682 0.12059921 -0.009873081 0.037912946 0.18219586 -0.14033777 0.13582724 0.26993826 0.13889186 0.16658747 0.07871428 -0.10497728 0.40916792 -0.121355034 -0.32629848 -0.114362955 0.39785048 0.16931592 0.28637028 -0.25838393 -0.27695382 0.010576033 -0.34513775 -0.19745186 0.011806771 0.0697371 0.06935161 0.07583087 -0.05388787 0.23095931 0.17135553 -0.13888182 -0.29273432 0.11013052 0.09607006 -0.2442159 0.31970665 -0.21369174 0.43987018 0.15928088 -0.07780759 0.10524461 -0.008673731 -0.2785258 -0.26672983 0.10295627 0.6273556 -0.12779632 0.12542497 0.11670831 0.14127399 0.0323007 0.21201248 -0.073192075 -0.13629895 -0.4889927 -0.19812502 -0.13408393 -0.2701234 0.27913707 0.34197423 0.09058659 -0.6150783 -0.02917661 0.021075662 -0.0715368 0.0038473373 0.01204999 -0.25027332 0.30779144 0.190014 0.29265937 -0.15913978 0.12418277 -0.16840103 -0.121569626 -0.12938428 0.11580399 -0.19064572 -0.21402185 0.28651866 -0.055357847 0.31108788 0.038771965 -0.27549845 -0.069919385 0.10488826 0.16689977 0.16309704 -0.0065447595 -0.2064905 0.37674776 0.020647485 -0.103718214 -0.22633146 -0.22574967 -0.13873604 -0.07414533 0.10705107 0.056133453 0.13946043 -0.41696662 0.073269024
114920 -0.0036545065 0.044402614 -0.18942162 -0.33589938 -0.34512213 -0.18613575 0.0018462176 -0.095607504 0.013363257 -0.051083505 -0.10867112 0.21830876 -0.13972864 0.14186513 0.027204135 -0.0031660786 -0.020515643 0.301428 0.12459594 0.17344308 0.027918994 0.26176912 0.21168378 -0.16962042 0.10473662 0.16061977 0.099867456 -0.079829864 0.038644906 0.14261608 -0.19709031 0.12928194 0.24155912 0.157018 0.15625878 0.0640167 -0.06914156 0.39494333 -0.09243426 -0.30624002 -0.13280569 0.41457713 0.16451848 0.28652406 -0.22949399 -0.32764527 0.048146658 -0.34606105 -0.13744435 0.0025317597 0.08583129 0.057068966 0.07354013 -0.082569316 0.27619037 0.19554773 -0.13686399 -0.34730136 0.09022817 0.06908228 -0.25956538 0.34722266 -0.24519606 0.41423017 0.15636331 -0.11802477 0.106851086 -0.030641444 -0.23254082 -0.3028473 0.058563236 0.6428675 -0.09641955 0.13276075 0.11386791 0.11522994 0.055908736 0.21530378 -0.10990162 -0.14868307 -0.48800915 -0.24262604 -0.16029853 -0.22585034 0.22420911 0.28527936 0.09663997 -0.6078351 -0.013913619 -0.0341528 -0.08942179 0.07792167 0.02034235 -0.23373671 0.27434015 0.20498559 0.272143 -0.15215091 0.0924317 -0.12682368 -0.15774517 -0.1298472 0.13725314 -0.1805339 -0.23718783 0.18897931 -0.060951345 0.26436004 0.060541555 -0.27007377 -0.13771923 0.08478569 0.12907732 0.17452076 0.012639522 -0.19664373 0.34345558 0.038109478 -0.09337405 -0.26531282 -0.22066706 -0.1538878 -0.027809735 0.094910584 0.0016926129 0.14583187 -0.37570757 0.0759201
114921 -0.011020643 0.023159906 -0.16737561 -0.12910545 -0.20070204 -0.07160815 0.016828317 -0.068293214 -0.027203066 0.069956094 0.12648006 0.09059397 -0.20205557 0.18837059 -0.05381781 -0.015078663 -0.07815259 0.24821615 0.084667474 -0.011997716 -0.016044106 0.07782826 0.14368272 -0.078573965 0.055576727 0.16244157 0.058662653 -0.047739707 0.061543 0.057726286 -0.17789191 -0.0075426903 0.13542542 0.10818465 0.06149989 0.008921776 -0.03265192 0.24400413 -0.07190776 -0.16669883 -0.06438919 0.26932055 0.0592033 0.20474681 -0.15371722 -0.22080652 0.061368927 -0.15933044 -0.01891571 0.025557032 0.11322412 0.160742 -0.034074284 -0.08195185 0.14904888 -0.035624232 0.025312096 -0.18496332 0.035681944 0.02688503 -0.16252223 0.2838071 -0.16770853 0.25143653 0.14600754 -0.090547256 0.13893548 -0.067455135 -0.047856417 -0.17200747 -0.025411157 0.37872192 -0.074012615 0.03477398 0.046899926 0.024900192 -0.008356824 0.12504242 -0.12844063 -0.052617088 -0.38038182 -0.0518176 -0.13500048 -0.098228045 0.09281845 0.11758966 0.10765464 -0.37966007 0.012899925 0.0380229 -0.0175057 0.020547785 0.15153588 -0.15069003 0.1084156 0.06535775 0.13659747 -0.16493757 0.00782653 -0.103887826 -0.1489298 -0.0736984 0.12267149 -0.21550938 -0.10154616 0.01330144 -0.011292348 0.13012195 0.08808575 -0.06389879 -0.11024836 0.16006035 -0.024695206 0.12744418 0.109264776 -0.17792179 0.33517474 -0.09560625 -0.030025532 -0.18174651 -0.20560955 -0.19446985 0.008305596 0.07287166 -0.113048404 0.12812576 -0.20383614 0.13580324
114922 -0.03266688 0.011948636 -0.19236481 -0.07304559 -0.13948292 -0.09025687 -0.037931543 -0.07300966 -0.05426893 0.07202832 0.1745676 0.058236104 -0.28444564 0.18432537 -0.1306846 -0.022616148 -0.12268746 0.23099378 0.09166855 -0.040811498 -0.020966426 -0.044466402 0.1405545 -0.072346 0.06854569 0.1575153 0.04436242 -0.07805648 0.08844977 -0.008586038 -0.14848907 -0.035005584 0.11051816 0.043158982 0.055236056 0.014946302 -0.025523262 0.2435918 -0.049872003 -0.12277948 0.020223327 0.26126477 0.050882403 0.15361759 -0.10128084 -0.256864 0.12581617 -0.1779954 0.08702483 0.028247224 0.15534288 0.19547255 -0.13484327 -0.10058601 0.18409447 0.02783815 0.030177 -0.18595481 0.017475277 0.018054524 -0.14660539 0.3040235 -0.20228721 0.23928377 0.16965279 -0.16627721 0.14938205 -0.0046810224 -0.026296664 -0.13803816 -0.050831135 0.29435846 -0.12462069 0.0043065525 0.07272255 -0.020038903 0.049585167 0.15178257 -0.14264038 -0.11225055 -0.2620944 -0.054929957 -0.11726777 -0.086400464 0.08343775 0.051415917 0.030537415 -0.30651295 0.012928074 0.067198716 -0.0004461393 0.015156766 0.20929301 -0.13666262 0.040603768 0.028659081 0.06610536 -0.2238248 -0.024028344 -0.12683254 -0.12759577 -0.052466817 0.13328242 -0.25848114 -0.09794679 -0.0308601 0.019774102 0.08931662 0.099110946 0.022958176 -0.14974107 0.16523686 -0.025830941 0.10414 0.159239 -0.22801013 0.3015585 -0.18067119 0.0016559209 -0.16173142 -0.26957113 -0.13643146 0.054656196 0.08441117 -0.13379727 0.073469386 -0.14602503 0.17195235
114923 0.009459552 -0.009322597 0.02802475 0.022547517 0.027190894 -0.019775398 -0.0110517 0.012393559 0.0015177552 0.017204348 0.06921494 0.0029437342 -0.011732025 0.004718992 -0.019729834 -0.0046482235 -0.03817277 0.0037369214 0.018824857 -0.012167599 0.0009975343 -0.04304682 0.026333375 0.02801551 0.021703519 0.00039403577 0.012120724 -0.00043790435 0.0465201 -0.018244538 0.017068347 -0.026842471 -0.016924776 -0.0048146 0.0007193759 0.0051569548 0.0003954444 -0.011185829 -0.01202431 -0.002157651 0.02405583 0.0008691319 -0.04037633 0.0015559283 0.023772156 0.02447047 -0.026284724 0.01595262 0.051198505 -0.012897343 0.0037142343 0.037908796 -0.04262184 0.024946366 0.0049174028 -0.019543314 0.024052875 0.03128445 0.011314258 -0.0044137854 -0.012997801 -0.019734269 -0.017978514 -0.017730754 -0.002345507 -0.051546138 0.00096314604 0.016539339 0.019669084 -0.0011523718 -0.03930737 -0.036899887 0.0007112139 -0.00941813 0.026143847 -0.0344733 -0.029175019 0.0089839725 -0.0030888978 -0.012270669 0.007700604 0.010872951 -0.017848326 -0.00053978804 0.014722473 -0.0038972164 -0.04339065 -0.00397926 0.0064782817 0.052242596 -0.0010361224 -0.011016304 0.0072006816 -0.026188087 -0.043173403 -0.017999787 -0.03608416 -0.04664007 -0.028306015 0.0056733354 0.0060328674 -0.013045184 0.019360982 -0.020782158 -0.008286931 -0.007324651 0.011781705 -0.018694732 0.005320146 0.014319973 -0.022069665 0.022917846 0.009284372 0.00820343 0.015116226 -0.016748393 0.015051409 -0.03764071 -0.012244696 0.007288447 0.00172413 -0.054628655 0.022584165 0.020362517 -0.035000872 -0.004249805 -0.030123759 0.023508264
114924 -0.0012846524 0.0012996147 -0.0021621375 -0.0035402756 0.0011591533 0.0034516621 -0.0030623632 -0.00072053744 -0.0016968297 -0.0024390535 0.0024958637 0.0017236627 0.0035993224 0.0017323052 0.0020050132 -0.0009328231 -0.0035515279 0.002685543 -0.0038097445 -0.0003935928 0.0010447507 -0.0034083908 -0.003684506 -0.0033005148 0.0004138657 0.0019938948 -0.0006590685 -0.0019873364 -0.00046452082 0.002583527 -0.0038309281 0.001717282 0.0029491028 0.0012211305 -0.00061989145 -0.0009777241 0.002164676 0.00085303996 0.0034366227 0.0017367085 0.0020681089 0.0002936719 0.000350776 0.0005602313 -0.003155839 0.0021768077 0.0015524614 0.0008543564 0.002196064 -2.4664623e-05 -0.0033204695 0.0025934358 0.002474774 0.0011577306 0.00039634548 0.00033029026 -0.0008646942 -0.0016219498 0.0021642782 0.001173899 -0.0030583467 -0.0012124396 0.00079463987 -0.0017113291 0.00044085292 0.0013570338 -0.0018878401 -0.0020166023 0.0022723489 0.0022501883 -0.0015520427 -0.0016536682 -0.00091441645 0.00038565788 -0.0018985521 -0.0036291284 0.0037208789 0.0013067918 0.0012025294 -0.0022878798 -0.002320505 -0.002128167 -0.0035361708 0.002461723 -0.00036507394 0.0038280669 -0.0031315093 -0.0031690449 0.00245356 0.001277424 -0.0004093988 -0.0026171654 -4.2070158e-05 0.0022140786 0.0016146341 -0.0017751737 0.00363006 0.0007843224 -0.00087769143 0.0019409752 -0.0010950497 -0.00012408485 -0.0021763453 -0.0019048576 -0.0038784388 -0.0004551451 0.00024181027 0.0033367765 -0.0014566128 0.0014000675 0.0035510105 0.0023959312 0.00028545555 0.002228159 -0.0034692527 0.0035740908 0.0029017064 -0.0036128932 -0.0007243325 0.0023046553 0.0033318957 -0.00078610575 -0.0028736123 0.0015659959 0.0015209484 -0.0038468442 -0.0026685502 -0.0014389993
114925 0.019872457 0.08600755 -0.19990209 -0.14695297 -0.26480427 -0.122364916 -0.0022745593 -0.039926656 0.016303478 0.100247435 0.13783108 0.18814784 -0.15980539 0.077121936 -0.101650484 0.014012121 -0.11345508 0.15295587 0.14114876 0.025510497 0.091773435 0.114454545 0.18141244 -0.11600214 0.053288944 0.21722126 -0.043335248 -0.05712254 0.06556901 0.03880275 -0.1631537 -0.027843297 0.17833233 0.12868023 0.031370778 -0.024576863 0.011746197 0.27055153 -0.047525004 -0.20463268 -0.06300857 0.24270818 0.062344264 0.17424576 -0.23545088 -0.24978945 0.15040158 -0.20322149 -0.027145216 0.027598426 0.022299476 0.049290325 0.03620912 -0.07664666 0.16221616 -0.015818221 0.011591228 -0.23058787 0.012035573 0.03400917 -0.20302875 0.285158 -0.27041 0.17175028 0.118619576 -0.07652008 0.1377751 -0.027463475 -0.034612782 -0.23236631 -0.02577812 0.410647 -0.06352122 0.053946506 0.025346722 0.10284262 -0.03141279 0.17847036 -0.082814224 -0.045842417 -0.35253677 -0.11473339 -0.18026477 -0.1327513 0.057654474 0.11340635 0.100642644 -0.42676142 0.015111022 0.05338125 0.049258854 0.053777363 0.10211193 -0.068836294 0.105257645 0.06290704 0.19051217 -0.16569267 0.02919899 -0.053626392 -0.14786434 -0.094041094 0.116288416 -0.18070735 -0.12341263 0.014661135 0.032721747 0.15503314 0.038883276 -0.13735636 -0.1002176 0.09992783 0.0073867813 0.2087979 0.20660649 -0.17713411 0.30291542 -0.11792805 -0.048718292 -0.12994303 -0.25135395 -0.1780845 0.015420084 0.0676211 -0.12125908 0.12281541 -0.2340413 0.12630571
114926 0.021942798 0.037797887 -0.23333892 -0.122737475 -0.2216163 -0.08293366 0.0036700447 -0.032334074 0.008751035 0.11993265 0.14499806 0.108577155 -0.23779376 0.1387527 -0.056753676 0.015753474 -0.09035806 0.22747782 0.08679143 -0.040884852 0.007745964 0.118187234 0.17880733 -0.044791795 0.04483032 0.20537362 0.019895969 -0.053864773 0.026461171 0.052896798 -0.20505325 -0.052806605 0.15650406 0.13896808 0.08924888 -0.02242383 -0.028940337 0.2613313 -0.05181946 -0.17617822 -0.086559184 0.23903608 0.077565655 0.19207329 -0.15362602 -0.1999042 0.09908398 -0.19893794 -0.03316055 0.02845307 0.10468643 0.15464209 0.02620985 -0.11020196 0.16511193 -0.002724064 0.030913558 -0.20012304 0.014263183 0.047291756 -0.18775803 0.3197508 -0.18117338 0.21425772 0.1211223 -0.09434291 0.1508075 -0.06174439 -0.03295518 -0.20254266 -0.06393959 0.36943197 -0.086676426 0.06832191 0.081631996 0.037728887 0.019694364 0.112237096 -0.12742963 -0.017644757 -0.3931264 -0.12907031 -0.15339915 -0.09546956 0.019649727 0.11368518 0.14852963 -0.43618867 -0.0042486023 0.0014899112 -0.017148148 0.05184776 0.17015748 -0.12608883 0.087808274 0.0674835 0.14220507 -0.15823889 0.043585952 -0.10816121 -0.17246646 -0.09142644 0.10710035 -0.20505571 -0.11793587 0.02874429 0.0009513832 0.116234206 0.08560232 -0.07507483 -0.14514078 0.1084311 -0.060039636 0.14994434 0.15853892 -0.15196289 0.3429073 -0.05252055 -0.027289174 -0.15636583 -0.22766957 -0.2164785 -0.006333105 0.1183361 -0.13276576 0.14802593 -0.23070751 0.120767094
114927 -0.008651832 0.0034661316 -0.010985522 -0.035955235 -0.015375058 -0.07501771 -0.025148652 -0.008821952 -0.016469706 0.06665788 0.16659725 0.036266353 -0.09813704 0.06116852 -0.06217336 -0.008831919 -0.1092131 0.08479249 0.06748046 0.019638209 0.0045394935 -0.06407551 0.12712307 0.013918676 0.07865404 0.037475944 0.04625736 -0.025637042 0.104812466 -0.023636922 -0.009340691 -0.054888062 0.014823583 0.020828309 0.039357 0.0343621 -0.03496661 0.077420734 -0.03173803 -0.070729144 0.038684655 0.10843403 -0.03744454 0.05375972 -0.0007241577 -0.03913389 -0.008963477 -0.05569256 0.11047421 -0.008398155 0.05924492 0.12502226 -0.09859336 0.04899464 0.09840182 -0.014738928 0.032850273 -0.005448025 0.034322176 0.008686364 -0.08070521 0.07421831 -0.08017359 0.05112934 0.043413933 -0.164101 0.042097848 0.047538623 -0.0420812 -0.058689922 -0.10544672 0.079539075 -0.027012613 -0.0049824584 0.119230956 -0.0411077 -0.053426802 0.097191215 -0.053417675 -0.049816504 -0.1110665 -0.030086057 -0.109626666 -0.08318971 0.11178763 0.05250721 -0.05691983 -0.17438203 0.0059461733 0.14677282 -0.021841727 -0.013314888 0.07432791 -0.119737275 -0.0054190746 0.01434919 -0.022287264 -0.15865569 -0.039784666 -0.043581463 -0.04011691 -0.04997254 0.0959302 -0.11182405 -0.06418531 0.034297213 0.03715788 0.022079667 0.023506423 -0.0032263175 -0.1013466 0.066136755 0.0018172715 0.053299047 0.05305463 -0.10670976 0.14250268 -0.099185355 -0.039511677 -0.09270698 -0.07926062 -0.18500409 0.057392165 0.058093958 -0.065706 0.018846324 -0.1796234 0.088872835
114928 -0.015465832 -0.003755183 -0.0016230824 -0.031827107 -0.00786554 -0.05115926 -0.009001618 -0.015379115 -0.019925015 0.031316318 0.15997477 0.044350803 -0.08694514 0.067634106 -0.049400408 -0.016831076 -0.0791186 0.05878769 0.06620874 0.018469723 -0.0012489997 -0.06328489 0.107628874 0.026754651 0.038530815 0.037041835 0.043546278 0.00051052944 0.086535215 0.0027190128 0.0007709781 -0.037728764 0.026400212 0.0016075162 0.0365849 0.013713656 -0.04745986 0.071009114 -0.036510386 -0.052446548 0.051284317 0.08309581 -0.02110983 0.05164665 0.017378248 -0.0025134943 -0.011624143 -0.04548407 0.08942908 -0.012368313 0.0511224 0.10611009 -0.07295654 0.028332017 0.08049956 -0.01513511 0.03236853 0.0031598737 0.009546582 0.012818459 -0.06327596 0.055576406 -0.056926847 0.05456117 0.011377062 -0.1263604 0.034363445 0.033368822 -0.029814549 -0.036720015 -0.06203233 0.04945297 -0.039336473 -0.011467683 0.11859977 -0.01655197 -0.03383333 0.08584415 -0.032904077 -0.048535734 -0.08145859 -0.01110626 -0.09053538 -0.046411514 0.096264526 0.0513981 -0.05423437 -0.1267914 0.008919742 0.13565068 -0.0006026359 -0.032639448 0.051900145 -0.090707146 -0.0021808345 -0.007786026 -0.01128435 -0.13699016 -0.026172591 -0.049651593 -0.019811518 -0.0387161 0.08413605 -0.09659861 -0.053779423 0.036501475 0.0113561945 0.01922331 0.016873496 0.0026679782 -0.05758828 0.07359393 0.002538949 0.037452545 0.04122262 -0.093766354 0.10977239 -0.09540422 -0.028376048 -0.05246195 -0.06803777 -0.14693718 0.042519312 0.04852721 -0.048709244 0.010696438 -0.13632189 0.087040685
114929 0.013987241 -0.010894527 0.028880488 0.011529794 0.006699798 -0.046577916 -0.033022065 0.01927699 0.0005998117 0.05722106 0.1420472 0.01740661 -0.0483888 0.014282019 -0.049103446 0.011552004 -0.07518373 0.04303101 0.049848203 0.011212974 0.02138296 -0.041224457 0.08802983 0.02743989 0.04473504 0.022396712 0.035768524 -0.022451986 0.09915096 -0.047948934 -0.00040505634 -0.054315045 0.003419327 0.02125874 0.028465202 0.021535082 -0.010443727 0.032281548 -0.018779624 -0.036575835 0.041835878 0.05889672 -0.058395844 0.029433694 0.02227931 0.015009787 -0.042830743 -0.016139265 0.08688902 -0.027150726 0.02457357 0.08836329 -0.08194107 0.052505486 0.04961487 -0.0026933483 0.03333445 0.024063284 0.037804984 0.00028352562 -0.049468845 0.01784128 -0.05044861 -0.0065029785 0.014335952 -0.12413755 0.007874166 0.03977925 -0.008196438 -0.024623863 -0.08979406 0.01020173 -0.010084798 -6.829557e-05 0.07762395 -0.045741655 -0.046970494 0.061535463 -0.040129952 -0.035401367 -0.06038077 -0.0023637335 -0.07944464 -0.042113174 0.06765748 0.017516969 -0.058085136 -0.09061399 0.012841871 0.09984623 -0.017164096 -0.0090140235 0.045127317 -0.09777944 -0.038219932 -0.0011977794 -0.03048671 -0.12479339 -0.046726212 -0.0018969551 -0.024699418 -0.042966712 0.060348228 -0.06050698 -0.063291416 0.01991097 0.029756783 -0.0008209359 0.020730847 -0.00070957164 -0.07244738 0.045592915 0.010898901 0.031411715 0.03746432 -0.052976504 0.08162392 -0.060126964 -0.030296726 -0.037754197 -0.029538935 -0.15292023 0.043281622 0.05124146 -0.055725414 0.0060178936 -0.12702546 0.06434921
114930 0.014623911 0.005855354 -0.01759576 -0.03633317 -0.029158147 -0.066629015 -0.020537205 -0.0036071474 -0.013866157 0.056578405 0.12908308 0.020383151 -0.07061162 0.02367431 -0.054590236 -0.007168219 -0.07589002 0.07546276 0.062630266 -0.008439123 0.0178398 -0.048887763 0.105327725 0.013683669 0.048911273 0.018709306 0.017110959 -0.042652566 0.1109341 -0.031671025 -0.007987481 -0.043606132 0.021374652 0.037594005 0.04325392 0.014162637 -0.01983355 0.058986902 -0.023049375 -0.06528262 0.046701223 0.0690934 -0.038518358 0.04283099 0.0045344834 -0.01757666 -0.0008072508 -0.04132037 0.091883965 -0.011598155 0.016784836 0.07645354 -0.06752983 0.05205622 0.0824767 -0.034526896 0.042497944 0.0031650173 0.035594884 0.0034440788 -0.06487323 0.054255363 -0.067647465 0.006611989 0.036797643 -0.13118681 0.034867737 0.037751094 -0.0033531678 -0.05529977 -0.085785836 0.05919473 0.0026625418 0.004368036 0.084995806 -0.040816408 -0.058815118 0.07468478 -0.03415684 -0.027492654 -0.07562966 -0.015017788 -0.08114731 -0.060089763 0.0782534 0.02676921 -0.03882316 -0.12479857 0.020683903 0.10532845 -0.0013000311 -0.008973619 0.044076294 -0.07916928 -0.019241303 0.0024907084 -0.016476683 -0.113125354 -0.02308808 -0.013773019 -0.044621594 -0.05403317 0.079604656 -0.0740346 -0.06785535 0.022063192 0.02868902 0.013355608 0.031331178 -0.019322628 -0.10137553 0.048063897 0.010291774 0.033481754 0.043977145 -0.08484802 0.117742315 -0.05951733 -0.033575382 -0.07666678 -0.04332285 -0.15180348 0.054184668 0.047333475 -0.073378675 0.0068183206 -0.13271469 0.05403822
114931 0.015649235 0.0058223642 0.02951896 0.027015492 0.008641713 -0.015879832 -0.028844062 0.013770375 0.0063088797 0.025839519 0.07117581 -0.021830823 -0.0030180123 -0.019733068 -0.03201611 -0.0020092102 -0.019530129 0.007914226 0.01833205 -0.0024223162 0.009569208 -0.036822855 0.011176413 0.026812833 0.016525185 -0.0048689805 -0.007289763 -0.007839869 0.057912886 -0.03228653 0.020911625 -0.037016638 -0.010339245 0.003674031 0.0023857844 0.00064979336 0.003430878 -0.011502113 -0.0020724102 0.0058379318 0.02919958 0.0014607093 -0.027084183 -0.0032206508 0.014844509 0.011736095 -0.014712348 0.005030014 0.061016906 -0.011365516 -0.00085189985 0.029488012 -0.039063822 0.03149456 0.016070519 -0.025164735 0.035138026 0.026161468 -0.0031183448 -0.0035917258 -0.0080338465 -0.017011007 -0.02503273 -0.04255561 -0.0039166193 -0.05092589 0.004193423 0.017055342 0.03845993 -0.0036944984 -0.047922432 -0.038859557 0.0050544236 -0.0142070055 0.020673709 -0.039896958 -0.0337252 0.014741939 -0.00050209 -0.01100462 0.013503194 0.017570192 -0.023140237 -0.0077129486 0.017534891 -0.019836864 -0.034995347 -0.0076828813 0.0028534508 0.050792743 -0.0025545529 -0.006125831 0.009200283 -0.028707447 -0.038139015 -0.0122820195 -0.02983004 -0.039659057 -0.024700355 0.01223418 -0.0031834901 -0.019422952 0.020246891 -0.008310598 -0.012632862 -0.0056569083 0.029020933 -0.020018183 0.010126379 0.01651132 -0.03719253 0.012097882 0.013612642 0.013168609 0.007770616 -0.016533593 0.024832068 -0.030372277 -0.009810741 -0.0011103716 0.00015456497 -0.059739254 0.025153931 0.0236875 -0.0334853 -0.02327847 -0.027382523 0.026724128
114932 0.00045839365 0.0013352185 0.0017259809 -0.0031809947 -0.0025494655 0.0009910065 0.0010687683 0.0027327223 0.00029984463 0.0023767266 0.0010498657 0.0038608655 0.0012604487 7.9163525e-05 0.00049391395 -0.0033918764 0.0035019203 -0.0029035534 0.001277182 0.0004995545 -0.0018683275 0.0012430301 -0.0032282893 0.0018458742 -0.003205437 -0.000121659345 0.0033514863 0.0028183016 0.0026242808 0.0017660183 -0.0036199137 -0.0021012637 0.0006244501 -0.0007440469 -0.0019949141 0.0032238683 0.0029248674 -0.002674115 0.002475806 0.0037210258 0.0035071129 -0.0023312636 -0.00073448045 -0.00072905276 0.00067128096 -0.0026228477 0.0013755177 -0.0026822998 -0.003590443 0.0007735548 0.0017987887 -0.001114228 0.0006475695 -0.0019518492 -0.00023921985 -0.0018628228 -0.0024981734 -0.0012536024 0.00011303098 0.0038724793 0.0034298147 0.003855073 0.0015115528 -0.0025792615 0.002702786 -0.0009079037 -0.0017774962 -0.0023546796 0.0015926181 0.0014844174 -0.0034514097 0.0005446309 -0.002492584 -0.00023804932 -0.0029838828 0.0027957563 0.0033251997 -0.0030781874 0.00042872492 0.0024938085 -0.0010411957 0.0021879526 -0.0011691314 0.0019001561 0.0025327133 0.0030240412 0.0014533087 0.0030497496 0.0010914564 -0.0035070258 0.0019919318 -0.0008922214 0.0016668733 0.0028951352 -0.0025466417 0.0014551894 0.001476764 0.0011375416 0.002998409 -0.0010428063 0.0008051436 0.0023134043 -0.001853991 0.0031714314 -0.0037407076 -0.0029087712 0.0033228598 0.0020156757 6.335103e-05 0.0002363297 0.0014209604 -0.0037282363 -0.0035256117 0.0036075772 0.0034080504 -0.0012964108 -0.0037317637 -0.0022180465 0.0038849828 0.0036279222 -0.00042575836 -0.0012328624 0.002950257 -0.002907907 -0.00039664807 0.0031863707 0.002407055 -0.0012441516
114933 -0.023931788 0.0057794037 -0.12139433 -0.07708456 -0.07634612 -0.08648462 -0.012303257 -0.04446637 -0.02103724 0.090100214 0.21204202 0.06969954 -0.18334535 0.122424886 -0.09440061 0.014557488 -0.146471 0.15418676 0.06990527 -0.0009185134 -0.01772957 -0.03429355 0.16566557 -0.026591713 0.06818097 0.1126407 0.058946833 -0.034612197 0.09767797 -0.010838976 -0.06902466 -0.054827694 0.07234124 0.029248118 0.045076817 0.016914135 -0.021804871 0.16501065 -0.032580707 -0.1123632 0.034058865 0.14171214 0.014634589 0.065925986 -0.049171716 -0.10942619 0.05378688 -0.12604722 0.07464149 -0.0021720072 0.09113672 0.13462724 -0.08142013 -0.018743642 0.13336627 0.0033090648 0.04234961 -0.070896134 0.018429931 0.03062179 -0.12881626 0.18294442 -0.12173863 0.12819777 0.099515386 -0.13669142 0.09713665 0.0463274 -0.049588546 -0.09715338 -0.08461449 0.18941768 -0.05765132 -0.001451724 0.11874586 -0.00094186235 -0.016009431 0.14492476 -0.08208354 -0.038087863 -0.19605196 -0.036188617 -0.13880944 -0.09304216 0.12124882 0.08830289 0.00054710207 -0.26796886 0.010312527 0.14881077 0.014939625 -0.0028474003 0.14375356 -0.12170155 0.04867908 -0.0014479074 0.025782716 -0.17995359 -0.0029132876 -0.102686144 -0.060219485 -0.056188975 0.13223904 -0.17941557 -0.084337644 0.029904585 0.026273761 0.06748975 0.06746743 -0.0014686609 -0.10910175 0.11485669 -0.01515398 0.07338781 0.13948844 -0.15256487 0.21820407 -0.14150494 -0.042252146 -0.12764694 -0.16804771 -0.19573522 0.034713686 0.08120773 -0.106782205 0.043659355 -0.17739882 0.1255064
114934 0.012179711 -0.021439977 -0.037058365 -0.0146591365 -0.032844536 -0.060511306 -0.04461465 0.020862527 -0.03899319 0.10958344 0.21223845 0.053374823 -0.13478008 0.076225296 -0.0954106 0.017642021 -0.13198894 0.13068463 0.07012082 0.0017942289 -0.008268675 -0.036117226 0.13743453 -0.008509403 0.07011631 0.115143366 0.086635694 -0.04113959 0.09955616 -0.04300738 -0.061191857 -0.06939708 0.031180242 0.01002657 0.03279039 0.050899204 -0.023220735 0.13275293 -0.037976325 -0.06962534 0.020428015 0.13405444 -0.027513843 0.048574552 -0.029447231 -0.09364314 0.019774672 -0.09076664 0.09419341 -0.001801219 0.092421636 0.14523248 -0.113643505 0.023824308 0.099006176 0.040704228 0.056539062 -0.0809324 0.027920878 -0.004370847 -0.10561748 0.11463997 -0.1081724 0.080687605 0.09420878 -0.13853793 0.06485402 0.048328433 -0.049811732 -0.065496415 -0.12638916 0.13090861 -0.08386944 -0.033882525 0.0993799 -0.052668273 -0.05465524 0.12614073 -0.05853077 -0.03485314 -0.1549615 -0.020750813 -0.15550117 -0.08299936 0.12321896 0.043684285 -0.032063194 -0.22417901 0.021978898 0.14702007 -0.007883527 0.025598066 0.14074981 -0.14181189 0.018795561 0.0039490545 -0.007348231 -0.20946953 -0.030116562 -0.060869955 -0.047635306 -0.042125173 0.11132944 -0.17149496 -0.089582704 0.027250314 0.03713931 0.061419223 0.055843353 -0.00068402506 -0.11395602 0.09378864 0.0010800074 0.05935964 0.12557423 -0.14341238 0.188043 -0.12206636 -0.041152347 -0.113955155 -0.11139276 -0.20552677 0.068276644 0.09304247 -0.089233525 0.04253566 -0.17307398 0.14021659
114935 0.016942289 -0.01361539 0.03260223 0.02795589 0.029375521 -0.01782906 -0.013145031 0.022548186 -0.007557805 0.028822651 0.06965683 -0.010821059 -0.0011630519 -0.011837873 -0.03194288 -0.0056767575 -0.026995286 0.004069611 0.025638158 -0.00909323 0.0066031255 -0.056294534 0.029340833 0.027442526 0.031499997 -0.016985172 0.0059895506 -0.0064498205 0.05256043 -0.024519686 0.022371488 -0.03174692 -0.022318866 -0.0061687757 0.0134581905 0.010144331 -0.008566685 -0.014279897 -0.018872531 0.0043960996 0.029545376 -0.009066491 -0.052567117 -0.0026543417 0.022417802 0.031106599 -0.033826567 0.016541133 0.058495052 -0.015791949 -0.006764311 0.038474794 -0.05039408 0.04868208 -0.0036197533 -0.022357382 0.035429016 0.040680934 0.01933892 -0.016205931 -0.0039150086 -0.03705509 -0.009196969 -0.035874438 -0.0030168141 -0.0700052 -0.009091252 0.025861252 0.024338858 0.0059137614 -0.056070827 -0.05081477 0.0043402854 -0.0034478875 0.03062905 -0.04323625 -0.04066658 0.0040167496 0.015667748 -0.018393766 0.019364797 0.02084291 -0.021292562 -0.00095638004 0.020702133 -0.014802898 -0.048107453 0.0049831998 0.001278349 0.049305454 -1.9531843e-05 0.0020826603 0.0010746941 -0.032584466 -0.054687247 -0.01592438 -0.045975152 -0.05821209 -0.034900844 0.0147105325 -0.00067427056 -0.008633728 0.008548947 -0.007242011 -0.010225699 -0.00069033424 0.02243026 -0.018996993 -0.006185204 0.010572391 -0.0480258 0.004514686 0.009611294 -0.007534257 -0.00020564569 -0.017616306 0.01470418 -0.027188214 -0.0075627426 0.00020023815 0.02273155 -0.05579747 0.037610173 0.01878216 -0.017176695 -0.022796115 -0.04355654 0.019417746
114936 0.020754281 0.0324731 -0.23870312 -0.2193912 -0.2776175 -0.15348552 0.054317914 -0.054897062 0.02228623 0.10366373 0.005310993 0.16486648 -0.18075727 0.14612354 0.0028939564 0.03222205 -0.03213354 0.31735814 0.0700928 -0.015918054 -0.0042537125 0.17231072 0.15214758 -0.07549994 0.06497934 0.14890456 0.03743924 -0.05064247 0.035641246 0.11628062 -0.22111608 0.010381486 0.22365288 0.16693816 0.092846155 -0.035676796 -0.049298283 0.30686665 -0.10375416 -0.26406097 -0.15741144 0.30794752 0.12523314 0.2780081 -0.22967051 -0.25928685 0.050626136 -0.2528691 -0.1229225 0.03707721 0.10104575 0.13074522 0.05273479 -0.08214357 0.1948681 0.037342243 -0.01969263 -0.21994966 -0.0013319041 0.04839506 -0.19796349 0.36030555 -0.23313223 0.28980717 0.18325697 -0.06442293 0.15077719 -0.06321052 -0.079466924 -0.27765945 -0.0018661757 0.5161713 -0.04430558 0.14541781 0.0814039 0.050397757 0.047108363 0.17642342 -0.13114959 -0.014744059 -0.4427612 -0.20024705 -0.11072181 -0.17941116 0.10290639 0.20611043 0.18587103 -0.5424822 0.0045607877 -0.02106864 -0.05191345 0.04425171 0.13051933 -0.16202025 0.17683591 0.113846265 0.19289735 -0.07055785 0.076889455 -0.09331599 -0.17978835 -0.10986824 0.14068928 -0.17701729 -0.13939522 0.07401378 -0.030200612 0.1761369 0.15158345 -0.19457412 -0.20337634 0.050248723 -0.027940666 0.15714611 0.082589895 -0.14091998 0.3823194 0.0106329415 -0.05787035 -0.26166403 -0.2163171 -0.1965231 -0.03693702 0.0951028 -0.15004799 0.112457715 -0.28287557 0.07894786
114937 -0.008165524 0.059317216 -0.14227824 -0.3302286 -0.3241569 -0.17772087 -0.0007441637 -0.122105494 0.016787589 -0.08259293 -0.14945225 0.20226431 -0.050844654 0.09349354 0.021884814 -0.010861008 -0.024952292 0.34017867 0.115693256 0.25505129 0.01660735 0.28507996 0.13471162 -0.207324 0.20065673 0.1126413 0.11562579 0.00553752 0.055705454 0.15128866 -0.103629775 0.12624651 0.2568323 0.10483872 0.163039 0.10556645 -0.077522635 0.39524877 -0.15094335 -0.3462516 -0.12843238 0.3745024 0.103798114 0.24261093 -0.32772437 -0.31543544 -0.007927556 -0.32018968 -0.21195427 -0.0024618423 0.04274446 0.06474486 0.05666645 0.010942763 0.18384719 0.16707504 -0.13435248 -0.25675374 0.13893907 0.098253876 -0.23259816 0.2666732 -0.20550977 0.4007209 0.15989283 -0.10823472 0.106637836 0.01348662 -0.24123825 -0.2568897 0.05438091 0.6158612 -0.11043982 0.14898345 0.07343545 0.12168486 -0.021520274 0.22112556 -0.018883418 -0.13299747 -0.44903925 -0.15785286 -0.13396984 -0.28470156 0.28386796 0.32060987 0.07728474 -0.61504555 -0.051778857 -0.0031614804 -0.08450487 0.058228377 0.005090343 -0.27025446 0.30032867 0.15944116 0.25310752 -0.17918232 0.12734455 -0.14867155 -0.098546796 -0.11209955 0.10115874 -0.19209114 -0.23260543 0.2409531 -0.0038268808 0.30397528 0.04987393 -0.31039625 -0.15730053 0.04864899 0.19267558 0.13165891 -0.00897389 -0.21700098 0.40075064 0.027715115 -0.11021709 -0.23686087 -0.18672116 -0.1225097 -0.037107725 0.11847338 0.08311991 0.1110287 -0.4431109 0.045385275
114938 -0.032986064 -0.034291968 -0.04475409 -0.047670964 -0.041670483 -0.034306765 -0.023592593 0.0016049749 -0.073728785 0.083919846 0.21313024 0.06068027 -0.1798097 0.14740483 -0.082860574 -0.048630122 -0.14227995 0.13129368 0.07257042 0.040912718 -0.01701342 -0.05161378 0.17229237 0.0015423847 0.073683016 0.11514918 0.10670458 -0.037890635 0.084317125 -0.024828346 -0.065033995 -0.063745566 0.0034843415 0.01594062 0.07059761 0.093151614 -0.07681888 0.14574362 -0.025724683 -0.04482585 0.031006703 0.18591276 -0.031803183 0.08288669 -0.016372878 -0.07390604 0.016441246 -0.092466235 0.1334117 0.0066255475 0.10229341 0.19470793 -0.1404332 0.024505138 0.11663753 -0.012509958 0.04676884 -0.08210444 0.08827878 -0.012981093 -0.1075628 0.13239048 -0.06322746 0.12741 0.06969195 -0.19468641 0.075379275 0.017464647 -0.105700575 -0.022888113 -0.11556235 0.17219552 -0.10015775 -0.040059105 0.14790878 -0.05401881 -0.056396645 0.117295325 -0.07964354 -0.056609854 -0.22815442 -0.023798192 -0.18750907 -0.076974526 0.14954865 0.062143583 -0.040414758 -0.22955339 0.0055950503 0.14877486 -0.020668332 0.006966643 0.16137692 -0.21353714 0.032501902 0.018051356 0.012371284 -0.26883125 -0.025283277 -0.09516695 -0.083031066 -0.035697274 0.097104445 -0.19668561 -0.09760582 0.059394345 0.022628075 0.05975444 0.009561577 0.015883893 -0.08069546 0.13936014 -0.017494785 0.048061732 0.11019512 -0.16490036 0.21220239 -0.13562815 -0.034648623 -0.13967624 -0.117025614 -0.24082729 0.07652002 0.056011572 -0.02786162 0.08379469 -0.21615632 0.15537599
