2454 128
201315 -0.029768502 0.0028114093 -0.03254742 0.063474886 0.048918758 0.021174114 -0.15999988 0.04675366 -0.052061133 0.011456083 0.0031242787 -0.0053698462 -0.04683462 -0.075672306 -0.042855024 0.21050815 -0.0125271045 -0.06104425 0.050282497 0.013640845 0.05258495 -0.21699508 0.057067756 0.118596375 -0.055249155 0.031054035 0.08146656 -0.045128554 -0.077491604 0.060801886 0.02298094 0.018064672 -0.0007425032 0.0607174 -0.091611475 -0.07818422 -0.032752 0.048686754 -0.10029541 0.003262181 0.038668036 -0.069458194 0.07598364 0.08797531 -0.0695787 0.005942366 0.010453852 0.016902791 -0.03036083 0.10291277 0.07012299 0.15824209 0.024550475 -0.010593705 -0.09661288 -0.116431214 -0.04379081 -0.083139956 0.04673981 -0.07253472 0.03637765 0.045441173 -0.11859397 -0.026844678 0.18478817 0.11624152 0.050040606 0.011080546 0.0252464 -0.019811528 0.07194205 0.062262498 -0.07937718 0.035532556 -0.11739659 -0.0413954 0.04365784 -0.071514435 0.004025487 -0.115556695 0.002708112 -0.1202174 -0.014759166 0.09345961 0.1309402 0.10101049 0.13839118 0.016289167 -0.016360935 0.06693795 0.0024003228 -0.0335059 -0.0317881 -0.07332922 0.07147903 0.16706304 0.008809262 0.253878 -0.13585395 0.12071606 0.032654107 -0.06424275 0.021478012 0.018821936 0.033686582 0.009886835 -0.22853823 -0.0126056075 0.03865729 -0.0064324792 0.12208705 0.03962036 -0.020002889 -0.1456698 0.19081113 -0.042302944 -0.0072565684 -0.1288981 0.0350543 0.016411368 -0.015733348 0.06489627 -0.16025227 -0.07533116 0.045841455 -0.08614721 0.15290478 0.12680733
201316 0.010793894 -0.00068976654 -0.042077094 0.051776994 0.021181647 0.026542138 -0.16412945 0.020591168 -0.028632361 -0.021032454 -0.01953365 -0.026442137 -0.06036488 -0.055430226 -0.015297722 0.18154146 0.011999127 -0.041380025 0.045939468 0.030955233 0.02546831 -0.15986134 0.10586122 0.11591942 -0.01535597 -0.014351588 0.100005634 -0.07377313 -0.08850797 0.051137026 -0.045939762 0.0033133791 0.0015670522 0.103356846 -0.08020845 -0.04770626 -0.062483203 0.044237472 -0.019998102 0.017153177 0.0070047197 -0.054601986 0.07355243 0.10748847 -0.032701835 0.037089862 0.01770827 -0.010418612 -0.008622307 0.1204024 0.09276495 0.10721797 0.0010110097 -0.030808859 -0.12026091 -0.1069382 -0.08008354 -0.11934271 0.028670274 -0.09392395 0.04318533 0.007787678 -0.07212698 -0.033830725 0.14425668 0.045619905 0.06434491 0.05124912 0.022932576 -0.010295826 0.008858597 0.080659494 -0.04706127 0.02387404 -0.12417576 -0.0022477002 0.021433616 -0.04123078 0.028795468 -0.07620094 0.061262652 -0.08702126 0.031548303 0.10449312 0.16309653 0.09582697 0.13715063 0.015953084 -0.0041208095 0.06176926 0.06583761 -0.01337719 0.015054515 -0.08334168 0.03049525 0.14769329 0.06147814 0.20680737 -0.12747984 0.093215324 0.04584374 -0.033874594 0.059268765 0.045270953 0.017978137 -0.008691492 -0.17671983 -0.00013598107 0.025885778 -0.005792019 0.06543599 0.053479586 -0.02324373 -0.0930219 0.1788272 -0.057619367 -0.0052419184 -0.09126564 0.03691727 0.015875263 -0.0074699847 0.057471637 -0.1500848 -0.07805593 0.03383031 -0.10055475 0.06811612 0.07752659
201317 0.11967108 -0.012012494 -0.15170568 0.010135582 0.07685587 0.056544278 -0.26748905 -0.10259074 -0.040203992 -0.050838597 -0.011458685 -0.11698675 -0.21077995 -0.08603506 -0.014990415 0.22645506 0.04534875 -0.054142196 -0.020530757 0.07142533 0.09000389 -0.19627225 0.2355807 0.17772935 0.04278308 -0.18444277 0.16982369 -0.1077605 -0.06000198 -0.01690992 -0.13733907 -0.115616076 0.11592636 0.25533104 -0.15489729 -0.077763855 -0.056057528 -0.03485422 0.022233393 -0.037516095 -0.0005907064 -0.20138286 0.03340815 0.15099178 -0.055824444 0.17642514 0.088251 -0.039603516 0.07520649 0.26350504 0.15111858 0.0012792663 -0.087576866 -0.24059398 -0.22395602 -0.22944917 -0.24133551 -0.24693605 0.08614839 -0.07405142 0.13966788 0.022411797 -0.14659011 -0.024317913 0.22860906 0.07766195 0.07653603 0.07906869 0.019476011 -0.13892466 0.059989866 0.18063995 0.02085658 -0.011366905 -0.22725113 -0.005742458 0.04050466 -0.20993645 0.027459636 0.00884693 0.2228711 -0.040318955 0.10345038 0.18985948 0.36917242 0.16055861 0.22588407 -0.0656558 -0.10900547 0.036720783 0.23702908 -0.020037135 0.074581385 -0.22607139 0.024625756 0.17324086 0.15998879 0.33353123 -0.179553 0.1444846 -0.008385241 0.081288554 0.1282389 0.14578791 0.28340745 0.046935353 -0.1982448 -0.003717032 -0.02262516 -0.09627963 0.020212432 0.048181046 -0.04241979 -0.17683782 0.29447284 -0.19482252 -0.12703702 -0.2504406 -0.10428448 0.066765666 0.013080936 0.06688896 -0.41967654 0.03920082 0.1946317 -0.12751925 0.05291998 0.03973369
201318 0.0023883893 -0.0014755687 0.0017495143 0.0035456696 -0.0014895198 0.00025656092 -0.0017486443 -0.0034555555 -0.0023760458 0.0010802166 0.003904731 0.003097096 -0.0034043032 0.0013341403 0.0034610955 -0.0014319349 0.0033316494 0.0025437763 0.0019559949 -0.0021135216 0.00086569047 0.0030174109 -0.0032903058 -0.0003297119 -0.0021452794 0.00052587304 6.505073e-05 0.0028386738 0.0034213588 0.002447806 -0.0009107179 -0.000944051 -0.002802672 0.0036910065 -0.0010828421 -0.002688268 -0.0025033343 -0.0018442334 0.0003084401 -0.0021260846 0.0033845506 0.00044024026 -0.0009394112 0.0023434681 0.0034240487 -0.0009580149 0.0037175948 0.00096974114 6.858863e-05 -0.0011846478 -0.0023098227 -0.0020812198 -0.0033932044 0.0014234398 -0.0015437087 0.0013627772 0.0016127442 0.0010030328 0.00021359413 -0.0010997027 0.0034431503 -0.00295567 -0.0036219114 -0.0030653353 0.000996065 -0.0013476176 0.0008802571 -0.001667431 -0.00205683 0.0038346997 0.00013941572 0.0031757166 -5.0757764e-05 0.0020583277 0.0023659882 0.0033494101 0.00070258335 -5.9583094e-06 0.0009105612 0.0035231572 0.0013752934 -0.0017667379 0.0013421047 -0.003519424 0.0016659476 0.0023782807 -0.0021608858 0.0001692022 -0.003042161 -0.0008971061 0.0014787712 0.00010706673 -0.0031307486 -0.0035708763 0.0025522308 -0.000677433 0.0036235235 -0.0025230648 0.0031319305 0.00052557676 -0.002174874 -0.0016865125 0.0032804 0.0007333303 -0.00041897083 -0.002404661 -0.0015404571 0.0023495408 -0.002228123 0.003363338 0.0016910827 0.0025729523 -0.0022360976 0.002914494 -0.0010719056 -0.0030389822 -4.3055956e-05 -0.00075970835 0.00028809675 -0.0012506655 0.0019223839 0.0022969674 -0.0032964605 0.00075505534 0.003042072 0.0023243288 0.00234604 -0.0012366645
201319 0.022560745 -0.019958913 -0.01596471 0.010596461 0.0026310165 -0.006241573 -0.04190358 0.004929144 -0.0069759213 -0.022667652 -0.027721614 -0.012231484 -0.0014554766 -0.0048715817 -0.0025490837 0.03177534 0.011555172 -0.005876447 0.029357024 0.016684752 -0.017308837 -0.031149773 0.023006361 0.020512465 0.008830141 0.0010478096 0.02655805 -0.011719387 -0.021574482 0.023822252 0.004745782 0.0010538731 -0.011844944 0.022951424 -0.013402325 0.01468719 -0.0048913225 0.02782418 0.01790201 0.02952675 0.0051932596 -0.011311875 0.03276697 0.021178434 -0.014153659 -0.011918097 0.0053966995 -0.011682793 -0.022939716 0.008410316 0.009786101 0.030726364 -0.015296877 0.0017020772 -0.027812835 -0.027654143 -0.0048647285 -0.033745132 0.0043502226 -0.035720784 0.014576363 -0.010585855 0.00089468923 -0.018586297 0.026856959 -0.027590124 0.033981528 0.008297121 0.0043369085 0.02022441 -0.011882995 0.02682495 -0.014012793 0.0045147757 -0.0123390695 0.017118901 0.007384436 0.014095341 -0.0027430917 0.011564307 0.026367093 -0.039951377 0.012363954 0.012382416 0.024559584 0.014675832 0.044810645 0.014978106 0.036362883 0.0150457295 0.03880946 -0.013169683 0.01233437 -0.028256921 -0.013689198 0.03826326 0.029201014 0.047603253 -0.024909196 0.00036979403 0.014151643 -0.016694985 0.027705884 0.04096323 -0.034354433 -0.015486672 -0.047966663 0.00285336 0.025849923 -0.012801388 -0.012414091 0.0019808286 -0.008477732 0.0014058044 0.01482556 -0.038836878 0.0006957162 0.004701073 0.022611849 0.026467996 -0.0054985923 0.029753711 -0.009795917 -0.026007408 -0.013339493 -0.037620656 -0.0050957976 0.012312422
201320 -0.00082682027 -0.001162771 -0.00049963687 -0.00083076424 0.0028881726 0.00028639272 8.0331585e-05 0.0023052127 -0.0014867892 0.00053396774 0.0020581267 0.0029299762 -0.0024879985 -0.0011574782 -0.0005808621 0.0030278806 -0.0015575076 -0.0026234007 -0.0027145478 -0.0035410882 -0.0017552105 0.00077939284 0.00045009563 0.0023245774 0.00097309303 0.0016767026 -0.00010803966 0.0024802794 -0.00043874714 -0.003689704 0.0028533863 -0.0014662257 -0.0028622556 0.0006237007 0.0016900908 -0.0029636787 0.002286174 -0.0033429665 0.0035104083 0.00056076056 -0.0012879076 0.0011980948 -0.0024710144 0.0038936727 0.0011424748 -0.0023349568 7.494803e-05 -0.0035938588 -0.0030317637 -0.0028550108 -0.0018462666 0.0012057429 0.0004972765 0.0036083534 0.0025682154 0.00071366585 -0.00060728187 -0.001901778 -0.0031737539 -0.0007214438 -0.0009542745 -0.0015361073 0.003639179 0.002086623 0.00037676 0.00078260177 -0.0007509184 0.0034303926 -0.0007824595 0.002763235 0.003209884 0.003887337 -0.0023049521 -0.0016082177 -0.0033588326 -0.0010332459 -0.0038147748 -0.0022780218 0.00043316506 0.0032772096 0.0016163549 -0.003654656 -0.00014374775 0.0006376818 0.0013339891 0.0023782786 -0.0008908603 0.0008579151 -0.0007568388 0.0018564839 0.0017449966 -0.0009113591 -0.0012519083 0.0006300008 0.002806349 0.0022313637 -0.00080820266 0.003559761 -0.00083943066 0.0007619229 0.0018457889 0.003607788 -0.0037610913 -0.002987317 -0.0028190154 -0.0025501368 0.001600611 0.0034466167 0.0026314147 0.0037110327 -0.0021487903 -0.00023401786 -0.0018432287 -0.00022286238 -0.00039022113 0.0033444369 0.0031260662 -0.0038541926 -0.0028651082 -0.003567556 -0.0023826838 -0.000746032 0.0034561325 -0.0036133837 -0.0034203462 0.00031728085 -0.0013891245 -0.0023305095
201321 0.15598729 -0.030794635 -0.20151454 0.0330988 0.11572028 0.0869857 -0.43524492 -0.09858957 -0.07915231 -0.11502625 -0.046465326 -0.18333766 -0.2402507 -0.12000161 -0.046620745 0.34043556 0.058242332 -0.10331602 0.055176467 0.11149425 0.09423727 -0.32987708 0.3106798 0.2726351 0.050853003 -0.17647927 0.26062012 -0.17315991 -0.13392486 0.037623875 -0.1425011 -0.13638964 0.09743543 0.31411505 -0.21611713 -0.081213124 -0.10033891 -0.013511658 0.016598435 0.016522486 0.003466899 -0.27794117 0.09790722 0.22490196 -0.0893175 0.18198271 0.12152754 -0.04007852 0.04514163 0.30356577 0.20674008 0.074748635 -0.12745856 -0.2813146 -0.29830307 -0.37153772 -0.2659926 -0.37390372 0.099441715 -0.1631645 0.18657029 0.0177055 -0.16647984 -0.04832835 0.3431066 0.10023296 0.15776925 0.07931735 0.022444367 -0.17191099 0.044320017 0.25883326 -0.014498884 0.024167916 -0.30565467 0.024429746 0.044445433 -0.26026922 0.006879555 0.007868813 0.27189803 -0.12640923 0.0913973 0.24538346 0.50890017 0.24105677 0.34869134 -0.08210447 -0.068880744 0.09031419 0.32546994 -0.061481673 0.079507865 -0.30802006 0.028195038 0.31094193 0.2378671 0.51589507 -0.25408942 0.18178768 0.017421324 0.017271454 0.15360074 0.20141545 0.28872716 0.0183025 -0.36267117 -0.0387635 0.044584993 -0.14076427 0.042981632 0.054454397 -0.060794327 -0.21310455 0.37333903 -0.2954017 -0.13118508 -0.29822057 -0.087539844 0.12180604 0.020730617 0.13180295 -0.52009004 -0.02771319 0.20117499 -0.23164707 0.106897905 0.119981535
201322 -0.0074226893 -0.0026640806 -0.02777908 0.047462873 0.02747083 0.036498945 -0.15366426 0.052476764 -0.020769093 -0.033715665 -0.011471634 -0.034298055 -0.025789527 -0.05601548 -0.02757736 0.1807152 0.007678848 -0.036359757 0.0517975 0.014875866 0.022368412 -0.1800919 0.07272595 0.12430962 -0.026470685 0.014762179 0.089530945 -0.05486623 -0.0707743 0.051812198 -0.028937824 0.030013314 0.0017895851 0.049617827 -0.09976282 -0.05689891 -0.06886149 0.041730836 -0.05967887 0.00013155933 0.01617949 -0.06400315 0.09266282 0.08591665 -0.03584757 0.03183106 -0.0010847602 0.014453968 -0.015592389 0.091493346 0.060661357 0.122542724 0.019167293 -0.012481737 -0.08499727 -0.081605315 -0.040907282 -0.111148745 0.021379178 -0.09279524 0.036938168 0.0103021115 -0.0673044 -0.045212578 0.14074762 0.06672027 0.05987736 0.03482899 0.01909203 -0.0016259099 0.014637586 0.06610676 -0.06497656 0.0352818 -0.11570554 -0.008528777 0.010709877 -0.040900927 0.013642121 -0.07747184 0.027322799 -0.09737093 0.00042052922 0.08855132 0.12957738 0.095167674 0.1436895 0.012860236 -0.014074662 0.050041866 0.018375957 -0.02099567 -0.005124268 -0.05634887 0.037213255 0.12595521 0.03272744 0.18802728 -0.12992275 0.114177704 0.029455297 -0.07338524 0.023754371 0.0051405123 0.00998145 -0.024425643 -0.19829756 -0.016114403 0.031276178 -0.013390896 0.10122675 0.040628888 -0.021600896 -0.07235143 0.13899899 -0.033224404 0.0008690479 -0.07996508 0.056620445 0.0059187347 0.007844423 0.05289014 -0.1278604 -0.07448622 0.024824634 -0.083461024 0.08923468 0.11626387
201323 0.11923974 -0.031817287 -0.14821965 0.020528192 0.07798534 0.058818925 -0.30949062 -0.08942419 -0.04477169 -0.04398784 -0.023817673 -0.12338349 -0.1804275 -0.08979852 -0.006354128 0.23108578 0.03573592 -0.07218526 0.010255636 0.08572044 0.07908884 -0.22309765 0.24055728 0.20555526 0.034926947 -0.14741115 0.18418658 -0.12356865 -0.10057003 0.014134477 -0.13248827 -0.08696908 0.089708686 0.24992535 -0.14776327 -0.068501115 -0.049693827 -0.021065777 0.00965326 -0.004886248 0.00016670825 -0.20839499 0.06876005 0.17017025 -0.0517135 0.14896506 0.09425023 -0.028515918 0.045299172 0.24422494 0.15609047 0.041783698 -0.08893239 -0.22547066 -0.21542276 -0.25907764 -0.23886508 -0.26119974 0.08937388 -0.120852865 0.13532048 0.010429188 -0.13165884 -0.038445663 0.23919246 0.060232602 0.10742127 0.07787973 0.025804263 -0.12530327 0.049533244 0.18969351 0.012757816 0.0075344457 -0.23933129 0.0077090454 0.034746833 -0.19928372 0.03045657 -0.010224836 0.2155422 -0.06802219 0.09271165 0.18648143 0.3715138 0.17607248 0.24757303 -0.054133967 -0.061845955 0.069817424 0.2427357 -0.027355643 0.07408876 -0.22889635 0.026941773 0.20481853 0.17503263 0.3675647 -0.18389525 0.13569108 0.01335686 0.054132015 0.13183607 0.15745343 0.22595945 0.025215972 -0.23991595 -0.014366369 0.011549205 -0.076128 0.02336569 0.04752299 -0.048033364 -0.17389625 0.30823004 -0.20076197 -0.10651556 -0.22705723 -0.088150024 0.08255639 0.0047063655 0.099260725 -0.39964947 -0.0045252144 0.17618826 -0.16176108 0.07163482 0.053738758
201324 -0.00067870924 0.0013956975 0.0021942148 0.002859701 -0.00079895573 0.002828388 0.0014808867 -0.00026353067 -0.0029686948 0.00057279423 -0.0038350427 0.002980203 -0.0028502857 0.0036892197 -3.8395506e-06 0.0002588483 -0.0035619645 0.0037207778 0.0033840025 0.002349836 0.0024488103 0.0027760626 -0.0033507883 -0.0014443513 -0.002319389 0.002263059 -0.0016681774 -0.0036768473 -0.00035600353 0.0030394883 -0.0025841563 -0.0015239707 0.0012513545 0.002809313 -0.0032160205 -0.0031189856 -0.0013716683 -0.0019415558 -0.00120737 0.0030789478 0.0020901472 -0.0020250154 -0.0024683182 0.00031625142 0.0007163889 0.0016415509 -0.0032738873 0.0019047603 -0.0017842823 -0.0038936401 -0.0014611568 0.0035808126 0.0006562928 0.0016619862 -9.8451615e-05 -0.0025970791 -0.00046179534 -0.0026641132 -0.0018813866 0.0035001172 0.0014726762 -0.0024710929 0.0022229895 -0.0012009159 -0.0021684195 0.0010569259 0.0005833606 0.0006531722 -0.0008329948 -0.0014077842 -0.0025482392 -0.0008891741 0.0003551914 0.0017830859 -0.0024688556 -0.0038215024 0.00026764584 -0.00012683438 0.0012435162 0.0016402615 -0.0020990765 -0.003018572 -0.0028483684 0.002783374 0.00236059 -0.0024232904 0.0029449952 0.00033831064 0.0016956376 -0.0027715242 0.0036590945 -0.002610625 -0.0032551147 0.0022849615 -0.0022232512 -0.0010298683 -0.002484875 -0.0024013 -0.0027892732 -0.0027846254 -0.0022389137 -5.8982983e-05 -0.0018073887 0.0023680192 0.0020228908 0.0023552603 -0.00011398348 0.0016380276 0.0007100355 0.002845146 0.000481471 -0.0035628094 0.00067050115 0.001347179 -0.0021169018 0.0019292842 0.003195452 -0.0036864905 -0.0018698944 0.00049695966 0.0025771977 -0.002500715 -0.0019564654 0.0020085666 0.003525863 0.0005383234 0.0007719072 0.003490877
201325 -0.009158462 0.018235376 -0.019225651 0.0033449654 0.06658054 0.038936775 -0.15343563 0.07661753 -0.07267935 -0.022074413 -0.00781806 -0.020259438 -0.056564037 -0.0665955 -0.048093982 0.17961186 -0.027455017 -0.085110255 0.07303896 0.068815574 0.016915902 -0.19066247 0.056721844 0.118643 -0.03376269 0.04326773 0.059175175 0.0021703313 -0.09833713 0.032093566 0.0010310883 0.009320236 -0.004555012 0.06827881 -0.107663825 -0.005751719 -0.03183551 0.07468155 -0.105404615 0.012399049 0.062216308 -0.08329542 0.10739186 0.104206264 -0.06631058 -0.0332707 -0.009625578 0.024755204 -0.07261407 0.06663733 0.026850728 0.116779156 0.016500933 -0.013458534 -0.09962457 -0.13783748 -0.017762648 -0.058718238 -0.0022802115 -0.080786884 0.0604254 0.0069563915 -0.038474895 -0.0529614 0.12829442 0.041106418 0.052042875 0.021758415 0.05273557 -0.03451365 0.039770193 0.06714262 -0.07128993 0.023513842 -0.09057103 -0.035524614 0.032851167 -0.054163706 -0.017222928 -0.044345815 0.027000397 -0.12814729 -0.017118677 0.109653 0.10009239 0.10646052 0.1260087 0.042401444 -0.0006873545 0.03048335 0.012216111 -0.05020945 -0.06296827 -0.016996631 0.09325092 0.105092905 0.028556162 0.21486598 -0.16969317 0.12028844 -0.004217273 -0.07188078 0.025662718 0.0062195985 0.01867273 -0.025047129 -0.2142609 -0.024626516 0.05331766 -0.047380656 0.0848219 0.0034425042 -0.033713054 -0.07605667 0.1383056 -0.07085674 -0.016524259 -0.060957987 0.04956129 0.046611544 0.008647789 0.04479435 -0.15063179 -0.088050224 0.008039027 -0.093342565 0.13226382 0.10262654
201326 -0.0217624 0.009115363 -0.033331834 0.057627436 0.08833229 -0.012597103 -0.14785488 0.050042048 -0.07453518 0.022018664 -0.0055330326 0.019714681 -0.07839127 -0.075996056 -0.038713846 0.22174437 -0.025578443 -0.06911373 0.04142275 0.04814872 0.041464604 -0.20990026 0.061204355 0.10395733 -0.039782874 0.011874303 0.07097543 -0.04075541 -0.08617402 0.04128272 0.030376928 -0.0040513324 0.0006450967 0.120020166 -0.07243075 -0.062421646 -0.005853722 0.064298466 -0.07975643 0.01888929 0.05330402 -0.07053361 0.076730765 0.11341309 -0.07692822 -0.033192445 0.012684047 -0.0066108312 -0.040255845 0.11934868 0.087771624 0.15220152 0.0060406313 -0.042332917 -0.123179555 -0.1415776 -0.060043186 -0.070016846 0.05874229 -0.054057382 0.07881703 0.040181182 -0.12021626 -0.010189727 0.1923067 0.10501102 0.040639225 0.0126177 0.03147174 -0.038486652 0.076040484 0.07205875 -0.063224316 0.016695416 -0.11425343 -0.056001898 0.06574838 -0.07651975 0.0053908983 -0.106974676 0.035906218 -0.14840436 0.003058797 0.106972195 0.12634975 0.097307265 0.14156958 0.06349127 -0.010820858 0.03733239 0.03970587 -0.048653368 -0.040571816 -0.0885124 0.09807242 0.19782583 0.0306223 0.3021648 -0.15451379 0.10232838 0.03163635 -0.025529098 0.08047331 0.05589496 0.058189478 0.0022544141 -0.21315107 -0.003072548 0.050264068 -0.0332337 0.07736233 0.018568058 -0.028161641 -0.17586586 0.21207568 -0.070243046 -0.030493587 -0.1268441 0.009466072 0.02848869 -0.03334385 0.0867012 -0.17822675 -0.08825643 0.059000745 -0.08282743 0.15201339 0.09320033
201327 0.03699153 -0.026165107 -0.021590052 0.0006210651 -0.0021997052 -0.011157203 -0.06984342 -0.009551252 -0.004167032 -0.039734833 -0.015577556 -0.029595505 -0.007918998 -0.022233 0.00281877 0.028249647 0.0214504 0.00093941786 0.020622853 0.012459547 -0.016925415 -0.023467362 0.056190606 0.028709853 0.013263675 -0.010792256 0.038351852 -0.006552364 -0.017903492 0.025040563 -0.017831339 -0.009052215 -0.010496177 0.034494005 -0.017794043 0.027508426 -0.006561683 0.02579212 0.014187528 0.021144342 0.014454978 -0.037805703 0.04876997 0.027814496 -0.009199303 0.010081211 0.0134722395 -0.011621373 -0.019679643 0.012371001 0.011508051 0.015871739 -0.020431833 -0.01774973 -0.035019174 -0.037222337 -0.010181042 -0.046409406 0.0024323477 -0.043726657 0.010201226 -0.01584536 0.010256397 -0.028972402 0.03403171 -0.047545474 0.048900828 0.023686018 0.012894843 0.015264874 -0.026049139 0.037004158 -0.001876308 0.013717777 -0.029130021 0.028644027 -0.004599329 0.0036598747 0.0091424305 0.018025016 0.042674813 -0.026668102 0.032907832 0.02344251 0.053457454 0.02589864 0.059928324 0.015472079 0.024325889 0.016733022 0.05014518 -0.0044170404 0.013536233 -0.029250884 -0.020544838 0.022507519 0.043096393 0.041248456 -0.02944987 0.013791864 0.0075543527 -0.021464737 0.03445332 0.05077764 -0.034134045 -0.021140674 -0.052127473 0.0062972405 0.015788263 -0.014500198 -0.0019958727 0.004376434 -0.02223307 0.0062406952 0.034378666 -0.03501785 -0.0005805901 0.010210708 0.02003369 0.024506953 0.0024237563 0.027874002 -0.035473283 -0.016535586 0.0009503714 -0.039514367 -0.011205983 -0.0040884377
201328 -0.0007392884 0.0002245308 -0.00017581685 0.0005793851 0.0036788916 0.0023303905 0.0004059968 0.00030453326 -0.0008591627 -0.0013117002 -0.0029553138 0.0013740131 0.0027724553 0.0037482388 -0.0011516205 -0.0036246623 0.0012709214 0.0016668809 0.00035382545 -0.0037437808 0.00280156 -0.00057907257 -0.00033245407 0.0008009809 -0.0031786542 0.0004768145 0.001281867 -0.00018107829 0.0027930324 -0.0026556961 0.0032883675 0.0020919857 -0.0021698212 -0.0005690516 0.00335154 0.0030037947 -0.0033337662 0.003569823 -0.0019244166 -0.0012759551 0.00043343092 0.0021083914 -0.0006833868 0.0030043332 -0.0021968833 0.0005792291 0.0024049594 0.0018232045 0.0008706869 -0.0001024119 -0.0036142657 0.0029317003 -0.0028282115 -0.0038425925 -0.00075908593 0.00306719 -0.00024831315 -0.0015354081 0.0007883418 -0.0004956806 -0.0008790489 -0.0012475891 -0.0035286439 -0.0019958091 -0.00082798325 0.00080420135 0.0017135878 0.0010399624 -0.003777783 -0.0035421762 0.0014025725 -0.0014109053 -0.0006917567 -0.0011776919 0.0028029527 -8.741032e-06 -0.0036007885 0.0031351608 -0.002190687 0.0010820349 0.00021574524 0.0016859188 0.0029731388 0.00081491674 0.0008878726 -0.00065928494 -0.0033803012 -0.0029130292 0.0006782331 -0.0028071404 0.0033379204 0.00049286126 -0.0033490327 -0.0036820222 -0.00077846105 0.003074047 -0.0016862347 -0.0033434175 -0.0013469334 0.0025461225 -0.0038472288 -0.002456368 -0.00073133234 -0.0018279457 -0.00051219336 -0.0017590888 -0.0005144879 -0.0029115896 -0.0037169603 0.0025718817 -0.0025384005 0.0011767587 0.0013124231 -0.00043678618 0.0004059768 0.00030824722 -0.00087542215 -0.00020419648 -0.0012384653 -0.0008197909 -0.0038240738 0.0026824798 -0.0023137422 0.0018689203 -0.0019798304 -0.0025121174 -0.0030214388 -0.0013295757
201329 -0.105454355 0.13271172 0.07552527 -0.10730656 0.15441379 0.123859026 -0.048023634 0.14539956 -0.020626217 0.0042722966 0.007930851 -0.0042799297 -0.044222813 -0.157733 -0.07258321 0.14083232 -0.14571697 -0.2230913 0.047460213 0.073463745 0.22562703 -0.2931239 -0.121630065 0.35311565 -0.16351432 -0.051587928 -0.100341134 0.010919468 -0.1170445 -0.16179055 -0.04098778 0.12868886 0.10157051 -0.048697673 -0.25116175 -0.16226678 0.019777596 -0.030782748 -0.3888583 -0.15323675 0.002506395 -0.17536609 0.106307395 0.049018282 -0.09899225 0.049357586 -0.018155 0.1614251 -0.0301272 0.028680345 0.07321398 0.12360914 0.1680627 -0.18740582 0.020133324 -0.14499299 -0.02178596 0.08291362 0.09510771 0.11243733 0.17715266 0.14875516 -0.17589863 0.099681064 0.15448728 0.34184837 -0.08562236 -0.11660374 0.10110813 -0.19861981 0.31348875 0.03850442 -0.120892785 -0.0038297896 -0.19946082 -0.16133985 0.04649187 -0.2308536 -0.020321826 -0.07718009 -0.20619446 -0.05630553 -0.11817912 0.05273304 0.050270516 0.15848792 0.0019356573 -0.11612419 -0.33387384 -0.08838373 -0.14139612 -0.09945223 -0.24800353 0.02916776 0.29627848 0.085100256 -0.10287354 0.3369373 -0.21471943 0.2282945 -0.14803818 -0.030940192 -0.19517079 -0.283572 0.448724 0.036919814 -0.2717683 -0.16996314 0.111786276 -0.028385 0.33153132 -0.076424636 -0.061466444 -0.22131953 0.11862422 -0.0020248313 -0.24871905 -0.14026973 0.024044743 0.002909894 0.09028208 0.009757772 -0.24106961 0.008253165 0.2023907 0.080644816 0.47316462 0.28959677
201330 -0.09082289 0.11057921 0.067408495 -0.10217586 0.14755054 0.096817784 -0.08580974 0.049078446 -0.018514084 0.05886328 0.028169492 -0.020788893 0.002888979 -0.18757883 -0.077167645 0.11877239 -0.14169323 -0.18693769 -0.015650015 0.01280155 0.22917743 -0.27611977 -0.11719518 0.2837982 -0.1358763 0.005880397 -0.078266904 -0.005178628 -0.029893631 -0.1379171 0.026247784 0.07658634 0.084290735 -0.09997232 -0.17684162 -0.23122339 0.052886095 -0.06280773 -0.3549542 -0.15140234 0.038145836 -0.15227936 0.068504736 0.062369347 -0.077561624 0.0779751 0.035931304 0.19842245 0.0006311465 0.061814506 0.086642325 0.13823307 0.108344376 -0.1511052 0.00071116304 -0.13009141 -0.09300089 0.08009944 0.17142394 0.09239134 0.01991661 0.19703268 -0.23438384 0.10979867 0.24004169 0.36506397 -0.055687867 -0.13089137 0.10191484 -0.112218894 0.34365514 -0.01454922 -0.15278865 0.045800738 -0.2289386 -0.18573664 0.04135668 -0.22122821 -0.052253027 -0.15677477 -0.22508906 -0.07666002 -0.11416017 0.07714559 0.066802256 0.15372261 0.034492422 -0.13937911 -0.28097153 -0.05831582 -0.15742849 -0.043762952 -0.14924581 -0.038660955 0.26428732 0.103338726 -0.030663148 0.36413544 -0.13089749 0.20295103 -0.10469482 -0.07589952 -0.19225265 -0.18527628 0.37157747 0.0416605 -0.29416993 -0.17648081 0.10880315 0.068293706 0.3389285 -0.059881024 -0.0600118 -0.2630442 0.18691215 0.04326707 -0.14601982 -0.20458648 -0.013023233 -0.0031860864 0.023905689 0.037494868 -0.26375926 -0.009036936 0.18381338 0.006345762 0.4976334 0.2837695
201331 -0.014506883 0.0049010837 -0.042816382 0.07351291 0.05314302 0.018296989 -0.1607642 0.04066847 -0.060258146 0.00050304487 0.010082388 0.01146891 -0.074871376 -0.06033933 -0.04939304 0.2330901 -0.011649829 -0.050642345 0.036933087 0.022177853 0.046574734 -0.20263144 0.0808091 0.09646673 -0.03999888 0.02478593 0.09369602 -0.0293039 -0.06769866 0.055853963 0.0103394 -0.008149312 -0.0006569244 0.08723209 -0.09190484 -0.07756921 -0.039140414 0.04902807 -0.06973081 0.010911833 0.04702421 -0.0639213 0.06919838 0.09319762 -0.064420745 0.0021219286 0.0075185033 -0.0043783495 -0.023674484 0.11909188 0.06673598 0.13990752 0.009783526 -0.025032995 -0.13035709 -0.11048395 -0.056500588 -0.10325773 0.039161716 -0.08395923 0.04101679 0.044570763 -0.1126191 -0.039092906 0.18019794 0.11596879 0.04032867 0.02077848 0.0345132 -0.027739288 0.060532197 0.06757578 -0.07247288 0.030216532 -0.11684718 -0.052882437 0.053517748 -0.07669912 -0.0020540066 -0.12139425 0.044369318 -0.120137 0.010474573 0.097994365 0.13788319 0.090843424 0.15297666 0.03455992 -0.025161427 0.052337434 0.016426247 -0.036675543 -0.018466366 -0.077062756 0.07883112 0.17444572 0.023540195 0.26238373 -0.1451363 0.12326879 0.028924624 -0.056490492 0.04427119 0.030694483 0.0320878 0.016628535 -0.22945446 0.017128808 0.022780726 -0.030661434 0.0832417 0.042287946 -0.023915494 -0.14726809 0.20882864 -0.04091448 0.001242683 -0.13802575 0.018258164 0.014772233 -0.009723687 0.059410986 -0.17965168 -0.07317443 0.05865041 -0.10584849 0.123027265 0.1043259
201332 0.009467486 0.0059579406 -0.03848718 0.050164048 0.020120762 0.041985195 -0.18795255 0.05282708 -0.02645999 -0.046949875 -0.0129389325 -0.032292943 -0.05484625 -0.06801448 -0.037772957 0.20493405 0.0024264683 -0.0532446 0.073999785 0.014622355 0.031590566 -0.18785259 0.08981551 0.13576262 -0.03245427 0.0004699295 0.11061955 -0.052559435 -0.08963971 0.05629698 -0.018713055 0.013427453 -0.0061542317 0.06277857 -0.10997164 -0.057757687 -0.07544074 0.0641453 -0.047334824 0.023412146 0.014630958 -0.0773544 0.09743375 0.098942 -0.04850706 0.029385563 0.002618807 0.009853383 -0.032491937 0.096326165 0.07052719 0.11972982 0.0036274993 -0.008602671 -0.12029539 -0.10680501 -0.0416192 -0.12945797 0.02895722 -0.117128186 0.052586757 0.0037987682 -0.06451994 -0.06179051 0.16174111 0.06748908 0.05453467 0.033713274 0.032828078 -0.0009019306 0.010733069 0.082386576 -0.082408994 0.02709371 -0.1275706 0.0018317279 0.0077345623 -0.038649794 -0.0017368289 -0.080183156 0.024331672 -0.11083185 0.021722648 0.0899615 0.15309915 0.10369018 0.152943 0.021572359 -0.018000655 0.06496923 0.03859083 -0.027700463 0.003919605 -0.0746483 0.048636448 0.1547581 0.048978765 0.21356972 -0.14302298 0.122169964 0.04117171 -0.07889147 0.04135834 0.027020354 0.011529015 -0.009473405 -0.23076229 0.0034024268 0.03884251 -0.033076048 0.08177436 0.04309189 -0.015634554 -0.08126991 0.15669738 -0.06424587 -0.007821301 -0.08559219 0.06616511 0.037889544 0.008870205 0.058367815 -0.15618661 -0.09501656 0.023220634 -0.10617414 0.099033676 0.1170631
201333 0.04912112 0.014206071 -0.039325077 0.010873819 0.11194431 0.12500556 -0.18809706 0.053761754 -0.08099288 -0.069770664 -0.07943396 -0.010994264 -0.030207206 -0.009052882 -0.07941735 0.20630448 0.0296318 -0.0868472 0.1161346 0.053787205 0.05515199 -0.27905297 0.020476155 0.14752692 0.017393187 0.029429695 0.07865536 0.00796893 -0.101425536 -0.01819814 0.024181392 0.016066374 -0.021977073 0.017796814 -0.15007311 -0.054844465 -0.08916867 0.09825821 -0.056818787 0.0064026266 0.05488778 -0.06060628 0.086370684 0.09076067 -0.12422203 0.029380467 -0.021532316 0.014497471 -0.039251946 0.08319052 0.06496339 0.12183219 0.026453003 -0.07003671 -0.16523568 -0.17998777 -0.015710542 -0.10276413 0.050340574 -0.059175868 0.056450836 0.08627764 -0.14936446 -0.035094168 0.1788962 0.11490855 0.04100992 0.020135801 0.032122727 -0.06472027 0.07538033 0.048510704 -0.11359714 0.030489512 -0.12999657 -0.03663911 0.03545206 -0.09172343 -0.08652473 -0.037699938 0.016344575 -0.12655732 -0.05290653 0.050403163 0.1847994 0.10328191 0.17026411 -0.07744342 -0.039791655 0.03187641 0.058377504 -0.1253987 -0.01457084 -0.06145608 0.0929086 0.16080314 0.09197954 0.30406976 -0.17715302 0.1635139 0.011232302 -0.119635984 -0.012118418 -0.020899896 0.040161017 -0.032932125 -0.26378754 -0.026584504 0.027480612 -0.073573925 0.14479737 -0.0142736705 0.028450347 -0.07337139 0.15036109 -0.09562316 -0.04420782 -0.09361072 0.09412509 0.044881556 0.020802228 0.007319721 -0.20581639 -0.09405347 0.0333025 -0.12953886 0.15304337 0.18631868
201334 0.041519593 0.03744068 -0.0016553308 0.0042993156 0.162952 0.09720455 -0.28406158 0.12703767 -0.07769337 -0.08688214 -0.0543366 -0.023521513 -0.13556945 -0.06955539 -0.11926459 0.33268356 -0.012729816 -0.102673925 0.15000838 0.0316405 0.11016883 -0.30775508 0.024680281 0.15328184 -0.08351654 0.028347515 0.07056409 0.08179029 -0.07064956 0.027184844 0.091268264 -0.02769108 -0.016833134 0.048365492 -0.23129116 -0.09220379 -0.12112883 0.12811257 -0.10410287 -0.017715573 0.107102394 -0.1744638 0.12130529 0.08238521 -0.15863654 0.028198477 -0.024402043 0.021818876 -0.04112817 0.10775095 0.06667919 0.12218613 0.058622394 -0.014440733 -0.16470954 -0.14973512 0.043204974 -0.14620915 0.0387009 -0.053902537 0.11075298 0.07023484 -0.11769613 -0.071635894 0.21455576 0.12802224 0.020464512 0.020200228 0.043910507 -0.0984543 0.073350765 0.078622065 -0.14128503 -0.0080444785 -0.09856173 -0.062823206 0.050989565 -0.12117552 -0.117298715 -0.03766714 0.002727539 -0.16066246 -0.014051092 0.12224878 0.16948709 0.06762645 0.22135259 0.00039524637 -0.13407375 -0.031087397 -0.020628989 -0.116890356 -0.078026235 -0.042217735 0.14883947 0.14745809 0.03808125 0.36909765 -0.24291302 0.19225122 -0.05283462 -0.13822424 -0.018650366 0.0040274886 0.09064394 0.014489264 -0.36890644 0.016106261 0.034278784 -0.17168899 0.11112776 -0.03305035 0.01564116 -0.09896118 0.15659511 -0.10684328 -0.07114862 -0.14454176 0.12456157 0.084939025 0.07485511 0.006503266 -0.30917305 -0.060799498 0.012872384 -0.10236297 0.21006158 0.20728052
201335 0.032641113 -0.02875309 -0.030231707 0.0176228 0.0017582917 -0.014620064 -0.06611166 -0.00934656 -0.011311674 -0.021799594 -0.030486384 -0.01382308 -0.01346224 -0.013471011 0.013728346 0.041900966 0.025826268 0.00090943975 0.01964216 0.0117183905 -0.016431483 -0.0394825 0.051604997 0.029852293 0.016352478 0.0019247836 0.05040808 -0.022817627 -0.032569565 0.040043097 -0.011772157 -0.008401933 -0.008249366 0.05114521 -0.008503506 0.030859886 -0.014535787 0.030334622 0.026785852 0.03140782 0.0069455532 -0.021488626 0.030301902 0.02915757 -0.015909495 -0.004383741 0.009173443 -0.01863152 -0.0112485755 0.024983706 0.02400748 0.03228552 -0.014931289 0.00039211393 -0.04357522 -0.042798575 -0.02415081 -0.06007611 0.0027560503 -0.052978035 0.015840407 -0.014120453 -0.0005604986 -0.02462487 0.04134001 -0.041328788 0.047283392 0.02622576 -0.00070236996 0.022518944 -0.026333408 0.034136135 -0.010310111 0.0088324435 -0.01861947 0.03031114 0.012780783 0.0066124788 0.00091264135 0.002100755 0.04443914 -0.033703215 0.030748622 0.03240768 0.053040948 0.02709883 0.057711586 0.023221761 0.054182775 0.035758805 0.051510885 -0.0024706847 0.019330136 -0.03537849 -0.019814564 0.048673257 0.042399954 0.05711928 -0.02664382 0.0024748992 0.020837111 -0.007402923 0.04685647 0.05990322 -0.043082517 -0.013012089 -0.043393914 0.0150689 0.019153215 -0.008610965 -0.010896374 0.01640112 -0.007445394 -0.0024792515 0.04293443 -0.043930102 0.010276543 -0.0011759892 0.021481005 0.024435105 -0.0021031161 0.03211119 -0.022384858 -0.02659568 -0.009927211 -0.04876541 -0.02076233 -0.0039771325
201336 0.00042394965 0.0038350136 0.0037122779 -0.00061690575 0.00101416 0.0008607827 -0.0018078883 0.0034572277 -0.0030918315 -0.0017029508 0.0025030598 0.00088630454 -0.0005628504 -0.002825759 0.00014305793 0.0008257986 0.0023071447 0.0037970718 0.00024340682 0.0016356631 -0.003605439 0.0013472459 0.0029377092 -0.002404251 -0.0038522347 0.0012535627 0.003738995 -0.00032925382 -0.0026884377 0.0033589706 0.0032419784 1.2384145e-05 0.0005440737 -0.002404821 0.0036483645 0.0016688547 0.0007459203 -0.0026365563 -0.0025026083 -0.00051287445 -0.003619273 -0.0023653726 -0.0022658673 0.0032912516 -0.0017936868 -0.0016046814 0.002172304 -0.0012433853 0.0037736273 0.0018773176 0.0019322886 0.00036009745 0.0004540627 0.0026222616 -0.00086640706 -0.0021388538 -0.0013060356 0.0037586708 -0.002519806 -0.0028852052 0.0035254508 -0.0011929868 -0.0020977727 -0.0011656336 -0.0030825066 -0.0018228772 0.0037134108 -0.0033834467 0.0030670054 -0.0015802816 -0.0031995683 -0.0019336828 0.0010947883 -0.0029028475 -1.0282265e-05 0.0033120243 -0.00015314585 -0.0015322382 0.0024356998 0.0021219875 -0.0023343936 -0.00074518035 -0.0019059802 -0.001060189 -0.0024526017 0.0034911968 0.0025865596 -0.0033951295 -0.0027059882 0.002258182 0.0023757338 -0.0024937536 -0.0026867138 7.98704e-05 0.0002047364 0.0026412646 0.00040506892 0.003335681 0.0022408734 -0.00048594616 0.00025924222 0.00076607696 -0.003739525 -0.003591645 0.003723734 0.0024216063 0.0033553329 -0.003610181 -0.002323338 0.00067073933 0.0020776724 0.0011272024 0.0032955303 -0.0033831715 -0.0016988387 0.0007800486 0.002976888 0.0010428308 0.0012483221 -0.0013979932 9.8304496e-05 0.0036079995 0.0038096686 0.0022713328 0.0032841167 -0.0017553116 -0.00189083 0.0022187938
201337 -0.009202499 0.0015424222 -0.037950326 0.053938713 0.023471352 0.04528403 -0.17269807 0.054682553 -0.029483901 -0.026302978 -0.016296886 -0.036782578 -0.023258954 -0.055836145 -0.03698327 0.19644491 -0.0017791165 -0.05663839 0.06883318 0.019461438 0.02840948 -0.19267294 0.06666585 0.1258151 -0.017099014 0.02542238 0.09931875 -0.07736455 -0.090050966 0.061368935 -0.016960083 0.017682755 0.0009325319 0.06768042 -0.09840207 -0.055160966 -0.07458544 0.07113028 -0.04379459 0.018259479 0.014907057 -0.05013405 0.101220034 0.09573692 -0.02904753 0.03519578 -0.0027164198 0.01978368 -0.0336056 0.10190964 0.08532279 0.13216086 0.0069620614 0.002619455 -0.09540676 -0.107219175 -0.041277505 -0.1177539 0.0174018 -0.09947656 0.03545094 0.013250443 -0.058850985 -0.039036237 0.14169733 0.0570721 0.060489893 0.042676207 0.024604268 5.23965e-05 0.009358779 0.074591585 -0.07205574 0.019379655 -0.10677859 -0.0040765405 0.014865449 -0.036769208 0.021263568 -0.098296076 0.037201963 -0.109434254 0.01165249 0.108660184 0.1453457 0.08425492 0.13773856 0.015650695 -0.0011092983 0.0669608 0.025372839 -0.018427743 -0.00022797922 -0.06645901 0.054895464 0.1472718 0.038694415 0.21165124 -0.12806728 0.1003165 0.049615648 -0.07793379 0.03218352 0.021699056 -0.011364169 -0.011061206 -0.21447437 -0.018256629 0.052955683 -0.012766518 0.09653201 0.039552674 -0.017838182 -0.07860184 0.15018049 -0.055038974 0.004217555 -0.086205624 0.06605572 0.0072882352 0.011000477 0.05190024 -0.12367071 -0.08605283 0.005819866 -0.10194865 0.09447657 0.121413365
201338 0.017575257 -0.01151959 -0.020393685 0.025659343 0.011686961 -0.00079485483 -0.048686173 -0.0031617768 -0.017895112 -0.02146656 -0.01094602 -0.016996061 -0.007081091 -0.003383819 0.0013199756 0.038875386 0.013848277 0.001252507 0.0144557655 0.014980182 -0.01426192 -0.031221205 0.035368636 0.0066693197 0.019485937 0.013157131 0.036913253 -0.014348073 -0.026030745 0.024808627 -0.0036194716 -0.008990042 -0.012802112 0.041694272 -0.0006392999 0.017623555 -0.019673858 0.023853058 0.028447388 0.024971588 0.0063853664 -0.009569424 0.020166041 0.030865258 -0.006580188 -0.004181964 0.00389363 -0.017317763 -0.014241539 0.023738338 0.023015374 0.021074913 -0.011790493 -0.0050475276 -0.03569344 -0.03981032 -0.010852407 -0.04041839 0.00046951708 -0.038043704 0.010648252 -0.009175059 -0.003914802 -0.019431936 0.034248065 -0.031622093 0.03371031 0.023207724 0.00083669927 0.0029783766 -0.026818026 0.026442152 -0.0038511283 0.009948058 -0.020154534 0.022826279 0.008930916 0.0027889959 0.000938475 -0.0034389943 0.04484241 -0.03801319 0.021297157 0.023254246 0.040605042 0.019964833 0.045118485 0.022450583 0.037102077 0.016892409 0.048603356 -0.013337651 0.019277321 -0.025430804 -0.016552089 0.040178075 0.033832736 0.044704095 -0.03016107 0.005864419 0.017880103 -0.010071431 0.039882176 0.038314823 -0.047579154 -0.01851828 -0.034227353 0.007404858 0.007351146 -0.0057970714 -0.00453043 0.009292872 -0.0060672257 -0.0076815505 0.032348175 -0.029920222 0.009749661 0.0012567372 0.01998012 0.007434177 0.0006001191 0.020954393 -0.022194684 -0.032077763 -0.017208382 -0.04241216 -0.01878047 -0.0002545294
201339 0.09004007 -0.018979548 -0.09588333 -0.017980276 0.0897532 0.0016230568 -0.20248477 -0.062322907 -0.021315144 -0.003658575 -0.016053682 -0.04475404 -0.1480226 -0.077991754 0.023934953 0.17919382 -0.0044768453 -0.040783852 -0.0227678 0.064618774 0.069854274 -0.1419394 0.15710825 0.18080021 -0.013075611 -0.12140197 0.0866 -0.043100026 -0.065591365 -0.019774266 -0.13071103 -0.031314045 0.083827265 0.1854153 -0.09556589 -0.062228754 -0.0072749564 -0.013610568 -0.04860838 -0.046046313 0.033402186 -0.18150844 0.06254525 0.1315929 -0.08113368 0.096555956 0.066695586 -0.015623883 0.05900143 0.1842351 0.110094614 0.04699443 -0.01655458 -0.18500978 -0.16299252 -0.16451685 -0.17193992 -0.1631135 0.07212703 -0.053553127 0.08705381 0.013456872 -0.110665426 -0.064323395 0.17990243 0.029887028 0.08926987 0.061136086 0.052515823 -0.08671877 0.059757397 0.11197686 -0.0050668223 -0.013035038 -0.17259419 -0.027241785 0.03355598 -0.15471503 0.027962415 0.012738637 0.16142796 -0.040622078 0.06189962 0.14951892 0.22858316 0.16051853 0.21458353 -0.013923001 -0.10206618 -0.0028124985 0.16366816 -0.00664299 0.024514036 -0.13750693 0.053717222 0.093877085 0.119678386 0.27237725 -0.16062948 0.12998673 -0.02965679 0.06852524 0.14468381 0.101149075 0.2136593 0.008678777 -0.15583982 0.006587324 -0.038840253 -0.05071734 0.04223023 0.020442232 -0.066318244 -0.14885293 0.25695196 -0.12844318 -0.10854516 -0.18847384 -0.05955221 0.059978817 -0.015629353 0.09399447 -0.35559246 0.025320591 0.169644 -0.06258438 0.0709165 0.025367405
201340 0.0012645259 -0.0023258948 0.0012651621 0.0037190847 0.0013207335 -0.0012741443 -0.0019822887 0.00021783216 -0.0038278596 -0.0017970881 -0.0003289063 -0.0006166668 -0.0016914671 2.1270644e-05 0.0025948705 -0.0038659342 -0.002556172 0.0028036986 -0.0020698605 -0.0023075012 -0.003015505 -0.0038849807 -0.0019032286 -0.0028845284 -0.0028904285 0.0021511037 0.003625168 -0.0007978843 0.0019739163 -0.0036212918 -0.0033497978 0.0029821463 -0.0022074245 -0.00023446108 0.0023445294 -0.00094283285 0.0026774646 -0.001471634 -0.0012003838 -0.0002522257 -0.0030074012 0.0037645649 -0.00088886457 0.0020602625 -0.002604576 0.0012033122 0.002405225 -7.888803e-05 0.0020523963 -0.0031095762 0.0018579173 0.0027691836 0.0034874172 0.0037871262 0.0034101433 -0.0023252298 -0.00017130798 0.002542764 -0.00071689236 -0.0015230974 0.000679686 -0.0019266933 -0.00307709 0.00077774737 -0.0006049541 0.0019404654 0.0034800046 0.0029214616 0.0028993434 0.0025955357 0.0018082286 0.001382888 0.0021087045 -0.0022676415 0.0020345917 0.0030161329 0.0037141438 0.0018936362 0.0018044588 0.00365821 0.000994864 0.0039017485 0.0007724011 -0.00075715245 0.0037578745 0.0021625957 0.0013184628 0.0024768142 -0.000109062756 0.0013500077 -0.0022088438 -0.00020042596 0.0035366088 -0.0015626702 0.001422745 -0.00030094112 0.00082584354 0.0027927507 0.0019280794 0.0016269269 -0.0032743064 0.003738424 0.0027389096 -3.788542e-05 0.0001322122 -0.0030023262 -0.0022928605 -0.0014871923 0.00035814615 0.0005592847 0.0023750053 0.001110746 0.0036264355 0.0020625654 -0.00042136473 0.0035963124 -2.7993465e-05 -0.0022195436 0.00059041654 0.0011040008 -0.0020832398 0.0010191413 -0.00031880956 0.0010799103 -0.0002739397 0.0035484205 -0.0032539258 -0.0017970727
201341 0.14001887 -0.027697068 -0.16086172 -0.006181821 0.09038016 0.043655075 -0.30381352 -0.11091293 -0.04379946 -0.04169501 -0.019436125 -0.12310343 -0.21761352 -0.08284855 -0.011595483 0.24831493 0.046783227 -0.05573014 -0.011877599 0.064679034 0.08992458 -0.20762222 0.25145188 0.18733512 0.04538825 -0.1723078 0.17932439 -0.10862732 -0.06663788 -0.012625401 -0.13320732 -0.12002117 0.10507081 0.2672609 -0.14780678 -0.06532171 -0.0579328 -0.016660796 0.029752096 -0.03069871 0.022681335 -0.21779941 0.040767867 0.16564304 -0.07563755 0.17841521 0.08057239 -0.045850683 0.07171085 0.26899835 0.15682961 0.006656899 -0.095348895 -0.23260044 -0.25034687 -0.24972624 -0.23846632 -0.2670461 0.0810734 -0.09116573 0.1408593 0.024365734 -0.14607562 -0.041195754 0.25169894 0.06062757 0.08997419 0.08908222 0.022048049 -0.13382664 0.052881505 0.18330082 0.01313915 -0.010840726 -0.23068416 0.0047876365 0.04101266 -0.21571258 0.0111512495 0.013980864 0.23596022 -0.049004156 0.10159305 0.19803399 0.38408875 0.17629814 0.24902935 -0.05845746 -0.09825423 0.043385535 0.2506379 -0.017356781 0.08010128 -0.22967075 0.029864611 0.1836374 0.18063918 0.35885656 -0.18944287 0.14805113 0.005112033 0.08064801 0.14976652 0.16836716 0.2627738 0.047097694 -0.20330049 0.0008957683 -0.019989703 -0.10004596 0.018030599 0.03861783 -0.03299721 -0.16770418 0.3164618 -0.21751688 -0.12037939 -0.2593548 -0.101415955 0.08473095 0.0048779747 0.079887174 -0.43690956 0.03289071 0.194587 -0.1452593 0.052548148 0.03304936
201342 -0.0034145114 -0.0013668725 -0.0009530168 -0.0017594007 -0.003247408 0.00067100587 -0.0011061179 -0.0038512705 -0.0016882636 0.0011127491 -0.0036906858 0.003305143 0.0028473577 0.0025715695 0.0010736095 -0.0020698206 -0.0016512868 -0.003877283 -0.001313347 0.00094142504 0.00024752124 0.0024182322 -0.00179156 0.003480534 -0.0025449877 0.0021199656 0.0022864335 -0.0016618811 -0.0014626292 -0.00058903743 -0.0010036418 -0.0031393957 -0.0007125903 0.002011208 -0.0033373977 0.0015255644 -0.0033007788 -0.0007183218 -0.0016759069 -0.0025382512 0.002919258 -0.00035404548 -0.0012601647 -0.000728623 -0.0018491143 -0.00096983835 -0.00078782096 0.00040626238 -0.000864131 -0.00081645703 0.0029222565 -0.0011474055 0.0023619498 -0.0033175948 -0.0008317967 -0.0025782387 0.0026321847 -0.0025732708 -0.002708481 0.0007397986 0.00078924216 -0.0018987128 0.000545369 0.0029281916 -0.0006776234 0.0036804138 0.0009439226 -0.0015982093 -0.0037357132 -0.0019572352 -0.00038073436 0.0015362621 -0.00030343252 0.002349309 0.0035764368 -0.0037557925 0.0036263275 -0.0030455075 -0.0031035307 -0.0023711454 -0.001150188 -0.0031611107 -0.0009268171 0.0011923616 0.0011285596 0.0021661976 -0.0024054905 -0.001743578 0.00018214762 -5.9326234e-05 0.0033855396 0.0006606607 -0.0007830661 -0.002109123 0.0024516506 -0.0013006947 -0.0028083553 -0.003389006 0.002709287 -0.0016514165 -0.00047710395 0.0011093996 -0.0027277914 0.0005617871 -3.4089742e-06 -0.00308164 0.0021845747 0.0022439032 0.0021962968 -0.00054171047 -0.0033577466 -0.00029804523 -0.0035625794 -0.0024639321 -0.0010330301 -0.0032841759 0.0002888641 -0.0007743554 0.003887705 -0.0010208171 -0.0005784768 -0.001231147 -0.0014156088 0.0022872502 -0.0003946557 0.0004336803 0.0020537076 0.0018106141
201343 -0.0045138244 0.008194499 -0.019228468 0.056089234 0.023028223 0.044887867 -0.16549796 0.036219824 -0.024313068 -0.026877984 -0.011171542 -0.03701279 -0.04637297 -0.06417764 -0.035391767 0.19346596 0.00684576 -0.044855308 0.04643254 0.016866704 0.03106611 -0.1774003 0.07771423 0.12803301 -0.019381708 0.0016090367 0.10389633 -0.06672521 -0.08317072 0.049024764 -0.03766508 0.018505806 0.0022173913 0.07396122 -0.100756176 -0.058876395 -0.068292335 0.05693293 -0.05041997 0.007098297 0.01083749 -0.063286506 0.08445737 0.10716188 -0.026899934 0.041745827 0.0085625015 0.009877051 -0.019191239 0.11348713 0.08246988 0.12504607 0.009688771 -0.024715241 -0.09971104 -0.097251184 -0.05844705 -0.10647345 0.039486878 -0.10182269 0.039923076 0.0065393033 -0.07934032 -0.031938754 0.15291084 0.07138643 0.0685512 0.04345211 0.01676759 0.00059428334 0.0064375475 0.08172072 -0.059527036 0.031374652 -0.12780961 -0.013556068 0.012544499 -0.043943413 0.022850974 -0.09133333 0.032794345 -0.09577183 0.014005338 0.099306546 0.15212929 0.10269155 0.14143187 0.002715578 -0.014640499 0.048513968 0.03292896 -0.02387892 0.009184229 -0.07764301 0.03572638 0.15214944 0.05063467 0.21565486 -0.13093609 0.112229995 0.04725323 -0.056315407 0.04633848 0.019575475 0.022157095 -0.014679025 -0.20408513 -0.010935541 0.031974986 -0.009184348 0.10304248 0.047550157 -0.024469884 -0.09127963 0.16303775 -0.04272578 -0.0040010624 -0.08755369 0.052700218 0.0069491533 0.010041938 0.049736425 -0.14259818 -0.09179376 0.031185728 -0.091105096 0.08651688 0.123237886
201344 0.02215291 -0.01546327 -0.03258166 0.024808269 0.0022411835 -0.014569815 -0.049012795 -0.014972454 -0.018755902 -0.019593546 -0.025374873 -0.013448463 -0.017834852 0.0015362663 0.00040597975 0.04673429 0.022974698 0.0006882277 0.012226671 0.03026097 -0.0275463 -0.03182274 0.04664296 0.0075154374 0.024409644 -0.0030840666 0.038078424 -0.023716753 -0.027545111 0.028705021 -0.0072890674 -0.015834037 -0.0051498073 0.050790034 -0.0066045937 0.015185257 -0.011654994 0.023678767 0.039378785 0.026586162 -0.0014605237 0.0024468293 0.024005968 0.03805538 -0.0032435635 -0.005805852 0.008754664 -0.023931148 -0.019034622 0.033395723 0.02991983 0.023153033 -0.015230657 -0.011511532 -0.047384415 -0.040179826 -0.028004374 -0.047350474 0.00028994502 -0.043533597 0.029591568 -0.015642455 0.0024048425 -0.02904775 0.031342316 -0.032243576 0.032340843 0.012342757 0.0015489041 0.009847269 -0.037363283 0.030327521 0.009967688 0.010547295 -0.016259776 0.016232936 0.016823897 0.013380953 0.005611637 0.01323339 0.058275916 -0.039060995 0.034148365 0.0338453 0.047923125 0.01441621 0.04471985 0.03854128 0.043056082 0.014713657 0.059447907 -0.009893329 0.017367182 -0.025444781 -0.0081586605 0.041362625 0.028650505 0.054619238 -0.032441646 -0.00010739394 0.031692043 0.0038891912 0.05538813 0.054048795 -0.029327314 -0.0114426995 -0.034308124 0.0018420981 0.01588135 -0.010567793 -0.02904357 0.017006049 -0.010035082 -0.006032543 0.042977076 -0.045403156 -0.00048715068 -0.004351807 0.010879742 0.017913532 -0.0037272251 0.028809026 -0.020602217 -0.032683954 -0.012858947 -0.045036547 -0.034449052 -0.015040969
201345 0.11337905 -0.012934333 -0.13653907 0.021446342 0.07234258 0.03650155 -0.2319631 -0.08065774 -0.027520303 -0.020298254 -0.025303237 -0.05832167 -0.17569654 -0.05482893 -0.006548247 0.22719823 0.047535103 -0.025038727 -0.019208606 0.0547493 0.08116447 -0.17824203 0.194081 0.15482208 0.035848394 -0.15122765 0.1309387 -0.087860756 -0.07195709 -0.01437052 -0.13841541 -0.07242255 0.084291615 0.2178807 -0.12108445 -0.07448499 -0.066537686 0.004695559 0.031291645 -0.043079715 0.013622069 -0.1389466 0.031777244 0.13113652 -0.0535954 0.1636098 0.04419666 -0.044954184 0.078704804 0.25010163 0.15130405 0.014506532 -0.056517527 -0.17959853 -0.21954262 -0.16191436 -0.22162296 -0.2155126 0.075364515 -0.07643628 0.10810133 0.025449317 -0.13514851 -0.05178861 0.19864142 0.039105657 0.055261828 0.09004442 0.030205393 -0.110480435 0.044910047 0.1413098 0.018588597 -0.028865159 -0.1955115 -0.022351734 0.04581285 -0.16236708 0.027820626 -0.023909204 0.20874561 -0.025071397 0.09946794 0.17265157 0.30139434 0.122035965 0.21437702 -0.047107685 -0.11068739 0.017210318 0.20110871 -0.011961099 0.09606291 -0.18130621 0.023960523 0.1361576 0.14529355 0.28868794 -0.15470868 0.13787007 0.0076202652 0.06557186 0.14135815 0.12373935 0.20997074 0.04740065 -0.16585194 0.026054626 -0.048766926 -0.06565354 0.018500742 0.05919585 -0.037116457 -0.14902315 0.2808579 -0.16398135 -0.097358905 -0.20911968 -0.055679448 0.052759375 0.0024127252 0.06365822 -0.366663 0.029357646 0.16854756 -0.11735267 0.017856093 0.015739087
201346 0.001124882 0.0006532346 -4.965571e-05 0.0008219908 -1.830607e-05 0.0011415423 -0.0037743994 -0.0020552296 -0.0030905816 -0.0017714223 0.0012375251 0.002628023 -0.0030462844 0.0010125744 0.0016467873 -0.0014449521 -0.0023242799 -0.0035414377 0.0013163362 0.0022196847 -0.0025850413 0.0036484431 -0.0013202451 0.0037883136 -0.00046046107 -0.002191183 -0.0022962312 -0.00065702136 1.0014709e-05 -0.00039341458 -0.0003839433 0.0020073713 -0.0013623128 -0.0013704783 0.0025129423 -0.0032797046 -0.002865406 0.00014860893 0.002025148 0.0007611847 0.0012654888 -0.002380858 0.0036407136 -0.003825892 0.0037733314 0.001865049 -0.00012779138 0.0029793612 -0.0010596842 -0.0030148195 0.0034123715 0.00385392 0.0022851927 -0.00036250387 -0.0027859316 -0.0012166451 0.0012734924 0.003666002 -0.0013915388 0.00033847181 -0.0027755992 -0.003002228 -0.0034887332 -0.0015048792 -0.0033874682 0.0015798819 -0.00066243735 0.0038799753 0.003678396 -0.0014168802 0.002842896 -0.0007659146 0.0017046107 -0.00010174175 0.0009980373 -0.0017894745 -0.0008353675 -0.0033285655 0.00092621683 0.0024084444 -0.0010541137 -0.0022534109 -0.0012608686 7.177266e-05 -0.0018362111 -0.0021677988 -0.0004883151 -0.001793839 0.0028448699 0.0008202311 0.0025923727 -0.0007257299 -0.0036128038 0.0023621162 0.0008166788 -0.0016896678 0.001986014 -0.0039027187 0.0016730613 0.000867021 -0.0019269631 0.0009499532 -0.0019369364 -0.0017447837 -0.00017868691 0.0033723863 0.0015714788 -0.0028452007 0.0014434239 0.0025176257 0.0016240535 -0.0016614088 -0.00045519293 0.0022867336 -0.0029050412 0.00090794725 -0.0020615289 0.0005114203 0.0012185876 -0.0020284099 0.0018576764 -0.0014418613 -0.0017783721 -0.0002216731 -0.0031438933 6.976275e-05 -3.618886e-05 0.0027974243
201347 0.028344514 -0.022944573 -0.029620746 0.020656908 0.0038516885 -0.009127175 -0.07955809 0.0034978327 -0.020819908 -0.036149967 -0.028339712 -0.014909524 -0.014372692 -0.01695799 0.0016824931 0.04770019 0.012608488 -0.017472314 0.041192178 0.02586981 -0.012542452 -0.045479834 0.050455466 0.038325217 0.004808838 -0.006618798 0.044051632 -0.01898354 -0.050925467 0.034042466 -0.01715 -0.00038900363 -0.009727843 0.046557404 -0.01717474 0.023901818 -0.014810552 0.026766226 0.019961562 0.034050994 -0.0021265375 -0.02908926 0.04840161 0.03908005 -0.015750421 -0.007244533 0.01459119 -0.014223881 -0.02654611 0.026200509 0.034052696 0.04477963 -0.0117348535 0.0004531474 -0.038449515 -0.06240803 -0.011237125 -0.054861147 -0.0034727976 -0.056265455 0.0236045 -0.01053261 0.0019870084 -0.034294084 0.038389478 -0.039303523 0.049867798 0.0133888535 0.007570927 -7.780829e-05 -0.03011698 0.041125245 -0.005377987 0.016100414 -0.027210092 0.030053388 0.0072853016 0.0022537946 0.009490088 0.009538515 0.04171823 -0.043662403 0.020905713 0.03872332 0.057031516 0.033469178 0.064508565 0.025941897 0.053383436 0.028699562 0.049706355 -0.010543671 0.008955562 -0.026696004 -0.013617888 0.050334748 0.037954517 0.065560766 -0.046863135 0.0064622965 0.017222526 -0.022932045 0.052549507 0.054414324 -0.040782366 -0.02175234 -0.07375151 -0.00472219 0.03354773 -0.005676411 -0.004417882 0.017707173 -0.01965623 -0.009337167 0.045008026 -0.051922694 -0.0013895758 0.008751392 0.028232923 0.031185947 0.005988794 0.044214327 -0.039715327 -0.044203747 -0.012126685 -0.037960608 -0.010852489 0.005563474
201348 0.0013442653 0.0006919142 -0.0017566276 0.0031275467 -0.002144223 -0.00046494353 -0.00061139144 0.00046257884 -0.0029091649 0.0024946765 0.0003931414 0.0021367567 0.0035749967 -0.0030926198 0.002785122 0.0014225399 0.0030619183 -0.003252395 0.0012713773 -0.0017117749 0.0019080924 0.0013900759 -0.0028779448 -0.0033707432 -0.0028775441 0.002194037 0.0007246506 -0.00013785045 -0.0010792902 -0.00074979715 -0.0033525345 0.0002277722 0.0018237398 -0.003357483 0.0006409243 -0.0028134228 0.0032764503 6.9251924e-05 -0.0023017179 0.00015365286 -0.001835575 -0.00078132114 -0.0009872466 -0.0026068618 -0.0019843325 0.0008119862 0.0014196853 0.0026822393 1.3135712e-05 0.0037249788 -0.0028669091 -0.002970196 -0.00037994835 -0.0025223987 -0.0035184587 -0.0020491937 -0.0036739146 -0.0009798685 -8.041468e-05 0.0021961837 0.00037541884 0.0015555006 -0.0013972565 -0.00024212422 -0.0036858423 -0.002542799 0.0014233023 -0.002037467 0.0017304554 -0.0027811457 -0.0020957396 0.00096003484 -0.0022630903 -0.0012592839 -0.0015855713 0.0029248437 -0.0023097743 0.00075286994 -0.002977887 0.0037161242 -0.00081039546 0.00035654457 0.0007987821 0.0017207187 0.0008244483 -0.0018807182 0.0018890654 0.00066710496 -0.0010727084 0.0009030076 0.00076922355 0.0016583499 0.0020576546 -0.0020281377 0.003484343 -0.00056376646 0.0033692608 0.0020601554 -0.0017380253 -0.001222101 -0.00016368911 -0.0010184335 0.0008601123 -0.0035887295 0.0016166901 -0.0030492085 -0.0035449595 -0.0022875357 0.0022366897 -0.0033882463 -0.0018567715 -0.001388356 0.0034394641 -0.002451999 -0.0006242029 -0.00021616164 -0.0033753803 0.0011277455 0.0007596912 0.002120076 -0.0010938843 -0.0011225297 -0.0002910302 -0.0014765979 2.5581236e-05 0.0003381761 0.0038342245 -0.0010586357
201349 0.024516199 -0.023618458 -0.013229836 0.008311037 0.001105175 -0.0009531164 -0.06742169 0.0007293976 -0.013984232 -0.039089356 -0.024726754 -0.016110258 0.0016162699 -0.009345883 -0.0031812435 0.045146696 0.0131731555 -0.00438444 0.036129173 0.012177938 -0.012289344 -0.035925906 0.032630064 0.028300107 0.007787281 0.012939819 0.03415346 -0.010165371 -0.036717724 0.030474253 0.002749661 -0.0035181758 -0.011900944 0.02862921 -0.016885223 0.023112388 -0.016159415 0.03735079 0.022849126 0.029404309 0.004630277 -0.020847868 0.04046878 0.032061093 -0.018643519 -0.0069195717 0.012282989 -0.012404661 -0.022011688 0.016906079 0.021998247 0.02829417 -0.011582256 0.003700891 -0.037047103 -0.04444299 -0.0014954393 -0.04829194 0.0012309763 -0.05218699 0.009241407 -0.015633682 0.008964685 -0.033913948 0.0369535 -0.03566828 0.046572726 0.01394276 0.012634707 0.008943047 -0.019321242 0.027714001 -0.017504334 0.009926604 -0.022619402 0.025484422 0.0011787724 0.0064253267 -0.0049157646 0.010870629 0.02626306 -0.040499873 0.01421558 0.018727751 0.048141945 0.027108151 0.056046378 0.011055923 0.03463512 0.023329124 0.04092254 -0.021450905 0.015769364 -0.022999134 -0.011875647 0.038429424 0.03937082 0.054347314 -0.022410467 0.008496708 0.012399326 -0.023532916 0.02948076 0.0365434 -0.0421236 -0.023670444 -0.05682494 0.0029881028 0.028775822 -0.016972417 -3.2941534e-05 -0.0037858482 -0.0073049637 0.006534186 0.03448212 -0.035812255 0.010693051 0.008530708 0.026552305 0.026325166 0.0033023558 0.031257056 -0.02504065 -0.03378403 -0.016536593 -0.045297403 -0.00524351 0.0150353145
201350 -0.0755224 0.083968654 0.16288412 -0.10771792 0.11606551 0.14901423 -0.11190382 0.12126538 0.013877615 0.005399495 0.02358728 0.015168838 0.023906179 -0.2054645 -0.09887268 0.08692829 -0.18608642 -0.18405053 0.058741786 -0.05377968 0.24858008 -0.17810269 -0.088743165 0.3186114 -0.23252144 -0.03815978 -0.01953132 0.032120902 -0.010295674 -0.13041146 0.015857693 0.13872573 0.013176627 -0.1629016 -0.25230947 -0.2079962 0.101683505 0.008703561 -0.39685673 -0.18010674 0.030031933 -0.25747207 0.114086166 0.08301746 -0.09491422 0.06462581 0.059924647 0.21949342 0.030135456 0.016364519 -0.055911586 0.14179255 0.09744424 -0.13337481 -0.008137067 -0.14108849 0.013626565 0.03333906 0.19731988 0.057889897 -0.03386873 0.16221063 -0.20720905 0.038872086 0.21152915 0.37895477 -0.028542383 -0.12047908 0.18617183 -0.021525681 0.38040042 0.04340974 -0.23290639 0.007493805 -0.21663867 -0.15750009 -0.05252861 -0.21866326 -0.038870234 -0.16568637 -0.30995837 -0.07238319 -0.15022814 -0.014393279 0.1022315 0.18858507 0.11811032 -0.17396243 -0.35467425 -0.020103559 -0.20876423 -0.08746139 -0.22546513 -0.087646715 0.21264882 0.14519131 0.01122305 0.25592712 -0.16511141 0.24053034 -0.11786449 -0.10947629 -0.23230718 -0.20679463 0.32957622 0.04309665 -0.33521605 -0.07512056 0.1034819 -0.007802941 0.3717562 -0.059631456 0.005582158 -0.16763255 0.107097685 0.07780874 -0.12771547 -0.21872076 0.0487186 0.07759372 0.031583328 0.0071831536 -0.27659836 -0.004434789 0.19557096 0.021217419 0.5330864 0.35755762
201351 -0.10706058 0.059381172 0.021270214 -0.04290739 0.07229167 0.12527531 -0.111840956 0.15729602 -0.06606801 0.034337685 0.027996385 -0.019522458 0.008065602 -0.08692981 -0.12899117 0.21331304 -0.07065129 -0.1497507 0.07642716 -0.017569587 0.08444152 -0.32373184 -0.017488874 0.24353409 -0.0906486 0.04174167 0.06317807 -0.08405676 -0.12472464 -0.0018705453 0.07065864 0.048450403 -0.027204335 -0.06111782 -0.1677134 -0.15712854 -0.04201881 0.025333574 -0.2631516 -0.017821623 0.065996215 -0.116739765 0.08143514 0.06835417 -0.08949394 0.03254294 -0.019012546 0.090155564 -0.035127804 0.113778636 0.023978757 0.14873436 0.035215534 -0.012868004 -0.10469341 -0.13725342 -0.024371943 0.0020475632 0.02722005 -0.04565927 0.008010078 0.09867735 -0.19043496 0.055111557 0.21582186 0.31709638 -0.013970639 -0.059609663 0.07815157 -0.03404656 0.17294139 0.032757264 -0.16035688 0.016689375 -0.15361427 -0.08572445 0.0029472478 -0.14683954 -0.08301348 -0.1791647 -0.13558817 -0.18237957 -0.16115461 0.059115086 0.13433748 0.13974929 0.06942134 -0.13640074 -0.14988652 0.039731342 -0.11087467 -0.053373326 -0.105895534 -0.102954715 0.16109395 0.17974147 -0.013308826 0.32337818 -0.1713654 0.21633284 -0.028548488 -0.122842364 -0.13716352 -0.13037467 0.16298254 0.015364037 -0.28305113 -0.07461936 0.06766801 -0.045461316 0.28041524 -0.010359788 0.06808809 -0.1597865 0.14615777 -0.045990456 0.016071888 -0.14759624 0.010347789 0.02885851 0.036942236 0.020478806 -0.16165014 -0.10153911 0.101171196 -0.0989622 0.32081756 0.27455083
201352 -0.007868284 0.03549777 -0.01100194 0.02008237 0.09096574 0.075293735 -0.21227403 0.09984083 -0.086167514 -0.057692036 -0.0040453062 -0.008193566 -0.12342599 -0.08296451 -0.0868784 0.2659687 -0.021333091 -0.10278866 0.076723136 0.04434674 0.06713763 -0.23640347 0.06707586 0.12859713 -0.044540245 0.028145531 0.073094554 0.06166009 -0.080749154 0.035304643 0.019260615 -0.004128912 -0.0024639051 0.071252786 -0.17781247 -0.04916306 -0.04737011 0.0868722 -0.13021754 -0.006585166 0.08898705 -0.12911624 0.10894137 0.114566915 -0.10671286 -0.010768175 -0.023803847 0.02572373 -0.04472302 0.081641614 0.008143711 0.124972425 0.03233076 -0.025860423 -0.14698234 -0.1508938 -0.015413438 -0.094879 0.029388584 -0.080951504 0.06945788 0.035256702 -0.081085235 -0.08983417 0.18074135 0.114655145 0.03281302 0.034262653 0.07155471 -0.06675074 0.085781656 0.0937236 -0.11218345 0.023630576 -0.13229917 -0.07224794 0.050759275 -0.09031085 -0.05262849 -0.08496999 0.009976071 -0.13376024 -0.0011088818 0.10022688 0.16059408 0.12157287 0.16537471 0.026993947 -0.08175242 0.029387107 0.006030078 -0.08225866 -0.063335024 -0.02492794 0.12424707 0.14289083 0.027226586 0.26158872 -0.21260674 0.1876406 -0.024806311 -0.097893365 0.013948744 -0.02782248 0.047208752 0.004236797 -0.28467426 0.03256195 0.02576676 -0.08037008 0.115807615 0.0035348714 -0.019846665 -0.1122191 0.18419911 -0.03338925 -0.031694196 -0.13349897 0.0753964 0.04180175 0.02995837 0.022283267 -0.24193421 -0.093849696 0.048939522 -0.109654255 0.18322992 0.15388569
201353 -0.01151213 0.014800642 -0.04774793 0.05772784 0.06681934 0.015381724 -0.18164021 0.04747867 -0.054616738 -7.699883e-05 0.0039267833 0.002667913 -0.08231116 -0.0779584 -0.03697544 0.2276403 0.003784143 -0.05086448 0.038434643 0.01453927 0.06099253 -0.21607219 0.070448756 0.103028364 -0.03800377 0.033583697 0.072351955 -0.018280748 -0.07535758 0.054321535 0.01869885 -0.0020821835 0.0054528755 0.09254698 -0.09148507 -0.06270558 -0.03366561 0.05535391 -0.09099207 0.005924404 0.070171185 -0.086398914 0.07805105 0.09100416 -0.089738354 0.001543862 -0.007898617 -0.00021784402 -0.028289177 0.1079541 0.07782287 0.13769 0.024445202 -0.0143746715 -0.13342209 -0.12862311 -0.050068326 -0.0900552 0.04590227 -0.06537927 0.04634356 0.03959726 -0.10521972 -0.04829481 0.20018482 0.09488845 0.040827777 0.03428057 0.041840002 -0.038243573 0.07143462 0.06308124 -0.08242357 0.02701514 -0.11379209 -0.047769826 0.055226445 -0.08018871 -0.0053847753 -0.11835811 0.03164466 -0.12385879 -0.00027053594 0.10185472 0.13917851 0.09620086 0.14701444 0.03643166 -0.039317217 0.055370256 0.024065278 -0.028148616 -0.02916297 -0.060497157 0.09277868 0.15514116 0.015990011 0.2635923 -0.15116179 0.14088906 0.017192194 -0.078736 0.052840658 0.02584254 0.03742104 0.018788734 -0.2274745 0.020959102 0.016939595 -0.022183774 0.102448195 0.028441893 -0.016713973 -0.15270242 0.20081784 -0.047102656 -0.0068943333 -0.1401701 0.033848763 0.021101667 -0.012878409 0.073777094 -0.20414774 -0.06702747 0.052259766 -0.08952638 0.14353068 0.1047288
201354 -0.08153085 0.12229435 0.1917943 -0.13201174 0.13199684 0.14293724 -0.10256133 0.048868068 0.01205548 0.02416488 0.03128905 0.01047107 -0.026310321 -0.24063957 -0.093243055 0.09387221 -0.15924428 -0.20748803 0.00495567 -0.07332053 0.3113141 -0.24739899 -0.099269494 0.39440888 -0.20358187 -0.062134504 -0.09258954 0.042762287 -0.038999543 -0.1642082 -0.024843452 0.11357421 0.028148402 -0.15544966 -0.28721827 -0.23479061 0.139012 -0.092118666 -0.4802766 -0.24916925 0.07078794 -0.27888545 0.06641183 0.100215696 -0.112862945 0.13409506 0.06660775 0.21297866 0.063740626 0.041639198 -0.068674445 0.090949856 0.15368249 -0.20961931 0.02258531 -0.12557654 -0.08462576 0.10747636 0.21688098 0.106752776 0.045714673 0.19698511 -0.25657967 0.14925846 0.22497463 0.5064287 -0.08700583 -0.19326824 0.15955968 -0.113828264 0.43178093 0.023023564 -0.24718286 0.0016874743 -0.2876917 -0.19914043 -0.0288275 -0.31816396 -0.08595943 -0.18165761 -0.3637408 -0.021307688 -0.19078068 -0.05143345 0.10410963 0.20861031 0.063401714 -0.29411155 -0.44511968 -0.071570605 -0.24143659 -0.11948925 -0.21468759 -0.09909496 0.27853826 0.12492007 -0.011963014 0.36108172 -0.11163864 0.300129 -0.17688386 -0.057074096 -0.2759021 -0.30378512 0.52997965 0.071719624 -0.32784203 -0.13129127 0.085522294 -0.002045715 0.44425458 -0.062187683 -0.024049347 -0.20850219 0.14961286 0.078145206 -0.18706046 -0.23243871 -0.042103548 0.040256724 0.091978855 0.03962392 -0.32008496 0.014400322 0.3172821 0.0128797535 0.5813516 0.37781876
201355 -0.09144326 0.19172032 0.16537826 -0.21046208 0.15864868 0.20510054 -0.11516885 0.054447625 0.048673447 0.0290046 0.045170933 -0.02712906 -0.027879015 -0.24019055 -0.1267539 0.16546673 -0.19530264 -0.21063174 -0.02259565 -0.06894603 0.2967124 -0.23842828 -0.10666895 0.41317254 -0.23227677 -0.11944819 -0.06097829 -0.004920906 -0.009586096 -0.22448158 -0.027863039 0.11217757 0.095889114 -0.17268136 -0.30405194 -0.286353 0.054877937 -0.11471861 -0.42793918 -0.26736778 0.033572104 -0.2867236 0.07286914 0.118692465 -0.116289444 0.18717699 0.033302348 0.24325065 0.06442469 0.08500674 -0.03713291 0.07224468 0.11571865 -0.18855926 -0.058195956 -0.11196571 -0.055349153 0.07938337 0.17698869 0.09956702 0.062235698 0.1650034 -0.22671959 0.091903284 0.25574827 0.5021231 -0.09362635 -0.1907933 0.12843879 -0.12655696 0.40530825 0.020562187 -0.24127916 0.014376047 -0.21812911 -0.20606486 -0.0498036 -0.28510165 -0.06908688 -0.10513394 -0.33622897 -0.07061997 -0.2177517 0.0061948835 0.090846226 0.2463173 0.059189174 -0.26659685 -0.47725096 -0.11304435 -0.27595565 -0.0804117 -0.2184226 -0.070175596 0.29567426 0.11163855 -0.02689787 0.344096 -0.17826949 0.2708218 -0.16519542 -0.057804383 -0.23690338 -0.28707922 0.5883027 0.06256829 -0.2930719 -0.16866867 0.09460288 -0.044698462 0.41637492 -0.08153997 -0.0020274543 -0.20440573 0.13051179 0.033283826 -0.19563979 -0.27684593 -0.06623977 0.0595746 0.094467044 0.002261053 -0.34569293 0.040294204 0.27180678 0.086231135 0.5966825 0.41196918
201356 0.116916925 -0.01856785 -0.1623515 0.013349795 0.07978478 0.040596265 -0.29548487 -0.07298488 -0.048050538 -0.03784035 -0.018424641 -0.11027777 -0.18999235 -0.07731242 -0.009125145 0.2623186 0.04096557 -0.059317634 -0.0035416547 0.07798796 0.08173173 -0.21321924 0.23550566 0.19183631 0.03276272 -0.14294511 0.1678516 -0.103706405 -0.09469829 -0.0045586117 -0.1386602 -0.096190415 0.102682054 0.24664496 -0.14236993 -0.07121898 -0.07445606 -0.009356676 0.024070548 -0.015899418 0.027309576 -0.18381839 0.05895769 0.16552776 -0.06307025 0.16016811 0.05850957 -0.03229866 0.05400294 0.25777647 0.15908776 0.028927343 -0.08408896 -0.19504516 -0.24860263 -0.22918501 -0.23096393 -0.2571843 0.06658565 -0.10458197 0.13064717 0.016512947 -0.11692682 -0.060171053 0.24447425 0.048748508 0.081158906 0.07980544 0.030723326 -0.12275789 0.0428922 0.1745603 -0.0017613154 -0.0071558086 -0.21342339 -0.0151552055 0.038750753 -0.18378039 0.017639406 -0.011905851 0.23238663 -0.06808578 0.09887903 0.20713416 0.34598154 0.1644644 0.25107825 -0.027543655 -0.08707974 0.041356005 0.22414704 -0.008966256 0.079560004 -0.20313592 0.049767967 0.17595333 0.15796787 0.35325488 -0.19264933 0.14780568 0.014992871 0.046940047 0.15638131 0.15930672 0.21367015 0.03464836 -0.21805942 0.002981715 -0.0057026045 -0.0824353 0.009732302 0.053867333 -0.044265736 -0.16711175 0.31411576 -0.21157673 -0.089980505 -0.22999787 -0.07495407 0.07925162 0.008318384 0.098058544 -0.40374866 0.008182323 0.15968318 -0.1464383 0.047779985 0.041004527
201357 0.02129969 -0.030805489 -0.033501018 0.026591748 0.0016405084 -0.017536968 -0.0620637 -0.0060917507 -0.02274807 -0.015644614 -0.01641112 -0.0112498235 -0.015037297 -0.004719527 0.0066533955 0.058564324 0.015700148 0.014072636 0.023072137 0.011300942 -0.010064416 -0.052266136 0.04876772 0.019581039 0.012656425 -0.0002571437 0.036516756 -0.026912764 -0.027873406 0.03605883 -0.0073432536 -0.0015834137 -0.012682156 0.053916596 -0.011066363 0.011636699 -0.019495606 0.029097848 0.021556638 0.0207173 0.007518719 -0.0036214516 0.02975278 0.03242797 -0.011231784 -0.00283323 0.0060966965 -0.023479072 -0.011498071 0.03852842 0.031927448 0.032546703 -0.0038294683 -0.0012432873 -0.046188038 -0.0416537 -0.02862425 -0.06323765 -0.009050263 -0.0459417 0.021637114 -0.020475386 -0.01222203 -0.031018697 0.040395215 -0.025398716 0.044251464 0.0270717 0.0002304257 0.0045436067 -0.030167941 0.03433882 0.0060573355 0.008870742 -0.02069442 0.018753912 0.018271796 -0.0036161812 0.010642693 -0.005830045 0.06477172 -0.032916725 0.02308168 0.04010634 0.05298025 0.0215912 0.056362577 0.029049171 0.038199123 0.02888788 0.053154543 0.0049751545 0.024796996 -0.023069428 -0.008391873 0.039618634 0.031121174 0.055380654 -0.027186355 0.011049696 0.028190048 -0.007339021 0.04757488 0.049107645 -0.037484493 -0.0074110935 -0.045901783 0.0074131256 0.008510168 -0.0073105264 -0.0106071 0.018893607 -0.0131807495 -0.0040710247 0.04801293 -0.035090275 0.011750653 -0.013015822 0.010213465 0.011124853 -0.011905426 0.033782527 -0.03817847 -0.02297592 -0.003674351 -0.04169378 -0.031483486 -0.014201291
201358 0.109303705 -0.027579546 -0.13561639 0.016002718 0.06515194 0.031950716 -0.21816371 -0.081415206 -0.036955655 -0.015182028 -0.027951764 -0.07089261 -0.17198054 -0.055740494 0.00613966 0.20191802 0.035130654 -0.03036826 -0.022228 0.0635826 0.07228042 -0.16889933 0.18762489 0.15174176 0.042496182 -0.1413127 0.11596295 -0.08065025 -0.068823114 -0.027470533 -0.13177596 -0.075437434 0.0924754 0.23152068 -0.10560173 -0.048527926 -0.044574488 0.007816461 0.03393999 -0.029199366 0.012439461 -0.14695951 0.045494705 0.12818311 -0.058571998 0.13745269 0.053645372 -0.052415192 0.07335467 0.23823455 0.15116262 0.018119378 -0.049349487 -0.18699305 -0.20745982 -0.17713317 -0.20743838 -0.1979297 0.061724912 -0.07363334 0.11610775 0.027923612 -0.12295287 -0.05116628 0.19533187 0.015692081 0.070540816 0.101522654 0.029656293 -0.10709582 0.04028363 0.14535522 0.020949244 -0.026511988 -0.18948117 -0.011526824 0.055848878 -0.1560364 0.036263123 -0.00028263096 0.20518439 -0.030819504 0.10654994 0.16954657 0.29218054 0.13385844 0.19970979 -0.017833922 -0.08618887 0.026984246 0.20710437 -0.008730474 0.08142295 -0.16769609 0.030152095 0.12123153 0.13801458 0.27416795 -0.15427989 0.12929316 0.002914955 0.08084153 0.14613535 0.13556066 0.1947805 0.04371167 -0.14940964 0.028560951 -0.03205191 -0.05124848 0.017627373 0.04569227 -0.034097195 -0.14149494 0.2782762 -0.1560584 -0.107894324 -0.1922629 -0.06733093 0.057152964 -0.004792986 0.066044554 -0.344525 0.0314692 0.16520615 -0.105031654 0.021636572 0.00033510738
201359 0.00054385356 0.0017311998 0.0006784763 -0.0037684743 -0.0033075043 -0.002061604 0.0012443715 -0.0014628624 -0.0028158328 0.0015455792 0.001908433 0.0019320213 -0.0008625882 0.0014785825 -0.0029936014 0.000685937 0.0016569451 0.00019892715 -0.0013406266 0.0015307838 0.0021182336 -0.0002441958 0.0027945943 0.0037126197 0.0037626415 0.00027215047 0.0031047605 -0.003750195 0.0012058212 -0.0031997422 0.0026038433 0.003550459 -0.0024890327 0.002689003 0.0017465034 0.0001637664 -0.0021255491 0.0024955582 -0.0012220582 -0.0031781318 0.0033506223 0.0002499625 0.001640401 -0.001957558 0.00034866398 -0.00063995447 -0.0032770415 0.0021210692 0.0032864406 0.0011952755 -0.0015358888 -0.003431604 0.0016621593 0.003408768 0.0027193371 -0.0022489529 0.0009804898 0.0014904039 -0.0024163413 -8.540621e-05 0.0026633148 0.002929627 0.0036260558 8.775847e-06 0.003156882 -0.0029893545 -0.0015356145 0.0033572093 -0.00043957625 0.0017029034 -0.0013181644 0.0023470311 0.0018743314 0.0034998257 -0.0034019938 -0.0022042557 0.0036720873 2.2583854e-05 -0.0028876413 -0.0027950627 0.0029060866 -0.0014079934 0.0039034805 0.002898282 -0.0007226863 -0.0031861796 -0.0030870338 0.0012291233 -0.00036267613 -0.0032081676 0.0035834662 0.001926232 -0.001251215 -0.0027017805 0.0015743684 -0.0028584017 0.00092761364 0.003116124 -0.000451606 0.00094919105 -0.0031430633 0.0032161966 -0.0035798256 -0.0028902818 -3.4612727e-05 -0.0033122697 0.0005906658 -0.0010184069 -0.0013329078 0.00070657313 0.0014294886 -0.003495681 -0.0030009795 -0.0002874561 -0.003387604 -0.0033031343 0.0014243847 -0.0031072572 0.0026736427 0.0024478044 0.0016811115 0.003185111 0.0018409477 -0.0029599501 -0.0017046205 -0.0023779504 -0.00010490925 0.0035982733
201360 0.02475303 -0.012584377 -0.007233406 0.0023030997 0.0036827403 -0.008366038 -0.052628193 0.0019281645 -0.013306417 -0.025903717 -0.012690096 -0.004916646 -0.016784089 -0.021569548 -0.005223444 0.030187773 0.0033149675 -0.012375276 0.01823977 0.008097567 -0.009450218 -0.012620006 0.029997518 0.017431524 0.0016096617 0.0023701843 0.024779884 0.0031670795 -0.020500114 0.022633983 -0.0028686975 -0.006927726 -0.01934342 0.029063826 -0.010979835 0.028815832 -0.0020538168 0.026891116 0.008144958 0.024392843 0.00799401 -0.022609675 0.030584373 0.028954642 -0.0068745036 -0.015537117 0.0046200897 -0.0049220673 -0.018849764 0.0074750553 0.002901326 0.019873079 -0.006816295 0.002822243 -0.03415447 -0.030807327 -0.00056219194 -0.026936103 -0.0014922407 -0.028085833 0.012461469 -0.0078018373 0.010915794 -0.026432587 0.022837916 -0.035722904 0.030900275 0.01432113 0.015185185 0.011012672 -0.014887627 0.032054286 -0.014349408 0.008483726 -0.016590357 0.021313967 0.007149216 0.008749386 -0.0008074322 0.008874557 0.023748433 -0.026846776 0.01423163 0.015037757 0.028950483 0.023134144 0.040859062 0.021231374 0.024929764 0.0151203135 0.03344153 -0.017628679 -0.0025396326 -0.010878843 -0.0077339257 0.028360201 0.028661238 0.03203663 -0.028574862 0.0045836205 0.0016450288 -0.013390921 0.036456022 0.032946475 -0.026194664 -0.014516365 -0.03639793 0.011585762 0.014195878 -0.013541921 -0.0047759106 -0.0050677075 -0.0067065083 0.0013920453 0.021550834 -0.028212814 0.0056794113 0.0058535663 0.017082477 0.021197712 0.00023445161 0.023730842 -0.01621131 -0.027000073 -0.010216399 -0.027733464 -0.0067985347 -0.0019544158
201361 -0.0038161683 0.00014688578 0.00070371764 -0.0020297056 0.0019284155 -0.0023534733 0.00074371527 0.0009883421 -0.0030004217 -0.0025544092 0.0013630333 3.4782202e-05 0.00056598184 0.0009989297 0.0019598035 -0.0035073694 0.003580946 -0.0031680204 -0.0023333335 -0.0018443984 0.00012644549 0.00048878853 0.0006881495 0.0015901041 0.0024205172 0.0019400844 0.0027300296 0.002266254 6.931907e-05 -0.003091728 -0.0030015341 0.0005783234 0.0011352476 0.0012203956 0.0023480942 0.0034874287 0.0029042226 -0.0025802231 -0.0029501 -0.0034878862 -0.0033271573 -0.0036996459 0.0019745252 -0.00031502763 0.0006004559 0.00074780406 0.0010037161 0.003160561 0.00010300943 0.0009530819 -0.00022203813 0.0028183397 -0.0024705343 -0.0028785465 -0.0022300924 0.0010724326 -0.00085872784 -0.0022568938 0.0029105167 -0.002445455 0.00071198755 -0.0037080348 0.0004154951 -0.0005638906 -0.0018713727 -0.0011253769 -0.00026130062 0.0032811959 -0.0027571025 -0.0025699246 0.002384748 -0.0030475396 -0.0018747937 -0.0015583372 0.002590234 -0.0016789259 -0.0012172579 -0.002824418 0.00018966413 0.0005475948 -0.0020754794 -0.0035978332 0.0011268549 0.002293254 -0.00027182724 0.0013160249 0.002799864 -0.0007032517 0.0038991163 -0.003342393 -0.003850904 -0.000781055 -0.0024734035 0.00017960079 0.0021923373 -0.0005876252 0.0035461711 -0.0014200106 -0.0020702549 6.778728e-05 -0.0020753348 -0.0030405256 -0.002338204 -0.00021802585 0.0011517648 -0.000876419 0.0028578297 -0.0003290548 0.0025442815 -0.00017250695 -0.0036621673 -0.0007842655 0.00085064897 0.003713533 -0.0027376947 -0.0013356662 -0.0027732889 0.003522829 0.00048758156 0.0020479632 0.0015019287 -0.0003194219 0.0013430215 -2.5470583e-05 -0.0017147817 -0.0003249137 -0.0015515358 0.0030748406
201362 0.0342684 0.03470757 0.014962417 0.00051976065 0.14018786 0.08803198 -0.26724353 0.12458888 -0.07142302 -0.09617814 -0.051076505 -0.029868154 -0.118913695 -0.100775726 -0.14138398 0.30576587 -0.017418057 -0.12796241 0.15553552 0.028571473 0.09404232 -0.3056391 0.01184962 0.17727242 -0.105527 0.028302254 0.08639108 0.08001012 -0.0635962 0.023431024 0.10716256 -0.015425673 -0.027503038 0.015578592 -0.22301094 -0.080438286 -0.086843126 0.13429023 -0.12190093 -0.0044472646 0.0935005 -0.17292413 0.13994977 0.074720666 -0.1654868 0.011064698 -0.019981004 0.047208257 -0.06370521 0.08037712 0.0349259 0.14022066 0.04763882 -0.024865676 -0.16569611 -0.14150557 0.04970384 -0.12576841 0.05791649 -0.059175555 0.10610815 0.070023976 -0.1120619 -0.054526437 0.21370877 0.14389203 0.020499716 -0.0043956684 0.05537005 -0.078685306 0.10142081 0.07357708 -0.15724546 -0.0025343248 -0.10482429 -0.03963192 0.04601862 -0.103523836 -0.10964831 -0.047252048 -0.041198008 -0.17414412 -0.017077558 0.08673194 0.16822992 0.088999294 0.20630203 -0.0064226217 -0.11716812 -0.014833351 -0.027396046 -0.13575444 -0.09269322 -0.04921916 0.14261025 0.1752623 0.03839517 0.35743248 -0.24164817 0.18409328 -0.04463666 -0.15750727 -0.03641631 -0.0022589993 0.08621467 0.006654441 -0.37754318 -0.010401253 0.06722919 -0.16740085 0.12535763 -0.039250806 0.017975554 -0.10614566 0.14832208 -0.10707983 -0.06984395 -0.1108649 0.13220859 0.10801886 0.069305204 0.013947973 -0.268559 -0.07298596 0.015039958 -0.10446854 0.24386983 0.22235572
201363 -0.007968746 0.054389875 0.005686421 0.0107499845 0.08656822 0.10208062 -0.22675908 0.11804689 -0.09499199 -0.07802721 0.0045725997 -0.03466151 -0.12951805 -0.111288734 -0.10406075 0.27199724 -0.013800929 -0.13042076 0.07737522 0.036507353 0.06982824 -0.23494276 0.0707978 0.123329885 -0.02963165 0.049635727 0.08832315 0.065541 -0.0793698 0.04266104 0.03042648 -0.021440763 -0.006990743 0.07167946 -0.19552955 -0.011061769 -0.06384647 0.10560816 -0.14770614 -0.0036206702 0.10375094 -0.1448421 0.11150489 0.10463702 -0.09525127 -0.010571835 -0.025778884 0.048655525 -0.08171467 0.07063549 -0.0071349163 0.11316509 0.04485246 0.0044275066 -0.14848287 -0.15882164 0.005107027 -0.07187379 0.013911608 -0.085427046 0.07854854 0.029817479 -0.049023982 -0.08454414 0.18249312 0.124187715 0.034922376 0.037661318 0.08762505 -0.07033644 0.082198456 0.09797677 -0.1370365 0.025250837 -0.1246215 -0.06191486 0.055325847 -0.092739984 -0.05641201 -0.0758593 -0.018525032 -0.15234542 -0.0025818702 0.12473894 0.15931506 0.12183697 0.13925289 0.025246633 -0.07473413 0.037178855 -0.024522478 -0.0873456 -0.10484894 0.004227143 0.14049554 0.13134326 0.008233676 0.26140383 -0.23852353 0.21505284 -0.048774567 -0.118872024 -0.013206615 -0.04616189 0.039627425 0.015687384 -0.30880442 0.014776323 0.042489216 -0.09241523 0.13874914 -0.012581142 -0.0033347793 -0.108333096 0.16113998 -0.03933454 -0.028961208 -0.11515536 0.07685383 0.04079517 0.055781223 0.007750094 -0.23746069 -0.09852062 0.023271397 -0.11397725 0.2113873 0.16353276
201364 0.103998356 -0.029647471 -0.107174724 -0.020957015 0.08090665 0.009351427 -0.22619222 -0.06492119 -0.03480325 -0.016670996 -0.038060386 -0.048823766 -0.14775448 -0.07311167 0.025962051 0.17941706 0.0062005 -0.043118034 -0.0051842206 0.06210478 0.061358076 -0.15678793 0.18213078 0.18408906 -0.00021973797 -0.11619127 0.09883927 -0.054640893 -0.08232648 -0.016195117 -0.1365749 -0.03831212 0.065805234 0.19468553 -0.09744682 -0.04606608 -0.01646501 0.014602501 -0.02320721 -0.04374593 0.0377105 -0.17127901 0.07557371 0.1452904 -0.08788599 0.097334236 0.057842784 -0.023007069 0.05836408 0.19728787 0.118343815 0.054072943 -0.033472378 -0.17264004 -0.18444236 -0.17759623 -0.17512362 -0.19072865 0.05698914 -0.076817855 0.075024545 0.015718399 -0.10174287 -0.08454616 0.18976897 0.0063723237 0.10525738 0.076874346 0.051845744 -0.0746077 0.04666989 0.11451401 -0.0064579947 -0.0051553263 -0.18036485 -0.015826419 0.040603522 -0.14182407 0.02570915 0.0050906595 0.17728586 -0.042861097 0.07799524 0.15520349 0.24698472 0.16389295 0.21702191 -0.0055958773 -0.07520517 0.024007179 0.17618012 -0.002479193 0.043975197 -0.14048207 0.03840054 0.10860001 0.14600894 0.26842195 -0.16061494 0.13538496 -0.007630232 0.061519824 0.15328147 0.11270438 0.17169748 0.010970975 -0.16484609 0.018161092 -0.027532097 -0.04229507 0.03787287 0.030314347 -0.062318865 -0.12666202 0.27792594 -0.13399671 -0.09243224 -0.1781955 -0.04095434 0.07454251 -0.011580842 0.090961374 -0.3566757 0.012054783 0.15323067 -0.092643745 0.06069734 0.022524359
201365 -0.0026512127 0.0009482889 -0.000941551 -0.002797089 0.0018560532 0.00018705927 -0.0038508414 0.0022813105 0.00039839366 -0.0014205619 -0.0018510241 0.0002908372 0.0013291722 -0.0010326701 -0.0007177759 0.0025318102 0.0018978558 0.0029292358 -0.0029085951 0.0018130268 0.0011401311 0.001064768 -0.0031745117 -0.00032302507 -0.00036193593 0.00025017303 -0.002075913 -0.0028321429 0.0029331532 0.0008845573 -0.0026085412 0.0024318672 0.003888585 -0.0018285698 -0.0004963992 -0.002610708 0.0030705219 -0.001605534 -0.0019674296 0.0038205935 0.0018057018 -0.0028062842 -0.0002931628 0.0028982114 -0.002488047 -0.0037782849 -0.0029490562 0.0038528293 0.0031796908 -0.0025517733 0.001264774 -0.0036401239 -0.0030477548 0.0030271467 0.0018435159 0.002554884 0.00070246065 -0.003727107 -0.001824056 0.0011950361 0.00064786716 0.0038519858 0.00036832894 -0.0027774416 -0.0017333537 -0.0028852874 0.0013209364 -0.0012679192 4.5262004e-05 0.0009967503 0.001113624 -0.0009547711 0.0028960078 0.0012112046 -0.0024495316 -0.0018545248 -0.0022431414 0.0029245587 -0.002571212 -0.0024388616 -0.0029471768 0.0021722105 0.0020338823 -0.0021270209 -0.0033980205 0.0030618168 -0.0029393418 0.0017766111 0.0012159512 -0.0003911382 -0.0036918845 -0.0011351443 0.00046503177 0.0018652504 0.0014055852 -0.0009147168 -0.0019135051 0.0033382461 -0.0005864539 0.0029704403 -0.0019281264 -0.00014394775 -0.000290305 0.0017416811 0.0010152154 -0.003284112 -0.0012962273 -0.0017941704 0.0035787106 -0.002358028 0.002507843 0.0023031442 0.00085819536 -0.0023390304 0.0012238559 0.0030388385 0.0031992313 -0.0016025131 -0.0027041885 0.0016919773 0.0032513223 0.0032660053 -0.0002486223 0.0026267334 0.002648116 0.00012976692 -0.00044443813 -0.0026609509
201366 0.00012304558 -0.0013849396 0.0025532097 -0.00071047817 -0.003707587 -0.0031232296 0.0030079954 0.0012166684 0.00061359874 -0.0010363911 -0.002787937 -0.0035231572 0.0013870049 -0.001752936 -0.0006016353 0.001281088 0.0007497618 -0.003671105 0.0022882267 6.3856637e-06 0.00071590947 -0.0003090955 0.00037696556 -0.00053367147 -0.0016042771 0.00242773 -0.0011061117 -0.002669552 0.0033064082 -0.0012457917 0.002952463 0.0016915163 -0.0029586244 -0.0011976458 -0.002562254 0.0036876306 -0.0026086133 -0.003532173 -0.0015887055 0.0026080196 0.0032190115 0.0029324826 -0.0038290892 -0.0032637585 0.00045423352 -0.002521739 0.0011147078 -0.001936196 0.0018999747 0.001940292 0.00013062559 -0.0032102417 -0.0010692369 -0.0028008192 -0.0038262915 -0.0021771407 -0.0016919015 0.0019139376 0.00013252885 0.0019214181 0.0017970481 -0.0027957445 0.0019053171 0.0035343422 0.00016884739 -0.0031936914 -0.0034727275 0.0012455416 0.0036163959 0.0012130045 0.0021068961 0.0029781586 0.0034808216 -0.002203026 -0.0025360363 -0.0010296771 0.0003341682 -0.0024237467 -0.003321215 0.00024774688 0.0011768142 0.0033787312 -0.002809145 0.0014498275 0.000121172525 0.0026281092 0.0031734137 -0.0024904904 0.0007259682 0.0018018383 -0.0037281015 -0.0020273821 -0.0024061427 0.002393772 -0.0011946595 -0.002008881 0.0003084791 0.00054939464 -9.154666e-05 -0.002990906 -0.0025263305 -0.003863052 0.000545084 0.001868516 -0.002361279 0.0015259805 0.00056278036 0.00041588765 0.00031207615 -0.0027076146 0.00067262125 0.0015380497 -0.0019061626 0.0021148063 0.00016737932 0.0007910675 0.002979739 -0.0032573156 -0.0034397875 -0.0027094602 -0.0028006013 0.0015748317 -0.0008342533 -0.003425901 0.0027078122 0.0020155262 0.0018995543 -0.0007696911
201367 0.01048179 -0.006290823 -0.013229013 0.016827004 0.003016323 -0.0062952177 -0.033658016 0.013964228 -0.015275482 -0.018463004 -0.012655282 0.0037773137 0.008480188 -0.007411266 0.0062765474 0.0236362 0.0031930052 -0.00955603 0.024390755 0.01188212 -0.005796904 -0.026659092 0.014581937 0.024616165 0.0036501382 0.024216147 0.020376943 -0.009826945 -0.035370518 0.020170564 -0.00400672 0.0095428815 -0.01038717 0.004169442 -0.0065276655 0.011539312 -0.006226294 0.022512065 0.0065927804 0.024992267 0.0017638429 0.00013099558 0.0260659 0.020322915 -0.004254911 -0.016845549 -0.000753885 0.005812003 -0.02660977 -0.005283038 0.007839016 0.034947336 -0.00018512952 0.010989092 -0.017333198 -0.036657386 0.0054775467 -0.02489693 0.00053310127 -0.03337281 0.0035928888 -0.011722087 0.0052432953 -0.021909202 0.018223401 -0.02209621 0.022417065 0.00013724196 0.006903688 0.0134053035 -0.013883525 0.011377149 -0.01408456 0.014665379 -0.011592802 0.0074020405 0.0011904378 0.010565198 0.01182895 -0.004660766 0.008501706 -0.025557728 -1.3453711e-05 0.011730573 0.011607027 0.024505166 0.031567715 0.019428995 0.0414789 0.024643447 0.02142448 -0.013552582 0.0009909268 -0.0037107659 0.005161491 0.034557737 0.015424064 0.030398602 -0.01425052 -0.00072564033 0.01579898 -0.027083972 0.018721847 0.014053581 -0.04828365 -0.018533517 -0.041581724 -0.0070669125 0.025534958 0.007422213 0.008644807 0.0058578355 -0.013778726 0.0054668 0.019997617 -0.01311872 0.0076393876 0.0063855536 0.024710584 0.013305763 0.0033060124 0.024121972 0.0028853752 -0.030288693 -0.020539965 -0.027970027 0.0053835115 0.019554203
201368 -0.00022681082 0.0008531189 0.0011407564 -0.002268584 0.00120471 -0.0030891516 0.0030276456 0.003125691 0.0036337066 -0.0028020146 0.00031991655 -0.0020572941 -8.379354e-05 -0.0017435653 1.569789e-05 0.00027931537 0.0010605787 -0.00275203 -0.002088718 -0.001059717 -0.0010272332 -0.0021653955 -0.0009863498 0.0029427714 -0.0023787098 0.0036780348 0.0011199146 0.0012702507 0.001145787 -0.00085194636 -0.002829261 -0.0028162927 0.0036375334 0.0033134483 0.0017116426 -0.0013146019 -0.0025649548 -0.0013164823 -0.0010834385 -0.003535903 -0.0018547096 -0.0019803976 0.0024530436 0.0020354858 -0.0018890317 -0.0015981799 0.0031698225 0.0010882989 0.0033437153 0.00048232425 0.001851704 0.0025186785 0.0037277555 -0.0022412776 0.0036527086 -0.0018327291 -0.0032993956 -0.0024924872 0.0027489723 -0.0024667392 -0.0024870452 0.0002965021 -0.0016250709 -0.0013447041 0.0018049265 0.00085654267 0.0015266186 0.00343488 0.0030190472 0.0030128795 -0.0018822482 -0.00029901555 -0.0032912018 0.00027937125 -0.002680901 -0.0011174965 0.0035557866 0.0037917257 -0.0021142096 0.0013472103 -1.7432347e-05 -0.0034968173 -0.001529129 -0.0032569885 -0.0009941225 -0.000867407 -0.0038521236 -0.00052299176 0.0029105935 -0.0032624786 0.00030860503 0.003271913 0.0018274238 0.003558206 0.0014622837 -0.0020148538 -0.002043826 -0.0007301357 -0.0037635467 0.0013618805 -0.0013435151 -0.0030903327 0.00013940322 0.00022499076 0.0015613601 -0.0020547179 -0.0025062005 0.0022554758 0.0014722202 -0.00089701236 0.0032419988 0.0011313747 0.0019310588 0.0016597228 0.0011662372 -0.0017225994 -0.0014330335 0.0011090806 0.0036853496 0.0017001195 -0.0012619095 0.003434985 0.0030052671 -0.00074527576 -0.0010421779 0.0011503777 0.002592918 0.0019003811
201369 0.03882762 0.035663188 0.014604251 0.008299146 0.12827629 0.09156904 -0.24888 0.10799658 -0.06586754 -0.093585856 -0.03395836 -0.021920882 -0.112483695 -0.08238494 -0.1184552 0.2896587 -0.021792578 -0.103175886 0.12430834 0.015731728 0.094914764 -0.2681456 0.0136056375 0.14666627 -0.079083525 0.026438043 0.06983549 0.0843727 -0.04878637 0.02480596 0.074779056 -0.014001379 -0.023367325 0.0070728115 -0.20679887 -0.08068967 -0.08416279 0.113253 -0.11634214 -0.015301015 0.09494422 -0.15652628 0.11891912 0.07646518 -0.13470635 0.024663376 -0.026359994 0.037438333 -0.042654656 0.07479689 0.03110009 0.11805317 0.04690086 -0.01545804 -0.1447696 -0.11979992 0.041173015 -0.11611121 0.052152045 -0.061598875 0.07665127 0.0691669 -0.10866902 -0.06045016 0.18594234 0.13236117 0.016177898 0.0003088938 0.060556974 -0.075074434 0.08855388 0.06254572 -0.13376673 0.0084734885 -0.10295624 -0.050604142 0.03369016 -0.101110965 -0.103512496 -0.06414931 -0.024738291 -0.1416522 -0.01924964 0.083578266 0.15148291 0.081606835 0.20137823 -0.012974536 -0.12958916 -0.025257116 -0.024828585 -0.1146271 -0.068619035 -0.033642247 0.12890641 0.14013278 0.037778974 0.3075797 -0.21390885 0.18441357 -0.04580234 -0.15078722 -0.029507004 -0.015904717 0.070549905 0.010325519 -0.33874586 0.0141337495 0.028711611 -0.13802591 0.11613569 -0.028116854 0.007771434 -0.09362169 0.14064586 -0.06378551 -0.05612204 -0.11264306 0.12391763 0.06344963 0.06813845 0.005514208 -0.26045156 -0.07275863 0.022172773 -0.097064495 0.20231488 0.19533056
201370 -0.029557656 0.0496517 -0.0058897575 -0.003989577 0.08770074 0.076307245 -0.18503724 0.10643658 -0.078804925 -0.054571964 -0.014962239 -0.007135721 -0.0855129 -0.08687999 -0.08427415 0.25513688 -0.040018495 -0.12797078 0.08130499 0.06425185 0.06604509 -0.24920848 0.05830814 0.16279002 -0.046423867 0.018449154 0.058458544 0.031962838 -0.094414 0.006379553 0.01140477 0.0069256085 0.010780737 0.058730576 -0.17560509 -0.06111196 -0.043169864 0.08812381 -0.14609408 -0.011376366 0.07702411 -0.112083904 0.12890266 0.11963596 -0.09885282 -0.011154255 -0.027009083 0.0505564 -0.0735906 0.07708973 0.027044676 0.13137706 0.03165372 -0.04898959 -0.1504172 -0.1650739 -0.023604257 -0.07670837 0.032811847 -0.07802868 0.08889363 0.04124063 -0.07612115 -0.070130035 0.17658867 0.13568379 0.018411499 0.005351447 0.080592096 -0.06351786 0.09972447 0.085777536 -0.11761638 0.028409764 -0.14388952 -0.08564943 0.04515956 -0.08296051 -0.056873202 -0.08070975 -0.013533643 -0.15299357 -0.006769958 0.10754572 0.14414282 0.13084418 0.14213091 0.027672118 -0.08724794 0.034262933 -0.003177099 -0.08677668 -0.08110489 -0.030141942 0.16126204 0.15843157 0.019071586 0.2821262 -0.22288865 0.19047433 -0.012541626 -0.08201547 -0.004313631 -0.039521743 0.07935216 -0.008130352 -0.28648633 -0.0074996217 0.059117794 -0.072377294 0.13454235 -0.0046516983 -0.028212782 -0.11949535 0.17883536 -0.047854975 -0.050639834 -0.11641277 0.071042076 0.055867806 0.0350799 0.031405877 -0.21438845 -0.11623505 0.052946247 -0.111203335 0.22087735 0.17081423
201371 -0.017394781 0.01205171 -0.034895875 0.074217685 0.0387611 0.031595398 -0.14855403 0.03577167 -0.050109304 0.008092008 0.008494285 -0.011585096 -0.055491127 -0.0755105 -0.029097674 0.1926504 -0.0005575305 -0.043437507 0.022904828 0.022799844 0.053110175 -0.19515765 0.062008187 0.10642894 -0.02726875 0.015797216 0.0785093 -0.057503432 -0.07295686 0.04861877 -0.010491087 0.01950299 0.0198311 0.07583687 -0.09122007 -0.06437902 -0.034380633 0.039714362 -0.092701 -0.002911106 0.039083872 -0.055030517 0.06528946 0.094210595 -0.03857114 0.01683723 0.009351794 0.017997913 -0.027189573 0.10887583 0.071595 0.135595 0.022281012 -0.022131866 -0.07282008 -0.10919579 -0.06747805 -0.08225624 0.04949258 -0.06885976 0.04039369 0.03194907 -0.104583085 -0.0117369 0.15038247 0.099296786 0.040543783 0.031159347 0.014415684 -0.026409607 0.054419093 0.068206 -0.057414703 0.019880299 -0.11134284 -0.03811781 0.04533156 -0.071716815 0.032812577 -0.1181352 0.024589753 -0.08913535 0.0065202536 0.107244745 0.13362534 0.09210056 0.12685321 0.017108686 -0.020726323 0.052780926 0.011292209 -0.026899941 -0.016989723 -0.057488248 0.06698089 0.15248948 0.013423362 0.23080313 -0.121974096 0.118097685 0.02700989 -0.06334498 0.030838009 0.017560016 0.029293854 0.0058934754 -0.20768645 -0.019105505 0.029231744 0.007510003 0.10878336 0.03687625 -0.030046722 -0.1410432 0.17309076 -0.03395752 -0.017231405 -0.11251572 0.030693695 -0.0075434134 -0.014519493 0.061539106 -0.15866736 -0.06805617 0.046762433 -0.07585183 0.1145972 0.10442233
201372 0.015508142 -0.0012827044 -0.015470781 0.01387452 0.015714638 0.0024243763 -0.0976002 0.022104973 -0.017285883 -0.034550995 -0.019900093 -0.0008571424 -0.038454376 -0.025914676 -0.0062152264 0.08803882 0.008085155 -0.023607358 0.044826377 0.02385039 0.004182344 -0.07031684 0.061887138 0.060886662 -0.014731061 0.0021552583 0.057869464 -0.007043148 -0.05563476 0.031191615 -0.014505554 -0.0051640654 -0.0089752935 0.05179516 -0.042989146 -0.00571594 -0.035657283 0.049514078 0.00702316 0.027696049 0.010363813 -0.044096693 0.059905875 0.059280585 -0.036957704 -0.0029639658 -0.00049393845 -0.009409392 -0.010691326 0.047077462 0.03457438 0.06467354 -0.0046915794 -0.0010903951 -0.08162864 -0.065190464 -0.015402074 -0.06922479 0.012169971 -0.060898177 0.023473725 -0.0020959505 -0.016146773 -0.05083407 0.08492895 -0.00025613423 0.046841674 0.02413131 0.029967466 -0.0058783363 0.002576966 0.04840195 -0.03334989 0.013207082 -0.06014123 0.008498464 0.010817102 -0.009224532 0.00020110123 -0.015287766 0.028532716 -0.055762976 0.019282607 0.041063502 0.08022954 0.056524664 0.08703807 0.024785506 0.0043821195 0.03505893 0.037597217 -0.017114107 0.002349735 -0.032191955 0.016776934 0.07409997 0.040631905 0.105708905 -0.082544275 0.057135347 0.015437368 -0.03198728 0.05014567 0.025499994 -0.0023651153 -0.012924536 -0.10548365 0.022377681 0.01508259 -0.030142643 0.026768535 0.021191802 -0.008176801 -0.036342617 0.09040674 -0.036763366 -0.013991855 -0.039481442 0.034202795 0.04006819 -0.0030711151 0.03709036 -0.09028358 -0.046393372 0.009148991 -0.052699354 0.045392755 0.042245526
201373 0.13807727 -0.016540827 -0.17888913 0.065496296 0.051499832 0.05014801 -0.24908341 -0.096438214 -0.0707726 -0.07244202 0.03003905 -0.091208145 -0.21206915 -0.14280075 -0.014491272 0.273893 0.025992604 -0.050486155 -0.004672156 0.12651075 0.08151779 -0.25053558 0.2231315 0.25176325 0.014170565 -0.1543601 0.16846864 -0.053933304 -0.120727114 0.021537878 -0.14760014 -0.06698543 0.11712778 0.24121225 -0.16344719 -0.119088605 -0.04225233 0.00531982 0.0025746538 -0.033430997 0.043740124 -0.201117 0.09678769 0.18314733 -0.099056914 0.17367798 0.07576061 -0.028160576 0.025757309 0.27851915 0.16229667 0.058676746 -0.041339967 -0.18420477 -0.30765295 -0.18396434 -0.28548542 -0.27944002 0.09545557 -0.12826766 0.111680016 0.04167817 -0.15285298 -0.09206 0.27502486 0.01825142 0.054623682 0.12401858 0.070566304 -0.085907355 0.043461263 0.22970976 -0.013731871 -0.023329476 -0.25261623 -0.0077930316 0.038575336 -0.19343196 0.060105957 -0.064185366 0.26902983 -0.13987717 0.2027352 0.18142788 0.3891173 0.15958184 0.29603362 -0.018652258 -0.11278673 0.05686581 0.25901815 -0.056413252 0.0796699 -0.20437951 -0.00601385 0.16254179 0.17524657 0.37326744 -0.2245936 0.17815731 -0.0021801074 0.07104182 0.17228678 0.19006811 0.23824379 0.05042226 -0.24094696 0.04807839 -0.028013576 -0.085629664 0.0023337149 0.08950191 -0.08842726 -0.20093839 0.35408756 -0.1559096 -0.06865577 -0.24612702 -0.023549767 0.015558432 -0.019128107 0.11792033 -0.408481 0.015300392 0.20630325 -0.18482776 0.06596901 0.038748473
201374 -0.003405207 -0.0021930127 -0.0027426279 -0.0032315059 0.0038100113 -0.0021432617 0.0010671519 0.0001639922 -0.0019210344 0.0031644464 -0.0037494097 -0.002063544 -0.0029605648 -0.0011744713 -0.00097794 0.0036179007 -0.00051438104 0.0033620258 0.0033835452 0.0032511735 0.0031190233 0.0037454197 -0.00092626887 -0.0033906184 0.0021389648 0.0038193695 0.0029037562 0.0025601995 0.002676181 0.0008349799 -0.002096306 -0.0027477727 0.0012671713 0.00054141536 -0.002717364 -0.0023972047 0.00083862926 -0.003045054 0.0024439034 -0.0028022768 -0.00045874948 -0.0023749669 0.0017038758 -0.0032347604 0.0026896656 0.003539322 0.00017347171 -0.001579782 0.0009830912 -0.001608673 -0.00021050003 0.0027887542 -0.003065395 -0.00071839185 0.0031558168 -0.00066876784 -0.00017249104 -0.000808297 -0.0029203333 -0.0014720149 0.0034127561 -0.0011274045 0.003142549 0.0023576687 0.0031805437 -0.00024077966 0.0023564836 -0.0029239624 -0.0018550945 -0.003122496 0.0005867511 -0.00092712755 -0.0032422757 -0.00022809158 0.00075389695 -0.003054788 0.0027909777 -0.0011427915 0.0013595007 0.0020697857 0.00280967 -0.0033035013 -0.0027106756 -0.0032054272 -0.002340172 -0.0023288205 0.0009675523 0.0034720812 0.002983731 0.003673042 0.0023740951 0.0026488495 -0.00046098413 0.0027220435 -0.0008160841 0.0038201758 0.0026628051 0.0018567793 0.0017877761 -0.0035711236 -0.00031875286 0.0003626853 0.0030970958 1.1961862e-05 -0.003304476 -0.0029293757 -0.0016587015 0.002272216 -0.0015795509 -0.0014988495 0.0035633873 0.0002622563 0.0012717703 0.0033681528 -0.00247401 0.0015316062 -0.0038083887 3.0194313e-05 -0.0004115063 -0.0010883083 -0.0035760193 -0.0020916304 0.00062018493 -0.003373787 0.002183636 -6.613055e-05 0.0020764973 0.0011941203
201375 0.012807704 -0.01612785 -0.03073148 0.044494607 0.03357413 -0.004548931 -0.12510477 0.023858322 -0.020583045 -0.02099913 -0.030281778 -0.014618447 -0.021126637 -0.050808996 -0.017354582 0.124997936 0.0008358355 -0.035230592 0.055622995 0.029623467 0.010604917 -0.13283928 0.05397775 0.08941664 -0.021366956 0.0074563962 0.068143874 -0.045507926 -0.066698216 0.051525783 0.0005991124 0.009520044 -0.013513417 0.06597226 -0.05000625 -0.012886315 -0.020248255 0.06389707 -0.023303105 0.030892177 0.01617335 -0.05496278 0.08200445 0.072535776 -0.044880953 -0.012281471 0.024036203 -0.0016506024 -0.032093592 0.064278014 0.06267548 0.10328726 -0.0034064148 -0.007833311 -0.07828725 -0.09236729 -0.022491993 -0.0816423 0.035398744 -0.073109515 0.041134 -0.0018211725 -0.044997506 -0.032794513 0.11222634 7.136146e-05 0.06692175 0.019607764 0.014535274 0.014588126 0.00492859 0.059977088 -0.048097756 0.017072653 -0.06970804 0.006843227 0.025676534 -0.02032619 0.01504326 -0.047789693 0.034133427 -0.10081199 0.0218632 0.06798829 0.09496927 0.062015638 0.120078914 0.036171254 0.035768203 0.038492233 0.043226004 -0.029362854 0.0047802487 -0.06595527 0.019455263 0.12396387 0.052142102 0.1733514 -0.090545826 0.049993835 0.030627076 -0.04240298 0.0687127 0.065126345 -0.023464372 -0.026876708 -0.15080832 -0.007109752 0.05630946 -0.01151405 0.039691392 0.016437056 -0.018829895 -0.07037313 0.11107328 -0.064814635 -0.0039024183 -0.040286273 0.042801835 0.036299597 -0.012696097 0.07168934 -0.092211924 -0.065385915 0.001124337 -0.07402054 0.056627754 0.064969614
201376 0.014074667 -0.008481753 -0.015345828 0.024956178 0.019859552 0.015562694 -0.13532104 0.03269395 -0.023099657 -0.044907704 -0.022786697 -0.018439842 -0.029751113 -0.050053 -0.03174415 0.14237809 0.0030062348 -0.032324404 0.05758592 0.014222344 0.0024010858 -0.121882476 0.06344815 0.090037465 -0.012553611 0.004139974 0.0779353 -0.03623592 -0.06378424 0.049925458 -0.0026878896 0.000557932 -0.022517215 0.053458624 -0.061959203 -0.019300219 -0.046008624 0.05783685 -0.015961027 0.027447069 0.018095857 -0.050908465 0.08175398 0.07833137 -0.031668477 0.007734293 -0.0017436431 -0.0032506872 -0.030094966 0.062425107 0.045057487 0.090005405 -0.013318995 0.008003988 -0.09175833 -0.07629656 -0.020745113 -0.09014267 0.013873518 -0.08581101 0.037228607 -0.0074842353 -0.025463289 -0.035985533 0.10629166 0.01899663 0.053470686 0.028917693 0.016241185 0.015863162 -0.009560714 0.06302048 -0.052156948 0.021078005 -0.07298665 0.007200031 0.012471669 -0.006952981 -0.00193417 -0.057424407 0.028854016 -0.08554324 0.012610133 0.05963865 0.112286106 0.06669604 0.11651904 0.021060083 0.017006882 0.045699272 0.042151578 -0.028010992 0.011273378 -0.057219554 0.02178778 0.12751167 0.05523422 0.15127033 -0.09109212 0.067511916 0.033831764 -0.05781433 0.048860043 0.043982163 -0.03258151 -0.020140886 -0.1541021 0.0013944376 0.039790027 -0.033597473 0.045437578 0.027370173 -0.011554108 -0.050152756 0.09700621 -0.05184373 0.015114892 -0.039983824 0.057048816 0.029773077 0.0055861706 0.05016543 -0.07773409 -0.07650646 -0.0013487267 -0.07684983 0.047621652 0.07318504
201377 -0.13034797 0.102842554 0.030974623 -0.17998898 -0.014720983 0.23487858 -0.15274467 0.1932862 0.019660106 -0.032957546 -0.014116806 -0.079456136 0.020863688 -0.12814087 -0.20777106 0.24865974 -0.095731415 -0.23056516 0.09778557 -0.12259793 0.11897569 -0.30807683 0.048395764 0.35817376 -0.07483745 -0.043062203 0.18897754 -0.16227023 -0.10765602 -0.011957287 0.07428072 0.047766045 -0.041266676 -0.17494427 -0.27593493 -0.14728065 -0.066952646 0.07600546 -0.2868689 -0.0061042835 0.023493152 -0.19679295 0.12893406 0.06501703 -0.07833573 0.1525877 -0.042132813 0.14971048 -0.063363254 0.09581839 -0.07087703 0.11050881 -0.00936681 0.06242575 -0.17219847 -0.1547969 0.04154192 -0.042331908 0.012630508 -0.13876648 -0.034607213 0.08437544 -0.14920893 -0.005630063 0.23282294 0.4394684 -0.05180419 -0.11441307 0.16892502 0.05091963 0.18440156 0.102428466 -0.29531455 -0.014309815 -0.17443867 -0.07154832 -0.096301034 -0.12642214 -0.1511171 -0.19335091 -0.28689453 -0.23743267 -0.16395853 0.003960956 0.20863812 0.1976333 0.0431087 -0.27312192 -0.21780598 0.13531888 -0.14405753 -0.09327047 -0.16257633 -0.13760725 0.18140125 0.2576221 0.024237275 0.3105813 -0.20445947 0.27527586 -0.02949242 -0.17372994 -0.25917912 -0.1692402 0.24773592 0.055915266 -0.39529604 -0.063295044 0.17996359 -0.123190045 0.35742038 -0.019924393 0.19653657 -0.02921728 0.10173683 -0.05853308 0.009809062 -0.22259542 0.007110652 0.1171815 0.16111279 -0.073507994 -0.14916387 -0.11310083 0.13407025 -0.1602205 0.48687565 0.42430797
