34 128
23 -0.12322331 -0.066426694 -0.02058152 -0.12651044 0.05003361 -0.0626028 0.073567644 0.071353495 0.059165824 -0.12915742 -0.14348623 0.3213554 0.101463035 -0.21195176 0.028822387 -0.11790119 -0.36044142 -0.013144698 0.0009246231 -0.058795746 0.06029286 -0.018357096 0.004121586 0.053431187 -0.114825964 0.104044355 -0.06452739 -0.11333778 0.009323544 -0.19302683 -0.04678908 0.10382761 -0.016880043 -0.048728045 -0.014400707 -0.053973842 0.062457588 -0.09485487 0.01942942 0.0068448484 -0.13385738 0.025827253 0.07075066 0.01676083 0.13888198 0.026269816 0.047112998 -0.0098044025 -0.09261541 -0.01664813 0.03676542 -0.033162147 0.016503507 -0.13273641 -0.0052637653 -0.0648026 -0.09754507 -0.0484687 -0.034103286 -0.054615 0.17388904 -0.07062661 -0.044805165 0.060053155 0.14994662 -0.004308765 0.011940279 0.0069551757 0.03354054 0.025011592 0.14799777 -0.109488845 0.21347226 -0.12226402 0.16764697 0.049413007 0.26598915 0.013832751 -0.057570275 0.03381329 0.015359666 -0.11264623 0.06733589 -0.46892297 -0.15224801 0.13250321 -0.020830523 -0.09585748 -0.0058809007 -0.049628686 0.12316458 0.18319231 0.0143081695 0.1269332 -0.21501867 0.037397496 0.018635927 -0.029178075 0.017538268 0.13328871 -0.07041418 -0.06713216 -0.030103598 0.016693605 0.006977807 -0.064555444 -0.057258848 0.032920763 0.039999668 -0.059614424 0.022007214 0.10677587 -0.087282345 -0.05061099 -0.06215266 0.06725089 -0.10180784 0.39926776 -0.20601103 0.02659017 0.009449884 -0.13816932 -0.056183577 -0.33482367 0.012799301 0.035950985 -0.06789391 -0.0035929559
19 -0.14071387 -0.11003152 0.023255995 -0.10690033 0.08184575 -0.062202115 0.066916406 0.0888367 -0.0044778483 -0.11525032 -0.09972507 0.28301796 0.10843516 -0.20159799 -0.0078063374 -0.08357239 -0.29153895 0.047279827 0.03165684 -0.051912177 0.06353084 -0.03161528 -0.028462976 0.06412681 -0.094201475 0.1364621 0.015509801 -0.073031 0.044404127 -0.16743456 -0.040025324 0.10705221 0.014525837 0.05814239 0.060284737 -0.05253042 0.039500397 -0.09283761 0.034841016 -0.0013951468 -0.15353513 -0.02225796 0.035338048 0.0089317085 0.123864464 0.02515525 0.06645983 -0.045409795 -0.07530765 -0.081757694 -0.11486675 -0.057730597 0.031275917 -0.14366896 0.0111426525 -0.017978318 -0.119713575 -0.1287245 -0.08754437 -0.058948513 0.20160553 -0.06763514 -0.05549836 0.052616935 0.102863036 -0.015658414 0.027583575 -0.0016005246 -0.001227518 0.034266505 0.059027884 -0.04227625 0.15791947 -0.080606036 0.14894278 0.15159391 0.35574836 0.042945094 -0.057949107 0.040374834 -0.004396236 -0.102512226 0.0698702 -0.39048693 -0.1376427 0.12128226 -0.029251488 -0.06985296 -0.04662327 -0.027093517 0.1592862 0.1801855 -0.0017261889 0.07366922 -0.19172052 0.041465472 0.013362572 -0.0054755295 -0.035716288 0.13099019 -0.12167414 -0.09871655 -0.10530431 0.012628324 -0.010175104 -0.028470973 -0.08801167 0.03409196 0.0213333 -0.08906917 0.03295691 0.104306705 -0.10244747 -0.048441306 -0.023305245 0.06788096 -0.050759383 0.34703016 -0.18411094 0.077545874 -0.012799769 -0.10947485 -0.05412047 -0.23344569 -0.0071946857 -0.021499356 -0.0893868 -0.037976623
15 -0.108243264 -0.095759906 0.04486973 -0.1387967 0.025073001 -0.03828184 0.079589024 0.002598295 -0.021571826 -0.08111344 -0.109334685 0.27629483 0.10657437 -0.20658554 0.02464158 -0.11364167 -0.36364186 -0.037836436 -0.004429903 -0.063809335 0.11578492 -0.039469343 0.024097217 0.06033301 -0.12497762 0.1049713 -0.042336408 -0.08548233 0.034580152 -0.14824562 -0.029005427 0.14469048 0.0014890817 -0.062053803 -0.014588142 -0.06573484 0.02727279 -0.062819816 0.060668807 -0.025495311 -0.16414621 0.025508743 0.04655946 -0.009487927 0.13032931 0.07265036 0.004017726 -0.058490608 -0.12261334 -0.007986182 -0.023265945 -0.005893621 -0.00034387072 -0.1346461 -0.027131468 -0.080135666 -0.15174794 -0.083611466 -0.04556121 -0.029420327 0.27216277 -0.09263142 -0.031618897 0.06445533 0.14171574 -0.016445104 -0.025985297 0.0062580295 0.044761598 0.03796091 0.11498992 -0.075211436 0.1812088 -0.11631396 0.16528389 0.07311458 0.35358083 0.060912512 -0.044590373 0.02666545 -0.020729039 -0.09241407 0.04966862 -0.4872937 -0.13237944 0.14287458 -0.043618083 -0.09889584 -0.045109022 -0.010117126 0.16031517 0.19893868 0.03843078 0.063409865 -0.22270256 0.10282546 0.006402236 0.016929874 0.026577108 0.104364425 -0.06431908 -0.04972465 -0.081302546 0.005064109 0.0064182756 -0.06065234 -0.04512887 0.0680177 0.06763849 -0.09982869 0.0024215332 0.08561141 -0.1438135 -0.07985724 -0.04905125 0.06486351 -0.10780133 0.390765 -0.24081323 0.08220703 -0.016326679 -0.15826395 -0.03974339 -0.29723328 -0.008422287 0.04961725 -0.033205446 -0.007647174
21 -0.15982434 -0.034738578 -0.0057554324 -0.16667852 0.051795166 -0.08761191 0.044762634 0.13566892 0.04267444 -0.07603594 -0.17232698 0.28730744 0.105992965 -0.22052066 -0.0026576596 -0.067129284 -0.2914312 0.044979848 -0.021656755 -0.046902638 0.034262136 0.019757135 -0.008932803 0.03314193 -0.060901966 0.15292518 0.012037409 -0.04853953 0.027421102 -0.16913189 -0.042440385 0.06923846 0.03399295 0.03696837 0.051789552 -0.0649583 0.079149924 -0.094196856 -0.0140410075 0.048186902 -0.16276217 -0.042838424 -0.0059780623 0.04481993 0.10258836 0.0016889946 0.08809004 0.02110384 -0.07252106 -0.09790986 -0.05684231 -0.07401105 0.048262198 -0.173843 0.09088568 0.0033647143 -0.12827827 -0.12791382 -0.12833919 -0.09492284 0.13376778 -0.084272 0.018974116 0.053013433 0.17855364 -0.017464653 0.094640814 -0.0057459734 -0.00944419 0.011529868 0.10250711 -0.041692887 0.21850608 -0.14945303 0.22425328 0.12191038 0.32186475 -0.014072768 -0.10912546 0.08240718 0.03654173 -0.115326345 0.056006834 -0.44259426 -0.22334822 0.17470795 -0.0029912326 -0.07772617 -0.025034245 -0.021279456 0.2061584 0.14246081 0.027253523 0.13508774 -0.23206432 -0.015446509 0.005721447 -0.002486538 -0.0003957019 0.17410333 -0.15441939 -0.1494996 -0.12796202 0.09930636 0.009846009 0.013094343 -0.086728066 0.013033318 -0.04951284 -0.1338688 0.037108086 0.13032864 -0.067747496 -0.024512565 -0.04150639 0.06292907 -0.10678685 0.43291458 -0.15358339 0.0433356 0.006775555 -0.15560786 -0.0654393 -0.43443605 0.039424546 0.021495154 -0.13488977 -0.022379344
16 -0.09823798 -0.06324214 -0.04462646 -0.12493858 0.044731595 -0.077925734 0.06275327 0.095886186 0.08934505 -0.08335998 -0.17152308 0.3289888 0.0858075 -0.19622368 0.07369237 -0.14880086 -0.34879082 -0.028578255 -0.048979238 -0.06709595 0.03509378 0.016474077 0.02500563 -0.015249897 -0.07296675 0.11319122 -0.041174334 -0.07889658 0.013883122 -0.17487867 -0.053184863 0.07349554 -0.015174696 -0.05992986 0.03259213 -0.038552146 0.06642137 -0.090858914 0.015890565 0.024094492 -0.09012541 0.028302126 0.05528722 0.04697008 0.1076622 -0.023821263 0.034861125 -0.0036613906 -0.08729855 -0.013449502 0.07028959 -0.04001747 0.0005692955 -0.10089501 0.06633551 -0.03123903 -0.09925378 -0.0048720334 0.0011326205 -0.097472854 0.13917546 -0.09690706 0.0076502967 0.035621192 0.16298057 0.0030156064 0.030366145 0.011673504 0.062582746 0.015515711 0.14000729 -0.07418296 0.19016527 -0.16881904 0.17739142 0.02325839 0.23590359 -0.018309891 -0.108630195 0.05970581 0.045524653 -0.068308204 0.038185116 -0.3903352 -0.17325403 0.11427614 0.023816574 -0.06269078 0.022119978 -0.002216342 0.11695014 0.12245812 0.028177673 0.1536769 -0.2037628 0.02550253 0.026747495 -0.009158113 0.05396973 0.12192927 -0.051626217 -0.052121002 -0.03568406 0.05031635 -0.018079905 -0.035555597 -0.062444627 0.018609894 -0.021977901 -0.09395151 0.013272758 0.11758984 -0.09536472 -0.050292082 -0.06688866 0.05638745 -0.14341682 0.45301518 -0.2032926 0.03292861 0.013261276 -0.17802308 -0.041319374 -0.4783719 0.02716582 0.077216975 -0.08222227 0.034059852
11 0.108558945 -0.21454069 -0.16923642 0.13613196 0.09800965 -0.11945507 0.019418655 0.16790327 0.12932146 -0.15558153 0.009517704 0.09192148 0.07510308 -0.12870741 0.14753142 -0.24898526 -0.073705316 -0.0654422 0.0082147 0.05638056 0.28757897 -0.05082516 0.18844673 0.19066228 0.10612687 -0.07880981 -0.105406925 -0.22405478 -0.019242357 0.08131801 -0.031415373 -0.08442451 -0.13746074 -0.013473345 0.023419369 -0.11056117 0.23664434 0.00854669 -0.22583474 -0.13646878 -0.024051942 0.023946518 0.12340455 0.19289823 -0.1558898 0.2634598 0.07759024 -0.008414257 0.19496047 -0.096146606 -0.13832682 0.12261742 0.034564387 0.08313845 -0.027350364 -0.11742486 0.16861184 -0.059396323 -0.051726393 -0.07995588 0.17553177 -0.04056283 0.12345098 0.28837037 -0.15599763 0.025037218 -0.1841525 0.09791276 0.09384822 -0.11821705 -0.14145213 0.13891323 -0.14582929 -0.09820857 0.22248219 0.017548129 -0.029533492 0.036870312 -0.02546574 -0.086066216 -0.17730966 0.069605835 0.02454043 -0.019457674 -0.0985647 -0.14368835 0.17780112 0.012174328 -0.041276824 0.11713487 0.16466141 -0.11742109 0.24642089 -0.097983055 -0.14739333 0.091388084 -0.019195687 -0.22257976 0.07541847 0.1411099 -0.17361197 0.12776773 -0.112523176 -0.015574731 -0.18394545 0.09464218 0.07810954 0.08537489 0.031448204 -0.07288153 0.06902787 0.038588863 -0.016905999 -0.08111838 -0.16438557 -0.051403444 -0.0062596314 0.07152454 -0.048566137 -0.023016075 -0.005429723 -0.09226349 0.20825277 -0.3582248 -0.16701098 -0.067461364 -0.005102843 0.17646392
5 0.07760186 -0.16870819 -0.2184542 0.16406976 0.10005496 -0.050874952 0.03621123 0.19482581 0.1951657 -0.1704207 0.0033647898 0.13473225 0.017509421 -0.12572128 0.11970662 -0.26699352 -0.07450824 -0.009399201 -0.056440327 0.0774103 0.19817963 0.02105915 0.19625933 0.13055168 0.11881745 -0.031210726 -0.10367681 -0.2519661 -0.08944613 0.058429487 -0.08183122 -0.102766894 -0.12833805 -0.015732499 0.08090839 -0.07520302 0.28445977 -0.040476337 -0.235584 -0.087338805 -0.043892417 0.019821446 0.14958224 0.256701 -0.12909222 0.15850686 0.07848503 -0.011877796 0.15785854 -0.15769255 -0.08816678 0.093437806 0.060098976 0.071600705 0.049735446 -0.10128336 0.13438119 -0.043083433 -0.07310439 -0.12702951 0.11993672 -0.08202291 0.13313693 0.26603988 -0.10424287 0.031398736 -0.12867868 0.09568883 0.083408795 -0.12538469 -0.092108615 0.15819365 -0.093869165 -0.13881482 0.2418634 0.013399727 -0.044978935 0.015488716 -0.089827955 -0.008694929 -0.101057604 0.04887207 -0.033739515 -0.013665553 -0.17111759 -0.12286351 0.14744729 0.051695228 -0.019720083 0.12958154 0.19555262 -0.18461595 0.253774 0.0032635482 -0.15940888 0.044894297 -0.0054172454 -0.16381864 0.04560613 0.18416592 -0.16778897 0.065847054 -0.10062261 -0.038297616 -0.19957732 0.0725562 0.031696077 0.086685784 -0.10751222 -0.084503986 0.065896764 0.005120486 0.005593751 -0.13046737 -0.13952781 -0.056190312 -0.04515047 0.092581 -0.031069422 0.059369646 -0.018757047 -0.09939906 0.15147991 -0.32962975 -0.09653437 -0.044581704 0.008927247 0.20424815
29 -0.14797711 -0.23132862 0.11353066 0.20844713 0.2785742 -0.3064382 0.045308016 0.28586623 -0.15222897 -0.20495678 0.03772029 0.18729012 0.24404952 -0.20897023 -0.12630989 -0.24378015 -0.037327338 0.15769666 0.10697115 -0.09270334 -0.06475044 -0.0050339503 0.02376357 -0.109809995 -0.13919766 0.09841987 0.063398555 0.101197354 0.1372059 0.018022653 -0.07672654 0.026056504 0.046622187 0.2179262 0.030783636 0.16671112 0.06976913 -0.16539447 0.121006586 -0.11384367 0.08464416 -0.06758466 0.10631143 -0.00886186 0.0060493182 -0.17941284 -0.17787471 -0.11291293 -0.045622658 -0.04595857 -0.09690986 -0.042191815 -0.0313586 0.033057466 -0.10191301 0.082204685 0.118946075 0.12526922 -0.27596837 0.08673734 0.10831193 -0.07323933 -0.19945468 -0.12671539 -0.19612107 0.03918157 -0.19992408 -0.0472647 -0.15438701 0.18543665 -0.06968887 0.051389802 0.055684198 -0.00047954722 0.08662487 0.24390726 0.19540754 0.03645259 0.08983867 0.1307791 -0.055284373 -0.2665767 0.005962401 -0.1553815 0.14364794 0.20965704 -0.14187393 -0.124384545 0.0927565 -0.076492466 -0.05300794 0.026612407 0.13231175 -0.068123445 0.06748328 0.061610803 -0.12290338 0.016222015 0.014191941 0.21603884 -0.3145419 0.014051582 -0.03479062 0.110958375 -0.06078999 0.20264982 0.2596867 0.33835986 -0.03355826 0.10463067 -0.049882792 -0.17127433 0.036295425 -0.02209347 -0.124653615 -0.26501247 -0.06288982 0.20226023 -0.20812571 -0.13923386 -0.015274837 -0.24398617 -0.115847096 -0.3231749 0.10042516 0.05552165 -0.20621562 0.020023948
22 0.07523336 -0.14502284 -0.12868641 -0.046597764 0.009430953 -0.16346392 -0.069634184 -0.026296034 0.056233093 0.025393203 -0.041445546 0.24010108 0.10538666 -0.05701963 0.14434318 -0.18975484 -0.27943635 0.01503411 0.060559567 0.04537247 0.2947378 -0.05183956 0.1668738 0.06595374 -0.08936336 0.1418655 0.082629226 -0.10560608 0.101461664 0.018569387 -0.046121877 0.0048603504 -0.0936436 0.09261536 0.09121469 -0.09003128 0.1475861 -0.032307923 -0.07204068 -0.09626409 0.09170277 -0.027661504 -0.04205534 0.1268872 -0.010239264 0.23797897 -0.05754087 0.019355483 0.10309436 -0.07819801 -0.24452156 0.0015859962 0.10398627 -0.023250412 -0.012288712 -0.0055016493 0.13132657 -0.031768538 -0.09075211 -0.15523264 0.19923492 -0.11044599 -0.03354946 0.10083809 -0.047629476 0.03779389 -0.21890113 -0.05622735 0.16859171 0.03397333 -0.17577845 0.0062845238 -0.03480056 -0.15746377 0.28160387 0.09844189 -0.012080946 0.011596423 0.029039256 -0.049952824 -0.18506207 -0.04373981 0.050528247 -0.14589866 -0.17445347 -0.003768757 0.20571798 -0.14655869 0.0029445235 0.052728694 0.13728146 -0.20461452 0.10770193 -0.11258348 -0.06472248 -0.050396018 -0.06652773 -0.097323075 0.066381365 0.030067468 -0.10556405 0.076972365 -0.039215278 0.08414897 -0.059513006 0.025941558 0.02163353 -0.012398103 -0.00839178 -0.09106642 0.018847156 -0.02677932 -0.054399375 0.008848201 -0.11432051 -0.14744553 -0.19622265 0.13707142 -0.10515547 -0.16118553 -0.014526172 -0.121711254 0.10955367 -0.2958245 0.027392754 -0.045998923 -0.12904167 0.07288886
18 0.032885868 -0.08744747 -0.0798183 -0.11936539 -0.02041903 -0.08086443 -0.062001217 -0.045434482 0.042883843 0.066759914 -0.05932129 0.2341767 0.075290546 -0.07617561 0.11250935 -0.11881051 -0.30206135 0.038022608 0.030210963 0.035781942 0.25349522 -0.038304485 0.11114874 0.073157735 -0.07321001 0.17743777 0.10533805 -0.082774326 0.10019615 -0.020893728 -0.046239357 0.048772007 -0.062601484 0.10359935 0.11044376 -0.11381346 0.112023465 -0.029905453 -0.05444409 -0.04187198 0.002577266 -0.021277761 -0.049776454 0.11187412 0.00498465 0.20970461 -0.021411035 0.0044800863 0.06625373 -0.10655374 -0.26009798 -0.015943728 0.11974904 -0.061305236 0.024122734 0.0015583213 0.027849196 -0.11064054 -0.10377455 -0.15523203 0.21371956 -0.12205582 -0.009303611 0.10160385 0.0317699 0.014016686 -0.13266312 -0.051937733 0.14450745 0.019004945 -0.14554071 0.01641881 0.013797926 -0.15314122 0.2772093 0.14616995 0.116918065 0.024990842 0.008323368 -0.031932943 -0.14747931 -0.048442475 0.040196035 -0.21613061 -0.20220973 0.0411916 0.16249174 -0.11702859 -0.033068553 0.07432045 0.20964345 -0.12478356 0.07301448 -0.102813475 -0.12945625 -0.027188426 -0.069656596 -0.06923838 0.036473252 0.059484825 -0.12954418 0.004964115 -0.09724871 0.073055156 -0.04622695 0.011210952 -0.029842716 -0.015011411 -0.031708945 -0.15316509 0.026084024 0.017235447 -0.089086585 -0.020457948 -0.08123318 -0.09243769 -0.18080674 0.1881975 -0.1236095 -0.06434905 -0.028400816 -0.12608005 0.092485055 -0.2755092 0.02863885 -0.07127916 -0.10252254 0.046671372
7 0.12456572 -0.2363416 -0.21982448 0.1572858 0.05046447 -0.028620888 0.107519515 0.124790184 0.1517528 -0.19576631 -0.018318662 0.09312797 0.05082671 -0.16002047 0.16683803 -0.30833524 -0.13548033 -0.087385364 -0.11069078 0.053574357 0.2555526 -0.0036714051 0.26622263 0.13929595 0.12140375 -0.07516617 -0.16613291 -0.32357764 -0.13127978 0.087872244 -0.036827557 -0.031548522 -0.107611455 -0.16847005 0.06463441 -0.08760249 0.26330402 -0.04381944 -0.25174242 -0.16279964 -0.12441561 0.02914565 0.1289343 0.20983681 -0.13468193 0.22130893 0.035635047 -0.048176512 0.12104593 -0.089356475 -0.08651865 0.17250243 -0.017478343 0.06137141 0.03284507 -0.17839997 0.08509732 -0.0650796 -0.045483194 -0.07963278 0.25938782 -0.08160437 0.20453958 0.31452808 -0.12719837 0.020098364 -0.14328247 0.15035012 0.1041044 -0.08651845 -0.07554761 0.20187086 -0.14899987 -0.1318666 0.21783832 -0.032497335 -4.6181725e-05 0.0897293 -0.102804214 -0.036941335 -0.09139897 0.13992715 -0.033092156 -0.045968153 -0.087517 -0.10738993 0.05719017 0.06948358 -0.08390428 0.16665913 0.21842782 -0.104559496 0.34651297 0.012082103 -0.17599288 0.13921623 0.06584554 -0.10853347 0.081569426 0.17277978 -0.09724233 0.09686772 -0.16526362 -0.05598923 -0.19356948 0.055244803 0.039019927 0.15635727 0.018239984 -0.06563678 -0.0057889097 0.032513782 -0.06975633 -0.18398613 -0.1405966 -0.029159594 -0.013914392 0.08602785 -0.06013574 0.15086855 -0.03613495 -0.10395274 0.1596194 -0.32119933 -0.13946284 0.03018286 0.058154494 0.19086838
6 0.10264751 -0.20815913 -0.2184699 0.17819266 0.09698302 -0.027585102 0.080392115 0.17481466 0.1737692 -0.21779804 0.010074222 0.099297434 0.0348869 -0.15442955 0.12389495 -0.24851781 -0.06213187 -0.039591268 -0.043185458 0.103083774 0.26853582 -0.0356728 0.23477246 0.20160815 0.1395553 -0.10747512 -0.16240066 -0.3337408 -0.1116723 0.09075058 -0.033248834 -0.06257611 -0.13393468 -0.07369036 0.035617366 -0.118326 0.26969063 -0.018880265 -0.2871615 -0.13532898 -0.12335064 0.0331004 0.16552848 0.21446852 -0.15691298 0.23965454 0.11085406 -0.03201001 0.1851607 -0.11658827 -0.1284146 0.16152939 0.043651827 0.06154665 0.005050192 -0.17181937 0.13345376 -0.0961525 -0.055161845 -0.09562596 0.1966859 -0.05518094 0.14248262 0.34596607 -0.13693766 0.0107555175 -0.1360885 0.12443898 0.07280084 -0.14697571 -0.107618116 0.1625766 -0.14104043 -0.077897325 0.2100813 -0.0021430468 -0.040192597 0.07887004 -0.050936725 -0.07879143 -0.14135858 0.07717273 0.00078845245 -0.02011868 -0.0785239 -0.15212916 0.10938571 0.06834159 -0.078037776 0.12763399 0.20128156 -0.09540822 0.28431287 -0.021446824 -0.17811544 0.10139182 0.0071466966 -0.21664149 0.049670078 0.18367255 -0.15533602 0.087413244 -0.12828775 -0.092002675 -0.2047658 0.05587313 0.04506276 0.1204259 0.016801985 -0.039529305 0.04596332 0.040005144 0.0016410599 -0.13778669 -0.12810174 -0.016179375 0.060030453 0.004177976 -0.014672815 0.073740214 -0.023745501 -0.038437307 0.17597729 -0.2314538 -0.1880872 -0.059997253 0.054809015 0.17364115
13 0.08074705 -0.14540376 -0.089133814 0.0042508487 0.024510475 -0.05130418 -0.014046955 -0.021337241 0.04617341 -0.023853106 0.012965155 0.22682016 0.06914817 -0.12487004 0.08762382 -0.16252652 -0.2659907 0.021385504 0.061526135 0.05309506 0.29725885 -0.08613273 0.1277953 0.17099729 -0.043491613 0.091915816 0.0379171 -0.17834923 0.058280014 0.031410202 -0.06638606 0.03566647 -0.103530295 0.08078146 0.09755898 -0.10624375 0.17376977 -0.018169193 -0.10962837 -0.14091265 0.0028885512 0.00243635 0.032719146 0.13622856 -0.03829836 0.27787572 -0.0074128974 -0.028448327 0.10712673 -0.108182885 -0.28668007 0.08213118 0.10995149 -0.058963455 0.01401458 -0.06411129 0.08381605 -0.1288515 -0.1296643 -0.14790897 0.266985 -0.117998034 -0.012632617 0.1786741 -0.04554032 -0.013956107 -0.22457081 -0.012699505 0.10054617 -0.042126447 -0.15003029 0.044266712 -0.05270189 -0.10804942 0.27969006 0.102940984 0.078751184 0.06548953 0.030310337 -0.040948957 -0.2140831 -0.06489209 0.040655013 -0.20848551 -0.14290306 -0.027319834 0.13163887 -0.08204743 -0.0708141 0.07749989 0.20953283 -0.12616763 0.15467852 -0.1225128 -0.1178803 0.026424896 -0.08985407 -0.15181613 0.03492639 0.11246066 -0.18338746 0.0756359 -0.09046813 -0.016207809 -0.123906866 0.037229747 0.04825952 0.0828325 0.026962169 -0.08837953 0.047941893 -0.04401894 -0.0863555 -0.081083216 -0.09448581 -0.12535958 -0.13918962 0.06589981 -0.09745263 -0.03474188 -0.05139542 -0.082962304 0.1352963 -0.19048235 -0.045704212 -0.084749945 -0.04897344 0.10128316
10 -0.06432136 -0.13513024 0.10531044 0.18283184 0.17302379 -0.16727912 0.01873892 0.21310116 -0.10510872 -0.12915146 0.035352767 0.12074618 0.1731263 -0.14875512 -0.16180623 -0.14887874 -0.031765934 0.1898317 0.08760358 -0.019719765 0.02718055 -0.033104755 0.110518225 -0.027441537 -0.09183061 0.102614805 0.06319752 0.04664669 0.081180975 0.06876093 -0.09985222 0.015775276 0.0029127928 0.20462996 0.032734554 0.083077535 0.1057938 -0.12144968 0.036697358 -0.109163575 -0.018521113 -0.03420923 0.14881006 0.062233366 -0.015934661 -0.08438746 -0.1007901 -0.10311887 -0.011369608 -0.09068597 -0.12939367 0.009125025 0.045468874 0.005170318 -0.052407693 0.048630647 0.052879114 0.07173825 -0.27010834 0.033547107 0.116900705 -0.10946676 -0.15619583 -0.06317668 -0.086619854 -0.0050561028 -0.19804251 -0.05931616 -0.18223806 0.08416587 -0.062865786 0.039211705 0.08686925 -0.0064615407 0.10347618 0.1984623 0.16259389 0.031502355 0.09052396 0.13216761 -0.08139967 -0.3345305 -0.025478462 -0.17628577 0.10819087 0.20654008 -0.12564945 -0.07342789 0.049974103 -0.023731438 0.010406533 0.01256834 0.10306099 -0.08851963 0.01678496 0.06627275 -0.15263695 -0.050868813 0.017195057 0.2193832 -0.30627647 0.010060146 -0.016973909 0.041183814 -0.10133881 0.18187845 0.261017 0.3346985 -0.07304217 0.07595668 -0.033298697 -0.19204164 0.0255136 -0.061196 -0.058109187 -0.24811383 -0.083392814 0.14418924 -0.19882333 -0.06692626 -0.04302751 -0.16629174 -0.07801797 -0.23346847 0.093637705 0.0101701915 -0.12909783 0.046576463
31 -0.052905817 -0.15072857 0.10911417 0.18089035 0.16595788 -0.13902852 0.03311562 0.1758378 -0.13149467 -0.13891849 0.07732628 0.1589024 0.16075274 -0.18580496 -0.111667804 -0.15790908 -0.089303076 0.16659275 0.09326731 -0.07570782 -0.05099061 -0.03921889 -0.029080475 -0.007826911 -0.06869239 0.10907877 0.0691286 0.05104956 0.090166435 0.021433938 -0.115534276 0.043149445 -0.0034032043 0.23071396 0.08765546 0.113848016 0.062334117 -0.15590347 0.0672341 -0.15618278 0.039507873 -0.042249177 0.11392821 0.019726021 -0.008709642 -0.08267972 -0.13955203 -0.118234195 -0.029697567 -0.07971463 -0.18521054 0.013448385 0.0111066885 -0.03042338 -0.009870084 0.055211306 0.065593764 0.011665062 -0.27469867 0.014571415 0.16942953 -0.104493424 -0.13631283 -0.06731479 -0.14143111 -0.010235634 -0.21027108 -0.01191858 -0.17235932 0.09977375 -0.07535411 0.07479211 0.027762808 -0.008034908 0.14730251 0.24155319 0.23874046 0.052901927 0.093299985 0.13209632 -0.077348985 -0.28740653 -0.014550758 -0.19183454 0.12391306 0.17249255 -0.15315112 -0.07024083 0.034283265 -0.028735181 0.04164458 0.035238255 0.12379228 -0.10640665 0.011216464 0.079336666 -0.15064712 -0.06879691 -0.00023560265 0.25188676 -0.34880912 0.00030412056 -0.055448305 0.03164073 -0.10796445 0.18873426 0.2300954 0.36947066 0.0017831567 0.068434775 -0.042565726 -0.16926785 -0.015596681 -0.08690549 -0.08211735 -0.23451628 -0.08019864 0.1121413 -0.20449053 -0.05170052 -0.057013776 -0.17615321 -0.06881925 -0.2346414 0.07275962 -0.007085682 -0.13083345 0.040752083
27 -0.09012034 -0.019121133 0.057170074 -0.11583104 -0.030709907 -0.08019951 0.020337118 0.031216685 0.021800196 -0.020872021 -0.1547559 0.15352702 0.12779984 -0.12492582 -0.06514012 -0.09469573 -0.26533297 -0.043639228 0.0012013798 -0.006372113 0.2053984 -0.011442833 0.22046015 0.072832696 -0.12113114 0.12339215 -0.06716756 -0.08415941 -0.033245064 -0.029629055 -0.05182398 0.061877195 -0.004422244 -0.1303919 -0.08769571 -0.08057827 0.1544824 -0.030766144 -0.029671015 -0.030353036 -0.19105235 0.03655616 0.034025032 0.070539005 0.12657394 0.11548734 0.017768137 0.055164814 -0.08558435 -0.03763962 0.09931942 0.014228684 -0.016305672 -0.08334525 0.0031507283 -0.056500986 -0.12928551 0.013418251 -0.09937807 -0.013644921 0.14033875 -0.085329905 0.029445823 0.047036864 0.17712127 -0.050058328 -0.029834123 -0.0029006102 -0.029407937 0.056664005 0.16355318 -0.08426426 0.24242727 -0.12582782 0.11670412 -0.04588501 0.17438379 -0.017135894 -0.046564393 0.10533434 0.031064285 -0.15531847 0.03821627 -0.44819406 -0.17898522 0.21091017 -0.039351188 -0.095723286 -0.01663471 -0.028735613 0.06780988 0.12585059 0.0653009 0.08577184 -0.16466135 0.07834495 0.03174165 0.07203339 0.06815499 0.05934866 -0.058216818 -0.0074494835 -0.0070120697 0.090779126 0.041245636 0.019521913 0.04554281 0.040680088 -0.025876362 -0.056711026 0.02015232 -0.0059087914 -0.0672771 -0.04210796 -0.038542975 0.014717297 -0.16475275 0.3834335 -0.16654573 0.06363135 0.016753174 -0.16109861 -0.065159105 -0.35880503 0.09307741 0.12815815 -0.06899144 0.022368683
28 -0.09656371 -0.1618035 0.12004842 0.20472236 0.20181333 -0.21299905 0.0623553 0.26523253 -0.14404395 -0.15985055 0.016774355 0.053517472 0.18267371 -0.20242392 -0.14214203 -0.1674074 0.07920553 0.13487418 0.060023613 -0.016310915 0.0032711087 -0.021018295 0.11642812 -0.06815432 -0.046312314 0.003976958 0.010932284 0.082544014 0.119341776 0.09920048 -0.052070875 0.014404359 -0.02564335 0.21675263 -0.056536995 0.06348644 0.10571768 -0.09390233 0.026729593 -0.09362577 -0.05799155 -0.049633022 0.18480003 0.05918389 -0.09103159 -0.1329168 -0.09572277 -0.15281552 -0.009888021 -0.042978555 -0.10225383 0.025687544 0.034810375 0.07681965 -0.18770866 -0.014106507 0.056723163 0.09979795 -0.26498348 0.104665026 0.15356351 -0.0897466 -0.16195595 0.008168549 -0.105756484 0.0051724785 -0.15678087 -0.02344141 -0.15531959 0.06788198 -0.059876807 0.0565872 0.07001204 0.021422336 0.06740244 0.19390745 0.19818547 0.067819014 0.13384849 0.09060109 -0.07842528 -0.31378636 -0.03769927 -0.1635231 0.19485104 0.22598346 -0.13541192 -0.06288238 0.050556067 -0.016535396 0.0070777712 0.08113573 0.09221481 -0.12687668 -0.015424381 0.10891946 -0.17711732 -0.066221066 0.036485177 0.19631372 -0.29002652 0.0019195165 -0.03951075 0.029857678 -0.07434539 0.18303524 0.26994577 0.33159813 -0.018300194 0.079617925 -0.055954047 -0.1339055 0.06832889 -0.0016048205 -0.066162795 -0.18750803 0.013131074 0.12473946 -0.18044557 -0.098703265 -0.032348163 -0.15011585 -0.08111495 -0.21619442 0.014772258 0.032275148 -0.075098835 0.035458535
30 -0.0043924255 -0.046043824 0.06622397 0.19925034 -0.033166956 0.03343082 0.07634146 0.1093007 0.07316329 -0.04299283 -0.059713516 -0.06364935 0.06456068 -0.15901594 -0.2097598 -0.20792419 -0.02982283 -0.089276105 -0.10590138 0.10774562 0.26537025 0.0028370742 0.4335871 0.10339585 0.042121332 -0.021402542 -0.18144111 -0.17747897 -0.21727014 0.20674184 -0.14522223 -0.046238415 -0.049092468 -0.22801365 -0.15309137 -0.020470098 0.31434843 0.06812232 -0.085110694 -0.109186694 -0.29830354 0.1591061 0.2564336 0.26083636 0.0038995424 0.08914653 0.01229936 -0.041099127 -0.07437349 -0.12159055 0.25202775 0.1912655 -0.03488782 0.044111233 -0.012264688 -0.1401278 -0.18723513 0.09928375 -0.14983313 0.04710571 0.18332079 -0.18241918 0.17088859 0.20654254 0.20352058 -0.14929092 -0.121715315 0.07852912 -0.10479308 -0.038388167 0.28482112 0.04418899 0.25036553 -0.1028342 0.034739874 -0.17997164 0.18005283 0.043793015 -0.05040411 0.28280464 0.035063487 -0.22300135 -0.121954225 -0.39777166 -0.1328269 0.22679777 -0.16409051 0.0699617 -0.061139442 0.09739602 0.11104649 0.07254499 0.22055884 0.06509432 -0.17181766 0.28222904 -0.024159964 0.12994106 0.11956454 0.10742462 -0.11570192 0.11622723 0.0020190137 -0.046036884 -0.0957063 0.124900475 0.21609256 0.21467759 -0.19030498 -0.05020873 0.048651688 -0.22258893 -0.04396086 -0.1883204 -0.01758059 -0.028442662 -0.15316418 0.29365638 -0.14066653 0.333106 -0.031805728 -0.18299937 -0.050916757 -0.30967557 0.081308804 0.2303587 0.13845575 0.18930058
26 -0.04540824 -0.05032025 -0.10851872 -0.1507367 0.029899761 -0.5458994 0.030814325 0.045344595 -0.027342252 -0.17332225 -0.26063952 -0.096160434 0.42089054 -0.17894414 0.049418163 -0.076984964 0.100171246 -0.12564138 0.026028508 0.26943827 0.4358642 -0.092765555 0.44690505 0.060512193 -0.09216954 -0.29279056 -0.21446574 -0.16829218 -0.024881367 0.24199605 0.37579134 0.09521478 0.12540989 -0.24313387 -0.47512987 -0.19434956 -0.011162781 0.117027074 -0.2136208 -0.013351336 -0.12464652 -0.14864777 -0.25789267 -0.254753 -0.22669904 0.31859946 -0.10111798 0.15192759 0.1303543 0.26583958 -0.058791682 0.17018539 0.078080446 -0.105145 -0.3058238 -0.22128369 0.2907341 -0.011017989 -0.24919072 0.12330982 0.15989998 0.012529258 0.03538653 0.23623033 -0.108371615 0.085396245 -0.06352903 -0.19207361 0.068050355 0.056872874 -0.13296252 -0.16211583 0.05230689 -0.07486279 0.33348927 -0.09551843 -0.35078755 0.09725845 0.15131076 -0.34975296 -0.29388928 -0.043885212 0.17396653 -0.31603196 0.088093005 0.14822796 0.047190055 -0.33327955 -0.014544527 -0.1726127 0.03350585 0.037710078 0.34831813 0.06745247 -0.08179786 -0.1614725 -0.09255094 -0.14419161 0.30378282 0.08954858 -0.049962807 0.0024509938 -0.18134938 0.35146788 0.21064231 0.061678123 0.29181352 0.07160967 0.40209824 0.10484866 -0.26776502 0.14934073 0.25872594 0.30346733 -0.24564117 -0.06301496 0.18216631 0.15414234 0.06104396 -0.67586315 0.14543504 -0.13301238 -0.039588176 -0.71072567 -0.20765935 0.25449005 -0.32970363 -0.2220604
20 -0.17483935 -0.22717674 -0.070006505 0.015225192 0.13267635 -0.3097553 0.069716305 0.29175323 -0.16048434 -0.12771192 -0.16404463 0.07101899 0.20079459 -0.17045625 -0.004676119 -0.15963271 -0.034876894 0.22350878 -0.027551506 -0.029186448 0.11783339 0.08049315 0.2965978 -0.17296804 -0.08819449 0.20601158 0.14951538 0.027079338 0.20577891 0.03680413 -0.025420107 0.000661085 -0.028274927 0.2616817 0.119454056 -0.06431071 0.33055225 -0.19949263 -0.21516493 -0.053375904 -0.2220988 -0.27702156 -0.009333312 0.22139844 -0.066652834 -0.03621305 0.019909604 -0.072790764 0.050500974 -0.1597045 -0.33983576 -0.11116002 0.10704674 0.05130834 -0.21232866 -0.05605389 0.01983419 -0.0024805707 -0.31245846 0.025744567 0.19580245 -0.01904366 -0.13542627 0.073791504 -0.057432286 0.092269585 0.029533982 -0.016037997 0.0071477047 0.1686593 -0.23611845 0.1426294 0.015513751 -0.035650034 0.123279884 0.28107056 0.1018008 0.06422387 0.09360302 0.010982165 0.016747339 -0.16951364 0.0018024131 -0.08459832 0.075814195 0.30354318 -0.0038789131 -0.1432076 -0.01850922 0.037511263 0.13798653 -0.06745771 0.056119837 -0.08850568 -0.058250174 -0.11010562 -0.02123213 0.050695453 -0.05870526 0.11371138 -0.13679883 -0.22691418 -0.17206842 0.2022987 0.06224576 0.11573395 -0.0129764285 0.054975558 -0.06339873 0.017530708 -0.09613364 0.058362067 0.102262735 0.14764485 0.0038487285 -0.11013696 0.019528542 0.09123051 -0.010871058 -0.09655551 -0.018192234 0.005427944 -0.07958826 -0.010240096 0.08137554 -0.014936008 -0.14763074 -0.048297483
24 0.020228306 -0.03968759 0.097534336 0.14459321 -0.03589796 0.06046307 0.051691752 0.09787649 0.11425803 -0.048293866 -0.056484167 -0.038059063 0.10485273 -0.15289101 -0.20564692 -0.1746514 -0.12368073 -0.08145504 -0.012335029 0.07984787 0.34265855 -0.034820374 0.42999032 0.25399232 0.00770872 0.046584852 -0.20676073 -0.2392414 -0.22535932 0.177123 -0.1581771 -0.012147748 -0.0749897 -0.24063434 -0.1709042 -0.082037 0.30870986 0.020730948 -0.11187685 -0.13866858 -0.3154517 0.1989203 0.21801989 0.2292909 0.060831398 0.2101453 0.03137022 0.05337723 -0.010127216 -0.15504692 0.24493466 0.18447325 -0.07820867 0.054645654 0.035308104 -0.08303298 -0.14617567 0.035668064 -0.15016723 0.055908285 0.12801105 -0.11841057 0.18292119 0.1849345 0.13399993 -0.1696762 -0.12119613 0.114217065 -0.16892946 0.0024573898 0.2676847 0.041138336 0.21743132 -0.06994338 0.006477277 -0.16650994 0.1346955 0.0004178419 -0.05702838 0.25975707 0.050719183 -0.18708365 -0.037014194 -0.37999818 -0.18072939 0.18301092 -0.18256119 0.08579544 -0.07528528 0.059797194 0.076330066 0.14982373 0.21719174 0.027343761 -0.17295451 0.32216337 0.048897497 0.09938055 0.08835597 0.0894924 -0.15616412 0.15898731 0.022030301 -0.012489202 -0.07778646 0.14474474 0.21847644 0.19993515 -0.10748071 -0.010185551 0.09447286 -0.20551322 -0.05144367 -0.18795243 -0.061788544 -0.021697527 -0.12133655 0.26354513 -0.1266119 0.31632364 -0.002917617 -0.1913623 -0.018047797 -0.31422246 0.10379244 0.17708847 0.07552966 0.15500745
25 -0.059964906 -0.01469803 -0.068479024 -0.14364983 -0.009531758 -0.5030052 0.0044616126 0.01666464 -0.044265166 -0.17024507 -0.23684458 -0.13056907 0.41382155 -0.1151878 -0.043209855 -0.025670242 0.10378654 -0.100400455 0.08669676 0.31356558 0.5109785 -0.12868683 0.49580625 0.15148559 -0.10381975 -0.24210094 -0.19872335 -0.19771367 -0.057415277 0.2571135 0.33859116 0.075326964 0.12579225 -0.24914564 -0.48524925 -0.21970578 0.06661545 0.1311227 -0.26770753 -0.05729486 -0.20688626 -0.15313661 -0.253205 -0.21319234 -0.17192152 0.4122847 -0.031590287 0.19701114 0.14469957 0.20187207 -0.11032104 0.16576026 0.09825756 -0.13007036 -0.29293194 -0.22297467 0.27821848 -0.05398594 -0.28804034 0.11377417 0.14199603 0.031073773 0.036732756 0.24600199 -0.098921336 0.047791883 -0.0782887 -0.17482899 -0.005419498 0.033764206 -0.13441728 -0.18265666 0.08496788 -0.035169054 0.28820056 -0.10808667 -0.35218734 0.08835441 0.17022784 -0.32458708 -0.27548444 -0.11144618 0.19627288 -0.32672083 0.061056532 0.16162208 0.051492196 -0.33257666 -0.046061344 -0.21477063 -0.0072857123 0.060066648 0.30465513 0.047791414 -0.086198315 -0.15592064 -0.07908027 -0.14522587 0.24497044 0.06577226 -0.06751004 -0.0009482363 -0.16241331 0.32451755 0.21496104 0.06733383 0.27652287 0.042701643 0.3897593 0.12320792 -0.22845046 0.11973122 0.26888058 0.29682356 -0.20661983 -0.03304431 0.20092367 0.14059865 0.080755964 -0.632004 0.14190207 -0.071035884 -0.064860016 -0.60745984 -0.19873603 0.2270811 -0.32844678 -0.21489418
9 -0.15016939 -0.19276233 -0.0751086 -0.0026419698 0.06621752 -0.25221843 0.040431395 0.15414119 -0.15078802 -0.12380474 -0.11418726 0.04176846 0.19483696 -0.1117183 -0.0533793 -0.11809476 -0.046578422 0.21563661 -0.012076094 0.0584198 0.21686538 0.053220257 0.38093454 -0.09604568 -0.14993875 0.20961827 0.11395396 -0.0625177 0.11283379 0.1098832 0.009363202 0.049859874 0.019349996 0.15455736 0.081743516 -0.0986685 0.34613946 -0.15006426 -0.25078523 -0.07810805 -0.272677 -0.28421253 -0.06659505 0.17951107 -0.03422968 0.09996011 -0.018237038 -0.035521425 0.024137748 -0.15865624 -0.38647565 -0.051084034 0.118823655 -0.027005326 -0.195506 -0.109556146 0.01460977 -0.047817934 -0.38004038 0.020750038 0.25161076 -0.047267944 -0.12924777 0.107058376 -0.05371583 0.07225002 -0.030835286 -0.06981363 -0.010024537 0.17818959 -0.24266219 0.11259438 0.035916723 -0.020366346 0.1631104 0.23716964 0.01785528 0.11433143 0.12053552 -0.024390249 -0.037936866 -0.18717328 0.009776977 -0.15249941 0.041515935 0.2967916 -0.026601637 -0.20210592 -0.06629848 0.0047211857 0.14643604 -0.12963875 0.1461192 -0.07256571 -0.028912302 -0.14416738 -0.023331396 0.09405719 -0.042962085 0.103833325 -0.12373474 -0.2166043 -0.18939486 0.20787917 0.10454606 0.087548256 0.021384794 0.08182745 -0.02937428 0.032129437 -0.126451 -0.024249636 0.11326643 0.1059552 0.026128331 -0.15829554 -0.0092381425 -0.006575419 0.021419473 -0.11074488 -0.02515626 0.026542058 -0.10073144 0.122112185 0.084074825 0.0031325559 -0.16889417 -0.08097322
2 -0.10172229 -0.15990889 0.06341177 0.16092563 0.30273005 -0.28746462 0.13084923 0.5028327 -0.08005736 -0.13105182 -0.12285584 -0.08105325 0.14056991 -0.37222126 0.010262688 -0.19484715 0.26052642 -0.0049466426 -0.021353684 0.009345121 0.13701166 0.03966737 0.25570434 -0.120338194 0.053774174 -0.24911751 -0.15968792 0.119239725 0.3649451 0.14686018 0.055001173 -0.07563677 -0.30887356 0.35046172 -0.37881723 -0.15155599 0.19896264 -0.003292188 -0.056056842 0.09127612 -0.12253803 0.046737943 0.43529665 0.2462983 -0.34090167 -0.21128641 0.04760506 -0.26818022 0.14390123 0.024073306 0.16084287 -0.009932186 0.08709513 0.48089975 -0.63148427 -0.14192784 0.086170256 0.27340427 0.016642677 0.26801908 0.052457288 0.028671214 -0.21504079 0.242393 0.009690375 0.08379197 0.00878156 0.057872564 0.09275002 -0.12394046 -0.008228916 0.01587703 0.1147952 0.03961924 -0.09235403 0.09209978 0.1662791 0.040055916 0.20691837 -0.10875896 -0.1339697 -0.20076247 -0.06691552 -0.12687953 0.20832156 0.17383781 0.09731029 0.004938936 0.11166367 0.125508 0.1234051 0.23525448 -0.080544405 -0.3278899 -0.27882934 0.27591836 -0.26266256 -0.27785137 0.086171456 0.04644832 -0.15462747 0.039459575 0.056037292 -0.066337444 -0.07197464 0.05982098 0.22490862 0.11628907 -0.05977216 -0.020361846 0.09545488 0.12362016 0.21029769 0.20075345 -0.16219136 0.03499843 0.20570867 0.17534873 -0.14686523 -0.16167209 0.026293278 -0.11652372 0.12567085 -0.24598922 -0.19564173 -0.026565177 0.27680367 0.15505762
14 -0.15881583 -0.1969635 -0.017237416 0.044405147 0.10475533 -0.23503786 0.037671875 0.2448833 -0.18079634 -0.087118655 -0.089775324 -0.0013230356 0.1483557 -0.13804366 -0.048906434 -0.14474131 0.0048552467 0.20127957 -0.04350511 -0.02788541 0.13370292 0.105983436 0.31976074 -0.148133 -0.1034071 0.2152068 0.12532803 0.049547732 0.18457966 0.10529873 -0.050518595 -0.009059706 -0.036417935 0.23975074 0.098399065 -0.06456548 0.36079544 -0.16187873 -0.20197017 -0.06242307 -0.22624351 -0.2543341 0.02532381 0.26410487 -0.072051734 -0.007326833 -0.020497346 -0.0875832 0.015805295 -0.19257028 -0.30965665 -0.08896295 0.07774432 0.09183916 -0.22558562 -0.062160943 -0.012717288 0.03152672 -0.34618348 0.06924471 0.2042732 -0.04481504 -0.114176214 0.08086987 -0.06349955 0.08200711 -0.011445622 -0.011407012 -0.014328906 0.1582182 -0.2187402 0.18016914 0.018273007 -0.016461797 0.1023664 0.2580538 0.099387646 0.073581494 0.11200922 0.030778825 -0.0015517556 -0.17324387 -0.043867145 -0.08594705 0.049887966 0.3104369 -0.019025126 -0.14881237 -0.022009509 0.06117617 0.15976492 -0.12463028 0.11809399 -0.14557724 -0.044067267 -0.05722554 -0.054468427 0.097364604 -0.042117245 0.10769161 -0.16589303 -0.20376866 -0.17795695 0.20304093 0.061940257 0.14399056 0.04266064 0.1127577 -0.117444165 -0.010434499 -0.08026235 -0.038082294 0.10538688 0.093033075 0.008652041 -0.16694324 -0.029735634 0.0098083215 -0.0047017024 -0.044024423 -0.03805799 -0.024340782 -0.06660321 0.084314406 0.110676534 -0.016850939 -0.09730692 -0.0036955916
33 -0.146482 -0.24499679 0.11041205 0.21440272 0.41821235 -0.34237862 0.14867736 0.54529303 -0.08008872 -0.18471316 -0.084159985 0.055702575 0.16212805 -0.45220786 0.04180594 -0.2622872 0.24159645 -0.010798093 0.009599641 -0.041525938 0.028851308 0.0112226745 0.09620987 -0.17485335 0.059282064 -0.30939233 -0.15129387 0.18971433 0.42560893 0.07945815 0.04123592 -0.029287145 -0.3111507 0.45567822 -0.36765188 -0.07714364 0.044926424 0.0014581323 0.10445367 0.12896675 -0.022009144 0.11240762 0.5314663 0.16384852 -0.34744415 -0.3578418 -0.0013463524 -0.3837481 0.107105926 0.08660453 0.18050294 -0.0046903114 0.078336954 0.50545007 -0.6834775 -0.115076736 0.08589636 0.31829348 0.0732361 0.2891874 0.10035916 -0.013131282 -0.32904583 0.20608293 -0.016603164 0.080475256 -0.021317288 0.04542448 0.121957324 -0.12110479 0.029862754 -0.013196617 0.122187145 0.06416139 -0.12044528 0.15968087 0.33197498 0.0720776 0.24092107 -0.1039429 -0.1686384 -0.24081346 -0.07665129 -0.18421108 0.28022802 0.14322567 0.082352445 0.0059976713 0.14712484 0.13361257 0.10407998 0.31803477 -0.100605756 -0.36183825 -0.29115734 0.3598441 -0.355341 -0.33860922 0.12140517 0.09354822 -0.25290835 0.084304795 0.061261017 -0.12611525 -0.1292129 0.065334655 0.27619988 0.20175879 -0.03471355 -0.039550006 0.103430696 0.11760519 0.18410295 0.17573453 -0.2028016 0.021752167 0.2291041 0.2757351 -0.29226646 -0.20367602 0.020518927 -0.21163003 0.1362812 -0.37080416 -0.2679677 -0.05111007 0.2677011 0.1660031
4 -0.11520029 -0.17071927 0.042657916 0.14244328 0.24458383 -0.329751 0.11327253 0.44241077 -0.11221566 -0.15286343 -0.13045281 -0.10958195 0.16881922 -0.32287362 -0.015303087 -0.18304947 0.22580962 -0.036816582 0.007156812 0.035104502 0.2426666 0.0061249803 0.3283058 -0.05889133 0.035875443 -0.20434307 -0.15113293 0.0755134 0.32274374 0.15158641 0.0361161 -0.087278135 -0.28761053 0.26525593 -0.3737209 -0.18452172 0.27520746 0.028791128 -0.12820895 0.027493069 -0.18948625 -0.018447217 0.36892727 0.26516807 -0.26674378 -0.08804382 0.0939709 -0.21822436 0.12197684 0.016650544 0.098163284 -0.0042417557 0.07405088 0.40032777 -0.6240858 -0.18299928 0.078406654 0.22884458 -0.016125252 0.24859206 0.10618686 0.048839662 -0.19553351 0.26198208 0.0039923238 0.07419435 -0.0123505145 0.07709052 0.076900646 -0.099268846 -0.022063503 0.007878418 0.0995119 0.06336431 -0.10092662 0.037916094 0.12236315 0.057965107 0.23020777 -0.10729903 -0.10852419 -0.19847277 -0.036116235 -0.12371225 0.21461171 0.180308 0.10193602 -0.051387284 0.06550101 0.07467541 0.051681895 0.20417355 -0.0772014 -0.2968841 -0.23749298 0.2300799 -0.22027145 -0.22145765 0.06921673 -0.014004264 -0.1091967 0.023226399 0.059694484 -0.028592253 -0.020599348 0.06738393 0.17048167 0.056787387 -0.0004112129 0.02036903 0.08271842 0.09755524 0.2160919 0.23407991 -0.09759799 0.070579864 0.22170489 0.0947125 -0.07160087 -0.17743032 0.034489512 -0.018630473 0.068593055 -0.10160498 -0.20137492 -0.002640334 0.2432828 0.1166199
8 -0.042214796 -0.13093656 -0.09734338 -0.05879344 0.051684514 -0.17106108 0.0026586931 0.06599018 -0.022205198 -0.059081677 -0.07627491 0.16290535 0.120837465 -0.109420955 0.07799506 -0.114701256 -0.14321546 0.088416904 0.027158398 0.050051752 0.18816479 -0.013850673 0.1493706 0.007918102 -0.072699 0.10837866 0.07511791 -0.074864 0.108357884 0.011691358 0.01625079 0.03817068 -0.033168435 0.1309931 0.0601465 -0.10290749 0.16055875 -0.06952334 -0.12880576 -0.04181534 -0.06592031 -0.12734261 -0.050511766 0.091185436 -0.050337277 0.1427593 -0.0019122693 -0.013460312 0.07571217 -0.07727833 -0.29386535 -0.023837166 0.12484705 -0.038088616 -0.09431367 -0.05874336 0.08295387 -0.08604042 -0.17967933 -0.07608482 0.19208342 -0.059819132 -0.070568964 0.12323855 -0.04492441 0.054221272 -0.07678172 -0.056192447 0.08995779 0.03749912 -0.19334418 0.030181967 -0.013532962 -0.08095779 0.23242784 0.17271416 0.03480035 0.056252748 0.05782662 -0.084780835 -0.123140655 -0.07176791 0.04786602 -0.14010215 -0.06739275 0.083557636 0.10907632 -0.13958561 -0.02845756 0.016433394 0.15916759 -0.09927649 0.08511596 -0.06914086 -0.08832817 -0.0973195 -0.059535515 -0.079794854 0.0074209943 0.086629905 -0.11223876 -0.073361054 -0.12485483 0.09724893 0.0066494495 0.020573901 -0.007032007 0.0076573044 0.029281273 -0.04988677 -0.038863312 0.056023728 0.02305773 0.061060965 -0.06275023 -0.080928564 -0.04130008 0.08302206 -0.04020268 -0.15520585 -0.011114476 -0.042912923 0.029950412 -0.14095204 -0.018446952 -0.05438187 -0.1243004 -0.018056795
12 0.019934408 -0.103556074 -0.06281766 -0.091943756 0.00561836 -0.081121325 -0.052388087 -0.054398485 0.059111375 0.03132817 -0.028601253 0.24941565 0.06329789 -0.080123454 0.09214134 -0.12257263 -0.2769768 0.0011623406 0.07437125 0.04358496 0.26911488 -0.058663152 0.08542113 0.12957379 -0.08309424 0.10828738 0.06328628 -0.10482793 0.0680381 -0.021569462 -0.042410806 0.0372155 -0.08068484 0.09187755 0.065345146 -0.10146507 0.10010479 0.009372113 -0.028579293 -0.04693462 0.028854126 0.01594866 -0.014828635 0.09067252 0.018390886 0.24266778 -0.0015953239 0.011416445 0.06965213 -0.08538733 -0.21253076 0.022145838 0.12028652 -0.0731324 -0.0015284301 -0.03177577 0.04258047 -0.106133945 -0.08470297 -0.14420721 0.20100264 -0.10685445 -0.036629483 0.1286264 0.02858221 -0.0044364985 -0.15986383 -0.05509295 0.14603715 -0.020445801 -0.092569046 -0.025267962 0.028371563 -0.14097759 0.26934963 0.094228454 0.109192125 0.020607375 0.0029688217 -0.028425517 -0.1820484 -0.06336719 0.04919225 -0.267036 -0.24183317 0.00027305592 0.17283931 -0.121008046 -0.037547093 0.044248484 0.19103825 -0.11003595 0.07228494 -0.0906903 -0.13303275 -0.016124472 -0.0728449 -0.107368425 0.03975586 0.05694458 -0.13802932 0.04607817 -0.0614676 0.02133179 -0.06115422 -0.016721372 -0.006763735 -0.030718276 -0.015364928 -0.14639087 0.066329636 -0.0031091936 -0.089800656 -0.032806937 -0.09233683 -0.07325811 -0.1884219 0.18833329 -0.13229106 -0.065678716 -0.026133688 -0.11992177 0.1184861 -0.24564493 -0.006455776 -0.07739577 -0.0883247 0.065509886
3 -0.14834276 -0.26588607 0.053694237 0.18738769 0.3321192 -0.28186944 0.19206329 0.50908 -0.12189492 -0.21734437 -0.11178826 -0.07349861 0.13677853 -0.42106727 0.023525149 -0.22231814 0.24609154 -0.024866752 -0.012684562 0.006305974 0.20259394 0.004392095 0.28053144 -0.050707426 0.08210107 -0.26407108 -0.1787242 0.04710297 0.36704677 0.1342226 0.050030965 -0.039289933 -0.32740125 0.34093964 -0.34313777 -0.20199817 0.23985277 0.0024971967 -0.11357472 0.046428908 -0.24332555 0.004849358 0.45503628 0.2682736 -0.32089466 -0.14160985 0.12331214 -0.32335135 0.1378584 0.018660445 0.053522732 0.013739531 0.07066352 0.4671527 -0.7114864 -0.22843143 0.044377495 0.1904349 0.011131569 0.29299682 0.17382358 0.055266224 -0.24237804 0.34056532 -0.032651957 0.0698574 0.033536997 0.1229455 0.10941885 -0.12989074 -0.03874347 0.058934502 0.042556297 0.11706258 -0.13756567 0.11357035 0.2536028 0.121790454 0.24941209 -0.1572318 -0.13096982 -0.14928786 -0.041318793 -0.12918116 0.28063893 0.15117314 0.06679855 0.013791623 0.02531581 0.12986004 0.12655796 0.2998938 -0.07240918 -0.34733292 -0.3085034 0.3271952 -0.23401657 -0.26173034 0.043303736 0.021604372 -0.14184664 0.01640882 -0.0040631862 -0.12855817 -0.063291386 0.043047443 0.13932692 0.09613465 0.04053434 0.0010497884 0.09263255 0.15634981 0.18895032 0.19632398 -0.093159094 0.121039286 0.32063273 0.055281386 -0.09795106 -0.08561577 0.0041916776 -0.011004959 0.11056894 0.018053548 -0.28744712 -0.07732753 0.322723 0.11749674
34 -0.14633414 -0.29830185 0.03934869 0.22253022 0.46995848 -0.3297813 0.18299922 0.5056096 -0.041753728 -0.23476298 -0.104685105 0.17536752 0.1613808 -0.4188696 0.07312433 -0.25862417 0.21024098 0.04837033 0.08513189 0.058357913 0.096200116 -0.05944289 0.12171929 -0.1437273 0.045187082 -0.33345386 -0.10480881 0.05381913 0.418789 0.038189366 0.09561301 0.023029925 -0.3451303 0.51609343 -0.27776387 -0.10631971 0.0709743 -0.019761818 0.045496996 0.13007253 -0.04140619 0.120742105 0.55044997 0.15791322 -0.3524327 -0.31812984 0.07174601 -0.40122744 0.19931243 0.10165476 0.040581845 0.00012927095 0.17880803 0.48391798 -0.69006735 -0.16317447 0.1477317 0.25297293 0.1319129 0.18453811 0.120126665 0.00341318 -0.4464097 0.25318274 -0.052315455 0.090795465 -0.03817562 -0.010956978 0.20245808 -0.1486127 -0.08279075 -0.0727788 0.04043142 0.11717697 -0.1405531 0.19929387 0.23930824 0.12264852 0.27137566 -0.20224288 -0.23502378 -0.22640724 -0.004442585 -0.08710259 0.3347189 0.0510132 0.15550195 0.027739258 0.11218465 0.13136457 0.062366694 0.3042179 -0.1869408 -0.35262743 -0.2818638 0.28051716 -0.34005234 -0.42864913 0.052034445 0.06198737 -0.19307016 0.111133315 0.09512603 -0.24993676 -0.17711218 -0.045002434 0.19016914 0.09692363 0.027204892 0.017742502 0.106784016 0.19036715 0.1689609 0.20587705 -0.16915071 0.045741428 0.30648565 0.21931317 -0.2730089 -0.22357601 0.011432824 -0.09622168 0.17670101 -0.19267535 -0.35682535 -0.14832804 0.26607865 0.13726461
17 -0.037822157 -0.059353337 -0.08837209 -0.078069344 0.008815946 -0.37939915 0.05438479 0.02532363 0.003760986 -0.2048469 -0.18555906 -0.05118904 0.32819018 -0.1304313 -0.00755145 -0.08206725 0.038626425 -0.1145953 0.021895489 0.24374901 0.4006387 -0.10055191 0.41127843 0.12851666 -0.06652865 -0.2232451 -0.22225188 -0.23285116 -0.11480306 0.18864582 0.2673419 0.08161752 0.1106633 -0.29682383 -0.3636407 -0.16935457 0.06962772 0.094822325 -0.22857554 -0.06274672 -0.19825603 -0.10567899 -0.16370046 -0.16943128 -0.13786241 0.32470456 -0.029359639 0.1295621 0.08430608 0.1798295 -0.047720287 0.17936017 0.046283346 -0.13476354 -0.19050886 -0.23296998 0.19571154 -0.042913377 -0.21053846 0.07508091 0.17203236 -0.00095653266 0.071543775 0.23073554 -0.08613099 0.04630352 -0.08258307 -0.11842512 0.004206596 0.013330739 -0.07193045 -0.12292869 0.053095948 -0.059263714 0.26964122 -0.119093 -0.27094594 0.09693684 0.08452333 -0.25958762 -0.21138293 -0.045790337 0.14138928 -0.29064706 0.045459356 0.098609865 0.00757785 -0.2438237 -0.04735722 -0.14847048 0.014785903 0.04727717 0.32959136 0.11245529 -0.090123065 -0.09883848 -0.028690921 -0.1050473 0.22041804 0.11085659 -0.04363324 0.0121242 -0.16045867 0.22606133 0.12949944 0.043152347 0.22857878 0.09508347 0.3187787 0.10403994 -0.20549984 0.09177926 0.17812495 0.15810676 -0.17244597 -0.028318537 0.1469049 0.14505209 0.029424705 -0.43946174 0.10315209 -0.08389602 -0.046458438 -0.5271603 -0.19235882 0.21076278 -0.2464635 -0.14251752
32 -0.051398627 -0.17946018 -0.01954283 0.15830064 0.15256687 -0.12145593 0.08974126 0.26977438 -0.025523625 -0.13497266 -0.036204282 0.0012230568 0.058198247 -0.18349552 -0.006300036 -0.17990036 0.0642088 0.0018266565 -0.02704976 0.018521696 0.1593969 0.015525887 0.22155482 0.0016490414 0.046107456 -0.06356446 -0.08332315 -0.045775954 0.11170214 0.08630767 -0.05143412 -0.06282201 -0.1645143 0.12575537 -0.07425562 -0.08372506 0.25996268 -0.0150385555 -0.13578744 -0.04936469 -0.14999957 -0.006693869 0.25343645 0.24321733 -0.13922128 -0.007873023 0.08050362 -0.14594361 0.07668559 -0.08751354 -0.02647818 0.035225127 0.035127345 0.20956273 -0.25712106 -0.13143705 0.016697196 0.08673817 -0.043597218 0.07076587 0.13688135 -0.02038455 -0.05956812 0.20769194 -0.037769098 0.024973327 -0.060043715 0.09412296 0.04138903 -0.07341457 -0.049126707 0.104814984 0.0019185973 0.004779602 -0.01456187 0.051399827 0.11407807 0.060441047 0.07008441 -0.00981815 -0.058374997 -0.088894285 -0.048134547 -0.05426849 0.060920954 0.06123953 0.06496241 0.021487888 -0.005073589 0.10417735 0.095707476 0.027555209 0.062707774 -0.14945804 -0.14790586 0.15456069 -0.08305589 -0.111197725 0.0076538012 0.057811514 -0.1153453 0.019291889 -0.033664472 -0.0687213 -0.10080945 0.06848828 0.07643802 0.087146476 -0.07920366 -0.02139832 0.065646976 0.006708112 0.061369233 0.0028797744 -0.04481835 2.7735336e-05 0.0657502 0.064810365 -0.06754699 0.0571864 -0.025712023 -0.029563982 0.07706722 -0.04153772 -0.10673243 -0.0367278 0.13815477 0.15160294
1 -0.16101202 -0.23332705 0.07644361 0.20439827 0.41364038 -0.36808342 0.16489115 0.56470877 -0.057315808 -0.22080538 -0.12679511 0.020589216 0.18504512 -0.43867394 0.026851086 -0.24562077 0.28009152 -0.015080012 0.016260013 0.015301614 0.078651525 0.0032660873 0.17155723 -0.14620559 0.07543341 -0.33850524 -0.17709367 0.12655838 0.3740781 0.09737086 0.0843655 -0.037106667 -0.29201886 0.39447 -0.39339688 -0.1123632 0.09243653 0.006333143 0.022156965 0.1246155 -0.08645366 0.08095079 0.49632955 0.1634691 -0.3602131 -0.3091946 0.04843268 -0.32981822 0.14369015 0.097138256 0.17575815 0.0077779256 0.08954886 0.4858611 -0.6773255 -0.15043548 0.11359356 0.29481637 0.05918572 0.27458966 0.0723971 0.013708649 -0.30126113 0.24531662 -0.026141414 0.0849496 0.011694332 0.04134756 0.108271696 -0.135343 0.013886996 -0.031190813 0.118334904 0.072353184 -0.11545568 0.12323692 0.24606675 0.07029447 0.23003103 -0.1399093 -0.16036886 -0.21966821 -0.04175079 -0.15672906 0.2775911 0.13148196 0.09205186 0.008104706 0.13211052 0.10447194 0.07838852 0.32011276 -0.09342498 -0.30160287 -0.29335144 0.3052137 -0.30751154 -0.344625 0.11386853 0.085026965 -0.21078193 0.07143439 0.0556315 -0.11474688 -0.10731534 0.05335171 0.24919836 0.15033518 -0.005247619 -0.004829958 0.08793885 0.1597345 0.21782185 0.2128129 -0.19176336 0.058910847 0.28275338 0.26125467 -0.22467338 -0.22650173 0.040826544 -0.1587945 0.117232956 -0.36492783 -0.29602554 -0.033402186 0.24129815 0.13711299
