68 128
24 -0.30396077036857605 0.31810054183006287 -0.12404204159975052 0.09740304201841354 -0.26768964529037476 0.47240665555000305 -0.0016936513129621744 -0.055230606347322464 -0.10786500573158264 0.3955780565738678 0.2509137690067291 0.4006882309913635 0.358645498752594 0.1874859631061554 -0.1998937726020813 -0.26020702719688416 -0.27548542618751526 0.20995588600635529 -0.11346042901277542 -0.09903678297996521 -0.07741495221853256 -0.07492177933454514 0.24552519619464874 -0.21979109942913055 0.16572017967700958 0.19411687552928925 0.1697794795036316 -0.04968254268169403 0.20331677794456482 0.07995584607124329 -0.09675255417823792 -0.17366047203540802 -0.02080342173576355 0.3088482916355133 -0.45939868688583374 -0.2698047459125519 0.13861139118671417 -0.33826109766960144 -0.3358529508113861 -0.011414696462452412 0.20240800082683563 0.3291660249233246 -0.22030256688594818 -0.13267508149147034 0.26575249433517456 0.01758608967065811 -0.3833368420600891 -0.23396646976470947 0.07614273577928543 0.32325583696365356 0.07265143096446991 -0.13141967356204987 -0.06952886283397675 0.4441174268722534 -0.019450971856713295 0.15268559753894806 -0.04944467917084694 -0.2935624420642853 -0.01358302403241396 -0.18519464135169983 0.021218594163656235 0.20297469198703766 -0.2368810772895813 -0.07619547843933105 -0.04879794269800186 -0.2626986801624298 0.57818603515625 -0.27375131845474243 0.49483487010002136 0.4667160212993622 -0.06355461478233337 0.7455153465270996 -0.13457639515399933 -0.3649753928184509 0.036172572523355484 0.18563923239707947 0.15154778957366943 0.18124842643737793 -0.3686012327671051 -0.1661335974931717 -0.13413012027740479 -0.5508712530136108 0.10922998189926147 -0.05479513108730316 -0.12002314627170563 0.12916961312294006 -0.24860361218452454 0.24149349331855774 0.53927081823349 -0.08690624684095383 0.06194349378347397 -0.15230058133602142 -0.3614891469478607 -0.35354307293891907 -0.33760759234428406 0.06879577785730362 -0.10737400501966476 0.3951602578163147 -0.03884587809443474 0.48732101917266846 0.3909760117530823 -0.15312226116657257 -0.05748935416340828 0.03742925077676773 -0.3701621890068054 0.4330649673938751 -0.3901543915271759 -0.2968267500400543 0.23055438697338104 -0.061590392142534256 -0.43829816579818726 0.23597513139247894 0.18762758374214172 0.1557145118713379 -0.44850438833236694 -0.44850245118141174 -0.18469718098640442 0.18453414738178253 0.10865967720746994 0.00229204585775733 0.2666441798210144 0.08497364073991776 -0.3541988730430603 0.4328424632549286 0.04045918583869934 0.24350133538246155 -0.05177503824234009 -0.4617142379283905
30 -0.24294626712799072 0.40569067001342773 -0.029537111520767212 0.1133909672498703 -0.295185923576355 0.47308751940727234 -0.07357750833034515 -0.11362934112548828 -0.26936542987823486 0.48471686244010925 0.2695736289024353 0.6249550580978394 0.3233581781387329 0.2278042882680893 -0.1373502016067505 -0.25830212235450745 -0.35855671763420105 0.26611870527267456 -0.08137839287519455 -0.07994718104600906 -0.010101496241986752 -0.03271985799074173 0.23931357264518738 -0.15953025221824646 0.3853355944156647 0.2965838611125946 0.3214547634124756 -0.07497604191303253 0.2518416941165924 -0.006998525466769934 -0.23324663937091827 -0.05483931303024292 0.12613409757614136 0.41546115279197693 -0.3649159371852875 -0.33562713861465454 0.10959625244140625 -0.26536962389945984 -0.19404888153076172 -0.04912123829126358 0.4091065526008606 0.453693687915802 -0.25515109300613403 -0.30474838614463806 0.2914241850376129 -0.14137819409370422 -0.5027952194213867 -0.5737513303756714 0.08344067633152008 0.275249719619751 0.12911565601825714 -0.39619192481040955 -0.2060467004776001 0.40307360887527466 -0.06097748503088951 0.15920598804950714 -0.12292744219303131 -0.272710382938385 -0.16094231605529785 -0.2299719750881195 0.2308969348669052 0.2919039726257324 0.041432660073041916 -0.14820565283298492 -0.12091653048992157 -0.17071180045604706 0.44427284598350525 -0.2265712171792984 0.39093899726867676 0.4607689082622528 0.07681696861982346 0.8768531680107117 -0.06516724824905396 -0.43061211705207825 -0.01683790050446987 0.31040531396865845 0.14788375794887543 0.39369726181030273 -0.5529130101203918 -0.2763231098651886 0.05540756508708 -0.6752464771270752 0.16473449766635895 -0.12876226007938385 -0.2239157259464264 0.2370893508195877 -0.39559489488601685 0.385276734828949 0.6201993227005005 -0.12489064037799835 0.09153734147548676 -0.17244385182857513 -0.24898973107337952 -0.3931763470172882 -0.3430347740650177 -0.014527950435876846 -0.07393227517604828 0.470296710729599 -0.055726125836372375 0.5142734050750732 0.4315125644207001 -0.29827049374580383 -0.15514935553073883 0.060306694358587265 -0.35867840051651 0.569871723651886 -0.47712990641593933 -0.33526504039764404 0.29978257417678833 -0.12296168506145477 -0.47716647386550903 0.16682642698287964 0.16271385550498962 0.25005343556404114 -0.5768346190452576 -0.44538581371307373 -0.059066012501716614 0.06268500536680222 0.15163393318653107 -0.06973810493946075 0.24854595959186554 0.04782197251915932 -0.40494218468666077 0.32748252153396606 0.07830395549535751 0.2860977053642273 -0.027226777747273445 -0.3877791464328766
1 0.16619479656219482 0.532127857208252 0.16065463423728943 0.18911582231521606 -0.5535700917243958 -0.4423341751098633 -0.055514708161354065 -0.3570003807544708 0.46633121371269226 -0.019304363057017326 -0.13107453286647797 0.5794169306755066 0.3474471867084503 -0.2156515121459961 0.11466971039772034 0.1106475219130516 -0.24470530450344086 0.4438297748565674 0.3868410587310791 0.040854450315237045 -0.0945049375295639 -0.2236374318599701 -0.38181912899017334 0.31923943758010864 0.10186757892370224 -0.22923734784126282 -0.015154089778661728 -0.058711938560009 -0.001829453743994236 -0.1591278314590454 -0.3236273527145386 0.38051366806030273 0.4014749825000763 0.11645498871803284 -0.6077920198440552 0.12711095809936523 0.35891494154930115 0.2717563807964325 -0.34062883257865906 0.09536461532115936 0.36309096217155457 0.6861090660095215 -0.3072691261768341 -0.23232384026050568 0.24420736730098724 -0.01503673754632473 -0.058775316923856735 -0.14321663975715637 -0.31132686138153076 0.0507635772228241 -0.15847085416316986 -0.2785490155220032 -0.5177342295646667 0.49172645807266235 0.15351709723472595 -0.09675421565771103 -0.2580046057701111 -0.16219183802604675 -0.16274546086788177 -0.16163961589336395 0.24369408190250397 -0.0032596602104604244 -0.2493918389081955 0.04097931832075119 -0.3115682601928711 0.08843544125556946 -0.06869253516197205 -0.018422167748212814 0.11339142173528671 0.11861929297447205 -0.3647092580795288 0.34861069917678833 0.2822445333003998 -0.7241323590278625 -0.5104119181632996 -0.11629394441843033 0.33921465277671814 0.008387899957597256 -0.6564304232597351 -0.2346145361661911 -0.2991364896297455 -0.4246029257774353 -0.2155030220746994 0.05871029198169708 -0.2170874923467636 0.5731163620948792 -0.12562552094459534 -0.15100343525409698 0.8366243839263916 -0.18963629007339478 0.6440548300743103 -0.48425325751304626 0.15288688242435455 0.6292089819908142 0.6202959418296814 -0.05873815342783928 0.5082528591156006 0.6325348019599915 -0.29758721590042114 0.0778161957859993 0.14603887498378754 0.10792089253664017 -0.15170174837112427 -0.40161922574043274 0.0027266216930001974 0.8564062714576721 -0.1525903344154358 -0.07842275500297546 -0.4623035490512848 -0.29881158471107483 0.03801056742668152 -0.2381899058818817 0.3597797751426697 0.46154704689979553 -0.288247674703598 -0.4164414405822754 -0.3310790956020355 0.734581470489502 0.6590897440910339 0.6618300676345825 0.5989977717399597 0.25401046872138977 -0.31432589888572693 0.5826681852340698 -0.42506250739097595 0.052274711430072784 -0.08386529982089996 0.4662129282951355
3 0.47535040974617004 0.5887790322303772 -0.024847956374287605 0.637336790561676 -0.2645186185836792 -0.1819201558828354 -0.5110979676246643 0.05838129669427872 -0.1487540751695633 0.009642761200666428 -0.22974883019924164 0.529359757900238 -0.2635277807712555 0.023494480177760124 0.29294463992118835 -0.5800329446792603 -0.2926137149333954 0.5096966624259949 0.17457081377506256 0.3428381681442261 -0.19784151017665863 0.22025923430919647 0.3172689378261566 0.28803935647010803 0.038021959364414215 -0.10353445261716843 0.20249168574810028 0.2880299687385559 -0.2288639396429062 -0.2970433831214905 -0.1651465892791748 -0.11231052130460739 0.19955474138259888 0.37559524178504944 -0.16526345908641815 0.14068983495235443 0.2896045744419098 -0.3222253620624542 -0.5825567245483398 -0.04686030000448227 0.27659815549850464 0.35405433177948 -0.7397805452346802 -0.36850041151046753 0.34112659096717834 -0.01787656918168068 -0.0369844026863575 -0.15639083087444305 -0.06270221620798111 -0.19370217621326447 0.10536406934261322 -0.32690665125846863 -0.3213081657886505 0.39183974266052246 -0.014604986645281315 0.29484978318214417 0.25422433018684387 -0.1691671758890152 0.02645808830857277 -0.5415798425674438 -0.30930110812187195 0.03644784167408943 -0.8637933135032654 0.07241363823413849 -0.7584911584854126 -0.3383229970932007 -0.14054860174655914 0.31897202134132385 0.14143945276737213 0.5442424416542053 -0.05125490203499794 0.2236098349094391 0.4270196557044983 0.4969360828399658 0.003780662314966321 0.30002689361572266 0.2928194999694824 0.20119185745716095 0.07889718562364578 0.2025785744190216 -0.16111136972904205 0.2116306871175766 0.13372324407100677 -0.42051032185554504 -0.18288737535476685 0.044264987111091614 -0.1682063341140747 -0.1900806874036789 0.13345453143119812 0.06037559732794762 0.5995349884033203 -0.4033085107803345 -0.13425031304359436 0.014174104668200016 -0.06492430716753006 0.07981964200735092 0.3719812035560608 0.8355185985565186 -0.9285509586334229 0.15876708924770355 -0.006534705404192209 0.2587602436542511 0.0094077717512846 0.25025033950805664 0.07525821030139923 0.33614811301231384 -0.4982444643974304 0.12791405618190765 0.26162081956863403 0.4086375832557678 -0.38651981949806213 -0.27163851261138916 0.26713046431541443 0.07989764958620071 0.022333642467856407 0.19146418571472168 -0.017953189089894295 0.44251465797424316 0.5510790348052979 0.3417920470237732 -0.024052932858467102 0.20722180604934692 0.047204479575157166 -0.22544559836387634 0.11266156286001205 -0.139963299036026 -0.1174897626042366 0.13140767812728882
2 0.2631394565105438 0.5810398459434509 0.09850527346134186 0.4285973608493805 -0.6471589803695679 -0.2976705729961395 -0.4556262791156769 -0.23861078917980194 -0.1807650625705719 -0.20695076882839203 -0.24680523574352264 0.85139000415802 -0.4030466675758362 0.30030542612075806 0.3361283242702484 -0.00184995390009135 -0.002865919843316078 0.3688758611679077 -0.0024694809690117836 0.36295199394226074 0.009728319011628628 -0.23994949460029602 0.26496008038520813 0.5871309041976929 -0.017933085560798645 -0.23689305782318115 0.17624244093894958 0.22131681442260742 -0.10911858826875687 -0.2323138564825058 -0.3090874254703522 -0.15852214395999908 0.2762541174888611 0.49859026074409485 -0.21088774502277374 -0.09086935222148895 0.21541354060173035 -0.3398702144622803 -0.48222360014915466 -0.1829117089509964 0.2337041199207306 0.2989875376224518 -0.701144278049469 -0.1602858603000641 0.5493966937065125 -0.04373343661427498 -0.15939125418663025 -0.22606457769870758 0.27647244930267334 -0.23900429904460907 0.12299874424934387 -0.10824490338563919 -0.22494716942310333 0.25660568475723267 0.08307653665542603 0.19477081298828125 0.26057055592536926 0.028257716447114944 0.03537307307124138 -0.7242757678031921 -0.043693169951438904 -0.10059813410043716 -0.7012757062911987 -0.08966249227523804 -0.7177574038505554 -0.2909897565841675 0.12080646306276321 0.23288998007774353 0.22281494736671448 0.37946009635925293 0.04769580811262131 0.2875162363052368 0.40781939029693604 0.11568260192871094 -0.16891855001449585 0.5651020407676697 0.1596100777387619 0.1696486473083496 0.02489728108048439 -0.18014365434646606 0.17621701955795288 0.1805264949798584 0.18139192461967468 -0.2596808671951294 -0.13585065305233002 -0.053883135318756104 -0.09016066044569016 0.1572819948196411 0.4070267975330353 0.03385721519589424 0.3273104429244995 -0.4969286024570465 0.001381094683893025 0.0010096465703099966 -0.058726970106363297 -0.18806549906730652 0.14929933845996857 0.7919348478317261 -0.606632649898529 0.2021694779396057 -0.09897405654191971 0.1019948273897171 0.016059324145317078 0.5067573189735413 0.023714961484074593 0.17390979826450348 -0.43128249049186707 0.1833036243915558 0.12478955090045929 0.5839011669158936 -0.04320294037461281 -0.4959982931613922 0.2373374104499817 0.0749465748667717 0.05946637690067291 0.42890894412994385 0.16173720359802246 0.4813989996910095 0.5451435446739197 0.381825715303421 0.0863024964928627 0.004324773792177439 -0.030861463397741318 0.061331041157245636 -0.09884485602378845 -0.16195270419120789 -0.05637069791555405 -0.2355223298072815
18 0.16801613569259644 0.1464402675628662 0.12130867689847946 0.21398751437664032 -0.06465611606836319 0.18806664645671844 -0.09257759898900986 -0.16579174995422363 -0.038890447467565536 -0.16218407452106476 -0.12013188004493713 0.12147848308086395 0.09350036084651947 -0.21194253861904144 -0.011707894504070282 -0.012151447124779224 0.157461479306221 0.2826794683933258 0.09487553685903549 0.16657871007919312 -0.20394489169120789 -0.09915987402200699 0.1437666118144989 0.24696284532546997 -0.2233690619468689 0.21840067207813263 -0.06780774891376495 0.007834327407181263 -0.19460508227348328 0.03533164784312248 -0.4096338450908661 -0.2163063883781433 -0.039878226816654205 0.1915687918663025 -0.10129127651453018 -0.1842683106660843 0.1632521003484726 -0.023452455177903175 0.272601842880249 0.07267002016305923 0.03488115966320038 0.13390278816223145 -0.1323895901441574 0.08706528693437576 -0.21439868211746216 0.2624398171901703 0.03172573819756508 -0.04248383641242981 0.05627612769603729 -0.16238220036029816 0.06715753674507141 0.05979036167263985 -0.07137125730514526 0.27753356099128723 0.16475877165794373 -0.046926531940698624 0.1337442249059677 -0.08753500133752823 0.07193268090486526 -0.13529379665851593 -0.20242305099964142 -0.2511692941188812 -0.22764171659946442 -0.1611546128988266 0.02754805237054825 -0.2968365252017975 0.008206889033317566 -0.07418827712535858 -0.15960779786109924 0.30853429436683655 -0.3245513141155243 0.0795542523264885 0.3553558588027954 0.032547757029533386 0.11297371238470078 0.20448485016822815 0.09287336468696594 -0.014054413884878159 -0.16027285158634186 0.19079747796058655 -0.009423180483281612 -0.14088784158229828 0.10797922313213348 -0.24182391166687012 0.10576899349689484 0.009927025996148586 -0.09172748774290085 0.20574986934661865 0.13181425631046295 0.018777819350361824 0.12237844616174698 -0.6554931402206421 0.06535030901432037 -0.1796644777059555 0.2168404906988144 0.09160960465669632 0.14711813628673553 0.644352376461029 -0.1579645425081253 0.031244555488228798 0.3266858458518982 0.265750527381897 0.04704529792070389 -0.3659997284412384 -0.15591111779212952 0.48380565643310547 -0.12083563953638077 0.14244434237480164 -0.23492908477783203 0.2061525136232376 -0.0896633192896843 -0.5041487216949463 0.23360596597194672 0.06932996958494186 0.10089202970266342 0.11047551780939102 0.15820574760437012 0.21067708730697632 0.3174716830253601 0.17621341347694397 0.27346041798591614 -0.24592375755310059 0.3001698851585388 -0.015937017276883125 -0.21504533290863037 0.027552293613553047 0.10519269853830338 -0.01728285290300846
9 -0.01382424309849739 0.2639565169811249 -0.08644009381532669 0.2222929745912552 -0.13243497908115387 -0.20639382302761078 0.04642363265156746 0.040488101541996 -0.037068676203489304 0.3303852379322052 0.21372202038764954 0.22039751708507538 0.38745659589767456 -0.01034264825284481 0.21439045667648315 -0.39788150787353516 0.0013463047798722982 0.30042219161987305 0.023718291893601418 -0.11893294751644135 -0.3494608402252197 -0.37131771445274353 0.17306724190711975 -0.27359509468078613 0.20013593137264252 0.003737902734428644 -0.15988048911094666 0.22771307826042175 -0.011090145446360111 0.19306425750255585 -0.2172607183456421 -0.027253171429038048 -0.19967252016067505 0.16243907809257507 -0.5852960348129272 -0.23622936010360718 0.2078772783279419 -0.3548174798488617 -0.5208675861358643 0.07031161338090897 0.18384003639221191 0.26601290702819824 -0.1418612152338028 -0.14230036735534668 -0.16583022475242615 -0.021098479628562927 0.1254548281431198 0.22427693009376526 0.09694405645132065 0.21274954080581665 0.19641545414924622 -0.04670637100934982 -0.28613144159317017 0.05688287317752838 0.2056080400943756 0.04745771735906601 -0.26621556282043457 -0.07763402909040451 0.0939398780465126 -0.28894805908203125 -0.05113142356276512 0.23939146101474762 -0.19300200045108795 -0.14550746977329254 -0.01858128234744072 -0.06746887415647507 0.45374247431755066 -0.0529048852622509 0.26745685935020447 0.5283493399620056 -0.24157312512397766 0.14626771211624146 -0.06347373872995377 -0.1708867847919464 0.11508534103631973 0.07445919513702393 0.3466525077819824 -0.12757021188735962 -0.14398805797100067 -0.19631099700927734 -0.2851596474647522 -0.17210137844085693 -0.04833514988422394 0.020334264263510704 -0.07245294749736786 -0.060243554413318634 -0.16630150377750397 -0.08494415134191513 0.15447492897510529 -0.32498899102211 0.008090907707810402 -0.2761157155036926 -0.2933266758918762 0.037731654942035675 -0.018596095964312553 0.16045033931732178 0.11625514179468155 0.22505371272563934 -0.3060787618160248 0.39917147159576416 0.08094210177659988 -0.019635559991002083 -0.1744423359632492 -0.09812653809785843 -0.25212833285331726 0.19935382902622223 -0.4506398141384125 -0.3565030097961426 0.17757530510425568 -0.20446905493736267 -0.24607615172863007 0.331317663192749 0.4012082815170288 0.07181371003389359 -0.37802088260650635 -0.4559099078178406 -0.42060917615890503 0.1638035625219345 0.5023809671401978 0.294428288936615 0.0634729415178299 0.11696698516607285 -0.4455627202987671 0.6460702419281006 0.1907283514738083 -0.039015769958496094 -0.30815815925598145 -0.4165145754814148
34 0.09600192308425903 0.4684056043624878 0.4535816013813019 0.1703064739704132 -0.5593973398208618 -0.31683623790740967 -0.13429369032382965 -0.45607393980026245 0.013827554881572723 -0.18968509137630463 -0.20085234940052032 0.6941808462142944 0.2680884599685669 -0.46849119663238525 0.23411299288272858 0.2446785867214203 -0.02999013103544712 0.3523871600627899 0.3670393228530884 -0.031315840780735016 -0.24209949374198914 -0.15213117003440857 -0.08222607523202896 0.590306282043457 -0.14126676321029663 0.01787700690329075 0.18034780025482178 -0.08061593025922775 -0.26956725120544434 -0.26899847388267517 -0.47696828842163086 0.3421902656555176 0.4918965697288513 0.18058301508426666 -0.6309935450553894 0.21670477092266083 0.30549731850624084 0.07198698818683624 0.08170581609010696 0.12582488358020782 0.27292054891586304 0.44564443826675415 -0.3611914813518524 -0.06881596148014069 0.32723918557167053 0.16523198783397675 -0.3018400967121124 -0.38674139976501465 0.04120304435491562 -0.01968362182378769 -0.2095978707075119 -0.40935760736465454 -0.3559604585170746 0.7933812141418457 -0.08038259297609329 -0.23083627223968506 -0.25080403685569763 0.0526786670088768 -0.09767360240221024 -0.41390785574913025 0.33641791343688965 0.01880997233092785 -0.30092373490333557 0.11224932223558426 -0.25593939423561096 0.040403783321380615 -0.15234573185443878 -0.115469790995121 0.05579805374145508 0.1337624341249466 -0.18203362822532654 0.2497026026248932 0.20926517248153687 -0.6281235218048096 -0.4728688895702362 -0.022457508370280266 0.06513798981904984 0.2100490927696228 -0.7614721655845642 -0.06583043187856674 -0.03474782779812813 -0.343053936958313 -0.26035985350608826 -0.12151003628969193 0.017633715644478798 0.42609909176826477 -0.2533947229385376 -0.13345125317573547 0.8153835535049438 -0.020343195647001266 0.5029531717300415 -0.5385529398918152 0.14968855679035187 0.2792414128780365 0.6088337302207947 0.024383069947361946 0.5268006920814514 0.45522066950798035 -0.577422022819519 -0.037206850945949554 -0.05005263537168503 -0.2305336892604828 0.046225130558013916 -0.6337195038795471 -0.016977570950984955 0.6476393342018127 -0.11730241775512695 -0.03942921385169029 -0.48243027925491333 -0.04330753907561302 0.28145018219947815 -0.04819047823548317 0.4160381257534027 0.7055411338806152 -0.14956724643707275 -0.4882248342037201 -0.17079292237758636 0.6957812309265137 0.7605710625648499 0.6921205520629883 0.32752758264541626 0.08954468369483948 -0.24871133267879486 0.23485827445983887 -0.3094383478164673 -0.11451646685600281 -0.25220051407814026 0.4795416295528412
8 0.21141855418682098 -0.0020536950323730707 0.22834976017475128 0.27907106280326843 -0.21793407201766968 -0.009128098376095295 -0.5139959454536438 -0.3350430428981781 -0.08810120075941086 0.03851318359375 0.1237487718462944 0.6608696579933167 0.2980363368988037 0.07930798828601837 0.2780272960662842 -0.27117499709129333 -0.20705965161323547 0.2786467969417572 0.14468280971050262 -0.16686348617076874 -0.1854272186756134 -0.27924346923828125 0.13617515563964844 0.048868414014577866 0.285481721162796 0.21144168078899384 0.14927205443382263 0.34292423725128174 0.19792243838310242 0.15373755991458893 -0.24405139684677124 0.08772414922714233 -0.12953652441501617 0.08712161332368851 -0.20899666845798492 -0.3550504148006439 -0.14246848225593567 -0.21075454354286194 0.027359234169125557 -0.14867982268333435 0.011628962121903896 0.3964516818523407 -0.2528804540634155 -0.6970847249031067 -0.027382463216781616 -0.40404605865478516 -0.09912209212779999 -0.5635732412338257 0.1017892137169838 -0.008416315540671349 0.2966804802417755 -0.4564635753631592 -0.2588275372982025 0.018487311899662018 0.16494785249233246 -0.11168389767408371 -0.08212385326623917 -0.4951261878013611 -0.3028140068054199 -0.2209618091583252 0.15128856897354126 0.3964913785457611 -0.20284850895404816 -0.015290345065295696 -0.26015836000442505 -0.0520625002682209 0.31754088401794434 0.07152185589075089 0.17231327295303345 0.7435015439987183 0.04342435672879219 0.5226890444755554 -0.05374591425061226 -0.5071706771850586 -0.2047523856163025 0.4164440631866455 0.2391410619020462 0.012240027077496052 -0.7030925750732422 -0.48779892921447754 0.0503731444478035 -0.15049511194229126 -0.0734708309173584 0.1513272523880005 -0.1996719241142273 0.28994253277778625 -0.551439642906189 0.03687973693013191 0.5770958065986633 -0.23694674670696259 0.11270402371883392 -0.2130374163389206 0.16729842126369476 -0.4449690878391266 -0.22170887887477875 -0.05930383875966072 0.11481034755706787 0.6311171054840088 -0.25803259015083313 0.37302204966545105 0.08963503688573837 -0.038790661841630936 -0.14167234301567078 0.17001165449619293 -0.08602451533079147 0.3649899363517761 -0.4342579245567322 -0.020314393565058708 0.3835875391960144 -0.10659006237983704 -0.043513134121894836 -0.23274801671504974 0.025280313566327095 -0.1558259278535843 -0.49629032611846924 -0.2001958042383194 0.15401026606559753 0.4602722227573395 0.23223765194416046 -0.018953969702124596 0.33911052346229553 -0.15279988944530487 -0.4574018120765686 -0.06332208216190338 0.12255197018384933 0.1373828649520874 -0.17450664937496185 0.04581158235669136
25 0.16455218195915222 0.4638204276561737 0.03898896649479866 0.20146958529949188 -0.15673945844173431 -0.05572625249624252 0.12370488792657852 -0.003947338089346886 -0.2653990387916565 0.09468230605125427 0.5545206665992737 0.2716296315193176 0.05889709293842316 -0.22902077436447144 0.17932285368442535 -0.4912419319152832 0.22898253798484802 0.1874602884054184 0.08042313158512115 0.1235741376876831 -0.39897745847702026 -0.07316567003726959 0.01808292046189308 0.0035192640498280525 0.6023695468902588 0.2619682252407074 -0.3106319308280945 -0.09928625822067261 0.15030881762504578 0.2613067626953125 -0.06849953532218933 0.03438648208975792 0.25190702080726624 0.4353347420692444 -0.09233710169792175 -0.3466283977031708 0.0733855739235878 -0.1825743317604065 0.03454793244600296 -0.2100607007741928 0.33662188053131104 0.14475667476654053 -0.4739774763584137 -0.11320584267377853 -0.0015449377242475748 -0.0037335443776100874 0.006105639971792698 -0.24010896682739258 -0.028768891468644142 -0.13902796804904938 0.10190089046955109 -0.2256636768579483 -0.025936445221304893 0.08809911459684372 0.06756997108459473 0.21476608514785767 -0.04157542437314987 -0.0071877907030284405 -0.3954148590564728 0.025477034971117973 0.12558147311210632 0.05493307113647461 0.3057003319263458 0.09457904100418091 -0.051293037831783295 0.09273985028266907 -0.10997798293828964 -0.40760141611099243 0.22062812745571136 -0.14445006847381592 0.14405468106269836 0.4357767105102539 0.39730340242385864 -0.19898252189159393 -0.36128565669059753 0.2300771027803421 0.34422534704208374 0.08464112877845764 -0.2071727216243744 -0.19115050137043 0.1699565351009369 -0.11119119077920914 0.16037346422672272 -0.26767563819885254 -0.1760794222354889 0.07609759271144867 -0.6025192141532898 0.5980750322341919 0.19869716465473175 -0.22339391708374023 0.2563580870628357 -0.7888924479484558 -0.06222984194755554 -0.1909586489200592 0.2345242202281952 0.022553320974111557 0.36211884021759033 0.44343677163124084 -0.44159770011901855 0.1322781890630722 0.15112900733947754 -0.27536317706108093 -0.3972460925579071 -0.34673380851745605 0.1777895838022232 0.18478499352931976 -0.5111289024353027 -0.04066672921180725 0.21376565098762512 -0.23283155262470245 -0.5250512957572937 -0.34650951623916626 0.11409329622983932 0.531815767288208 -0.48493093252182007 -0.09301820397377014 0.2937891483306885 -0.2154300957918167 0.09751299768686295 0.2673608362674713 -0.1474224030971527 0.026727527379989624 -0.23215138912200928 0.2276448756456375 0.34268417954444885 0.24985133111476898 -0.3714575469493866 0.08687777817249298
28 0.3328153192996979 0.3535120189189911 -0.13031363487243652 0.14048898220062256 -0.13019992411136627 -0.2015148252248764 0.3722367584705353 0.2807568907737732 0.44478076696395874 0.07428765296936035 0.552254855632782 -0.0027468062471598387 0.37232324481010437 -0.3125602900981903 -0.0338979996740818 -0.33088216185569763 0.27131396532058716 -0.029047248885035515 0.027889594435691833 0.1843796819448471 -0.6325321793556213 -0.21486032009124756 0.01271059364080429 -0.026294438168406487 0.29666373133659363 -0.1346474289894104 -0.3174806237220764 0.29067283868789673 -0.019635722041130066 0.027943188324570656 -0.0785728394985199 -0.16516566276550293 -0.05665198341012001 0.2721329629421234 -0.3038126528263092 -0.15759757161140442 0.4654741585254669 -0.44465330243110657 -0.315636545419693 -0.24848558008670807 0.2814050018787384 0.05611540377140045 -0.5277900695800781 -0.18833105266094208 0.05914941802620888 -0.03174570947885513 0.16327351331710815 0.24991218745708466 0.005931002087891102 0.4319930672645569 -0.10073524713516235 -0.0379948616027832 -0.03823726996779442 0.3556513488292694 0.020699230954051018 0.30924192070961 -0.20841571688652039 -0.23408976197242737 -0.017513031139969826 -0.08777807652950287 -0.0732162818312645 -0.054996900260448456 -0.4716491997241974 0.02741648443043232 0.06780216842889786 -0.15157699584960938 0.12181785702705383 -0.7153039574623108 0.4755628705024719 -0.13942232728004456 -0.22623611986637115 0.19625496864318848 0.49158555269241333 -0.42673924565315247 -0.17110247910022736 -0.08364153653383255 0.4409293532371521 -0.20420995354652405 0.020803164690732956 -0.09315039962530136 -0.3652721643447876 -0.3502950668334961 -0.12132129818201065 0.027426565065979958 0.04462621733546257 -0.09217692911624908 -0.3219234049320221 0.3802186846733093 -0.053463004529476166 -0.23035359382629395 0.05004459246993065 -0.7541499137878418 -0.21581004559993744 0.16192272305488586 -0.11834236979484558 0.2544466555118561 0.38284236192703247 0.576647937297821 -0.38635775446891785 0.31773805618286133 0.18952113389968872 -0.1853967159986496 -0.20933282375335693 -0.47100040316581726 -0.3290903866291046 0.27815043926239014 -0.18069417774677277 -0.16845495998859406 -0.23093512654304504 -0.3394792973995209 -0.5148536562919617 0.22282645106315613 0.00048522697761654854 0.3333560824394226 -0.349937379360199 -0.33859720826148987 -0.26976141333580017 0.055838555097579956 0.3591479957103729 0.09753885865211487 -0.29497596621513367 -0.03184424713253975 -0.29820626974105835 0.19740308821201324 0.24818675220012665 0.17683570086956024 -0.15767385065555573 0.04656919464468956
21 0.08672555536031723 0.32512137293815613 0.21701961755752563 0.11471320688724518 -0.16148816049098969 0.2322532832622528 0.11011563241481781 0.09490268677473068 0.020859481766819954 -0.10969818383455276 0.44466885924339294 0.3138456642627716 0.33184871077537537 -0.2193727046251297 -0.25987720489501953 0.008283764123916626 -0.049525659531354904 0.22982382774353027 0.1042293906211853 -0.005027237813919783 -0.28182002902030945 -0.3432242274284363 0.1651383489370346 0.24992740154266357 -0.06432982534170151 0.44727927446365356 -0.24308276176452637 0.09381300210952759 0.15638481080532074 0.01999497041106224 -0.3472464084625244 -0.24697674810886383 -0.06705377250909805 0.0047833858989179134 -0.13128602504730225 -0.43553316593170166 -0.19690249860286713 -0.219288632273674 0.2863750755786896 0.02599865011870861 0.10111942142248154 0.2345142811536789 -0.22150658071041107 0.054329752922058105 -0.15334486961364746 0.21740500628948212 0.15656574070453644 -0.09368962049484253 0.1242387592792511 -0.09238765388727188 -0.08378387242555618 0.23040057718753815 -0.11216901242733002 0.2778298556804657 0.12816743552684784 -0.02835196815431118 -0.13374756276607513 -0.1325715333223343 -0.03622773662209511 0.1404922902584076 -0.029283324256539345 -0.2212815284729004 0.0723211020231247 -0.27765989303588867 -0.04161347448825836 -0.3244340717792511 0.24870441854000092 -0.0946199968457222 -0.015517677180469036 0.39515864849090576 -0.28002649545669556 -0.13950063288211823 0.45918434858322144 -0.3023848831653595 -0.03380052000284195 0.14148204028606415 0.28615328669548035 -0.09022334218025208 -0.444899320602417 0.2632085382938385 -0.10690660774707794 -0.17690768837928772 0.30467429757118225 -0.35707348585128784 0.11956480145454407 0.11638930439949036 0.09612376242876053 0.37611427903175354 -0.07217016071081161 -0.07919043302536011 0.0794072151184082 -0.5522401928901672 0.18583033978939056 -0.16422465443611145 0.045498304069042206 0.2937138080596924 0.09983407706022263 0.7641253471374512 -0.08927106112241745 0.043390728533267975 0.18889734148979187 0.014968262985348701 0.15163622796535492 -0.05953305959701538 -0.16460846364498138 0.4397205710411072 -0.2060474157333374 0.19801487028598785 -0.42529138922691345 0.23421745002269745 -0.10034734755754471 -0.5460622906684875 0.3224737346172333 -0.12649127840995789 0.08578978478908539 -0.012162230908870697 0.009321415796875954 0.1516202986240387 0.2967904210090637 0.18833933770656586 0.21469314396381378 -0.1379368007183075 0.25203046202659607 -0.06366991251707077 -0.19645412266254425 0.11072789132595062 -0.15666262805461884 -0.20173537731170654
23 0.08902129530906677 0.42246630787849426 0.28965291380882263 0.13325676321983337 -0.2180071920156479 0.2675033211708069 0.043884046375751495 0.1110573410987854 -0.06795322149991989 -0.12656660377979279 0.5052193403244019 0.4115373194217682 0.4157266914844513 -0.2751845419406891 -0.27036845684051514 0.007577494718134403 -0.004451710730791092 0.3689243197441101 0.10573117434978485 0.06134355440735817 -0.3685210645198822 -0.36630749702453613 0.2524237036705017 0.36426326632499695 -0.059297192841768265 0.4873192608356476 -0.22415299713611603 0.08374965190887451 0.14241768419742584 0.017966091632843018 -0.4200398921966553 -0.2824147939682007 -0.056837789714336395 0.008659526705741882 -0.14120519161224365 -0.49142393469810486 -0.1885605752468109 -0.2180381864309311 0.38439813256263733 0.05020803585648537 0.13279606401920319 0.2420547902584076 -0.2853625416755676 0.06021464616060257 -0.15593190491199493 0.21846744418144226 0.2306951880455017 -0.10472562164068222 0.14571817219257355 -0.17110750079154968 -0.04214669391512871 0.29971593618392944 -0.16576458513736725 0.32357627153396606 0.11338960379362106 -0.024666018784046173 -0.138412743806839 -0.16844645142555237 -0.05109615623950958 0.13203203678131104 -0.06511802971363068 -0.24003295600414276 0.06054065003991127 -0.2827352285385132 -0.04252215474843979 -0.4393461048603058 0.3226274847984314 -0.06262067705392838 -0.019731026142835617 0.5155133605003357 -0.3715624213218689 -0.11771171540021896 0.558405339717865 -0.3104479908943176 -0.014595338143408298 0.22212396562099457 0.2904808223247528 -0.09627138823270798 -0.49221572279930115 0.3060916066169739 -0.13032904267311096 -0.21967776119709015 0.34407171607017517 -0.4072859287261963 0.10385416448116302 0.0950867310166359 0.08604051917791367 0.3946021497249603 -0.0716724544763565 -0.06859597563743591 0.11924736201763153 -0.6442996859550476 0.2510946989059448 -0.24439620971679688 0.10216642916202545 0.34608110785484314 0.06471946090459824 0.8042712807655334 -0.08852081000804901 0.010756343603134155 0.2893824279308319 0.011594515293836594 0.207850381731987 -0.051921483129262924 -0.17579185962677002 0.49528053402900696 -0.25479447841644287 0.29677408933639526 -0.5155912041664124 0.24298882484436035 -0.11869102716445923 -0.662246584892273 0.34968799352645874 -0.12013683468103409 0.15561065077781677 -0.002853923477232456 0.01906939409673214 0.1686321496963501 0.39784619212150574 0.21451976895332336 0.24640563130378723 -0.1582365483045578 0.33930373191833496 -0.14921443164348602 -0.1517953872680664 0.16454362869262695 -0.15011975169181824 -0.2493629902601242
32 -0.17309358716011047 0.4542241096496582 -0.006256096996366978 0.192597433924675 -0.11814484745264053 0.26828014850616455 0.4317361116409302 0.39304882287979126 0.37172141671180725 0.6325405836105347 -0.04484741762280464 0.18221484124660492 0.19854728877544403 -0.03367970138788223 0.20327532291412354 -0.6706926822662354 -0.2135491520166397 0.48226192593574524 -0.22360838949680328 0.10463723540306091 -0.40668484568595886 -0.12734101712703705 0.09745071083307266 -0.13461460173130035 0.19045820832252502 0.07171142101287842 -0.023634055629372597 0.11605291068553925 -0.09313753992319107 -0.04487957805395126 -0.37490999698638916 -0.32425370812416077 -0.1821092814207077 0.4442968964576721 -0.639865517616272 -0.15349701046943665 0.3879651725292206 -0.0025054337456822395 -0.5070559978485107 0.08712419122457504 0.5069887042045593 0.611717939376831 -0.08740374445915222 -0.28132933378219604 0.14024610817432404 0.03692660853266716 0.1487027257680893 0.042395975440740585 -0.04036882892251015 0.47566738724708557 -0.0869203433394432 -0.3656787574291229 -0.8030039668083191 0.33875808119773865 0.07532627880573273 0.24383093416690826 0.05136178061366081 -0.07235844433307648 0.24229595065116882 -0.3022536039352417 -0.13953663408756256 0.1906915307044983 -0.48166146874427795 -0.3801388740539551 0.10962937027215958 -0.19954153895378113 0.5978291630744934 -0.15961292386054993 0.3606863021850586 0.4822438955307007 -0.2698286175727844 0.1238698959350586 0.11831468343734741 -0.01764371059834957 0.2116372436285019 -0.29259568452835083 0.6092867851257324 -0.054898232221603394 -0.27298495173454285 0.03752689063549042 -0.4542084336280823 -0.4014521837234497 -0.04459827020764351 0.024802299216389656 0.10368513315916061 0.021379483863711357 -0.20718754827976227 -0.13692885637283325 0.014418870210647583 -0.18345482647418976 0.269220769405365 -0.5045591592788696 -0.25792396068573 0.4106301963329315 -0.15164285898208618 0.555276095867157 0.21359188854694366 0.6553709506988525 -0.4045277237892151 0.3884176015853882 0.1353134661912918 0.21764515340328217 -0.20831245183944702 0.030578142032027245 -0.6180542707443237 0.5882785320281982 -0.559508740901947 -0.40220630168914795 -0.022541560232639313 -0.1999533325433731 -0.29999497532844543 0.14681683480739594 0.11637552827596664 0.0797276720404625 -0.43355730175971985 -0.5130009651184082 -0.6814814209938049 -0.42284464836120605 0.42656657099723816 0.09985386580228806 -0.023044897243380547 0.21377752721309662 -0.3482617139816284 0.6177883744239807 0.0035637402907013893 0.14336641132831573 -0.15027454495429993 -0.2143530249595642
22 0.12843434512615204 0.08434847742319107 0.08778098970651627 0.1668795645236969 -0.04387132078409195 0.2484816014766693 -0.05761425942182541 -0.1859075278043747 -0.06142430379986763 -0.16491441428661346 -0.06247401982545853 0.1534411609172821 0.11287211626768112 -0.24261823296546936 -0.046116165816783905 -0.009664132259786129 0.16189707815647125 0.28440168499946594 0.026605626568198204 0.1432916671037674 -0.2617974877357483 -0.0718216747045517 0.12912079691886902 0.19777289032936096 -0.17929156124591827 0.2930181920528412 -0.08299180865287781 0.055032357573509216 -0.20218977332115173 0.043227419257164 -0.42343300580978394 -0.2194531112909317 -0.07916906476020813 0.1545710414648056 -0.09166860580444336 -0.19245745241641998 0.14358440041542053 -0.030673298984766006 0.2845301330089569 0.07951393723487854 0.009738865308463573 0.13689321279525757 -0.17101311683654785 0.08185417205095291 -0.25121790170669556 0.24168233573436737 0.06471879035234451 -0.05031181871891022 0.10463596880435944 -0.20739002525806427 0.057918209582567215 0.09711939096450806 -0.07525219768285751 0.20286810398101807 0.13213160634040833 0.0010447412496432662 0.12637709081172943 -0.13571934401988983 0.029219232499599457 -0.09631835669279099 -0.1770818680524826 -0.2515600323677063 -0.17060238122940063 -0.17784999310970306 0.08018289506435394 -0.32985082268714905 0.07984359562397003 -0.05963648855686188 -0.14140646159648895 0.30961352586746216 -0.3364610970020294 0.06361551582813263 0.33922508358955383 0.027288828045129776 0.1409473717212677 0.19496147334575653 0.10009804368019104 0.02787647396326065 -0.1747632771730423 0.18086466193199158 0.01761786639690399 -0.19801752269268036 0.1191784217953682 -0.2594412863254547 0.10474995523691177 0.01141370739787817 -0.08149443566799164 0.21349823474884033 0.1472843587398529 -0.018084706738591194 0.09622499346733093 -0.6206614375114441 0.08548300713300705 -0.21979987621307373 0.19651508331298828 0.151709645986557 0.08983539789915085 0.6110161542892456 -0.10801021009683609 0.02860867790877819 0.33375632762908936 0.23273950815200806 0.037396643310785294 -0.30499404668807983 -0.18505987524986267 0.4389045536518097 -0.12164831161499023 0.09878578782081604 -0.22848735749721527 0.19831483066082 -0.09319651126861572 -0.458402156829834 0.2492261528968811 0.1027720645070076 0.10716941952705383 0.08483118563890457 0.14600780606269836 0.1968015730381012 0.33305367827415466 0.19345733523368835 0.2401430904865265 -0.22306500375270844 0.2515259087085724 -0.02854057215154171 -0.23607929050922394 0.05776470899581909 0.10221116989850998 -0.04296885430812836
6 -0.2554667294025421 0.5489134192466736 0.08026937395334244 -0.009657677263021469 -0.3280484676361084 -0.1339675784111023 0.10860151797533035 0.07701735943555832 -0.08303533494472504 0.2141510397195816 0.0962793231010437 0.2737275958061218 -0.23552803695201874 0.47981786727905273 0.2925799489021301 -0.18981795012950897 -0.052127107977867126 0.3084617555141449 -0.07032313197851181 0.28822100162506104 -0.3495127856731415 0.19547972083091736 0.22152115404605865 -0.10456614941358566 0.4142625033855438 -0.08402232080698013 0.5345982313156128 0.015321054495871067 -0.043217528611421585 -0.25152885913848877 -0.33997324109077454 0.16958321630954742 0.04094328731298447 0.18623477220535278 -0.23596549034118652 -0.11248885095119476 0.36538466811180115 0.10750428587198257 0.007866229861974716 0.21662825345993042 0.8135038018226624 0.7382693886756897 -0.47962895035743713 -0.26646438241004944 0.36140406131744385 -0.19744911789894104 0.036843191832304 -0.564934492111206 0.29938769340515137 0.349656879901886 -0.10056516528129578 -0.727798342704773 -0.49504053592681885 0.14358390867710114 -0.2409304976463318 0.4864268898963928 -0.07856440544128418 -0.032799892127513885 0.04405630752444267 -0.17397166788578033 0.34775519371032715 0.15950879454612732 0.2987629771232605 -0.16012531518936157 -0.01031065359711647 -0.17355506122112274 0.10104625672101974 0.05841897428035736 0.4451482594013214 0.19268152117729187 0.037406496703624725 0.17512913048267365 0.26138177514076233 -0.06972943246364594 -0.03722622990608215 0.0029119488317519426 0.09052709490060806 0.4067065119743347 -0.4195128381252289 -0.16735118627548218 0.12305689603090286 -0.733734667301178 0.015571655705571175 -0.20040282607078552 -0.04671711474657059 0.1417776495218277 -0.2720162868499756 0.11784677952528 0.005620205774903297 -0.15777187049388885 -0.03043905831873417 -0.2428213506937027 0.3220196068286896 0.2894306480884552 0.061068080365657806 0.026832392439246178 -0.16075371205806732 0.23536644876003265 -0.5014290809631348 0.34266504645347595 -0.0629398375749588 -0.1039186641573906 -0.3000037968158722 -0.15754835307598114 -0.27586787939071655 0.18395917117595673 -0.5989019274711609 -0.46778807044029236 -0.08396174013614655 -0.18502037227153778 -0.22968345880508423 0.1316927820444107 0.35176995396614075 0.5914920568466187 -0.571879506111145 0.00021767285943496972 -0.3154905438423157 -0.18779191374778748 0.26422005891799927 -0.21060456335544586 0.01686762645840645 0.17092964053153992 -0.2512935996055603 0.03869728371500969 -0.1482437402009964 0.1051553413271904 0.16282175481319427 0.03928859904408455
33 0.365951269865036 0.6148136854171753 -0.22895419597625732 0.30301275849342346 -0.5492503046989441 -0.38395971059799194 -0.3214743733406067 -0.12805762887001038 0.049605462700128555 0.015941591933369637 -0.15147365629673004 0.22125007212162018 -0.3063472509384155 0.5034386515617371 0.35858356952667236 0.3015076518058777 -0.1671386957168579 0.061816632747650146 0.17612309753894806 0.2964288294315338 -0.10880628973245621 -0.1829938441514969 0.3224136233329773 0.8721789717674255 0.08295571804046631 -0.421933650970459 0.41746315360069275 0.07495657354593277 0.1873118281364441 -0.4091605544090271 -0.28376346826553345 -0.2237366884946823 0.4860999584197998 0.037372689694166183 -0.1003628522157669 0.07479637861251831 0.42279624938964844 -0.7660635113716125 -0.2686839997768402 0.0046277279034256935 0.5793617367744446 0.38173097372055054 -0.5407842397689819 -0.22612033784389496 0.32500624656677246 0.22570878267288208 -0.25257402658462524 -0.39433959126472473 0.25996097922325134 -0.17550596594810486 0.42002207040786743 -0.29197824001312256 -0.3105519711971283 0.21658746898174286 0.29008519649505615 0.26324132084846497 0.06549897789955139 -0.3346834182739258 0.267836332321167 -0.4827702045440674 -0.18747088313102722 0.3408585488796234 -0.766359269618988 -0.14537805318832397 -0.44051307439804077 0.06774020940065384 -0.07734173536300659 0.2059279829263687 0.6922191977500916 0.025076741352677345 0.032502785325050354 0.7923753261566162 0.32849499583244324 -0.08157111704349518 -0.34973084926605225 0.6675530076026917 -0.22394926846027374 0.12151649594306946 0.43462467193603516 -0.06627775728702545 0.03341535106301308 0.40479546785354614 0.4374963641166687 -0.11561762541532516 -0.3631608486175537 -0.10287640988826752 0.0899771973490715 0.5000847578048706 0.39517563581466675 0.24307486414909363 0.11614884436130524 -0.15494240820407867 0.030429871752858162 -0.09776393324136734 0.49874961376190186 -0.2867107391357422 0.5293558239936829 0.8282254934310913 -0.9173113703727722 0.5111203193664551 -0.022450031712651253 -0.13217918574810028 0.13658685982227325 0.33295172452926636 -0.06120823696255684 0.18237623572349548 -0.4180797040462494 -0.10606943815946579 0.23517224192619324 0.5021238923072815 -0.4844575524330139 -0.6412427425384521 0.4430038034915924 0.4369274973869324 0.008885526098310947 0.5027835369110107 0.16949625313282013 0.4908875823020935 0.6613811254501343 0.5145291686058044 0.47783738374710083 0.21175122261047363 -0.5831940770149231 0.07986637949943542 -0.4322299361228943 -0.014835275709629059 -0.039723023772239685 -0.1671239733695984
17 0.47176364064216614 0.2640373706817627 -0.2506183683872223 0.0522923544049263 -0.07891427725553513 0.10722347348928452 0.09748025238513947 -0.2656117081642151 0.4581001400947571 -0.10007128119468689 0.1851995587348938 0.2091149091720581 -0.26798227429389954 -0.2920222282409668 -0.24891406297683716 0.058312974870204926 -0.2501855492591858 -0.20658332109451294 0.05211056023836136 -0.46823257207870483 -0.3607000708580017 -0.1935032308101654 0.10246790945529938 -0.10574374347925186 0.18172335624694824 0.23858845233917236 -0.05876781418919563 0.12817470729351044 0.10702317208051682 -0.12511278688907623 -0.5746368169784546 -0.012794705107808113 0.001669589662924409 0.2453528344631195 -0.43539708852767944 -0.38159096240997314 0.34436067938804626 -0.4019351303577423 -0.0674223080277443 0.27244633436203003 -0.21597115695476532 0.2577122747898102 -0.063865527510643 0.1411762833595276 -0.12890636920928955 0.11708775907754898 -0.1318754106760025 0.05478735268115997 0.36641794443130493 -0.09060066193342209 0.04064900428056717 -0.19334501028060913 -0.02685440331697464 0.04388883337378502 -0.1008584052324295 0.14154425263404846 -0.32036590576171875 -0.2149084359407425 -0.3587166368961334 -0.17832902073860168 0.08578410744667053 -0.02487180009484291 -0.3908810019493103 -0.2638683021068573 0.07703497260808945 0.07273827493190765 0.07799870520830154 -0.2060507982969284 0.21307304501533508 -0.1702944040298462 -0.15138579905033112 -0.2503345012664795 0.19525475800037384 -0.033673495054244995 0.05822044610977173 0.04780494421720505 -0.008173191919922829 0.11552448570728302 0.04920239746570587 0.1990269124507904 -0.058180071413517 -0.21166622638702393 0.059789057821035385 -0.3985894024372101 0.3130733370780945 0.11906509101390839 -0.2572053372859955 0.2398579716682434 0.07658575475215912 0.2901606261730194 -0.08309096097946167 -0.313671737909317 0.029095251113176346 0.07257359474897385 0.18136611580848694 0.19699430465698242 0.19221699237823486 0.7056673765182495 -0.23738718032836914 0.22395622730255127 0.18349997699260712 0.30199986696243286 -0.08240897208452225 -0.18241487443447113 -0.6899245381355286 0.30792123079299927 -0.04500340670347214 -0.381436824798584 0.12789516150951385 0.5277175307273865 -0.01024483423680067 -0.31162229180336 0.15155990421772003 -0.16955028474330902 -0.378813773393631 0.28879374265670776 0.15377023816108704 0.25798431038856506 0.2121911495923996 0.40141236782073975 -0.039646707475185394 -0.32147935032844543 -0.00034145964309573174 0.27903634309768677 -0.6405044794082642 -0.251935750246048 -0.4386114180088043 0.22614501416683197
11 -0.09635183215141296 0.5920435786247253 -0.04453783482313156 -0.030382759869098663 -0.3115406036376953 -0.21559475362300873 0.2215178906917572 0.0879344716668129 -0.03228490427136421 0.12200385332107544 0.19525599479675293 0.3314018249511719 0.05510037764906883 0.35429829359054565 0.1130143478512764 -0.14119550585746765 0.03874010220170021 0.21171793341636658 -0.11292760819196701 0.1657416671514511 -0.2441396713256836 -0.07795534282922745 0.22869084775447845 -0.08055441826581955 0.36893653869628906 -0.11234445869922638 0.1422286033630371 0.18550704419612885 -0.012385418638586998 -0.1922939568758011 -0.3137091398239136 -0.10236921161413193 -0.08517532050609589 0.19045664370059967 -0.27837637066841125 -0.1466141641139984 0.28805238008499146 -0.05594528093934059 -0.2869267761707306 0.2140815556049347 0.4346912205219269 0.44539129734039307 -0.34871673583984375 0.008117837831377983 0.1340271383523941 0.035646870732307434 0.005157522391527891 -0.28870484232902527 0.17291337251663208 0.31486138701438904 0.08093111217021942 -0.40518656373023987 -0.4889844059944153 0.07870964705944061 -0.10985565185546875 0.1885034292936325 -0.25604766607284546 0.13794365525245667 0.03430024906992912 -0.2414221465587616 0.16988299787044525 0.1365465372800827 0.1642272025346756 -0.13736465573310852 0.09241370111703873 -0.0690302699804306 0.13047969341278076 -0.030576074495911598 0.2988244593143463 0.24792835116386414 -0.07276342064142227 0.13785383105278015 0.11599352210760117 -0.09182602167129517 0.041533634066581726 -0.005392871331423521 0.29302269220352173 0.1539994478225708 -0.33648666739463806 -0.2852134108543396 0.050441764295101166 -0.42251360416412354 -0.01350350957363844 -0.08395856618881226 -0.02980244904756546 0.02262842282652855 -0.07055199891328812 0.15418247878551483 0.06384135782718658 -0.17595282196998596 -0.08050950616598129 -0.3017342984676361 0.10317860543727875 0.29202601313591003 0.0239908117800951 0.08263301104307175 -0.03126389905810356 0.23609139025211334 -0.4495479166507721 0.40521255135536194 -0.10320156812667847 -0.07938198745250702 -0.23474690318107605 -0.19869239628314972 -0.3595809042453766 0.19570766389369965 -0.4586331248283386 -0.46994736790657043 0.09238549321889877 -0.26724115014076233 -0.24743904173374176 0.20152924954891205 0.22483985126018524 0.30255889892578125 -0.4060770273208618 -0.06724946200847626 -0.3638610243797302 -0.108884796500206 0.6028921008110046 0.058675408363342285 -0.07667455077171326 0.1648666262626648 -0.26232773065567017 0.22623375058174133 0.06718606501817703 -0.024798233062028885 0.07574745267629623 -0.1692037284374237
20 0.14280232787132263 0.1118825376033783 -0.00027545675402507186 0.2738507390022278 -0.02766350843012333 -0.13782930374145508 0.0793956071138382 0.14215202629566193 0.34512922167778015 0.4439496695995331 0.05435139685869217 0.14144358038902283 0.3491697907447815 -0.17911933362483978 0.270209938287735 -0.45189303159713745 -0.07052483409643173 0.331086128950119 -0.036930594593286514 -0.0598815456032753 -0.352788507938385 -0.3500315248966217 0.09521117061376572 -0.15232257544994354 0.13876691460609436 -0.00201482605189085 -0.04376094415783882 0.24944788217544556 -0.0856247991323471 0.11360059678554535 -0.3668070435523987 -0.06089015305042267 -0.267495721578598 0.19699659943580627 -0.5191192030906677 -0.1960277557373047 0.33332017064094543 -0.2503693103790283 -0.40139538049697876 0.011195598170161247 0.26765045523643494 0.3594187796115875 -0.0093741649761796 -0.39022356271743774 -0.14857427775859833 -0.13390108942985535 0.1451094150543213 0.18140214681625366 0.09096012264490128 0.27622190117836 0.03759779408574104 -0.19123299419879913 -0.4814121425151825 0.06476124376058578 0.24552105367183685 0.06778254359960556 -0.2473800629377365 -0.18203774094581604 0.23949342966079712 -0.29009193181991577 -0.11325649917125702 0.2361292690038681 -0.44729000329971313 -0.30551236867904663 -0.04228314012289047 -0.08665269613265991 0.422097772359848 -0.07291751354932785 0.1613476276397705 0.5457976460456848 -0.35689929127693176 -0.04304944723844528 0.09663153439760208 -0.18061687052249908 0.19805696606636047 -0.09568029642105103 0.4197627902030945 -0.1384001076221466 -0.18590788543224335 -0.03436420112848282 -0.43330118060112 -0.20728448033332825 -0.1639491468667984 0.10077036917209625 0.006566219497472048 -0.04845830798149109 -0.18333157896995544 -0.1926456242799759 0.0335610993206501 -0.3560522794723511 0.173606738448143 -0.37164387106895447 -0.2095816731452942 0.21394473314285278 -0.11261855810880661 0.3191940188407898 0.29914045333862305 0.5066680312156677 -0.31665658950805664 0.36556994915008545 0.14465567469596863 0.05411961302161217 -0.14366568624973297 -0.03071625530719757 -0.3764544129371643 0.39596784114837646 -0.3387092649936676 -0.26386719942092896 -0.07337819784879684 -0.17753757536411285 -0.14148594439029694 0.2651945948600769 0.2015715092420578 -0.03900580853223801 -0.27342626452445984 -0.5368826985359192 -0.4746674597263336 -0.01762293465435505 0.41974109411239624 0.15034539997577667 0.024369100108742714 0.054803989827632904 -0.4565941393375397 0.5669159293174744 0.05809815600514412 -0.008511293679475784 -0.2840350568294525 -0.18558230996131897
7 -0.2542226314544678 0.5851945877075195 0.005909287836402655 -0.06615511327981949 -0.3369886577129364 -0.05726371705532074 0.17005054652690887 0.08025174587965012 -0.008095075376331806 0.20565299689769745 0.1515369415283203 0.31413909792900085 -0.12987814843654633 0.6162154674530029 0.1580786406993866 -0.13920153677463531 -0.06925706565380096 0.2499336302280426 -0.1566711813211441 0.2729422152042389 -0.24389366805553436 0.12482467293739319 0.2778487205505371 -0.08862835168838501 0.3059125244617462 -0.1181369349360466 0.45080164074897766 0.052142489701509476 0.00711433170363307 -0.2818514406681061 -0.306228905916214 -0.046068161725997925 -0.040803633630275726 0.22244104743003845 -0.33159929513931274 -0.1422109156847 0.397199809551239 -0.06195042282342911 -0.14648398756980896 0.27891382575035095 0.638724684715271 0.6028829216957092 -0.4541667699813843 -0.14232562482357025 0.34691205620765686 -0.08322972804307938 -0.08525904268026352 -0.4159450829029083 0.2649708688259125 0.3926665782928467 0.006553604267537594 -0.6332300305366516 -0.4620639383792877 0.20790328085422516 -0.1606612503528595 0.3300314247608185 -0.13760793209075928 0.018831752240657806 0.11813917011022568 -0.23915572464466095 0.2312496453523636 0.16481927037239075 0.11113212257623672 -0.19275693595409393 0.011356504634022713 -0.18723519146442413 0.19209735095500946 -0.06840938329696655 0.4451855719089508 0.30533769726753235 -0.032092269510030746 0.2059154361486435 0.10943280160427094 -0.08025044947862625 0.022172588855028152 -0.041632283478975296 0.23540231585502625 0.2757883369922638 -0.4026693105697632 -0.19311004877090454 0.051826171576976776 -0.649855375289917 -0.004215158522129059 -0.14072459936141968 0.011224807240068913 0.13515327870845795 -0.15097825229167938 0.18971630930900574 0.08664625883102417 -0.14525462687015533 -0.049821894615888596 -0.22020570933818817 0.1562298983335495 0.29512879252433777 -0.036405421793460846 0.07191675156354904 -0.1294211894273758 0.26044729351997375 -0.5298330783843994 0.42215144634246826 -0.018484940752387047 -0.10471075773239136 -0.22223037481307983 -0.1117272898554802 -0.387063205242157 0.22686780989170074 -0.5486950874328613 -0.5257954597473145 -0.0011870719026774168 -0.2042495459318161 -0.24601778388023376 0.220539391040802 0.2779708802700043 0.42564657330513 -0.43176212906837463 -0.025061465799808502 -0.40113145112991333 -0.18000894784927368 0.40436017513275146 -0.21223735809326172 0.06751085817813873 0.24519340693950653 -0.28447750210762024 0.19434812664985657 -0.10592202842235565 0.061624832451343536 0.1578700840473175 -0.12667402625083923
29 0.3897407650947571 0.29696059226989746 -0.09367941319942474 0.30079880356788635 -0.12037939578294754 -0.30114099383354187 0.3055301308631897 0.276951402425766 0.4223952889442444 0.10526511073112488 0.45370450615882874 0.004660111851990223 0.3510841429233551 -0.46263664960861206 0.153929203748703 -0.45233458280563354 0.34137824177742004 0.1456456333398819 -0.0005014344351366162 0.1667136698961258 -0.6493812799453735 -0.4471599757671356 0.009154179133474827 0.10479144752025604 0.333214670419693 -0.07783468812704086 -0.48770391941070557 0.3131777048110962 -0.0013739040587097406 0.2339044213294983 -0.15602606534957886 -0.1677803099155426 -0.13842304050922394 0.3333899676799774 -0.35216236114501953 -0.18125617504119873 0.3746359944343567 -0.39193543791770935 -0.5943112969398499 -0.274845153093338 0.2478153109550476 0.1076870709657669 -0.3965966999530792 -0.17116782069206238 -0.06582038849592209 0.051555633544921875 0.3018084764480591 0.33204737305641174 0.02152303233742714 0.36334896087646484 -0.09491831809282303 0.07052095979452133 -0.23425771296024323 0.15191181004047394 0.12435019016265869 0.2775913178920746 -0.1972329318523407 -0.15731407701969147 -0.053561918437480927 -0.11956163495779037 -0.18621961772441864 -0.0031723221763968468 -0.5247713327407837 -0.05113929882645607 -0.029970400035381317 -0.030418647453188896 0.13520877063274384 -0.4681253731250763 0.3933211863040924 -0.01352036651223898 -0.37029320001602173 0.020072774961590767 0.556876540184021 -0.30651727318763733 -0.24183568358421326 -0.1321716457605362 0.5526096224784851 -0.30491742491722107 -0.05088144168257713 -0.13333290815353394 -0.3629893660545349 -0.07078557461500168 -0.10345470160245895 0.08599092811346054 -0.04812543839216232 -0.16907808184623718 -0.3174133598804474 0.13899075984954834 -0.15104050934314728 -0.2490808218717575 0.2949235141277313 -0.9744692444801331 -0.16162295639514923 0.2859945595264435 0.05495006963610649 0.29766568541526794 0.5647748708724976 0.6224793195724487 -0.4580029845237732 0.2370789349079132 -0.00043870951049029827 -0.0577668771147728 -0.2883378565311432 -0.29580458998680115 -0.10758191347122192 0.23087087273597717 -0.30462542176246643 -0.05053703114390373 -0.09847325086593628 -0.3043693006038666 -0.4467160701751709 -0.0032898581121116877 0.0772194042801857 0.20199359953403473 -0.4060419201850891 -0.32533225417137146 -0.3070559799671173 -0.08780520409345627 0.44796839356422424 0.41196781396865845 -0.2879694104194641 0.06321576237678528 -0.34320271015167236 0.4558663070201874 0.2921234369277954 0.12068747729063034 -0.35661497712135315 0.04678044095635414
26 0.2176666110754013 0.38810572028160095 0.08347101509571075 0.2944245934486389 -0.09356808662414551 -0.2015828639268875 0.057059429585933685 0.0054886662401258945 -0.35837849974632263 0.06835073232650757 0.2965526580810547 0.2794458270072937 -0.033375632017850876 -0.24357162415981293 0.36248308420181274 -0.5384917855262756 0.20911599695682526 0.33841389417648315 0.15370428562164307 0.09880805760622025 -0.4612310230731964 -0.19676710665225983 0.04513758048415184 -0.012547454796731472 0.6269381642341614 0.32817545533180237 -0.33277004957199097 0.06497933715581894 0.09345743805170059 0.25219103693962097 -0.1832795888185501 0.0883466973900795 0.1596187949180603 0.33381637930870056 -0.08272109925746918 -0.29314836859703064 0.0071744187735021114 -0.08361680060625076 -0.14429309964179993 -0.143869549036026 0.419667512178421 0.2639164626598358 -0.43859386444091797 -0.17912772297859192 -0.18063123524188995 -0.030986784026026726 0.24411386251449585 -0.26610445976257324 0.039981067180633545 -0.07846850901842117 0.12199105322360992 -0.20599409937858582 -0.2687833607196808 -0.024165181443095207 0.13538023829460144 0.29718270897865295 -0.00666323397308588 0.011687529273331165 -0.4350368082523346 -0.0737975612282753 0.058805011212825775 0.12256209552288055 0.36710667610168457 -0.021503007039427757 -0.05051880702376366 0.15453481674194336 -0.045488372445106506 -0.07191173732280731 0.21537239849567413 -0.12531383335590363 0.0672234445810318 0.3072660267353058 0.4471070468425751 -0.04528357461094856 -0.33957040309906006 0.23672470450401306 0.3719308078289032 -0.023658134043216705 -0.1543184071779251 -0.27785155177116394 0.11052616685628891 0.011374433524906635 0.16077493131160736 -0.21005749702453613 -0.22922557592391968 -0.030369380488991737 -0.5891090035438538 0.31224820017814636 0.10725069791078568 -0.2309112846851349 0.25075921416282654 -0.9016285538673401 0.05541553348302841 -0.01723730005323887 0.38019731640815735 0.12370620667934418 0.38129723072052 0.3905341327190399 -0.5166358947753906 0.08175583183765411 -0.06108123064041138 -0.16443918645381927 -0.48477524518966675 -0.2762358486652374 0.20621204376220703 0.08024385571479797 -0.612820565700531 -0.10401836037635803 0.26430827379226685 -0.18561840057373047 -0.38336658477783203 -0.47043952345848083 0.2795550525188446 0.41572803258895874 -0.6455082893371582 0.017532000318169594 0.11624764651060104 -0.25342637300491333 0.24333350360393524 0.5029191374778748 -0.17381422221660614 0.10287374258041382 -0.2062668651342392 0.290463387966156 0.3277038037776947 0.10993757098913193 -0.44342589378356934 0.0521053820848465
10 0.4286234676837921 -0.11831482499837875 0.10817545652389526 0.32939836382865906 0.11788807809352875 0.2610514760017395 0.002309490228071809 -0.34095707535743713 0.12323080003261566 -0.28034666180610657 -0.26340702176094055 0.22310809791088104 -0.20316240191459656 -0.27944064140319824 0.01898174360394478 0.028470950201153755 0.2888191342353821 0.21695420145988464 -0.027337413281202316 0.17500050365924835 -0.5658682584762573 0.2632889747619629 0.27355054020881653 0.27773088216781616 0.06720540672540665 0.222304105758667 -0.013675575144588947 -0.03363392874598503 -0.3204367756843567 0.1117687076330185 -0.3268529176712036 -0.3093842566013336 -0.05738155171275139 0.17553670704364777 -0.09030061960220337 -0.13639862835407257 0.49667033553123474 -0.2038448452949524 0.4430884122848511 0.25880107283592224 -0.05188870429992676 0.10528801381587982 -0.42424604296684265 -0.09782788157463074 -0.16763879358768463 0.3608945906162262 0.1570085734128952 -0.10950195044279099 0.2628735601902008 -0.2119104266166687 0.36651089787483215 -0.37314164638519287 0.062468864023685455 0.15990404784679413 0.07875931262969971 0.05111594870686531 0.08804865181446075 -0.38474327325820923 0.01483580656349659 -0.07610082626342773 -0.41995367407798767 0.06076489016413689 -0.39902961254119873 -0.12232710421085358 0.14738121628761292 -0.41845446825027466 -0.07271797209978104 0.007057090289890766 0.1492195874452591 0.1984969824552536 -0.25563928484916687 0.3861633241176605 0.49084606766700745 0.21538232266902924 0.05625831335783005 0.23448583483695984 -0.1021835207939148 0.016506018117070198 -0.0820922777056694 0.4210210144519806 -0.02062610536813736 -0.23960064351558685 -0.0712105855345726 -0.14979033172130585 0.11060312390327454 0.04334116727113724 -0.32008013129234314 0.09633761644363403 0.10252363234758377 -0.03706256300210953 0.2776736915111542 -0.3322259485721588 0.08454278111457825 -0.2528955638408661 0.2940167784690857 0.23333582282066345 0.2062053680419922 0.5151047110557556 -0.5082958340644836 0.1029510423541069 0.40588870644569397 0.2189716398715973 0.14730338752269745 -0.49112507700920105 -0.14594367146492004 0.17790775001049042 0.18104764819145203 -0.10330554097890854 0.015719182789325714 0.1627899408340454 -0.3055586814880371 -0.0011059348471462727 0.47653287649154663 0.38450387120246887 0.03002876043319702 -0.10487844049930573 0.22185687720775604 0.19015201926231384 0.3458420932292938 0.11885063350200653 0.13525831699371338 -0.1405748724937439 -0.15628856420516968 -0.20326873660087585 -0.21048681437969208 0.04510362073779106 0.29781728982925415 -0.022949695587158203
4 0.23151801526546478 -0.10077796876430511 0.20677120983600616 0.37740206718444824 -0.0735006183385849 -0.07274965941905975 -0.31142306327819824 -0.0645972415804863 0.10220585018396378 0.14180439710617065 0.2140747755765915 0.2827571630477905 0.21737734973430634 -0.21311123669147491 0.39719250798225403 -0.4589972496032715 -0.062112998217344284 0.23570381104946136 0.18656468391418457 -0.056392256170511246 -0.40951108932495117 -0.1567082703113556 -0.05522581562399864 0.008744349703192711 0.31791046261787415 0.16144268214702606 0.041917163878679276 0.22829745709896088 0.1360233575105667 0.280480295419693 -0.09829936176538467 0.2469613254070282 -0.05155181512236595 0.14213450253009796 -0.2366837114095688 -0.2752628028392792 -0.03294648602604866 -0.17268258333206177 0.04990537092089653 -0.3497512638568878 0.22055871784687042 0.33695048093795776 -0.2689906358718872 -0.8095011711120605 0.027950013056397438 -0.5051754713058472 0.11897215992212296 -0.27660050988197327 0.03150486573576927 0.07399111986160278 0.025267986580729485 -0.3648346960544586 -0.13488654792308807 0.08141028881072998 0.15491706132888794 0.1601148247718811 0.03793923556804657 -0.550466001033783 -0.2586495280265808 -0.08400926738977432 0.10028521716594696 0.2870449721813202 -0.2894897162914276 0.0214796494692564 -0.23181229829788208 -0.07951265573501587 0.21891959011554718 -0.1290823519229889 0.24488748610019684 0.3832382559776306 0.000275998841971159 0.2927277684211731 0.20558609068393707 -0.5326785445213318 -0.30366429686546326 0.20075085759162903 0.26060405373573303 -0.0787133052945137 -0.4477229118347168 -0.2973575294017792 -0.1886778175830841 -0.19408664107322693 -0.1489054262638092 0.18273992836475372 -0.15167328715324402 0.19194412231445312 -0.713974118232727 -0.0031755452509969473 0.2712000608444214 -0.32097429037094116 0.2559278905391693 -0.4026997685432434 0.08394394814968109 -0.24708014726638794 -0.1411251276731491 0.08816783130168915 0.2731347680091858 0.6220200061798096 -0.31035855412483215 0.2265215963125229 0.12282060831785202 -0.1007135808467865 -0.26071712374687195 0.018563445657491684 0.014566793106496334 0.2922462821006775 -0.4776328504085541 0.05566124990582466 0.05888312682509422 -0.2043275535106659 -0.17355193197727203 -0.13509081304073334 -0.010308546014130116 0.09317658096551895 -0.5989833474159241 -0.4066155254840851 0.02799859270453453 0.2163444608449936 -0.0220236387103796 -0.05813902989029884 0.09556538611650467 -0.13163647055625916 -0.49268826842308044 0.014954297803342342 0.17330794036388397 0.26906269788742065 -0.35326775908470154 0.23713690042495728
14 0.09565439075231552 -0.034940533339977264 0.25503596663475037 0.340364933013916 -0.11575759202241898 -0.004856053274124861 -0.23855917155742645 0.04905902221798897 0.34059906005859375 0.36514753103256226 -0.11987721174955368 0.3992829918861389 0.22504189610481262 0.03572969511151314 0.5088659524917603 -0.5279828906059265 -0.24368685483932495 0.4386810064315796 0.009264715947210789 -0.06002659350633621 -0.3279762268066406 -0.23218432068824768 0.0818450078368187 -0.06276431679725647 0.18975511193275452 0.011625922285020351 0.2504312992095947 0.33081212639808655 -0.039616867899894714 0.06704678386449814 -0.3990440368652344 0.08242159336805344 -0.25544506311416626 0.14053796231746674 -0.4559393525123596 -0.2586353123188019 0.2024504691362381 -0.09962331503629684 -0.1095670610666275 -0.05076293647289276 0.3300172984600067 0.6407876014709473 -0.04304269701242447 -0.8768008947372437 0.01929299533367157 -0.4415532648563385 0.11679431051015854 -0.29485511779785156 0.09869430959224701 0.21683233976364136 0.0810050293803215 -0.6333220601081848 -0.6937453150749207 0.0655318945646286 0.20366308093070984 0.021834848448634148 -0.05381845682859421 -0.44072818756103516 0.10886894166469574 -0.2814651131629944 0.059666331857442856 0.43219321966171265 -0.48795855045318604 -0.27939602732658386 -0.17673659324645996 -0.10069366544485092 0.4727325737476349 0.08885131776332855 0.19107310473918915 0.8718236088752747 -0.1786530613899231 0.06643171608448029 0.005564763676375151 -0.3791191279888153 0.04028834030032158 -0.007080933544784784 0.463840126991272 -0.0962185338139534 -0.6235747933387756 -0.21035291254520416 -0.334831178188324 -0.308514267206192 -0.2851197421550751 0.20748794078826904 -0.009544231928884983 0.22783604264259338 -0.4778551161289215 -0.2954357862472534 0.22258687019348145 -0.41202032566070557 0.29554620385169983 -0.2889725863933563 0.13548222184181213 0.026708131656050682 -0.2765052020549774 0.25828734040260315 0.18482083082199097 0.7872138023376465 -0.4095015525817871 0.422301322221756 0.09805822372436523 0.11716560274362564 -0.20287729799747467 0.17893317341804504 -0.3782123625278473 0.5358130931854248 -0.5322936177253723 -0.1559654176235199 0.027249839156866074 -0.17287850379943848 -0.016411950811743736 0.014135384932160378 0.06739736348390579 -0.09630657732486725 -0.468356728553772 -0.5018696784973145 -0.29303935170173645 0.1183759942650795 0.29023316502571106 -0.15773864090442657 0.22057069838047028 -0.060796525329351425 -0.6237359642982483 0.22689731419086456 -0.03746366500854492 0.10565735399723053 -0.2632540166378021 0.09171940386295319
19 0.05746423825621605 0.26885464787483215 0.16546735167503357 0.09691381454467773 -0.1440286785364151 0.33446812629699707 0.04319712147116661 0.004075733479112387 -0.029958773404359818 -0.1177556961774826 0.3580032289028168 0.33960288763046265 0.33882221579551697 -0.3194804787635803 -0.24764427542686462 -0.061098404228687286 -0.012128169648349285 0.26931896805763245 0.02924572490155697 0.010988407768309116 -0.32089540362358093 -0.2874816060066223 0.13378988206386566 0.2263375222682953 -0.039433758705854416 0.4659019410610199 -0.26927706599235535 0.08858484774827957 0.02300254814326763 0.09447675943374634 -0.40391942858695984 -0.2649906873703003 -0.12634840607643127 0.009534303098917007 -0.09081641584634781 -0.4095613956451416 -0.11441107094287872 -0.1673201322555542 0.3395093083381653 0.050510916858911514 0.08618220686912537 0.2758009731769562 -0.28934067487716675 0.020858189091086388 -0.19834457337856293 0.19008833169937134 0.17562609910964966 -0.07587844878435135 0.08695628494024277 -0.15071864426136017 -0.10119853913784027 0.1880183070898056 -0.18227699398994446 0.2502978444099426 0.13334499299526215 -0.02717793732881546 -0.10359061509370804 -0.12354911863803864 -0.028189729899168015 0.15173451602458954 -0.08862946927547455 -0.21295061707496643 0.07979395985603333 -0.27776774764060974 0.08369036018848419 -0.42357778549194336 0.26322221755981445 -0.13921207189559937 -0.05939769744873047 0.3593597710132599 -0.3308006823062897 -0.09429416060447693 0.47968295216560364 -0.24422328174114227 -0.000889892631676048 0.16648106276988983 0.23822318017482758 -0.04320830479264259 -0.4700324833393097 0.27250292897224426 -0.10677855461835861 -0.24178551137447357 0.29384350776672363 -0.2797520160675049 0.11912428587675095 0.07783142477273941 0.04618579149246216 0.37783628702163696 -0.030906658619642258 -0.10866480320692062 0.09032198786735535 -0.5877505540847778 0.18390239775180817 -0.2539609670639038 0.11533815413713455 0.30745431780815125 0.07911025732755661 0.7499130368232727 -0.04620646312832832 0.03988379240036011 0.2165122926235199 0.03436856344342232 0.11516579985618591 -0.12673741579055786 -0.19205115735530853 0.42079249024391174 -0.21960850059986115 0.1953626126050949 -0.40582066774368286 0.24120427668094635 -0.11589835584163666 -0.48761704564094543 0.34878164529800415 -0.07456352561712265 0.11752757430076599 -0.09248936176300049 0.03787265345454216 0.155680313706398 0.33944636583328247 0.2559647262096405 0.2400943785905838 -0.17223049700260162 0.2796132564544678 -0.00037377889384515584 -0.15790049731731415 0.1664457619190216 -0.1557275503873825 -0.17173728346824646
13 0.07537996023893356 0.06211380288004875 0.0375308059155941 0.0868614986538887 -0.09782636165618896 0.37234771251678467 -0.07110244035720825 -0.3665080964565277 -0.07599174231290817 -0.2609921991825104 -0.13209708034992218 0.15809331834316254 -0.0014150907518342137 -0.3388534486293793 -0.021845923736691475 0.08758065849542618 0.14716662466526031 0.24990345537662506 -0.08422930538654327 0.11393474787473679 -0.3295246958732605 0.03238790109753609 0.02646210417151451 0.20400799810886383 -0.19199791550636292 0.37258249521255493 -0.13643231987953186 0.013334891758859158 -0.296344131231308 -0.004578358959406614 -0.4877360761165619 -0.14544612169265747 -0.03436330705881119 0.23665523529052734 -0.1284538358449936 -0.17018936574459076 0.3113427460193634 -0.05727222561836243 0.32282790541648865 0.18845947086811066 -0.07736381888389587 0.14510183036327362 -0.3031708598136902 0.16062836349010468 -0.21496935188770294 0.20274600386619568 0.09156062453985214 -0.059066981077194214 0.20635250210762024 -0.4535694122314453 0.03836613520979881 0.10138044506311417 -0.1316239833831787 0.14695098996162415 0.08564689755439758 0.08998297899961472 0.19877466559410095 -0.19327698647975922 -0.014935974031686783 -0.06289072334766388 -0.17295877635478973 -0.31524091958999634 -0.2829875648021698 -0.14366866648197174 0.10759783536195755 -0.39818915724754333 0.05922222137451172 0.010343218222260475 -0.07437000423669815 0.21576714515686035 -0.40167948603630066 0.020040536299347878 0.4471287429332733 0.12322968244552612 0.06005650386214256 0.28033193945884705 0.04285094141960144 0.138935387134552 -0.08979383111000061 0.23848947882652283 0.057277414947748184 -0.29030662775039673 0.13303647935390472 -0.30924874544143677 0.09380163252353668 0.0018204757943749428 -0.16614992916584015 0.1643262505531311 0.2826361656188965 -0.06015951186418533 0.14237511157989502 -0.6793215274810791 0.06285528838634491 -0.2691078782081604 0.32954859733581543 0.17331883311271667 0.0734933465719223 0.7411338090896606 -0.15099157392978668 -0.01847665011882782 0.38238897919654846 0.28898075222969055 0.021646693348884583 -0.20156165957450867 -0.2138885259628296 0.4245435297489166 -0.16024503111839294 0.0340627059340477 -0.1466439962387085 0.3263145983219147 -0.03860405460000038 -0.4750295877456665 0.3615034818649292 0.21312479674816132 0.08487722277641296 0.13488641381263733 0.19901007413864136 0.366893470287323 0.44361385703086853 0.4030395746231079 0.15450280904769897 -0.15960687398910522 0.13079823553562164 0.023853078484535217 -0.3996448814868927 0.07352709770202637 0.10793057829141617 0.034326065331697464
5 -0.10020332783460617 0.7519437670707703 -0.0952875018119812 -0.10604434460401535 -0.4129449427127838 -0.19015537202358246 0.3603036403656006 0.12732429802417755 0.15552546083927155 0.11779575794935226 0.20089522004127502 0.4113413691520691 0.08907213807106018 0.5046907663345337 0.0054256427101790905 -0.060889579355716705 0.019960228353738785 0.16049697995185852 -0.21128903329372406 0.274875670671463 -0.25698330998420715 -0.07165910303592682 0.309045672416687 -0.018287738785147667 0.3512130379676819 -0.23349186778068542 0.18952833116054535 0.23226425051689148 -0.06233477219939232 -0.382448673248291 -0.38522082567214966 -0.293342649936676 -0.11556047201156616 0.26949208974838257 -0.3288339674472809 -0.11820364743471146 0.47600746154785156 -0.09592846035957336 -0.356754332780838 0.3135221600532532 0.4405989348888397 0.4870457649230957 -0.4129495322704315 0.06308012455701828 0.2713749408721924 0.12744539976119995 -0.09263096004724503 -0.3220962584018707 0.18600645661354065 0.4556894302368164 0.08782162517309189 -0.5044249892234802 -0.6114749908447266 0.20806583762168884 -0.1805950552225113 0.163076251745224 -0.29129794239997864 0.1682712733745575 0.13184437155723572 -0.32830190658569336 0.15639662742614746 0.12379024177789688 0.007672874256968498 -0.18129411339759827 0.13185159862041473 -0.1229095607995987 0.1601741462945938 -0.16903811693191528 0.3794059157371521 0.3105944097042084 -0.13676288723945618 0.15726949274539948 0.1316431611776352 -0.11379627138376236 0.09646468609571457 -0.10235808044672012 0.3977587819099426 0.16302721202373505 -0.4044228196144104 -0.3164844214916229 0.011167681775987148 -0.5594956874847412 -0.08001881092786789 -0.07651473581790924 0.03853068873286247 0.06230912730097771 0.03196762874722481 0.2286069095134735 0.07955393195152283 -0.16106456518173218 -0.09355174750089645 -0.3624531030654907 0.1177448257803917 0.45390063524246216 -0.0643439069390297 0.1368478536605835 -0.04305022209882736 0.37639734148979187 -0.5383235812187195 0.5143871307373047 -0.0579543299973011 -0.05348627269268036 -0.1913377046585083 -0.22219188511371613 -0.5628524422645569 0.35259491205215454 -0.40326741337776184 -0.5651736855506897 0.05101123824715614 -0.3243332803249359 -0.26460000872612 0.26766258478164673 0.17374999821186066 0.3118842542171478 -0.3249300420284271 -0.032810237258672714 -0.47493696212768555 -0.13988372683525085 0.8129843473434448 -0.03878254443407059 -0.07593951374292374 0.21810106933116913 -0.2772161364555359 0.22257085144519806 0.017434732988476753 -0.02243867516517639 0.24444790184497833 -0.1757887303829193
15 0.08768268674612045 0.27094998955726624 0.1977095603942871 0.0414184145629406 -0.1024172306060791 0.24603888392448425 0.09944161772727966 0.11766353249549866 0.04556398093700409 -0.05458024889230728 0.43220025300979614 0.1733076125383377 0.2960675060749054 -0.10960019379854202 -0.2642177641391754 -0.0526396781206131 -0.07291847467422485 0.21107283234596252 0.11636235564947128 -0.0111798495054245 -0.18996074795722961 -0.2597598433494568 0.12521344423294067 0.14191536605358124 -0.035163458436727524 0.429718941450119 -0.1456289291381836 0.06923313438892365 0.15763041377067566 -0.007828978821635246 -0.3675415515899658 -0.1892918348312378 -0.06482085585594177 -0.07027357816696167 -0.12532120943069458 -0.36725977063179016 -0.18091335892677307 -0.2207324057817459 0.19968575239181519 0.004730124957859516 0.14541064202785492 0.18918831646442413 -0.18475501239299774 0.060545310378074646 -0.16522012650966644 0.19950248301029205 0.06308286637067795 -0.08176902681589127 0.08530261367559433 -0.03338921442627907 -0.13290449976921082 0.20978564023971558 -0.10776833444833755 0.2787695825099945 0.19054745137691498 -0.011906231753528118 -0.15036767721176147 -0.12215259671211243 -0.013310234993696213 0.15285630524158478 -0.03997082635760307 -0.20199650526046753 0.09117118269205093 -0.29007527232170105 0.022799629718065262 -0.30626440048217773 0.21864283084869385 -0.10846409201622009 -0.03210176154971123 0.28302356600761414 -0.276397168636322 -0.11338313668966293 0.31627193093299866 -0.2568022310733795 -0.03080007992684841 0.10055255889892578 0.3049890697002411 -7.034186273813248e-05 -0.3744790852069855 0.27239176630973816 -0.07575877755880356 -0.1574968844652176 0.3028569519519806 -0.32911810278892517 0.13325783610343933 0.09787514060735703 0.0946185290813446 0.390066921710968 -0.04065503180027008 -0.04718051478266716 0.008311724290251732 -0.5061917304992676 0.16967123746871948 -0.17604263126850128 0.004450173582881689 0.26970210671424866 0.06430235505104065 0.6924406886100769 -0.08257250487804413 0.07767879217863083 0.16270482540130615 -0.05251321941614151 0.15347979962825775 -0.11972755938768387 -0.17233337461948395 0.4741823375225067 -0.21532922983169556 0.1762084662914276 -0.35377049446105957 0.2112129181623459 -0.1305648535490036 -0.49030494689941406 0.32236677408218384 -0.13729850947856903 0.04182039573788643 0.022923141717910767 -0.011375335045158863 0.1393137127161026 0.19149020314216614 0.15111427009105682 0.26952359080314636 -0.12107215076684952 0.21725837886333466 -0.04240625724196434 -0.23118771612644196 0.08499893546104431 -0.16096800565719604 -0.20343077182769775
31 0.3186447322368622 0.12257663905620575 -0.06960605829954147 0.20604079961776733 -0.0371541790664196 -0.23328666388988495 0.13790622353553772 0.18338654935359955 0.45528852939605713 0.2693803608417511 0.31455111503601074 0.08879327028989792 0.5358513593673706 -0.314101904630661 0.07624591886997223 -0.2775978446006775 0.027681507170200348 0.0731659084558487 0.02998276799917221 -0.04193514958024025 -0.4716014564037323 -0.3908981382846832 0.037461526691913605 -0.09351209551095963 0.13472743332386017 -0.09349137544631958 -0.2066287398338318 0.3838432729244232 -0.03634117171168327 0.06730321049690247 -0.1770322173833847 -0.1078307181596756 -0.22536973655223846 0.2011266052722931 -0.3803659975528717 -0.13480502367019653 0.38059529662132263 -0.45510873198509216 -0.4326847493648529 -0.16854561865329742 0.15927498042583466 0.1610347181558609 -0.23838602006435394 -0.36298635601997375 -0.08741708099842072 -0.16105571389198303 0.1740364283323288 0.28270232677459717 0.033571381121873856 0.43524038791656494 0.02071000635623932 -0.07431789487600327 -0.23543067276477814 0.2083822786808014 0.13846924901008606 0.10269944369792938 -0.29945501685142517 -0.28869351744651794 0.1376553773880005 -0.24488072097301483 -0.11136426776647568 0.11762076616287231 -0.5918750762939453 -0.11209968477487564 -0.03156881779432297 -0.0996205061674118 0.34249818325042725 -0.37850630283355713 0.3387925326824188 0.31525248289108276 -0.315463662147522 0.09534579515457153 0.212374746799469 -0.4359785318374634 0.013018323108553886 -0.02785327099263668 0.39361315965652466 -0.21397121250629425 -0.07949738204479218 -0.1605217307806015 -0.4666983485221863 -0.26931503415107727 -0.19424758851528168 0.15090681612491608 -0.02537926845252514 -0.05196394771337509 -0.22593972086906433 0.02280416153371334 0.06962750852108002 -0.3462430238723755 0.05766082555055618 -0.5041411519050598 -0.29778197407722473 0.18276003003120422 -0.18659336864948273 0.28224602341651917 0.3899076282978058 0.5168317556381226 -0.22717519104480743 0.3663507401943207 0.19307644665241241 -0.09361245483160019 -0.12769180536270142 -0.20284444093704224 -0.4116915762424469 0.3477455675601959 -0.16320784389972687 -0.22793662548065186 -0.14806273579597473 -0.33116456866264343 -0.2873353064060211 0.36922797560691833 0.09992187470197678 0.030318517237901688 -0.3419788181781769 -0.5362431406974792 -0.44597092270851135 0.2068404108285904 0.5028170347213745 0.152544766664505 -0.06540276855230331 -0.000755343702621758 -0.4422491490840912 0.3649750053882599 0.22708144783973694 0.08140350878238678 -0.1951437145471573 -0.14042483270168304
16 0.1372203230857849 0.37203213572502136 0.2126559615135193 0.16256235539913177 -0.17477045953273773 0.25941866636276245 0.04227285832166672 0.06154356151819229 -0.012826461344957352 -0.10239890217781067 0.4281546473503113 0.3731689453125 0.3554232120513916 -0.3190191984176636 -0.2592960000038147 -0.028671210631728172 -0.01421359833329916 0.27188530564308167 0.09743325412273407 -0.013541851192712784 -0.3571118712425232 -0.3389333486557007 0.207254096865654 0.25917160511016846 -0.00950383860617876 0.45353737473487854 -0.2829523980617523 0.06825798004865646 0.10064928978681564 0.08478274941444397 -0.36527779698371887 -0.26974308490753174 -0.10429705679416656 0.02484733611345291 -0.11235035955905914 -0.46539825201034546 -0.1513301432132721 -0.1918218433856964 0.36678600311279297 0.0625053122639656 0.08972938358783722 0.2662524878978729 -0.2809407711029053 0.03611655905842781 -0.18671636283397675 0.2235909402370453 0.21858137845993042 -0.10078379511833191 0.1029789000749588 -0.0983324944972992 -0.028489621356129646 0.17199116945266724 -0.1531042903661728 0.282120943069458 0.08472121506929398 -0.06133226305246353 -0.16368453204631805 -0.1208932027220726 -0.07303953170776367 0.14028185606002808 -0.05912929028272629 -0.1717991679906845 0.05926106125116348 -0.26435399055480957 0.004406126216053963 -0.38395702838897705 0.24527455866336823 -0.1374054104089737 -0.013944667764008045 0.42504894733428955 -0.303665429353714 -0.08557821810245514 0.546674907207489 -0.312479704618454 -0.011653882451355457 0.16680093109607697 0.24032238125801086 -0.1387481838464737 -0.5056701898574829 0.25969529151916504 -0.13354557752609253 -0.2292696088552475 0.27723759412765503 -0.3106168210506439 0.11080523580312729 0.1188652291893959 0.03258984535932541 0.3755810558795929 -0.09500550478696823 -0.07762055844068527 0.09990998357534409 -0.5835796594619751 0.19004641473293304 -0.234038844704628 0.11053088307380676 0.29635149240493774 0.1199856847524643 0.753109872341156 -0.10921216011047363 0.05428576096892357 0.24334615468978882 0.03014693222939968 0.14567716419696808 -0.16114889085292816 -0.19517675042152405 0.439981073141098 -0.19382913410663605 0.22410351037979126 -0.46606913208961487 0.22738508880138397 -0.1432778686285019 -0.5286416411399841 0.3244265615940094 -0.10370709002017975 0.08761217445135117 -0.08944343775510788 0.0437421053647995 0.14224010705947876 0.37055930495262146 0.2164020985364914 0.2162109911441803 -0.20038451254367828 0.3134155869483948 -0.05920160189270973 -0.10683868825435638 0.14436163008213043 -0.1711452156305313 -0.16864611208438873
12 0.30929818749427795 0.0711633488535881 0.06184108927845955 0.22969426214694977 0.01407912839204073 0.2215874046087265 -0.05016644299030304 -0.24487128853797913 0.08656780421733856 -0.17300470173358917 -0.1932184100151062 0.08654339611530304 -0.06853241473436356 -0.2622511684894562 -0.05942844972014427 0.03960327059030533 0.12282916903495789 0.13693885505199432 0.06429847329854965 0.04562580958008766 -0.2850637137889862 0.0026772834826260805 0.1455647051334381 0.14433810114860535 -0.0675046369433403 0.1884215772151947 -0.1055874451994896 -0.01965799182653427 -0.21232007443904877 0.07499479502439499 -0.33561578392982483 -0.2346448451280594 -0.0945509597659111 0.1774410903453827 -0.10242912918329239 -0.15450486540794373 0.2654191553592682 -0.07475008070468903 0.3033498227596283 0.20190076529979706 -0.0461721234023571 0.1168995350599289 -0.1907678246498108 0.054106563329696655 -0.20281864702701569 0.28880393505096436 0.07211275398731232 -0.061006609350442886 0.1230107918381691 -0.12675805389881134 0.20017798244953156 -0.18633921444416046 -0.017541924491524696 0.1941531002521515 0.07337628304958344 -0.05399475246667862 0.06888557970523834 -0.14290578663349152 -0.004332144279032946 -0.09804965555667877 -0.23445191979408264 -0.0790099948644638 -0.2990902066230774 -0.1389988660812378 0.0727718323469162 -0.2591773569583893 -0.0757785439491272 -0.09108638018369675 -0.031016476452350616 0.19307635724544525 -0.22822728753089905 0.1358780711889267 0.3756173849105835 0.04865080118179321 0.09401248395442963 0.12545554339885712 -0.023660240694880486 -0.05401766672730446 -0.1393553614616394 0.19977709650993347 -0.02680915780365467 -0.17797107994556427 -0.0007916117901913822 -0.16021867096424103 0.11331021040678024 0.05432351306080818 -0.18221811950206757 0.12723052501678467 0.07064530998468399 0.051135655492544174 0.11716753989458084 -0.45462918281555176 0.05518432706594467 -0.1780407875776291 0.23322194814682007 0.07278845459222794 0.20003864169120789 0.5451394319534302 -0.2672964930534363 0.10324171185493469 0.29423466324806213 0.2355661690235138 0.03857700526714325 -0.42880770564079285 -0.2035367637872696 0.31435900926589966 0.04546407610177994 -0.02218553051352501 -0.10282202810049057 0.17099839448928833 -0.13458196818828583 -0.22463539242744446 0.2115144580602646 0.1267736703157425 -0.027341391891241074 -0.018648315221071243 0.15733613073825836 0.15383975207805634 0.2830936908721924 0.1316010057926178 0.15639765560626984 -0.2334887981414795 0.11096334457397461 -0.022386902943253517 -0.21861809492111206 -0.017095111310482025 0.1252836287021637 0.06510218977928162
27 0.43945419788360596 0.2662467062473297 0.036982666701078415 0.26149824261665344 -0.04358283802866936 0.20572832226753235 0.03833482414484024 -0.08182244747877121 0.2772124409675598 -0.13466569781303406 0.1343688815832138 0.187405526638031 0.033757586032152176 -0.2892109751701355 -0.2503102123737335 0.0651472806930542 -0.10831039398908615 -0.07015197724103928 0.18404777348041534 -0.2465689331293106 -0.28068459033966064 -0.28174644708633423 0.2239219844341278 0.0692012831568718 0.03639371320605278 0.2611556947231293 -0.22427701950073242 0.0008324981899932027 0.05843643844127655 0.1035981997847557 -0.3350761830806732 -0.2693970501422882 -0.12783709168434143 0.13630612194538116 -0.18089240789413452 -0.4299335181713104 0.007370185572654009 -0.20701581239700317 0.273011177778244 0.23168441653251648 -0.0797538086771965 0.2472340613603592 -0.10322952270507812 0.06341573596000671 -0.2199421375989914 0.35531601309776306 0.09034676104784012 -0.0692046657204628 0.1486010104417801 0.0951685830950737 0.16435962915420532 -0.21634933352470398 -0.012805053032934666 0.24883395433425903 -0.018799861893057823 -0.1710374802350998 -0.2312411516904831 -0.07595019787549973 -0.1677541881799698 -0.04394526407122612 -0.07891132682561874 0.008038769476115704 -0.20263396203517914 -0.25217366218566895 -0.0060121482238173485 -0.09121040254831314 -0.014713364653289318 -0.23511061072349548 0.013508052565157413 0.20205260813236237 -0.13277417421340942 -0.08430087566375732 0.4391137957572937 -0.22740678489208221 0.06711045652627945 0.015256622806191444 0.018956849351525307 -0.2513412833213806 -0.3575926125049591 0.22319476306438446 -0.15968690812587738 -0.1695818156003952 0.10094060003757477 -0.23687158524990082 0.19434235990047455 0.19620177149772644 -0.08429749310016632 0.2895519435405731 -0.12952031195163727 0.15980595350265503 0.03132174164056778 -0.35896289348602295 0.08491550385951996 -0.0947330892086029 0.13393136858940125 0.10963711142539978 0.2768341898918152 0.6810101270675659 -0.29564613103866577 0.2017059326171875 0.1735939085483551 0.2078753560781479 0.057059139013290405 -0.37467384338378906 -0.3801769018173218 0.32347095012664795 0.07521264255046844 -0.07019052654504776 -0.1946749985218048 0.27798140048980713 -0.09787003695964813 -0.26802635192871094 0.12761487066745758 -0.15922114253044128 -0.16378681361675262 -0.04781129211187363 0.11891081929206848 0.10524716973304749 0.2566242814064026 0.11540345102548599 0.12809987366199493 -0.35817575454711914 0.2477998584508896 0.03966899588704109 -0.24464869499206543 -0.10848047584295273 -0.1705711930990219 0.0634533166885376
36 -0.295254647731781 0.3749804198741913 -0.04405442997813225 0.0568334236741066 -0.36080554127693176 0.4504978358745575 -0.08637832850217819 -0.1489180624485016 -0.22110651433467865 0.3576912581920624 0.16090217232704163 0.5831089615821838 0.2616746723651886 0.3183661699295044 -0.13589327037334442 -0.1683892458677292 -0.3547442555427551 0.24392658472061157 -0.10839620977640152 -0.031744133681058884 -0.05468715354800224 -0.00014428101712837815 0.25275325775146484 -0.15891209244728088 0.28997403383255005 0.20449864864349365 0.3210332691669464 0.004547524731606245 0.19319285452365875 -0.07389269769191742 -0.1707887202501297 -0.09116485714912415 0.05477873235940933 0.30028969049453735 -0.3628365993499756 -0.24855312705039978 0.06532987952232361 -0.17660175263881683 -0.19228607416152954 0.01085776835680008 0.30804428458213806 0.45243850350379944 -0.3030233085155487 -0.265069842338562 0.34544384479522705 -0.10470643639564514 -0.44868722558021545 -0.5661524534225464 0.10827967524528503 0.29837924242019653 0.12285581231117249 -0.3640308380126953 -0.20997345447540283 0.42070272564888 -0.13764436542987823 0.1560581922531128 -0.014204001054167747 -0.29780250787734985 -0.1400046944618225 -0.21880605816841125 0.20921853184700012 0.2620835304260254 -0.037917692214250565 -0.10726264864206314 -0.09796454757452011 -0.2555980682373047 0.4751896858215332 -0.1777176707983017 0.4291847050189972 0.494813472032547 0.07108193635940552 0.8259434700012207 -0.09166771918535233 -0.39474326372146606 -0.017654400318861008 0.25467413663864136 0.10780831426382065 0.36059191823005676 -0.5630164742469788 -0.3091549277305603 0.03515004739165306 -0.6675868034362793 0.12673427164554596 -0.06705499440431595 -0.17473897337913513 0.24540257453918457 -0.3076372444629669 0.27609094977378845 0.5958014726638794 -0.036211803555488586 0.029178354889154434 -0.08256219327449799 -0.11584676802158356 -0.3451825678348541 -0.3645384609699249 -0.03746698424220085 -0.2077222317457199 0.4280550181865692 -0.06983494013547897 0.4913710355758667 0.3492673635482788 -0.18620674312114716 -0.08965073525905609 0.0865291953086853 -0.34449243545532227 0.5142723321914673 -0.4072800278663635 -0.2895956039428711 0.30818459391593933 -0.0807737335562706 -0.3635155260562897 0.11085715889930725 0.15908344089984894 0.19117406010627747 -0.5058009624481201 -0.3269492983818054 -0.08320290595293045 0.15953537821769714 0.15000522136688232 -0.10823816061019897 0.27190446853637695 0.021237755194306374 -0.33726951479911804 0.18725940585136414 0.004962459206581116 0.28101834654808044 0.08054777979850769 -0.3100985586643219
42 0.09919274598360062 0.47106853127479553 0.4821300208568573 0.15944179892539978 -0.5029234290122986 -0.31213468313217163 -0.10670987516641617 -0.44706007838249207 0.06433308869600296 -0.1869298815727234 -0.1737743467092514 0.6753553748130798 0.24163395166397095 -0.38867294788360596 0.18898159265518188 0.23352843523025513 -0.09128134697675705 0.3455836772918701 0.40504729747772217 0.017743296921253204 -0.1787438690662384 -0.1311219036579132 -0.09342584758996964 0.6086440682411194 -0.12148341536521912 -0.0025665161665529013 0.2225622832775116 -0.07973070442676544 -0.17311948537826538 -0.3244516849517822 -0.4898133873939514 0.37207701802253723 0.5433615446090698 0.17347079515457153 -0.6459460258483887 0.22557982802391052 0.3375873863697052 0.03566941246390343 0.0028629908338189125 0.11886881291866302 0.3001481592655182 0.474852979183197 -0.31183016300201416 -0.06779919564723969 0.40285301208496094 0.15100562572479248 -0.30041781067848206 -0.4151313006877899 0.0337381511926651 -0.04575140401721001 -0.2522425353527069 -0.39724695682525635 -0.35257941484451294 0.7956326007843018 -0.07306711375713348 -0.19674254953861237 -0.26532045006752014 0.06275193393230438 -0.06385517865419388 -0.38015055656433105 0.29760682582855225 -0.007249867543578148 -0.3262717127799988 0.1091870665550232 -0.2818906605243683 0.043328382074832916 -0.19815756380558014 -0.1217961385846138 0.06520036607980728 0.0587921217083931 -0.19071710109710693 0.20593826472759247 0.15780392289161682 -0.60439133644104 -0.5114356279373169 -0.01801443286240101 0.07786892354488373 0.25029465556144714 -0.7198367714881897 0.017207860946655273 0.003172178054228425 -0.28056731820106506 -0.21431489288806915 -0.13294757902622223 0.03447023406624794 0.4241202175617218 -0.24163921177387238 -0.10899382829666138 0.787481963634491 0.019909296184778214 0.46637779474258423 -0.5091245174407959 0.17614908516407013 0.34406888484954834 0.6316078901290894 0.04657457023859024 0.5057379603385925 0.5298569202423096 -0.6217775344848633 -0.04118376597762108 -0.05315275862812996 -0.21159382164478302 0.03768611326813698 -0.581318199634552 0.00197093584574759 0.6872509121894836 -0.14085759222507477 -0.01607002131640911 -0.4086894392967224 -0.02555636130273342 0.2609711289405823 -0.1340683102607727 0.42615869641304016 0.6702579855918884 -0.16388927400112152 -0.4072689414024353 -0.18434381484985352 0.7126845121383667 0.6602888703346252 0.6799179315567017 0.3712322413921356 0.0740153044462204 -0.3060431480407715 0.231440469622612 -0.3683777153491974 -0.10178384184837341 -0.2880707085132599 0.42824727296829224
46 0.1406969577074051 0.2611631751060486 0.2116965502500534 0.14778047800064087 -0.13169924914836884 0.2514490485191345 0.0806904286146164 0.03596930578351021 0.020209405571222305 -0.15701422095298767 0.35982996225357056 0.3507683575153351 0.29257887601852417 -0.25849005579948425 -0.22405703365802765 0.003903643460944295 -0.008937379345297813 0.24985364079475403 0.09417528659105301 0.03784266859292984 -0.339320570230484 -0.2513827979564667 0.19313420355319977 0.3010998070240021 -0.06087595224380493 0.44624125957489014 -0.20318768918514252 0.07167209684848785 0.0962262973189354 0.022394942119717598 -0.3629280924797058 -0.2583622336387634 -0.039931025356054306 0.0017230459488928318 -0.12101034075021744 -0.4205321669578552 -0.11870485544204712 -0.21038669347763062 0.35756540298461914 0.05054381489753723 0.05822908878326416 0.23200830817222595 -0.2412215918302536 0.02521110698580742 -0.16682763397693634 0.23332007229328156 0.1845627874135971 -0.09387796372175217 0.13820278644561768 -0.13928718864917755 -0.036511801183223724 0.18970270454883575 -0.10265888273715973 0.26619812846183777 0.09707506746053696 -0.0155501002445817 -0.11041878908872604 -0.16834205389022827 -0.049579452723264694 0.1177436038851738 -0.08511843532323837 -0.18300595879554749 0.03993229568004608 -0.2506434917449951 -0.003773776115849614 -0.34579306840896606 0.22511173784732819 -0.06470906734466553 -0.013244090601801872 0.35700100660324097 -0.2955918610095978 -0.07823936641216278 0.47217538952827454 -0.2213929146528244 -0.018736379221081734 0.16336464881896973 0.2130633145570755 -0.07662922143936157 -0.3984728753566742 0.3094581365585327 -0.10405681282281876 -0.18034501373767853 0.2663452923297882 -0.3304748833179474 0.12302415817975998 0.09788937121629715 0.05332496389746666 0.3407149910926819 -0.04935147985816002 -0.05613003298640251 0.1123170256614685 -0.5034122467041016 0.1960015743970871 -0.1912021040916443 0.10148677974939346 0.32101723551750183 0.09341990202665329 0.7080393433570862 -0.126310795545578 0.005179603584110737 0.24617932736873627 0.05430588126182556 0.17590852081775665 -0.10551232844591141 -0.1586475819349289 0.40158241987228394 -0.14153459668159485 0.19337326288223267 -0.3956596553325653 0.23502767086029053 -0.1119295060634613 -0.5193936824798584 0.345182865858078 -0.0683504119515419 0.12677781283855438 0.009296855889260769 0.058145180344581604 0.1476636379957199 0.3133576214313507 0.20430578291416168 0.21898989379405975 -0.14743642508983612 0.24569465219974518 -0.12330975383520126 -0.18557174503803253 0.11355980485677719 -0.10165461897850037 -0.18542802333831787
37 0.18372850120067596 0.43513375520706177 0.08365704119205475 0.14528505504131317 -0.40284526348114014 -0.41809043288230896 -0.0022282295394688845 -0.42726248502731323 0.5036008358001709 -0.0882125124335289 -0.1751473844051361 0.4668872654438019 0.2608863413333893 -0.18546919524669647 -0.007563630118966103 0.11611877381801605 -0.2884218990802765 0.40967580676078796 0.33467230200767517 0.02699626050889492 0.028828352689743042 -0.09132952988147736 -0.4515841007232666 0.28422287106513977 0.03776181861758232 -0.17502611875534058 0.05950799584388733 -0.06711116433143616 0.023849206045269966 -0.1865048110485077 -0.29115134477615356 0.3846761882305145 0.4948115348815918 0.07595634460449219 -0.5713741779327393 0.14497780799865723 0.30504554510116577 0.3054201006889343 -0.33257657289505005 0.1344253420829773 0.30170029401779175 0.6722586154937744 -0.2144685834646225 -0.19667458534240723 0.23216389119625092 0.039512135088443756 -0.08598218858242035 -0.12507204711437225 -0.2651810646057129 -0.020416589453816414 -0.18752996623516083 -0.17140774428844452 -0.45558789372444153 0.36189210414886475 0.17234797775745392 0.005064557772129774 -0.21875189244747162 -0.186660036444664 -0.0904543325304985 -0.05392972007393837 0.12037944048643112 -0.15063804388046265 -0.23876705765724182 0.05845901742577553 -0.2274055927991867 0.0020961116533726454 -0.1517241895198822 -0.04805019125342369 0.07875363528728485 -0.011166292242705822 -0.3848657011985779 0.253623902797699 0.24793481826782227 -0.4678161144256592 -0.5408860445022583 -0.1195555031299591 0.2261863797903061 0.08926745504140854 -0.4717714190483093 0.01347828283905983 -0.2833626866340637 -0.35197189450263977 -0.09045364707708359 -0.01008946169167757 -0.11682991683483124 0.4453010559082031 -0.04405190423130989 -0.10983630269765854 0.64028000831604 -0.14824050664901733 0.5795489549636841 -0.37046244740486145 0.13199752569198608 0.5910535454750061 0.5877649784088135 -0.05856586620211601 0.4270325005054474 0.6969643235206604 -0.22914987802505493 0.06354394555091858 0.0975155308842659 0.11455445736646652 -0.12840774655342102 -0.28082603216171265 0.05639065429568291 0.8012711405754089 -0.09778889268636703 -0.01012684777379036 -0.35404685139656067 -0.053892336785793304 0.04174753651022911 -0.27962690591812134 0.39694327116012573 0.3651712238788605 -0.12346625328063965 -0.21555112302303314 -0.2979520857334137 0.674216628074646 0.471486896276474 0.5906156301498413 0.5895057916641235 0.19255892932415009 -0.192376971244812 0.5281145572662354 -0.5755937099456787 0.04821772873401642 -0.04843880236148834 0.37746191024780273
