34 128
24 0.0028139828 -0.0038434083 0.0033861732 0.0031579137 -0.0034713852 0.0035774887 -0.0024789905 0.0018500219 -0.0036924584 0.00074440485 0.001085235 0.0009620224 0.00013736606 -0.0011308724 0.001291377 -0.0023782358 -0.002179321 0.0017748657 -0.00083020976 8.1982434e-05 -0.0022160371 9.262468e-05 -0.0009939777 0.002307202 0.00044909585 0.0020110009 -0.0029044584 -0.002552677 0.0020671848 0.0012277148 -0.0035957978 0.0033464166 -0.0027166074 8.046556e-05 0.0025601722 0.000778174 0.0020664346 0.003222182 -0.002897898 -0.0016368685 -0.0036226688 0.002915298 -0.0020407508 1.3581917e-05 -0.0017237328 -0.0019140705 -0.002093719 -0.0011797564 -0.0032109423 0.002416516 -0.0005784965 0.0034867127 0.0021615117 0.0006174631 0.0019146997 0.001362466 -0.0020411143 0.0027780002 -0.0005049765 -0.0021713234 -0.0017983492 -0.00042049022 0.000880219 -0.0019808686 -0.002181177 -0.0025769162 0.0017479603 -0.0036869 -0.0015962993 0.00023672829 -0.0023648844 0.0013187862 -0.0034685705 -0.00046416864 0.0020577768 -0.0035972714 0.0036697942 0.0012752981 -0.0021085723 0.0024760559 0.00026668073 -0.0013034636 -0.00043208414 0.0035431157 -0.0008723564 0.00043778255 0.003180743 0.0022835312 -0.0025448534 0.003614703 0.001399138 0.0024743236 0.003610405 0.0016519737 -0.0036688978 -0.0023336608 -0.000930129 0.002542532 -0.0016583784 0.0010829023 -0.0029147617 -0.0029044691 -0.00036365946 0.002075859 -1.3569867e-05 0.002596506 0.0020390565 0.0022750348 0.0035930981 -0.00051451725 -0.0035149942 -0.0021346586 -0.00036711447 -0.0024270902 0.0020951924 0.0017041175 -0.0037161307 -0.003427774 -2.046062e-05 0.0029775375 0.0020432828 0.00052289857 0.001183053 -0.0030401582 -0.0031712523 -0.0015344078 0.0012533786 0.0031955594
30 0.00087935815 6.6067187e-06 0.00043215547 -0.0030802458 -0.0033920642 -0.0027982397 0.00053694 0.0021411253 0.0018447574 -0.0020061228 0.00021977523 0.00015074873 0.0031143252 0.0027406276 0.001815861 -0.00070068147 -0.0024869738 0.00096293073 -0.0018280124 0.0007130466 0.0029005082 0.0024846115 0.0029483708 -0.0021485554 0.003042427 0.0008706734 0.0015500674 -0.0017545108 -0.0034853306 -0.0013024226 -0.001488256 -0.0019076199 -0.0014800925 0.000769402 0.0028263833 0.002651775 -0.0018125238 0.0036368347 -0.002776411 -0.0022925076 0.0030762856 0.0026742283 0.0022572346 0.0035328837 0.0027528666 -0.0037094862 -0.0028192669 -0.0026508966 -0.0009435017 -0.0013281652 -0.0019088637 0.0018746736 0.0016892374 -0.0009764366 0.0029179787 0.0004562935 0.0022315567 -0.003348399 0.0005885086 0.0007658317 0.0029248525 -9.628133e-05 -0.0033470255 0.00044695276 -0.00028417143 0.0027333794 -0.0019046639 -0.0016112705 0.0026817892 0.00298016 0.003832733 0.002355909 0.000104963445 -0.0011779246 -0.0014739312 0.0018410663 0.00081986794 0.0036348351 0.0013381458 -0.000929082 -0.0006317145 0.0027274669 -0.0037141594 0.0010634249 0.00037224704 -0.0012964513 -0.0024038753 -0.00079762953 -0.0025745186 -0.002191003 -0.00011091104 0.0024555537 -0.00018684202 -0.0027084285 -0.0024209933 -0.0037595641 0.0031280478 0.0025398985 0.0017752834 -0.0038535756 0.002999265 0.0004611532 -0.0008123552 -0.002692951 -0.00053344126 0.0038337163 -0.0014884569 -0.0026929034 -0.0019648063 -0.0034492903 -0.00065288134 0.0003855016 0.003651341 -0.0016018334 0.00092945574 0.00082623406 0.0031996255 0.0008687878 0.0033489892 0.0032166466 0.0035667398 -0.0027373678 0.0018480733 -0.002685331 0.0036174762 0.00033316773 0.0005404616 -0.0018435781
1 0.00022318994 0.0005750153 -0.0031380795 0.0022092415 -0.0014479625 0.0024676044 0.0038563136 0.0014487907 0.0012968134 -0.0022899206 5.931e-05 -0.0034315682 0.002695265 0.001334128 -0.003563132 -0.0026250044 -0.0032174052 -0.0022394136 -0.0033859678 -0.0013348691 0.0011903358 0.0003788884 0.0017172223 -0.002373321 0.0012475714 -0.0036792378 3.2396383e-05 -0.0038946741 -0.003431234 -0.0032072256 -0.0027227816 -0.0029541417 0.0011241485 0.00047407084 0.0004860103 0.00057543867 0.002628675 -0.0039024511 0.0016900363 0.0015882684 -0.0017149616 -0.00082689675 0.0002597898 0.00064518314 -0.0017173125 -0.0036597988 0.0012598063 0.0025078063 0.0011190542 0.00048585632 -0.002852083 0.003461368 0.00039431555 -0.0023051437 -0.0036867112 0.0006021223 0.0009053922 0.0013966109 -0.00021314007 -0.0035624688 0.0018145762 -0.00032547067 -0.0006363269 -0.0035633782 -0.0038965053 0.00092123204 0.0034089682 -0.0035650479 -0.0037740984 -0.00042834564 0.0031593074 -0.0002492273 0.0029924822 0.0021893037 0.0016317642 -0.0033471612 -0.0031563165 0.0017710625 -0.00070875697 0.0030759252 -0.0017000092 0.0010001597 -0.00024110032 0.002058406 0.003333553 0.0018058136 0.0004610991 0.0025093108 -0.0016662129 -0.0027098067 -0.0010196824 -0.0007120037 0.0028764922 0.0023183837 -0.0023200316 -0.0038230387 -0.0035426437 0.0012730993 -0.00025589752 -0.0007095111 -2.7343878e-05 -0.002845526 -0.0027737385 0.002465996 0.00081228366 -0.00076105184 -0.0014368299 -0.003732995 0.0012885785 -0.0005096198 0.0011389074 0.0009157548 0.00014834295 -0.0029971532 -0.0019266126 0.0015380646 0.0002645819 0.0025762818 0.001109428 -0.0029324226 -0.0015947422 -0.002887269 0.0037369223 -0.001907685 -0.0006469234 -0.003993897 0.001473082 -0.0017660074
3 0.0007449294 -0.0011266858 0.0027756775 0.0029014663 -0.00016102681 0.0025619017 0.0030444285 -0.0014586495 -0.0017090604 -0.0025938929 0.0032782285 0.0001525152 0.0013968657 0.0008059118 -0.002605643 -0.0007491788 -0.00028082923 0.0009028484 0.0007023468 0.00027322577 0.0013624822 0.0015034429 -0.003350169 0.0035080828 0.0033056978 0.00280407 0.0025532583 0.0013887486 -0.002353974 0.002494494 -0.003190558 0.0012531955 0.0029661653 0.0011750977 -0.0018345915 -0.003363822 -0.0014275102 -0.0027531886 0.00269983 -0.00016762462 0.00012772532 -0.0022736278 -0.0032913347 -0.0008545791 -0.001744979 -0.0029263552 -0.0011659702 -0.0008218649 0.0008682164 0.0008290442 0.0011575746 -0.001820912 -0.00040983353 0.00083819544 -0.0007867609 0.0010784768 -0.0031170023 0.001224313 0.002438487 0.0037896116 0.0011385493 -0.0035027664 0.0010869977 -0.0035557179 -0.00088626123 -0.0013639822 -0.003004226 -0.0011129543 -0.0033830192 0.0016746818 0.0012702055 -0.0005145571 0.0006955221 0.001964305 -0.000955124 0.0037106103 0.0014268517 0.0029314687 0.000997632 0.0016872553 -0.0005481537 -0.0034735852 0.0033857035 -0.001612444 0.0031903393 -0.0027692546 -0.0023258033 -0.00145335 -0.0034696467 -0.0012214407 -0.0036212485 -0.0010097875 -0.001186165 -0.0014204556 0.001507491 -1.4123143e-05 0.0005084393 0.0020987052 0.0032561426 0.0010793053 0.0022144623 -0.0038656374 -0.0017042888 0.0036198117 0.00043849647 -0.0034323093 -0.00045158845 0.00053659594 -0.0023580422 0.003042203 -0.0015831598 0.0027247139 -0.0029305168 -0.002329971 0.0027276052 0.00026018333 0.003036869 -0.00022711151 -0.00067322026 0.0037913169 -0.0024648297 7.818561e-05 -0.003179306 0.0034868883 0.00024283849 0.0021735635 0.001050773 0.0028801493
2 -0.0032441856 0.0009258556 -0.00042522064 -0.0014413847 -0.0034684804 0.0032460091 0.0028609445 0.002829255 0.0030918028 0.00034844864 0.003706786 0.0014461383 0.00026769566 -0.0034406434 -0.003458209 -0.0026313136 0.0021411276 0.00074615655 -0.0020648916 0.0023746386 -0.003538065 -0.002658018 -0.001338051 0.000118817785 -0.0031276075 -0.0036534832 0.002804168 0.002326634 0.0020105173 0.0028198904 0.0020895817 0.0030580186 -0.0031268878 0.001686654 -0.00010444737 -0.0033602407 -0.0023658595 -0.0026103896 0.0029489368 -0.00036798674 -0.0018328022 0.0028508033 0.00035050957 0.0029087604 0.0017400599 -0.00078017707 -0.0013102491 -0.0017985936 -0.0019059988 -0.001036043 0.00083385786 -0.0019231593 0.00055375084 -0.0026515706 0.0009526288 -0.003106768 -0.00087691436 -0.0033055383 0.00096089166 -0.00023491181 -0.00279554 -0.00015305266 0.00049381744 -0.0030143438 -0.0008006683 -0.001914427 0.001269668 0.0038947426 -0.0026543909 0.002336734 -0.0014498703 -6.129907e-05 -0.0015454018 -3.2454667e-05 -0.0022598726 0.0037441296 -0.0037012547 -0.0026426327 0.0022003448 0.0038239963 -0.0027741708 -0.0016302761 0.0036839482 -0.0003847687 -0.002894568 0.003040355 -0.0034018173 -0.0019083444 0.0025806709 0.0005711867 0.002576276 -0.0030451824 0.0016868755 -0.0002790273 0.0029176066 -0.00094503444 -0.0014461642 0.0007156149 -0.001897259 0.0012496888 0.0013561782 0.0025948158 -0.0032486562 0.0018525145 -0.0009360375 0.0028811772 -0.0017869849 -0.0017642283 -0.0018229032 -0.00014042166 -0.00029127795 0.0014326676 -0.0037535864 -0.0029139477 -0.0016907997 -0.0011251135 0.001354038 0.0025116145 -0.0014260793 0.0015485246 0.0016508885 -0.00053033244 -0.0020535716 -0.0024577437 -0.0025306225 -0.003579471 -0.0028812934 0.0023077386
18 -0.0032345515 0.0018921881 -0.0028812913 0.0024314842 0.00032770436 0.0034191876 -0.0016809854 0.001564869 0.0013272916 0.00035409295 -0.0028266455 0.0014925343 -0.0010730766 0.00041870223 -0.0038116244 0.0031436505 -0.0006310684 -0.0010933708 0.0036868856 0.0015331499 -0.0010978603 -0.0034969419 -0.0031630143 -0.0019607283 0.0012512866 0.0014496457 0.0015735324 -0.0009694938 0.0018386478 -0.0024465409 0.0015265836 0.002733912 0.00066765636 0.0017019563 0.0010235399 1.7276108e-05 0.0029319383 -0.0014452452 0.0034696092 0.00066598563 0.00087909354 -0.0013507663 -0.001283241 -6.6198074e-05 0.000900281 -0.00014319025 -0.0011597291 -0.0010589709 0.00016554625 0.0032060766 -0.0010596034 0.0018462215 -0.003091753 -0.0034671582 -0.003293683 -0.0012531279 -0.000999856 0.00027862465 -0.002695856 0.0027857758 0.0036953571 -0.00058271276 0.003715231 -0.00039745326 -0.0032521768 0.0020588045 -0.0026553979 0.0023714611 -0.0026954538 0.001069883 0.0036969574 -0.0006393516 0.0029090792 0.0021218408 0.0036991767 0.00012570005 -0.00024106831 0.0022615294 -0.0021195584 0.002946197 0.0035864688 -0.0036782266 0.001507707 -0.0013708085 0.0023228903 0.00040173018 -0.0024544448 -0.0037887872 -0.0007403323 -0.002243499 0.0034644196 -0.0017188308 -5.594085e-05 0.0036451134 0.0009705378 0.0011454851 -0.00039191073 -0.0019093382 -0.0036160722 0.00025021864 -0.0008431575 0.0018879444 0.0008782265 0.0008429502 -0.0012614804 0.001974129 -0.0012939166 -0.0036194862 0.001300008 0.0038759494 -0.0025289115 0.0034391268 0.0031744626 -0.0031320786 0.00072301406 0.0026884747 0.001488145 -0.0020584858 0.0037194407 -0.0018512025 0.0024389152 0.0004050705 0.0014625742 0.0013132844 0.0025498339 0.0010706864 0.0016688714 -0.0010707168
9 0.0031732747 0.0008311189 -0.002261849 0.00039000844 0.0004134135 0.0032243966 0.0029100648 -0.00063128566 -0.0019685936 -0.0025777859 -0.0031649792 4.091437e-05 0.0015802861 -0.0031467655 0.0016669263 -0.0014841786 -0.0038130882 0.0036457332 0.0038989359 0.00016953975 5.1157294e-05 0.0013843374 -0.00033506588 0.0023052336 -0.002330115 -0.0025883904 0.00027732563 -0.0020912963 -0.0024467115 -0.0005369535 0.003529394 -0.0017791031 0.00048528428 0.0015476329 0.0021679336 0.00089495664 0.0005742425 -0.002514694 -0.001567748 -0.0019336292 0.0029120725 0.0007904573 -0.0026529853 -0.0032991946 -0.002016512 0.000859164 -0.0037239955 0.0005641572 0.00091876526 0.0029949213 0.0005504528 0.0006422399 0.00063226424 -0.0034891947 4.9993738e-05 -0.0021327927 -0.0006535509 0.0011314726 0.0029773356 -7.4593016e-05 0.0012503632 0.0027678227 0.0019625227 0.0011683459 -0.0010679013 -0.0016131222 0.0005985434 0.0029860234 0.00311373 0.00059195195 0.002649259 -0.0031531767 -0.002725999 0.0019378545 -0.0017591177 0.0022583941 -0.0011183227 -0.0006177478 -0.0012141264 0.0018065835 0.00012669351 0.00094559806 0.003776029 0.0035955017 0.0007715297 -0.0003799823 0.0026982266 0.0011958942 -0.0023899772 0.0030153159 -8.467944e-05 0.00057536655 0.0029719076 0.0021638728 0.0028973888 -0.0033252588 -0.0001539608 2.6611937e-05 -0.0017706726 0.00032151234 0.0018779769 -0.0015712782 0.0023745988 -0.0019618128 0.0021306504 0.0033341914 0.002191431 0.0024437585 -0.0014619658 0.0016460816 0.0009574298 -0.0021478098 0.0011261974 0.0017229096 -0.0034331027 0.0011765166 0.00017209316 0.002870433 -0.0034096956 -7.7629695e-05 0.0022907236 -7.608048e-05 -0.0031417524 -0.0015978183 -0.0023813255 0.0011749483 -0.0014179711 -0.001822628
34 0.0036745127 -0.0038177515 0.0010846248 0.0038840903 0.0026473457 -0.0002220648 0.0032142878 -0.0026476402 0.003763502 0.001221658 -0.0038668283 -0.0033498702 0.0005294943 0.0013186426 -0.0015371825 0.0039045673 -0.0034528605 -0.0028869477 -0.0036495181 -0.0028717583 0.0005586838 0.0020084584 -0.0009596575 -0.00044118907 0.0030941826 -0.0022886118 -0.0026445503 -0.003623346 0.002298638 0.00290472 0.00091683544 0.0010724955 0.0031527006 0.00091307564 0.0017930326 0.0020305184 -0.0007723281 0.001330808 0.00022926625 -0.0004044898 0.0026127165 0.0013644885 0.0022990154 -0.0003957947 0.0013830771 0.0015559146 0.0013414657 -0.0006142603 0.0013422689 -0.0010690127 -0.0037085947 -0.0006733101 -0.0032384787 -0.0020258909 -0.001610639 -0.0014007334 0.0038764125 0.0025193149 -0.0027737974 -0.0028177747 0.00033508905 -0.0017130001 0.0018291044 0.0030213401 -0.002310212 0.0015324785 -0.0012558076 0.003161075 0.0025538534 -0.002929721 0.0011947639 0.0017206597 -0.0028099646 -0.0028204941 0.0024402796 -0.0021262912 0.0030735633 -4.250955e-05 -0.0037224672 0.002626564 -0.000117277705 0.003016533 -0.0002590623 -7.711692e-05 0.0033001576 0.0036227298 -0.003130957 0.0012395992 0.002810905 -0.00066852674 0.0015795575 0.0010266845 0.00040774813 -0.0028923706 -0.000992617 -0.0025554637 0.002417241 -4.7695517e-05 -0.0009006108 -0.0035059361 -9.0823116e-05 -0.0021556537 -0.0019566978 -0.00034855734 -0.0021474522 0.00081630744 0.0012093451 0.0036669325 -0.003754402 -0.0033412888 -0.0027387147 -0.0007820675 -0.00048474918 -0.0008794213 -0.001661062 0.0035630206 -0.0032247452 -0.0019661216 -0.0010753571 -8.479613e-05 -0.003100988 -0.0027220952 -0.0026522742 -0.00054889487 0.002588911 -0.0021808725 -0.0013389029 -0.0019626927
8 -0.0020518703 -0.0018962179 0.00087281334 0.00060502026 -0.0028479425 0.00047866287 -0.0030253564 0.0037087316 0.00029741903 -0.0005442279 0.0035935 0.0001487572 -0.00076882076 -9.7363845e-05 0.001633004 -0.0014015797 -0.0008043511 0.002708357 0.0025096831 0.001783514 0.00020527419 0.0026353016 0.0012449645 0.0039053054 -0.0019095328 -0.0028491872 -0.0013367055 -0.00047447404 -0.00033497583 -0.0004262403 -0.0018455797 -0.00014198355 -0.0030138195 -0.00051554065 0.000860272 -0.0036468504 0.0007701446 0.0015491379 -0.0038928925 -0.0013762066 -0.0018637467 -0.0024522198 -0.00055612536 0.0029681346 -0.0023626655 7.487825e-05 0.0017076435 -0.0038453531 -0.0036468068 0.0022274198 0.0030375128 0.0031397294 -0.0013843846 -0.0017727424 0.002992837 0.0014763426 -0.00091149897 -0.0018174546 -0.0013280766 -0.0017818481 -0.0022517918 -0.0022487568 -0.0032277494 0.0016542249 -0.003879375 0.0012771552 -0.0018667787 -0.0035658823 -0.0017423881 -0.0028307962 0.001692527 -0.0014966521 0.0018937432 0.00015026005 0.0007592693 0.0026218854 0.0024925447 0.001542417 0.0031801134 -0.00089286995 -0.0033195245 -0.00251652 -0.0025223985 0.0029314382 0.0011264367 0.0019485356 -0.00034656658 0.00310684 4.9466482e-05 0.0014067448 0.00134785 0.002943211 0.0021599038 -0.003555983 -0.0037714806 -0.0005173283 0.00056838425 -0.0025506439 -0.00295591 -0.00033955724 0.003015173 -0.001587667 0.0022491713 -0.001407813 -0.0007699585 -0.0035431427 0.0024723725 -0.0024394537 -0.0036965103 -0.0003771996 0.0015677068 -0.0014892592 -0.001945665 0.0032223603 -0.0011593987 -0.0027241758 -0.00021451853 0.00064584956 0.0035552627 -0.00212664 0.00030412237 0.001534578 0.0005046333 -0.0012811841 0.0010222181 0.003218133 -0.00074116176 0.00069993694
25 -0.0028345888 -0.0025048843 -0.0027249274 0.0036159062 0.001490016 0.0026786404 -0.0024250543 -0.0022763282 -0.00089539855 -0.002687066 -0.0010666151 0.00090955413 0.003255693 0.00090981915 -0.0012365772 0.0008809594 0.00026648183 0.0024321931 -0.0029286111 -0.001936877 -0.0020005053 -8.4789666e-05 -0.0027745408 -0.00013978967 -0.0032730126 -0.0028415783 0.0033800823 0.0009826865 -0.0010403881 -0.002996119 -0.0015024088 0.00084342563 0.0028903184 0.002339162 -0.0025134832 0.0039164503 -0.0010117763 -6.8672474e-05 0.002505125 -0.0016707606 0.0032741027 0.0019111226 -0.0031415473 -0.0010542077 0.001987721 0.0012077176 0.003832566 -0.0006136386 0.003301613 0.001400339 -0.0009923173 0.0012595474 -0.002579793 -0.0028810294 -0.001778673 -0.0023127443 -0.002224368 0.00094107183 0.0032196387 -0.00017246384 -0.0026686857 0.00047200112 0.0018945952 0.003568844 -6.399009e-05 -0.0012542563 0.0002197616 -0.00079544546 -0.00058581145 7.667085e-05 -0.0028131844 0.0029842933 0.0030508235 0.0001536656 -0.0035710474 0.0006816455 0.0032878215 -0.0026355598 0.00328758 -0.0036000507 -0.0003592388 -0.0032196813 -0.00050614646 0.0020044094 0.0025238942 -0.002423435 -0.0011832032 0.0038627454 -0.0003431023 -0.00012673189 0.0010320203 0.0018402956 0.0031830769 0.00029645246 0.0030788365 -0.0025143395 7.033026e-05 -0.00055669155 0.0038945314 -0.002135148 0.001524949 0.003504894 0.0014161543 -0.0014512469 0.0013396841 -0.002850892 -0.0023847246 0.00068495015 -0.0033922056 0.0013436931 -0.0029187482 0.0009244569 0.002182596 -0.00214894 -0.003575243 0.0036977779 0.0007468722 0.00076289196 0.0010458222 -0.000730414 0.0038357435 0.0017906914 0.0025484797 0.0004217789 -0.0031749671 0.0037433833 -0.0012410744 0.0015427032
28 0.0037691162 0.002544668 -0.0019852726 -0.0033125966 0.0021658621 -0.0014591495 -0.0014877473 -0.0017229299 0.0027448134 -0.0038103866 0.0015528712 -0.0020913975 -0.00018646456 0.0013445754 0.0011407784 -0.0022467417 -0.0015890603 0.0035090526 -0.0014101194 0.0014656396 0.00088102114 0.0017883288 -0.001487446 -0.0023622357 -0.0016066638 0.0020679156 -0.0025183333 0.002191918 -0.002520667 0.003521758 0.003041333 0.002531616 -0.0028632903 -0.0038668273 -0.0018564471 0.0018350544 0.0038070797 0.0024821693 -0.0017180797 0.0029755232 -0.0037074296 7.294883e-05 0.0032317347 0.003287592 -0.0021697676 -0.003437328 0.0034405831 0.0016457742 0.00035592008 0.0015074435 0.003524324 0.0016979898 0.0012489372 -0.0022009811 -0.0017280898 -5.192105e-05 0.00071003154 0.0016589283 -0.0012939409 -0.0018713943 -0.0006553749 -0.002113084 -0.001514254 0.0026331146 -0.0015805686 0.0008740333 0.0028212012 0.0009211463 0.0019915255 -0.0025354363 -0.00072789064 0.0037094483 -0.002553293 0.00026770897 -0.0019909583 -0.0010665659 -0.0030144956 -0.0012441474 -0.002879479 -0.003463556 -0.0027751427 0.0015331177 -0.0034557818 0.0038413787 0.0019208287 -0.0022259008 -0.0005568616 0.002206917 -0.0036439158 0.0028154666 0.0015751715 0.0032477574 -0.0024926972 0.00017880365 -0.0022757193 0.0014449697 0.0017477772 0.0037501508 0.0035643666 0.0011517197 -0.002760874 0.0029980892 0.002576259 0.00023832539 -0.0005404637 0.0007759808 0.002262385 0.00025617718 0.00337168 0.0023455154 -0.0020137436 0.00262273 0.0019287068 0.003769013 -0.0016302355 0.0002914764 0.0022717381 0.001535075 0.0031278543 0.002871679 -0.0013676203 -0.002486189 0.0025832464 0.0003725589 -0.00048455442 0.001173421 0.0028202578 0.0021521018
21 -0.00020874542 -0.0025077877 0.0018396449 0.0024146459 0.0022477203 -0.0024107655 -0.0026484434 -0.0030615053 -0.0025040023 0.0036696298 -0.00016371833 -0.0031979256 -0.0034143406 -0.002605922 0.0006604241 -0.00084332837 -0.0016726246 0.0023840845 0.0010093565 0.0032925915 0.0005526424 0.001504517 0.0006824607 0.0035754237 0.0002487594 0.0027573311 -0.003491862 0.0033459559 0.0011410161 0.0025857503 0.00035110707 0.0025176266 0.0026143345 -0.0016473709 0.00010067052 -0.00075584464 -0.0033166765 -0.00096069707 0.0011778632 -0.0010307636 -0.003552815 0.0020397292 -0.0015132 -0.0006564691 -0.00027667388 0.003084106 0.00073111843 -0.0009485413 0.0025558362 0.00063737115 0.003190245 0.0023714353 -0.00040196994 -0.00017793049 0.0012648663 -0.0018914102 0.002393652 -0.000315774 -0.00305376 -0.0011869301 -0.002367887 0.0013066528 -0.0034258694 -0.0033899988 -0.0026309965 0.0033706794 -0.0002716076 0.0023710504 -0.0010675635 -0.0003166166 0.002895701 -0.0021950917 -0.0017925382 -0.0023496838 -0.002708181 -0.003315061 -0.0023649936 0.00090434554 -0.0026351719 0.00036567615 -0.0029213335 0.00027650336 0.003061571 -0.0038615619 -0.0026798935 -0.00042804494 -0.0028912881 -0.00027194867 -0.0026349395 0.0018212273 -0.0009382027 -0.0016467285 0.003373444 0.0030535362 0.00079872337 -0.0015636542 -0.0011205634 -0.00124259 -0.002289312 -0.0036343283 -0.0014887361 0.002081742 -0.0028690288 -0.0032768443 -0.0008872228 0.0019480679 -0.0011376454 -0.0019862347 0.0026513992 0.001394067 -0.0021950165 0.0037536665 -0.00048809583 0.0015697851 0.0014996574 0.0026779508 0.0021362496 -0.0017789447 -0.0012140656 -0.0003933472 -0.0032796338 -0.0005925084 0.002683571 -0.00063250796 0.00038427266 0.0013735174 -0.0026625444 0.0013602612
23 0.0027794389 0.0029570642 0.0005823851 0.0036729535 0.0014366219 0.00068335695 -0.0036926297 -0.002031366 -0.0030244861 0.0031524731 0.0023272985 0.0018226494 0.0028200105 -0.002690816 -0.00071384816 -0.00039481564 0.0014626115 -0.0021396775 -0.003031962 -0.0030549036 0.0029478134 -0.0036365308 0.0027439175 -0.0018648938 -0.00031920036 0.0019126699 0.0035682737 -0.0034876456 0.0030802116 0.002358173 0.0031369491 0.0035321205 -0.0035581158 0.0035519702 0.0036430657 -0.0022691183 -0.00054106134 -0.0014109957 0.0011540361 -0.0024333778 -5.1360703e-06 -0.003566518 0.0017785201 -0.0011655032 0.0021624812 -0.001381741 1.0063415e-05 -0.0013419096 0.00031252368 -0.0014509922 0.0038289828 -0.0039092205 -0.00048747624 -3.208092e-05 0.0021313874 -2.3704144e-05 0.0037845708 0.0014845463 -0.0005318789 -0.002250494 0.0022477629 0.002684736 0.002551512 0.0015290279 0.0023485464 -0.00032996383 0.0007029481 0.0036010132 -0.0031296092 -0.0032356477 -0.00066006434 0.00051353045 0.0001629758 0.0009243081 -0.00064853305 -0.0007687518 -0.00019067184 0.002054914 0.0037759286 -0.0011310063 -0.0037688678 0.0008821186 0.0012595287 0.002262702 0.00048141443 -0.00052595587 -0.0019590007 -0.0031232447 -0.0037802008 -0.0016005862 0.003737407 0.0007397532 -0.002227848 -0.002901052 0.000115756884 0.00093833875 -0.0017275069 0.000908582 -0.0018586387 -0.001899172 0.0021808115 -0.001971164 -0.0018647371 0.0017241716 0.0014396746 -0.003277599 -0.0012747181 -0.0017817429 0.00060648343 -0.000614446 -0.0011515339 0.0020745893 -0.0008881592 -0.0011024553 -0.0001067163 0.0037320005 -0.0006099506 0.0017214066 -0.0036944852 -0.00022485858 5.932445e-05 0.0037972424 -0.002968541 0.0005284159 -0.00093220826 0.002315264 -0.001867259 -0.0013646593
32 -0.003149785 -0.0034532873 0.0029608519 0.00022659836 -0.0010195933 -0.0018504361 0.00069282943 0.003746492 0.0017322936 0.00071798253 -0.00052303023 -0.0017474111 -0.0010887573 -0.0033913115 0.0038940401 -0.0023799709 0.002863892 0.0022155344 -0.0004713785 0.00013230799 -0.0017119577 -0.0029552418 -0.00086908584 0.0032202655 -0.0016619115 -0.0014714088 0.0010513201 -0.001107581 -0.00072158454 -0.002035526 -0.0020319796 0.0010242746 0.001037459 -4.8425074e-05 0.0024148545 0.0024192906 -0.0017913687 0.00048046475 0.001133737 -0.0019223267 0.00026569638 -0.0028237486 -0.0032383725 -0.00059145375 -0.0013570673 -0.002406952 0.00022768963 0.0012020557 0.0002810388 0.0013715453 -0.0017916558 -0.0034083908 -0.0033979225 -0.00048015243 -0.0003852723 -0.002635911 -0.0007771649 -0.003637169 0.0013194158 0.0020991291 -0.0020237162 0.0007625249 -0.0012204055 -0.003617091 0.0020408425 0.0037371214 0.0029754946 0.002555433 -0.0034444898 0.0021297345 -0.0031422458 -0.0027726085 0.0030153904 -0.0024367725 -0.0005182211 0.0013604817 -0.0031667922 0.00048870966 0.003564053 -1.8925928e-05 0.00096880156 -0.003475702 0.002125904 0.0013873301 -0.0024310353 -0.0027492912 -0.0004677349 -0.0023072283 0.00029624958 0.0017112728 0.0002111618 0.0005081414 0.0020485315 0.0038135005 -0.0018634637 -0.0019216865 0.002193655 -0.0018394245 0.002726375 0.0025598793 -0.0022761966 0.002074285 0.0012789373 0.0001638469 -0.0019379476 0.0023340273 0.002095964 -0.0014538714 0.001025935 0.0012869792 0.0012644862 0.000813556 0.0029087793 -0.0014359318 -0.0010557042 -0.00080032897 0.0017230394 -0.0034593935 0.0038617975 -0.00022171056 0.0027456966 -0.0033931618 0.0037199769 0.0026286736 0.00072206947 -0.0029818977 -0.00074709917 -0.0024830622
22 -0.0038490398 0.0034416257 -0.0030744988 -0.0032467938 -0.00062691554 0.00025646394 0.0015122992 0.0006787936 0.00064967806 0.00047226498 -0.0017338133 0.0027899216 0.0019005436 0.0010545546 0.0004739435 -7.254252e-05 -0.0036477859 0.00043506757 0.00275001 -0.00060939154 0.002627576 0.0037262177 0.0009440683 -0.0008451787 0.00072173885 0.0028030563 -0.003766504 -0.0021844353 -0.0016944322 0.003394265 -0.00210791 0.0025550013 0.0038225662 0.001032459 0.0010650695 -0.0025316044 -0.0036293184 0.0028714852 0.0017649132 -0.002523917 -0.00254611 0.00381661 0.002186742 0.0016486011 0.0030532184 -0.0007444587 0.0009145178 0.0020909503 0.0038392735 -0.002909219 0.00010135238 0.0028816026 -0.0005386092 0.00042448693 -0.0017341475 -0.0007719871 -0.0037784183 -0.0031313356 0.0017598906 0.0014240491 -0.0021665702 0.001436398 -0.0009833272 -0.002826014 0.002418819 -0.0022533818 -0.0028280206 0.001827598 0.0032710817 0.0018701578 -0.0037595748 0.0001749158 -0.0014112906 0.0033038533 0.0024406507 0.0033919814 -0.0033359062 -0.0010364819 -0.00034850143 -0.0013864707 0.00026661242 -0.001592757 0.0034142793 0.0007367904 0.0016706251 -0.0027946788 -0.0021571969 0.0013446544 0.00023033144 0.00096423086 -0.0031998784 0.0021856104 0.0033054228 0.0027874063 -0.0013144637 0.0033941986 -0.0010126512 -0.0029642624 0.002433983 -0.0035390106 -0.00025678898 -0.0036291645 -0.0028796631 0.0008599149 -0.0038146337 -0.0031876902 -0.0013875142 0.0010469406 -0.0022329753 0.0018860089 -0.002824799 0.0021441646 0.0017820906 0.0006210163 0.00023347503 -0.0021142797 0.0027835404 -0.0011344721 -0.0035869281 0.0003526041 -0.002746624 -0.0033652126 0.0011781789 0.00081042055 0.0033398552 -0.0022822071 0.0018948275 0.0012127346
6 -0.0003587887 -0.002619656 0.0020802205 -0.0011543642 -2.3499022e-05 0.0032450166 -0.0022029271 -0.0035946823 -0.0034435396 -0.002483519 0.0036136846 0.0024832988 0.0025425164 0.0034073137 -0.0007442117 0.003470172 -0.0034884263 -0.0023578387 0.003886458 0.0036031473 0.003352604 0.0018514573 -0.002123516 0.0003741104 0.0037416813 -0.0032563612 0.0010255062 0.0010216376 -0.00073419086 -0.0020280515 -0.0022551431 -0.002744671 0.0030937882 0.0029618095 -0.0038486843 -0.0004677455 0.0015816714 -0.0013311642 0.002408181 0.0003789461 -0.0036345061 -0.0013753938 -0.0038062418 0.0038211078 -0.0032131274 0.0012817502 -0.0024393364 0.00095562165 -0.0027773173 0.0018748555 -4.9132494e-05 -0.0033201796 0.0018268654 -0.0015179573 -0.0035206033 -0.0037725605 -0.002123009 -0.00091737235 0.0028410926 0.0027188652 -0.0021127693 -0.0009613998 -0.0020597489 0.0020821108 -0.0013949999 0.0024874706 0.0015791137 -0.0013684616 0.0032604677 -0.0029354042 -0.00011496948 0.0014484335 0.001714314 0.0020750407 0.00192527 -0.003593691 -0.002903627 -0.0010201539 -0.00046207567 -0.0033795717 0.001586883 0.0021083357 0.002120333 0.0019655363 0.00032419022 -0.0025512103 0.0004915129 -0.0024023259 0.0010602791 0.001521796 -9.408397e-05 0.0027324636 -0.0035958362 0.0012818093 -0.0020497509 -0.0023111196 0.00055233634 -0.00088088244 -0.00011310908 0.0034333242 6.8805995e-05 0.0025736068 0.0025303862 -0.0020246105 0.002861507 -0.0026533348 0.0037603748 -0.0027365154 0.0021029813 -0.00060655584 -0.0002670631 -0.0034623803 0.0028727395 0.0012358616 -0.0032021643 -5.8956252e-06 0.0009819086 9.673925e-05 -3.7926734e-06 0.002726207 -0.003618266 -0.00062932563 0.00095262594 0.002696121 -0.0002845967 -0.00010810658 -0.0027016213 -0.0033463514
33 -0.0033899457 -0.0016247305 -0.0019855797 -0.0020028388 -0.0024868567 -0.0011486257 0.0021158897 0.0024927286 -0.00065966544 3.0445011e-05 0.0030182167 0.0024485157 -0.0033596563 0.0037514376 0.0019922825 -0.0018705861 -0.0010108266 0.0003017952 0.0033070534 0.0019869683 0.0005099708 -0.0020961016 0.0014118188 -0.0027355156 0.0022081744 -0.00057674106 0.0010471958 -0.002750135 0.0024258476 -0.0032918584 0.00017997343 -0.001431496 0.0028586388 -0.003548485 0.0028627028 0.003588952 -0.002497823 -0.0002836762 -0.0008564835 -0.002572453 -0.0002267881 0.00059651484 -0.00051085826 0.0032134724 -0.0009033995 0.002383067 -0.0012337964 -6.367023e-05 0.00042332578 -0.00036262374 0.0021928404 -0.0027445725 0.00014733565 -0.0022824951 -0.0004804665 -0.0028344928 -0.0006664212 -0.0010134348 0.0034596818 -0.00046135552 0.001087612 0.002276978 -0.003353873 -0.00022360116 -0.0016104842 -0.00087068306 -0.0007468819 0.002014937 -0.0016019862 -0.0020814014 0.003716076 0.0009707649 -0.003252018 0.0023472067 -0.0004924307 -0.0037313455 -0.0005980879 0.001197864 0.002910072 -0.0021075965 0.00023203938 0.0036788662 -0.0032820755 0.0013500855 -0.0027665051 -0.002716756 0.00034990784 0.0017375727 -0.002174031 -0.0004843438 0.0017180368 0.0026078734 -0.0037917811 -0.0005192634 0.00084924424 -5.1677198e-05 0.0006464736 0.001846124 -0.0037762432 0.0008729379 0.002997604 -0.0037399677 0.0023735638 -0.0007353756 0.0038034592 -0.00016910567 -0.003315312 -0.001368341 0.0028750193 0.0010604577 0.0026836894 -0.0030465263 -0.0025377362 -0.00073897094 0.002113742 5.647193e-05 -0.0005049774 0.00025705577 0.002594584 -0.0033171275 0.00055033265 0.0020191416 -0.0008993485 0.0021694654 0.0012728752 -0.0034653177 0.00024880364 -0.0024851917
17 -0.0017757273 -0.0032010488 0.002436579 0.00020496994 0.00019493721 -0.0015580164 0.0033819103 -0.001891621 -0.00054260384 -0.00057481223 -0.0038186505 0.0012943429 -0.00077187683 0.0032954463 -0.0014019578 0.00023518517 0.0037327176 0.0031088837 0.0017114328 -0.0012653784 0.0016647048 -0.0031277363 -0.0012215377 0.001755212 0.0015581697 -0.0031380595 -0.0031529139 -0.0014575751 0.0033650477 -0.00041246554 -0.0017847609 -0.0032578683 0.0017561394 0.0037383942 -0.0008963254 0.0002722711 -0.0036837908 0.0011130802 -0.0028736156 0.0020497818 0.00030458596 0.0036325618 0.00079941115 -0.0026394872 -0.003673864 0.003551726 -0.0032648204 -0.0008656607 0.0027706872 0.0025125036 -0.0020844345 0.0038011568 -0.0016636192 0.003433619 -0.0016630681 -0.0012822795 -0.0028896478 0.00023652261 0.0028406472 -0.00078740914 -0.0017462985 0.0031252773 0.0016310593 -0.0018847705 -0.00324215 -0.003561206 -3.3747394e-05 0.0026545473 -0.0036322512 -0.0008163168 0.00046737085 0.0034284275 -0.0028796804 0.0017186338 0.000991615 -0.0028328495 0.0004133149 -0.00092327746 -0.0019690604 -0.0019458527 0.0008120527 -0.0007927251 -0.0021886965 -0.0008024579 0.0020006953 -0.00025101614 -0.0031310264 -0.002930891 -0.0022859464 0.0015708581 1.4301977e-05 -0.0017766907 0.0007809094 0.0034726805 -0.0017922476 0.0027214112 -0.0023408742 -0.0020636795 -0.003540151 -0.0019350413 -0.002291944 -0.0022038566 7.047112e-05 0.0019190778 0.0037979374 -6.1590574e-05 0.0026714362 0.0031249006 -0.0019662143 -0.0009150022 -0.0032685087 -0.001262354 0.0015834731 0.0029041695 0.0027016269 -0.0016396547 0.002614064 -0.0006910914 0.0036144743 -0.0013338244 0.0022419514 -0.0014246901 0.0017253672 -0.0026004552 0.0033966487 0.002390287 0.0010606932 0.00045853414
11 0.00037627894 0.0037357346 0.002393607 0.0013444605 -0.00043079758 0.0012623232 -0.002737635 -0.000478159 -0.0038110407 0.0009874618 0.001097683 0.00039592484 0.00024303822 0.0007486695 0.0015818006 0.0002177429 8.967799e-05 -0.0024652083 0.0024929068 0.0031208699 -0.0025740564 0.0015663792 0.0011879639 -0.0038084402 -0.0029980221 0.0004904007 -0.0014012058 -0.00054035074 -0.0034428851 0.00160569 0.0019022505 -0.0013309172 -0.00091099786 -0.0032157365 -0.0025976265 0.00014029071 0.0022640782 -0.0036888402 0.0014738422 0.0021193526 -0.0021200166 -0.002112034 0.0007546881 -0.00056265574 -0.0028047445 -0.0036344575 0.0010943264 0.0016439976 0.0034680916 0.0015197512 0.0031506012 -0.0005172633 0.0034094774 -0.0024540157 7.056978e-05 -0.0019147722 -0.0018599356 0.0007480371 -0.003534634 0.001262702 -0.0035508457 -0.0031181173 -0.0026781873 0.0012350769 0.00017800835 -0.0015028518 -0.002383983 -0.0010981724 -0.00027239215 0.0029652056 0.0009782088 0.001572326 -0.000740381 0.0026544046 0.003565025 -0.0007943469 -0.0016608587 -0.0027040443 -0.0007569803 -0.0016736255 -0.0022197885 0.00084819173 0.0011066404 6.0666243e-05 -0.0035709892 0.0025340293 0.00021764566 -0.00037025337 -0.0017493018 -0.0009608446 0.0029357485 -0.00028813697 0.0013527259 -0.00040813902 -0.003471986 -0.00026568488 -0.0013599871 -0.000810291 -0.0018619617 1.3671499e-05 0.0010368411 0.0036433085 0.0017797991 0.0036588204 -0.00032282853 0.0023015428 -0.0004577894 0.00019008141 0.003382605 0.0031643673 0.0038695734 0.00069512933 -0.002377549 0.00072895933 -0.0020195227 0.0007876058 -0.0029742343 -0.0019255173 -0.00056199124 0.0028980821 -0.0034281497 0.0014186301 0.0024107655 0.0024109085 -0.0010912791 -0.0014636889 -0.0012808495 0.00020918116
20 -7.407395e-05 0.003470967 1.1115105e-05 0.0004311549 -0.0028344968 0.0030400553 0.001247384 0.0017513739 0.0019634862 -0.0019040306 -0.0007236675 -0.0017674193 -0.0024294867 0.0010647315 0.00068996096 -0.0026770371 0.0023007176 0.0018373984 -0.00023409656 -0.0008589784 -2.626885e-05 -0.003548967 0.0012120118 -0.0015782508 0.0030691014 0.0034637735 0.0007338152 0.0034196586 -0.0018400684 0.0037503224 -0.0037153268 0.00052428123 0.0027982811 -0.001423975 0.0015559004 -0.00033550418 0.00022235473 0.0018900414 0.00094716606 0.0020401394 -0.0013583989 0.0037719635 0.0008932423 0.0021094156 -0.002839331 -0.0022548703 0.0017870112 0.0016349036 0.00044193107 0.00043860718 0.0024590597 -0.0013078462 0.00035881164 0.00080167345 -0.00086460856 0.0010582615 -0.002002325 -0.000989792 0.002554524 -0.0010518642 -0.0022126273 -0.00038572974 0.002302073 0.0003747701 -0.0021567352 0.003242106 -0.0025969674 -0.00036756482 0.00049971003 -0.0014993165 0.0021616572 -0.0011427433 -0.003074258 0.00017202983 0.00068703125 0.0026426637 0.0013517363 -0.003449592 -0.00200142 -0.0025123586 0.002500199 -0.0011954448 -0.0034433873 0.0007181736 -0.002268206 -0.0019336665 -0.002299157 0.0031442486 -0.0028040134 0.0027588408 -0.0022905238 -0.0018572863 -0.0028257847 -0.0036235172 0.00076474715 -0.0016497299 -0.0010689755 -0.0003621678 0.0031706379 0.00157072 -0.00278967 -0.00031540458 -0.0007725944 0.0036596202 -0.0026730627 0.003883739 0.0033464006 0.0026899162 0.0013758701 -0.0028944085 1.584262e-06 0.0021912665 0.002130709 0.0004379524 -5.9243433e-05 0.0013310333 -0.0023840351 0.0011070363 -0.0027768735 0.0006553113 0.0020559519 0.0012366108 -0.0013487304 -0.0035877677 -0.003659038 0.0019965835 -0.0034744998 -0.0010499841
7 -0.0017340974 -0.0034798847 0.003824349 0.0007081872 0.003240108 0.001761691 -0.000374847 0.0010531881 0.0014208759 -0.00079556904 -0.00032272466 0.0024594162 0.0004549765 -0.0028624733 0.0008011772 -0.0020716642 -0.0008837717 0.001101285 -0.0037615069 0.001396741 -8.00032e-05 -0.0010096974 -0.0015908802 -0.002568715 -0.003655803 0.0013480406 0.002573984 -0.0031712798 0.00027192372 -0.0013800323 -0.00064634363 -0.002803277 0.001012829 -0.002540949 0.0019175571 0.00020135855 0.0018701218 0.0011550513 0.0025358945 0.0015423849 -0.0031322618 -0.0037339693 -0.001391134 0.0029164806 0.003145104 -0.0016281343 0.0018830351 0.0025581582 0.00084320526 -0.0004887553 0.0004744594 2.0036116e-05 -0.0014030121 -0.0017677955 0.0017373001 -0.0032396354 0.0018154692 -0.0012969242 0.00053004484 -0.0017683059 -0.00062123087 0.00018942142 -0.00327227 0.002257673 0.00321953 -0.0027796882 0.0037298005 0.002519844 -0.001645645 -0.0033004505 -0.0038739068 0.0019531776 0.0031582299 0.0012693922 0.0027211308 -0.002788359 0.0035722153 -0.003334015 -0.0016047445 -0.0019986946 -0.0016993514 -0.00364 -0.0012249701 -0.002114343 -0.001947425 -0.0012175328 0.0011975816 0.0024586043 0.00082363014 0.0013030405 0.00062710035 0.002876188 0.0016495881 0.0025662791 -0.0012947664 -0.0029215007 0.002243134 -0.002102889 -0.0026355654 -0.0014315376 -0.0030426409 -0.0034385256 0.00054481183 0.0030268 -0.0017119824 0.000646844 0.003109047 0.00381688 -0.0009213657 -0.0010578302 -0.0021553654 0.001857618 -0.0035781811 0.00018157477 0.0030335572 -0.0034865357 -0.00016250779 -0.0012696071 -0.0027773166 -0.0014891083 0.0016986593 -0.0017506848 0.003106361 -0.0011940188 0.0012699739 0.003787038 0.0038330767 -0.0035451625
29 0.0009979738 -0.0010043208 0.0028803535 0.0020602765 -0.00040529945 -0.0016351423 -0.0031913733 -0.0021636628 -0.00028449207 -0.0019720912 0.0016103658 -0.0028918728 -0.0027881132 -0.0017053677 0.0017476099 -0.0032822757 0.003197933 -0.003542716 0.0005278323 0.0022496942 0.0036794438 -0.00032290394 -0.0032893682 -0.0030633267 -0.003642013 -0.0017642174 -0.00044080714 -0.002299074 9.408024e-05 -0.0035077233 0.0030747943 0.0031712179 -0.001467717 0.0028614465 0.0017362097 -0.0002956665 -0.0030512486 0.003295307 0.0020815749 0.0023196407 -0.00064674264 0.0014458294 0.003670071 -0.002724758 0.003810572 -0.003573667 -0.0030105587 -0.0027571977 0.0014503847 0.0029123246 0.002438685 0.0009483404 0.0020598655 0.003631645 0.002871593 0.003047846 -0.0034030427 0.0027035961 0.0008176936 -0.0010531567 0.00085443305 -0.0012297963 0.0032983094 0.0025089984 -0.0016740713 0.0011744092 -0.0009298207 0.0028193702 -0.0015654885 0.0016179064 0.0019437189 0.00036759404 -0.0019365891 0.0035083133 0.0021194164 -0.00024159727 0.0027505362 -0.0030420655 -0.0013483844 0.0033706578 -0.00039959492 0.0035181064 0.0010230576 0.001960575 0.002256962 -0.003062373 -0.00027341736 0.0029369583 -0.00093939813 0.0037877492 0.002969168 0.00058373547 -0.00018340572 0.000497151 -0.0007709893 0.00010239432 -0.002666316 0.0029688948 0.0028826774 0.0024174089 0.00275491 0.00054308923 -0.0035738728 -0.0014783986 -0.0016898694 0.002862767 -0.00038392708 0.002097673 0.00043939427 -0.003731919 -0.0014723593 -0.0012237105 0.00014929267 -0.0037337516 -0.0025436624 -0.0018089539 -6.9452784e-05 0.0037686757 0.0037967782 0.0030009376 -0.0017510552 -0.002451119 0.0032391592 -0.0012289928 0.0018030952 0.0001145069 -0.00261658 -0.0026429116
26 0.002787948 0.0017975732 0.0017214437 -0.0017751063 0.00042145466 0.0010512952 -0.002470195 -0.0031868306 0.00083322445 0.001003054 0.0039053173 -0.0029306007 -0.003651266 -0.0030517855 -0.00045821193 0.0025685376 0.0032178757 0.0024520743 0.003696797 0.0007049767 0.00210379 0.002601964 0.0022586775 0.0037501142 0.0016568203 -0.0030017248 -0.0014581274 0.0006398962 0.0027361505 0.0029887964 7.049224e-05 -0.003335527 0.00018725476 0.0020405431 -0.001985375 0.0019110603 0.0018810071 0.0025186155 -0.0031445553 -0.0013246676 0.00073296827 0.00040599713 -0.0031917219 0.0035236953 0.0007033634 0.0035164843 -0.0025050303 -0.0016102642 -0.0017283396 0.0017063462 -0.002306757 0.0035423685 0.0024481106 0.002419009 -0.0032276344 -0.0031580944 0.0017459992 -0.002023278 -0.0010044655 0.0018436301 -0.0030230652 -0.0007704185 -1.4434369e-05 0.0010458381 -0.0023729263 0.0031347217 -0.0016505329 -0.0018317073 0.0037069484 0.0030482179 -0.0014731141 0.002712207 -0.0013717471 0.0036081274 0.0029074328 -0.0015662275 -0.0029737884 0.0022915697 0.0024462782 0.0013191719 0.0005594654 -0.0025784848 0.00063102 0.0010176784 -0.0012656633 -0.0016681753 0.002629749 -0.003701645 -0.0009995358 0.0007849861 0.0031255286 -0.0012290874 -0.003535572 0.0025792383 -0.0028984377 -0.003680823 0.0026537154 -2.3599638e-05 0.0012631823 -0.0011815246 0.0006480891 0.0011988092 0.0009058109 0.003442355 -0.00019752515 0.00051858724 0.0033670133 -0.0013293212 -0.0032761437 -0.0036256579 -0.001529036 0.0005209613 -0.0008613905 -0.0037472346 -0.0032181935 -0.001508731 -0.0033083616 0.003632409 -0.00342855 0.001428988 0.00028268975 0.00068712066 -0.0028401853 0.0035888231 0.00046330044 0.00013738172 0.0017791342 -0.0026272256
10 0.0038082001 -0.00032459458 -0.00082448666 -0.0019985193 -0.003791882 0.00012602197 0.0030475147 -0.0013345866 -0.001518645 0.0029533228 -0.00021937877 -3.67656e-05 0.0022373016 -0.00030439885 0.003600735 0.000115810704 -0.0032453982 0.0033964044 -0.002450907 0.0031048707 0.0022960731 -0.0035030087 0.0009846798 -0.0012253316 0.0029136238 -0.0011649857 0.0011783458 -0.00329777 -0.0027319668 0.0027951268 -0.0024148822 -0.0034671326 -0.0036601773 -0.0021490406 0.0027705792 -0.0023666902 0.0023900906 0.0027750742 -0.0007630878 0.0011987261 -0.0026704702 -0.0023880794 -0.0038117766 0.0021913983 0.0009951611 -0.0037121745 9.5085445e-05 -0.0005671151 -0.00022184511 0.0002597986 -0.0034590217 -0.002597114 -0.0033320372 -0.0038335416 0.00097505096 -0.0020498536 -0.0034991484 0.0020554755 -0.0030411996 -0.0010754166 0.0010246941 0.0031088481 -0.0037330643 -0.0030127037 -0.000697521 0.0027797178 0.0023421396 -0.0006721483 0.0007896701 -0.0021205102 0.0036209892 -0.0024807972 -0.0017488025 -0.0014547902 0.00026257988 -0.002618542 -0.0037525126 -0.00035834976 0.00030999788 0.002087021 -0.0035660416 -0.000101512655 0.0021431514 -0.0018783435 -0.0033937765 0.00060312176 0.0034884524 0.0028517747 -0.00032991744 -0.00027202241 -0.0012179898 -0.0017664741 -0.0019490634 -0.0016369156 0.0036856367 -0.0034771154 -0.0015534306 0.0009309763 -0.003285264 0.00039111628 -0.0035705995 -0.0019690034 -0.0035405918 -0.0020566725 -0.0023388143 -0.0027095913 -0.0018826061 -0.0030833553 0.0011735858 -0.0023266284 0.00014988163 -0.0022657316 0.0011136936 0.0001675818 0.003062071 0.00087180076 -0.00036850033 0.0034081955 0.0019303787 -0.0011521354 0.0004415715 -0.0023219134 0.0006557632 -0.0024237542 -0.0026064094 0.0009898918 0.0024903142 -0.0014175058
4 -0.0007189712 0.0019348259 0.0026206614 -0.0028258616 0.0035938213 -0.000454733 0.00088368583 -0.0025651613 0.00025878043 0.003384972 -0.0028280665 -0.002518887 -0.0036417437 -0.0017805443 0.0008103774 0.00019362193 0.0027988392 0.003804301 -0.00019516247 0.0030796633 -0.0030226926 0.0003250999 -0.0038142153 -0.0015849647 0.0014981619 -0.00021560956 0.003999028 -0.0007341452 0.00051155075 0.0021049138 0.0018626117 -0.0011847827 0.0011256873 -0.0030567225 0.000532889 0.00033799274 0.0021399942 -0.0016014834 0.00015426282 0.0001732502 -0.001704548 -0.00024231829 0.003353953 -0.0011809838 -0.002940389 -0.002907093 0.000110105495 -0.0035670176 -0.003570614 0.0007645372 -0.002918551 -0.0010791434 -0.0013477969 -0.0038339866 -0.0011577549 0.0026113363 0.0010296768 0.0007985795 0.00084627984 -0.0039092503 0.0016751926 -0.0021742152 -0.0035884094 -0.00022282911 -0.00064676796 -0.0016342214 -0.0022211908 0.0028323187 0.0022801873 0.001998183 0.0013025895 -0.003880268 0.0018481512 0.003627181 -0.0028193751 -0.0008745102 0.0017848968 0.0028171593 -0.0025192185 -0.0026686152 0.002482617 -0.00020803792 -0.0026015898 0.0007860315 0.0019428214 0.0014620123 -0.0038591211 0.0025025625 0.003362478 -0.0016178346 -0.0028400123 -0.003307514 -0.0017655031 0.0017103843 0.0010009777 0.003635796 0.0007590799 -0.0013950319 -0.0025929632 0.0015408647 0.0034021237 -0.0024360134 -0.0017016118 -0.0026107263 0.0017691995 -0.0022624373 -0.0018087017 0.0030300778 0.0034876755 0.0014484185 -0.0016553791 -0.0034753256 0.0012279658 0.0014420422 -0.0011845127 0.0037891206 -0.0025580036 -0.0006910486 -0.0010434501 -0.0019157826 -0.0029076738 -0.0019134803 0.00107078 0.0021563587 -0.0024905088 0.0014328334 -0.0038305412 0.0018298571
14 -5.2689746e-05 0.00061891956 -0.0033236328 -0.002190919 0.0019241883 -0.0035055692 0.0025430783 -0.0023742965 0.0034008091 -0.0023797455 0.00085517834 0.003784018 0.0009530609 0.0011723979 0.0002344264 -0.00095786137 -0.0031006648 -5.744716e-05 -0.0022878696 0.0037290836 -0.00016546158 -0.0007142145 0.0011588221 0.0016206091 0.0019235587 -0.003448526 0.00026007506 -0.0017699618 -0.0035499937 -0.0036256437 -0.002164711 0.0016481195 0.0013917229 0.0038693198 -0.0012790641 -0.0029337015 0.00329649 0.0020164305 -0.00033738723 0.0016678094 -0.0022399563 -0.00044745955 0.0015799176 0.00070753216 0.0012316903 0.0028894434 0.0011922963 -0.0018830774 -0.0023559825 0.003767535 0.0025703155 0.0038356252 -0.0006940316 0.0020541472 -0.0033292815 -0.0039121993 0.00049753394 -0.0019097433 0.0022661341 -0.0012035877 -0.0010525538 0.0030578657 0.0021722415 0.0015292555 -0.00086115825 0.0019121411 0.00061490975 -0.0014222916 0.0013060805 -0.001786156 -0.00044658975 0.0035072248 -0.0015137347 0.0012213695 -0.0032619683 -0.0023795196 -0.002709486 0.0012032664 -0.0024519758 0.0019323211 0.0030877036 0.0034690795 -0.0002794417 0.0008622312 -0.0008372927 0.0030038198 0.0020681801 0.0011819794 0.0037683675 -0.0038968453 0.0032797293 -0.0026058995 -0.0035065697 -0.0021759642 0.002876606 -0.0006884834 0.0009148831 -0.0019753408 1.9622303e-05 -0.002754241 -0.0032232904 -0.00060516014 0.0025244039 0.0026690834 0.001313364 -0.0012312979 -0.0037510982 -0.0021711509 0.0012632469 0.0013464486 -0.0024670807 -0.0004883209 -0.001767677 0.0019088477 -0.0038354478 0.0026299122 0.0008861717 -0.00294417 0.0029223645 0.0013231137 -0.0013916849 -0.0017123532 -0.0023094697 -0.0012612179 0.00040408823 0.0017335267 -0.0010790391 -0.0014710141
19 0.0023521595 0.002805504 -0.003371817 -0.0027716819 -0.0012651403 0.002091907 0.001511577 -0.002410975 -0.00054815196 0.0017132442 -0.00083030865 0.0033055611 0.00035646657 0.0013301361 0.0002620927 0.0011822463 0.0010197326 -0.0003969987 0.0033358182 0.0035774445 0.00089462043 -0.0005091953 -0.0032862604 -0.0019316423 0.0034291106 0.0034213434 0.0030405528 0.00012356984 -0.0018214139 -0.0010200765 0.0010655412 -0.0010569124 0.0017515023 9.336461e-05 -0.0021323182 -0.0012204703 0.002473214 -0.00058416824 0.003100948 0.0025075714 0.00051876233 -0.003404963 -0.003154247 0.0026479694 0.0033894312 0.003128 -9.791494e-05 -0.0036359616 -0.0010414557 0.0033102315 0.0028778326 -0.0035965221 0.00048418672 -0.00082644174 0.0028142657 0.000626508 0.0023848398 -0.0018955373 -0.0015708725 -0.0026348142 -0.0031727098 -0.00036709968 -0.0027963049 -0.0006408042 0.0015741573 0.0013420077 -0.0021719902 0.0018642351 -0.0019109789 0.0038470034 -0.00076580275 -0.0002007287 0.0028654684 -0.001471675 -0.0037852176 -0.0010687558 -0.0021333722 8.8015666e-05 0.0036392568 0.00096411654 0.0010488129 -0.00054169964 -0.00362975 0.0025190443 -4.320902e-05 0.0018222362 -0.0018306591 -0.0023787625 -0.0019104062 0.0006828541 0.0033060068 -0.0008246944 -0.00339805 -0.0033086047 0.0012768077 0.00248402 -0.0023090814 0.0032464247 0.0015950978 0.000109651795 -0.003573379 -0.0035308998 0.0007865324 -0.00381057 0.002763308 -0.0021469702 -0.0025711576 0.000809736 0.0017741178 -0.003064223 -0.0010536016 -0.0023830559 -0.0020730584 -0.0032528234 0.000575527 0.0018206707 -0.0009065415 -0.0017864573 0.00187196 -0.0016283835 -0.00084177597 -0.0001325326 0.00031773635 0.0019557932 0.00038374338 0.0016308714 -0.0031839325 -0.00022024984
13 0.0021680675 0.002762478 0.0018936885 -0.0021101625 -0.0020012434 -0.0008988953 0.00187107 0.0020929219 -0.0017740998 0.0004791687 0.0029438424 0.00058014126 0.0018313552 -0.0014628469 0.0006347813 0.0018714581 -0.0017241137 0.0015471472 -0.0009982815 -0.0017174836 -0.0017334957 -0.0031619675 -0.003484029 -0.00023766134 -0.001006071 -0.00020212567 0.0031719753 0.001944484 0.002881658 0.0007453976 -4.5445463e-06 -0.0018431047 -0.0024147306 -0.00082161266 -0.0035724794 -0.00084937486 -0.002552666 -0.0033349104 -3.7882965e-05 -0.0012314975 0.0028990153 0.0018355398 -0.0035985198 -0.0022153477 -0.0039043592 0.0007099624 0.0016829622 0.0022349348 -0.0036121192 -0.0013125347 -0.00089054636 0.0011636169 0.0037575339 -0.0033407495 0.0014562975 0.0023430404 0.0017669263 0.0037990054 -0.0010380318 0.00027721404 0.003457498 0.0034540414 0.0014487492 -0.0037045476 0.0009640209 0.0023885344 -0.0016693482 0.0002988495 -0.0018996164 -0.0020946576 0.0016545573 -0.0013189769 -0.0004114626 0.0010900996 0.0023611803 -0.00030395898 -0.0013902944 0.00079863804 -0.00291904 -0.002371971 -0.0029849566 0.0012299572 0.0026774746 -0.000116598465 0.000127715 7.90738e-06 0.002128934 0.003724967 -0.0026110334 0.0004972668 0.0037388287 -0.001540694 -0.0019174535 -0.0034498759 0.0035051694 -0.0036245703 -0.0007728101 -0.00068987964 0.0023064076 -0.002888365 0.0025264325 -0.002673345 0.0035672653 -0.0011097481 -0.00023544456 0.0025265832 0.0037012438 0.00061563664 -0.0033426995 -0.00020132746 0.00072136516 0.0013373464 0.0027083128 -0.00069595256 -0.0019630569 -0.0018749546 0.003387937 -0.0014001979 -0.0028394274 0.0036784646 -0.0027701496 -0.0022965986 -0.0009343778 0.003615475 -0.0023086793 -0.0038916229 -0.0038152705 -0.0017372002
5 0.0032592425 0.001464704 -0.00017307921 -0.001239775 -0.0018349743 0.0005695108 0.0020603733 -0.0024305102 0.0015778869 -0.0008294697 -0.00236466 0.003709728 0.003144891 0.0020495255 0.0031561463 -0.0032287596 0.0032764634 0.0026697493 -0.0031038919 -0.00058788614 -0.0035758475 -0.0010939059 0.0016387627 -1.9591316e-05 0.0024469194 -0.0015508255 0.0033954373 -0.0015345314 0.0027464614 0.00085068255 -0.002559869 -0.0007355234 0.00077371247 0.0027247758 0.0022814781 -0.0024286066 0.00015758189 -0.0036148017 -0.0029693283 0.0010869303 -0.0039029995 0.0017402808 -0.0015060193 0.0032843663 -0.0018598833 0.0020610264 0.0007682611 -0.00035619785 0.0026044657 -0.0031093257 -0.0038062185 -0.0014287389 -0.0007087535 -0.001080508 -0.0011618554 -0.0036582884 0.0033132322 -0.0019304834 0.002123883 -0.0014610906 -0.0032983045 0.0028967583 -0.0020914965 -0.0017717916 0.0019611167 0.0009356689 0.0028641997 -0.0031470535 -0.00081407855 0.0027364776 -0.00013485206 -0.0037439927 0.00378423 0.00039119166 0.0006796981 0.0014103513 0.0012443322 0.0029472113 0.0036348314 0.0019207428 0.0020087739 -0.0028862916 0.0015420432 0.0003765429 -0.0028219463 -0.002088069 0.0011164006 -0.00065959163 -0.0029398059 -0.0006401149 0.0032371953 0.0005663258 0.0024284648 0.0035478591 -0.0030732541 0.0037473638 -0.0032811558 0.00041708053 0.0033695223 0.003545491 0.0027452656 0.0010526058 0.0027836298 -0.0036546865 -0.0007921932 0.0007879962 -0.00037584626 -0.0017932067 0.0035493043 -0.003356762 -0.0006037433 -0.00061621505 -0.0024237984 0.0008767474 0.003543662 -0.0030028597 -0.0028662782 0.0005933675 0.0003584494 0.0024535758 0.00084189477 -0.00350738 0.0006263903 -0.0036818834 0.0035018134 -0.0017744882 -0.0036339585 0.0009220068
15 0.0026930308 -0.0019095365 0.0031166216 -0.0007212107 -0.0022846216 -0.0021904032 0.0008991134 -0.0029857738 -0.00041148675 -0.00010545028 0.0012247702 -0.0016460747 -0.0034478132 -0.002128949 0.0024719534 -0.0026424318 0.0023436085 0.0014678221 -0.0013286066 0.0016449536 -0.001839234 0.0029624496 0.0022203855 -0.0010784451 -0.0014034051 -0.0013392514 -2.0192949e-05 -0.0020053259 0.003692943 0.0030846933 0.0019406003 0.0016961449 -0.00028869286 0.0010034756 -0.0014724873 0.0017571896 -0.0029654768 -0.00037639675 0.0022517268 0.001299711 0.0006730301 0.00086922094 -0.0037695186 0.0023142782 -0.0014702458 0.0028147271 0.0009201068 -0.0023957056 -0.0013549444 -0.0009155626 0.0022082054 -0.0025576903 0.003043531 0.003594874 0.0027296802 0.0030035616 -0.0014170582 0.00090101454 0.0039066663 -0.0019073621 0.0027160745 -0.0029171535 -0.0013770522 0.0004905271 -0.0032841149 0.00020496284 -0.0021149768 0.0010528616 0.0036395907 -0.0037636422 -0.0018645694 -0.0010346344 0.00036879498 0.0014604391 -0.0018406122 -0.002216903 -0.0037210947 -0.00023796593 0.00045535035 -0.0009351419 -0.00015978981 -6.651335e-05 -0.0038207849 -0.0027705587 -0.0033059928 -0.0024589223 -0.0007344752 -0.0012199673 0.0033814094 -0.0015097872 0.003652064 0.0035022465 -0.00035777548 -0.0037852929 0.0006622851 -0.0020621412 -0.0025667017 -0.0008452174 0.0009210563 0.0014276464 0.0023017004 -0.0030120828 0.003209549 0.000990904 0.0021290272 0.0018578577 0.0006749779 -0.0006490786 0.00054834253 0.0038575393 -0.0014096652 -0.0028968132 0.0036920796 -0.0032731001 -0.0034881432 -0.0032873042 -0.0016204524 0.0026755966 -0.002090577 -0.0008962012 0.0033651222 -0.002444936 -0.0027607381 0.0023248624 -0.0027754859 -0.00035769568 0.001553691 0.002623626
31 0.002945042 -0.002830118 -0.00356109 -0.003041515 0.0018547976 0.001166916 -0.0024424829 0.0030120257 -0.0010214536 -0.0038591393 0.0011874869 -0.00018469054 0.003249042 -0.0030395743 0.0011836872 -0.000251383 0.0030553688 -0.0012721979 -0.0020128821 -0.00027215033 -0.00051560404 -0.00249908 -0.003159159 -0.0013638849 0.00073558965 -0.0013725869 0.0008292014 0.0022121577 -0.0024304062 0.00013713082 0.0023431133 0.0036870711 -0.0008164515 1.3868983e-05 -0.0030803264 -0.0035606483 -0.0025134743 0.0025936745 0.0026577525 0.00030375912 0.0004185139 -0.0011984864 0.0016717644 -0.003133008 0.0016272031 0.001757227 0.0028880723 0.0011165191 0.0021660444 -6.786781e-05 0.0001971178 -0.00027947122 -0.0038280287 -0.002045927 0.003861517 -0.0018668761 -0.0017095621 0.0036263766 -0.0028206278 -0.0028868965 0.0038049787 -0.0024593717 -0.00350999 0.000937266 -0.0038853462 -0.0031061133 0.0038655705 -0.0009603209 0.0014940823 0.00092088577 0.0017383739 -0.00012081627 -0.00080527674 0.0015256348 0.0014854838 -0.0014822268 -0.00019270078 -0.00045507465 0.0013865619 -0.003879619 -0.0016405336 0.0006941419 -0.0012049074 0.0010721032 -0.0031802305 0.0026917232 0.0028574541 0.0010868902 -0.002498201 -0.0019151345 -0.0032873098 -0.0020636756 -0.00044004593 0.001593782 -0.0018754407 0.0006520877 -0.0016622458 0.0025750462 0.00066923455 0.00014729316 -0.0015164407 0.0014731451 0.00081932894 -0.0031379997 -0.0005465798 -0.00092792726 -0.001992036 0.0034282259 4.7836686e-05 0.0026422832 -0.0023736316 -0.0021990102 0.0010713097 0.002512703 -0.0006939404 0.00038133815 -0.0031893263 0.002310917 -0.0005208441 -1.7657907e-05 0.00033436035 -0.00053217757 0.0018801104 -0.0030041263 -0.0023890694 -0.0005617553 0.0020593326 0.0025140208
16 -0.00040873126 0.0013372371 -0.003633896 0.00301117 -0.00087483844 -0.0025319518 -0.001456787 0.002994129 0.002106811 -0.0011351678 -0.003084114 0.002005719 0.0022455468 0.003135913 0.0010243792 -0.002642512 -0.0036364452 0.0016377418 0.001746786 0.00229464 0.0021050412 -0.0031668372 0.0037586167 -0.0004294109 0.00044908046 -0.0024468547 -0.0035042022 0.0014778922 -0.0007966552 0.0026747661 0.0036031469 -0.0033505957 0.0036652172 0.0005144268 -0.0030679037 -0.0018783992 -0.0032009284 -0.00019310084 0.0027983643 0.0032425136 -0.0019253616 -0.001583666 -0.0011834926 -0.0038648567 0.0021730799 -0.0021347026 -0.0030766395 0.001138264 -0.00011249882 -0.0032803963 0.00015623683 0.0018450678 0.0021984044 0.0028174727 0.0021797481 0.0033116154 -0.0014571965 -0.0014341284 -0.0016490282 0.00021705458 -0.0021134824 -0.0027863593 0.0028749616 -0.0019163351 -2.4721926e-06 -4.7434223e-05 0.002564982 0.0016626857 0.00042722243 -0.00240552 -0.0029845499 -0.0036023003 0.0026119486 0.0019414594 -1.4552869e-05 -0.0011043838 -0.002019839 -0.001003257 -0.000671214 -0.0020431739 0.001884555 -0.002566562 -0.002854707 -0.0039026865 0.0035551311 -0.0016634832 0.001354967 -0.00138661 -0.001321841 -0.0022357164 -0.0035073124 0.000405835 -0.0008713049 -0.00280483 0.0017492214 0.002162546 0.0037711202 0.0015523715 0.0032514285 0.0015001763 -0.0032566017 9.773294e-05 -0.0025624197 -0.0036562264 -0.0011626536 0.0019665048 0.0026217164 -0.0036110727 -0.0011184764 0.0034031647 0.0008749432 0.0023059065 0.0032359909 0.0025063297 -0.0014965751 -0.0013349992 0.002601388 -0.0024189916 0.0010951483 0.0032678903 0.001976002 -0.0022008577 0.0027383168 -0.003175632 0.0026300857 -0.00078810356 0.0018624866 -0.0025130934
12 8.620524e-05 -0.0017315925 0.0014684629 -0.0034880224 -0.0036142257 -0.0024602995 0.0023657046 0.002490931 -0.0026134886 -0.0029102454 -0.0020433553 -0.0008569638 0.0032436678 -0.0015546931 0.0020423704 -3.530074e-06 0.0025853429 9.212244e-05 0.002431685 -0.002895875 -0.0022691248 0.0005078013 -0.0020724027 -0.0038369517 0.0005770424 -0.0034191129 -0.0014087779 -0.003444971 0.0003181713 -0.0004170616 0.0019790507 -0.0012080832 -0.003812092 4.5345263e-05 -0.0030506758 -0.0013537996 0.0015010973 -0.00057083194 -0.0033442008 -0.0014001314 0.003116897 -0.00032463894 -0.00033334247 0.0022965048 -0.002011939 -0.0019541357 0.0030660375 -0.0031655913 -0.0038859004 -0.0038295574 0.0038127129 0.0014812727 -0.0030837834 0.00031853252 0.0029719458 -0.0032740864 0.0033899483 -0.0016283182 0.0014597942 -0.0016655131 -0.0012488103 0.002138676 -0.0029151214 -0.0034945388 -0.00028821925 0.0014204493 -0.003197695 -0.002625499 0.0030491804 -0.00037782305 -0.0006920018 0.0019533087 -0.0035784384 0.0018527774 0.0015649139 -0.0036636533 0.00019636551 -0.0025150746 0.00078388554 0.0013524296 -0.001827058 0.0014139959 -0.0022347604 0.0014835407 0.0027001712 0.00011732802 -0.0017411972 0.0017023042 0.0011136184 0.002033159 -0.0010008207 -0.0009760921 -0.0007750814 0.0008961656 -0.0005604517 -0.0029514246 0.002702987 -0.00017837423 0.0033372347 -0.00037715712 0.0009133326 0.0013305031 0.0033062797 -0.003407191 -0.0008574837 0.00018746771 -0.0025629222 -5.3234155e-05 -0.00023594666 0.0012655465 -0.001028769 -0.0011711398 -0.003765181 0.00027953592 0.003451498 -0.0012320884 0.0035544569 -0.0014357026 0.0009615511 -0.00033923212 -0.00035638319 -0.00339357 0.0019756346 -0.0030024184 0.0015137384 0.003203226 -0.001986595 0.0038335375
27 0.0020911922 0.0028589102 -0.0023241146 -0.002634829 -0.0029975488 0.000464602 0.002917849 0.00056582474 -0.00076623226 -0.0015613331 0.0027791676 -0.0031049629 -0.0008928558 0.0020263726 0.0017730714 0.0009239761 0.002514152 0.002259374 -0.0001791851 -0.000120037024 -0.0018961685 0.0009461105 -0.0015281165 0.0035855232 -0.0030984872 -0.002292783 -0.003400783 -0.0036042274 0.002726681 0.0031817819 0.0015489456 -0.0034248326 0.002981288 0.0009753159 0.0038270818 -0.002288781 0.0023944015 0.0006359332 0.0026535906 0.0016801164 0.0019631777 -0.0015307922 -0.0015686897 0.0027191394 -0.0017356578 -0.0011818999 -0.0017377894 -0.0030425517 0.00051975023 0.0037239236 0.003427509 -0.0014689146 -0.00012296776 0.00075781747 0.0028258015 0.0008137581 0.00019102513 -0.0032506685 0.002229739 -0.0035207511 -0.0038346355 -0.0013728383 -0.0020604841 0.0029529212 -0.0004260335 -0.0016895675 -0.0028539519 0.002782915 -0.0006026862 -0.0023471727 0.002239902 2.9269742e-05 0.0037297546 -0.0030089226 -0.00096933724 -0.00025155916 0.0019105728 -0.0027371119 0.0025094969 -0.00068748905 0.00022680429 -0.0010253717 -0.0011717998 -0.00042380497 0.0018604168 -0.0019670094 -0.0010289883 0.002533022 0.0035531553 0.0010562653 0.0011561841 9.537684e-05 0.0025057592 -0.003354344 -0.0031010574 -0.0030061754 0.0038613304 0.002166103 0.001859236 -0.00013023235 -0.00028463182 0.002615482 0.0018330495 0.0020920238 0.002345222 -0.0013718006 -0.00095832645 -0.003732336 0.0029428513 -0.0021936942 0.0016223652 0.00024640362 0.002883744 -0.0012870331 0.0012978059 -0.0038627703 0.0018839622 -0.0016127812 0.0027973044 0.00026753536 -0.002703152 0.0029183715 0.0017764798 0.0008828922 -0.0038379224 0.003733932 -0.0037054783 0.0035085878
